{"Layers":[{"ValEmbedding":{"Data":[-1.1712270561698535,-2.907018826037326,-1.4650785819741563,-2.1446008649359176,-0.19007132299395227,-0.2547032404937732,-0.032597845065149664,-0.44821356722940225,-1.0849189362036435,-1.6202588888816734,-2.3785581449506377,-1.8881278609585839,-1.7595297794043077,-1.0664332601655033,-0.2317578879806399,-0.22557908994684717,-3.2057920405220233,2.4881806556256802,1.37066339095076,0.879006216061384,0.6076140156450686,1.499712083669888,0.8350006683532434,-0.9257885222051816,0.4809132591616413,0.8181178175081513,0.5248918197280191,-0.058953064098417635,0.8869553263316324,0.20819787890650873,0.6245680941716428,0.6316143261554605,2.3361485433736884,-2.0509490703323348,-3.2273984871140664,0.9564470752964574,3.3766442427506065,1.0473623000057046,-0.8428345996216795,0.4399626034734367,-2.0763180555671923,1.7659142627418576,-0.4140687004953019,2.765172275359809,-1.666486991875948,1.2142574112117799,0.3229557463360636,-0.2052506646670666,-0.9614483435598806,-0.26520265728037296,-0.028572202799945004,-3.822631894655586,2.2788346908884645,0.7844350532660141,-0.5669587146962687,-0.384089946908568,-3.790598682221656,3.4244276686551296,2.3091031112700344,-0.152232528436118,0.7378137342907625,2.1537304573708664,1.0660682042924736,-1.0128086180974667,1.117420121434148,-0.6721328356630772,-0.6331023201242116,-0.408792594155816,0.47514163868259285,-0.03153326888920336,-0.8257198067672125,0.4259364156347821,-1.1505283021524955,4.9294402152857,-0.9728683936198111,-0.21862393434319075,0.4673809854111168,2.517195564268689,0.032084394882162845,-1.0264878138608378,-2.316367164762096,2.0665635891810017,-0.26132793511312424,2.2550280121676174,-1.8298513772401939,1.4779411994625484,0.20686464930817783,-0.2539766176502724,-3.0794946476190863,3.1534542727191295,1.5639787565360823,0.5798942758319834,0.8703517430670934,1.631253245523476,1.002864560745401,-0.9327838868357188,3.219963692287202,-0.0400048127603968,-0.28025344744463565,-0.07849170390415687,0.7867046527132682,-1.0882018019595192,0.004153524096968511,0.5823345303389199,0.4256649865814522,-0.7606223618820072,1.363532686758735,0.8338351295139927,2.0230914776317332,0.439636221285766,-0.5072807031770228,1.005505907905797,-0.5038679992542165,-1.3009251484340147,-0.4699574097037849,-1.2142795403346092,1.1906853415117291,-1.5728680319925725,0.5438735775255605,0.32927267705024144,2.215854287546796,0.12420066561361567,3.4068824240492326,1.3174972920508783,-0.03482585797077375,0.28274120185458157,0.8034076396447165,1.2069551263178926,3.282677512146476,-0.5360954896713416,0.29777195919075433,0.3879231750280646,2.0304150583226055,-0.19719072648681601,0.1897073621088706,0.7362122518193113,0.848290294031848,-1.8621213237915926,1.6491502106797815,0.6611426512546732,2.181476922087431,1.6734857946193684,-0.7261743364863192,0.20888820084851942,2.292757341500717,-1.6373343469038555,0.05921377806621172,0.08496557253431192,0.48222145480700956,-0.7620881190733854,1.5481393676466708,0.041879405399397565,0.5980568348922418,-1.0979469387702228,1.903714516734199,0.4712690881078474,0.1935113029296816,0.7195588104226468,-0.4455492404622096,0.5532179214604042,3.7453790774033164,0.3146140805978427,0.9435835198651827,0.357683200825493,0.5792833275682135,-0.5130259146804835,-0.9194853232844921,-0.754321933775654,0.4314403405326729,-1.3762595539803468,-0.33477629506862255,-1.1032255907976092,0.9587524434880895,-1.6837863448923016,0.954707531058441,1.1439887720964008,0.010562571633793805,-0.5949102073569551,3.883899436908717,-0.8244415307508625,-0.916522988002125,1.5101812365051905,0.1580548788636782,0.6141443904965239,1.7749663616064755,-0.410177598487709,2.6282419191803315,0.02741952792036123,0.9926842415858533,1.6780607178682347,0.21141511509553973,0.9804211375848105,0.29070377662002167,-1.1658167485228856,-0.32853406795252543,0.048599254411056524,0.2686604260652987,-1.3936131481304106,0.24126596941105086,0.8658289746010913,1.6366306542567355,-3.7370380967005676,-1.2992367244747545,-1.0221100852641603,1.6598448345486407,-2.547239732067955,1.9450194288394989,-0.17358469542749377,2.5362174094136214,-0.19135968265337308,-0.3817918052571182,-0.38254497000584253,-0.06404119527280723,-1.5550382038994393,-0.0160501649655372,0.8413549816348099,0.2604366720582742,-1.6728233653894418,-0.7569385873135387,-0.7434063475832315,0.8207792242110804,-1.6640473032704346,1.0519901851415308,0.4769631142726707,1.2073076129482374,1.3559566360520046,2.4454774568522577,0.0967001991207719,1.6810407806686016,0.7575512491748216,-1.443969366641749,2.173687881010563,0.8905365405404138,0.8903325972843007,2.5370486166023545,-0.1925273779302426,0.5563988252144167,0.7859114397592121,0.11060114578630934,1.6695030885681217,-1.090616907282616,-1.4202295656750092,0.5272533855536176,-2.03097209267517,-0.16756889230915895,-1.179418408251349,1.308124652083492,0.009723304464514209,-0.6606255451259266,-2.032215654751644,-1.9287981257546287,-2.071385218986656,0.5450087139557713,-2.2658836851184807,1.0241928713301554,-0.33140754743524226,0.875144395705213,0.23135661445829492,1.1257114875136458,-1.6012829768162857,2.2179482131255184,0.19075161644192648,-0.6120034459168091,0.5692883191691659,-0.9470475801433045,-1.6194745620593847,-1.2298263323505365,-1.8262662971376868,0.3096321388429102,-2.3383803360862134,0.45742768096356584,-0.9460212127369848,0.24763039188885422,-1.9448441396369212,2.0125661701406905,1.4364833898189735,0.16977643296697134,1.6471298489134887,-1.387111557231115,0.4398775660578944,-0.043165391337503405,-1.4654462585298065,-0.9205304390146548,-0.6023680955010012,0.30537418588149723,-1.8120846017128684,-0.16659865388452927,-0.218387551688241,2.148716842335632,-0.7309794205742376,2.011657721701855,0.40758380415895096,-3.1505338760357526,0.5972647365666293,-0.0627501945808269,-0.044770749395145575,-0.525055370801951,-3.4392429541244285,-1.7390114813371995,-0.24583761172615845,-1.789137574968696,-2.376567232935474,1.2323705044664999,-0.767232528953178,2.733540297629635,1.6831496014529945,-3.2632191365270726,-1.8621042427169612,1.7259919379783846,1.6573602442114275,-1.6930982832623636,0.10887625950379091,-1.2922497076052555,0.7824545598106925,-0.025828601891466112,0.5676302924367319,2.0003919183783876,0.6277396231443586,-0.8180452484746731,-0.20340209433394468,-0.3410178598926158,-2.4417830157060885,0.21451768985466435,0.2629226454102744,0.03234725292932651,3.071983588141061,-0.017287254161744606,0.36218417095784616,-0.36894645543374444,0.22119314867770193,-1.049388934257989,2.428146598146982,-0.7059751911312421,0.7792649373107994,0.7383924007485041,0.34326803220403057,-0.03572706912270289,0.21122079401678556,-0.8657838297017834,1.4949390502876019,2.554877208236848,1.1010251343444428,3.825300098835166,0.37286941512270066,-1.3355123284123172,0.9373291512282821,-0.34301834594092795,1.2000371353229704,0.6186970830662629,1.3681483233418585,-1.1738104234049,-0.3428771269408884,0.3542515573860729,-0.7031463564138076,-0.03747627625165525,2.4266198714794447,-2.960790201190266,0.2919259421484171,0.9659736186692379,1.36005365552032,-2.4201279298416787,0.038696030445957263,-0.9209558142137568,-1.1033924612189876,-0.28013955845634997,1.080607793889902,2.536826457515147,-0.5939309024962501,0.1309632500286793,2.7578384854475018,-4.678600626188938,1.7792126209736918,1.3552569428390373,-0.8809979716955333,-0.3272040570866221,-0.40405257239445114,-1.7815295748159168,1.0316487441703233,-0.4633202434574993,0.4485828148821427,0.9013904584800214,-0.6796176488288682,0.7441874241675935,0.34769108967861156,-0.9014661089754377,-0.7891994525222776,-1.7173950850690445,2.98301446676797,0.48611805214593945,0.25644409089801584,1.4914427805089818,0.3442816431980755,-2.201660409836712,0.670145862316227,-0.8382459030585981,-0.6184883613189186,1.285256839884524,0.9170362775234502,2.7714358997422894,-0.8492839946299157,-1.5543787926600996,0.6899429536208438,-1.7213592455757165,3.0121285709342933,2.2174917290561957,-0.051474007322825414,1.2482266059276583,-0.2818217474747513,1.6871984234370185,1.4838793946265953,1.477946533413952,-2.4528322450716167,-0.5933800331546538,3.1203402473457897,1.212036255185023,0.40833937113973945,2.6016554776905383,3.245242700156038,-0.984789088297791,-3.395018036109143,-1.1451690564214578,-0.45631242997983207,3.2518165857724237,0.9581735468259852,-0.225948489877484,0.4114731847215773,-0.3244447271780304,1.2567555374991013,0.15386236864264913,1.0349494307870468,-1.2924389806565357,0.07450190755765819,2.329449082999187,0.6452462166458663,-1.8967736766970058,-1.7084777031409557,2.04751959979158,-3.515020609432669,1.1580175786710547,-0.5087753398699236,-1.2441434747681666,0.12855286519206027,0.46881427501030803,0.8457431868902509,1.7250442256294576,0.35717106803809484,0.8281816298505732,0.18447748376476814,0.1594365492699182,-0.13583157022871523,0.5155219379738203,1.478958571018195,-1.068130500407093,1.2623520587297379,2.9010768229022594,1.0581244407177226,0.8144609838371893,0.9055262311972146,-0.7139482457770753,1.3879757412791005,-2.8889755847579934,1.9380723568592697,-0.6559545453432044,0.5217636573521177,1.8372411090058411,0.5385625489116533,-1.8538715031093083,1.1582863322585522,-2.665164233498432,-0.6012932941026253,1.8687869425263643,1.1751274757689611,-4.336808107113838,0.5043538552219147,-2.549097064556452,-0.03956845295877854,-0.3124031859406736,0.15162438873932732,-0.18767126745337503,-2.731274945522158,1.0438441861705965,0.05419571788319023,-0.40723137461597403,-1.8058207860168847,-0.05725717437894781,4.485545928084389,-1.6490819653923454,0.0006310557683222703,-0.4549648661798829,-1.384548854098565,-0.7328360863955028,0.12831342560580014,0.3653507398600233,1.7473389263881878,0.748779103041159,0.13507715518104882,-1.0462566028686606,0.21000426460701366,-2.1521519019777426,-0.3882828927453381,-4.144070461531636,2.391235889979532,-0.9716125116258763,-0.7452910262806989,-1.5343215147968057,-0.6356051906728496,-1.2613620070160378,0.9546019442095179,-0.42934175997152585,0.4483696840000519,0.7264786129417331,-0.40994035089941316],"Dims":{"W":8,"H":64,"D":1}},"PosEmbedding":{"Data":[1.7083989520235086,-0.6622318387078043,1.0551897912033745,0.5749999404892242,-0.6497933438259155,0.7320022018542496,1.1431611873841003,-6.9241888560862535,1.6604764944597292,-0.601568253929941,0.9882310095348973,0.48947173622306206,-0.5766077659971531,0.6540514237254698,1.2599503597821224,-6.47043692059882,1.5434410846051578,-0.522490021895938,0.9000890194629704,0.3722194129267661,-0.5932001260006272,0.6804442340580078,1.1876539400910142,-6.019523562570072,1.4570051845547798,-0.5048096470715865,0.7865479434672337,0.31711978253676365,-0.5698121821231134,0.6843681299362933,1.1521384163038473,-5.551108256114669,1.3708691052438713,-0.5219541407729369,0.6918570688982876,0.278946353612166,-0.5318443792485044,0.7263659322577413,1.1049522456772713,-5.102854847296831,1.2651672031012178,-0.5261308887218928,0.6029054910977333,0.22109623722178318,-0.5012297583496129,0.7831260256987822,1.056635354862373,-4.6574186101009545,1.1719435964372422,-0.5296401935597315,0.5124623066202164,0.19623356449672116,-0.45198501354602044,0.8102705916813248,1.013838722899861,-4.220880046559269,1.0712979976510735,-0.5258275409852723,0.4108741408413858,0.1498673296478638,-0.4130154200810123,0.8345669503864097,0.9655030934615454,-3.7735710301499132,0.9784003617599835,-0.5203065055155077,0.3148593359134693,0.09982842449230268,-0.3633802125077451,0.8889176128840103,0.9203582693209994,-3.3358023041158678,0.8590351428786188,-0.5309186710188275,0.22251673519924015,0.0577612193166305,-0.32177734215138726,0.8996391150930544,0.8861815702414256,-2.9175016054931824,0.7564730636249848,-0.5416871896277521,0.148395670898346,0.01298631234930843,-0.2682097836656504,0.944774279004299,0.832819469010638,-2.465802052244112,0.6453533801315576,-0.5361564474530467,0.038378898999664485,-0.022896125830881388,-0.22335040248912383,0.9486488286200369,0.775818502699155,-2.025176178981724,0.5567495901261739,-0.5248464614137798,-0.021621137376458703,-0.06606333982214663,-0.16973145558062136,0.9989051101507485,0.7229527626550245,-1.595371306090566,0.4410250433553418,-0.5313546902347478,-0.11720904704639165,-0.12307555780660659,-0.12670110240411928,1.0261603089280682,0.6813765369363121,-1.1570551317989513,0.33485162168697924,-0.5360518241003006,-0.20829035531069856,-0.16846425471970447,-0.08641618274174584,1.054185300318649,0.6418754779608312,-0.733176019126355,0.22647527441936308,-0.528075662919547,-0.2950249497266349,-0.21028801250159398,-0.02719416602618969,1.092989101417773,0.587048373977144,-0.29549454561046345,0.1354644852669971,-0.5343247338933995,-0.38305822942337125,-0.24975291004486297,0.015473571718305639,1.1124612154151283,0.5398265292310562,0.1406547408952492,0.026974605686954933,-0.534867077558497,-0.45926512711489925,-0.29038891909517567,0.04769569413145629,1.144133652165041,0.49516752101067785,0.5737333875161178,-0.08366638140120032,-0.5375584042217941,-0.5473364147469174,-0.3226010577300489,0.11230993027059018,1.1781939600672346,0.4468853409635321,1.0155748833236777,-0.19634753759128643,-0.5329666936381616,-0.6226372202967494,-0.3912358181901487,0.16110002472132992,1.2166536403749753,0.39874244122613656,1.4273312569160346,-0.30065314136525345,-0.5363882263611373,-0.7120122628720722,-0.4315687018182267,0.21833131580910137,1.2374752247571035,0.3576381968231699,1.8660087410755808,-0.4177487749713751,-0.5199706194053659,-0.7841908122768448,-0.4754833487215488,0.250768217889532,1.258231551304139,0.3002520762044313,2.2855806106051375,-0.5229161039316967,-0.5489956386037841,-0.8741997347251286,-0.5244777260277256,0.30464520223108393,1.2917005070318854,0.26356355289422,2.7204567104855406,-0.6286194674116055,-0.5225279950693033,-0.9430884228893229,-0.566675697995304,0.34442155764238985,1.3347125164998943,0.21777462890734653,3.1562089530232935,-0.7364295849503895,-0.5300160368808675,-1.0363015441051522,-0.6040400789207154,0.4149009616487439,1.3642161650954572,0.1563791018456254,3.5982553683167438,-0.8473887683773788,-0.5429179611541893,-1.1247998479144872,-0.6544566976856621,0.456738170904756,1.387042419768377,0.12678364198056127,4.013587628570389,-0.9585368586720237,-0.5353250325742203,-1.192461152692471,-0.7128522149347822,0.502520254806273,1.4124586635835088,0.07594049595102384,4.459425375416615,-1.0723109167795282,-0.5373800118264332,-1.2806701899496113,-0.7583570963781329,0.5507747036139042,1.454388883724612,0.023814981031905793,4.889842824441355,-1.1638731684333057,-0.5442616217349695,-1.3670736347836452,-0.7880979253558115,0.6077959097181247,1.4738680503322583,-0.020075417879519004,5.310458078998573,-1.2873736389098616,-0.5366620170652304,-1.4458514233070385,-0.8352093499241018,0.6392502789812922,1.5017660623868285,-0.05635327021971392,5.756235395622552,-1.3917406639213377,-0.540761538585326,-1.5298258770326731,-0.8739405490271541,0.7034934690850188,1.5336957777128442,-0.10835633646932312,6.182823797060075,-1.4892396481262433,-0.5374084525005238,-1.610460693503152,-0.918764783087998,0.7505392537133244,1.5765312211741296,-0.16055203305525495,6.617638093073503],"Dims":{"W":8,"H":32,"D":1}}},{"Heads":[{"KeyWeights":{"Data":[-0.20880398517360704,-0.07524480666384088,-0.10202613598681379,-0.40721364902351864,-0.5726769519422299,0.20327650720661034,-0.475929517566193,0.3518252964793292,0.4848711146465957,0.31867220629782744,-0.26904655602157024,0.09106879905804373,0.16255060001907726,-0.30811122135883207,0.12495109872768326,0.19780982928758267,0.016261338972975544,-0.32915618489712223,-0.39918230810296584,-0.4778984833470826,-0.08472356964509938,0.009732827969946931,0.44415674908243824,-0.3455180246347559,0.09828712295119459,-0.1072754511358369,0.07108457650745548,0.023284587212215803,-0.044013625748247034,-0.10813838511046095,-0.09861096408213206,0.1479757172265389,0.1711515658778031,0.013748437199381838,-0.18231552637907175,-0.05817727846004327,0.3770274541792795,0.018696405111707164,-0.555159066149392,-0.09758247446843415,-0.0024695502648900513,-0.20146865229552452,-0.06362904750433374,-0.1973575260684885,-0.12887356185237703,0.7059191404447435,-0.819773459100062,0.025164309467876945,-0.3198005975173814,-0.19497963722021722,0.05803253081738587,0.3660582759393805,0.4168696063771324,-0.44259395090016984,0.05730992657001414,0.2563136091580885,-0.10014297931105083,-0.1323752513516984,0.13682216976241324,-0.3058458293014316,-0.3377650993492458,0.22846637530140632,-0.19216084846378412,-0.2486764484242502,-0.12940377110393242,0.45738857288174795,-0.012660662311553869,0.2760894308480977,-0.23640583937240575,0.15418316732551607,-0.47720634391393185,0.4900780179966481,-0.00032198204071172095,0.241863785619567,-0.08878597084299243,-0.1564346262619396,0.10807322988613274,0.1285170909739271,0.17947282628055258,0.27166952326225896,-0.12721737276741638,0.4785595760234967,-0.03741113762539551,0.12143498692365111,-0.5019409624096076,0.4654928679927427,0.011061569838316559,0.3413485755992975,0.11618210772855313,0.4935704790769709,-0.20303104788033471,0.30362679085742145,0.259161231198119,-0.43093835337277564,0.4427131324027981,0.1409414129894678,-0.09740306638114453,0.12064124625130677,0.6005707086095449,0.4192266958035434,0.05827406912325665,0.11867769522976235,-0.000673597468335311,0.7214675250875388,0.39456399244186374,0.0739985399124304,0.3321995737331145,0.3044008661102769,-0.12167840093451023,0.17828050334228895,0.1393835690730627,0.1185085047940465,-0.03470494729034367,-0.0814310750927882,0.005944507219784133,-0.06872956803342854,0.02417137887748744,-0.039988100897875654,-0.16674466653395803,0.08759821320677338,0.14509761825635145,-0.04063719217465124,-0.0037535457067056645,0.0038724471149804945,-0.11180361733843405,0.1111636152681216,-0.17338134630044824,0.008257336943834723],"Dims":{"W":16,"H":8,"D":1}},"QryWeights":{"Data":[-0.07588320483946091,-0.13390369649961906,-0.05498441306331319,0.11960649903865117,0.4157065229736549,-0.301675387162989,-0.45980526122506293,0.08810648973215267,-0.038715885323634125,-0.2269795697117447,0.016334468705299667,-0.3395505799348288,-0.29690219291778874,0.5566369909848544,-0.5788532624956704,-0.10783189781920223,0.031065773440376383,0.34044834761453086,0.3215299607624425,0.6079808997236026,0.2690068153860695,-0.03304567365777704,0.14080193568657226,0.25480061724057795,-0.23256600132329697,-0.04213977054173232,0.2414246897132342,-0.01740597510029277,-0.06440258901599108,0.2404888893612114,0.15880840954864894,-0.0045710213489158396,0.19678597270811832,-0.09795112687611054,0.23392976749580502,0.022939330962368946,0.24084234479911895,-0.16381599222198037,-0.30418124970038585,-0.14954262102444243,-0.07450070307652124,-0.2316070491779514,0.03310628138290088,-0.08568913897129506,-0.04534103240592892,0.26063665957716003,-0.20698138855209694,-0.11637153945574714,-0.04019603048592072,-0.002856665917612515,0.2429511565250664,0.29908587263463765,0.33566509693330937,-0.04805064099120558,-0.01453986929936371,0.21549039051535054,0.06656148225234991,-0.05707040440130213,0.11452944759471273,0.07586693521043993,-0.17401487973199517,0.26831695355064517,-0.2777261924855748,-0.1771255873276928,-0.12358400519642092,-0.17584920481855335,0.2494059326134351,-0.06937459895626119,-0.11173970219946432,0.05704363326171352,-0.04983282493950635,0.46134761616952125,0.484282208669985,0.03216506119830391,0.19911774506936325,0.17532510722011382,-0.08790075442749695,0.061260079474661645,0.02188565028786308,0.1913095429147417,-0.24996334300564005,-0.3134346179716533,-0.016727851374027373,-0.03155083461880319,-0.05164224417539795,-0.2732250975426541,0.5741759911073298,-0.053539659538175514,-0.02538099872591823,-0.003144456543727899,0.08566037009633659,-0.00008794052345102813,-0.11097865960344652,-0.4499298660132765,0.36035381119996746,-0.1756377686497875,0.18939113824662632,-0.30828975109716444,-0.15815427649923927,-0.3427080505313061,0.14961035732240768,0.0003630767935996787,0.45471215482670646,-0.4295523690262928,0.05996086212299477,-0.24674057642628386,0.1647518370589965,0.1475972375740996,-0.11514783573174397,0.05920674882057519,-0.24043659388027908,0.025116705424048938,-0.34973800288973544,0.869401232978432,0.610073783660289,0.43815783337688696,-1.1492871402843072,0.8645347894259027,-0.07854013923559204,1.308230636864549,0.6604159099338985,0.9982905523764298,-0.11043681168196116,0.8241941619680988,0.4573640320543774,-0.9213801358322838,1.3002236482463652,0.41397447759786193],"Dims":{"W":16,"H":8,"D":1}},"ValWeights":{"Data":[0.26152000888685356,-0.08216184377179536,-0.2697903652774899,0.03291682600139844,0.7210210592743601,0.47059640060943314,0.01221522236341234,-0.08147756806855697,0.012579365736633385,-0.23431245560457897,0.054981401479424596,-0.03066105182543628,0.227455170473215,-0.44375369686881055,0.007734273953245921,0.38005963597231085,-0.19811710895728957,0.3448673265877835,0.12810315155211144,0.2083568990263934,0.0315693943556886,-0.22557840514058086,-0.09358819524402319,0.2446182049734059,-0.06949747610632738,-0.0814742335769794,-0.4954074970600442,0.5079908728256033,-0.5304358867934806,0.119480438106367,-0.38604670201844726,0.07691888584648257,-0.29702818690475025,-0.14022862528193128,-0.046848757562669055,-0.20163739525553726,-0.4402243072993071,0.04768985406006151,-0.6209289351407818,-0.056377065618150875,-0.2217555854177601,0.5878401767621406,-0.5925163430959532,0.03952641211548017,-0.35782834172710337,-0.007940175552730206,-0.46559118446914605,0.046269992259987215,0.13375477620213974,-0.1579573729555571,0.10791027268307551,0.03753523199621541,-0.05217108800837304,0.04986413890792498,-0.48901052771956716,0.09708115829602325,-0.11802562868771586,0.36785062840230076,-0.46415316622810177,-0.011247859338889409,0.06118462444601282,-0.3521463725834609,-0.2966743928016126,0.4472657065794687,-0.02601568638795689,-0.188738394544736,-0.08294701864087434,-0.12012410002732729,0.0866853496128341,-0.25065481991997574,-0.33428810566109923,-0.06807434532121093,-0.2945266673986306,0.06262296767563856,-0.08656167038747033,0.2558074461880232,-0.33075005351125997,-0.031473749679139996,-0.05837309617898783,0.28964803670453754,-0.006819612456791353,-0.25475113526248366,0.012599061919670241,-0.135812797067369,-0.4612498923180336,-0.453948192723661,-0.510698555381299,0.029463022085110747,-0.2794506628774105,0.4048737868647704,-0.4615774838906566,0.08648831716406187,-0.30215254602011565,-0.1969261959992005,-0.26705769144942904,0.4290584035235447,0.018634592450956063,-0.1096414345672547,-0.00039246919507003093,0.04399110190080467,0.2941488911136809,0.3091762745961566,0.0033051639448100976,-0.030045447847708295,-0.03546939403918907,0.02218937851003437,0.3433157766962631,0.002805509945821535,0.10496028894523901,0.26424448486261853,0.14915952751300843,-0.17648024398096482,-0.04482354789045483,-0.094202259371254,-0.07032974931770687,-0.048292167073202025,0.03648202248529983,0.4436820216389407,-0.21285362474478717,-0.05465870045661154,0.010414520648985553,0.2779738557222128,-0.13785420262041803,-0.1654948961027126,0.12971602266832755,-0.06683169387767339,-0.1644130948813862,-0.049198154879329596],"Dims":{"W":16,"H":8,"D":1}}},{"KeyWeights":{"Data":[-0.21187311350991386,0.09458489029987104,-0.0065305393703396115,0.18150578265645914,-0.07743855168748785,-0.3621247766760547,-0.3825444053809995,-0.3641357661164398,0.21606332706310735,-0.17865831361277218,0.006887153508694587,-0.4168487113490594,-0.10586381437901708,0.2154804250078331,-0.030271746940895138,0.22739849320480943,0.0240450908519624,0.2231084599136886,-0.5552746888098393,-0.002094934731097827,-0.7101679729006594,-0.2662393131925853,-0.15389472380237879,0.14041060427658825,0.046562645990692396,0.27520588475401336,0.8492693495579674,-0.5583362765157078,-0.3247324487250919,-0.12025393011575156,-0.12312293150537376,-0.6833454828368917,-0.46840104290200496,0.20494243879511675,0.08186834398699785,-0.4854503342111188,-0.8786504510246551,0.21119594955555623,-0.23885466565122113,0.6500911684963904,-0.0082624091690725,-0.46921747371758066,-0.04870971734441778,0.267165833586272,-0.5717628423055947,0.009702134006185843,0.23140311959982054,-0.17805551302277461,0.17134683395470457,-0.23173808208044477,-0.4413398174797194,-0.4019555328850211,0.11849331377200538,0.4245955583323096,-0.11161411103847342,0.5375535254431041,-0.2526876051956136,0.21908952731525233,0.012813175201577884,-0.2323265203533256,-0.03150980177538337,0.008173418106101824,0.3974126145788478,-0.24791122923644254,0.006865047323376714,0.47416404986401495,-0.565419905441013,-0.11617732126098783,0.6724424446489365,-0.2999611756348118,-0.13182617894186077,-0.08843001600989074,-0.12533445358367193,0.25167237953333915,0.7637932234974283,0.006123108091924252,-0.28615563882041195,0.20501377182431596,0.004968003798461729,0.5983997133023914,-0.023051156240703932,-0.36455113093235203,-0.21991656998576006,0.07106544374522952,0.01852043268863576,-0.33502629448562615,-0.6522201014287918,0.3828570018459007,0.4099778802070834,-0.23738047082621064,-0.4401709708044233,-0.5465200420114448,0.36142082957793986,0.13721255348921668,0.2659986926110608,0.170064151504486,0.21589419897354742,-0.39598497029253166,-0.36013585405376164,0.1886432028903335,0.17485559380239635,-0.19061397271543434,-0.23115379258040775,0.2815640784848803,0.3462051658011528,-0.11121862162274969,-0.1648931779435942,-0.370995735979618,0.45582736701774373,-0.08994430936832959,0.0827398861431535,0.15226596226679237,-0.09482415222208507,-0.047095894448720046,-0.029003859291455367,-0.07539081266929361,-0.2417939111240844,0.04052751195045097,-0.09960656399037474,0.07984985887751651,0.06744057314857255,-0.15352962233673478,-0.0851842231088819,-0.0847356799557742,-0.08932402804674244,0.02125956795403923,0.056043066438854566,-0.06126479824218212],"Dims":{"W":16,"H":8,"D":1}},"QryWeights":{"Data":[-0.5134228492845058,0.3997713231207151,0.455751740357867,0.016360709062400128,-0.8615742366050789,-0.2141765844848386,-0.11936898690104317,-0.19836467653079204,0.12944892930673355,-0.40327731103903436,0.053878805636512254,0.1665417010218888,-0.5042737712450674,0.059894647155487424,-0.18828874232266066,-0.1272529575571206,0.10357521590898064,-0.0034736029646509348,-0.2966967492872688,0.09747838721852332,-0.35104238671885507,-0.16848108288941815,-0.012340910955495648,0.13461777104149966,0.10584020507858537,0.17008021342542395,0.39346958796680576,-0.31276380846649776,0.015829730038862122,-0.16087055959915797,-0.10680892998884989,-0.43386055583674754,-0.2558627220389463,0.021584546879402856,0.14682732608083113,-0.34419858906683226,-0.18105659178227873,0.2316013367396759,-0.17864633755568537,0.33183492754155447,-0.09934187591360095,-0.2090923807406865,-0.2935371989603251,0.1514987040386216,-0.22990926797368916,0.12222673907001706,0.2698136096523506,0.015841151728713226,-0.08870658140261944,0.00047379289783705135,-0.08067650145012446,-0.18402997412576388,-0.5017670472611385,0.07689074494437123,-0.08614482914099843,0.3676218813687254,0.030413574085120732,-0.11663792525411386,0.038169813012189885,0.006716803359241257,-0.1615246358416583,-0.07285222171417449,0.07198218012906352,-0.2858427439401754,-0.05306422042243804,0.361281823743188,-0.6858625991556815,-0.06890177673578955,0.1831024356124317,-0.4128166983444149,-0.42007141493244377,-0.0752710707469025,0.005671147128406176,0.23626085663118096,0.776890151489388,-0.535686596178025,-0.33852192122560193,0.23103739407517182,0.054829586808821704,0.1938719385267679,0.04670699231738603,-0.2842912989588975,-0.007164240988103448,0.02866616207997476,-0.5123450319855374,0.1626127369726919,-0.053049342195251245,0.04940097108160055,0.05484524244368281,-0.027609346035539925,-0.17000110947068275,-0.3843287849833037,0.04808959131457884,-0.09418746103020043,0.048742620279992065,-0.5268298399927093,0.0720414296728722,0.15464431237788215,0.2791080380314717,0.24640879920859818,0.023760467694349252,-0.09590902003179493,0.27642594834697637,-0.5774193198733589,-0.12260160760057857,0.2795561407414633,0.16166325099728537,0.022312286608327063,0.004311581522519281,-0.015798617118836716,-0.28894160106753125,-0.22530633007128567,0.14940327446824386,-0.6766123448080437,-0.2660030222985182,0.5854502692354473,0.5063054779327193,-0.7980339052735264,-0.8647527222723906,0.012605676335052305,0.8492676865890095,-0.37191521951937756,-0.7482436999192369,-0.9272027904403249,0.9368151067621386,0.19383171371258087,0.13748328533798407,0.6538793818179385],"Dims":{"W":16,"H":8,"D":1}},"ValWeights":{"Data":[0.3014965909464745,0.6178301385302275,0.6225725511567751,-0.11862662505960483,0.4403504513682499,0.6001670735428855,-0.4039062192971963,-0.23306082231186842,-0.18715480140392318,0.0568177896879456,0.33212594300438514,-0.07079266907223367,0.9498113380800391,-0.21771622376612687,0.2717547608408202,0.05583847039274144,0.18303076841792448,-0.5674713876606895,-0.2784346817167911,0.27436080115059136,-0.5457013925576523,-0.8647782296827984,0.12497837702046732,0.4883992870199074,-0.5844731899461199,0.4900202897247025,-0.06976173498503463,-0.5650209746419318,0.46371090468010867,-0.28430461239202914,-0.06383128799726813,0.12871888767113082,0.1771173736403391,-0.4100371454670291,0.20141545725613139,0.4712362518521707,-0.12049586723350827,0.6918117887879447,-0.05412460746763469,0.19333981281532034,-0.22557146474450138,-0.15701847156810703,-0.14995255408283598,-0.0339285276655249,0.46624050250470167,0.3567270617173476,-0.5147272873361576,-0.4776153617343461,0.04895679551820694,-0.4870806429218089,-0.2998684971361647,-0.3108113757945519,0.3747236400324753,-0.3407760427690124,0.30647704037102336,0.22439297017911156,-0.3334254237899128,-0.46509777640471467,0.03162232667257846,-0.4890054418348427,0.45663859643643967,0.4976959768234367,-0.5717638091460022,-0.04355881382676596,0.08691086007797161,0.08255328052250807,-0.12701035679154707,-0.029657493761267507,0.13750415644622635,-0.18599861396756748,-0.06928689511452536,-0.1807352795847786,-0.06777046425350465,0.05765004109528718,0.07417928626432005,0.004426028708760802,0.06304669138114499,-0.1048470171897046,0.30458628374667446,0.119568699082878,0.05419309083233248,-0.5435476339365033,0.3600463107279217,0.33249590003776647,-0.521140162581352,0.36557414074574424,0.12719672867242005,0.7288184155993404,-0.22786040865105825,-0.08406623187737865,-0.21378259279936984,-0.2852865271404836,0.23100252106165395,0.4307167472539516,-0.9808762969267383,-0.4392144490577128,-0.14572479713308917,-0.05926811940075845,-0.22571692424436626,0.2222441125681332,-0.03561640407981414,0.33304675215129587,-0.0156996047255369,-0.336107618476122,0.06779222209423903,-0.017521356337841663,-0.18430344616872685,0.17081156655648924,0.10635947014616567,-0.11590831922454088,0.3289164493366144,-0.038670049368696835,0.2941792722880692,-0.14692939631174956,0.0829597725492121,0.31124261103711637,0.1851530113918872,0.29808265827855496,-0.12432145076299661,-0.05278765666230655,-0.15291915129587974,0.07017117006871078,0.1085864792656566,0.10669862865870264,0.2928046063187898,0.004722891157419575,-0.15555246445082987,-0.2682543597083942],"Dims":{"W":16,"H":8,"D":1}}},{"KeyWeights":{"Data":[-0.22461929125670146,-0.366249420841423,0.3051245731448712,0.060122200605565466,-0.4110878496090232,0.18627662754851118,-0.7135124755656204,-0.7382925119259633,0.8469326866871754,-0.41929060902334137,-0.03491035335206594,0.12312137733204312,0.7312579253481225,-0.569534509395271,-0.27127572981544673,0.2106295975603632,-0.1843719804757111,0.4139258249741057,-0.23812236335388345,-0.7864603023682467,0.1200499820826383,-0.7655911846575766,0.44044557585556926,0.7361846517652807,-0.1607780014087282,-0.1889629969757072,-0.08403155867248184,-0.1456412718303067,-0.15648105126911677,-0.19399955021376702,0.2513706711468555,-0.14957001283127822,0.2385480765279359,-0.10984185315568908,0.24705669623786092,0.301795304632307,0.22421905794307145,0.168605983024892,0.07361765175441422,0.07361486773398182,-0.16501235174113876,0.1601761347978119,0.7448181340268614,-0.6020672859121148,0.2617204742583086,0.4097566125579015,0.08045084704329515,0.11518455344426129,0.03219529387956808,0.3457659356713699,0.23550072996124202,-0.03164290211502873,-0.14385227622917865,-0.3073689753268114,-0.17466924208018983,-0.0366938221439044,-0.507116812805534,-0.1194906011427382,-0.5276465969499434,0.46219732792077955,-0.2910054669074257,0.27489074346624454,-0.019912561990900902,0.06804927154985625,-0.1508079131842178,0.0574736170327213,-0.3302116415356785,0.18108190087991866,-0.37860082607968326,-0.5929112942770478,0.2238843084127182,-0.33938577596736197,0.39491179918919167,0.039863806929963726,0.03372675938433396,-0.07645195671757216,-0.13944727058756035,0.10557107282956166,0.4652173927653499,-0.26826089311969425,-1.0162160611466735,0.05578720678627714,-0.9540154063549725,-0.38409667234418726,-0.18531711702255155,-0.0929700800763229,-0.08935175360116673,-0.49136129202100826,0.3807114942871476,0.37314413852553396,-0.6776931147411124,0.4329123565314307,-0.7075744490201563,-0.32358672714385933,-0.18540291086433255,-0.668154508914662,-0.43803172249540273,0.9944975006010315,-0.7477406600425314,-0.25313069983485414,-0.5374452362731532,-0.4643843192511886,-0.420390735168645,-0.33989335826239725,0.8662166560903721,0.28347310918180463,-0.41569115075768404,-0.19552018777729757,-0.43924046346769163,-0.6702836284845014,0.2866116199354692,-0.32319235705425964,0.018912257567162298,0.013670179219339478,0.160734911841311,0.09366343167492516,-0.1011707927685856,0.06901830367655859,-0.2202722105294971,-0.1415574307330918,0.1475151777955875,-0.031076728820775532,0.1067968089651642,-0.05356560071962389,0.2140059114310893,-0.13806251276429327,-0.08775482854680741,0.15808712339750022],"Dims":{"W":16,"H":8,"D":1}},"QryWeights":{"Data":[0.34320493873751434,0.3404604567164434,0.16471858815983628,0.000592311171103112,0.1051302397339418,-0.32316282193946033,0.25981611419496053,0.48300689844525496,-0.15251572131867955,0.029154042540880127,0.5467904886838312,-0.5715611905797006,0.16073459301868318,0.13207699761890712,0.3057634305370136,0.17123221561132065,-0.1024712148544052,-0.3630802596497956,-0.08046115261470249,0.3575511394828349,0.01329747836739372,0.1834841923204696,0.008469952813686562,-0.40083383130285605,0.24538876442554744,0.1933316440473191,0.5057552143197922,-0.3676112853715553,0.15228536604827328,0.28024150214987215,0.07204881319259286,-0.14211236245305617,0.5897762040359581,-0.9423878317972167,0.8226643496864409,0.4732890919741201,0.44203325205136057,0.8322629796986828,0.09405678218646459,0.14445165518479994,-0.4676702566728979,-0.22193242123498996,0.5737712991638644,0.0075896527252309835,0.6895057102895376,0.36180145855587276,-0.3817321389675635,0.5020617223510777,0.3726967903600462,0.20484367767893136,0.09539363369504483,0.08378062762467339,-0.0717845731751087,-0.03843639738464172,-0.03042737896474173,0.14205408165758368,0.3971318191324164,-0.09665392264792443,0.35315628781589925,-0.46863473928190275,0.3215374771732696,-0.226920227577279,0.26232737003490464,0.17723800495857633,0.20994731891773583,0.015176817515261128,0.2144380236182724,0.4880709419826929,-0.37851834160779174,-0.20573380126971264,-0.13169170647418488,-0.4576187567926124,0.04704210223409355,-0.08942765155409592,-0.1585154661374839,0.2493874266440012,0.002928957682512126,0.25116962824480993,0.20356962428804823,0.09106205827574324,-0.32936882883058194,-0.027888270580921724,0.1269884860396549,-0.3503439632673989,-0.3748201471607815,-0.3181513489261725,-0.435132156542618,-0.3280885737755294,0.6063711265251761,-0.46961388985441443,-0.2482229972013073,0.18477517434231386,0.4478805851036703,-0.5743111346162829,-0.10351821443527345,0.08325064189504362,-0.31062283455767853,-0.06589346818924903,-0.5442861261792429,-0.3363829394376369,-0.024601838457163412,-0.5326609440735787,0.5823429983915471,0.21777964909121098,0.14834096987734824,0.01672644239573977,-0.09842957175733032,0.03355483148131788,-0.28785209283552204,-0.08164340712429617,0.30263817259490233,-0.383417343563925,-0.825244154363194,0.2353542823809133,-0.8762772927345565,-0.04098832425244892,-0.5589063552728629,0.148966267950111,-0.602855528441217,-0.9330506238814291,1.1824686946768734,0.3644148934234231,-0.5255419375254854,0.18895524036630182,-0.3119839141337869,-0.8469690627810854,-0.15423979554382333,-0.43023709869570165],"Dims":{"W":16,"H":8,"D":1}},"ValWeights":{"Data":[0.3835598239263988,0.13150548540812285,-0.1800687248499031,0.015514799541159925,-0.020984898934374486,0.19177331315013885,-0.031765282793719006,0.15389986701925007,-0.006506756822124172,0.13672167381541867,-0.10713732632848291,0.12474427115876074,-0.18774435396579206,0.126974896348876,-0.30469369791756784,0.0930625800763721,0.35868852061001505,-0.01333726866657916,0.1199590358702253,0.380589241434816,0.02100701815280631,0.026895182008246026,-0.05086703054474336,0.14933545475047974,-0.07736981542512249,0.2455666929331416,-0.13981079237609742,-0.028437175160154884,-0.19797750656509913,0.21776150894619453,-0.004893481851589942,0.07976768453171892,0.1053602555880192,0.2561565575465117,-0.7406141513278581,0.09925605632569194,-0.36701213737527144,-0.007196312818566544,-0.2484688314783139,0.1653732312134983,0.13227836422952194,-0.32095650937774267,-0.07816813406759814,0.35300178619127687,-0.30743843631672596,0.015297523754462502,0.11532818978975733,-0.016535992939753337,0.05834554073165647,0.09967975140969713,-0.28439801600721276,0.18178257872792325,-0.14772462875349737,-0.1934608539448256,-0.10831578169829707,-0.03717164293762508,-0.1591526048271775,-0.23768519372920793,-0.06600817446960827,0.12210728212694334,0.1589793546330004,-0.09300961234037587,0.2325040725270035,-0.22523058772621118,0.17760723573376994,-0.0077700012472310155,-0.2921645781722705,-0.13121167047582655,0.18497870759839818,-0.07660036365254098,-0.01625154332662335,0.2713546926275142,-0.1332881793054056,-0.258151839912121,0.1587269615264669,0.05893349315167474,0.18066258546296096,-0.1446687380982402,-0.043691021989538156,0.08932161137117833,-0.2001558840133922,0.036681412033658566,0.25998154881674584,0.215167401329048,-0.4454206932433003,-0.20355226715415572,-0.3995476663783539,-0.29147893752604914,-0.2163510308208086,0.0403280806747626,-0.2862863774484273,-0.03709699240294025,0.13528994130000443,0.315961480961633,0.2271409984668974,-0.2821169841661509,-0.5331775485370231,0.08893640324116735,0.140282780848967,-0.16976572815430263,0.20504578644066151,-0.042864959509298084,0.26548902585206546,-0.022350985814745417,0.28805277946126007,0.04959893807883222,-0.16121029331593403,-0.028153340654341216,0.0776594931987172,0.14822570177445588,-0.14577199701849303,-0.1838447346777503,-0.09517771967448735,0.18973395702139736,-0.04358313870066601,-0.04936004329989564,0.04899230127499035,-0.06417766865691882,0.029909765598168863,0.032405903113963505,-0.03754184435145185,0.008535500307067139,-0.2669799519608896,0.07159587914701217,0.19377773997732692,0.20475542672756183,-0.21273797906416406,-0.24742838938168565],"Dims":{"W":16,"H":8,"D":1}}},{"KeyWeights":{"Data":[0.27699279589252296,-0.3336589968152062,-0.21827835272810764,0.026077520310783354,-0.1874731167820924,0.05677366710066303,-0.04039669959135331,0.015438976828765777,-0.04476614990719631,-0.04455447500241809,0.10513774048201788,-0.28827977838950697,0.28633593698331455,0.24156770608169859,0.19325462972754942,0.038579568132171685,-0.08878157846584907,0.19250907559075803,-0.09746686177084878,0.25010161779934187,0.0396289462084247,-0.012543838238839767,0.11781969888225786,-0.1977586791689851,-0.09045956095924691,-0.31339308408442257,-0.31427958984504084,-0.0821540353902576,-0.19352357885439528,-0.23841145659005242,-0.049525030194814086,0.030634913766448713,-0.3735607515178761,-0.14364998147138314,0.03032133705496374,-0.4577005658085917,0.29300159409365234,-0.7862049323761531,-0.38125213544640524,0.22409061319639198,-0.004530958192588365,0.27926782144360135,0.3032754283123029,0.1963177094833041,0.06046482553828573,0.2632462142661586,-0.40334538103157147,-0.38339313204900666,0.0910316576541781,0.17741550060444872,0.3528737991252876,-0.21546941928241828,0.24278492376470986,-0.04134353050165674,-0.14819188090531876,-0.11895825195983405,0.2982297103381347,-0.21004050757732481,-0.004865911044494665,-0.14280249554048377,-0.09930137910380375,0.3365506924715859,0.01384582542623011,-0.011882225082747713,-0.3663509715882208,-0.2536284641597132,0.1148810843678268,-0.027679275115078644,-0.1371751700247342,-0.23870376655478628,0.07539465701809697,0.31195242148590224,-0.1546368398759991,-0.027772887739837406,-0.36356383181495905,0.15277549332327556,0.06858156646910307,0.1813798668624197,-0.018404410385764413,0.0024524307569108094,0.7635774644206692,0.08452704908212347,0.02024455875278058,0.22645047472603666,-0.6573175939293753,1.1354605826663127,0.524455376787117,0.12925633516728507,-0.11867659966950447,0.12191366241917362,0.21971127528149922,0.3979379302900017,0.11541853553196324,-0.01007552622716854,0.5095767209906557,0.2766314748756622,0.2497518089010752,0.3938462654688088,0.056260219970885164,0.20419847197727709,0.02553506307781525,0.6772178421212305,0.22319682333524665,-0.11539113959345972,-0.0443678032786682,-0.5896989196004884,0.10252489432344151,0.06675198074079507,-0.3837490108845092,0.07757078294325305,-0.3008405787432994,-0.1918125938564949,-0.001664860487112148,-0.0020621080651493564,-0.04799584170823834,-0.15207656978750403,0.09227147456120657,-0.08796128724983437,-0.06462070277267266,0.002519243764893168,0.05659107396333111,-0.033976195047720585,0.11381448271856298,-0.127231252053993,0.03207595265569281,0.10473445882924318,-0.09345348431772134,-0.13063729273428895],"Dims":{"W":16,"H":8,"D":1}},"QryWeights":{"Data":[-0.47804761515417715,-0.37706777546073156,-0.01175112456593145,-0.5278295107208095,0.27826841957072684,-0.9764899422921185,-0.4540851065975461,0.29094939886138194,0.027732251973839616,0.3714380268466212,0.2150778923321421,0.0005014725366603208,0.23867277971863707,0.33743025534890037,-0.3068440869190924,-0.3253097318163734,0.12132148687255773,0.32340477823695124,0.18832900574736613,0.05799239547258799,0.08435802351766034,0.37188721572693245,0.11413672855500459,-0.05568165537770303,0.03007805189466781,-0.36837666450255124,0.04512843323671049,0.17620114007269796,-0.31849646602568793,0.13444676625879318,-0.24050533356153722,-0.14596476364388425,-0.1100553920197413,0.01891596324803709,0.17832787410624584,-0.3382267188382429,0.43684954535020265,-0.5160298673854244,-0.45250545756417526,-0.11837121309299985,0.281381577122221,0.07802780282144313,0.24956123925052637,-0.21239556617236202,0.0008993897804856481,0.22952874078729615,-0.17024204504928855,-0.13872371618014015,-0.28206417305130516,-0.1830961095127734,-0.24430474444347283,0.016642273080364183,0.09453818521239704,-0.40171500634723695,-0.1775237131623952,0.06920739196330339,-0.171268581254068,0.15158725704600298,0.1141812162041836,0.027549090990356455,0.035410929494038,-0.13928688694151517,-0.2717308720882635,-0.1668301753799119,0.3581989753033252,-0.11412598501914188,-0.19820507000793905,0.03609673797102358,-0.11881847613736542,0.062306104903826,-0.0504883913963631,-0.14735304414807704,0.04710984635018331,0.21249046398530175,0.19776456455147845,-0.15777351220032076,0.22447851484494336,-0.06805973433968719,0.29607192594222914,0.14887625756814873,0.007746343353793969,0.1432671634482771,-0.12580507124577936,0.1176734582840942,0.12020146677986758,0.17365747926065347,0.08397425710947241,-0.2042065260631233,0.06543917391810707,-0.32051864854674395,-0.13417226934030152,-0.34628220070681964,-0.12269764223589266,-0.11747303571266311,-0.08831559508489975,-0.03190188817548778,-0.18727858078056145,0.2039007580193232,0.020723574032372103,-0.15664355590766083,0.20092047829687967,-0.2529919780352369,-0.10620713164358246,-0.01885535826126033,0.04345311692602231,0.3172379062952501,0.18964140138676613,0.23512211561789434,-0.10706911459891183,-0.2698765120412695,-0.17741898027827013,-0.10672539273617968,1.3619751379924228,0.2946627729083509,-0.0863765968054367,0.49452281310523105,-0.8618883934036345,2.1453421422836922,0.8399989635501184,-0.016808086545828622,-0.13601573241667048,-0.43495014217569533,0.4129741966841779,0.1908028587233081,-0.020787306451513294,0.11969842929389492,0.5260952696750661,0.24419581522345102],"Dims":{"W":16,"H":8,"D":1}},"ValWeights":{"Data":[-0.06246703455354649,-0.04406467075175501,0.11221200695512673,0.2099705737859739,-0.4479236497683519,-0.38686655256023533,-0.10963480373417399,0.0014237113446835166,-0.20008109466028548,0.11844253165523135,-0.43517894269177065,-0.22413651537258542,0.37650571705572433,0.12541823319845474,0.11093996874696281,-0.06192616238327063,0.3179489822703712,-0.18860554604673496,0.15006228993116486,0.1874049494203536,-0.058302384171420744,0.24625165555597675,0.29274696591575716,0.22600679981017108,0.49348539291847926,-0.2645155498793856,-0.10791314387405243,-0.3730749468911583,-0.7747126875512603,0.19290528367824358,-0.1730352649540718,0.546320354990539,0.060311805559029534,-0.2392647195537515,0.01877740023647436,0.178906116751373,0.20405784743959096,0.11570128363032428,0.3818214073751844,0.23286396768129625,0.364641807733932,-0.029843474272246578,0.14023560178694566,-0.05337792995180696,-0.395635178281452,-0.23841242083817027,-0.3289550804531578,0.4505777286491369,0.08553055020236647,-0.24982121731214682,-0.060473215308052324,0.13877936672271818,0.07780706956142244,-0.004430609536001187,-0.06267814541943324,0.20776087892622977,0.09943699605285478,-0.030122847132788975,0.21646554255304865,-0.39330182283660997,-0.0715485240392957,-0.13835599815516506,0.23694704636119931,0.3223571751307382,-0.028589968178484786,-0.07043355476484073,0.06592283182915733,0.3232999455377001,-0.34437346614536213,-0.22132945410424096,-0.026581596079597765,0.17285864015072602,0.12899823392774676,0.13334266069293135,-0.5313910662091558,-0.2916474683508773,0.22159183073502725,0.12324719690250299,0.007403822019927963,0.16729047574168066,-0.04634248566663336,0.13862334910332139,0.08310014123722885,0.21208183627558197,0.33397931205278586,0.007557396550149596,0.3560287308954977,0.2810107909061791,0.5115721660474103,0.037514892285925104,0.09709478512254127,0.19535966389821247,-0.542749905188808,0.025525642248219436,-0.19577634904049038,0.10472131172956056,-0.013203882350366037,-0.12977297837250112,-0.06063936402949587,-0.176585453930691,-0.0800288101248673,0.1608640981263524,0.13850400865190615,-0.20023883020339317,-0.1665813218305892,-0.02029322430181746,-0.2742700306109618,0.321626765697628,0.14179544337493127,-0.12675718594219906,-0.5736208114911329,0.07912673015893137,0.023089871371281993,-0.19415925445137827,-0.025067649483170078,-0.017473509320735072,-0.1880557063473533,-0.0484347314616597,-0.08480308088700539,-0.06741672231149522,-0.21921416792659867,-0.002221546419385788,-0.10632343647773328,-0.13899076986806935,0.24974438894307222,-0.09313085125263965,-0.019517792820555144,0.09404592704501716],"Dims":{"W":16,"H":8,"D":1}}}]},{"WeightObj":{"Data":[-0.13573985547427816,0.141736372219048,0.22398513621633076,0.029710726052428794,0.03079476895125768,0.06971933720324607,0.0281242187564007,0.16984789934739875,-0.08081916974822816,-0.2897994368367468,-0.31856946921867196,-0.1944832999399738,0.08018939920690987,0.07109194146907127,0.1623655556150864,-0.1598533126366658,-0.06700595438294982,-0.07400629038617522,0.04778349225077574,-0.051977918144031264,0.019662044148625955,0.04432957288833789,0.12678700995657655,-0.219858894958089,-0.07726609431699823,-0.08766799939905277,-0.032349310929281484,-0.04021921353009912,0.12434584290618045,0.035415094567656354,0.2114508596561269,-0.05182191994169872,-0.01942033280251229,0.028186151101715948,0.060098467166870166,0.21004111705248793,0.2433934431779593,-0.11609687842488206,0.1868778484510533,0.511567893578089,-0.19452865363854044,0.3049056898554677,-0.29441563129988013,-0.15004277329857427,0.02498732080957359,-0.598745414398466,0.0255605194616451,0.2596255588598692,-0.1371150861569229,-0.28620588358621507,-0.09212800958966796,-0.5951860495817773,0.12894586089859558,0.15645478193205742,-0.05890264177857408,0.03991516832206329,-0.040036245622766815,-0.07565102628775294,-0.024835176106399497,0.028261796464084825,0.07692493734118792,0.0801845278009403,0.18711844329123975,-0.14044705168391616,-0.19879436438808884,-0.06688220442179293,-0.18855919149779823,-0.37214615834296744,-0.0047490107913343346,-0.0686271228989166,0.01816110516429276,-0.04323547906722574,0.03621419388631686,0.2969658161526822,-0.0008038589781480174,0.17439911178689815,-0.18202097881223347,-0.2741396357284539,-0.016259041734436586,-0.181658825596992,0.03358313343114855,-0.05131677774613774,0.3511567246207693,-0.42423111422309595,0.12794838504095635,0.008248236812513299,-0.23724561739278446,0.28600016694031555,0.22908371962177743,-0.24453379205662504,0.024634108372748098,0.3733084532075259,0.1621840681350215,0.2181753880945783,0.2159737507635223,-0.03553775597673344,-0.3522358798728679,0.25822552294848344,0.0704192742196396,-0.38881159172544333,-0.05967428782180231,-0.22756671611375198,-0.09567167379234959,0.150345014907171,0.2252934839188126,-0.2423595936464735,0.03970094117057326,-0.2430266000936777,0.1210857571809336,-0.03919104779773917,-0.01770154228184387,-0.16001416946845648,-0.020949249068822836,-0.048241616020649275,0.2902156491673042,-0.3043406440165912,0.051812918516126114,0.0979763996475547,-0.1940521880038413,0.1718682575355585,-0.014976221565627003,0.20624276447139034,0.2401674117173816,0.5862523228556388,-0.017095370571868353,0.21033508954613817,0.12565386156714656,0.16865035107288429,0.15160003554397483,-0.09568395250738945,0.13986201261117842,0.07306652718369404,0.14418262531683942,0.16266336325358377,-0.359078572382603,-0.2904750807878393,0.18250172372097104,0.16160636426790248,0.32375906721944725,0.11860360111186502,-0.4442789875396025,-0.00286793156468334,0.31111385320792107,-0.039602101300271204,-0.020015166178507078,-0.41241767843270183,0.362459293538305,0.3631156342887059,-0.2513962931239351,-0.09991833588779396,0.1374603249353646,-0.09975094091183125,0.1803724762370902,-0.21124189835297066,0.04975135224745679,0.18458299091231076,0.3065973951870221,-0.36820139248332723,-0.34588532480385764,-0.020575642369227747,-0.1332728597795138,0.23718249286713913,-0.08644154144804614,-0.3526626520923551,-0.3099228774781474,0.30773556975603145,-0.10090718277533779,-0.486210833323252,-0.3064126909363326,-0.45253234814279647,0.17939938205141592,0.036587908442535656,-0.480542330292173,-0.6305081430423557,0.12057502253816356,-0.22146904686244281,-0.17374361787481277,0.039963613435295996,-0.25013664013715065,-0.09750971032143774,0.09216029451524442,0.07748678695151805,0.08467502393334914,0.11479721058886498,-0.11037856831173612,-0.39304488714411195,-0.014008210279114794,0.2860485967720757,0.25334432738440943,0.12598470276720433,0.009978007813094781,0.14908846216955385,0.0563646772852791,0.08051867023703264,-0.21888449748771538,0.12802754458694637,-0.23198067281960702,-0.209994282196646,0.3891990567481956,0.07565453606383,0.42231658886242435,0.09351217950983373,0.2850087415361821,0.35179232451119136,0.30149323309315634,-0.050302899310732486,-0.2400228375190043,0.10200879741962117,0.11131138858779543,0.07368870794759967,0.10816443426706403,0.054338998163591175,-0.0556567817327123,0.238351495259063,-0.11574584825182303,-0.23287817416184275,0.22575627329232636,0.06941633187263382,-0.16997548451373704,0.15840475545276347,-0.12062326610810768,-0.3086426005159397,0.1153600639727268,-0.10969696257662626,-0.3442036205052869,-0.1336298175025939,0.6574996251852534,-0.3620070707873429,-0.07753466176016031,0.14868615390009746,-0.543645010752079,-0.22098707880498009,-0.3793763371683535,-0.31653402882465725,-0.34609958531299306,-0.20352828018518618,-0.11079913032334507,0.060442821670342324,0.16651644806295324,-0.10697713586202201,0.42372379270025,0.5810083719913784,0.31424768366738093,-0.1865008884122405,-0.12309057027621843,-0.08446871453267114,-0.0023246798584962173,0.13520306868766171,0.10849136573719989,0.3260182662860238,0.1378024643557376,-0.09683195155871158,-0.058447449731362705,0.20267220042481401,0.13241474622449048,0.17053299626270804,-0.1168369435726432,0.036635824115235444,-0.14447151385687493,-0.020268476777746982,-0.15375802482958992,-0.5963853738657839,-0.24727992399793833,-0.1868251890271242,-0.011938076053556023,-0.12586096853236103,0.11232619457427438,-0.21401705915669006,0.011730072868585788,-0.13876603781678487,0.10230710148346657,0.1663843474567582,-0.12518269289503928,0.5438782310790333,0.09259607273693526,0.27858585181106077,-0.18138392710717102,0.5786056771036904,0.1757243595936485,0.06610386297953967,-0.211018683500739,0.13671795857577151,0.13883029624423365,-0.18131883327845488,0.07099065321952656,-0.07075289048638643,0.1503782640667526,-0.27189275098042537,-0.02803183842961031,-0.12825962847431832,-0.27749926661297536,0.1959343067878667,-0.41786024838111613,0.10026194911587422,-0.021784662877203795,0.2589674380650037,0.11549302616350134,-0.07005413078561212,-0.04165517560177085,0.2952755307888111,0.02177815100961821,-0.22050645013644699,0.0052139377267420945,0.021271474382930568,0.00800443168509943,-0.19604337730077442,-0.16397000075665968,0.2966538075106821,-0.19041083938513875,0.08735942233359663,0.07155744960986447,0.21359238237241354,0.05034200204477734,-0.24131930329055348,-0.17318375191878968,-0.09232415864060158,-0.20811643910415034,-0.28263124972190745,-0.022031399291949187,0.05428779534886586,0.1935935298267518,-0.2927431481480014,0.008686388030974695,0.27229211911369156,0.14735713583845747,-0.014947431703820777,0.2119482331324328,0.03725881273822227,-0.06527870786049839,0.24679138325300273,0.09895771120617468,0.24665049746597983,-0.11981340316456406,0.07318177159983491,0.21688591874102028,0.07099696618976789,0.1296595576982551,-0.12472048296625039,-0.2631154935986955,0.2984604125851774,0.05855606310131427,-0.07300050566684985,-0.28388901966442465,-0.21198617307381667,0.042445889741175635,-0.20355770825863173,0.041308277645370706,-0.15731284283643737,0.09882699734099971,-0.2465960255179132,-0.006136114452709491,0.009169977416848857,-0.1746219570843862,0.1936221806478087,-0.05811027041482423,-0.2898062487102337,-0.27906722676177725,0.35862339715579883,-0.1650723964896573,0.27071779569336407,-0.057940066713299064,0.20042502699844372,0.2518440850223292,-0.23150226446703953,-0.08924657556630164,0.09675656115683393,0.32116876806369815,0.1624642443141855,-0.06453442503314999,0.049522676014875346,0.036368603508760415,-0.09352193452318848,0.29820302826154044,0.14201610647473456,-0.06310555821738556,-0.4120880023748906,0.17103853358078458,-0.09590035639114598,-0.19341397196959062,0.3355715839708854,0.01956253866257853,-0.24776324008105022,-0.12659433089359792,-0.19922300129541173,0.028667060863860585,0.08698537968292,0.12226056436500048,-0.10772673436864912,0.13884969563156133,0.013687090132534533,0.0955409847185372,0.09562279918305351,-0.09548496604435444,-0.038388001860339575,-0.03781706337209629,-0.027985902868006483,-0.3258548233793814,-0.12210118379405036,-0.3240271409502941,-0.10838462782693381,-0.006635390964103339,-0.031050179986754488,0.009800886965108592,-0.15986091318348744,-0.07034089509737924,-0.06287835899035205,0.07482957130716035,0.07572392989664761,-0.039836041644793874,0.06625421378115698,-0.048557164582739315,-0.10599217504297506,-0.04126426555725833,-0.18889314076748412,0.352081653875011,0.2454301084381238,-0.045477362788697205,0.3649501102910074,-0.10133414562571855,0.12712828628072792,-0.11226076250722812,0.15100911068063472,-0.40076507689845137,0.04065279547654845,-0.043253789795897904,0.15012979048304165,0.04963016324320298,-0.011550303030439569,0.12293027988058927,0.1694670430542048,-0.23600809722717378,0.04283345804245044,-0.07187250593554863,0.10203054618473792,-0.1719132140363923,-0.21123011294887337,-0.07980892175174444,0.11379354678824,-0.08778986243756631,0.2604838256890464,-0.04551468712445126,0.2248412670383804,-0.03889370987455106,-0.05519409402947544,-0.012463281470000706,-0.12473996961178126,0.21746398042350742,0.24880999253720099,-0.15851254828111735,0.3356741812818962,-0.07686302366449134,-0.21013999938846967,-0.12319416249660296,-0.11938746664373241,0.0330278136018029,0.4080858232814995,-0.028075754666729676,-0.08726075336520457,-0.10612226438712206,0.10674254182645618,-0.1043388308436935,-0.0632690019310349,0.034734860224198125,-0.03977195886505866,0.11237072938335972,0.46271889776658987,0.13614304490218773,0.24710137744400512,0.006807693659335868,0.23125019351340945,-0.27652030812861866,-0.07197269727271705,-0.10865317816817326,-0.14370867437349458,-0.29672294346833417,0.014228441345251567,-0.28872187804623,0.19510828485116413,-0.6657568096205567,-0.1864555307641669,0.08668714809833221,-0.4666288317315285,-0.016570784770823573,0.39702578889332857,0.07094700943755229,-0.03422466469134146,0.1833507460975295,-0.4047143889026818,-0.07311732729933808,-0.07129483298577187,0.08323891117745512,-0.2255744799231244,-0.13117683197754396,-0.2276241528334923,0.001048650224395176,0.015212201879344392,0.10821752761749545,0.17507867491439802,0.3208534099210817,0.20992698599959617,-0.013032797585324107,-0.23908001422003092,0.24538749372559354,-0.15454388636034183,0.01109227098575031,0.21471582350295657,0.01522104704860808,-0.1197000098161404,0.3131172265936567,0.05340117368419584,0.37829455015921115,0.3666102999516059],"Dims":{"W":8,"H":64,"D":1}}},{"WeightObj":{"Data":[0.7098956984486333,-0.08095915480051055,-0.21547577350711303,0.18484300088044112,-0.5510268685865667,0.16116807115486254,-0.03654224945631389,-0.31937090985425814,0.019219674795268694,-0.16892446226425972,0.06953631988059047,-0.056011956960924064,-0.030717545251927946,0.04041624571367486,-0.025161056105690537,-0.14915401238877335,-0.09756586336547833,-0.0387040155730231,-0.011088469647948308,0.1408258621843976,-0.01885737613747957,-0.1116871639127677,-0.016893187580850923,-0.14361182889013394,-0.1210156439256161,-0.05649792453429438,-0.05327929890999086,0.13975889512962167,-0.018737849440787248,-0.08743572694126626,-0.03381974703338361,-0.16077058686555176,-0.09939573918040198,-0.04600596321160075,-0.06115744598296454,0.12598197524637228,-0.021336348909480017,-0.0900665280058687,-0.033620454914812435,-0.1473441159304953,-0.07850081864900749,-0.047693906597128195,-0.09814759633979757,0.13110999097055065,-0.008013907641762935,-0.07765061493122143,-0.0113919218908627,-0.11191592130167675,-0.045402301055815365,-0.04541200938587208,-0.11067669829423668,0.11691758195733552,-0.0035341562150493036,-0.07780557711946777,-0.012582406232928948,-0.09955436974799538,-0.03474230608652225,-0.04355830092365676,-0.1268342191523631,0.12057466396186337,0.0006430091009835018,-0.05686191252412829,-0.008768660362039259,-0.09697940752347387,-0.019177488244321535,-0.042665810816573016,-0.12465310038014947,0.11624636933602711,0.011226420770473797,-0.034363409958933826,-0.01252148277756019,-0.06907880359759334,-0.01677175704353138,-0.03426556557085431,-0.12180474997314343,0.07023489497715593,0.019326849515241967,-0.02341652678890834,-0.0116599064439054,-0.06670023729698295,-0.01499183049153373,-0.03456892821561556,-0.13725994895788088,0.06399262098399708,0.022082120490911367,-0.009835782046257341,-0.003769828632562268,-0.05027754352724311,-0.02507816500034638,-0.027156583987307466,-0.11937641427877865,0.0695082078192156,0.0014109031328185858,-0.005696238727538527,0.004583273400862405,-0.03146600406951078,-0.017120378239582144,-0.0023653096386961575,-0.1288519675958559,0.07090432725196097,-0.0034862729381124734,0.01370003842910251,0.011750860575596713,-0.0015306954813413848,-0.0011745656623088937,0.016188869520696928,-0.12501585614266988,0.06075111644528098,0.007100964425598613,0.04104768835513035,0.01213469643671175,0.0011805074015721385,-0.004851380447417709,0.020086079732700327,-0.11880973747209457,0.04130134957989298,-0.0038309220964264476,0.05565130482356478,0.009919075184771024,0.010738548720249728,0.005177222170011842,0.048726597327493605,-0.10718107488908421,0.03252284535836825,0.005430038660769802,0.08982809869463272,0.012339990477180745,0.04497081285250921,-0.0053956957816750995,0.05843086179400669,-0.09396818927992719,0.012153038642519738,-0.009548051792310885,0.08328722931999058,0.036634000720050824,0.05794726028312995,0.017250849857769087,0.07578677133885246,-0.10119665076123262,0.012912538379416624,-0.013716200775026277,0.12134963714540804,0.01779329159409416,0.08003551822255993,0.027043848311873078,0.07301553803199311,-0.07116051397588136,-0.006254634261334152,-0.02544530798208463,0.12905179048704749,0.012671194454307876,0.1105509499254059,0.00925717283593064,0.09412965704723043,-0.06466508131315811,-0.015137358969892743,-0.04261287616548215,0.1434124219619099,0.015532495985822015,0.11997337666709751,0.015452254395777762,0.10658520048582268,-0.07525042492805888,-0.050964799024875995,-0.03825741295756865,0.1633649958060822,0.008931136075603861,0.13293520352849178,0.021147949268031544,0.1280865326231008,-0.04796005424592613,-0.07086734967094843,-0.029821163539726046,0.17837209130365186,0.009624017864935093,0.15355910219932706,0.01505549820586255,0.14177931265076812,-0.03516707787664159,-0.07022714206243512,-0.049849269527688464,0.19175862737832375,0.017494725208610524,0.16606433888876843,0.026201043652208926,0.16685769172171253,-0.023787432855452637,-0.07848594862387985,-0.0598614959372633,0.21485817993547435,0.031421632158195094,0.18871157968300656,0.022374285533695408,0.17770482641721064,-0.011678149768129259,-0.09113811812787868,-0.06592259592573473,0.22880125708506985,0.02876765194000613,0.22278148559069705,0.010682334598733337,0.1901468537593302,-0.0065756548956849735,-0.12290654600220705,-0.06551907295102294,0.2335955882753461,0.04561470774422944,0.22819874769551757,0.041511734664451114,0.20697993232703343,0.022880844134302195,-0.14362496286388002,-0.06459932943191779,0.2668704887505147,0.030866355772446265,0.23662547071722648,0.025294109245652893,0.214221299914494,0.014484672501515944,-0.13340839914386501,-0.0835780705822151,0.28793398018875754,0.03348885359547067,0.25829366599573356,0.013846945115733152,0.2400453763596032,0.029824275451868172,-0.13935318512406336,-0.09593529436075912,0.2951661563397237,0.03968732559707946,0.2913503257060146,0.038323090144653967,0.2463696742871899,0.05063892792959377,-0.171466839846278,-0.1080546281279983,0.3152505615622182,0.03440012708007451,0.30341355020172706,0.04233469164559501,0.2724726040453471,0.061244874791591596,-0.17556100672098357,-0.10403494211551718,0.3321382364840948,0.03320467195474615,0.32375918325138586,0.06282198821418747,0.26644276720218213,0.08044792942729455,-0.20374690482852967,-0.10350766283064396,0.35611495345642485,0.02629563485264473,0.33629464466924325],"Dims":{"W":8,"H":32,"D":1}}},{"WeightObj":{"Data":[1.0540618068334426,0.05073103761210829,-0.6156258171052094,-1.1301253469257075,0.10602254618650951,-0.14805489751964127,0.0037354743434292606,0.31938227867544683,-0.10912354623474098,-0.8092546718544578,-0.1495500760452013,0.574102810664283,-0.35681894414717524,-0.5328201806432048,-0.16703305377205419,0.3065151351219087,0.5933229033052947,-0.7921628990830515,-0.8586913434181822,0.2928472536727534,0.465974168979368,-0.8618665849321273,1.0680635892937478,0.18984417275601972,-0.281991440184993,0.12311971527968626,-0.8408841832204206,-0.12395468614748573,0.5581333531941794,-0.2201510540290848,-0.25453713833866265,0.3811117892880845,0.3223425363321028,0.7239943613813806,-0.6752913899700032,-0.1827399186241203,0.07241669083225868,0.05424736363529113,0.30665242483672966,0.9134806371294147,0.8287090960070961,-0.42623947857720845,-0.21617328415268122,0.6955181642100302,0.4602028486281942,-0.29926288070968055,-0.6878838603646786,-0.4968837151877589,0.0842706647305576,-0.6617251808210114,-0.42655566033113784,0.07598283393112404,-0.17653197652105096,-0.8400801340922633,0.692349175643712,0.332514916336779,-0.40193004064094867,0.06829494847574573,-0.7686227235149555,0.018182429879711692,0.13212460922293562,0.08292696400526242,0.3405464711627433,0.10440436281815892,0.7910643843621099,0.6338162392731788,0.12156859574242541,0.388526179366075,0.1682708528140764,-1.0864838820264302,-0.16123898560645952,-1.0149129662128045,-0.35241807447128726,0.13030288239587062,0.780843982967406,0.5791338253864543,0.4005693415049827,-0.828842088416293,0.17878833885357062,-0.6453834091261217,0.5127002464894989,0.09186110260092306,-0.3528268342502224,0.33917112538452154,-0.6145010289964642,-0.004427093909637877,0.37033155751370395,-0.4345901921596717,-0.06497942669393111,0.3368480720983847,0.19040384013145517,0.319189295611747,0.4140386032043353,-0.44014548229566436,-0.7033101332366319,-1.0043168568730794,-0.4516210501361782,0.19122682025865925,-0.16534373391189658,-0.4004548969867374,0.20149177597203824,-0.3306926875633889,0.21510537801930446,-0.5792106429205426,-0.346156158260262,-0.4409923027729182,-0.5957583917808031,-0.48281764648357023,0.24951453868478446,0.21106752841834034,-0.19821574959324054,-0.3471899395514707,-0.35610234786103434,-0.4137639980505955,0.24224266790163307,0.11212589184060262,0.2796257193404893,-0.2532118053657903,-0.694249518278285,0.36709126125627767,0.3070985284010879,0.15738573500181485,-0.152013607955445,-0.6438329622603045,-1.0008963646879194,0.7434099668648666,-0.7294001960633749,0.406262554565019,-0.5745095354767644,-0.15601270475466902,0.3507662397639396,-0.2110942962778079,-0.6663934390691069,-0.18033357328668911,1.088206452467602,-0.06348082706646195,0.2239647733884835,-0.10396623312086976,0.32419907141313564,-0.029873129191390464,-0.1252266272595952,0.084436616631167,0.5654767348679633,0.6708668626025485,-0.32104507109115604,-0.1642059338633291,0.5451964202628001,-0.7118341811166327,-0.214550197270388,-0.21408113887452335,-0.24422605065463318,-0.11779767128135225,-0.7548518972789312,0.22287645617342747,0.7888554124062612,-0.2606625595849229,0.21636613701591867,-0.31986682188027676,0.7878880313337026,0.29805775737338935,0.16054216988250689,0.7857731306815038,0.5699472727856066,-0.10583415188131005,0.47257384838205024,-0.4388295224117317,-0.050689699403230315,0.08867214574222577,0.59503794945651,0.14537347315088459,-1.3631261709966056,0.32679398502499896,0.634990362794166,0.3240316432321131,-1.1879393807971579,-1.5983630647707192,-0.9555302457087101,-0.07871593501926584,-0.12016462196277637,0.1599054512047508,0.33892905752813407,0.571683976528519,-0.6033035029447607,0.8607936850120103,0.25537011889363914,0.8417405865638112,-0.5124090451242992,-1.0410560513788167,-0.5382843553461192,0.32840367930978215,0.6454935706472755,0.43990174011158556,-0.20329440261040949,-0.19376794006585307,-0.4264628599892746,0.01964523152346843,-0.20449673132746657,-0.050026545507924944,0.1763281704045349,0.817141593854345,-0.5262137511997581,-0.42536856760772795,0.29091492790750584,0.16355072600641127,-0.0915090075707859,-0.16260565301315377,-0.10847257232739464,0.13470542191126483,-0.18854242062876933,-0.5594518662450579,0.3153814896924221,0.06637963761829949,-0.3901138545489882,-0.3294188057909702,-0.07524638574276363,0.15770903614915022,-0.20103705427134466,-0.12644320367198444,-0.26684832228545163,-0.5433725103254528,0.6373316126781596,0.1395223961782077,-0.035619211114171066,0.07756459084723853,-0.45542584763723926,0.39704096425503305,0.4473830247683074,0.3169970556775896,-0.07520067444282566,-0.4477767360378751,0.6073895730531411,0.2832013992311776,0.10316111230559338,0.18254169119859234,-0.600704957406977,0.11450019062944114,-0.05364015600915083,-0.11752079275176115,-0.5765501919950431,-0.7611703153635064,-0.4635303267436548,-0.5628629018510349,-0.44563905334440845,-0.4046394666898154,-0.7362565494965433,0.0692929662840162,-0.43501224964314517,-0.43425522577403713,-0.15114876006409914,0.4147087543651381,-0.49285286904798903,-0.04374860281596495,-0.1495553047210286,0.3380147130368511,0.14201336940160092,0.2212768046147156],"Dims":{"W":32,"H":8,"D":1}}},{"WeightObj":{"Data":[0.007013205412963038,-0.2429356072708724,0.23616013310201978,-0.30091346450187856,0.6326697147960443,0.16897592683084148,0.05622707265333665,-0.02935318497313487,0.14751482896016474,0.48427038750478385,0.19582545609481913,-0.0983654066313486,-0.3226385053304239,0.29784393377715707,-0.3600856735609767,-0.36393300993470773,0.38439045268958905,-0.06387044856222232,-0.08789103173014778,0.5486263039626195,0.1717676371385466,-0.008916245426757329,0.28645076522077223,0.08110180677607348,0.6996894092354159,0.1366804162966342,0.08665184958859357,-0.13972119431421248,0.32544452176263716,0.1330677435041629,-0.14195300997099392,0.3188040624734678,0.011670315062374878,0.18693886403104826,0.19646208465571685,-0.004650954656046759,0.2843372318479658,-0.049544968660865094,-0.15406671628015234,0.23202656514533324,-0.022046576300609192,0.19904195476714032,0.11820193073329169,0.058132999313514136,0.045625290158458,0.3831287519828058,-0.006400124776647652,-0.12004976348137084,0.16951078372245848,0.04137959703725458,0.0809408020856797,0.07393451382403153,0.04422572933286916,0.1350450247284882,0.07625017245973041,0.08974830119885858,0.10969750970364396,0.08839758349655127,0.013665702193692179,0.026129583768751442,0.21768226121995501,0.08819166000485082,-0.07279469040647141,0.047991668731813604,0.03266423869127916,0.11724838752564716,0.04445509138999934,0.11941692171385411,0.3489959163338743,0.03376787702806293,-0.009130865149006798,0.1520585448360792,-0.024969472793411194,0.0673154670327612,0.0398249475763252,0.05827798852023231,0.1933584912745685,0.18618804843407322,0.052923212925473855,0.043861869204543706,0.05065915321428114,0.02797034031808703,0.050789883345725845,-0.01287583634803057,0.0049155514087826715,0.15370242021753752,-0.004969758007321737,0.030538030900595065,0.07507239395488237,-0.10574718608575524,-0.0508021168071372,0.014582672442049423,0.012009565598493088,-0.002052783440576726,-0.04963231400601523,-0.06978744662002645,0.001774023476626583,0.18786857199234555,0.027051220763079017,0.1779765981885408,0.33211048014450345,0.024252756716982713,0.026950697483404295,0.13604471988243802,-0.020591227142138274,0.038054351427901326,0.04558652071050225,0.08523209250817998,0.18007721513845265,0.1599821793350543,0.02821172663335387,0.051978215055706586,0.045809454569427165,0.05499494563255807,0.06677887876725419,-0.0066839847696780405,0.04783511964824041,0.14128891265053867,-0.0017124523186088539,0.03514245833702439,0.04849589197731856,-0.07799486899003591,-0.024095406518377507,0.010820672941688599,-0.017329805018076277,-0.027785963283090204,-0.02822431592924548,-0.038423567446867264,-0.004289342857720667,0.21440818697685943,0.0217010793042889,0.18825543551572455,0.2807738185682001,0.0253437176110864,0.047251158825517225,0.16628045364774333,-0.020599902015856854,0.01289424977708262,0.02672294515953868,0.10446114975640569,0.16782390917147505,0.1726714716874103,0.04695777569330175,0.055389375802676555,-0.0029058555592937946,0.04977830214686942,0.0504589683257356,0.0005881306249617057,0.033393923459407185,0.1586782880868276,0.008594849093585516,0.05525564832049016,0.029189757330277524,-0.08683288083799878,-0.018860123994439922,0.05006334198330194,-0.049310337297584605,-0.02195748952058151,-0.006571919756386052,-0.0031906278350138906,0.013007588910966709,0.21850666094849613,0.04380191562383012,0.2074724046631885,0.31995637550625516,0.02729737024334842,0.04962277038322313,0.13658858530546175,-0.03623331007287181,0.008281122961040801,0.044974924903349846,0.11293510719729295,0.1763646735561883,0.14434084248103035,0.032293340342875454,0.06481234196108278,0.017825598628489342,0.04404495218641683,0.02784776682938258,0.0055374947828906555,0.0322535776466396,0.14923599175953597,-0.010084613754199084,0.026106534955699402,0.039720893557248824,-0.09712106369025561,-0.02962729197532667,0.04272503499789624,-0.042304816674548336,-0.04589427073538785,0.004587323050520512,-0.002987107109966712,0.011215858866463903,0.23826951270370203,0.038591441280388286,0.19778211371863597,0.29890689468393744,0.02703422875721465,0.050793870125914305,0.1365927817754472,-0.026084490819426116,0.0035575754688777846,0.01835682466166847,0.11395431168597772,0.18690962595334523,0.13705235492659548,0.04664611724066989,0.06774433066040822,0.004908279825794548,0.02688111646250827,0.01437725706485291,-0.003993403899644954,0.028553225558188004,0.13115860296343088,-0.014252932410063328,0.02736313071411139,0.0415150058519624,-0.09825129667977077,-0.03765438415372086,0.04001398022537884,-0.06319191477911848,-0.03467833754333566,-0.002984270539256696,0.0031894555308133133,0.00256210526527869,0.2300506901242177,0.05235470887151036,0.20837923076598572,0.29714762552988394,0.01497779779190147,0.04858266412423556,0.1523390067423539,-0.022952699280569776,0.012678436169085178,0.018384893410413678,0.11488020505143988,0.1869465539844387,0.158448419687059,0.05869918034961837,0.07603353122919361,0.006345857989826559,0.05918260306806351,0.012134958287285487,0.00027041176149076516,0.026945983728499105,0.16045274437731796,-0.0032458183872068496,0.01638702262044838,0.043062835334008634,-0.09597319456912022,-0.03160005839281066,0.04167920161416158,-0.04474157566874116,-0.029149409868617915,-0.00022329223944479373,-0.0031479825222687934,-0.011836888300757086,0.2557759207475439,0.06257338144265834,0.21165451543448505,0.30384615596648706,0.026236090178330625,0.04982703083527084,0.14502025659476966,-0.015681961076715628,0.029112252895656048,0.006641497475506926,0.10587140818704716,0.1961778512841678,0.14111422177417401,0.053264119321028806,0.07990514729812623,-0.0007867893045891896,0.03831985756481913,0.00296728247148122,-0.0035864987594957935,0.005133560537234379,0.15690436890887255,0.008533733707530257,0.02285514751800027,0.042346309407463756,-0.10592036108473789,-0.03728091280702418,0.017234453449556177,-0.04412916965501225,-0.028561559826884946,0.014883493338348062,0.002278804374542322,-0.024552080279531097,0.2526654066027554,0.0614274421480455,0.21045841254789963,0.31574488708130216,0.019945799337861732,0.05582245977151911,0.14222707020577827,-0.021601711454417003,0.010306055327937486,-0.0019842742544349144,0.09425763408120869,0.19013070137519325,0.13461302250396798,0.0481250334576378,0.07806598464520746,-0.0008978871334998645,0.04168435614723118,0.0012933702032042356,-0.012188084084485462,0.017239861554370274,0.1634466598070869,0.00030365316853852344,0.02142394565644343,0.04378280737362244,-0.09536695428665011,-0.03025088102489611,0.012679739620261666,-0.0713527994947022,-0.017768635126126683,-0.009756147137435821,0.004621885796394106,-0.014365978771136363,0.2576777179586741,0.07026953400219332,0.22134253306246854,0.3099020609945458,0.022534144054221883,0.06646628830296132,0.1436070216217579,-0.03714381581715629,0.02114666230298923,-0.007991751030349424,0.0978969208693598,0.20342373814991718,0.13820544464871698,0.04691685809795817,0.09324961513310365,0.015555621799018784,0.025794410967012477,-0.011450454969085491,-0.009644617272275998,-0.000874943781328067,0.16150498575407687,0.002283746929679355,0.016489436943644502,0.05431567789429851,-0.086822537094141,-0.026756933522490027,0.003083940311875509,-0.0673593136704132,-0.006509044444691169,-0.010463575092934529,0.006904831944205214,0.004131613646338116,0.25837060008107077,0.0903454703416491,0.22539667766191715,0.3194757401188989,0.013802637905710314,0.05956493384243326,0.13341714462376614,-0.033019780341804625,0.019270787881776337,-0.010218839086733322,0.11552859536377456,0.2004857780758844,0.12667760736626973,0.04133196938231896,0.07932098464446916,0.0045283823842600995,0.03478663952544102,-0.009559532803588261,0.001978069934759869,-0.002753083626065776,0.1769254890779575,0.013302384784513696,0.005037326387144503,0.054823231270054465,-0.0861946013176625,-0.04465882085470933,0.01812030812556071,-0.052432013193422077,-0.02041870588759809,-0.004566731533217376,0.012761437834576153,0.011600308031110597,0.2734942022028665,0.09709494133192373,0.23702924153943283,0.3047652493449662,0.018587269252288586,0.06438139658015787,0.15609019715842493,-0.021262249759637048,0.03128551004269345,-0.012985550553454961,0.13914157172243347,0.19833166672653635,0.13283360885131454,0.03972950855766378,0.07887947435405343,0.01465352759495542,0.012255380855349643,-0.008896238075236788,0.0024065307585926375,-0.002884359743034681,0.1809872736211869,0.02612864782683165,0.0068552710525005035,0.045578201084660465,-0.08273973069534746,-0.06352966409589965,0.023691271253563496,-0.0313331534737302,-0.011730969813511377,0.006373242190313722,0.019329426226645272,0.01001261457442659,0.2623375566367464,0.08939662700824955,0.23593818360706414,0.31738066598967646,0.014603208763346242,0.06044300063954917,0.1409664750354843,-0.02776635844849028,0.04008427940837791,-0.012084681255243385,0.13332509750502042,0.20752244080039037,0.12437994389776102,0.030910272814732877,0.07405080159601007,0.014937061167713362,0.02504428766948315,-0.012061485430900692,-0.0050590019011425855,-0.02477527834885167,0.18263245433580935,0.01588530288638723,0.002925126899334872,0.037089798444257784,-0.07447266075661299,-0.04688136303290563,0.016892546712502454,-0.05314539276002684,-0.026245140559786613,-0.0024664371017960114,0.003982868827422513,0.010200251162662856,0.2702442633983604,0.08925080299319621,0.24217827852779733,0.30878307537590666,-0.00630905253005542,0.07653935276486651,0.13212942840800368,-0.02281095432505751,0.03560671555530901,-0.022565645687905454,0.12567823340693865,0.19647516044827826,0.10854367952046134,0.024878431764384062,0.07331593145721592,-0.0054604449486438,0.02356274144752301,-0.019117262378441083,-0.0032080509152501873,-0.022408908340312693,0.188444827381803,0.017435268991460123,0.002573470510990087,0.04306993597017336,-0.08018118442982981,-0.05666065932624185,0.015625502744292957,-0.060927366252147355,-0.017666733897898416,-0.002879928543779959,0.015704748370970273,0.007834236379690161,0.27852474309969094,0.0893868160435872,0.2645652443084649,0.3112191994967488,-0.008042846702425431,0.06934779192909735,0.15148497088986415,-0.004178039745835293,0.03801102906811322,-0.018645646999148592,0.12815383206073555,0.2078974720700085,0.14203089898525773,0.03250674903305309,0.048556200125912344,0.004288190315526058,0.036876646252903135,-0.019381035592130107,-0.010525014929975107,-0.016658009656458948,0.186410452136095,0.01123044658980904,-0.0017080595167437256,0.04152174262240836,-0.0726105545534631,-0.039126880124617784,0.016697863966130568,-0.030679910138406468,0.0018191671397525143,0.012938960927886736,0.019586158076077054,0.015865702676620942,0.2911857845890208,0.11340042561159246,0.2402994380196612,0.33126232526358534,-0.013063263264929815,0.06010733550838485,0.12226237931418688,-0.019970993414192745,0.038847661307748964,-0.02036889370179694,0.12578060116478515,0.2024152439649163,0.11953192344608522,0.029049451895751217,0.04613169023326302,0.005885142003019432,0.014071203665381244,-0.03630106806734519,-0.003987765734359293,-0.022243928239138854,0.19356821096390933,0.016907388087117135,0.00047921395336641357,0.04423141454826566,-0.05703324921012065,-0.06044660575603275,0.00872274542085621,-0.042752140306854265,-0.01935744780840442,-0.00992259493285108,0.02618756419750826,0.018729188307927216,0.2850055156693954,0.10841863938759973,0.26391284233125023,0.3289044565651614,-0.0052635953753336,0.06628133060926532,0.14501060541929786,-0.018526705674508967,0.04735598502470253,-0.021530708820621757,0.14245476887874609,0.19852348148275242,0.12780375946312558,0.013376855111684254,0.050145382138816995,0.01209908356462326,0.021920665796024953,-0.04127232277707398,0.000996051022598239,-0.019211288127302408,0.20696985747081956,0.012627516054906987,-0.0005435443158805634,0.03711226710518076,-0.05198629090391396,-0.053018393109931006,0.024282558303549105,-0.035048646267009056,-0.025636752125778362,0.0034523287503069786,0.01593914663458496,0.019158973929823388,0.29515940205961766,0.112488385870503,0.26425936998692673,0.34141032978265246,-0.01021095224032922,0.06803815314961509,0.15434918222208358,-0.007212448532439148,0.049982548381635385,-0.023930114681728683,0.14075607718955857,0.2057864548649105,0.11188366005718431,0.031747492116404305,0.04489088411669427,0.007812061132999407,0.01225987180454993,-0.02321285290955599,-0.005259810732624701,-0.028882571622551038,0.21435187024620397,0.007999480106077553,0.0017427314392297793,0.04242616082909512,-0.04247358621047139,-0.06858928237320758,0.032050669157785434,-0.023995385783798673,-0.022533696632946017,0.00877364790376706,0.015081289997891724,0.018280121329102256,0.2993214598503581,0.12620350236396244,0.26882247372054846,0.31419737357133004,-0.02529250372820328,0.06763759581601331,0.15816500596726074,-0.01675199565637892,0.05148446293350858,-0.03432690282524557,0.1576590123695406,0.20811928032661506,0.1170810757256508,0.021558220968685517,0.0466052368414992,0.016180899159361554,0.020933923863041343,-0.037233706819381374,-0.01486711602469198,-0.0239439180415418,0.20820144203402122,0.01189669638711974,-0.005628507681930889,0.043198723792878556,-0.05584480485407724,-0.07866280744620935,0.03178994478438243,-0.011250122879340203,-0.016797685433677077,0.005088858349680015,0.009449347387228003,0.017869301244107707,0.2850850740043012,0.13248723730543094,0.2911809639645815,0.36017215305493344,-0.01389642308119711,0.061022533312325176,0.14320800180069876,-0.014341705811419641,0.05427101304003221,-0.042129694160717095,0.15029728800880696,0.19892945846392712,0.0980010270013021,0.026005750680492528,0.02519116386372379,-0.003983343072438113,0.0177810607861345,-0.021460031420681622,0.0003074696021954352,-0.04118441581953959,0.22011988599640558,0.00724207636559503,-0.022669772732907077,0.05171983414542225,-0.03579493047584161,-0.0673139574754921,0.025031583543772724,-0.04558936639498797,-0.03897581493807881,-0.003735523479154107,0.0006276724813383935,0.02644148897482478,0.301167967871586,0.10992319880296565,0.2954310565443056,0.3570514612078391,-0.03169180719032729,0.0528675554544434,0.14891672441962225,-0.021022428131863245,0.0453725948793522,-0.05339915725993585,0.14522847727395485,0.21579433706593945,0.10743943410220574,0.018214996883340023,0.0015295245200150057,-0.006894061192569484,0.00023612058507868972,-0.040158256872109194,0.00579327339684036,-0.04263611127791796,0.21729039552500537,0.0011493502165652932,-0.001628985754825137,0.050128887493273745,-0.032987009140342936,-0.08834962533041643,0.02929099611824875,-0.04550212613705133,-0.017129704603973523,-0.012486140718087915,-0.005148539381254861,0.04385082979208931,0.31196018824198096,0.1248328311633754,0.3083632071425826,0.3674142041195789,-0.04053530401819423,0.06000414563557582,0.15353843700525505,-0.009671027308995458,0.06667002332531928,-0.049400775140615666,0.15267223571068958,0.20227348593460212,0.10432124954369232,0.01553039389800077,0.013544166123928033,0.010604119389351551,0.009235942992541404,-0.03773820330279685,0.008818643295040958,-0.053643549844140125,0.22865384247318069,0.006825722724266995,-0.008805451200139194,0.04808907304852519,-0.015458177609883784,-0.07861337784849727,0.027430897289964798,-0.020284334951322987,-0.050743475942659995,0.010370909828581985,-0.016173822373685556,0.03793647616201092,0.3220563654489824,0.1253762895274625,0.3101549775151059,0.3776186381416274,-0.03600992523211214,0.04004177861689909,0.1471100143069933,-0.012490196706411019,0.058976516969334626,-0.04680125687321619,0.1538614040751864,0.21280836250611274,0.10654427294640663,0.011704403630250812,0.0026743022279177154,-0.003535342257661289,-0.0009632697991921952,-0.04693597882862171,0.010273368344761686,-0.057909597522493306,0.22616973020231929,0.013669828174528952,-0.003963554917332889,0.04951583566265211,-0.00832457988325658,-0.09896212581479835,0.021520233973855663,-0.022113381531307257,-0.05194546570663165,-0.010163002855815183,-0.01699812310577254,0.039310972058768344,0.33179746417640504,0.12301084825794065,0.31736216405871426,0.37444620906819687,-0.03630109682761354,0.04623264733306438,0.16672018764749746,-0.012525923240249733,0.06069110858946671,-0.04477286944844965,0.1630736546561707,0.22006531667945606,0.11112585316386345,0.014604115263260107,-0.0012647774287664558,0.004648198321655597,0.0012325317497519095,-0.037318606472106546,0.008256952959093579,-0.06413373885575956,0.25179310578793124,0.015276792643770054,-0.01767129032928817,0.04778295573695873,-0.0197205643741428,-0.10331987748199944,0.03008720910717214,-0.019666537324719582,-0.02970431450814189,-0.008033837371900443,-0.0185965071468693,0.055630268143547816,0.3404371962418077,0.12389657500562307,0.32503479081784015,0.42594002440211054,-0.053682651184748686,0.04391069493385357,0.15328909661123252,-0.0016847251990646176,0.06655095868429917,-0.060099210908996226,0.1689350429716217,0.22025369268125325,0.0892029277930346,-0.0018568795804529803,-0.02050215567531725,-0.015569874258390765,-0.011103884805856872,-0.04723647558601987,0.028287425521201476,-0.06536640323349116,0.2359143455371082,0.014329456880090592,-0.005785352629506875,0.05175446296267661,0.008450848938033316,-0.11012544478542155,0.01186019959254518,-0.021361262132295257,-0.03371110933780835,-0.012288319382623446,-0.02757426686803828,0.039603972614726785,0.3283234162829091,0.13579879591779298,0.34293403122127186,0.3758700740105416,-0.03136053721480202,0.046823650950835495,0.18034795212855456,-0.013273581264167477,0.07532561550245982,-0.046120532280327156,0.16835116924409382,0.2334859045570225,0.11128538219067018,-0.010743211118940553,-0.0218818727163925,-0.008237306666341274,0.012216404695542544,-0.0450279202909999,0.006042778896836748,-0.06733787496038067,0.2501280625954826,0.004782446579387608,-0.008098991084914,0.05411484304125731,-0.00019337423745208784,-0.11134287541985824,0.034029930755163675,-0.011730863636556416,-0.037429055102570906,-0.012972023014430458,-0.03148112377497357,0.0513276130885864,0.3550099947592348,0.13959346489429353,0.35341765979117196,0.4128950703424903,-0.048654744343938086,0.03335422817395372,0.17696650151146753,-0.02244715523748855,0.0813333524191246,-0.05014967835910446,0.18624288570589004,0.22661568427698853,0.08418901069436455,-0.01882787912276462,-0.04827856237598952,-0.0011430979515389753,-0.0021214357386629768,-0.0543171390576287,0.011125528979704426,-0.0804469246936941,0.2587935722863572,0.017986738540301007,-0.010969181258386284,0.04703731676944319,0.016823990531531774,-0.10939658095884716,0.0337526881090239,-0.004205342613210558,-0.044707660468678606,0.00864105891432975,-0.03599359091628107,0.04969830330781453,0.3482447246686722,0.14626511367248196,0.3295172321768952,0.4150538975203614,-0.06815795883746341,0.04283473735468005,0.16198306231206439,0.0065338922949406885,0.08373052337041904,-0.06666586867510602,0.17913311048148944,0.2080706803890727,0.09441169920002612,-0.03273116133038865,-0.05488961761789188,-0.024411045675722904,-0.010739443712242546,-0.06250471961966078,0.030313017883802786,-0.06991675769436902,0.252121282718215,0.012284515890684598,0.0017133648317289466,0.02519236004034669,0.031068882674768247,-0.10577260366737123,0.03171224759987487,0.008016700752934976,-0.04325624164457112,0.0017193467538788915,-0.026733790094446194,0.0536403122989121,0.3537373618810223,0.15195394005885898,0.3517766559666635,0.40611949625264154,-0.061766668831736454,0.02928244380134442,0.1581464884795949,-0.013128916276920519,0.07989991273515412,-0.05472514896323281,0.1691058226538169,0.21673322109403284,0.10303274552878822,-0.012779302089707494,-0.05790586782434374,-0.02470069309907196,0.00423516687584812,-0.05176018947935299,0.015227878599141008,-0.08351703446968478,0.26805276158286284,-0.012016008365937527,-0.003791165306923324,0.04685616464840696,0.02823480097828224,-0.10475271452895123,0.028847257700481778,-0.005155060042190929,-0.03488259552800783,-0.025399231289796573,-0.037305676710501216,0.05758871546054131,0.36388795724807554,0.16214153475947748,0.3833091185664356,0.44389178764014897,-0.0595807378197847,0.02890932210226967,0.15637973132579136,-0.011875485955017423,0.09768394661110198,-0.05766819539945516,0.18228133801397292,0.23810021372184034,0.05983261498794042,-0.03196239071246408,-0.07859370198774067,-0.01701905137577383,0.004850936857825085,-0.06035984913180572,0.023240623994810184,-0.10400846895881112,0.26722897029626963,0.004284600740693492,-0.012990597902835662,0.05433418634860597,0.03853985892074393,-0.11755234910121182,0.034697940572100995,-0.018626968839529336,-0.06368399901383091,-0.008811615016109919,-0.06654313817725659,0.04005666260447166,0.35081790246863237,0.14753692667773477,0.3838957175777291,0.3921116836184369,-0.055443673318229345,0.009831246912846413,0.18763612928459067,-0.01689200744245574,0.09808251685514509,-0.06446987338412713,0.1758842416108074,0.2423720804208881,0.10357863636294407,-0.02972294579263844,-0.0571566486970194,-0.015046876548468473,-0.011953573722602648,-0.061731290038450584,0.025647370088659378,-0.08318374529226795,0.272419122765635,-0.004695112199087954,-0.007681531089631642,0.07061794087864746,0.027752400710720666,-0.1414846790194934,0.03697963147983604,-0.00002551201244593877,-0.044309157688289295,-0.021827426930062045,-0.059311910663111735],"Dims":{"W":32,"H":32,"D":1}}},{},{"WeightObj":{"Data":[0.7153252304800346,-0.8994545279907026,0.3667289931800419,-0.03681405227983123,-0.06854515268976533,-0.3457442923530041,-0.276662415369207,1.40749184274628,-0.08440697176564789,-0.2780791119903184,-0.3099135956337501,0.40846113139238716,0.5846997922271097,1.2427920581882688,-0.6451213746269785,-0.1502836586716647,0.3275875274797851,0.19339042538341938,-0.3931937111509557,-0.11256291733169607,0.28591294372120474,0.3349595847560789,1.0928020502206783,0.9688473407018939,0.8123337104387273,1.1511508728879385,-0.35451621678373624,0.5924707538064606,1.0037270650580135,-0.03792916607267391,-0.11498092598412302,0.28049079488318795,-0.6896289440814887,-0.5478002480046636,-0.5505197911932119,-0.11200620559600805,-0.09949908996166289,0.5115511573412801,0.03595289245742555,0.08516845743299335,0.5366251132388452,-0.38400899524430415,0.11495915466766785,0.1798083099295785,0.03342978007589126,-0.15389464086372753,0.19730205794379935,0.9407908503488187,-0.6415719794967838,0.13336904130219787,0.10799621704535282,0.6348805724060308,-0.43520387511114755,0.0062571685579880945,0.5324296460413867,0.8215179588089263,-0.10171112286359224,-0.5747322044495975,-0.09705898105596471,0.5553393611563476,-0.15981850477563564,1.0077813666296789,-0.19065553726660217,-0.8965849778193502,0.24569698378056876,0.6015724263602492,-0.08639898614200064,-0.2761044844214225,-0.2353308501693588,-0.6097241844150623,0.7129914725610056,-0.05764210885819951,-0.14313639180625026,0.00030513592465498214,1.5068492452203404,-0.39484434992937545,0.28038319592928473,0.06591104742840481,0.0807988189981255,-0.12384607952194235,-0.6902675527130998,-0.10956763281951479,0.14069817910613563,0.12433447233127588,-0.7031155640322063,-0.0812886739074357,0.10875022191642425,1.4087890071646791,-0.9661156946343159,0.7518298297495452,0.06982140120225129,-0.12949860965645504,0.33923100882688767,0.1020751781809207,0.5712627484016651,0.7159320664699516,0.459144491041804,0.21776306749684582,-0.2869363790974878,-0.7686294427182738,-0.6933395349582305,0.36921880945275065,0.05544968446668746,-0.5708981968332734,0.554105397747991,-0.055548669022131014,-0.07003094509833276,0.5957810807696006,0.8088627965684874,0.2702151066838231,0.3959389605696018,-0.6858799435644495,-0.18155036392529125,0.011205422186258729,-0.749757207390224,1.0513271928012706,-0.10293775149122993,0.47379424870534503,0.11705256884468111,-0.9405058673754473,1.0910095192455433,0.5593911016048069,0.005366693163308595,-1.154067942005611,-0.7778424576891908,-0.8345756205581301,-0.08752490742059685,0.04413090519387906,-0.21696338321322653,0.9160746285798761,0.3365134050813228,0.25524192567229886,0.21085393014657042,0.3598367609121601,0.23579420543070384,-0.630964110582622,-0.4190176770851245,-0.7841023415084428,-0.8261117612813453,0.2161370714688206,0.4286919290151456,0.004109571542206128,0.6213341359742446,-0.5513750545316338,-0.5382290491204057,-0.4225102944450156,-0.06329994638074163,-0.49875597473452804,0.24416454283860617,0.4690391211629339,0.01893640225415571,-0.7007566440930602,0.5458708634157693,0.5536618860937483,-0.3387841026663006,0.18592064601920977,-0.5555128381796256,-0.31303673825995365,0.7484628909541025,-0.08281902369114949,-0.21478276949515598,0.01292220236633212,-0.9123182126425872,0.019590300194911082,-0.32122972846444964,0.4838439771851714,0.0068311905559625945,-0.6627490724860128,-0.7609613356487331,0.5696108157595393,-0.28407359281570377,-0.14190353150066568,-1.1672805569333735,0.07488570152408673,-1.2614534048375583,0.7344490421027544,0.051066758477999956,-0.02787612095772372,-0.13003021405247087,-0.8136717360326797,0.19313341268067688,-0.8302484088307039,0.06257460728704775,-1.0765854497000786,-0.21285091478330112,-0.6615168014086897,0.9410266926347622,0.43938443928967164,0.6823464754543234,-0.1790090619435554,0.026213650831707326,0.2886922688962143,0.2198088186955881,0.31721556582743066,0.88312402801267,-0.026495843839312354,0.47449581042467026,0.2506121927550243,-0.6125495180766654,-0.19485863528709105,0.1737418536447514,0.3274332792696632,-0.16831861021854044,-0.10361400015154608,0.1875939782662037,-1.0548931021506383,0.04355259037698587,-0.75448032263762,0.9713567406135745,-0.46190115194673664,1.0606642013903935,-0.526243968464085,0.1199393117338345,-0.6559125650017967,-0.4130362784968597,-0.26961773342838596,-0.41285869276930354,-0.20885063557615316,-0.02278022718602089,-0.33427409714094386,-0.8548981528234075,-0.1518823576504,0.4922929452805473,-0.9366694202541936,0.30234778081077407,0.09587303158315451,-0.06618337287089959,-0.2534374527668569,0.26791350641483164,0.17398658948499907,-0.9563805372436963,-0.8485473514382897,-0.036152612483688194,-0.22829688600301196,0.23982939964573882,-0.23051002062515016,-0.2997504241358818,-0.7723929570771013,0.6378918540942616,0.4510250155606129,0.4868201332924297,-0.4728489277127426,0.18734303861910576,-0.6727377155756351,-0.32584091775971497,-0.4744350030373099,-0.942902478549351,0.4990079809080161,0.278004908889706,1.1385338647426129,0.2834095077149597,-0.20950759256809667,-0.3154431083368715,0.35900822469481447,-0.18316629228480583,-0.3855046285180489],"Dims":{"W":8,"H":32,"D":1}}},{"WeightObj":{"Data":[-0.3035709604784265,0.4446528520867064,0.181143094345419,-0.18934042266978074,0.705197589367596,0.8750813123390685,0.11784831802919832,0.10574443794703232,-0.22490188565574354,0.3073764284795278,0.1808001108949073,-0.09350382814598152,0.446054674988872,0.8077663894146986,0.23651786805147806,0.03788559781813051,-0.18467050509998933,0.258295820671106,0.20170983254996414,-0.016506872008579934,0.4528237831681613,0.7837772765133872,0.19513814486613168,-0.018837034740079556,-0.15776317403914503,0.2732048460810562,0.22483428258141616,-0.054059146500749916,0.42411975515545874,0.7619223946345873,0.17273017162346804,0.0510537840772914,-0.16769399430840812,0.2930883643013901,0.2272309630663835,-0.04228900742903739,0.4021960778185413,0.7624326020393835,0.178097580786851,0.04936669189556836,-0.140470502149492,0.2894000619023303,0.21744785887674487,-0.05784424449925237,0.4021871997527282,0.7187675474856566,0.1566893282006071,0.04308560085841212,-0.13885245321970563,0.29845037327680757,0.19703469337943622,-0.06800180044247428,0.4077416400687594,0.7313547229041024,0.16727253315888596,0.0556993921155608,-0.14155457735728816,0.31490610593796564,0.2149102842682241,-0.061568225688946494,0.42002858182950276,0.7127663991246667,0.15810573606223458,0.04374811374849626,-0.14287034292618303,0.32274429620652123,0.2016738955402783,-0.05618773384014241,0.4205244097327126,0.7216861986920631,0.1728815856722789,0.06897410810901512,-0.1490534936321862,0.33611678043008314,0.21655655439442648,-0.03873325020069715,0.42069622608354357,0.7159805885563685,0.1721277678660335,0.0771631155623139,-0.15318467049334697,0.3283012428370684,0.2057232106896293,-0.04506946550936745,0.4247627692840295,0.7317844288626139,0.17071126682456025,0.0736965218597839,-0.1404053931978245,0.34334772869931396,0.20315792144336828,-0.04979230868378523,0.4427670537705623,0.7241675211462402,0.14603690386003532,0.06898404221683013,-0.15129302679990286,0.33482803318474363,0.1966701276442666,-0.03606367795676296,0.4236119260052776,0.7115319980969472,0.13076307301775614,0.06645137996031587,-0.1515489464788638,0.3319118979058073,0.21814900276681362,-0.043156600846508304,0.4450133660472467,0.7241026034962488,0.14798167361008305,0.07066928307129454,-0.157501565494293,0.3236519674974534,0.21265273786155234,-0.05030341296577581,0.44997563574474,0.7413497913303494,0.13632405508078085,0.07434374895758919,-0.16154878069939507,0.3356681327508649,0.2193570803801679,-0.04214740988233396,0.4446508774650358,0.7270169828182529,0.1463179580129965,0.09261127309187633,-0.14277272519545417,0.32202693006336486,0.21931512014945306,-0.06130868612434211,0.45192324463023076,0.7222571725172158,0.12688478259019959,0.09657732335907798,-0.16224932971039763,0.3188889436350162,0.20840862709624755,-0.04214875533187895,0.43875468066866996,0.7289382763800638,0.13162716862026738,0.09517317209178876,-0.1551840552322758,0.3212606692389744,0.22855053042148987,-0.04798804663570644,0.4428275773413552,0.7150195430608034,0.13319958413915167,0.09605580279769114,-0.15277513312515942,0.30114176262066755,0.20868683156951992,-0.05348307847540701,0.43859224450351514,0.7214977549021816,0.12773229219746765,0.09602029698593283,-0.15480463444127593,0.33207449995299165,0.24357382881206782,-0.05049136431552057,0.4523008636595811,0.7323706356230703,0.1406329164263164,0.10542752498503549,-0.1662520296920857,0.3372546524337424,0.2367216658589127,-0.04223289686097375,0.45707988211525163,0.7397908078263731,0.1334972272714211,0.12563266578085816,-0.14876001172064426,0.3153176128115148,0.24643085514901394,-0.057941277077799,0.4504949301282704,0.7145464314494265,0.12410421405912642,0.11442202255520467,-0.15573548767343146,0.3223306657593285,0.24732217329112863,-0.05388476051429477,0.44270284574241187,0.7222240514715611,0.12616215418941598,0.12247890651236612,-0.15717205628427963,0.3095743314154973,0.24118407230016845,-0.05568140703888524,0.4323766250865474,0.718365363715036,0.1331554328663404,0.11234706984785271,-0.15497170346983105,0.35205559427654143,0.2889183803091639,-0.06411004618461466,0.45469954703683513,0.7173969014802649,0.12464223912040188,0.13029810775821077,-0.1759681665955888,0.32205072341788143,0.2710299324722,-0.05444500198025324,0.4402789994818889,0.7143293311807195,0.13601597979694424,0.13404075978396746,-0.1570705090886574,0.33184845348220593,0.2754075230830167,-0.06120294890806633,0.44275447908845617,0.7188574915326843,0.11888152116494045,0.13641885731562964,-0.14717319810459253,0.3324107618256377,0.2682313945226623,-0.07704063438283093,0.4659699311266131,0.7252140556317536,0.10978795046879697,0.11808165488930085,-0.15060264483384495,0.3274758305799948,0.268449508058693,-0.04877192392041095,0.4666145589265446,0.7279828906445394,0.139736698485153,0.1228193318590962,-0.14115909336543486,0.31825136987587105,0.27881713774772565,-0.07714081373475336,0.44800603054244226,0.7209725491051057,0.11709490158970706,0.14494162981222983,-0.17845580053938037,0.2887443595931087,0.2610707602010685,-0.03897831885834078,0.4456275174001831,0.7356739540170787,0.1374029219175017,0.14813828558892156],"Dims":{"W":8,"H":32,"D":1}}},{"WeightObj":{"Data":[0.7427665861051097,0.24672724729174372,0.3838289681582636,0.01667861210377984,0.31826275983912,0.3396319819135146,0.3850012999468276,0.3901783849323726,0.23605860220370556,0.5859724885095293,0.3697038314136782,0.35774589180143296,0.28427402935448176,-0.06662665783882087,-0.2637053416561656,-0.040669555560517406,0.18115668586972794,-0.09948058122550764,-0.2971489038566194,0.09397058724149154,0.3332012536475536,0.02974907574551082,0.09565283263440655,-0.1485533734920342,-0.22674339700390655,-0.23368280214093348,-0.08931618059851021,-0.11935383516846776,0.028754206310779233,-0.4399942062479246,0.007841175007976561,0.07802521001636478,-0.42242158798734813,-0.08559515290974792,0.24465362065019147,