{"Layers":[{"ValEmbedding":{"Data":[-1.1382301170930704,-2.91795299495728,-1.4875284126083461,-2.0929621218125387,-0.32163413527265033,-0.3263512605683842,0.002723588951617274,-0.3793435698860571,-1.1163914429850454,-1.7183840241791961,-2.3493034960653643,-2.010264507223242,-1.7975670739463039,-1.0440729214325548,-0.2125848820908584,-0.26501627864374516,-3.2388562370988554,2.5686492185824905,1.4348615255600745,0.8966855707805357,0.641549749913726,1.570244194942189,0.8377924849318586,-0.9246239032881126,0.49589251102317483,0.8030051024229244,0.5246358993001372,-0.07387368582631355,0.8904350838358742,0.19899573493243727,0.6274214176044448,0.6306631578855312,2.3546476500210525,-1.956450042478287,-3.2156906421635156,0.8939018605680596,3.3437634965009475,1.0753997092328926,-0.8539692049037665,0.45356099169716796,-2.0798592873273534,1.705009246408335,-0.42287519279044855,2.751856993269213,-1.508490575643754,1.1919247405828475,0.31797835409325176,-0.20192276198797326,-0.8873155744320473,-0.2568770365866321,-0.0890215554144363,-3.8313356525425943,2.3305076898030372,0.8167246653875122,-0.5297877079038305,-0.34664574980756385,-3.8037723750655563,3.5238743354560285,2.310909261971713,-0.18002803088620412,0.7441666400027706,2.2229831744012905,1.038488249432115,-1.0436673097806044,1.1396641338253144,-0.6621212706027569,-0.6171244785295144,-0.4269518213550689,0.46394583514025695,-0.022104846638181953,-0.814167558352784,0.4519033965796372,-1.1064224971798666,4.947220354644474,-1.0600602599131606,-0.1799543686310171,0.5667953158551271,2.400837442874775,0.08960778383722368,-0.9949374498778687,-2.287370920467544,2.022841615503903,-0.264761633457326,2.3186499424352434,-1.7578306300563016,1.4646077019327994,0.2543762159838588,-0.2123726257238224,-3.144635508943889,3.2316216122074,1.5756026985976892,0.6183413359003617,0.8977292621311924,1.6561915664013749,0.994262489512226,-0.956978944719464,3.282356997639147,0.0032952589245541985,-0.26848201526987125,-0.03499440251077055,0.7067885020699615,-1.0633689519493301,0.034054070529956265,0.5512185911986269,0.482370248159669,-0.8431880041460991,1.3365130743054547,0.7987169545408843,2.018163478772908,0.4272186636049089,-0.4702405773874622,0.9990467875718532,-0.5033544881030022,-1.367006595550732,-0.557941378576293,-1.369382379941952,1.4455840484728264,-1.591742164016281,0.47944812905174494,0.20067362369579636,2.229481513412391,0.11871640526109581,3.3605146852676375,1.2964335585608957,-0.11272085013833977,0.2939010033177913,0.7623691385619795,1.1731483553778599,3.3957814472828396,-0.548265178199375,0.3347186803856798,0.4149422243666507,2.034738277047146,-0.14606520538252893,0.17986390211863768,0.7099026162587904,0.7898498669667804,-1.8741132562659186,1.6489934883988158,0.6333045293110743,2.322658231511917,1.6203623289676037,-0.8735494392572029,0.15344740343839622,2.2552123645292164,-1.8889070787951148,0.24624272256443247,0.5402888655603082,0.569904650836775,-0.8418657155693506,1.601228480584959,0.09713875134203978,0.6409171915603957,-1.1297759429817134,1.9183315754927026,0.4421504392348279,0.1326296121314654,0.730814380727099,-0.4307674898721274,0.5841886004761353,3.7263590033514227,0.29852346593155615,0.8867539017274247,0.4344224307996978,0.6139461201539724,-0.5072442574694498,-0.9499767712383473,-0.7032669289744755,0.509624056192743,-1.3652805894836255,-0.44102607770737207,-1.0854322874970523,0.9799166173476839,-1.692882207830141,0.989877524746343,1.1903948954847172,-0.009138502504179469,-0.6972582303914676,3.8068535952957165,-0.8431028158770105,-0.956767459350403,1.474999334197154,0.1896309350018235,0.6609305770476619,1.785448371782829,-0.5173709259295647,2.5693874004334876,-0.03983086371766186,1.016409225952449,1.7408273498171163,0.14591629389543107,0.9025617525157107,0.33273758691958727,-1.061278334150431,-0.2963348929491471,0.10261978365306874,0.25304969422989343,-1.3776336551787516,0.12228770333160408,0.921950670310428,1.6125248742134506,-3.8171950733663937,-1.365709989609607,-1.0419631644325067,1.7719238635257584,-2.5788951534303513,1.920497117697533,-0.15719381291610704,2.528608463625804,-0.046859490538890304,-0.37325628700306696,-0.3570770113837593,-0.04745199936966261,-1.519492105109304,-0.08057517548111608,0.7925001419455436,0.41906296408096966,-1.7344387428014474,-0.842561443819508,-0.7225818207779584,0.7353723595831395,-1.6715366130880769,1.1405493872947658,0.44656214007370143,1.224413803436241,1.5198656973640814,2.3914005044462967,0.11891870376947283,1.6851980606348655,0.9391151181851649,-1.5069097799666995,2.226017600008547,0.8544670639690153,0.8388711806384865,2.5309432954160695,-0.07515475389451898,0.5555358522047215,0.7126295469419593,0.14100941077833096,1.640063479986194,-1.0697853733821765,-1.2839812111616404,0.5336953344625338,-1.9565976898746598,-0.15223585733374895,-1.1366630762759125,1.1624721500508648,0.03665724541826503,-0.7230019385191602,-2.173505963288211,-1.9006242621074,-2.0952297524602312,0.6726709008107175,-2.2230072014150015,0.9715269874522627,-0.37247137709887224,0.8831034723700324,0.2605741095259469,1.0886818469596078,-1.54467898625567,2.1630150151457066,0.15053846209266017,-0.5417321262439241,0.5371381683718196,-1.02558313560966,-1.5869109349472463,-1.2518010090792644,-1.8223922235919146,0.37182531431916094,-2.2400307186726165,0.467541645421829,-0.9210701321616536,0.30487031364842127,-1.867421504459931,2.0420882180742734,1.321788233432106,0.2539090884863396,1.682295562937826,-1.3941014784530328,0.4476487288345991,-0.022688881064120564,-1.4488222018783459,-0.9380155392646559,-0.5918605173823615,0.27881762067404403,-1.8343661556218953,-0.14484793138667662,-0.2599887926280344,2.153183595017654,-0.6598534548698121,2.0501290133101375,0.3849416058612775,-3.109933185729545,0.6788989370493559,0.018667618160802108,0.0911351081642816,-0.6196426203719415,-3.4561713992781233,-1.7855887480588768,-0.23198350127440368,-1.8213374699397116,-2.3624797896098033,1.276120223914114,-0.760237387569821,2.7348086115121286,1.6634133765038415,-3.27009487930233,-2.0283896699590156,1.7821291411761913,1.7763948260249671,-1.6794904833671382,0.0876733361273316,-1.3688380127474864,0.7563691758155585,0.02648908235777218,0.6114893656678111,1.9656426985679554,0.6279568251882597,-0.8215105836209304,-0.23112869601449898,-0.36518538632160463,-2.372163891625145,0.29259854337561075,0.15873864025479079,0.003189276606279122,3.0549580570927253,0.005223297723172404,0.37589665868303723,-0.37892446935173874,0.24784681236375292,-1.1624553903979893,2.3665722151973485,-0.7321198605145093,0.9263327880484489,0.5627962411942037,0.29088860699376085,-0.07386058694805778,0.20999560307061566,-0.7716122751664451,1.434652149132674,2.623586715468646,1.1025389808212251,4.076349711761966,0.374092512820831,-1.273672571133944,0.9167106716145256,-0.38586025006206864,1.2380478559358574,0.5737067292626166,1.3984503963653145,-1.1939931501282155,-0.35051281711923443,0.2986716461875245,-0.7774274598231438,0.005790148408797325,2.4176134410944883,-2.872797211775622,0.33658233616164074,1.2071466423995132,1.328002045434511,-2.4522728444549773,0.12979177412953763,-0.9848167394656644,-1.1828445776416032,-0.22633387479550796,1.0683040739306644,2.624656034277257,-0.6352803902745094,0.11149061731069587,2.7791496649485796,-4.814448689677309,1.8828908971838603,1.4244856293204968,-0.8019906578100243,-0.37773633560054487,-0.4714459613343527,-1.878582620498818,1.102722924283993,-0.43332541198016417,0.4195089405772281,0.8782835096857823,-0.7122739062372351,0.7093087644569878,0.3318006865734033,-0.8985827873022667,-0.7289831124917752,-1.76881735411152,3.0286090841919564,0.504446056677072,0.1834669257510529,1.5394300102915304,0.3337094238949047,-2.2009000604171627,0.6881753026566321,-0.8714901472477727,-0.604887229495276,1.2117540575777968,0.9635092027698816,2.8113530124777033,-0.8529878233692952,-1.6019680096789626,0.70660914732528,-1.7987455893524902,3.1704562002347934,2.058395275237173,-0.06715681162607354,1.261835538398771,-0.2899067658030223,1.6765328967173714,1.4639672648100934,1.5050296515909425,-2.3963247563560373,-0.5530947408052648,3.1250007950350565,1.2663721541194666,0.3741026929931985,2.6764316308039566,3.249553770334948,-1.0041253043265908,-3.5265061869060443,-1.2647247989976127,-0.4079011463347228,3.2923172955418227,0.9459311732536855,-0.2784367448214535,0.38837969791189075,-0.27755719574321025,1.1846317198595526,0.045399521936687254,0.9321782763000424,-1.225858049496382,0.12449724817778543,2.3772929812582406,0.6375814494742681,-1.937123104988793,-1.6998347267166456,2.0634287259269124,-3.565329484580592,1.1924895628993302,-0.5270080334658311,-1.2040194351028966,0.11940297472522626,0.47452105152611185,0.8615862999252337,1.6837104591845788,0.3929342215457925,0.7210569314272283,0.14870668138333634,0.1287967435743241,-0.1543140960485506,0.4899553180556528,1.620929358930884,-1.099477322761653,1.298174985868623,2.8221327692571303,1.0398651677563728,0.8357049349742444,0.9335309879037258,-0.7377367947988086,1.4911431883110624,-2.7764735764748383,1.9756459134479263,-0.7199039530430551,0.5202756658798313,1.7942096571809993,0.6580876818874397,-1.8430910099347375,1.091507108467188,-2.722171005124793,-0.6580219161994907,1.9266186708636295,1.155307706097085,-4.416443027405487,0.5160286216699268,-2.589965478578108,-0.12280193049987348,-0.45113805381998007,0.21077911592275222,-0.19199911663554173,-2.8069842131671545,0.9937074521848062,0.02050295013592437,-0.4229105939064102,-1.78769167264029,-0.1670555050857613,4.5040714357553755,-1.7323898668791538,-0.0005129179202503912,-0.44348056344719006,-1.442545721010228,-0.7300329728764042,0.08480385684613174,0.43189273161888536,1.750192993883828,0.7162583164614631,0.10747478297196085,-0.9875861625889975,0.14424228237081907,-2.2061460606829093,-0.33400486213661257,-4.273852562113769,2.3826410624741143,-1.025219013260297,-0.7286224302903296,-1.5518556672337263,-0.6299526745838161,-1.2372736850981891,0.9660401607316743,-0.44629822844654726,0.5038794823088297,0.7744517543451851,-0.33696624153963656],"Dims":{"W":8,"H":64,"D":1}},"PosEmbedding":{"Data":[1.7110079534879896,-0.6543142088150931,1.0328945713919984,0.5873520915263788,-0.6842701434546313,0.7278784798498659,1.1384206053882537,-6.979548714833241,1.679592270715166,-0.5933503051532749,0.9401518210288322,0.4680877892069475,-0.5754850352753769,0.6853539144112669,1.257684649481505,-6.517387543084364,1.5663456041762873,-0.518072493177463,0.8696669057948938,0.37209552201975893,-0.5797408579433798,0.6846485257930941,1.1832781118582048,-6.056791842361652,1.4804872491486452,-0.5091716946407034,0.7703998872773159,0.31485044519914074,-0.5683605448713147,0.7257240396619682,1.159487458284248,-5.606655119367367,1.375302259176028,-0.5254308161197829,0.6771960051059245,0.2795913688195428,-0.5206586360339469,0.7520029715464617,1.118056101219192,-5.148804885925654,1.28375806015923,-0.512254039729767,0.5811461830315567,0.2424048089944924,-0.4788598442137585,0.7900718079774111,1.0656638776820377,-4.7051187693427154,1.1865945994695297,-0.5131255722308707,0.48251239209646857,0.1964838302568671,-0.4524321408673095,0.8348836263132177,1.0069508593945522,-4.268643374454563,1.0716686626421756,-0.5183720100751776,0.3922823660411931,0.16321460503796867,-0.39377633964608827,0.8639764025313074,0.973234240885365,-3.8178774750238813,0.9704440482183614,-0.5178017969051676,0.29632383011972485,0.11033083551063518,-0.35241504502078613,0.9027516902720824,0.9246493599552996,-3.3779483769069483,0.8588237580496718,-0.5315011108541943,0.2145399237836722,0.06328489265523289,-0.3020435503046801,0.9315178290628934,0.8771041513176502,-2.9253291927405516,0.7615014083616534,-0.5224403943523703,0.11255151102772823,0.026563631292165015,-0.24878602502247577,0.9543172580179088,0.8284392226495194,-2.4928993975964993,0.6571501745674053,-0.5114011760571247,0.02051642939164315,-0.015864500363341288,-0.21126691466375508,0.980432149594491,0.784363428197064,-2.061626028854529,0.5453384883250723,-0.534635552503473,-0.05137302836977838,-0.0721119213692893,-0.16956197025241138,1.0176887350268369,0.731621173616271,-1.6073225743527084,0.43449395891118603,-0.5362713128320138,-0.14197645875087023,-0.10420284166992909,-0.11455997864515659,1.0409120670891072,0.6942998808865106,-1.1688303694198863,0.3468024025517526,-0.5238060279916897,-0.23702200363350007,-0.15380096378123775,-0.07898483098059443,1.0778182147839965,0.6409660255554693,-0.7408026212911715,0.24074745749940935,-0.5337926094865689,-0.31206852413055125,-0.20401886097830257,-0.020993839028511353,1.117090849212419,0.5880022588023279,-0.294330441113488,0.12691742383000734,-0.5234077855982029,-0.3882441116370038,-0.24039710711824364,0.03804922725515186,1.1431559144151962,0.5544552423117066,0.12624500846888875,0.024101136586735072,-0.5330648813067272,-0.47673673723611093,-0.279692613252181,0.08039741786662256,1.1770367754191045,0.5065773369650495,0.569310831456404,-0.09555650434224787,-0.53307633019008,-0.5657942141725336,-0.3215675719069083,0.11211477683900772,1.2129447866970704,0.4599894856405409,1.008155523451533,-0.2022721882554588,-0.5281477677419811,-0.6534476310450892,-0.36899516282282824,0.17750749467859536,1.2205742286968884,0.40540731239840816,1.4370764560267524,-0.3227790831883866,-0.5383655757853437,-0.7453733449105122,-0.4182525385241973,0.21331496146531487,1.259275641057726,0.35715752778709964,1.8748542601395486,-0.4141508506949343,-0.5308943213037988,-0.8068820198881097,-0.46203548541650885,0.2658972541571938,1.296256010076285,0.3216455946527086,2.300620406108629,-0.5326659047034324,-0.5472038896590982,-0.8944473579800685,-0.5078539348524307,0.3236424438821137,1.3268960491679394,0.2753630110402418,2.7430215992857208,-0.6359942711211849,-0.5331329391124969,-0.9739310273900912,-0.5642176992306812,0.35785086364607177,1.3537327285784462,0.22476921950015083,3.178965086922419,-0.7509542725741379,-0.5394991917163849,-1.0651225067799739,-0.5930591755007246,0.4134163908476439,1.3768555868588892,0.17380961238813541,3.604646717925274,-0.8567022913707449,-0.5269863468040533,-1.1530102822685078,-0.641713011317733,0.45853416602715286,1.4136993728448635,0.12682641158754912,4.0449633074266504,-0.9628996825610818,-0.5215148178703845,-1.2190359428809285,-0.6885719830747168,0.5062346662042433,1.453401186183071,0.07625295509886063,4.487608508985941,-1.0728337936098646,-0.5301989360497195,-1.3059053291236646,-0.7256382056932258,0.5536034810725158,1.4795453976838873,0.02079248239282038,4.90488648274519,-1.1699509704057096,-0.5335817295931089,-1.382627076688539,-0.7724802933694074,0.5977366856535883,1.5022395080269162,0.003529906125513331,5.342654435702884,-1.2909772072619323,-0.5433183069240644,-1.4772349653770431,-0.816600533019577,0.6508311203108742,1.5234377013239737,-0.04384051266543138,5.777923362981394,-1.3984975707303324,-0.5394963369145671,-1.5584485908482442,-0.8572278993696024,0.6987337131204054,1.5649731307734422,-0.10683138611207219,6.218146173534902,-1.508047100184973,-0.5410688991499837,-1.6436826676537,-0.9012834096785374,0.7460791359912068,1.5988037901037004,-0.15300272584199495,6.644230786304924],"Dims":{"W":8,"H":32,"D":1}}},{"Heads":[{"KeyWeights":{"Data":[-0.20988231515016928,-0.056432712744815566,-0.09192030556419914,-0.3914587440709222,-0.5774442449339608,0.21003159555159373,-0.4952490205986227,0.3648110155896893,0.48134260905752535,0.3295498760669125,-0.27782017147139876,0.09321830663871244,0.16872495434020054,-0.31022283319009314,0.13191436425747421,0.19379154772833868,0.008595997533915432,-0.34776120250051146,-0.4024896542975305,-0.4824542152309551,-0.08067424596444989,0.004606821573549756,0.48887178575932505,-0.34719903387580087,0.10408742077870085,-0.1114036733967446,0.08710700038245446,0.028730536689729306,-0.049442077690339946,-0.11802307272833333,-0.09077952807447037,0.1493369826273773,0.16957305967585837,0.010640701264970177,-0.19257738324761894,-0.052644276502239594,0.3949626661259239,0.009736250170671689,-0.55032969812884,-0.10342885473367697,-0.011313767505541937,-0.21066713888930577,-0.059257190793346445,-0.2080120917914297,-0.1399204691049573,0.7229233033962396,-0.8381357710009456,0.021849336754084188,-0.32537991385678655,-0.2034374679747207,0.049065906035430935,0.3671701827857273,0.4312684967770923,-0.44951999060782133,0.06398540594510999,0.2526937796642258,-0.10171750608139517,-0.13692577437294806,0.13731031133872296,-0.3102028497688118,-0.348272250800616,0.23689567175498594,-0.21099102492763894,-0.25738239134450885,-0.1253044856293545,0.4461239149610317,-0.0019946178317583334,0.2605829783785345,-0.2511609340438048,0.1604492572915794,-0.46741672506018006,0.49284733435131944,0.016144246612995457,0.24259244550883632,-0.08137483794329875,-0.14490229305793792,0.11715883159170049,0.11604638065641017,0.19553837213660863,0.2823944311679815,-0.13782624000367746,0.47505690544006496,-0.062447088308250964,0.11702251163801282,-0.5020300039407442,0.46368354408599605,0.03759601155713023,0.3326357162391188,0.10985234181531489,0.4966416979818544,-0.2044969752317614,0.3002949038912089,0.2527242482060854,-0.44007312054831366,0.44113832106011913,0.13947999087689644,-0.102617510400873,0.12146907397999794,0.6122819047046272,0.43650836088626777,0.06876876374745258,0.1131491482781131,0.011721221103430749,0.7350629094154535,0.3948845281276513,0.07124923330304757,0.3446648673601587,0.3054650545964236,-0.1295052918234239,0.18448590598372527,0.14305950145486476,0.11713766863892376,-0.03433698442582215,-0.07475168561775546,0.004909999281629043,-0.06134984732925115,0.029520168229621738,-0.03870877775381658,-0.17241615777763472,0.08951329522168108,0.14024409626028858,-0.03968781123634344,-0.005596082483537064,0.0005593256527659503,-0.1116345748534832,0.1184715604763695,-0.17942856850253755,0.00660294355163565],"Dims":{"W":16,"H":8,"D":1}},"QryWeights":{"Data":[-0.07345744646767595,-0.13483924678905349,-0.039423044363259024,0.1322877424898509,0.4342267005830363,-0.3039577327252729,-0.46932592359624253,0.08795388638555318,-0.03967293752412868,-0.22863731041483362,0.011566609219169554,-0.3321055866875658,-0.302065155957051,0.563265137853922,-0.5969477340884068,-0.13024646419194377,0.03549560564597105,0.3400919483051481,0.32962946495570056,0.6084703377729793,0.2730432300661712,-0.02569251822027433,0.1420089602056281,0.2627995242214979,-0.22072351783809643,-0.04477008716326334,0.2502424068434336,-0.007547102921929458,-0.06767377092348532,0.25172432154214486,0.15048816606506343,0.0018332258789161807,0.20402476230316444,-0.10033854082508947,0.2520544078840334,0.023916341219168736,0.2384934637650575,-0.17471802108506215,-0.32626661453961087,-0.15129326483448444,-0.07932308559256702,-0.238130691803764,0.03162932693268251,-0.0941731566813603,-0.03894983900213122,0.26025438713869237,-0.19511432166629394,-0.11833236151974173,-0.053276643862882625,-0.020837930548276668,0.2395094483030946,0.2949906787329887,0.3419052454570813,-0.06007789011283903,-0.010026585347359692,0.22548398317824167,0.07795033010275149,-0.06144170479067976,0.1205463593406382,0.07047491886978278,-0.18706941822327353,0.27291364376124844,-0.28774257910548995,-0.1786702014493425,-0.12098401869327889,-0.17078096424583003,0.2440353977419331,-0.06500775659011454,-0.10887151267030283,0.05661988937819513,-0.03926671342990463,0.46458072787051796,0.4801557029894045,0.025333547156037466,0.21342925692545486,0.16763296172439782,-0.09054152851213394,0.07572221295301439,0.02529244822814194,0.20916173954403636,-0.25237168040737185,-0.3127467226674383,-0.016619192286076764,-0.029501734231351502,-0.05351877401805902,-0.268537728328824,0.5905426164515865,-0.05018151337846678,-0.022264893965239292,-0.0000644080637886729,0.09086643964890546,0.007153559015346554,-0.11145990551503342,-0.45534161688670205,0.36647899196872025,-0.17332964701473771,0.1921318281615643,-0.3019700822173644,-0.15520295257253133,-0.33167436873092787,0.15933744965440896,0.0024283696998131906,0.46280873048604076,-0.4335759345648471,0.05187972330196632,-0.24672493792630293,0.16535715390298983,0.15155862490775152,-0.1161430239379893,0.06122026114144531,-0.24386362983010343,0.0169619789319728,-0.350298429941416,0.8723181225791071,0.619897699767747,0.4399488460449048,-1.1565810363762004,0.8674283362487878,-0.08620088498901732,1.3131011436229993,0.6636078654377114,1.0046633177537212,-0.11607744588641274,0.8301261629801351,0.4627016688356776,-0.9318853073800449,1.3092995725890766,0.40910379196230995],"Dims":{"W":16,"H":8,"D":1}},"ValWeights":{"Data":[0.27029099442746307,-0.09484888347155024,-0.29512507952830214,0.022679294362307513,0.7580734452297674,0.46998898254460425,0.009705660689219032,-0.09500125834476882,-0.0005530688180741451,-0.2541951590508468,0.06659866414896866,-0.019711852896675094,0.21668590883047892,-0.46164520229509404,0.015312051284193358,0.40614028286779935,-0.20818065618099119,0.354547600699867,0.14412959878366144,0.2194410597645041,0.018329882452109907,-0.24262835789251996,-0.10249356123994098,0.2596215382276042,-0.07618962696392063,-0.07395399688326428,-0.5114686839187941,0.5296877041636077,-0.5534702060803988,0.13954880856693594,-0.3995902632002248,0.07309601407934353,-0.2969014012350822,-0.14540962740548413,-0.07399443228571574,-0.21919303959721786,-0.4276604146395586,0.042828120113414386,-0.6139180723513612,-0.07488474683132637,-0.22414530580283362,0.571164563432663,-0.5867816025933663,0.03638146110947593,-0.36513597393783415,-0.02733115058355408,-0.45927271233465855,0.0568603118759535,0.13086976595982627,-0.16334576012852786,0.12552945847335387,0.046289957190488805,-0.05539998251272588,0.047801732006594586,-0.5146851655586276,0.10820599979018618,-0.12951539035802923,0.3896483819064365,-0.4747588454793929,0.0031223736285662302,0.05145555453836798,-0.3359189412799962,-0.307525804937844,0.4504884435901048,-0.026505300682043542,-0.1906836241864966,-0.08504784015315349,-0.12716051878375914,0.0765114692730759,-0.25623905709461464,-0.3395129245964208,-0.07271312044089913,-0.29409946945578985,0.06665638529153292,-0.09538176427620942,0.24948348475408536,-0.3290289331418577,-0.043228506844018286,-0.06086184698575836,0.29514036555614787,0.0006956755705319496,-0.25665195269691116,0.023910247314862063,-0.12546041380078107,-0.46100149978220084,-0.4543649828113385,-0.5162599420867688,0.04020757566804912,-0.28129756894075236,0.4108677192563122,-0.46524843265899807,0.08974177654493389,-0.2973292081144361,-0.19595547300793215,-0.26994832864590057,0.43707662312241025,0.03392240209462167,-0.12129790034035788,0.024658718283266004,0.06343060533213038,0.30441488634222497,0.3080305225080502,-0.005887547319708021,-0.01404047065778554,-0.039823982631632684,0.03691349454727876,0.36287972385745587,0.008692789344719067,0.11871145139634433,0.2871558414978963,0.15971614392715305,-0.1745591867356995,-0.0461202187952062,-0.08922415910117944,-0.05332809727193785,-0.0328479953302163,0.03426053306557508,0.48644875462243625,-0.22847569837019444,-0.040295252032726464,0.019003279836669884,0.3063963650728911,-0.15929614444589393,-0.17582753049381322,0.1492831113744526,-0.06380731826006426,-0.18598706684148172,-0.05919346973653361],"Dims":{"W":16,"H":8,"D":1}}},{"KeyWeights":{"Data":[-0.2110771955520318,0.08548263333639776,-0.011076078472049892,0.1700686187546449,-0.06768292089242535,-0.33855578753714716,-0.3836181761543872,-0.36695579970944237,0.2041562927189919,-0.18022389668993347,-0.0036029063403278405,-0.4244350894602379,-0.1126184045641969,0.22155040186834393,-0.016432602361362462,0.23202357258726147,0.03267180247252248,0.2150816565366783,-0.5460738678834571,0.013079024076799256,-0.7239443820693051,-0.27093111510124984,-0.14372213216104238,0.12977803397035387,0.052199364587163705,0.2807864260174501,0.8463106842249325,-0.5632895009491296,-0.31159064211372606,-0.12958743517554144,-0.1356227030175405,-0.7041810533359455,-0.477262579956876,0.21612888400869495,0.06736806493194687,-0.4980503426048636,-0.8806782135416682,0.21176722130244963,-0.2505114511989429,0.6562128909944422,-0.012785445712631039,-0.47140815774856515,-0.033737689070611136,0.2610746990045619,-0.5909950936346514,0.01736684579794426,0.23958783411933893,-0.17074460987341142,0.1833121577424955,-0.2331186133909562,-0.4533419419556297,-0.4137184800337827,0.1410539141395014,0.45203684774090075,-0.09643480100496742,0.5274210158776212,-0.2780645245456549,0.24072777041311072,0.024690640275838158,-0.2358909677777908,-0.03977669640819643,0.01012377184831061,0.40500186894445717,-0.2542247527714798,0.002470447958813996,0.49165396526289595,-0.5691626786732545,-0.12929736905057188,0.6709792273107434,-0.28959680188007875,-0.12372397655873912,-0.09264614750937422,-0.14363772260398083,0.26430783181928935,0.7863056220155955,0.01268636779438904,-0.30883111756285925,0.20798246452572486,0.005921172040787786,0.5900192962749492,-0.030035200932543384,-0.3601377956761125,-0.214123725099839,0.08745796851850224,0.0063687712364629435,-0.36497862055795355,-0.663315998939861,0.38208502904378466,0.43160894169507497,-0.2479418957391244,-0.4396543904529187,-0.5500945550827193,0.3700845495260205,0.135506256356323,0.25491560468423385,0.17510336335505977,0.2304615446555829,-0.4227835224568945,-0.38823185193842724,0.18620922805124027,0.1977903946968423,-0.18662530317330708,-0.2507848998000179,0.2971298251176709,0.35346936186932976,-0.1115520939033462,-0.18025373913187503,-0.4003114639453616,0.4758163453298618,-0.08527782925581824,0.10087797305249441,0.16404604313781482,-0.09691980537106809,-0.04578703369198332,-0.03159160023561306,-0.08314528434897805,-0.22662187666857578,0.04267972318405992,-0.10671533994126951,0.0832031156186292,0.05998196509284095,-0.14376606324010235,-0.0869139374888507,-0.09143535587834822,-0.09064553554520029,0.02908170203649973,0.06590754896279286,-0.06109277289031373],"Dims":{"W":16,"H":8,"D":1}},"QryWeights":{"Data":[-0.5262181211150835,0.4098009475725669,0.47751727985258374,0.02023520368565802,-0.8724916236258978,-0.22379912482347059,-0.12216143993625493,-0.20721714101847505,0.13333323053415855,-0.41259309806717076,0.045505072100329884,0.17794264112830113,-0.5097094439032349,0.06394708829200724,-0.1942297949325446,-0.12318503663913026,0.0987043069202938,-0.0005094450890980259,-0.28691074854071447,0.09785329746341427,-0.36278538391945236,-0.17731317722476325,-0.015545778358803495,0.1400669986296328,0.11126626981957018,0.1671874664401482,0.38713157213965155,-0.3061586678652461,0.017536963575856056,-0.16064595366136822,-0.11001097058777586,-0.43996354697426243,-0.2684235171006881,0.030073590148308904,0.14966412725873843,-0.3571384364284464,-0.18039805327259423,0.23619180446140417,-0.18347449061179713,0.33512930057834156,-0.1017995218489271,-0.22116932348883478,-0.2984690609567087,0.16379613619570887,-0.24438899113619994,0.13054399256067725,0.27587031919379384,0.031616113824864615,-0.06985137976658785,-0.008308941271784236,-0.07443018836054867,-0.15631672147904924,-0.5080897129408614,0.06070120468695441,-0.06619827694386089,0.3613360865748326,0.0433821718256919,-0.10540095426077753,0.04464401767591651,0.00934101837305857,-0.13316625290233186,-0.09301451456256031,0.048939149828127415,-0.30565447874745244,-0.06159443613569742,0.3653904215840738,-0.6979563601021115,-0.08728166446037834,0.18612770588833188,-0.40325863142054774,-0.430313609066908,-0.05642695066784992,0.0014270474894281055,0.22615986571702779,0.7783372360844655,-0.5311542247875208,-0.35301462229050584,0.23704068524221159,0.06916433755947958,0.20903613054453962,0.04723602262636844,-0.2829304293423971,-0.038462355884796726,0.01763629731793922,-0.5117349681517923,0.16962822713213213,-0.06552869617652399,0.05351182368992898,0.04836847119032411,-0.022370928202038773,-0.14775480104836264,-0.41115226402522076,0.03194631007306416,-0.08880964895030963,0.06051607124206967,-0.5279303413933988,0.0825478936307627,0.16271730114491156,0.26541074059966935,0.24959627535846554,0.018166878330393016,-0.10133496005772683,0.2872875425212303,-0.5811081517896596,-0.12819780021321409,0.3012795345625017,0.19154236585159548,0.016429632537078843,0.0016492531141685306,-0.022763759963894067,-0.29924036343858906,-0.24763627311776923,0.15394718918592581,-0.6932210571359879,-0.25783537516462174,0.6029936581704401,0.49685528839299026,-0.8115036572892129,-0.8697555794781356,0.012922286632479723,0.8684375037486256,-0.38037845905881223,-0.7676849285900339,-0.9372518743041726,0.9599937509088271,0.18773602852625243,0.13140792260820366,0.6484397857362221],"Dims":{"W":16,"H":8,"D":1}},"ValWeights":{"Data":[0.30339814476785165,0.6233565783145856,0.6285505024641133,-0.12676011466484477,0.4506039660658983,0.6059457427244743,-0.40548819562486704,-0.23440370109496067,-0.19176606570212826,0.05057947050882284,0.33636693539168283,-0.077809682711881,0.9682082193614374,-0.21499255088443162,0.27007401018519966,0.05774613954316344,0.18982344294201411,-0.5739676859376092,-0.2862320355649133,0.2838810815503748,-0.5579876842001898,-0.8884396329561157,0.12315485462279331,0.49269576078718025,-0.5945896924672461,0.5087553943891118,-0.06885243131852917,-0.5702208669810525,0.46549781654153033,-0.2989257651821896,-0.052229073108378724,0.1344532262896698,0.19300594490323633,-0.3988518145889496,0.22571850011730343,0.48162778460388755,-0.12893842093623856,0.7045945097745283,-0.07224569058043291,0.20030449552812538,-0.23754700804618414,-0.15282955259950798,-0.14648946673876256,-0.0380828556595433,0.4840644967053041,0.362941290813854,-0.5082684401294442,-0.48158372850725883,0.041148178277973166,-0.5022905273739894,-0.3181906599891741,-0.3289352702598054,0.40028618277141886,-0.33549827366840373,0.3198544046376397,0.21660146225529683,-0.34454545540410864,-0.49766204378838197,0.02714358455047995,-0.5088044612194355,0.4918943765848217,0.5207903321746308,-0.5828063173573735,-0.04243638880332024,0.07839299302676192,0.08497772520309925,-0.1373772151652375,-0.03960779313404182,0.1402421669311005,-0.20163489354283892,-0.062118671520410104,-0.18465980109211547,-0.06014708658134611,0.06209994066914979,0.07628928508231315,0.005736043355781802,0.05295215664200699,-0.11764785795927896,0.30905847530013064,0.1281083749364641,0.03183292241506463,-0.5454190288848438,0.36638677424177873,0.32912334983090336,-0.541159763903377,0.38026280298400245,0.13896939855626916,0.7406240062365922,-0.21124706522623443,-0.08562902903249243,-0.22585011706289432,-0.2827922152663995,0.21454145296713403,0.4283988593358209,-0.9999639282494638,-0.441906374049775,-0.1693650960177991,-0.07243543678915382,-0.2590133955682651,0.23250433828563805,-0.03494285208275066,0.35554313503364676,-0.005461021711239244,-0.3675070817086727,0.07374763690929297,-0.023659718979901136,-0.20387047494496432,0.17775746911341497,0.12430672279137063,-0.1301904164006864,0.3539868404367589,-0.03679182133033154,0.31788923736133085,-0.18111253437762395,0.06198050708325967,0.34231176772659744,0.2141559697531041,0.31723810815389125,-0.12472697186433024,-0.06917056102414222,-0.1715472572807906,0.06944574684867531,0.11403156778414114,0.11487036950931813,0.3259972038663353,0.006897059664638894,-0.168921844670698,-0.2942528823612123],"Dims":{"W":16,"H":8,"D":1}}},{"KeyWeights":{"Data":[-0.21858383642631646,-0.3776918518668574,0.31126999460904825,0.0638669844184792,-0.412011651446948,0.1874876876588923,-0.7104128305222964,-0.7393158262429134,0.85340007601106,-0.4267467422441231,-0.028520956854363174,0.12177192212047862,0.7429628308664605,-0.5712825121760339,-0.2691909129060024,0.214595809935772,-0.1946558188460597,0.41011178480059707,-0.2385060504016256,-0.799431998620373,0.1060987455427644,-0.7687515563715989,0.42305509863706914,0.7226144357199551,-0.12906327374302518,-0.20655161786351894,-0.09779682870245297,-0.13679775570320984,-0.14009465304884136,-0.22369863644814705,0.24663135566004316,-0.1476088987857208,0.22773041491586987,-0.11872275152687226,0.2383013614415181,0.3007408343216974,0.2243305984776353,0.15852431275773488,0.08429488422665968,0.06942406954879239,-0.16436909067046673,0.16282760649818864,0.7505276570943584,-0.6046935799191863,0.2580282495261913,0.41856048576786586,0.08570338383774247,0.10503175185290854,0.04715906284408135,0.34837892564236844,0.23797712031641438,-0.03245612854820893,-0.13907948076936028,-0.31382670634234094,-0.16126399724880072,-0.01943247947049497,-0.5038798725784848,-0.12284651408442318,-0.5098724377852457,0.44357382183406496,-0.28210207669903953,0.27440063980974955,-0.007335740742140819,0.07225151996366952,-0.1577183543618061,0.03355281088204468,-0.3426236668191223,0.1900643077587768,-0.3901572407696264,-0.593381246608284,0.23231907635882384,-0.36013165428869,0.41082505429842264,0.03478854584673535,0.015474972960818852,-0.05240627487475983,-0.14468631579299238,0.1027846153056947,0.46896795587272505,-0.27890237982469823,-1.0246088557770432,0.052035728379450044,-0.9544029163416273,-0.3941645836498122,-0.18292849937057504,-0.08266927451090642,-0.09969861303461162,-0.49324161208640316,0.38688588543821395,0.3697708812549745,-0.6838956353091846,0.4373622613532015,-0.7028188578931099,-0.33645977622517903,-0.19719923399954703,-0.6674261060359191,-0.43855903171429317,1.0139045622881344,-0.7554592565967225,-0.248379658309981,-0.5408772547279488,-0.4716782059830991,-0.4200265505222417,-0.338355178715804,0.8654061632062836,0.2969101921189294,-0.40992450979505357,-0.20635672822006357,-0.44931124271536704,-0.6682880935820926,0.2929953151248639,-0.3250677310080128,0.02357372510557979,0.014801991888327638,0.16103961926494742,0.08997969107236266,-0.1005788398679854,0.06069274261012045,-0.21679160162047267,-0.13922430396664334,0.14819785219451878,-0.037982028976322545,0.10655174251816316,-0.058205333913424466,0.21385317041025156,-0.13090895461255508,-0.07791603150224351,0.15424524032017228],"Dims":{"W":16,"H":8,"D":1}},"QryWeights":{"Data":[0.34955113240975955,0.37249932090553234,0.1576447259608975,0.0025535243014410225,0.10510767934261091,-0.3041162471742419,0.23745250363093326,0.4825899097411503,-0.14924130609233655,0.04372207387659453,0.5344433063579291,-0.577123350352598,0.14572093200427855,0.12152801008902367,0.3006441298258774,0.17301450743393468,-0.09146631453874264,-0.3717108412882969,-0.06351675955637241,0.37164522874299033,0.01852550988792063,0.19692933696052706,0.002801504684517405,-0.40370453134463136,0.24087779744006158,0.19429908307575694,0.5269218596520094,-0.3803446262784997,0.1677891500053695,0.28983515044911357,0.06794946744468108,-0.13145638048075142,0.5829730593550295,-0.9456313539649223,0.8166597740142713,0.4711974153948001,0.4346832849178893,0.8214998425736575,0.09634026321507301,0.13656525037691292,-0.45971436650671815,-0.22654916407236855,0.566203592537672,0.013957646455158635,0.6873656353548631,0.3608753628264699,-0.3764596865714438,0.4955643460702222,0.36671128499524175,0.2046385596755185,0.10885719144694743,0.06919337817226436,-0.08272102765341019,-0.06750338671109099,-0.03065293033308847,0.14319485957560305,0.389185110495205,-0.11905430475845033,0.3345253722742445,-0.44653804174794176,0.32744814916301135,-0.2287994533680471,0.26325610479183,0.18207871884512697,0.22129679023959256,0.018039999299957397,0.21898831442520791,0.5016389659689416,-0.3902843582155917,-0.21809533454068203,-0.1306421771612233,-0.4657044995092535,0.06216992998557135,-0.09373598449155823,-0.14619995379260559,0.2375018179252833,0.01331598552549488,0.2533541956382352,0.21958512428935478,0.09466809574376253,-0.3392720204844476,-0.029130127264228096,0.12292751159213226,-0.3733468815463485,-0.3668101181196349,-0.33076457248408697,-0.42393029359511386,-0.3101894549825411,0.6007265964737236,-0.4762446677166427,-0.24776806019969053,0.18298970471627124,0.4488168862046036,-0.5793148182994466,-0.10436875479894314,0.07910208049452896,-0.303713256137325,-0.07098610810593728,-0.5341557083174728,-0.3225438318220765,-0.03648572962071725,-0.5538432171062261,0.5872935549394106,0.20645282438213391,0.1538650213157142,0.008240843139894989,-0.08503735860341395,0.026315226781850415,-0.27634651525666226,-0.06727049073001304,0.319112752311793,-0.38138417054480145,-0.8373387525135589,0.251379031548051,-0.9001493900280576,-0.05053988228753136,-0.5667558082947391,0.13530353522142796,-0.6000869262028506,-0.9352627945841722,1.1973857451783114,0.37089322864718166,-0.5377618672798175,0.18809678803478413,-0.3284733903724603,-0.8572434634331154,-0.14455873723984464,-0.44436569548979704],"Dims":{"W":16,"H":8,"D":1}},"ValWeights":{"Data":[0.39456132196910604,0.12846866009471752,-0.18588155184555993,0.0352084504386,-0.05303300763860163,0.19691899994445813,-0.054675215797637566,0.14724272616910564,-0.002739130603253329,0.13995929870634624,-0.10539374978116045,0.12947284869584846,-0.21930328079133377,0.131429938486559,-0.2849856942371455,0.10494063592540719,0.34255809083910876,-0.009774842826863774,0.11233179130683345,0.37597453285377586,0.029690867018422898,0.021731883827277865,-0.040670504650017175,0.15328715263658035,-0.0683775154026127,0.23726792454943882,-0.14040719140214963,-0.026260775846423463,-0.1931116864071865,0.21477038561981102,-0.0033044515949975707,0.07366989626699309,0.11865252779947945,0.26319624967540406,-0.7603906243421302,0.11709837102909158,-0.3775650756378003,-0.007480732376580157,-0.25492305347910976,0.17281315878467324,0.13499276051245254,-0.3239929090972947,-0.08387267177461807,0.362796083335998,-0.32343763329413006,0.018725122131945725,0.12331651540498144,-0.01611771930953343,0.05519744767491487,0.10533034392103838,-0.29306259804426915,0.1658874310736172,-0.13304570851236497,-0.18523067177360222,-0.08883746597151321,-0.035683703714205026,-0.14977486271847104,-0.23844385388006542,-0.06326347740157397,0.12532328681943056,0.16245460405758258,-0.10351157941677581,0.21691485062502336,-0.22678725027336696,0.14994407533147167,-0.01936389095742362,-0.2975051938969068,-0.14529059233307726,0.19041882782941139,-0.08370369926634147,-0.019315447133952935,0.28476929883271723,-0.1171170546830022,-0.27666236318169,0.17813133994618563,0.055872451540062075,0.1741391893867092,-0.14958199255438256,-0.030033253211304477,0.10644442621694272,-0.2231881976818389,0.03244085670640509,0.2804751231224111,0.2212328519150772,-0.46094967713086593,-0.2122842487595595,-0.4172269019844175,-0.2980286338488426,-0.21417428207893024,0.04494139463057173,-0.2956599362405401,-0.043142853673277914,0.13164596464995956,0.3378131422063439,0.23761496427046522,-0.28484954261603884,-0.5474326033835845,0.07403361345772595,0.1491849746916775,-0.1664076965449273,0.19869761029876806,-0.046486502136012596,0.2600282057493742,-0.026415666675241034,0.29596876784856563,0.04487512485423579,-0.14511974640029607,-0.03553951623074685,0.06626936786432064,0.1405346355497868,-0.12244180474221168,-0.1708277370661234,-0.11533554356650187,0.20694966744266263,-0.02996384211868705,-0.07176374474943409,0.07574107956486704,-0.06837106505085311,0.05474076653470444,0.02692295320535366,-0.04265182507612404,0.01605990611561416,-0.2923601416443776,0.07018990615056848,0.2350961942466154,0.21673102340670178,-0.24936851296766768,-0.28081942730085013],"Dims":{"W":16,"H":8,"D":1}}},{"KeyWeights":{"Data":[0.2790121376210297,-0.3359954349601586,-0.20783351801992206,0.015654495751728795,-0.18918869219134407,0.05382943961455028,-0.046257324208729196,0.024853303738535008,-0.043247948782691566,-0.03053435433544398,0.11852596362660416,-0.2739070567298619,0.2902567568025607,0.2502777854093217,0.19503689919548275,0.037686724410071225,-0.09105539092043724,0.2002725202127108,-0.09161764157600356,0.2548904540969143,0.03272074202349287,-0.002285257990841457,0.13177027622109425,-0.19945115535277833,-0.08810137690557175,-0.3127389951158745,-0.3339824342678133,-0.0813912502363156,-0.19504578298397926,-0.25068937718419537,-0.034525314887918976,0.04359311040837501,-0.3872455819970618,-0.15487200160719874,0.02182038914196146,-0.4724973678704329,0.2949208782540393,-0.806577909543697,-0.3894014588681142,0.2374615189717143,-0.00911092128087977,0.3018295506511198,0.318803237162799,0.2018398123916511,0.07046475601222774,0.26111007434769784,-0.4124376430271748,-0.3938813478263657,0.09057750082232952,0.17408402332777745,0.3664373107902127,-0.21702335968440992,0.23996433428931158,-0.06822143506721197,-0.1536433590050265,-0.12528073755640598,0.3059935451810591,-0.19019350804959556,-0.025836968203847847,-0.13477094563020017,-0.09054868421769717,0.3328445124166558,0.04288130554837176,0.010683930441220329,-0.34169831710945364,-0.25507770275595004,0.1322743752716864,-0.024190147844627058,-0.1425629164889048,-0.23728321731182792,0.06797402442559404,0.30044226502075244,-0.14286776372381008,-0.023067196169044218,-0.36714919750698854,0.15329465253842495,0.075702904314494,0.19315665333271145,0.012100114457464398,0.024856693309730674,0.7725195247604778,0.08802499815289662,0.024775275438725233,0.2312571081586306,-0.665566183654041,1.1492350819169959,0.5314963557106474,0.12920779576456567,-0.1191232591526744,0.12311649809531915,0.2176710247965444,0.4049410539140885,0.1151378690573111,-0.01197935168018359,0.5194480483565138,0.2841256033289325,0.24446723485756489,0.3717688483642369,0.042439394278723626,0.189852619490649,0.023110014947603758,0.6537369734346412,0.20951976121402663,-0.10160138508847115,-0.050581753444491305,-0.5630365186522953,0.12542988238622263,0.06862273516205791,-0.36500401273107447,0.08219886501075407,-0.3048028556341188,-0.20085603012907702,-0.005008379426194313,-0.010651679360377683,-0.04433674355110859,-0.15346558938070176,0.0904754868065069,-0.10330945842173561,-0.07421146941702456,0.00943992921785943,0.05107161287942872,-0.021311497423226373,0.12097414276960215,-0.11105579938121099,0.0354050846741839,0.10940429516440119,-0.09497021866854741,-0.13100745168173622],"Dims":{"W":16,"H":8,"D":1}},"QryWeights":{"Data":[-0.47855766685659484,-0.3646139188764753,-0.021454426728535748,-0.5326659502129991,0.296152872662744,-0.9821044870202358,-0.4658614482681589,0.28380892049233175,0.027311922913202342,0.3701209784426589,0.24263379805236476,0.0030160539426695547,0.22707204763767896,0.33170362648921164,-0.3346632779162543,-0.345865693217847,0.11621595433162636,0.31350039293574045,0.2054341635190511,0.05263497560415124,0.07930689431677039,0.3684005879253555,0.11518942600167861,-0.050525674050010905,0.04109042875859366,-0.3567634451539751,0.025868232133604636,0.17057018269529764,-0.30761081023914594,0.1398063220330011,-0.2167120952191699,-0.1265655628650926,-0.11303489380732494,-0.004200706064403267,0.1647482232092745,-0.33730454053002107,0.42193478202770046,-0.5176580293528187,-0.4500221137253827,-0.1019578681005122,0.26768653000309495,0.08590409659535464,0.25395868284552636,-0.209650809814421,0.014956561002559857,0.2362851900298769,-0.17104207011858047,-0.1427721659772923,-0.28004951388692423,-0.18720778912076297,-0.2634307096966137,0.011116820833209126,0.09624654587070104,-0.39620087807822296,-0.1818899623893769,0.07694165089528497,-0.17979396754112476,0.16315524043055205,0.1483502673665342,0.033428513860203866,0.037192844617672895,-0.14335616532363502,-0.2942806899135354,-0.18675237361184022,0.3473272424633902,-0.10915504676850478,-0.15784202077521295,0.024084713753358147,-0.11277561847410242,0.06155967404050347,-0.04913714666548229,-0.14023311763822946,0.06404182608182174,0.1962098543845422,0.16928812999892678,-0.15694752320458408,0.21783399883536728,-0.03972121736428989,0.3051765578712972,0.15823218849778584,-0.004441604287820368,0.1612372195614255,-0.14500571305355633,0.13272227761709227,0.1335227312721363,0.16330955233502437,0.07995602382168049,-0.2216876389443174,0.059278732651841096,-0.30177154924382893,-0.12528870599835665,-0.33817622469026914,-0.13637650841890006,-0.16761002398485111,-0.10230237567912162,-0.0324973358338369,-0.18116563872084315,0.21073869956766553,0.012023757500601737,-0.15943481768884987,0.2091599990977817,-0.25793944478523445,-0.11349173379635678,-0.026083312930084902,0.043254321020024335,0.31745237885520255,0.2071321379461628,0.23483820517876583,-0.11070691663694514,-0.27281982063958504,-0.18832454710340737,-0.11706845037598462,1.3691795594202172,0.2923724723622464,-0.1060795905141043,0.5006188413075755,-0.8677616053126209,2.155257238780958,0.8423696662667933,-0.014839923710820949,-0.14794898142085144,-0.4297718398403412,0.43317266050937975,0.196788232656227,-0.019841719665878412,0.11013408924672449,0.5151692828114405,0.2342933310694202],"Dims":{"W":16,"H":8,"D":1}},"ValWeights":{"Data":[-0.062403740865859786,-0.034556360213127274,0.136806459731991,0.22891951648251868,-0.4790416048329447,-0.4101319580403148,-0.08547500294785522,0.0020685944476827975,-0.19178180130904895,0.11908615776872691,-0.4798354440568781,-0.21771602301911205,0.3591259544213727,0.1496774457328397,0.08553833975055919,-0.06645990378997789,0.3299103609416135,-0.1987900534038928,0.15774639753603667,0.19227301760923904,-0.07035661703758556,0.2498323386014633,0.2994896080361459,0.22863575106793874,0.49944972176973423,-0.27503229534474133,-0.1137737630160125,-0.39063887252616963,-0.7940436870324213,0.20043507744187467,-0.17544211360057693,0.5625563966571827,0.05835699097914628,-0.2430178262889888,0.019229085911568994,0.1803744027122084,0.21166161116409268,0.10588561486296347,0.38035874424982175,0.234972062306669,0.3573822239097161,-0.028076667403969306,0.16740399962080277,-0.06134932829280731,-0.3930558889528712,-0.2509871405399563,-0.31114665590276375,0.4477502737573564,0.08290179902855378,-0.26008238447095583,-0.06505044605450011,0.13977089843004206,0.08795524488025733,0.003649211327284205,-0.045355921291648026,0.21150453346293693,0.10810310198663085,-0.027694241600578658,0.2088996749755214,-0.3766387384232198,-0.07689066859032957,-0.15271419309294113,0.20197885393149406,0.338878146224015,-0.02781311817928109,-0.06121902434213581,0.05457050832374457,0.32274321448037896,-0.3265779046199204,-0.2106412781679419,-0.04574888085893961,0.18294365214914188,0.14296047743572896,0.134703228664053,-0.5152578699116419,-0.3038529814689412,0.22076518189290856,0.12821541309304776,0.037586815385740276,0.16618576773195737,-0.052649152693586825,0.1534018386998398,0.0846821339399178,0.2138509007195342,0.3320832849296749,0.01208814261412862,0.36781698957238446,0.2802895300511561,0.525916467034327,0.042607615258559696,0.0597666449029355,0.2246717398824822,-0.5477549610349971,0.03989744476358066,-0.23009249183621364,0.09900464996659811,-0.021611484381182506,-0.1286627594533271,-0.062343097796380115,-0.1763249273516606,-0.07898915701272227,0.1622020952436989,0.15338065014931557,-0.20298691057293994,-0.16342113011865303,-0.012599983111999688,-0.2962626255058333,0.34810323607845695,0.14902014847087555,-0.13361076062931954,-0.6104859589274438,0.080066922192955,0.02980159471685982,-0.22096507409509897,-0.036399211721644224,-0.02961265642552289,-0.20612189128673222,-0.04101223887728838,-0.1064763745059738,-0.07930387190220643,-0.25010888621319816,-0.006587477759970111,-0.1136515781839604,-0.1590153700331463,0.2846754296559919,-0.10600722112394506,-0.01642166548637996,0.1080727762666828],"Dims":{"W":16,"H":8,"D":1}}}]},{"WeightObj":{"Data":[-0.1420292992815729,0.13727620078018055,0.23904573764817502,0.03679814553388554,0.04379347549016369,0.05861958837033109,0.028608377513054804,0.17346016811647025,-0.07276885428785856,-0.2977770300348981,-0.33028349929110756,-0.19241176363339624,0.09969524884942932,0.07555607093430765,0.14588171166952563,-0.17533351761694074,-0.07332028921549405,-0.08182962262708295,0.06671652514382427,-0.04945969842853952,0.041952576900829326,0.0219205670308705,0.12940781224742526,-0.2623538218627182,-0.07511608053517048,-0.09529894546290997,-0.015210526953834475,-0.03542869620128469,0.1532485349368468,0.017745083654635733,0.21509093166680388,-0.07908816133312599,-0.004633329928417533,0.01741739055007175,0.0827400704206304,0.21282526385203035,0.2415083371818764,-0.12434426897675135,0.20825199883185752,0.5441300192929829,-0.18255636964831445,0.32030497879494274,-0.28434655227819267,-0.15613203744187076,0.032763203125762703,-0.6222782636867349,0.05324555426467717,0.2879250973912134,-0.14271438519874813,-0.29842428300732793,-0.09836585320600015,-0.6070412733993668,0.14349007601969252,0.16478644950810117,-0.08179690806009943,0.049563646459126615,-0.039016447491314825,-0.08066185964457223,-0.01316819510145571,0.035029787623268825,0.10313461181506686,0.06656088865611921,0.18771345313531157,-0.1730508139870111,-0.20068823687568754,-0.06802174245136376,-0.19369632209789933,-0.37452166971228423,0.014258812924994167,-0.07352069017121599,0.005981508267836671,-0.04419456392307522,0.03293934847558431,0.31531111618287705,0.006072361905703645,0.17673740430382254,-0.18199455067309914,-0.2923980935740261,0.0034773213784266292,-0.20253393919756627,0.0182965408287574,-0.06263834542367032,0.3768043428404415,-0.4488515311147659,0.11135747486561237,0.0011461915181414364,-0.22623304865825963,0.30964928434917527,0.2407895520016481,-0.25626510862226026,0.03063971474786524,0.3793577612512768,0.15930984886552288,0.2251705408110575,0.22156777602695707,-0.05441458390917229,-0.3649453962847819,0.2605453881729991,0.08595668551001678,-0.39148340379622837,-0.03969483156289852,-0.25330807513699155,-0.09444057961100027,0.1610654333188085,0.22139100125868427,-0.2480486836185138,0.06026507901121092,-0.26490471526888304,0.11578453611137841,-0.05036790860948473,0.000728233148675806,-0.18746377117844396,-0.03516641025617511,-0.058715054856059254,0.3037371519231148,-0.31852733531752325,0.0405036447020866,0.09674379874403063,-0.19557112000274374,0.18815834248705682,-0.011017820161242066,0.20502100481821411,0.24123833054835453,0.6111535035790919,-0.014551452817436241,0.2153299341409836,0.12312156970082949,0.1749194223870579,0.159392229931939,-0.11074907977063107,0.14134779166197695,0.06467780554240939,0.14668710132618737,0.1683600363839101,-0.37527292613648805,-0.3052983610357397,0.2063822681205154,0.16033116482423732,0.32113472299928036,0.12635196075638563,-0.4622467582591371,0.014571371604159286,0.3244035694201021,-0.052269467845463886,-0.005054048768601715,-0.4454308140687341,0.3682673232182742,0.37802673520062013,-0.2678827749812527,-0.08735477007434334,0.14579405857224154,-0.10290071401783783,0.19163427431745558,-0.21529547185850378,0.05286483744780545,0.18910987076138694,0.31206092513600037,-0.3993348674112343,-0.3706648934781886,-0.020322551387878685,-0.14867483245489485,0.23753343485769707,-0.09127061055165181,-0.3878816696989724,-0.31939046079151395,0.315408743468484,-0.1130375680244478,-0.5178412164033152,-0.30961781250325976,-0.4757819522878297,0.18457123501431758,0.028611182962050945,-0.51394718840479,-0.66634357129529,0.1001967359121519,-0.22884663531226757,-0.19172057845212473,0.04825529508755931,-0.2509853611318792,-0.09809475256574375,0.10111503128397009,0.07716437499571009,0.09361676828501252,0.12325988893068562,-0.1148917562398627,-0.41560066069522056,-0.007890965763325252,0.3047702814284986,0.26414927768953445,0.14193862389995776,0.026910904705107458,0.16683567998070262,0.06584160787029077,0.08533801648539109,-0.22436122852144202,0.13728433717601327,-0.23717177311195173,-0.2161074926851379,0.407491787853329,0.0686354340992297,0.44537885297452795,0.10258012757118971,0.28630004471873677,0.3723289164944411,0.31680712159856167,-0.052164207264143746,-0.2443906610400286,0.09888098242500513,0.11623644166723632,0.06748694565309024,0.10704916221890268,0.04835767324557223,-0.05473562586236151,0.2531705050614018,-0.11655479539871956,-0.25103488671448687,0.24438340358690477,0.07193597023985279,-0.17583768100338806,0.16047077406967344,-0.12508178159553773,-0.32834677297429915,0.11386656504749129,-0.12916536550604155,-0.37090066751459555,-0.13945916632716124,0.669898456316925,-0.38812947898022343,-0.08995517139275491,0.14800738783447268,-0.5837225165431031,-0.21513172063117572,-0.39686910901308015,-0.3409126476944857,-0.34563798001795437,-0.21790650808846426,-0.12153316170461358,0.0649604364886119,0.1724076971479582,-0.09936199031322439,0.4518522317137213,0.6156534604095262,0.3086746131053112,-0.1875484073349837,-0.1293046806195945,-0.0876790845141748,-0.013295119032446172,0.1313210406407173,0.11358248914790248,0.344094878321704,0.13551994358747985,-0.09180894067324206,-0.0562433916985936,0.22091412778338618,0.14395069097228008,0.17620055466041087,-0.130194967035714,0.024524560114473782,-0.14224375893663904,-0.021583134114662558,-0.14408211583850133,-0.6166850467963612,-0.24319177001509787,-0.18432676436123802,-0.025538434821975747,-0.1323772362270169,0.12176033685909148,-0.2122040716793571,0.01620754064544216,-0.14191313607206993,0.10484299316303036,0.17546444922554458,-0.10818543410567934,0.5654401012441231,0.10332958987416858,0.2823809440550526,-0.1916338372467344,0.5999940192535468,0.1620911186747584,0.07120165752369026,-0.2274800682071954,0.13274426713780993,0.13409090518259034,-0.18328886487800522,0.08466677336950336,-0.07492171154400036,0.1611246010702996,-0.2572550186829174,-0.02435336203077018,-0.13184116560916115,-0.30723077331218107,0.19968642488465646,-0.4101566475610801,0.11330220258580724,-0.03498735737535484,0.2700525487051829,0.10101869656397186,-0.06403956253128358,-0.03837249870747573,0.29855669566902115,0.02794499777666535,-0.2348594049546771,0.004658542141094686,0.011232904217402433,-0.011026309532462813,-0.193329480241387,-0.1884248576532265,0.30642115434268286,-0.1744610510755026,0.0889778870970164,0.058692754922983655,0.229985423776016,0.05675743998409286,-0.25514499473628577,-0.19343437720364032,-0.09980715102822502,-0.2027578429350087,-0.2818348588846551,-0.013848034959142858,0.04485634714264259,0.17642570769954827,-0.2861003884835929,-0.007000551433639593,0.27403478457402874,0.15976602110851326,-0.0227854955158789,0.21742478653243458,0.025523526815037424,-0.07753330730631473,0.25906373754030265,0.108276724255187,0.2513686697076444,-0.11341812252994724,0.07307192743434952,0.21290478086597922,0.0752487030144252,0.13957550567709873,-0.12306211056807802,-0.2826823985432228,0.2968271581188176,0.05652888222829487,-0.08052960899902624,-0.2860079049593869,-0.22853542716875322,0.03091080927816908,-0.2116531307920771,0.04406347947203007,-0.15808939615806122,0.10381604243422972,-0.2565001100724371,0.0007168179369983626,0.008721925920859151,-0.14954535701724433,0.18790209977673222,-0.05041345717982408,-0.2867003918901281,-0.29552370959573826,0.38365168131786287,-0.1830415953993324,0.2943321095260731,-0.05147365640400517,0.2019773675015635,0.27148029222532977,-0.2364244593561814,-0.09400309156037415,0.10842058598863072,0.32910479182249625,0.1601924443826827,-0.060696920689832,0.0497373238438047,0.024439804682781188,-0.09764873557469894,0.29826593590138967,0.14067291272311863,-0.054929371347817356,-0.4119126145606432,0.17696210493248538,-0.09297610065931,-0.20744853072827432,0.33008996585530437,0.020860484942660074,-0.25959300174628436,-0.12016799192920971,-0.2270560259759494,0.03266845735489318,0.09396398246013242,0.12761726658773936,-0.11713251152766939,0.1445398740033743,0.028054199716402235,0.10433188030668271,0.09212165859953311,-0.1291079566537187,-0.03483644814353052,-0.02800343266689584,-0.03520973966015654,-0.3413150854396183,-0.13231814895690816,-0.3265586294730172,-0.12117050735113906,-0.008786827559911696,-0.030895376390911094,0.0166259627909674,-0.17989992102784566,-0.0801408362605353,-0.06421830149491883,0.08004031769799021,0.07201228506388282,-0.03975662319687051,0.07014702491051472,-0.04607305154396775,-0.1184524384181489,-0.039704605591618695,-0.21431519662474782,0.34291960686779127,0.2554322528941567,-0.057713182590077954,0.37379313201887443,-0.12028088171472323,0.14859760767754837,-0.11069061169706829,0.16245595347935893,-0.41036507409805795,0.04276421132157518,-0.051076345223990106,0.1582595737505021,0.04856957763271088,0.00454120766891882,0.13425774599590104,0.19239434304762584,-0.23376207240612049,0.042100013250375885,-0.0710355050095942,0.09802868125110493,-0.18055857983283788,-0.2181526613008416,-0.09077950974727216,0.11921301904316527,-0.09072536133813305,0.27193964542611154,-0.05071291879744719,0.23423049284487837,-0.042320913428928075,-0.05821976435203404,-0.00441503328360132,-0.14124826327388795,0.20658146657941456,0.25815124178120713,-0.18384954101356663,0.3522521481815981,-0.07523022907291278,-0.21606642110296892,-0.11938489556759757,-0.13289929649495225,0.01999767951993505,0.4173856435713674,-0.02958513757003176,-0.09213502585053253,-0.10920666788056715,0.1159298071113058,-0.10619967231701184,-0.08411199864320376,0.023893352676316013,-0.03355237645615967,0.1321405399642627,0.48017291952429314,0.11889365858759794,0.26128126031857485,0.003333583089847284,0.2644580057472584,-0.26892591507131747,-0.08401018856280874,-0.13379582945431545,-0.16166852941937734,-0.309859306182662,0.030007075461825874,-0.30671557946461664,0.20078832311708436,-0.6732533619593717,-0.18464804919006125,0.10902893399520101,-0.48416690624025766,-0.015869259863398995,0.4247878703469264,0.07694895528127556,-0.05967495702232222,0.17633204616481216,-0.40105581101269666,-0.10371991425728565,-0.06621189980436275,0.10349481083049061,-0.2528776889558539,-0.1367415552917738,-0.23553695687148102,0.006575856712938141,0.0027194773433011857,0.1111442952932978,0.19774992135445135,0.33441592468792575,0.2001352430238868,-0.008331880808718032,-0.24701165772754466,0.25227178950785084,-0.17654713541269526,0.03169496507511185,0.22032159697377993,0.00782776994137951,-0.11679710415421679,0.33360723482086396,0.05852272209268346,0.3750268873367562,0.38576255380157976],"Dims":{"W":8,"H":64,"D":1}}},{"WeightObj":{"Data":[0.7178345554601967,-0.11300915660672817,-0.20721663883535962,0.18313757890770885,-0.5732238828080389,0.17229408791969567,-0.0472448129466332,-0.3211878050825304,0.020394301439118728,-0.17567622900788604,0.07508847386330327,-0.047915467027335505,-0.03123851164377518,0.06803715763427477,-0.0387165754218937,-0.14898798702322852,-0.09175936525361758,-0.0393309711553072,-0.031721288523280725,0.15640112609961881,-0.011521989931277916,-0.11048572311195755,-0.010650028162434348,-0.1375101680746092,-0.11494112119071326,-0.05873093414122094,-0.06356157725604215,0.1478166766669923,-0.019327861919991925,-0.09564667028886849,-0.030406714875699074,-0.16104821893733026,-0.10138608115128193,-0.04319583903232779,-0.06847049695706944,0.1301605019895078,-0.01669832875252072,-0.09565454176573358,-0.03271074282243751,-0.13920091742160434,-0.0751474351157559,-0.03996401172278242,-0.1030890646786858,0.1326880644599751,-0.008383383644691142,-0.08130565111614202,-0.0103498376052802,-0.11336897965674944,-0.05302263015139201,-0.04153550901829052,-0.11298311397445941,0.11329276643823233,-0.0036739904928256473,-0.07485819956925457,-0.01095108790298713,-0.09535191111651105,-0.03560059100120321,-0.04144977121831636,-0.12486352061054816,0.11808469976760423,-0.0003222713321284035,-0.05707888894747165,-0.005025535403808544,-0.08865919132078441,-0.016743507766595053,-0.03929636075595169,-0.12626460052867988,0.11291312089592367,0.008580366872286733,-0.03932292114279709,-0.009572117897239085,-0.06933799874123915,-0.015174603792343777,-0.029586429526077835,-0.12039766122257006,0.07378925489107359,0.0148570973833295,-0.024398677486251925,-0.009488758701809272,-0.06639039476714606,-0.013289152472152654,-0.028623995176133548,-0.1308686319933526,0.06443264840183116,0.015446641006781902,-0.007715429011883727,-0.004343611873085993,-0.04913582758610453,-0.021760373134332753,-0.01655983432602897,-0.12318531399190738,0.0656190354210152,0.0010207811767432417,-0.0031545058752088725,0.005706089676302891,-0.03169613656890008,-0.012869016317486812,0.0033095195048723934,-0.1216213698353863,0.07032683741494915,-0.0013957350075194598,0.015371720226159324,0.007519534724891529,-0.01109082798500399,-0.0007772585744759832,0.018671248320627058,-0.11987740027969498,0.053553637962908296,0.002112146282152539,0.04418203556744008,0.010414064604660527,0.002822012274299415,-0.00642007055062627,0.02829242399240875,-0.1151423635910916,0.03804015605469925,-0.008942495394707208,0.06123288475303627,0.011057493313144673,0.015838526663725504,0.011096057869303688,0.05120370176641108,-0.10106488743164808,0.027214684979761154,-0.006059114222629966,0.08598341785182234,0.01724646815372133,0.04183300991129059,-0.0019032227951678378,0.06447565464827296,-0.09379193837196438,0.008721228555245781,-0.01815920251873858,0.08858380112869027,0.032754837337282613,0.05497465058230269,0.01671794482219557,0.07735719950138474,-0.09762754192638125,0.012619168234611048,-0.018630696904565574,0.12129891980619412,0.01854862699707618,0.08161111693387832,0.02689748212188294,0.07844361970460635,-0.07143693825932705,-0.006029021768660989,-0.03132810860815825,0.1294383012609885,0.015326986079945058,0.1095204899971446,0.010052857010521558,0.09620869657078102,-0.0644751601005685,-0.017870440152680755,-0.041917328068819766,0.14466475908823714,0.01621709583321537,0.12055949253660947,0.01787136790184917,0.11114520942194425,-0.06973321222445263,-0.04940340199301388,-0.03977152052450391,0.16546742187491129,0.016188867078653194,0.13215298100575165,0.022462145467112338,0.1307964869827298,-0.04608162382863775,-0.0658355822892434,-0.036020489762468036,0.1808294627206701,0.012821158543272053,0.15225809337119114,0.01749467180111272,0.1457735658269431,-0.03434489509151684,-0.06639904166177507,-0.05454910210546844,0.19374218436874358,0.02150587844165712,0.1699162320605326,0.025195790482717525,0.16549924986950101,-0.027927800325850054,-0.08116804571980789,-0.059401707620422434,0.2155586403754257,0.02963968991596411,0.1897445236462911,0.025472540340709858,0.17760394384051964,-0.009622427350040326,-0.09086689114058472,-0.06683424195324308,0.2307749396009351,0.028470759751154373,0.2178369650961747,0.013273874939393342,0.18950713300612165,-0.010293085695217743,-0.12086346620988568,-0.06756198187933382,0.23829927357796538,0.03892259792365578,0.22994658867336415,0.03970534582058413,0.20343562631839324,0.018530264285126174,-0.13589065395096225,-0.06947171934322191,0.27406357557543465,0.027565119560084304,0.23794229177680537,0.029939017968724054,0.214627562136228,0.012283281930476599,-0.1286449872942446,-0.08582884447118423,0.28676724448206714,0.03237971876400357,0.26073101197808496,0.01652617965957273,0.2328420047636154,0.029072393967534735,-0.13979174155752164,-0.10139390589289524,0.29830008287479526,0.03698662165064471,0.2883006281338701,0.036118513316431976,0.24409183787060368,0.042743163940441344,-0.1716018831694341,-0.10246654920054962,0.31534551590365184,0.03352815729949396,0.30743135982209346,0.04533557582666466,0.26902538672888165,0.053629512087100026,-0.17455989493849922,-0.10706378364251853,0.3322697840354562,0.035796246211796265,0.32486761650375157,0.06068187070323179,0.2614757183622205,0.07374282169821751,-0.20028077777396652,-0.1013914158407499,0.36115554171003117,0.028503146265913354,0.3418906962241896],"Dims":{"W":8,"H":32,"D":1}}},{"WeightObj":{"Data":[1.0350861455102396,0.017424831065579127,-0.6259462457518485,-1.1308050267784657,0.1773169621492681,-0.13862374813207357,-0.011907755576453244,0.29168781956530465,-0.1053784511979876,-0.8265706914390071,-0.14092916923388846,0.578890363441729,-0.3410809110608123,-0.5328711799701659,-0.15892437926696443,0.31950219504457544,0.5831543604107114,-0.8100566969563706,-0.8853139848502927,0.29226890505324005,0.48468487387977727,-0.8896083327154285,1.0786310010823805,0.20268211867777858,-0.27792359205618394,0.13614636301604166,-0.8421646522005479,-0.1630323669634219,0.5763489624516678,-0.23575864937393212,-0.23799857167331404,0.3809050466553819,0.3375865604736302,0.7661529556748298,-0.7225863998289648,-0.16192987906988518,0.05434300393084771,0.07160004049680689,0.3295341007382447,0.9220336520454189,0.8444474207275509,-0.43854511286845055,-0.23894584041799685,0.7295477578853784,0.4505029203450536,-0.30816099564501925,-0.6842031872156978,-0.5146290438328179,0.08114981489803644,-0.6860033236152693,-0.40358804929294023,0.07952411507139624,-0.1644978297547558,-0.840842181177541,0.7072545967706153,0.3279394009764121,-0.41744043487158417,0.05365262674139117,-0.7716423355129682,0.011905973042256764,0.10340677701916813,0.09195360522714469,0.35957078437998485,0.0787499036356298,0.7907449532459634,0.649876693848051,0.11504096064328244,0.3810817556574914,0.1694451493385512,-1.102983410916127,-0.1470172977005922,-0.9936636411679622,-0.3533719335604256,0.14617528211672803,0.7728649146392316,0.5952680723159567,0.4192463390463707,-0.8451885558402302,0.20164399854554782,-0.6417444603726868,0.5038961083502693,0.10947719799535247,-0.39783554813110067,0.36686848520858084,-0.6168027577017061,0.003197632220361875,0.35027087577287047,-0.4410933121451987,-0.0569064658500756,0.32249670489981574,0.20432432040317058,0.30305153247277233,0.40968350908370366,-0.4720046034921223,-0.722319561284291,-1.0158112773717818,-0.448939433036769,0.16571412450826492,-0.19980698723796067,-0.44309948779529446,0.21041391830510525,-0.3336239733223025,0.20970762532152226,-0.6080666176103284,-0.3426878575266066,-0.45764281435141546,-0.6078060202257878,-0.48982211914975227,0.2789871422460316,0.2286027791658846,-0.1769201080844545,-0.3359142577627872,-0.3607856581773961,-0.43888210895770213,0.22427850570156305,0.11056811607534811,0.260660407991291,-0.27435399070424205,-0.7288405130323512,0.41000635790828305,0.30859889334618806,0.14148946722511863,-0.15391296567560003,-0.6557958594967845,-1.0012687593320861,0.7408048946472708,-0.7531455961727072,0.4212695491608644,-0.5587866156621055,-0.15430830918155403,0.31827778308877036,-0.22535356088828062,-0.7208311488902287,-0.21232176066654856,1.1039241522211456,-0.07220813629160501,0.21376726789480063,-0.1055913080234322,0.30017830974214116,-0.011463466161098168,-0.13246486853892897,0.08911669612470609,0.5827700355047002,0.6579716302551868,-0.34978290578114896,-0.15436860004956815,0.5533659489885151,-0.7129173395132401,-0.23181009441153264,-0.23061532726797587,-0.25166569322113286,-0.10847979733071943,-0.784389158753685,0.21423645709661132,0.8117725832700566,-0.24135704300922436,0.22602089243917967,-0.3144471872618773,0.7892625024684946,0.30964380860078294,0.13614902804506399,0.8016122217105787,0.6111813024627335,-0.16940486682666162,0.48414509830290825,-0.42336238282716343,-0.04211019228131486,0.0802021078346528,0.6360727947287197,0.1587950875810735,-1.334521402128714,0.3287233026672296,0.6348099860443586,0.35327572571458415,-1.1881995585783471,-1.6254449026898952,-0.9518672275610042,-0.06398391590629966,-0.17628192947378163,0.1906639095656895,0.33056753253131554,0.5950751225118206,-0.5922149594070947,0.8838678106504672,0.2941964108176096,0.8605170482664626,-0.4946744520087857,-1.089629179412704,-0.5080471195510676,0.3521459141733224,0.6453153280144547,0.4624543724692159,-0.22932601708197545,-0.19921195493356322,-0.43208375442380487,-0.010756585084573821,-0.2024973348004483,-0.11294378005814622,0.14121769179378754,0.8358076246485875,-0.5148321115264068,-0.4390093423379067,0.30689067214140464,0.16116490193788865,-0.09707831981687638,-0.18213529971643905,-0.09461645948674777,0.13644295380004426,-0.20298283625631938,-0.5493056146840835,0.3256995424180726,0.06943205482875325,-0.40113109626887433,-0.3592216017461986,-0.07647154244698241,0.1629408307892981,-0.20705898756438146,-0.12209723815868241,-0.26615399803150236,-0.5463666583800819,0.6574875863910035,0.1387727310676294,-0.03819140638123065,0.09787553892101465,-0.45200461069976716,0.4002302706399574,0.43654741112705847,0.33318589662094156,-0.07286205261197096,-0.49412730482825334,0.6148325606455037,0.26302987648917325,0.081931499242501,0.1934460022607233,-0.62042115249436,0.07837573169474588,-0.0651731018462462,-0.09996885107667211,-0.6169325953171875,-0.7777916707361097,-0.4257631679047585,-0.6103424398155273,-0.4344144227595752,-0.4511268080798603,-0.7545627952508843,0.06785532580649357,-0.44129414133382,-0.4505858546179009,-0.17675750525304218,0.40830422030799457,-0.5263708705852214,-0.013866080516972839,-0.13534845223241115,0.3559701113586975,0.17805895756796966,0.22443965431223373],"Dims":{"W":32,"H":8,"D":1}}},{"WeightObj":{"Data":[0.0023590522637280285,-0.25388898659480497,0.256084035399398,-0.3136238208885177,0.6372060354244854,0.1846138447730542,0.0842674476849038,-0.028187841066173856,0.14160762070189195,0.4777548418335613,0.19309193817227804,-0.11502667212086416,-0.3557132935512137,0.29116333959886,-0.3558344649168917,-0.399491801395381,0.39895646213222313,-0.0597453744998506,-0.0818626261308498,0.5682358769936986,0.1703903313795503,0.02346898864190338,0.3127306648883711,0.10757873263371802,0.6970306316435034,0.149972423431827,0.09408571033587085,-0.12688286404079807,0.3385947030745855,0.14513684356072745,-0.16120247471609736,0.315085195827846,0.02046476652997906,0.17131034634723274,0.19324958198387354,0.005396998440303371,0.2789616475387588,-0.05276484973839299,-0.14987827545601462,0.22142743664534362,-0.01148156435882892,0.20739601603994243,0.12013214118918127,0.060778148454282074,0.031123873372182247,0.36303786872775806,-0.024774889097499506,-0.12197875016246658,0.17947623950497513,0.04105785355277252,0.08694966390184256,0.07192298409101468,0.05511523046505598,0.13227495141717813,0.07489401703332342,0.09389599898578184,0.12041804389855473,0.10415989706277272,0.022629069158172355,0.015882057720088372,0.2095833591091038,0.09499099955389458,-0.06770997804796228,0.05059260482121521,0.033530639420939916,0.11080854433908918,0.045675957967805866,0.11974546981710563,0.3444875403721494,0.030392166584780535,-0.004219264999800732,0.15202451664066513,-0.026703391849195443,0.06846060255261463,0.03262731575057082,0.05929949119748662,0.18246620914129036,0.18442785866122327,0.04776319076484495,0.049122273586181806,0.05439685314022514,0.02035909573369403,0.05647549259140181,-0.009284067195113647,0.00028432217450353775,0.15144370448160546,-0.0036913220943206922,0.03978679484708627,0.07860554489037716,-0.1055033673931679,-0.04813603728285059,0.016139685568669307,0.003977889140516961,0.0030375836739560983,-0.047877611058899025,-0.06827136916475596,0.0015881435438451583,0.18446225342244685,0.03112527253829854,0.1812102125611168,0.33391304441722913,0.02406731920645663,0.030058173255792763,0.13478377750478457,-0.024280157277894523,0.033214931665702434,0.04252546305891947,0.08763835282369159,0.17396280727270544,0.16382058154252993,0.031721537706432004,0.05626435329195895,0.04374644003500941,0.050427819302884314,0.07034959004338943,-0.003998398710371104,0.04812748851541495,0.14180500800588086,0.0004388656957072727,0.0421932142060732,0.04471378977610742,-0.0787121714403006,-0.031243248151520464,0.016826397145377765,-0.0216754330331014,-0.024488557142995717,-0.030040342310048554,-0.04167889312369948,-0.002624796037058087,0.2133133033761008,0.027119693764389885,0.1949774166702596,0.2830357916156857,0.026814500670979676,0.04993810535358191,0.16693877761277734,-0.020092194037407574,0.009371985070794899,0.026178140626263433,0.1016658664774174,0.1685032754918417,0.1762902496233868,0.04591349354681518,0.061862087497078756,-0.006895507852296629,0.04247915119290967,0.04846888160370411,0.0003633789216665106,0.03202285932235306,0.15533476600679091,0.009073163549434545,0.055231663091920215,0.027320151907344666,-0.0858067919222575,-0.019951040496552008,0.053038026051276194,-0.05343254772875257,-0.020526400563372044,-0.007490421902169789,-0.00585897482087675,0.012501185113383217,0.2206236719512792,0.045703209378074046,0.20769508159971536,0.3219070024534599,0.02711818553103698,0.051015530652386766,0.1407128256574453,-0.0363123432525492,0.008860158681393173,0.04287957628286862,0.11114960270422114,0.17683739147757913,0.14942141683942406,0.03419010108850858,0.06734208632307422,0.01673024476836322,0.04168617207726413,0.02916273965204087,0.004565797515584702,0.03107633424500479,0.14450843604182578,-0.005749142876191707,0.031652912497599286,0.040577073681252775,-0.09558128722231521,-0.029983898871093165,0.04644240077962154,-0.04388589883793821,-0.04658522945557399,0.0016666268651056588,-0.007092379150975323,0.011822253848875874,0.23959523310374953,0.04148459299808406,0.20484140758737332,0.29862701503493344,0.026826405169735338,0.05310810708218636,0.14020952253324112,-0.02720736506292667,0.003610485092135612,0.018668168445908562,0.11312794062345796,0.19025498199594593,0.14219936166338848,0.04820096518101532,0.06877501236938706,0.004579484676682896,0.024900916290084375,0.013365814101419939,-0.001814357345709544,0.027565139485036905,0.13259806499051993,-0.01299392415870959,0.03086590064998225,0.03947816026580477,-0.09844048600737186,-0.03961784369204485,0.04222894500136957,-0.06401779707208016,-0.03503834905382036,-0.003023660695965185,0.003330121514373025,0.008973439280642275,0.23464748437265298,0.05909898856124208,0.210904495841416,0.3002310239925871,0.019163443881012692,0.05090736577248685,0.15356450104832872,-0.02423609692180561,0.012938959124719105,0.02083322878744345,0.11883517982021176,0.18376751762796936,0.15790956910923212,0.05741936515177341,0.08168224886590579,0.006061655617274665,0.050395133204610594,0.010164509171925327,-0.0011334748281747078,0.022072771050103558,0.16430983344739786,-0.010340919324309373,0.02044539074857045,0.04212459094407463,-0.10196512608921983,-0.033724122548731084,0.04214069073987817,-0.04753375083880371,-0.02827240501593382,-0.0006035560764282487,-0.006664012590787647,-0.007664500055430111,0.25717223693240004,0.061589244259760166,0.21572716825881702,0.30448023601999813,0.0271632902752008,0.049832383699088635,0.14867801823916357,-0.015044702031331283,0.025530122514207363,0.007964967955946037,0.10844105198274918,0.1976995420044583,0.14468419647947786,0.05414383275651662,0.0851347401545641,-0.002266760661450366,0.03366553707672758,0.0028323846966307334,-0.0015315535957799355,0.006396186277199327,0.16205242269840373,0.004385469708507893,0.020997061683179986,0.039162382236474086,-0.10530965799294283,-0.04026839998154115,0.02039805145989801,-0.04604711172488984,-0.03040504240612955,0.012390402853261411,0.0017894408457834689,-0.018973742428309875,0.25497948545093524,0.060042181253322814,0.21216517812096894,0.31583719862045456,0.019264907974759556,0.055768274398829254,0.14409142729914332,-0.02332180278192713,0.01433107330879305,-0.0025024348457784854,0.09723456278984442,0.19632547564001243,0.1394714524566711,0.04799937673702051,0.08403353248351673,-0.0027208655659969206,0.03519536486686824,0.002427700462571353,-0.012529702435439674,0.013596764173156273,0.1632533095450515,-0.0008190955420949878,0.022646877231680178,0.0474503139265822,-0.09678477619782469,-0.030654509990702638,0.014539738670584442,-0.07419332431342125,-0.02010708897939056,-0.01366473502671223,0.007159370608140328,-0.006985207514646766,0.2597077457564729,0.07104804234142219,0.22300930701783198,0.31184443231036413,0.024030510020947776,0.06776897783376193,0.14376315489562153,-0.03688939227003586,0.02339400494218318,-0.006207719587492165,0.10231174680152545,0.2080887494338675,0.141907809542932,0.04761153877503503,0.09608427519143342,0.012583560391344766,0.022150016817715723,-0.011017120820967109,-0.00735689142728176,-0.0030953798683882087,0.16258511601075076,-0.0017993493745020836,0.016042427473785394,0.05250742135588587,-0.09016103533431083,-0.031009057356971348,0.005325760393935949,-0.0700581610599623,-0.008468953897705783,-0.014165783624944531,0.008133639353638367,0.007831316224159097,0.2614728918443625,0.08702731705729795,0.22398958100120778,0.3201789699235113,0.013281802941809391,0.058641187477647655,0.1387057575754952,-0.03153388981880305,0.023114667086525934,-0.007231177529357168,0.11612127181174214,0.20141856853883314,0.132062195698079,0.04151469327263947,0.08038891837175736,0.0020858437988171665,0.03149829239935861,-0.010148728960872594,0.002582398678538265,-0.003219761647569892,0.1775470913217905,0.012556659875447435,0.006216169150749825,0.05137557750916545,-0.08581001983666273,-0.04468184512436077,0.02055266139802511,-0.05581496934198166,-0.02290769744801619,-0.004930586309891013,0.013394103370893721,0.01706396240483606,0.2769273114640642,0.09741232380641762,0.23092662365073535,0.3117760977642982,0.017327400215665315,0.06487337858182383,0.1555070693740744,-0.022417060035573564,0.03196912800961935,-0.009399112873774507,0.14334532295379024,0.20300020013537065,0.13523946776131535,0.03881598227626475,0.08176727126369128,0.011538214308821411,0.015668948508898932,-0.006212169832007385,0.00033401142751999634,-0.0032646654533323256,0.17762080948438524,0.024413971685563175,0.00935470940078973,0.04246994881263649,-0.08545990685308603,-0.06276195273674624,0.026649056395148824,-0.03454541128715752,-0.013875555050895435,0.007604129630016114,0.01770494524166405,0.015014962424975053,0.26646678659528544,0.094471314193344,0.24060946521521734,0.3195122521422433,0.014194250630713192,0.05863544949784114,0.14287497576488348,-0.02673408359876085,0.03497384203213008,-0.01075576915918042,0.13253832984593772,0.210119689403394,0.12850311820837465,0.03366672949096795,0.07722157927509028,0.012948629865603706,0.025277503725194057,-0.014920207481723714,-0.0022002408837210716,-0.024287499382586654,0.1856159383266879,0.01265607506790276,-0.0003267573855362213,0.032057155724432525,-0.07704286222463363,-0.053815451388187045,0.016778589384679958,-0.05376146819345277,-0.029165179936645077,-0.0013565733330454229,0.0018695255471593546,0.012607576529524078,0.27085822104701407,0.09193404518301566,0.24568085262465014,0.31078809807662233,-0.004719254471187368,0.07492624724355257,0.13607091321462295,-0.020542172715081932,0.03677893991125483,-0.02288932116730599,0.1299149213712016,0.1981039513971935,0.111446861469912,0.026067033754422025,0.07338462155986801,-0.006974407530306756,0.021170404116235064,-0.0212412875657499,-0.0024763324700970537,-0.023594696324682068,0.18747522489958118,0.014035990234458163,0.00431669105848896,0.03817733143687714,-0.0796832367149683,-0.057372159923497076,0.017019417588438248,-0.06146345799196269,-0.016962046946337277,-0.006902553466905005,0.01276195443821135,0.01178659389502112,0.28564869508761825,0.09071723575050508,0.26209862370602144,0.3167459125922498,-0.007394691043403513,0.06733992224474883,0.15805692687108544,-0.009041161057730908,0.03667335002748392,-0.01590398003892303,0.1279532843728797,0.20882499570731414,0.144816943575079,0.03243335214235457,0.051942070120067026,0.0019721657151728672,0.03494670390276894,-0.02004099310084001,-0.01132599629322786,-0.018203269381498036,0.19101890372611954,0.008650214286150351,-0.0008535055184851053,0.04071711396184276,-0.07713071196478191,-0.04298593595584146,0.018337382820413983,-0.031241276550596737,-0.004719149804713724,0.009134276176023788,0.01569240922233322,0.01915601483486785,0.2924840513112065,0.11257290406239359,0.2410514467530266,0.3346984621044889,-0.012199596217959905,0.05728928814966726,0.12405917630483553,-0.019586367575431106,0.03579219924175485,-0.0223581576019084,0.12910182610097984,0.2043412941424463,0.12420277362424305,0.030117906807651532,0.047853733883480236,0.002942856576238183,0.015849943369215167,-0.03769100128340697,0.0032420497653499083,-0.020153634251176812,0.1949864278923891,0.013085361378988086,-0.002638742375786306,0.03585785517251215,-0.05750245886141484,-0.06402779934163698,0.012702941068021122,-0.0457402719108398,-0.021268865480353318,-0.008896431650193224,0.02392200947292955,0.02087892681601311,0.28909669320219633,0.11087967076290497,0.26386017608427026,0.3298721262907953,-0.005347927724598353,0.06437592170527785,0.14671750439559117,-0.021099607392522923,0.04816834563079103,-0.0236108065220475,0.1408764180538161,0.20261746968200947,0.13044812991898405,0.015688462060053653,0.05223937285705216,0.010610774021053598,0.023052345903141463,-0.04122367824734897,-0.0017132119888011218,-0.02289586891980043,0.2054701515006772,0.01279219167676824,-0.00007161168057046236,0.037162776572953284,-0.05448069083673064,-0.057576814351299826,0.024260757504404033,-0.03487998314003652,-0.028267112173356302,0.0010941748380495007,0.014530316086380161,0.020785919409876442,0.30131106033273247,0.11146018468566544,0.2671529690595455,0.34351576485187574,-0.011345039209312674,0.06624566672802808,0.1593309661167899,-0.009023393597056553,0.050898222294436274,-0.02453175530912555,0.14041850591824306,0.20890731636319365,0.11959423120447281,0.03342857652952961,0.047577255422166086,0.0070265164868901185,0.012915310198269124,-0.02323284676939174,-0.004171692529403534,-0.029170386033910613,0.21113855855232722,0.006743302294813971,-0.0010895437155552256,0.04166570661218119,-0.04485715441845341,-0.07181069783759887,0.029541935129310734,-0.025837125735667932,-0.028306124736123383,0.006148340357097748,0.014577192280148909,0.022114620281099343,0.2976408634769087,0.12434930863005716,0.2701322999418446,0.31338455477794425,-0.024406589828114507,0.06468961390752649,0.15883364495758437,-0.016582930479172298,0.051476496328503686,-0.03300323635792699,0.15742100937284798,0.20890516835445205,0.12017858434215914,0.02169828516017924,0.04819165832538596,0.013950490878638958,0.018023264146075205,-0.03935681201502074,-0.012933897687318568,-0.027779698774921018,0.2082113025868896,0.011205533805253019,-0.006420410323056485,0.041395334505186634,-0.051832500889230526,-0.07765019967248972,0.03140989828449423,-0.014633427918569237,-0.018604646018127672,0.007306355413635753,0.009570206409330604,0.02279530787101567,0.2897216330082045,0.1326740879738879,0.29020330323065596,0.36172484507562086,-0.017086352355997838,0.05852898829843386,0.14650172453925858,-0.018441974990116395,0.05496124746967348,-0.035838520645110034,0.1452157849523239,0.20287583769875853,0.10385457342429961,0.021964543158759512,0.028066616112000446,-0.008876743522442174,0.016276788121078956,-0.02482037843002521,-0.001011610896641829,-0.042924073081848556,0.21744463341450948,0.00709423285925469,-0.021966658134926455,0.048491317247126145,-0.03841529913215002,-0.06665974051771013,0.020989251625213458,-0.046079725285051075,-0.039356742392756695,-0.003675603090727462,-0.002997659169411791,0.027972706346830866,0.3060861079488095,0.10773781097565878,0.2901410494316192,0.3591415832673099,-0.033439084223330556,0.05007256503272559,0.15293896574831709,-0.022923377024067434,0.047658242056789236,-0.050926026402754704,0.14035993354380905,0.22065346028279442,0.11151025951002753,0.014837558960230627,0.0021624742803077724,-0.010284690655639217,0.0005109789354369811,-0.03948689707038096,0.007962336654300043,-0.043365119541778616,0.21700145695369727,-0.0002909891774556789,-0.005895945941208776,0.047029814392087546,-0.035245485880006366,-0.08856233917119545,0.028266839472721378,-0.045777227654629854,-0.020898586386154237,-0.01676838149454655,-0.004335247124981694,0.04364673527430121,0.3148276461040005,0.13001286266279638,0.3032930172308727,0.37181724832767404,-0.040228231299932735,0.05751044784298822,0.1582156744100026,-0.0101115984953992,0.0655650182480267,-0.04362166336164627,0.15201857453212067,0.20730726444246173,0.10759529649029353,0.014819589909238323,0.013338253208227721,0.0064294759065004065,0.010061257876161115,-0.04038684169573859,0.011320467056740488,-0.05400789685150968,0.22897654706909992,0.003681848626087239,-0.014193840533149009,0.03909707160896817,-0.020531040899044214,-0.08280462628376223,0.025989832781537714,-0.021693470034052097,-0.05067632927765045,0.00484325823463132,-0.015007055141726646,0.04009148448770262,0.3206853186898782,0.12643444183077643,0.306296647506497,0.3761365358140911,-0.037380715606881214,0.03821685830611737,0.14982168284783115,-0.01220582894042673,0.061963434867774246,-0.04501236074536944,0.1553539527228736,0.2117924223715231,0.1072435880256108,0.011189051267902908,0.002131002235471397,-0.004549014258611923,0.002270856404559345,-0.04927248056536287,0.010003427363748821,-0.058768236599923314,0.2258721070994469,0.010630283827307517,-0.0047688695453780095,0.04703551243480612,-0.010872670407965546,-0.0987778986531717,0.022761542012395074,-0.024387200764422853,-0.050206909012963076,-0.009499922158120545,-0.014878092986042063,0.043129714623307384,0.33291143195803574,0.1281996298981457,0.3138219380724454,0.3745209675730368,-0.03583444692075746,0.04438046686241573,0.16541664352933277,-0.013720606279056564,0.06302982957022693,-0.0443599760999445,0.16552677755072936,0.21708806114794554,0.11639190746626152,0.011072627803518129,-0.00015741858555669714,0.005065559842396549,0.005018341608494225,-0.03784083393378025,0.009704606422516143,-0.06820799473618135,0.24304759649479693,0.0128323423464037,-0.013682253862488768,0.04665920403584217,-0.023861166487189014,-0.10184087693174164,0.027281960098086144,-0.020171958645049705,-0.030568132158605578,-0.00847787151552128,-0.021145643978703704,0.05674985846022075,0.3410129757206181,0.1275523649668229,0.31652414497793585,0.4281292807348216,-0.05347544089682531,0.04080914043510266,0.15393341767566893,-0.002442895353900297,0.06608497931534403,-0.05930521185285357,0.167817583183128,0.22019901581281245,0.0911673428861275,-0.002760963888746396,-0.021955592703041305,-0.01956948698556298,-0.005918982542332661,-0.05124354510044579,0.02711019002646738,-0.06700349038201865,0.23501421582393794,0.01341457886592789,-0.007188136136172028,0.04553958409244026,0.005721200648441805,-0.1111739671405244,0.015011916407618425,-0.024796544254270254,-0.03240732153782586,-0.012396034570338214,-0.02707021497277967,0.03774591952709654,0.33183946051479446,0.13606524418962268,0.34303447448202035,0.3779580781077344,-0.03391393289599876,0.04119937704434297,0.18009286083935983,-0.015344197767581908,0.0746039549487426,-0.04745772772876275,0.16857140126762615,0.23537325984619958,0.11582973484194896,-0.0122161055895088,-0.020380912327013976,-0.008589975902376768,0.013320500754324742,-0.04733448674215974,0.007981330385337118,-0.06450915466488835,0.24865727212068198,0.0009282869124899991,-0.0140140897609538,0.05076235742463922,-0.0032456032864718446,-0.11219026207557414,0.031989021364829534,-0.014916925909678115,-0.0406651982518536,-0.012769687354303175,-0.027341147461928148,0.04953159219608589,0.35490843211533685,0.1434094711629725,0.3506778288418921,0.4109573659347548,-0.052238841333403264,0.030887739794526622,0.17935557881328137,-0.021774659673238276,0.08060969745418259,-0.04946025354966991,0.18347340873768825,0.22804628739689775,0.08984420513084589,-0.01939582492821333,-0.04866728356029336,-0.002406851063800912,0.0014992919206817624,-0.05676807469828567,0.013667464264726583,-0.07962199869030781,0.2530223151588007,0.018086686831106348,-0.015683808571991305,0.04414319957866114,0.016631666269200634,-0.11280264154112835,0.033872395269923306,-0.005314008118436044,-0.04699186474277877,0.0040093994610085806,-0.03331065991461116,0.054426313443518615,0.3517222845945524,0.1493280322944694,0.327175379977274,0.4131077625764474,-0.07053185945241307,0.04004006692317241,0.16451137204790345,0.0030429340294063586,0.08433800867239646,-0.062369218261627085,0.17544530960878174,0.20975673236432438,0.0974285941237749,-0.030756667741351437,-0.05490453188434055,-0.026531402827709338,-0.008147996934811646,-0.06543492289850457,0.0288911681136333,-0.06789766432558514,0.2551639280409033,0.011889647789047294,-0.001764953108944895,0.02681046134651788,0.026215067836797168,-0.11130626244053629,0.02795958364683823,0.004539488508309528,-0.04940945873799582,0.001530227913664942,-0.021946435683665264,0.04761111348720207,0.3507279506698975,0.15135456255576069,0.34656536679717664,0.4067528757692223,-0.06577166653426528,0.029101952810619364,0.15910158311997916,-0.012951339902757755,0.0820817419277819,-0.05452669156133747,0.16897994461341365,0.22154402457882222,0.10306389773431873,-0.01421591123223285,-0.05711342697863087,-0.02408926399672396,0.004189875846864474,-0.05356321460883208,0.014455891571609711,-0.08306733742355617,0.2715299814818911,-0.010308775670209816,-0.00983318612739757,0.04703827754477147,0.02425238650106577,-0.1053290189243303,0.02772604483642823,-0.006463369620216968,-0.03672988282903134,-0.02223984919378164,-0.033234378623523304,0.05341134184379478,0.36617761692055417,0.16276532195816726,0.3796571083857783,0.44125053077546306,-0.06311894495781013,0.024485281956643352,0.1600174012850509,-0.013711451330846251,0.09845129509220162,-0.056763964838302323,0.18180762334063008,0.2362812491551275,0.06575959902852824,-0.033459330889416106,-0.07963292065327296,-0.016707605144691887,0.0081678951382823,-0.0625028987010973,0.02461959098849269,-0.10323365411683759,0.2678996127382973,0.0052811698939545645,-0.018013884829135914,0.05276053447526536,0.03463409796982334,-0.11941384876886783,0.031751894250316874,-0.018482523458536834,-0.06749167853643487,-0.011878690784494586,-0.060364775791210884,0.036118899670282055,0.35082848655796944,0.14931233507061326,0.3781000858836353,0.39228711407738687,-0.0566141151334527,0.007412244828464404,0.1882199969154354,-0.018472059923766968,0.0986689835603635,-0.06394640590282483,0.17467483314297072,0.2443676815464518,0.1022416130810676,-0.03337681779939589,-0.05667136445907622,-0.014471769782334786,-0.009156940202833003,-0.06363747944115389,0.028055317376442974,-0.08520379482256742,0.27517405051287136,-0.007944893834569323,-0.013483925148139111,0.06683262983506705,0.023747196895555142,-0.1426219219956099,0.0334407405293024,-0.00007434550500241474,-0.045072528486357004,-0.020567578004244157,-0.053694679547616815],"Dims":{"W":32,"H":32,"D":1}}},{},{"WeightObj":{"Data":[0.7195209798995464,-0.8388820383042735,0.39906632413308574,0.005689713275579027,-0.10689920286178634,-0.3655872260623745,-0.3164044876476659,1.4009776226261765,-0.061358298124342944,-0.3158961977246464,-0.29313336089798786,0.4071276459679101,0.6218465069021849,1.2518303852092107,-0.6863018227025351,-0.1668373738071229,0.281717747124562,0.2078607564159099,-0.46531290562322686,-0.09081390097430457,0.2942965759869208,0.4108613549820081,1.0782326297022715,1.002134029635569,0.8243725008797641,1.167023000252826,-0.3640895393534497,0.5366978598177382,1.0236613572658664,-0.047007340895395315,-0.11355310980269771,0.29066272285912886,-0.7330982053132924,-0.5792779873655265,-0.5794608896906598,-0.13146112095937304,-0.08574371437903841,0.4988230857070213,0.09114601394146502,0.11720764550670981,0.5846597676573044,-0.4062849027999074,0.17318221909368658,0.177659887623206,0.004462469513645199,-0.15995094885372704,0.17158405740569727,0.950182372389984,-0.65446166835475,0.12327513249702987,0.09268989574917347,0.6297931320116401,-0.4140662089061685,0.014346102556493158,0.5546529222134876,0.8375913857847103,-0.12456233234067215,-0.5336459558950756,-0.08564687759350856,0.5796404363674773,-0.1779989013541917,1.02478706086252,-0.19691384427499653,-0.8930555721036626,0.24151449838478756,0.6342839366813696,-0.0730998109565781,-0.3097910470919692,-0.19913608795256063,-0.6113009213277206,0.7210349931258276,-0.058528847272613205,-0.11562217081188261,-0.027009559111728344,1.5218671636051462,-0.4024115873586493,0.2966007686977275,0.07787443834358886,0.08146549199146191,-0.19525916460322534,-0.6475951894382816,-0.13421471712204974,0.14435184858411196,0.13254581104180418,-0.6940756458583576,-0.08395249507324548,0.10146907776125141,1.4115242782670552,-0.9527735249065218,0.7832681792605403,0.06947763825776374,-0.1430710177094866,0.3039189371547941,0.05560797292713095,0.5952245182804361,0.7501014852397192,0.4600615546207272,0.1956457732958157,-0.27643684742329216,-0.7697946653629915,-0.7152062427410991,0.3648202705765971,0.06298968513628626,-0.5963961522569792,0.5409587505103731,-0.07358047221508518,-0.06489496848884628,0.6412117220311091,0.7972048336863982,0.26865556690899717,0.386331002779045,-0.7239593812493826,-0.18810506646051942,0.01151079181775357,-0.7477674526197308,1.0591502637418313,-0.06443116886554973,0.47976753972596015,0.13771558688088173,-0.9585254570061389,1.1034050570845164,0.5709946423554163,0.00954940323059783,-1.1709628754802959,-0.7865616976653742,-0.8631540286481629,-0.08464961002565567,0.04851026257709854,-0.23168556163758788,0.8992602244010486,0.32207339013945246,0.2502902160746434,0.23493002605863755,0.3952804709425528,0.23719381672136786,-0.6141358899185115,-0.4245145698776965,-0.8221034114192768,-0.8153960249127953,0.207253107368264,0.42214893912280677,-0.006908623173223506,0.6314314177315873,-0.6121796174925238,-0.5606235636034299,-0.41950567204085487,-0.0885358685554637,-0.493547697835659,0.22887156646162815,0.5259380971443773,0.019324154933598067,-0.706372178584547,0.5794558972494899,0.557726325307091,-0.3445181927573408,0.20947827806102995,-0.5551288417741679,-0.35062625631043515,0.7588557098847984,-0.09088586467006445,-0.20022546213507858,0.03683304862207911,-0.9239255788809302,-0.036289286518817965,-0.33801365512662845,0.49810008222688174,-0.007709100465282365,-0.6664595478572827,-0.8010461147235829,0.5668347428891823,-0.26654440656583755,-0.0934105172230601,-1.2007245925790357,0.050558992306103875,-1.281814619522322,0.6992277463474855,0.03657100618145446,-0.03433197246098275,-0.08856177746463514,-0.8153049970491741,0.23088787850623022,-0.8381059344995615,0.060781181266403084,-1.105558521744864,-0.2620905592507424,-0.6927634879848418,0.9119011956581241,0.44651972619062147,0.7324966390027519,-0.17908369486253367,0.005669629369375767,0.31403185348305096,0.2501211339697181,0.36183935196351147,0.8954731658601207,-0.01937190778512854,0.49543913993976774,0.23817371129615722,-0.6150872346828828,-0.18998770587363267,0.20184036014052803,0.3842125141539743,-0.16855210099806356,-0.056198740674653525,0.20704404096471601,-1.0472268484704772,0.05050737358225518,-0.7420965303056686,0.9658825402823992,-0.4561123402599335,1.0633470465388695,-0.5577620101779499,0.10749186032108757,-0.7058785941555366,-0.4324069918228336,-0.19608262864095144,-0.41265045118502086,-0.2657857722938658,-0.07821718055033444,-0.3334533749290666,-0.8876525668813467,-0.1573666647105417,0.4779601074028511,-0.9530909932354569,0.32051602237725707,0.07294510909786305,-0.11809011730331899,-0.2920718148948186,0.24443138467310707,0.21181452690644448,-0.9597170005455774,-0.8278625005412613,-0.048272112127665676,-0.21841114214099355,0.20087053035780358,-0.24988697903244522,-0.3366680580271279,-0.8125697646944955,0.6227401219984167,0.45932426047484026,0.5093006933837811,-0.5252774366303474,0.15579772898920985,-0.7154619183363397,-0.3026026022008662,-0.49343516916516755,-0.9285212924773627,0.4824078736298107,0.2509827351975634,1.130374401759534,0.3029448559650941,-0.18822593041729233,-0.35571451212819527,0.40024671559672864,-0.23672791390469747,-0.391656030885149],"Dims":{"W":8,"H":32,"D":1}}},{"WeightObj":{"Data":[-0.3162557321322409,0.4525749289265569,0.17400898371065243,-0.18332529724100863,0.7073941552505164,0.8702841060771895,0.12184331001539861,0.10148625006269167,-0.21926796173287683,0.31972905028873044,0.18470973241530453,-0.09885412581030996,0.44992894264752553,0.8030328517308535,0.23780601554527164,0.050409773372147006,-0.18522456500860976,0.2549880247236385,0.2053261130597233,-0.014346698360266277,0.4601113095778264,0.7787238572734986,0.19630447066874765,-0.014896030686637193,-0.16009388121317267,0.27011242959235165,0.2228912931466904,-0.05079207044838408,0.42546898948603673,0.7610943044041659,0.17833128568729575,0.05314352649457756,-0.1644943307804386,0.2909341932616841,0.22461261009386468,-0.04402040042672524,0.4046428134169287,0.7610549433769864,0.18070020963221264,0.05251297097184397,-0.138921628672727,0.2867060150241205,0.21722092982928307,-0.059740750435706924,0.4076087725745944,0.7192268746785464,0.15997966373243172,0.04128954625268808,-0.13799071018401984,0.2996091780691896,0.19774411708183967,-0.06776730198829278,0.40717130807709506,0.732776064105967,0.1681056727051084,0.057199103600995796,-0.14175140339571887,0.3162382545698812,0.21559429473199018,-0.06255512035376884,0.42108815118706083,0.7166970086489897,0.16054133508043023,0.05221958932298982,-0.1419520190770507,0.3257638073884235,0.19914233801355297,-0.054921905228936654,0.4193713963135783,0.7229085465096581,0.17364553402121244,0.07082869327901091,-0.14882876258013678,0.33841408740060064,0.21923233149258506,-0.04338655422637257,0.4200631057585309,0.7195468573446161,0.17182269307914386,0.07671670246385622,-0.15417482158001974,0.33111710858772486,0.20692782365511744,-0.04676406220897961,0.4221720789711276,0.7356483173871434,0.1728952301202864,0.07634422219311013,-0.14073546773227794,0.3422007058357866,0.20389222912078578,-0.04726137464188794,0.44131613403639264,0.7246835861951526,0.14807616438810942,0.06843304549969513,-0.15411610562420047,0.3306732292370561,0.19630802642426826,-0.043044456564825924,0.42387118233686316,0.714752792724187,0.1327063763615239,0.06867606341098041,-0.14892341565036094,0.33202381360413646,0.2145075942744985,-0.04078729399071511,0.44293139097866513,0.7277809860182016,0.1490397866359388,0.07365181030470096,-0.15983558048607407,0.326045499096815,0.21208192469662268,-0.04936579238893862,0.44877210665182066,0.7426244673874844,0.1408433103267234,0.07430450044000839,-0.1631620771131987,0.33529859839339177,0.21816684331021058,-0.040665620577896376,0.44321715335938777,0.7324486468343585,0.1458154504720554,0.09379446245178702,-0.1439614634594571,0.32274354347606793,0.21418697825929517,-0.058388786058184275,0.44855608709476047,0.7223665659858726,0.13014325316805303,0.09682999958359302,-0.1624806853012181,0.3183480668021342,0.20936949202917915,-0.0424562100559295,0.43827065056782954,0.7318174502047081,0.13221515949614243,0.09406424784849077,-0.1545751177321691,0.32084112973615325,0.2271415999103805,-0.045479602526225196,0.4436400985843923,0.7192204214162228,0.13380611371975537,0.09290244391562716,-0.1515831507300403,0.30120551751055974,0.20704229516107212,-0.052450121878475996,0.4396890260963607,0.7196001664058428,0.1282102784714346,0.09595442579232483,-0.1520818149163765,0.3266069166778005,0.24257726563631354,-0.05150331430251843,0.450851336597706,0.7329303030355586,0.13915209759588756,0.10596108319153721,-0.16544998753801526,0.3346313614992914,0.23578730797637984,-0.04214880166181515,0.4534586780288856,0.7427528783288323,0.13275625800812288,0.12374943518270233,-0.15053322194819319,0.31387618371291104,0.24284158559275051,-0.05730398630536944,0.4471609646493739,0.7186011404719598,0.12798839941773457,0.11503918327699336,-0.1565504240510788,0.3205187903644425,0.2494182195708619,-0.052980931617112564,0.4417705631955886,0.7220189429458133,0.12782067321654486,0.12302841015582566,-0.15322467178319332,0.3056135457358151,0.2405369663974208,-0.05588836320978053,0.43806456715394654,0.7207718416850127,0.13678935317296942,0.11505852006969924,-0.15512813047697055,0.346210815549879,0.2857624191067756,-0.06303478034498045,0.45393571145439754,0.717559422158194,0.12691355353115283,0.13105797815842465,-0.17346836568122637,0.3211323773320894,0.26644251258169177,-0.05308497096828794,0.44187880811939023,0.716793096120347,0.1369319853697667,0.13331014799336335,-0.15478980365258763,0.330034139214611,0.27362068958192926,-0.05789613032021403,0.4439101598022824,0.7199354716998868,0.12241542387033404,0.1332056452588196,-0.14416984700687863,0.32961496505774335,0.26927197694448796,-0.0733995870717192,0.4651339333733917,0.7292296609367238,0.10893952371332277,0.11794716094119743,-0.15217049943701083,0.32719782452484664,0.2679729413307885,-0.05154366805005312,0.46451962260629737,0.7293448552659401,0.13906069294952036,0.1214791221778799,-0.14064444153480382,0.31831112822570296,0.27735751011688997,-0.07307895690188618,0.45049659106769707,0.7225735254109588,0.11718671325139997,0.14341248471711843,-0.1771872340337796,0.28912092897777075,0.2585699529812224,-0.03982573429175158,0.4455455436251203,0.7390107844355582,0.1395154278894136,0.14864572554257974],"Dims":{"W":8,"H":32,"D":1}}},{"WeightObj":{"Data":[0.7590936847442057,0.26226875808513467,0.4038437775126958,0.012807608339797745,0.3425618949756918,0.3572577216238227,0.3984595310061532,0.41339524853980336,0.24140426640891294,0.6260596545959249,0.3951656935914376,0.3666745242254129,0.31286480155771257,-0.0708651157821429,-0.2756637386999661,-0.046579621279328305,0.21203549055134122,-0.10507134851481745,-0.3116067033973614,0.06594391010830583,0.3660341910641003,0.02208880307238474,0.07973770120290749,-0.17087441356204863,-0.22901833493504706,-0.21067903606740393,-0.0704336717013299,-0.12423943122597954,0.021312191691820744,-0.44904003937323067,0.016855313759337624,0.06911433487557926,-0.44797342554180525,-0.09278471965176062,0.2333974098296755,-0.2862386509131203,