{"Layers":[{"ValEmbedding":{"Data":[2.160198084485506,2.3727332500863967,-0.6986594535264067,-1.4519451646170356,1.3879631500142924,1.0293254203551698,-1.120350889753783,-2.141423117274031,3.7676846719510233,2.07137764124336,0.5436914144545995,-0.9330493962528974,-1.0851267517615637,-2.1393282795674025,-2.6645039912245623,2.7295746413923605,-0.614786185994762,0.4619857647301138,0.2601992755638884,-0.40491971534242704,1.6400438267700026,1.3896216190656847,0.47635632028261976,-1.6100785339564483,0.26537285144479134,0.5659528145220412,-0.09117211019918262,-0.06054161222558385,-0.6447949804371153,1.7629232856506938,-0.774376445705568,0.4023228515143373,0.9463316662803549,-1.924077436440583,0.7025637315797004,-0.18275263474184752,-1.4721229881514508,1.70582092612007,0.9756987176903664,0.2572403244948594,-0.9169576556191681,1.8402682621148108,-1.5922102012099535,1.5548727485401688,0.7724783639963239,1.6390618565017077,-0.938728278923453,0.5216421288859716,0.871885039669666,0.7351305437227861,0.31489425622247413,0.8212729044012598,0.846357190906551,0.5061780991346491,-0.9611226479250528,0.2746559701841587,0.03171245358693085,0.4559810537232878,-0.3697605094366018,1.0315543197558883,2.678728933264189,-0.7936165820747898,0.5856063864095029,-1.9731588868314363,-0.7064695276266137,0.10593623286428357,0.48891476917473253,1.7341362540452059,-0.40740580803647247,-0.37560050958924723,-0.3989207139869687,0.1639597758815735,-1.4906643160188873,-2.0830124185586554,-0.7655346842230255,2.54243974990088,0.9852205310889273,1.3648213413143253,1.2140289292295852,-0.17955147770985871,-0.12721368626966686,-0.8036295038940615,-0.2691117507917606,3.1192641100861143,0.26967935701166007,0.9642416522824965,-0.49779640928619967,-0.5753130487603751,-0.26960372546635225,0.697547282959045,0.8326245366289742,1.2105106432115822,1.429861634780711,-0.5227198917799291,-0.9086610168549466,-2.264484829861449,-0.09218444094922705,-0.5046191882950259,3.26126686761667,0.6222137352589556,-1.89640500772534,1.9923863110710922,-2.050201367336243,-0.07213760955160131,0.29776916449748286,0.03215041694370438,0.28324483044591653,-0.4275104815117417,0.7316979804925647,-0.47983723809121126,-0.0275905891692108,0.42297655053662053,0.6734030826234155,-0.24365826912926675,-0.24186648735025582,-2.489571952716318,-0.5010189355904439,0.565605839414795,-0.5843214781215537,-1.6152055386703652,-0.08299138827426884,-1.0995035753237723,-0.4436428295022724,-0.6827295052671186,1.4439631582843475,0.2706990777594714,1.20368359901017,-0.14761146977171788,2.122773434763774,-1.4971456901024152,0.3999390417377786,0.27082191818668877,-1.0348202932996413,2.6446891083145965,-0.0071667765135920184,-1.1979854612807719,0.7682824252258783,0.6296329556848833,-0.7589580106425458,-0.2542942438693612,1.309898961301632,-0.35529001104954644,0.766733075623691,0.08709294407016026,1.3402916917277024,-3.1927427995984408,-0.6576101160603574,-1.1923961796104419,-1.1426353834460596,0.16701131895172058,0.4369421816803923,-1.861482891951,-0.982650906708877,0.9041608981552475,0.19528749800367692,-2.6259072322417034,-0.8792714043763397,-1.1212606312750157,0.3457561491011387,-0.7359437646024385,-0.3614851143370191,-1.1406762130608623,-0.6436322616100139,-1.3754328446815325,0.9859170876607346,1.712642650432325,2.158206981832763,-0.9176351993559442,-0.1419890141210203,0.02616389346788564,0.6260143327977515,-0.9595432650024905,1.0855602588440152,0.18194854135160254,0.0643987406107303,0.6137300811419155,-0.2913214126734501,0.8836647845192153,0.8439025335438367,-2.426631893847838,-1.4602873681319197,0.4325454158849465,1.0896503550565964,-1.0928180427850582,0.5813111862215913,-0.08020300835187237,-0.5321783856449042,-1.5032945131874733,0.15304087754844628,-1.3031701727806528,0.5613508124690977,-0.0180414789075383,0.24031024520648597,-0.41904013000761103,-0.8529735601535848,-1.779732623901933,0.018818705842249928,-0.9103382860514482,1.0605486857968183,-0.6002376208801584,0.8539946525893517,1.5812069753005076,0.12993540398854186,0.28788769098612466,-0.7758422224612943,-0.645089989474568,0.806493932119342,-1.4322209827477557,1.565107160620485,-1.9333589641490712,0.3708311025635146,0.1842528188950173,-0.6775522740695049,2.102061412962415,-0.19502231402516218,-1.3997301179127621,-0.04196194326094277,-1.1473498725238722,-0.5566671133929809,-1.2873862590150735,0.3913305343354741,0.2153776359533389,1.1907337238646951,-0.707028675430719,-2.142351013062951,-0.22135431336535452,1.8215230258184676,-1.285150680090912,-0.9699114556379491,-0.0938998368863191,1.0177046193153516,-2.1196885799995675,0.7720927140059702,-0.6896177109795188,-0.10423595750260423,-0.8571372137479828,0.676737773431557,-0.6028879063952898,0.2544565510767649,0.3995697451129089,1.1981396520713492,-0.6649988344677255,0.4843566515503781,1.2530430901696692,-2.2640012940998595,-0.6982450120414592,0.5493738645931323,-1.541566654484573,1.519297601079912,-1.2976656632647738,-0.7097405842209394,-0.31574153219428547,-0.2939080432744598,-1.3445934380925568,-1.803623834599527,-1.2304067302694228,2.800952138823599,0.3459155881797084,1.0122464228164327,-2.642914603533928,-2.6918999035724913,0.41139771228240385,0.7649818970705106,0.49111770039438846,0.22550549036781972,0.6022474551605708,1.0075744961361572,-1.0221430017864965,-0.06360158318180584,-0.9281395263347615,-0.4757030283159207,0.5355534566975741,0.4974223395397985,1.2959664565799878,-0.15798318580110246,-0.782969146205488,0.18438896412138592,-2.8217314509494575,-1.4547776663264231,-0.11690377167360375,0.423876512295875,-2.1961945190882535,0.02299297970380756,-0.6650195550760849,-0.15984140627144874,-0.11879230193444192,0.3486066030281426,-0.21076533705983413,0.12776726416875306,-0.7358182593613061,-0.42975015514464,0.308698916604465,-0.8283853770042674,-1.1114434362284027,1.8549043155518767,-1.726544310329202,0.016691059649075777,-0.9762281297200318,1.3099781641905137,-0.2841809606715009,0.47702892560927757,-0.6935504868189231,-0.846527731570152,-0.31131472090131007,0.09727283199776893,1.9641566700780666,-1.5196799473108338,3.3580959302363915,-2.597291063505806,0.7714200544058624,1.6352114002129785,3.140507985884362,-1.8880892595104148,1.537596940004432,-0.6975457483445964,0.757831634884711,-0.7120372701227029,-1.2499485363166565,0.8402137315825344,1.831700839435824,-0.20315820567316795,-0.18128518024468523,-0.41890991434975183,-0.45139102550245036,0.0769781206475517,-1.7633097167924314,-0.23559771880885058,-0.17876943238344287,-0.33915077817203276,0.24512192502109764,-1.6864187049063801,-0.41950898768305556,0.5214356322993906,1.0658136903968372,-0.8832746827802525,0.2693973968918059,-1.4650027042596117,1.2860496423344006,0.2904029384549106,-1.3839315463945672,-0.3126275101022187,3.098341480885857,-0.5035438860181101,1.098978253008663,0.32732177405169893,0.9223520946951648,-2.6923257146419344,0.1479109178100046,0.056030472883546734,1.1744307963001148,-2.6736317094577227,0.16146860989034983,-1.781143893638362,-0.6057391912717291,0.41296717215103595,0.11454742942435572,-1.2778798135995186,0.017741546781924432,-1.4807995086188754,0.882962155656661,-2.57920877717935,2.419080736761745,-2.4503329061152463,-0.7714929507735749,0.6735315949574503,-0.6602172159523659,0.27898003952527856,-0.324881598510044,-1.7521222320049081,1.1985539440250375,1.1186504423323995,0.029206020668409386,-2.8398079181295035,2.126803322856271,0.2988873915831567,2.4216254524526413,-0.7977443808933081,-0.7890496505719382,0.4977743343615538,0.08200540451290779,0.24610140016203355,-1.0159972157293384,0.5860726384291687,0.37400478514475805,-1.6810655619378738,0.1785748006273301,-1.33621319845964,-0.19173208881126,-0.6163123618831026,0.453179552734247,-0.3374812440742369,0.9892374119775832,-1.2392017482186626,0.9387900947665071,-2.162375308629778,-0.07800529904999401,-0.15095538983163315,0.9841203933463974,1.8887293722415894,1.751162278818469,-1.603029231208256,1.5794174483401684,-1.8264079061801595,0.051246309278341645,0.4622621586615478,-0.16356931833852936,0.18196199672295155,1.0388227071726228,1.1221841747125463,-2.8201916855895495,-3.2826052520317313,0.5204594544737936,0.02402254191373682,0.4889172201036956,0.3018311259788015,1.715820900994523,2.963509585187304,4.075933585201628,-1.5393585948577881,1.090580649731509,-0.875911271472802,2.9043255189891495,1.835362705066539,-1.2270137472218012,-0.794434508434844,0.9772770714966601,-0.981841836302642,-0.4058351505497206,-0.18189441669588804,0.9860072404010771,-1.4558469612495193,1.01801022223816,0.9810662463220786,0.19487132842589103,-1.2927031194731582,0.29199953078596314,0.4839239783858794,-0.8205865581974146,2.0621638044316,-0.9922971295822618,0.3203266178514663,-0.4586745756697213,-2.6139889855566767,-0.13165508766488365,0.6155743604759656,0.9844945905426501,0.4921030757281185,1.5137203970999575,0.3055939428681529,-1.6000012893521953,-1.8280735525807277,0.660116136087479,-1.1314051973100971,0.5999544467843013,-2.734340286656752,0.39436450082873253,-1.103791111215341,-0.48654424107178207,-0.48573243896735835,0.031013193053842633,-1.2010645741693187,0.1064214444543977,-3.261222171691517,-0.9113694661652414,0.2238812602965068,0.838364164826472,-1.4030673908598537,0.5892489684445271,-0.7522729003095647,2.2955449552941984,-1.074364865358685,1.8866386171062584,-2.168572047133948,0.04980663323994481,-3.1026483484904164,-0.7622289231693832,-1.8192832154060747,-0.648166910041333,-2.1681605238114354,0.5348430104335719,-2.8690915318543255,0.2010698662265338,0.10369350984226908,0.9564469226206869,-1.6711651534652916,-1.603046265266571,-0.9815464716463587,0.3937482026023242,-0.9901252086094032,0.33103326065540334,0.3904788542663991,-1.258077779564151,0.3575786468507494,1.1023079151704511,-0.07058071067987967,0.2838664652996798,-0.2069535836475472,-0.4393760875552649,-2.16496512340598,-0.2604655961279986,-0.06639903927918937,1.0096953906943393,-2.0840757637778378,-0.3419292363178338,-0.021588973024570763,-1.3228964920314774,-0.17747830720597105,-2.037058127624107,-0.9213358127802098,0.35858012420758667,-0.7007940477747704,-1.4848175998469708],"Dims":{"W":8,"H":64,"D":1}},"PosEmbedding":{"Data":[0.4580434833651126,0.7190735965105801,-0.47898984108714543,0.45067440829177485,-2.353811380756527,-0.43491185400629356,0.12839755820803428,-1.9670246494677865,-0.07094709352898666,1.0504967073126767,0.0019010899827702787,0.06104471270662576,-2.231870706502748,0.048470761846171634,0.2106593540894945,-1.9464016365283237,0.1644192894719192,0.6802653686959298,-0.10516086348631862,0.2607708139200582,-2.1528195173420777,-0.05741158735810101,0.14197646070579606,-1.8128949484327126,-0.20192668195475377,1.0287647690362332,0.11025272921350718,-0.12316710175719327,-2.0061803040289754,0.34071302741921566,0.08496105919231056,-1.804453889921335,0.16836851077990309,0.5518276738610836,-0.19184784712397426,0.10472243031651259,-1.8356386536701825,0.08936286712935712,0.0539220939770119,-1.6139876738526395,0.12703367031179763,0.45596243973778505,-0.17247450246681698,0.0681863301233982,-1.7170378608034882,0.14443477425423878,0.0302273731292933,-1.513694368865954,0.2414157963298026,0.26430059128886385,-0.16468862025150183,0.1310239066792738,-1.6266418638746232,0.08943173743390934,-0.07775738492370951,-1.3828978483996066,-0.0248418864463596,0.45196916672456366,0.05028911386633586,-0.08290328717814784,-1.5382312286616386,0.3147845037365218,-0.13376351963954886,-1.337872323561053,0.8524563794330113,-0.5161086075516709,-0.5085618060510895,0.6179448987473641,-1.3987512746106066,-0.40240746285092777,-0.22819302021272336,-1.026202825336141,0.11780920382857608,0.34732559126256113,-0.10544804225215493,-0.08689420262953364,-1.213871743718303,0.2501638053848633,-0.26307015196587724,-1.1407019914286782,0.03331599915280936,0.3728226160984523,0.006667927052800452,-0.18886075339475858,-1.1012685485325358,0.38074673405826664,-0.3244907442680997,-1.0296326817829486,0.43149352911737554,-0.06734258070171611,-0.41009766152133664,0.02635002611180405,-0.860130441875178,0.08950639408420807,-0.28557384520282214,-0.8594344802764404,0.4560194699735252,-0.13144617360898006,-0.5323281142743294,-0.02240344134764213,-0.6375917187322201,0.09346510886817581,-0.24780595835031927,-0.7862707949078097,-0.08764558121358745,0.39816670178957675,-0.07802427961589747,-0.4771227367555181,-0.6098349674831898,0.579516405955448,-0.3556713000944062,-0.8104427111873208,0.21670303086104956,0.07653570575951045,-0.351480913166963,-0.31787030289518364,-0.40344089680711814,0.38404726620128776,-0.38527332583490953,-0.642531122797934,0.5633412938191392,-0.39898688512388236,-0.5065916924495104,0.004073843159297224,-0.3241711000221204,0.10316154391407037,-0.4741510837182799,-0.40157907286838096,0.10183806847228173,0.3332274882569399,-0.20179574767238428,-0.514170841587414,-0.14659096752311815,0.5381039736576614,-0.574607331310295,-0.4521265233052709,-0.16958650493613153,0.4494641893658745,0.11557214181719487,-0.6752995267844433,-0.18091378054720164,0.767528122618572,-0.7297428224825233,-0.3841052545816498,0.25163123426460426,-0.2529685247850585,-0.2540199901528957,-0.28980965092544464,-0.007126321406772057,0.4405357331485855,-0.6784580725543508,-0.17537962935473042,-0.17580334973152004,0.2876768507324266,-0.039080772053871136,-0.7813542700243354,0.17209535207615786,0.8237334498400101,-0.6832161427085558,-0.20114276932137,-0.32907844496910904,0.3545184014592251,0.15067758368073575,-0.9065597557389212,0.2235332178318002,1.0183696063918288,-0.8061724053386797,-0.10147612514661825,-0.1359708055510854,0.08597921606521548,0.08066943063620347,-0.717030643928811,0.3320610245003287,0.8678814729573643,-0.8756767347146873,0.05074327208093761,-0.6266462759880689,0.7505448498318466,0.4036541058659763,-1.2485342843456608,0.477114517687202,1.3128942765051947,-0.9703486749865486,0.023065688399994358,-0.5509316407908484,0.7964613206885651,0.2846853484946567,-1.327244815348478,0.6910591778146222,1.306191352904849,-0.9766335696128294,0.12724209459034563,-0.035146684850282495,0.03745974694731896,-0.10970962481956995,-0.8885539654499486,0.8176672540589116,0.9084014967196499,-0.9876754513754624,0.3778718297820213,0.06304684669407248,-0.2359719629345756,-0.11220763957426112,-0.7270375072461032,0.8792707016626569,0.8231550639483552,-1.071752163959621,0.5365071069076729,0.04563622336396513,-0.3278739533607879,-0.14931821622121463,-0.770063981366022,1.0241624607411244,0.8209182851435908,-1.1098722432740493,0.6355323808839616,0.1847790360720579,-0.34519231077663487,-0.4378155521442052,-0.8564074879648185,1.3704930654958594,0.7714071484305626,-1.0094936122394662,0.7039467702521612,0.02100417622727547,-0.34954171619928726,-0.23661046198932123,-0.9219456376220332,1.3788657659824153,0.9240711851566655,-1.140351072576096,0.7850415553618206,-0.1891523582665139,-0.2641318579741534,0.07934255163843805,-0.9866001540860714,1.3470777998825327,1.0797999905004696,-1.3063611464589815,0.9083366470678479,0.12820831746450306,-0.621402068389191,-0.15982365405926557,-0.7694926662844902,1.4989088852989538,0.8859291096583374,-1.3680050594506545,1.079807300673131,0.08427344153815342,-0.6985852726155145,-0.3100970922351488,-0.8506563066110135,1.753545730662806,0.9024327162996215,-1.2659109193383138,1.1329989471072568],"Dims":{"W":8,"H":32,"D":1}}},{"KeyWeights":{"Data":[0.12671408879929177,0.6088656903973458,0.4712068082366522,0.11810769890348145,0.18832322061712503,0.3026982297656386,0.3996501017236899,0.3398954199911087,0.8211985813264563,-0.23884495273295023,0.07145420955074734,0.13799853520770805,0.4991795226135261,0.6379877850889506,0.36875124239306506,-0.2833588614089596,-0.3077605909872323,-0.10588557864687867,-0.2516416274393194,-0.135834056850187,-0.11307709057771889,-0.1352955548076784,0.0001912001055852003,0.051667453997594745,0.08717912403014817,-0.24260747970764138,-0.27567950467742663,0.04675919408676424,-0.18545041691442185,0.22360759141051337,0.18072302812421398,-0.299138586079291,-0.24921250036367906,0.8057643492903194,0.3392682221608334,0.18091282197569336,0.40496594264328445,0.4257168539423347,0.8334055182241611,0.23458209110991038,-0.2452986277903745,-0.8347049615636032,-0.14555800491078089,0.4614916350326873,0.511813255155535,1.3924987602830345,-0.08468404839020005,-0.9177127258902087,-0.6572395156193881,-0.505294001852794,-0.04566654721192644,0.15906300110195606,0.019225904420695997,-0.3544263104973084,0.10994464061369215,-0.4500404007628062,-0.07254299021424401,-0.18039983973365487,-0.9426942678004562,-0.20470701106268194,0.2966726681414465,-0.27178408578126506,-0.08317766852318519,-0.2804129282724592,0.04262719031461652,-0.39814232202462735,0.06431992934920423,0.10446719935252022,-0.11678286551133253,0.3095958315528697,0.7097274213533982,-0.10627549670628782,-0.1883278623413809,-0.1698692316680218,-0.5199211638743177,0.18363981518074005,0.228368006862346,0.6095491317994882,0.018675375434731543,-0.6322348248924674,-0.07633284022810824,-0.02061391574202464,0.4800499611713636,0.3974862166440009,-0.011544942598025989,-0.32740515236736384,-0.12044350169725043,0.02223189192993817,0.5904525919191822,0.39564773434796,-0.2344287034889646,-0.36992656926703343,0.390374318015269,-1.122426026117,0.41105693680550515,0.06010491450422462,-0.6627808072221968,0.9877191670869235,0.17402636014543238,-0.2879873222058631,0.5700148430845958,0.0020222109677820793,0.26978513713061164,0.09758413350602513,-0.3876231935097928,-0.9485169461328063,-0.3344435788383008,-0.17963472334836186,0.533764869264907,1.0870075706956213,-0.33362127329654584,-1.6513778332580125,-0.608057806441587,0.7512164233637932,-0.19786184007428095,-0.36200389085919155,0.3403727365390171,-0.4500898366942179,-0.6480430261228799,0.05830854474916896,-0.04728017459816362,-0.5844911577588591,0.11227956022600888,-0.25879722598277055,-0.10467191057842332,0.05813701797290813,-0.14329954092820654,-0.3715355816644285],"Dims":{"W":16,"H":8,"D":1}},"QryWeights":{"Data":[-0.014588025795147263,0.7684388960500003,0.4804558007290409,0.17723277168766158,0.278947181099075,0.18509978841708763,0.32372551247104164,0.331020112585312,0.6081783691557909,-0.3557223880343327,0.09678908327471032,0.12031501461212617,0.4912049765092988,0.5175540293651792,0.2891110942757037,-0.3650157012304378,-0.48674787115860635,0.06606616461980316,-0.009449083150043227,-0.21890431496584067,0.14150946146173496,-0.19635537405061568,0.02769905076932609,-0.1414553211065342,0.08136477609604006,-0.3769577671735287,-0.5838805713327346,-0.3319266568284288,0.3003450888520013,0.25401513429855654,-0.0540295381301084,-0.9109016059788734,0.17621856834085944,-0.18802602593359918,0.03916467277862996,0.11339451357710742,-0.2390859263885029,0.1283903494952976,0.2038654986444671,0.21658216392330584,0.519473013362723,0.1759485692172903,-0.021998130375082716,0.19432971923537942,-0.07803346421408715,0.03848457328024071,0.4541054443200325,0.2028598669865726,-0.5593209188456347,-0.28975895148173453,0.2442963576437704,0.3678567434573719,0.06653645551261214,-0.1838555611778839,0.478333799953523,-0.279521903287766,-0.006693981257123675,-0.26129000470888525,-0.9565418455380449,-0.08552676265209999,0.5309375810295659,-0.0907511180577859,0.08373928036065832,-0.617200188078313,0.8936022289422566,-1.0821083110223644,0.12051979473668464,0.3465718800095632,-0.6205529365751596,0.03556478410142782,-0.15316254880561045,-0.06614928997655375,0.5267944766828059,1.2740173180783756,0.2460552806612474,-0.13053364576797333,-0.266279344696081,-1.4660830223525936,0.43765159134671755,1.2237834773687417,0.07571360717325798,0.5342851763985236,0.5949151416712322,0.262659405569757,0.2439113101550439,0.01813517631239701,0.06662184879705133,0.18299904392932018,0.5504768816110328,0.12474045105729796,0.10847517387657238,-0.1792219662150177,0.5496435270946415,-0.2995170036790957,0.2114018144584257,-0.0692899062828662,-0.41243389644238515,0.961167225756704,0.1718234213949546,-0.18384756035661928,0.4213570277962753,0.006488205245377182,0.15884058376862037,0.2609237323166783,-0.2880778802630385,-0.7292524216972447,-0.020975200772836877,-0.07129522179348312,0.29773506309098413,0.757047389946878,-0.12277388196132377,-1.2725517842712957,-0.2597695368423938,-0.2106720255101655,-0.3340132303558298,-0.1731069701562827,-0.14356681270222746,-0.8764015213472747,-1.3439965978588346,-0.15565520601249097,0.2721717950846938,0.5490170915264393,0.25401139640461917,-0.6155316204033935,-0.5393958847434774,-1.7974594240389403,0.10276547158441686,0.9541994915129778],"Dims":{"W":16,"H":8,"D":1}},"ValWeights":{"Data":[-0.3999918393994074,0.5119043290250714,-0.5915187837912607,-0.10373855315603425,0.4374291946996001,-0.2642952236352623,0.0852640328268862,-0.04071757795430054,0.9321582023047823,-0.25599746509312804,0.04164151817748395,0.20098424489888397,0.14988580470666688,0.3177215369050734,0.1605424208501653,0.044562214854848466,0.14382413844150033,-0.14912738968414707,0.017499271493046073,0.2951254791573607,-0.7102986425294812,-0.3503917988437667,0.37245789487903336,-0.15783577137702431,0.23095482523415534,0.23088691645593348,-0.29472811432036505,-0.38159226100747656,0.48304390823932697,0.2974545933555835,0.15270054579876302,0.029359390643463514,-0.36880122652055974,1.049320091184464,-0.7528413748299432,-0.4040760789020252,0.18609910462023435,0.07076930643056371,0.43554952926175333,-0.1302395378088363,0.05548582175155094,-0.06959585128164142,-0.09113620679453255,0.48451837408223214,0.1880848964987759,0.09353127455257088,0.05071570162429581,-0.34756029328423227,0.4786824343973646,-0.2992167025422466,-0.3456214187464503,-0.04899514596979563,-0.7666607698953566,-0.059898911791656365,0.05960258354663642,-0.03278511463923724,-0.8815659340451448,-0.788313865802364,-0.30117423396810217,0.0943804559577717,-0.5674766293479138,0.5433873956205993,-0.37115656615012527,0.18869295259875946,-0.1983315110699204,0.19294731243560728,-0.3844844676743505,-0.1559343810685066,-0.4608662526754204,0.10101290448682687,0.3994159737135784,0.32438742642156615,-0.6970058652809468,0.12944062009855908,0.10778874679859611,0.2745951143093608,0.13044570007433473,-0.134751111515629,0.15852506274015704,0.12516989105465984,0.652345469150621,0.043491685422516885,-0.144336145471383,-0.4895431362434334,0.2737206335281928,0.25433709522314596,0.08281817806257337,-0.19311405188232117,-0.49540023052935844,-0.2923186728849148,-0.6031780549233621,-0.07965357413621352,-0.5644500126005357,0.17773503166638868,0.21504369198679105,0.12150396943537665,-0.2037285240244736,-0.29187355370595447,-0.47651291559348974,-0.27271063451486993,0.40682719523011546,-0.14131009139623193,0.15880504605835608,0.15030099367663174,0.1485337058969429,0.13518635177635385,-0.03507642506364549,0.06778992711767282,0.04845240069003835,-0.0970809097614475,0.7514442605781243,0.4951591420818091,-0.17462164917739473,-0.6984533976189343,-0.1764073820692997,-0.017499429987760336,0.16057946007662122,-0.03577135513200006,-0.25417452546907987,-0.5480696425888307,0.6405136979100917,-0.13022442670736842,-0.38552951580621075,-0.10205932996100854,0.29727947986230935,0.16828251691897092,0.17090144682462163,-0.5956582798463604],"Dims":{"W":16,"H":8,"D":1}}},{"WeightObj":{"Data":[0.5597305334762915,0.1960049123398602,0.09589805490986453,0.21984730954366816,0.0680096055861893,-0.025800255068526436,0.7646093603879657,-0.149689361725366,-0.4733397276274742,-0.7975973405438851,-0.7243404662038351,-0.8160998920410576,0.11779678197989912,-0.21701390720123948,0.19680533768552053,0.38982457989348124,-0.10054827908255379,0.3482927531824928,0.4580018247282235,0.4750998255463968,-0.18996099892831306,-0.00900248088227918,0.7312589963398107,0.5085734090178212,-0.00042844394748202516,0.4289882176581081,0.13899073066036446,0.019340566517134124,-0.02742270683608285,0.21203011818725925,-0.013205509211992079,0.45838740490280133,-0.5491354914188896,-0.4495418283250659,0.44501564462601356,-0.14674428488270655,-0.06021176005388053,-0.6834166595723518,0.18020347688346616,-0.436550759585177,-0.09327622935895062,-0.17350726168449218,-0.07538564311165331,0.3382005464498718,-0.16177532286391752,-0.23087830003701224,0.2432387096694758,-0.02998877640231869,0.00822423703653113,-0.36975743963307495,-0.3358870663782462,-0.3291148135381822,0.1876551048835091,0.4342653841504433,-0.11699696390172044,-0.07881583426861047,-0.055698599196286856,-0.4472458385607931,0.03727052537355252,-0.12764319652405834,-0.4175357943466054,0.17326109114172963,-0.2622441527847566,0.19301344225126219,-0.6361421261917524,0.48073059615027847,0.38366689253821135,-0.6688717702037229,0.4060768436666902,-0.16679778261538852,-0.07945249590574018,-0.09732192222512678,-0.5335678154559035,-0.28226000751073,0.2676549591348211,0.11151398647672431,-0.0007605245983456618,0.45154592094931795,0.10828060540869312,0.1611059998607736,-0.3385287404201321,-0.28231746048066464,0.06996288782558423,-0.08753500345278038,-0.40123784674284024,-0.03555763023553866,-0.402382645374832,0.5140855180453051,-0.12597280342794218,-0.38589481751454024,-0.34654276884929447,-0.11127164634472474,-0.13895199739903,-0.2342255065295121,-0.4529909065533496,0.02893233121128183,-0.48435582796972654,0.14531024751998697,-0.030658734012246797,-0.14444981319932942,0.2578567083452685,0.47800163957137026,-0.30330900058225857,0.15498705100774812,0.42191788716317086,0.3842082703350701,-0.23275786734211154,-0.3291223567229773,0.28042903950203935,-0.02789269550838976,0.012814565157333542,-0.1458512034560227,-0.15128018817498448,-0.3657843743092237,0.34018521736386875,-0.11850799478509814,0.1051066835652917,0.34548765458920944,-0.21151245523377676,-0.6710336287680435,0.2998475850102004,-0.45299870869238573,0.31837257610514846,-0.3074430245860549,-0.2869791372305128,0.26794206363675604,-0.14882173314020994,-0.16543591233082955],"Dims":{"W":8,"H":16,"D":1}}},{"WeightObj":{"Data":[-0.30496246406914973,-0.3275445577673218,-0.5972061067539863,0.29431409313326223,-0.010363375743416307,-0.14845095460340155,0.0684761073737281,-0.5362477665712319,-0.25838432860384836,-0.0719759622569732,-0.3520784475155392,0.2357125313867591,-0.07578985190854921,-0.34631066114087045,-0.005817617694348197,-0.26962973064076173,-0.2976734823295544,-0.14643794768373677,-0.3030585938131798,0.2505556550588351,-0.07042342386768834,-0.08496850303368819,0.04875007806705356,-0.2154625932268451,-0.2729217912197246,-0.1192017938000203,-0.2510358194143884,0.09164274323060308,-0.09974049803667658,-0.3025966369410191,-0.12935876292753337,-0.10648776284028316,-0.2283135007127994,-0.11645504817570926,-0.31877708856108034,0.17426151715326982,-0.01951028119884639,-0.0993298555171808,0.0845416215975037,-0.06263574852054424,-0.21108353775302044,-0.12535570288207504,-0.22599919652628886,0.08457812402919532,0.015427344213041873,0.004688195142475849,0.11490375983416738,-0.006809059301717968,-0.15433182027550696,-0.057937840262634537,-0.14069931632587332,0.14495348598572197,0.04393560175367918,0.12322856379445474,0.19919015167454038,0.01407865850100588,-0.11196275411523494,-0.04974349608901353,-0.019979773178610882,0.05401822554979516,0.007026878460712582,0.05513702044048702,0.07412114072459906,0.044736137012106936,-0.08476020630840136,-0.20805755523546318,-0.04382293482793192,0.28282344237918355,0.08294780555999,0.6265752058832206,0.5661613876081218,0.019081459200283295,-0.004131727746295395,-0.06213446194573755,0.07389643573941297,0.09608005189132525,0.041134565963131864,0.08301682936945691,0.2673442606996923,0.034877135946058735,0.010917115905405164,-0.009583289171894037,0.14924540670603612,0.09193681280313495,0.019811511145144803,0.009157157318204231,0.22319474553400426,0.0869120485699649,0.04452337426117296,-0.07488925299413046,0.05235418093479521,0.05823871347933497,0.133075058520728,0.17782895493797313,0.45066248013352594,0.11354618905560195,0.07877194859435392,-0.027027679648994767,-0.0007365052315360059,0.009354530653830611,0.21506560035276975,0.14084165682234667,0.5438296130217252,0.15933401869283592,0.11787310888299292,0.08924622627207215,0.1862207120906882,-0.10042686876253067,0.15104191984551835,-0.13635021930950303,0.2799150442960818,0.20798610171333204,0.1648302948273804,0.04141478200534062,0.15988804924301214,-0.08058070593905685,0.1850333645348999,-0.04965239534570962,0.44231854168729723,0.21527268678887093,0.19276626537745994,-0.06548686389502585,0.20948849699509517,-0.016737094411412384,0.2145259821881226,0.2737895866830822,0.6609417502720062,0.23871218802536665,0.3481881578899809,0.008553723201490473,0.32066047533859254,0.04568247895636904,0.05704054088373923,-0.1914358854949138,0.4777582083187126,0.25190393019524016,0.3459282849784785,0.07421585231678222,0.5324301104744663,0.009363527930694197,-0.003115567232322613,-0.22674923475051006,0.3094480571782991,0.2677582020453628,0.2362998231860897,-0.0017544604255524726,0.5141937877556042,-0.12440795252098308,0.1577860561766063,0.15408454472863492,0.536724317891974,0.353129686196576,0.3487811376591235,0.11540269018705528,0.5433352974264526,-0.20343063404369047,0.1365653265357267,-0.22720261370138103,0.38805067528599174,0.4072180402715425,0.34815137188894435,0.17357106660570557,0.6770720481647168,-0.2151394583416478,0.08919512766301413,-0.30366720163541333,0.29623891329095775,0.4478990616680307,0.39197003303470235,0.06911152926199576,0.7679881699184782,-0.21890509309443537,0.0843158856804744,-0.0727301498689983,0.3834632129447702,0.4696273421055126,0.5083310398540544,0.17080429682040293,0.8721070226208044,-0.23525935176950025,-0.02423353635125797,-0.5103526105944921,0.18128521071525888,0.48765008869329907,0.6438397788728863,0.15839355665654484,0.8589931659923672,-0.1826098062779371,-0.06397966161314694,-0.6421158060577247,0.2412830342285046,0.517097569910945,0.587050176162652,0.02219140560102121,0.8004321333005613,-0.19143848305063202,0.03636289629671272,-0.27129956547487083,0.5167511839377683,0.5542991205913208,0.5739462714530686,0.018434561191509515,0.9105644250815449,-0.19036271573719246,0.09696845115400884,-0.04253809981323641,0.612382459076804,0.57266269197926,0.5867208213003647,0.0029442510714162646,0.9578366503248009,-0.2888404410950443,0.15311851633820392,0.030892335027513367,0.6226312470654493,0.5952213969904542,0.6580855323390105,0.023910260372807496,0.7982332034063885,-0.3281477943359627,0.24340223723953094,-0.14867286483345005,0.7941732509331373,0.6397063375203679,0.6870899412321149,0.05894811385194711,0.9499233828816848,-0.40034524289481166,0.2636716289297192,-0.08038608860387854,0.7229472722155416,0.6734683640935728,0.6524368993834498,0.08517549211417656,1.1592267670019194,-0.43801673936193863,0.2114779021210378,-0.04076395500363849,0.6099533011672332,0.7319719271433771,0.6332231220479075,0.018388934429516137,1.2041080657350516,-0.40756796766397163,0.23375704673766656,0.14992529820884237,0.7624783022009474,0.7492698843712755,0.658563148319608,0.07038444487648794,1.128904364445694,-0.5379262334820253,0.3905068355364419,0.09021585453666864,0.8351685794543624,0.7711531361229742],"Dims":{"W":8,"H":32,"D":1}}},{"WeightObj":{"Data":[1.2929562118901918,1.2594177915586193,0.5792831956489879,-0.31553919461267904,0.30258169501381116,0.8593762916587974,0.8071515099488954,0.6462935141407645,-0.1820782551488259,0.4519552647477041,0.5792055479475694,0.5633541346173159,-0.8726529049322981,-0.6407277737288434,-0.21580164527005885,-0.3357188825862178,-0.6800849267427813,-0.350339171970717,0.006143197816540882,-1.1170731390972948,-0.455859188531742,-0.30136654424253634,-0.6579767425437953,-0.5093355773379193,-0.5669795580474511,-0.30606271349275915,-0.09662995909673296,-0.37370776954455937,-0.36450693754684654,-0.21488821556380577,-0.29965711132793654,-0.26186957482519835,-0.33195142117272475,-0.3620237086831501,-0.43655770134913885,-0.2737468131780856,-0.28073739959175975,-0.05593597948226658,-0.09079954943004259,0.24556515268985954,0.1009805090890504,0.07788635070577278,0.03145817234848763,0.23025164899538625,-0.04698730637602789,-0.3552276766288472,0.3469752143502232,-0.021939340507732653,0.43237661216730666,0.043038252098466914,0.10001178718883735,0.17056875024240425,0.5370716181406981,0.22044342568951292,-0.2655462399555969,0.2595203887957066,0.1597555803513676,0.357575676647427,0.8517722730445484,-0.04404875728113965,0.5372072263502287,-0.2708200272456432,0.25820899806706293,-0.17770857335270854,-0.6307884033437556,-0.5553290320084318,0.000974027535978435,0.27320476594568577,0.1974044400683878,-0.2684539955185833,0.00028454622319101775,-0.1244557932352679,0.0720767368969314,-0.47082793143757956,-0.06260896549132752,-0.021208851776489027,-0.48337550300230286,-0.38985715461257336,-0.5442465848086563,-0.4380831245355128,-0.4756709060857563,-0.4489560303910823,-0.2040586879416403,-0.5262020346089256,-0.4084508677636079,0.04467520445960675,-0.5778802410833724,-0.5716042842907393,-0.5191415852912183,-0.6936394237572274,-0.46621897923224154,-0.2620139053067686,-0.06415918185364335,-0.3746003190037256,-0.6398548470092714,-0.5407170106146854,-0.46118568771156043,-0.29945783138368504,-0.3631110155325899,-0.029192824304701052,-0.3285795309600129,-0.24056745206072067,0.3124359946536823,0.624977626181493,0.5529190920306833,0.3393105469701656,0.34749760262191315,0.3578363088381919,0.6506212076005661,0.46614823029034264,0.4870709806125745,0.6752271903834695,0.4806530695931112,0.5087249665390224,0.5116402845322398,0.5006742796377246,0.22942012781590157,0.5281854884552502,0.4313981078856271,0.47567971248008273,0.43059023965922755,0.5410975881165861,0.247636086137026,0.5319136635644319,0.40586082227140274,0.3466082964926841,0.5296891212227347,0.49925507351534393,-0.03658519193497527,0.4891724273529107,-0.06600637988545383,-0.5185529807573965,0.6721173094904308,0.3515656084629857,-0.35253205892406086,0.11078052871771651,-0.5605946470934404,0.6431063889694693,0.015781663542488857,-0.027862652169422648,-0.2702061446975679,-0.9491058079954747,-0.10381524190904329,-0.49588502490723413,0.009922080171944623,-0.6608957892830796,-0.287400880574326,-0.874333623729906,0.08493431724214663,-0.6375532510748697,-0.6896159102510945,-0.5681442562891574,-1.0243837933654807,-0.6175030521514537,0.4536221161689513,-0.9030021132661499,-0.6073022470212904,-0.4246177926963043,-0.6842047700289965,-0.498933976618702,-0.11027634849508881,-0.3050384164886249,-0.6530943726121293,-0.32627178628402037,-0.3138906582858099,-0.20299384880320442,0.790047850422652,0.16244416987098947,0.3638290080777621,0.9009872335666073,1.033049959618585,0.5509232338845232,0.30206319760571415,-0.07743662646473395,0.9219542934158358,0.0925241219263118,0.7065563785056386,0.51582960254309,0.22124315327022953,-0.010235943894246096,1.3094106131113163,0.23695990039853615,-0.055221558153659284,0.06319031235097419,0.5142903530418239,0.5812412294728265,1.0994272395803835,0.08723684162005048,0.4445021868058844,-0.3630155114430619,0.727644460224338,-0.4325462340383161,0.8490964950783345,0.5264584608227494,0.6820501282329,0.6294085966614972,-0.09401009350923942,0.5112953114905804,0.7208945947761546,0.686746399950577,0.6385205275850323,0.04660756655358081,0.6869400694091968,0.6644150653401169,0.026547754024815323,-0.16718393833369563,-0.6914410048281482,-0.3562273144511707,-0.06725223507170314,-0.40978715768809,-0.5079159368670989,0.09222034922738527,-0.3541435191204574,0.090603727969601,-0.2931133858831925,-0.37067344147637094,-0.41265714089245076,-0.3481666381219111,-0.49049295769888057,-0.22911095674682,0.2235690672641027,-0.43904200098630136,-0.707214558618698,-0.6355421789325869,0.01583342214853617,-0.2964779164729422,-0.34985332890059284,0.2006893816927775,-0.38221442021955515,0.19227429568380822,0.041420979376563014,-0.028590353326381913,0.005556952345475538,-0.09731598849896052,0.07450735170899651,-0.24221827889617228,0.20123608665413997,0.31765203572780987,-0.22924268235640627,0.3329359938077107,-0.15283289075284748,0.08196617077525896,-0.06568963729570668,0.006692176487718571,-0.5211397568170427,-0.0584342695995116,0.40509839905224015,-0.010483256008402338,-0.11240388644168153,-0.36377495388087916,-0.6347283319179841,0.23844366089385827,-0.46460812667808243,0.5908345646949397,-0.04375384432630487,0.623421432145721,-0.6096350949390839,-0.3731355313332404,-0.4625316055030798,-0.30220887555298853,0.11752294193172692,-0.4121789370689114,-0.3532757029770537,-0.49372835609069576,-0.3952520382348761,-0.06834231482252755,-0.4862332984371525,-0.4397630886828741,-0.24713002158736214,-0.04759937997055587,0.06633734948331443,-0.08290378302108227,-0.1839347790821448,0.03682446978320989,0.06316621402826704,-0.44589490432301765,-0.08225953910593004,-0.10517757819018891,-0.2036663991755022,-0.0378492250306801,0.056523926416995454,0.2618101929448141,-0.037930674804392724,-0.00038942629994404075,-0.3066564685873705,-0.10049458449133979,0.16615205375733547,0.18864067687009237,-0.1264478310015608,-0.011051592416376009,0.06354717981367072,-0.14752093462319216,-0.12499711940562205,-0.2625001937400209,0.3358109185762153,0.3087864895552829,0.17809849547209178,0.1978922491539965,0.12380265414847724,0.34917606256726885,-0.004636804930574563,-0.08972270104630818,0.16010303692260053,-0.13750027391218603,0.13154354092743306,0.31298860841891235,0.4003701837394304,0.5208834894405322,0.21877082497660408,0.2918457717293127,-0.00030270819901854676,0.49216697994885705,0.35628026980405536,0.21882488950501827,0.29928961523658326,0.26869878864172353,0.37322396567118654,0.17182406562843308,0.2286110420237999,0.11196974292738934,0.2317180759941076,0.12800067751737484,0.08937377067355522,0.05230374994535872,0.04396428278326874,0.11242447848494701,0.16425255832218708,0.12340411467001138,0.19271046031657862,-0.5224219701635344,0.12407867145175491,0.07945093488834465,0.3681241068641143,0.1184443845450962,0.2672489195541991,-0.12437755180832281,-0.24077404181179643,0.2350873748458485,0.19417597064507625,0.059469137116865516,-0.08067974522461414,0.38581536009749917,0.017594751280278934,-0.1779011185012237,0.13770981939790902,0.14842053430788987,-0.1441225681469197,0.09608473006374404,0.3960851865885702,-0.5569943256116074,0.14000226708551083,0.20242375883474636,-0.15544725676579793,0.14679184699297085,0.4830940639349142,-0.026789257550479163,-0.03160662125110125,-0.13974499670797857,0.31482701683863873,0.058049674053566515,-0.4598950218162375,-0.38795910027798447,0.133074957198489,0.05004386831487993,-0.7464264912420553,-0.3039973956102364,0.09833730653523182,-0.06070596446335855,-0.22736641677156802,0.13122144921035972,0.07441850965874812,-0.22531130859541887,-0.05739713363702197,-0.05463439015651327,-0.10244819129006641,0.25351225664542215,-0.3240853600052538,-0.4543056283047158,0.01737866508920184,0.004923508795566637,-0.18860941068219353,0.019515231892925127,0.2465709273065843,-0.15878166144927816,0.35866957524509907,0.7781261953126185,0.27162215672060663,-0.6299238756477202,0.4934144865852013,0.6609103008034468,0.15947874712302906,0.49638413062270964,-0.6313304935897533,0.593993236923521,0.37748288595513324,0.3166454619663672,-0.11782461632242953,-0.47121305097987326,-0.7941159487246833,-0.441331956963526,-0.06794865242849804,-0.6673725000586097,-0.34523492005124534,-0.800973769403942,-0.1571075775165071,-0.7297233291530988,-1.0991841579428914,-0.5048524439174441,-0.7471154061070172,-0.15808373537058104,-0.02263009309126419,-0.5571097940313608,-0.6870964265280668,-0.36645973998696796,-0.7904626005576959,-0.17503471894989336,0.31213347765682914,-0.7236031693506084,-0.3649001779664219,-0.45257056260679324,-0.4280935771876617,-0.413409726850082,0.7492634382224023,0.09000606887546271,0.35828768097191466,0.3178113368104236,0.660948444899653,0.5041642459203721,0.03761982836898794,0.40067485097815275,0.4497259998668837,-0.5020483765332155,-0.029764430715484968,0.5480533503917401,0.48028321067881224,0.6217422406676748,0.5303092758716792,0.432623317077121,-0.06903751763337872,0.8382651846688342,0.6393366425769289,0.5630938019936057,0.258037225977231,0.21365866812994072,0.3244766092678057,0.1302941689935497,0.2573486326628009,-0.23129048263655097,-0.023622756112521532,0.11296787410905061,-0.08195137264345052,-0.3969193029991751,0.39454593177917713,0.06247688348512867,-0.09181451242480351,-0.041743018531073414,-0.3221329533736251,0.39311504538188774,-0.07590415880050233,-0.058591725828332504,0.3575128553395745,-0.03164896986259237,-0.41724170729161136,-0.05649090601232242,0.3014831555096082,-0.3472875038043712,0.08481122875296492,0.13621107869442547,0.5112702437351401,-0.11198642287269948,-0.4117841320623869,-0.10445111873615555,-0.4982070843022305,-0.6438685246021474,0.2933506776445047,-0.06695523026664275,-0.1093993710028888,0.2890891673668684,-0.6541941983489964,-0.3149164781148723,0.3114259572969049,-0.5094824706162985,-0.22163907107544872,-0.4323462195657387,0.00850685457694872,-0.49401464249670657,0.49896244795513883,0.2762210774564256,-0.07213019837905577,-0.25675508040121064,0.54966815238941,0.16105643960627236,-0.34781441636562965,0.9713782938703546,0.6728975682932821,-0.23754166683593628,0.2507366210839435,0.014618429779523738,-0.10927322842755172,-0.19224392255988973,0.8881187584939794,0.2232820678462739,-0.29308159570968256,0.19450937917893396,0.07834539393092135,0.22978396255594613,0.8392743602925946,-0.5628723583285143,0.4404432231031714,-0.673946573538161,0.39178295229987564,-0.7983290680540729],"Dims":{"W":64,"H":8,"D":1}}},{"WeightObj":{"Data":[0.388775528958808,0.5019189585883965,-0.14347727557991097,-0.12244877432361483,0.008614361690396475,-0.2721697458613521,-0.12662528882560206,-0.20096073010022028,-0.11939782036008342,0.2778287959828389,-0.1483192757448997,-0.14133792577453935,0.013328102708770752,0.007496046114513614,-0.0396146830394632,-0.030738882085994915,0.013316987033292853,-0.03722558663231002,-0.057050454996719256,0.010972300399473889,0.13472549301232334,-0.1079288380645181,-0.05059707298435872,0.03879808906742561,-0.012798261650571914,0.10364758348015399,0.022861065054793437,-0.03554702313685029,-0.10359364616136989,-0.00248062913441147,0.006093027706727475,0.04081492517507743,0.0408254419005444,-0.08128931329306695,-0.04907013022200469,-0.11452345372862033,-0.0659702243297217,-0.11181070391247501,0.32349785273992626,-0.1855381877919832,0.05287394929372695,0.24340743385462008,0.0034087846951373897,0.005504459801599411,0.08597836803619231,0.14040663789647065,-0.20202261280443737,-0.09773314654699773,-0.15460023077259047,0.1249289302733207,0.057480279385640674,0.2937184858920151,0.1591565523243701,-0.023994109049756067,-0.08429863370815227,0.20477137842961904,0.35237187282064625,0.20233441024806045,-0.33866274875852015,-0.03463502525032978,-0.1760276962552687,-0.10394502774495139,-0.1654258572155107,-0.11799708672370893,0.30616597925937383,0.5061908147194581,-0.11174554458505226,-0.11752145850028586,-0.008632900860745687,-0.22125609575460847,-0.09966677651636664,-0.14100207069220985,-0.11541265574587413,0.26626840838887084,-0.1147811999277522,-0.1027123111504917,0.0289288331880922,0.005187490746867885,-0.014135724711118184,-0.03985442329931071,0.003296205537169898,-0.048743983638057334,-0.04296676615855672,0.030902520980592204,0.1287547920770451,-0.10181275452527971,-0.049734296926956245,0.0019961664477839633,-0.022555212521371694,0.031053856314414863,-0.005547013547503686,-0.050857475670872725,-0.10288486187650998,-0.01252661765780855,-0.014143032550358323,0.004925372410198279,0.008968757526137114,-0.08510855911342284,-0.04235455138358568,-0.11028267582657714,-0.06217643135445717,-0.10500943018737353,0.11650585498417158,-0.09698171919922914,0.02172575577250413,0.2242094049687143,0.07375542203113614,-0.04294619054185976,0.09489369526124346,0.2052771189648683,-0.12849097559801284,-0.10618916178650491,-0.08191570392904804,0.08241780970864505,0.002819020014018206,0.24791285457338005,0.1509281849452882,-0.0396796576338727,-0.09765008025974156,0.0610747711404094,0.28611246307332494,0.27085288237670374,-0.14230853170597754,-0.06594990333190105,-0.09692888514073905,-0.10537140125436618,-0.09409633230488583,-0.1191910680417669,0.2453348476076339,0.5500729251797923,-0.10477582295939188,-0.11430210116468834,-0.0018115044569876756,-0.16204574141067202,-0.0969078292058891,-0.12362164076512797,-0.11240392516880857,0.2389027478400317,-0.09052153419839104,-0.0971039769678711,0.0828802204851471,-0.017183938005336838,-0.005473407235915852,-0.045507018424117744,0.03920913191149749,-0.057914826684286,-0.04848698070334378,0.01842700507215403,0.18473317292494515,-0.09688225896433483,-0.05586085318086816,0.00008595698781486039,-0.02099185050688533,0.025094958576150492,0.032156683811128704,-0.055168747340679454,-0.0997668797262421,-0.02561759788360089,-0.01752867611047108,0.023232608102173875,0.00031183945901653285,-0.07462755939285418,-0.020770911683294885,-0.10769641050693285,-0.06280601192127198,-0.10499178581826665,0.16187052746432487,-0.09490981266553503,-0.03881647009482157,0.17413025889547795,0.12641587894763326,-0.04644408349715498,0.018190334893022842,0.1759242035840556,-0.12872322516486398,-0.09271040342080072,-0.11474211459565005,0.08184028993530314,-0.00453378809722895,0.23966656068260542,0.17826818383066118,-0.07019491717246307,-0.08947549194469173,0.13268396969303523,0.2513747161064339,0.17509901410086579,-0.16592885530382975,-0.06855222814113292,-0.11523886561824469,-0.10138695174647722,-0.08355661807663214,-0.11992242016485663,0.2307714950921167,0.47375631800142715,-0.10752750809434408,-0.11264951371113956,-0.03561564013208892,-0.24547921453086904,-0.10223971397510663,-0.16570995870266078,-0.10879934435765297,0.26156287119687766,-0.13287182836073994,-0.11106626090704995,0.07896378826540475,-0.012046411103111318,-0.010823859653269336,-0.055264535252875786,0.053104169561679654,-0.05840946391785182,-0.035736379261503616,0.029344343307697005,0.18549137327199092,-0.09953831291739391,-0.057278602712606166,0.007693791340408119,-0.042035568590601445,0.007251900451846443,0.0447284879193776,-0.03815508101930973,-0.10467892991566172,0.019201614595676833,-0.023720336016889734,0.0019742355346213576,-0.0029645584207737344,-0.0745278790695074,-0.0339067242670822,-0.10602827107354745,-0.054297417247503525,-0.10456342745815986,-0.00703515425564414,-0.03527251221448959,0.03295209480795338,0.16243448567592722,0.03762738739048554,-0.0686155372150272,0.06661052364659184,0.26219303231238666,-0.09309356749925637,-0.08852609360987555,-0.06667992664088915,0.03425529483923237,-0.021280906017042196,0.2481943562562981,0.17147121129462667,-0.045498759635239305,-0.08973396018358328,0.044508030540543586,0.2630350150126801,0.29529493299766457,-0.05152366091875875,-0.07977684209542864,-0.0233490601592413,-0.10721636374982162,-0.08654588545402846,-0.11233778299588647,0.2487783173445302,0.5807526997703062,-0.0957826650505521,-0.10055813695098134,-0.0361176206701597,-0.18187803488386928,-0.07964538231690904,-0.13099325126497458,-0.09820604566993149,0.2510733363645838,-0.10631758629927274,-0.09883912243008758,0.09678547008591618,-0.0035993871657153914,0.0013047803772153485,-0.034676100498808336,0.05720973066367361,-0.04791679487645558,-0.013900662711265919,0.015219758818874366,0.171397733660467,-0.08280508025478872,-0.04278164361229466,0.013494507913486506,-0.0322089846065059,0.02714308426141872,0.055490351760817326,-0.0429155792060611,-0.09101326536859553,0.019595854398994264,-0.026194711323422045,0.02406697186954464,0.0011661489334841345,-0.06583389665623948,-0.023778608927712486,-0.09271690800514439,-0.06304699607059369,-0.08912647230305616,0.09873658126502463,-0.06918404676222707,-0.07163405489879941,0.08183592337772091,0.07104703129525995,-0.07103524629602123,-0.028902343647501078,0.14439288015711693,-0.12146379408479953,-0.08291595438057126,-0.13843006685274536,0.04499158557568438,0.004977706669575836,0.28001332769214027,0.16226027310425473,-0.08498038797474662,-0.08215743228417528,0.1562538247511498,0.22010971254884765,0.1941046816841949,-0.10853598840702366,-0.09153666174914761,-0.08815647555603276,-0.0907753412707987,-0.1098613429021981,-0.10178020015408296,0.21566654121971326,0.5050648250245906,-0.11712284446604629,-0.11396266673499363,-0.052392532057122715,-0.23624556433975774,-0.09753744060324213,-0.18638143966119475,-0.1123727667209589,0.21081056907160292,-0.13646562813920346,-0.1222648521259201,0.08486508395466913,-0.014366214411507065,0.0035233350119324826,-0.05037593677738256,0.042290035522393576,-0.06413337810882444,-0.03874888886273832,0.006789267454880653,0.19214588929352203,-0.09556341675800557,-0.05996740683546807,0.004059157201966017,-0.04259430191904301,0.016768348161042508,0.02814346902472779,-0.04760872607435768,-0.09979863805485889,0.03128634492994105,-0.025279401179488126,0.005283606017685461,-0.005289959030828599,-0.07995553556975386,-0.0407221020033412,-0.10471942084558222,-0.07404474766422718,-0.1022580889847047,0.12948180821958966,-0.0036997258447176978,-0.049051117701552724,0.06829379788044983,0.08902468291273365,-0.013791335459787394,-0.08213471034364016,0.211921760492019,-0.08040326957926089,-0.08918627789029447,-0.11881406580360582,0.08849556156821055,0.06798439724274671,0.3135295308736844,0.14577580077209773,-0.04446813975974573,-0.09399313225891302,0.19018785750381034,0.22695557003033892,0.2104552633463984,-0.05832527541445851,-0.05616865209470109,-0.01967882239968459,-0.10911852882497147,-0.04036016942212679,-0.10943738200472435,0.26099902287223925,0.5882686262550088,-0.1156816741186771,-0.10806770196334299,-0.038539787143847246,-0.16567435408568226,-0.08890991679943937,-0.12016599483020973,-0.10595042008864054,0.2170278385208384,-0.10937038119996291,-0.10392831255406029,0.06779835773726031,-0.02188825467790362,-0.003918629533146755,-0.037188644553203254,0.027348236888649863,-0.06450702748943467,-0.03754767486337569,0.007714299013608758,0.16601641805753986,-0.08931604540111188,-0.053634656325303356,-0.007231485879425389,-0.04530836543573532,0.015843157003958015,0.037716052908314805,-0.04623556212174465,-0.09706803730890458,0.0006243378983215001,-0.02366040448135033,-0.00448558286739361,-0.003993275950029962,-0.06951500413553684,-0.023023907957110963,-0.0992795370037012,-0.0748833726395613,-0.09825711699536795,0.1831507698769393,-0.06378821361570493,-0.0931976108927823,0.09560687967727631,0.1483865966281015,-0.03898044413776948,-0.06395069160439663,0.13892125940032335,-0.08069514017894325,-0.09335817711672874,-0.10415093380637125,0.08611590564005736,0.026934247871532833,0.25731431182008585,0.195626702537943,-0.10123518597826818,-0.09132039079858702,0.18321136811047053,0.21309823126122696,0.16384472825972538,-0.06788439506921194,-0.07993442988933443,-0.0710148503299645,-0.09782060743505744,-0.07019192371333759,-0.10681322526977043,0.1706664965894734,0.47982486100811633,-0.13069973920260308,-0.11046705070667451,-0.047722692630463213,-0.25337257565695087,-0.1101044812435665,-0.2167332973681654,-0.10810200427480471,0.18001602970633845,-0.16278019131616886,-0.13843215103349404,0.08096820091073094,-0.022945796661326623,0.017260603104893857,-0.05446999387543991,0.03245332833155515,-0.07763144741973346,-0.025776690304027204,0.012476798937008099,0.18733271467708745,-0.09328193346197268,-0.06601521615863495,-0.011374824317070528,-0.04665920721862359,0.009243023111193585,0.030350558440607012,-0.05304271617501159,-0.10364119782237169,0.01180052228580701,-0.02368152507763542,-0.015572358374767389,-0.00993194280986032,-0.07468417939153549,-0.03598304902186475,-0.10241910138956695,-0.0664625173301992,-0.09711718574088347,0.12993540316243068,0.02116448755118698,-0.03974868833465474,0.08252519098441902,0.13225609348579334,-0.025598165198876015,-0.03392732424971074,0.18906691055515715,-0.006961545916765505,-0.08700359372769705,-0.05909787804335848,0.07740821409152918,0.04343160889483861,0.23600843197119925,0.21956272212632116,-0.04224259147873358,-0.088016037352098,0.11993917601669521,0.20433480313437424,0.25505413973715313,0.013925873399972843,-0.06719602724447936,-0.01033819567279815,-0.1086750792415058,0.006384220029643358,-0.11548021979943028,0.24162877371260572,0.6913772175304861,-0.11661220754022514,-0.10071839774167547,-0.027071848045927292,-0.10868999387246005,-0.11167437558778764,-0.1088943925511809,-0.09843018325287686,0.14872506420500659,-0.11891813909349408,-0.12598621373130003,0.14030449267841472,-0.025577315125602944,0.027395547731061367,-0.04857869856194947,0.07045204082718386,-0.048281211056332846,-0.02953637617647964,-0.009287067825991029,0.19647592585417534,-0.08652742402961576,-0.06090275648243134,-0.028117166085235394,-0.038941671205500204,0.009624454597652952,0.044007375270865574,-0.04845626211114143,-0.09154992424544886,-0.06694620091032609,-0.0325838149970982,0.009678676033573714,-0.01754624353072933,-0.06685920631357371,-0.01682308162701345,-0.09434934763321796,-0.061961342774857826,-0.09116690486444726,0.40371649223993533,-0.09081085666003882,-0.2055124644528079,0.01444899604959334,0.3055652599360084,0.00792760089841705,-0.25448995297948057,-0.02097274077262534,-0.07873451584835214,-0.09644962117141244,-0.1705147940239283,0.15778126833187914,0.08584429857949905,0.2751211172526175,0.23599865557513897,-0.12053822460032854,-0.09338731703480653,0.3665100193114778,0.15784131810605587,0.005142013458017329,-0.12039478004157977,-0.09324259358565641,-0.13957931459898693,-0.09962623817280514,-0.01834821878686214,-0.11197720847604015,0.2530387159695056,0.5708044571894431,-0.12040076947018305,-0.10700928168375191,-0.050239716467894234,-0.21437075710824335,-0.10787654166340706,-0.17639404630774191,-0.10597482635178251,0.18110081045855625,-0.1325941950105172,-0.12791269568953945,0.09215654432197398,-0.037584909554838786,0.0014690312560171955,-0.0512652647107221,0.03868084203055102,-0.08050508515939536,-0.033591984425300064,-0.014449386972330676,0.17598243909414943,-0.09035144535313479,-0.06252054176734996,-0.019865515063468148,-0.048652421012687366,0.021077270631809815,0.040284047480464984,-0.051182485286411866,-0.09699798726209664,0.015069258976002921,-0.034402999174543224,-0.02022108784186209,-0.02533274690458167,-0.07555068071193911,-0.047076187617076645,-0.0981926917362046,-0.07394184604370475,-0.09806260972145772,0.17323665530050955,-0.01545712430242561,-0.07014155572392193,0.09609557339642492,0.139876426251808,-0.03668715465692254,-0.054713930869387,0.1432274302332598,-0.0427709930037099,-0.08879187040321079,-0.08717991201726431,0.07714820827307971,0.031099344930711738,0.24378187905831317,0.23445402939553775,-0.07264096749701864,-0.09116885235169785,0.1546043229806691,0.21504281564257108,0.2463432702816226,-0.01781340852909255,-0.08442732179183729,-0.02159376895140433,-0.10111121007948563,-0.048743881319888764,-0.10881071558355515,0.2263867339725355,0.610676411830168,-0.12861502886939774,-0.0972538869750611,-0.05311727181696327,-0.20838566294824845,-0.10827404328357257,-0.18139837902993988,-0.09458192508786949,0.20068418518983758,-0.14433507008799332,-0.133655782931576,0.1037083429456961,-0.03606227194654117,0.02179319563051733,-0.04353312919871315,0.02627536917155031,-0.05884405230012873,-0.022271508103208732,-0.01634119019195716,0.16811083806955282,-0.09002717022681538,-0.04945777294593288,-0.006866689765889271,-0.04937468382750132,0.032669984610001056,0.049022454233753815,-0.04347355478153353,-0.08658307710796549,0.0012152441835275175,-0.01713722028710899,0.0013539540489951253,-0.006906678236027123,-0.06479563514976733,-0.029336676093080397,-0.08890695749229198,-0.06846284198448103,-0.08962829474280022,0.14105202206715092,-0.0199842569586808,-0.09748000025240207,0.0724093437950889,0.13627860116474141,-0.045970356769221975,-0.08788585390175532,0.09232053609313455,-0.008800170666896616,-0.08386444686342258,-0.08258474322076845,0.04462123101652368,0.008991644669225848,0.17388426953505454,0.27421145475168696,-0.0869562142395828,-0.09029139535508443,0.1088779592829293,0.19350928577579277,0.246469134788011,0.05400575114380194,-0.11946023075973543,-0.04060245079316235,-0.1045374914890196,0.008643928987965519,-0.11112781027512945,0.21588272216774376,0.6259161982741417,-0.12517561711985153,-0.10492871915175309,-0.058043880292855676,-0.16810720216816796,-0.09817444929306879,-0.17203346294546557,-0.1033220206688738,0.19868148442955166,-0.1441080907549764,-0.12512757590017415,0.08298769254063171,-0.0450997860413553,0.0016527610286901592,-0.04785947731140929,0.03315370309823578,-0.07075971025178882,-0.04050627104792266,-0.024638525003111304,0.17300039962794173,-0.09259756615259015,-0.06263698377735763,-0.0003281701974396532,-0.045602848995600354,0.021225289826665304,0.022953161904405855,-0.05466256017413122,-0.09690791478598218,0.006971849188919572,-0.029726463305792865,-0.030889146994137848,-0.022422004509430188,-0.07470401676735974,-0.06305080908831873,-0.09845404652205844,-0.07481977152147014,-0.08989674200543818,0.1930837741520742,-0.03495656972674465,-0.09137601864075093,0.03723022145871437,0.14328730646553764,-0.002643416416017354,-0.12338672668633327,0.10987173857098878,-0.06552289591551386,-0.10000452698381974,-0.13491312209237122,0.08292917793457467,0.08585134829571328,0.3257797255597546,0.22421851218258984,-0.07764350747256121,-0.09195961675154267,0.27887448025092737,0.23109167447509757,0.21795480380063503,-0.03310805065335505,-0.0894650945535851,-0.03257394622371959,-0.09560681850229678,-0.06610897885480052,-0.10874490301223141,0.25770372312887385,0.6330624026998894,-0.11985146277274476,-0.10843773199606319,-0.04388113433778984,-0.15098109917445268,-0.08780964521927748,-0.16033343278422701,-0.1068654759897348,0.2097838708921948,-0.1332858074263465,-0.12094114216528139,0.06575483692134716,-0.04552981226077827,-0.015585846176509077,-0.057479893824006784,0.03923786674907562,-0.08474395957575677,-0.04837423294579075,-0.03212695131049228,0.15213604722291404,-0.09825033188107536,-0.07200578890020934,-0.023797588753712434,-0.05164058502213925,0.034635672240042326,0.0389351810792821,-0.05414337828479662,-0.09697393883843275,0.017752059288612298,-0.038763963097285546,-0.03498565566804886,-0.00966708652253515,-0.07901480809422604,-0.06185791018938829,-0.10167823425808595,-0.07801569652081597,-0.0982366775118493,0.20526857055699738,-0.029768176914327378,-0.09177982416899402,0.018359796233635286,0.1055246770555327,-0.011023909568582386,-0.14631452598604522,0.1418665422282715,-0.09999227500280315,-0.10173367185758006,-0.15906100704785153,0.10560629017332805,0.0858574100457102,0.3630450599618217,0.17657810207411087,-0.06884366385156075,-0.09698620779383135,0.3092458641686038,0.24062961363176824,0.22737388851304813,-0.046103305732321395,-0.06349255931575186,-0.01291294818500122,-0.10287370868977014,-0.07033467353471702,-0.1118777457140799,0.21189419586194752,0.560081460183297,-0.13680269721669985,-0.10526471805192283,-0.06800340091942447,-0.24587208724078513,-0.10335182170311635,-0.2178530662036582,-0.10292336993061761,0.22935087387428293,-0.15840146349514223,-0.14153937857747825,0.05033085834668549,-0.03740014545547149,-0.026513290265809047,-0.06306207765118883,0.015881255405807336,-0.08058302104329265,-0.0379372832940494,-0.023185074370874467,0.14901752870806018,-0.09586279453657066,-0.06665228699669791,-0.0009518943253718044,-0.054017624589951366,0.043665225662148636,0.030000636362029504,-0.05194143794392336,-0.10029169041399393,0.04466366463248432,-0.03700503891809248,-0.01640680333840471,-0.006670451121892473,-0.0758288624331578,-0.05827834748810343,-0.09761454930450152,-0.07906594205062278,-0.09490026351701998,0.05357696701841666,0.00927638078388039,-0.030454106342772232,0.0735833160417614,0.07514258057943042,-0.027405972045976945,-0.03494812949265555,0.1810140736819435,-0.0060355674369507,-0.09218354215165654,-0.08633060771891547,0.05407177321886431,0.033884364941617034,0.26104042820484785,0.24708775925197657,-0.04598028428722782,-0.09515071511088434,0.14040209500130624,0.24713087120619162,0.3446608668748181,0.06293609934564388,-0.09328901250197984,0.03522846692074843,-0.10678318688256423,-0.03881930723447513,-0.112360428504323,0.22425544708685763,0.600960579570596,-0.1340840615509912,-0.10672969874271192,-0.062202201801377664,-0.17155649758650546,-0.09043246337967537,-0.1936509151643498,-0.10532419170655757,0.2163239706142919,-0.14988160642633322,-0.14753259157066936,0.05227076353205801,-0.04231238964327861,-0.020624978417744622,-0.05372705946857309,0.032212250470659676,-0.08378219750632371,-0.026216723696714836,-0.05218734196121628,0.1521086603191877,-0.091192829324027,-0.07182962715669984,-0.00046919983302817834,-0.0506364148204653,0.03506368352119695,0.025893542278362092,-0.05646663069892331,-0.09909987095310106,0.05061658718094194,-0.026068973925804935,-0.02658259367535842,-0.026714580155269202,-0.08154967798117004,-0.08049957050523832,-0.09904735373225826,-0.07571228424608786,-0.09154538009594619,0.09514505294134004,0.005297010746037917,-0.06623041734728874,0.018505294778152378,0.08669052496130955,-0.01549470738612681,-0.12760043770043603,0.1903091355340833,-0.007550525856508358,-0.09720534249981441,-0.12935838843303332,0.06611074940412401,0.05180226814780638,0.31411196154829124,0.2591190718390354,-0.0665232031091208,-0.0946367599940642,0.23472770677460777,0.23934347263544592,0.30680827303554736,0.03423307475400379,-0.11174958879015984,0.021694428787264415,-0.10800483020134528,-0.055379504396518946,-0.116209899020407,0.246668786026476,0.7068546404979134,-0.13179566350982794,-0.12453968278828796,-0.050503031650601174,-0.12087159069132063,-0.11285467396555753,-0.1467599402584796,-0.12347008042605656,0.20490109413573473,-0.13951820248302166,-0.13619008916483888,0.07489328734869105,-0.06222474373118313,-0.023242939543978085,-0.07245242435464087,0.044976885913640616,-0.08319862679307793,-0.040815981320900696,-0.04347135380423082,0.17709320184100932,-0.11639903644549611,-0.08140423578726322,-0.020241767328126187,-0.07308244159390956,0.026665303166122947,0.034877534640487394,-0.06681136261880162,-0.11697156522702543,0.016147693848764008,-0.054120897965021515,-0.01687562576220068,-0.02441969800130848,-0.09977016193807045,-0.0783610492849748,-0.11588244562698465,-0.09120795448699366,-0.11285074106608219,0.2640176285365793,-0.03274598506553175,-0.13379292902394346,0.029837826082852244,0.21132728374983967,0.020650918304998656,-0.19750293656107581,0.07633581716107443,-0.023697254509394205,-0.11850716008369039,-0.14792904213150018,0.12937093571748767,0.09554056883204547,0.32423184502100544,0.269230967155682,-0.08024969518370671,-0.10676457233501496,0.3328885823942334,0.2196671003900369,0.20103017163908013,0.00015302690329420051,-0.078746227604034,-0.027567992332773128,-0.11208025895194416,-0.04006723793335127,-0.12740179997283607,0.26995589803149145,0.6904834100978463,-0.11974520628700976,-0.11027987609029812,-0.05610836829111846,-0.12041480545280979,-0.11258801829719772,-0.13990496876219663,-0.10818478760894053,0.2902943095028582,-0.13799550727875434,-0.11563419022428142,0.05281395268086727,-0.05699545420482727,-0.03549923943271162,-0.06376019755672493,0.047674431184453046,-0.08731644864690845,-0.04970606521166063,-0.03943920507896223,0.14291414594701818,-0.09906298283929577,-0.07802822107667631,-0.006660043436605318,-0.07072631563301178,0.036185627312464115,0.03739165722817221,-0.07492241592061591,-0.10744375371447006,0.049194042742376494,-0.05766418907845761,-0.03353508716969205,-0.02685385848261893,-0.09076575756862797,-0.10378635503734737,-0.10049592506707881,-0.07764983040107935,-0.09941407115948235,0.07543688491834136,-0.06899991723617248,-0.021755041084121077,0.14385601508171822,0.11702863447900029,-0.06875981311918834,0.017107721495636823,0.11468353112736022,-0.01658904510192607,-0.09513161590027336,-0.11640416363431517,0.03222983672997284,-0.029239198226327676,0.24643572667493746,0.3109536994963038,-0.07056543202590915,-0.09862151865028168,0.12527280795946288,0.26777611941383794,0.35885644869928934,0.017823578713274356,-0.1402361048976766,-0.013343132066437712,-0.10606272389498347,-0.09944169931069802,-0.11863792935889785,0.27327154863975917,0.6648694847475679,-0.1321557628353228,-0.10336081948225435,-0.04679141993875188,-0.15514306014389828,-0.12475342653577418,-0.15806455755955395,-0.10076410282220179,0.24013416851134087,-0.16145576389790547,-0.13999592963956176,0.06835711547200349,-0.06477808003538947,0.00046440962497945956,-0.04222972309415859,0.06217774730928768,-0.06819622554878296,-0.039332505706631264,-0.02979083850211128,0.16273001275181162,-0.09716680363043954,-0.07192903270330728,-0.0029310206640157507,-0.06465187634735868,0.01989795117849734,0.06378249925901731,-0.07352834330506573,-0.09727200610884629,0.011287632362665792,-0.034633688846872256,-0.0016516274533457385,-0.014789270224088684,-0.07426669411915442,-0.0627633565814256,-0.09505081733956754,-0.07166397270926846,-0.09408982378554256,0.053210786052420564,-0.06240537064319444,-0.06472121191848795,0.15938148873470642,0.16297862545457148,-0.05050555725581029,-0.004032639389143561,0.07016693769498802,0.0784339333117036,-0.09600512384659778,-0.06031900668113899,-0.0151458216167043,-0.07679207417340753,0.08027195482655546,0.42680310020084355,-0.09832701523892536,-0.09853876245222704,0.011837786327870296,0.19798166367569808,0.3920352258274891,0.12783466299958213,-0.201802283736537,-0.008317080960101393,-0.11613078604173382,-0.030765465063316337,-0.1208999863854451,0.19193847337816985,0.6631835679956819,-0.15453962884169362,-0.11701251331321835,-0.05560283317256817,-0.1533946834546567,-0.12839525196538876,-0.1905270680353996,-0.11455940872455016,0.20053442419184356,-0.1707501505978019,-0.159916086703735,0.0868969129553232,-0.06207849981621797,-0.004569207537687522,-0.07551582064629048,0.05849505950783972,-0.08547084280177265,-0.051673791956566746,-0.048645410434074096,0.17792127925842036,-0.10231074287957605,-0.07925028155930278,-0.02473886196099005,-0.07172276899921858,0.004231704762134738,0.044675789043292904,-0.07933350603147678,-0.10760149054704907,0.015843866541062988,-0.0481599571858766,-0.027720681452945387,-0.01890753347818408,-0.08799213981113871,-0.07387973366888838,-0.10730000713094148,-0.07993586984448407,-0.09984822113606656,0.17604783371144217,-0.0026582918201514733,-0.12183180227908322,0.05962895402845458,0.18990923454422654,0.016252377491646985,-0.16094740290228424,0.030607020461278275,0.045826362530261004,-0.10114585670392011,-0.09534383230380551,0.09308691985651249,0.07422882767062441,0.24693700032208216,0.34882860246111774,-0.07551944583065957,-0.10856601165090343,0.2537584951724601,0.2023294062230992,0.28332455704919557,0.09270290073140913,-0.10030713999550298,0.016372232563911727,-0.11778384906817979,0.014868648521508845,-0.12297382473076796,0.23534885479414572,0.6043372703804887,-0.1413971577396905,-0.11639284858406476,-0.07571232406743506,-0.19863764162939251,-0.11410886804503574,-0.20544424291994076,-0.11483551392550198,0.24620247655317337,-0.15995399584203468,-0.1456346382334683,0.044677658392025824,-0.05989984517735245,-0.024977256930990472,-0.057665692717300786,0.030685737310528222,-0.09486591231890108,-0.05568190987361615,-0.04502975429402306,0.15325810137049106,-0.10491685938907888,-0.08012651481206473,-0.010874589744072963,-0.08228631096033273,0.0020039954945649517,0.04033299942440638,-0.0690045760456798,-0.11204314121299205,0.045180324593931516,-0.05410431444405839,-0.029691567895539655,-0.03334449259108316,-0.08541327828761656,-0.08422522709226102,-0.10737899125129921,-0.08834494793244792,-0.10249175901043171,0.011431390789663393,-0.017565354350855097,-0.005993502095092051,0.10874754717065957,0.11298963610282016,-0.02897964775043024,-0.006868884699409816,0.13619007479590448,0.056864652509150654,-0.09492591890024789,-0.061492837656454545,0.011413585091071892,-0.0021369360979364076,0.21737919968551261,0.36952788943309045,-0.05070278370953211,-0.10160829206232683,0.10451159093165537,0.2531959325368452,0.45031346877214157,0.13097503201085442,-0.13564310631598475,0.06252898445263068,-0.10862950288868163,-0.04400004633750449,-0.11506541676360381,0.24347672064273188,0.6641417635542719,-0.14607826367394977,-0.10023038880290709,-0.06063092990965547,-0.17483655069103815,-0.11101990360103436,-0.20282668495526238,-0.09758492773388196,0.27107985746567165,-0.16851002002811546,-0.14809849708093697,0.06861179528206689,-0.055239506356690025,0.0033111157963169446,-0.04641556567027728,0.04766145528202062,-0.05363114644766536,-0.0332052362195529,-0.05093816346250725,0.1252328901483064,-0.08799318933790956,-0.05993974233836284,-0.0020744411152250875,-0.06221681073831171,0.02802009319558168,0.0644905789403239,-0.0629613383504916,-0.0902998640830751,0.03811962274655765,-0.019441564930691192,0.00029179170530943093,-0.014136380648629049,-0.07525933005496376,-0.0763395661929085,-0.09176230503141265,-0.06901521827513751,-0.08392631395580635,-0.028515870895292016,-0.021148540091382582,-0.05909277845301901,0.09746279411169617,0.11594129908164984,-0.05556928766663515,-0.06818839684177075,0.04469055626656008,0.1231163151726892,-0.09380075608730731,-0.047848070708067784,-0.02410856607966925,-0.06131276404478339,0.09689823874413324,0.42627856899428396,-0.0881048077279113,-0.10843731887034619,0.019180960994103404,0.17734201697697305,0.4257055702500783,0.22994612893751623,-0.2019497276893161,0.033024109985391126,-0.11997919906825952,0.002165281779160071,-0.1235215921432446,0.21351648662355127,0.6400704189001706,-0.16045437697203255,-0.11702662993696922,-0.04672596983883816,-0.17533388583518084,-0.13580065477326433,-0.202412268308928,-0.11572437598538965,0.2334260046464117,-0.18004844942173243,-0.1661338537398794,0.04994104307274096,-0.05987114300527651,-0.0018318976177370834,-0.06130419208895773,0.043699993494004656,-0.08656595918534087,-0.04055232354376773,-0.053609293806150364,0.16731749796956652,-0.10212405105796343,-0.06456730161740136,-0.006441270024723564,-0.09226226889556767,-0.01583409432165091,0.051971539056011186,-0.0751606617713967,-0.109231613937529,0.02221259954525935,-0.04274401551564107,-0.021354852714301216,-0.03627207109760651,-0.08627447277545724,-0.07763822808293357,-0.10830833222552858,-0.07579073984655237,-0.10170243866415705,0.05237171639255271,-0.008534383495773241,-0.07194753443504502,0.1049341181165373,0.19095128250482776,-0.012311780766468218,-0.0693727058418294,0.04325034810859653,0.1463342141163965,-0.10599546213970941,-0.046690151863883755,0.04035403141865834,-0.006653318391638956,0.13385184545953477,0.4439950076831334,-0.07518237526719879,-0.11454285718882093,0.09861187533212488,0.20121093105091437,0.40106944378031395,0.19850629661178998,-0.1658056726581161,0.04143670148356979,-0.13042046847093572,0.04175947836077448,-0.1342344766001812,0.2698093371592984,0.649723102418736,-0.1407783602299242,-0.10127134619541905,-0.054183382640347735,-0.19658094795524106,-0.1298628235923065,-0.2123897426530805,-0.09978389509727169,0.2733013311429027,-0.16424801093683264,-0.15380339177891256,0.032920404658061835,-0.07263288020715075,-0.020289129230564272,-0.054045454805339406,0.06532353583263834,-0.08357668591377086,-0.04505837339052842,-0.04161162522956418,0.1505874927516472,-0.09657139954579214,-0.06835853420270757,0.005545510654616972,-0.07321414031947505,0.002811901789180799,0.07081720831074899,-0.06469613881442415,-0.09752267677877516,0.04861582223897226,-0.03700391137793908,-0.010859357847161372,-0.028539306586310605,-0.07962935241173813,-0.0649319477154625,-0.09039390763285272,-0.07249664998799582,-0.09079183942895046,-0.17335256241047442,-0.022232463574663575,0.03294504080312238,0.19005086932003273,0.08779021450404995,-0.08836912542898981,0.058894748344392,0.06844347726998355,0.15747608214327924,-0.09198282227560155,0.0032028707142328825,-0.07431442427447263,-0.12474459217451103,0.02986759222298125,0.49990637017422024,-0.06981146832631345,-0.09986909227789674,-0.11974265019080495,0.21810098768579472,0.5418079997246233,0.27643609024164817,-0.21883759994100266,0.05156786749364041,-0.12603184121296682,-0.010369144244376625,-0.12116285876090306,0.29846767581991357,0.7078899257761218,-0.13479863258100172,-0.10956244399769936,-0.06256369353256265,-0.13209383157219856,-0.146373990398584,-0.17243286640087416,-0.10831513059101171,0.30437050133215676,-0.1520070324807996,-0.1412210514668945,-0.0033654114330602066,-0.0840769375136717,-0.052075530627395276,-0.06468670438802308,0.05943335744863335,-0.0906190894990249,-0.06561728152523752,-0.03325122023014266,0.13428861034579193,-0.10178227889582557,-0.08088072047384318,-0.022547315871282416,-0.10416196331343493,-0.002750501008419987,0.06174399283176179,-0.07998998124900202,-0.10129262079642327,0.053467106462608785,-0.05138141862102274,-0.016553194243933422,-0.03755094363183074,-0.08136967070563607,-0.10467840228855091,-0.10112583922186652,-0.07985052570236753,-0.09943092992277679,-0.2258193346896545,-0.04802227888204857,0.08225776496882906,0.25109024259711593,0.05219859605777062,-0.11075545351994993,0.16462709039309237,0.12286143069602365,0.10497555939501317,-0.10376601410772769,-0.02512976245438952,-0.09223195335155529,-0.13061463093826964,0.09241651197790848,0.5120413917225466,-0.05947966680544051,-0.10642652162650991,-0.08746677690196401,0.28130147689806,0.6119209734161694,0.2141665245950266,-0.20452845235733594,0.048854440972376394,-0.12935257230353547,-0.09021018389055248,-0.12616241769356007,0.24271468870205706,0.6929610535586587,-0.15501004462947784,-0.10719097093535133,-0.056796855574770634,-0.12956264207256554,-0.1306396735876545,-0.18149922311735778,-0.1045102136755516,0.2992104352882088,-0.17204121030627822,-0.16052647792239477,0.016251511419908823,-0.07193393852726539,-0.024067808589021373,-0.06149938522813923,0.05594795590781864,-0.08825962510991094,-0.04313815098988206,-0.04857270491090639,0.14197381850164092,-0.09663745271059652,-0.08214890631568178,-0.01734841388184984,-0.08476187365549327,-0.008357577205992667,0.06024173799263377,-0.07308174352942882,-0.10113198537011896,0.06078283084016925,-0.05736784061355493,-0.025505887524300108,-0.039198911570686466,-0.07693699799024052,-0.1056661336978802,-0.09863460821813631,-0.07740893802249435,-0.09241965757950896,-0.04450086238206459,-0.03424588279718456,-0.04923738066390125,0.1160011019026318,0.11541433834737042,-0.05293001576789101,-0.06229761545672031,0.035524657739489346,0.10413398019689248,-0.10166883057663352,-0.07293563370531486,-0.012297920804797996,-0.025844859742061868,0.163367959627777,0.4596017531005449,-0.0693514793608518,-0.10725222534181085,0.12408457308545583,0.247740320705538,0.4649220011101113,0.1992862153549307,-0.16872538842565876,0.07095023934334824,-0.12856297289543964,-0.04379217506466289,-0.1256120766777127,0.2542013573830075,0.7198402252204789,-0.15491788465223844,-0.1072718676898515,-0.04800248681510501,-0.1190620201756801,-0.13816909261106802,-0.17446032910806866,-0.10533668682637283,0.28489808859185023,-0.18169312702972884,-0.16877099584838326,0.05546205554864846,-0.08263133800633536,-0.021758420154175843,-0.06743587251049359,0.08654605182513962,-0.08924126637689363,-0.04801807211893367,-0.05772521926244146,0.14359490780754777,-0.09639604728987546,-0.07622801352431317,-0.013466865586474197,-0.0891288412227661,-0.011168541614985854,0.08424283261225887,-0.07645111542211196,-0.10459161449753032,0.023116171921884043,-0.045884267776788404,-0.008941050333513155,-0.030396103018390463,-0.08444870802547898,-0.08298947811805628,-0.09771224524202318,-0.08426722962580636,-0.09701308514535589,0.07923638968697533,-0.04980945030413845,-0.0971684711380391,0.10315102015258523,0.21031924888208373,-0.042215600508719725,-0.11964176902193603,-0.05006271241335686,0.11623044049259798,-0.10843237316108562,-0.07818684355836991,0.008149396768781382,-0.022993711819901303,0.11294598736609912,0.49716195034083954,-0.09716393406876299,-0.10821904048989714,0.1517446862960378,0.20548123197665977,0.3999826609240824,0.2171204938225449,-0.19234685007371988,0.025672397632953474,-0.1261461285012917,0.0040689605498304224,-0.12720178511443536,0.17199798275245956,0.6634145331525242,-0.17603020739349304,-0.11549343146497758,-0.0481741487668867,-0.18836111330254407,-0.1538011822144161,-0.2284202062737211,-0.11516732111904508,0.2434635921319064,-0.19165097786646948,-0.18055944371055588,0.056461913712683894,-0.0741233273927735,-0.007977508271265579,-0.0786557143418806,0.07108875891716954,-0.09680351033527368,-0.057500653325227774,-0.06378446060885488,0.17700343943947025,-0.10949792678942943,-0.09012067665684116,-0.017186526031076392,-0.09214720960946467,-0.029268958006946625,0.08268463255592719,-0.08327061110311029,-0.11492742581841608,0.04884488140853922,-0.043877825152647126,-0.02901764260613418,-0.03530910237215304,-0.08893492155327265,-0.0991274263770701,-0.10765004690132508,-0.08436058784827086,-0.10337587353444788,0.1061477005647379,0.0005176850191675191,-0.09577299808056387,0.08061849758675466,0.20733724966212858,0.0090252138978722,-0.17132469441110768,-0.005781050920281627,0.13569280333276812,-0.10723311876814173,-0.06087490896038994,0.039794168354368865,0.019790075697828736,0.16191570360548108,0.4883404253698703,-0.05775890451132206,-0.11075056616932834,0.18988776914359706,0.21522887234261406,0.42147591058053824,0.2463029346744242,-0.17028450785386745,0.08501411362383635,-0.13324201471459948,0.03182708181360026,-0.13627720820266587,0.2197212643477088,0.7099098801817185,-0.1555790387431942,-0.11210049769592643,-0.07233935773153684,-0.15097152165781477,-0.13936894926017446,-0.2194011929721743,-0.11094701885842244,0.30488651649992005,-0.18220579533512116,-0.16697678532635035,0.0003583514922697929,-0.0893412810176641,-0.04155627180721379,-0.0727283091085383,0.05389364139387529,-0.10478667332968641,-0.05935158694873002,-0.08091388411951206,0.13983155914613107,-0.10247096762983506,-0.08960238331730795,0.0004774964570845446,-0.07379381562932878,0.0056989198253991295,0.07098009982709257,-0.0788709675232612,-0.11014524347718957,0.07241267207030672,-0.05870746239792296,-0.03259341544186108,-0.028409873757025257,-0.0957152265415415,-0.10512119121499038,-0.10060299642683065,-0.08481879482192049,-0.10376861151797338,0.035676163647092286,-0.04456048407344826,-0.03245866325230537,0.041944138433223636,0.12068155625144757,-0.016263325056992132,-0.12841233783977013,0.0564207735822438,0.04115743745667424,-0.11005879389040149,-0.1208069134140937,0.009132200155360919,0.009292653152428552,0.2931380545140926,0.4156881641695673,-0.045712739126518895,-0.10749008954436572,0.24825762081747849,0.28293232887963565,0.4883864638936589,0.19084723391543668,-0.13630733761080205,0.09322172236952428,-0.1194835424106672,-0.09470599761062927,-0.12549757504031972,0.21561767100343013,0.6775117633577024,-0.16344470610165845,-0.1207500191457474,-0.05019060925763059,-0.17837634036541056,-0.14322926180486753,-0.23007351916508095,-0.1196606640197241,0.2695668909179628,-0.1904889145385919,-0.1748057274471017,0.016470116810734403,-0.07851499146934993,-0.028055831689026065,-0.07081774601026204,0.048189959856133176,-0.10728223796711174,-0.07166327775978622,-0.08335570157904222,0.16885292475635083,-0.11411491619163709,-0.09754126124033163,-0.011492760624868766,-0.08724668698394707,0.010123498579199086,0.05491553710376185,-0.08336274173293741,-0.12431188264553668,0.06128116300890085,-0.04732543280055445,-0.021120102116643162,-0.02970951422103778,-0.10202641423087468,-0.11078722328225431,-0.11246208687079073,-0.09194723769409036,-0.1086997519978976,0.08007685382797955,-0.010670354377008527,-0.06128740341256435,0.05739478016359957,0.15748383388350667,0.0036958161630110406,-0.1659689206197051,0.06478948707777674,0.1116998930826091,-0.11607810621561897,-0.08968538598903253,0.032730712500067,0.01616446692007885,0.20002364023840344,0.48171254854121504,-0.053029383471562476,-0.11930021931038491,0.20470502783474823,0.2417038446621525,0.474761745650873,0.23683061097868963,-0.16170642431821355,0.11515860967909797,-0.13495581782104993,-0.002559684267453202,-0.13336213584160206,0.23107809200697224,0.7333554221788595,-0.17280457161567783,-0.10833123141340376,-0.04669780510271629,-0.1460251504954636,-0.14333307925584662,-0.22798327340113686,-0.10491507198022798,0.2796656821670626,-0.19920563487335557,-0.17690496219447266,0.05281189987466669,-0.0795032629003223,-0.0031996130620797953,-0.06755631206387157,0.04815702888608135,-0.0894934170097861,-0.04401355153923347,-0.0942876126140565,0.15530223586675182,-0.10090649676373657,-0.0837033350864318,-0.00800422096416439,-0.07619673039316655,0.015526920145212392,0.09709087648609793,-0.0767873877112068,-0.10275459891106721,0.028439678068658485,-0.047520620354205775,0.004555463603697672,-0.015100411972487654,-0.08902161601085579,-0.1011399279953981,-0.09923118738698361,-0.08085683778726656,-0.09509774153737435,0.0797684720646208,-0.05034830777576516,-0.0996857262366566,0.10094072104576249,0.22480821242675755,-0.0093075720153319,-0.1564663677547494,-0.09033592243769016,0.19052682172911684,-0.11361620540149038,-0.0526605507791452,0.02284494085484423,-0.038091546155080966,0.07087811767488589,0.5338244304199078,-0.08422442022733417,-0.11700198747713177,0.08901225621890765,0.17633371862471814,0.4425462909445014,0.29382250884232747,-0.20611584108427727,0.06957277911726893,-0.1367339199302242,0.030674279446856252,-0.13637281902368364,0.21461191046350037,0.7528038379926548,-0.1784729587622497,-0.10814044878072168,-0.03862042008701353,-0.10475333432201629,-0.16329885319950707,-0.1994168122703076,-0.10628126801288774,0.2752650774833728,-0.19593840731689988,-0.18005159734379741,0.08225774373423567,-0.08306965224149304,-0.005326384454977313,-0.05948148600992084,0.06351582048230336,-0.09339347148213534,-0.04549476063316681,-0.10091818034513823,0.15158381538185214,-0.10069376317239674,-0.08888450293750755,-0.012492217505877833,-0.09484809351009196,0.008171089809909578,0.10192298506064294,-0.08235027019222013,-0.10958531703140353,0.02966057199064587,-0.037179847749511684,0.020663106828962552,-0.009185644095520024,-0.09251867530693018,-0.08441049372444484,-0.0993418131504812,-0.07660098781786338,-0.09317190746981699,0.16386196448022375,-0.09009300395278601,-0.14938307961689357,0.08162334210244032,0.2752689333237656,0.011361207143921335,-0.24434255558888388,-0.1301577664201919,0.18349989423767757,-0.12184476382244877,-0.07639448500295762,0.04361564305874765,-0.010683214719019025,0.07905425202153643,0.565445920650789,-0.10819595977995047,-0.12580945145137126,0.17126266695371317,0.19232950873453825,0.37763868115732496,0.2751567140419827,-0.2115321080714995,0.039373560674438965,-0.13648004191040383,0.026533795153004653,-0.13764404369950084,0.14718855715831922,0.6693197027248375,-0.17965074423820981,-0.11777419295105004,-0.0579400243798643,-0.1748885387787225,-0.15329823575744334,-0.2428006799000182,-0.11672077395881676,0.2794467203025411,-0.2171585593707893,-0.19309352533550297,0.05032415454856973,-0.09256000110812154,-0.01967937221994761,-0.07841610644405769,0.05336832175574967,-0.10595827638434396,-0.04767064755450809,-0.10033044241378065,0.16635413298096297,-0.11045309109102848,-0.09024109718597725,-0.010970674482677252,-0.09965937644520233,0.014916022481878632,0.0898597780047249,-0.08627493399669997,-0.1228108682169023,0.06981142189368038,-0.047170477611484386,-0.012508727874935302,-0.02314640104813399,-0.09857423125186915,-0.10068717220883688,-0.10855099516525957,-0.09053476608092215,-0.10717100849710394,0.15500189109585052,-0.033168943063942524,-0.10757606239989362,0.04775719893025568,0.23683694329427699,0.022878161058617057,-0.20092504586929386,-0.03328754774146749,0.1475714396744725,-0.11402141724478015,-0.09947720394466325,0.05350937778145658,0.040389685922722685,0.1940276817066017,0.49803573981149035,-0.07308519533536323,-0.11776303555377175,0.24171235400841484,0.2216339780314272,0.4414476988157082,0.2533147737449407,-0.16375055142852316,0.11613994691859533,-0.12963400180087561,0.0028463000561071822,-0.13430903636740707],"Dims":{"W":64,"H":32,"D":1}}},{}]}