{"Layers":[{"ValEmbedding":{"Data":[2.5751569920352093,-4.450496040629099,0.6516377657193259,-1.1203146167867286,2.5491532020636125,-0.6189192077278541,-1.8727637077843842,0.271672608272352,-2.8993090750080355,-0.7765559189653096,2.294654349255033,-0.1581801309912813,-1.9247050497248848,0.33955098555448254,1.648261586934828,-1.052448469767859,4.161061616728069,1.226000959866044,1.100870030398776,0.7154277715687365,-2.7851006724164495,-1.7165750027029194,-2.0731303151841862,-2.4110914433489645,-2.1616888438318838,-0.4187964402142127,0.6372431027951843,-0.04984596252787142,-0.8866956168102829,0.6044615543932973,-0.5554297356251205,0.13176476022761396,-3.935314272874975,2.625351511261593,-2.7650657225261948,1.093071598549864,-0.05460013302264184,-1.6595107915063942,2.918387695573925,-4.623417642529574,3.228394533206037,1.3406001493156028,2.200758417905171,1.0510587850887305,-3.5109672034345953,-2.521784600739288,-0.19875920054407992,-2.966411851037368,3.2903586949645884,-2.673298118490982,0.5927101417496907,-0.41666826685519964,0.5973265463206119,1.0571501045052776,-0.2684367783061313,0.4068904504051981,4.757520810403263,1.4349621909820507,1.7659187881802645,0.7859507700718439,-3.0496571118553573,-2.2198969631009766,-2.223109912374801,-2.5064247946680283,1.2900584014715464,0.06893910956240323,-0.6829965823949106,1.2955470142907957,-2.4619618217723476,3.260047808385507,0.34969855231455227,1.6320988534495264,4.508726280504775,1.0884044700022117,1.4219682456087779,1.3540713950018202,-2.915864567826416,-2.939006419860674,-2.240462163905119,-1.2536018935691247,3.54729704469058,1.763231484369233,2.038982644715294,1.1042229811686286,-3.7090387407802674,-2.7175232372316267,-0.5747932973495004,-2.569795837983471,4.34360493154932,1.1311619275801406,1.450363078450336,0.9567034555861902,-2.999748946009614,-2.051220431006663,-2.32595073316264,-2.2747751212795735,-1.5845647042136715,-1.7777137327205221,-0.1652489038985128,3.5538942942596536,0.8104637917759777,0.38644694785883665,-1.1284142452314099,3.2869128800897847,-0.7246880966317113,-0.7841403503138259,0.2623959292167221,-0.45587687790444537,2.0920289592952397,1.2977748466523655,-0.004583469325604574,1.3771568844065822,-1.1707036967891065,-1.719463729371139,-1.0180394325603017,-0.7864700474205208,2.0498622878534283,2.621965311487006,-0.4745215923519463,-1.0984056742637085,-1.3458323615951218,-1.8394116891408343,-0.4845711983225102,-0.5832840354674529,2.2800835125604335,-0.6312443056379841,-0.9142307111054383,1.254640750741262,-0.7543956869210242,-2.9986489746523497,0.35139913781081555,3.5716590234955907,0.35391612971173986,0.832855327636545,-0.17913068687581574,2.331596423336356,-0.5338371044448835,-0.7441221134409922,1.657307930945343,-0.8586347802317973,0.1457781001932475,-0.07523847237947894,0.11528497130800062,-0.06702290177030308,-1.2247127529050492,-2.4538600779674193,2.4505775086284953,0.8850506828954118,-0.4918793710871641,-0.6578519512221216,-1.064568756468141,-1.6536805364343445,0.5191772719968896,0.318850375880889,1.5243454443752316,-1.0370566415157818,5.513864920486957,2.3878450565445126,1.6732170871128493,0.33126145476748237,0.3368010492143519,-2.1413199141765853,1.0915293219928084,4.666138264749943,-1.921266707945927,0.388193746967297,-3.047989075841218,0.4814430864289498,-1.7022245655578978,-3.757244636724354,1.285210949970749,-1.5758577752423804,1.873416806226546,-0.9852868892818565,-0.39577272501951694,2.6713039877874696,-3.40140544560748,-1.6335457230136654,-0.24957899790886673,-0.16077979362875092,7.7259925718419975,4.054242003909101,1.6237277251963513,1.9681743854340812,-1.5713798217950676,-1.379137621281743,0.42411659394292606,-1.6735040705966515,2.0699504350546354,0.8574402146768613,0.2934137121060332,0.242168497709744,-1.98880179857807,-1.399432534089025,0.0025262183452506104,-0.9511656624313828,2.6316187368562534,1.1625289792518636,0.46715780222480496,1.1102081444375194,-1.447111783069351,-0.6660088281179191,0.2405576150693689,-1.0967955684543256,1.1626371707010288,1.905319964749639,-0.35752741533835775,-1.3688370909098666,-1.8521692651299895,-2.348048444616062,-0.11486536341241642,4.389442160508873,0.1608869051661005,-0.10100570077298025,-1.6480492214232592,2.732878844019051,-1.1203875218189343,-0.918275292976106,-0.5737588700725724,-0.8025895875457558,0.18686836384375605,1.052892404849125,-0.436354488585361,0.49214506628200516,-1.0767284209683177,-2.708769406646306,-1.8627654389650072,-1.4898058259855884,1.6316883080411038,1.1361627596006731,-2.499175033425532,0.33374030792960646,-1.6729108704216322,-1.9429303078331879,-0.6123878391660087,-0.1692554209299769,1.8671352423457404,2.118943113074504,-1.7233617820257692,-0.7616331389429803,-3.238203993467293,-2.0121455618378703,0.057181886170440774,-0.21297700745757517,1.651799197190441,0.259572977928374,-0.2529381997599629,0.44941870020338803,-2.921385841214965,-1.0570628804534,0.6880436587209443,-1.4110691323441031,1.913104296161337,1.3840718269829928,1.2842460482676241,-0.030710039212365956,0.1640437112340701,-1.875303478871303,0.931337960771212,4.434464506243858,1.4471241232078156,4.990248252599665,0.026343801144708665,3.0903638347913676,-0.3024043377949051,-0.5475049466219687,1.387456455987008,-0.24592516991855679,4.9407655095855825,1.6510343832333838,0.5755161324556374,2.547447340991155,-0.18843093393522328,-0.333011434479028,3.4123919000242666,-1.505660679071805,-1.2633097062238312,2.0562300921557264,2.3010991533401826,-3.002708160413596,-2.694487217827201,-1.5997817714330478,1.3313296867791122,-0.7986989745537929,2.4326223593963867,2.04287271303461,1.6239146347204505,0.7355314999509331,1.213808712613303,-0.28770763855586723,0.5573018137538689,-0.7441954792187725,1.0473677711909128,0.3795053141379315,0.6712743086860326,1.8499007982471511,-0.8709659562384908,-1.7824384909751683,-0.16272725882043398,-1.5551252039345496,4.514690323574562,2.5908358846745587,2.077299670064185,0.10225436228102379,-3.4606040600201884,0.8342348603257105,-1.8559928301361865,0.7650701571121663,0.24080471048641328,-2.2081955036654843,0.13316997254243834,0.5435164330854204,1.8930168523447064,-0.08433028214738324,-1.9365185004845793,-1.235387984431444,1.059905087319756,-0.4528356203902973,2.9853769914439754,1.862734992498606,1.726212432851847,-2.8183710985541577,0.8482590652428443,0.21613301700649468,-0.1865475739327875,-1.798153034866474,0.22017226045252306,-1.3478947188419537,1.4062371714560553,-0.12888734240223607,-0.6152257793208414,0.6490892572342853,-0.947687130564458,-1.7784034530467911,0.9709980616564944,-1.4191032705389968,-0.35211633072839704,-0.17965129507505054,-2.989554095402759,2.535796010683253,-0.10862481066053335,0.5917115052416835,0.7031943395082393,-1.1662167762177447,0.2871804365372934,0.4549159518150773,-0.944685339739778,1.0077869626660307,-1.4570018175815553,-0.05919099729622071,0.6067067339477238,-2.5978964439709604,0.6014666549765931,0.8907508144593681,-0.9647657476110938,0.7031138213543482,-1.4419847866767976,1.8088488358237287,-0.26086457122839163,-3.5729443323700147,1.4774500723213946,1.771057939864462,-0.8150847274549539,-0.6914811832623485,-1.0197225950022326,-0.7904610538324793,-0.5833169326294396,-3.598766996307972,-3.535676187907471,1.655041713145434,-2.4096255641735276,0.5550546148001192,0.45595405478474804,-0.9910925921856794,2.875487416605091,1.8389323875998318,0.9093342406765267,-2.09955551352829,-0.6648620445026743,-2.6583701922923906,1.7740846446097314,-2.487642019955213,-0.09399510782036861,0.3755554736313966,1.710740804917418,0.5560370437153359,-0.9676854817461014,0.199891326299333,-0.9893645315825528,-2.025949487112827,0.629774905447203,-0.0597313936100308,-1.0038735382900146,0.03226658177589997,-0.6876386231735895,-0.8210119909763279,0.5208933562245547,-4.53722437572653,0.302658807295844,-0.3140222758927331,1.734529844281489,-0.12724985724337873,-1.4272031801460057,0.15450456220030448,-0.8633160102250562,0.05563086614485124,-0.021556559175854015,-1.3498787258935987,1.1480180012335115,0.8392367075463665,-1.2199748526190737,-1.1116584359494333,0.223305679821088,-3.072991646853497,1.0367246576441291,-1.0722181670066528,-0.6693503058316663,1.010937200105412,0.8098639298770561,2.9347250243428156,-2.736119129130879,0.13460944877721792,1.9467959095676153,2.1778533668203517,0.699291553700501,0.8796798237396527,-0.6335862221953326,0.030336828845680466,-1.2518517911326752,0.841689508517619,0.3549873824168766,-1.3437393862728981,-1.132939089579161,-4.012070441257059,3.3303213899400865,4.205232984234177,-2.8001737967819813,-3.0960559582194205,0.9170493540355735,-0.19969053832183722,0.07493385208288433,-0.314953281566441,-0.039263825925940674,-0.9550142472108879,0.09081562856027708,-3.2317455657554994,0.6551425602322086,-0.3984790256770551,3.02399924104593,0.7464400189049134,-0.7142077100586264,-0.6229714922980345,-1.1135797114859847,-0.762609440155215,0.8736274343169498,-0.8330481089684615,2.9715569103825,-0.3503418315180655,0.6484793624543561,0.7343975917631795,-1.9884350032104237,-0.6067645330490318,1.9809319536835992,0.7141895073866027,-2.3070682052379605,2.9711828355476135,-1.5818790781552317,-0.2760826877889065,-0.488165797168926,-0.5807880414010945,5.136663613333176,1.6028343447534659,0.5198277848447426,-0.5150793777035538,0.09202592388369074,-4.257141603198453,2.6680116371565097,-1.3108314366464646,4.881573115274339,-1.679878051479753,0.6925888026691572,1.4552609944346406,0.5074120061332604,-0.2960785320211116,-1.5715661902398714,0.5602967196810522,-0.019607389355303165,-2.1468918772819574,0.19455243568727124,1.4270194212265468,-1.2483838410432873,0.04285502242962331,0.7928477134661082,0.20063703146957607,0.2845876028806752,-1.0225699294848882,1.2157818361947597,1.0281163455315836,-1.3222486596213483,2.758521527725237,-1.6611802085250251,-1.7432206680975497,-0.08500279695995626,-1.2035541567532528,0.4591557266732654,0.9076207824000875,-1.284445863981412,-2.4388777126583263,1.2146853667816813,1.031410731415859,0.9051815025093213,-1.744817511883343],"Dims":{"W":8,"H":64,"D":1}},"PosEmbedding":{"Data":[1.69998439071833,2.5712791693554773,3.314484262170337,3.9978901885651728,6.719591448154084,-0.3186162360206986,1.442737931452403,-1.8346511618973236,1.6741162103948948,2.4324912913883203,3.1086256146334073,3.7174692241826426,6.213817848290908,-0.2558653599589556,1.4711854985174473,-1.7117759839034439,1.5373008766770493,2.1240605987125347,2.859345361243846,3.498227281254689,5.804732824962624,-0.19845517989236872,1.4152053142136105,-1.6861653740378069,1.4315965743501013,1.8966712541421447,2.6452133700527103,3.25158977109726,5.387467010934777,-0.2095664509869017,1.398708418187894,-1.5815636753688878,1.2893996408449664,1.61968682997222,2.377476876512716,2.9886283569336145,4.92679878301185,-0.17250628136502108,1.3023989975530184,-1.5350634799074947,1.2175768114426238,1.4279892496902202,2.0631854177077753,2.75486396425318,4.486783405207057,-0.13041295917630932,1.262008062726737,-1.4711134737243883,1.053766637966034,1.1605166284684083,1.826725331625758,2.521027062030315,4.07961570720975,-0.0850828962777863,1.220050962344997,-1.3975289966579842,0.9402817265758625,0.9001953033524274,1.6033466363827202,2.2945841829499964,3.7184615832349532,-0.026318676890262137,1.2130236021393508,-1.3925279494781302,0.8338803115632003,0.6886426966724752,1.410724383434083,2.0338179346591283,3.241350741146654,0.0039188760192343875,1.1263395296400192,-1.2935244632004261,0.705332847281365,0.4454744936335003,1.1416494012874328,1.8332255958620725,2.832276088442849,0.04223380444428171,1.1132910343255353,-1.302525990405,0.5576425175374803,0.20537704324204453,0.8350882347070314,1.6344203772286445,2.415030151014433,0.06053045598003835,1.0211221524916527,-1.1734366571268562,0.45533404942734934,-0.041582268718724995,0.6150945100971267,1.3914842893753763,1.9854684441652048,0.12606782717109066,0.9667316392246084,-1.1475750474164936,0.3383418912192143,-0.3250445377771482,0.350361015141272,1.1537851662735568,1.5570645963864085,0.16213683615638144,0.8925090146716758,-1.0338200961949073,0.20091122309316745,-0.5272673449502282,0.0752012363034599,0.9257259251195624,1.152333472254349,0.19436946579477973,0.8416281634322703,-1.0075926439165745,0.1080993428567375,-0.7304376050289886,-0.10734676298949025,0.6980965328200284,0.7171435147717412,0.25796264396116597,0.8429838005273923,-0.965815752872758,0.0015590053697886797,-0.9705219312410072,-0.4014470788912517,0.48344980409646404,0.28777364810584205,0.2947837169630834,0.7919854635274676,-0.9113593232590109,-0.07676514398370504,-1.221991281847967,-0.6480824499812644,0.22560895378612525,-0.11664519854167797,0.3429204192872201,0.7176685105670418,-0.8771244953299792,-0.22660651397284864,-1.4916446786693545,-0.8910740456791217,-0.02982646652234354,-0.5249278269147456,0.3739135424235172,0.7011713612726655,-0.7561941062514532,-0.33352110437437366,-1.7125384096335736,-1.1306828553449741,-0.19524671586349607,-0.9713138687186363,0.4027351865840777,0.6604772683234179,-0.7506839304449608,-0.5296894128437273,-1.9862184785838022,-1.433456738193994,-0.467003363773851,-1.4033756061808103,0.4501766994354721,0.5706572592793467,-0.6844210056476113,-0.5824503066487129,-2.222378016246842,-1.6851915768029342,-0.7016883883738215,-1.807784986991635,0.48285435022470985,0.5320546499646744,-0.6124869876570302,-0.7097097369599008,-2.445402727954055,-1.8652065193648886,-0.9266223600955483,-2.2420020896448114,0.5279272007394313,0.4683290809857739,-0.5650799482860387,-0.777919556017104,-2.687063065591771,-2.1875238269909136,-1.147557522435821,-2.669552153684707,0.571445210780142,0.4132424009663627,-0.5107016651392685,-0.9324952535569083,-2.904845349088174,-2.443348954418826,-1.4177892332595778,-3.086433719403553,0.6072925476487148,0.41442725224093185,-0.4453175031643913,-1.0699538479013695,-3.209803813961083,-2.6306525903923226,-1.5785066953262434,-3.47896240499764,0.6366107876727752,0.3554961781097254,-0.36861246331835534,-1.134870008769414,-3.439439222492325,-2.8953260137341617,-1.8538376512647197,-3.900485257621055,0.7099168928431566,0.2758968535031967,-0.3290757842317662,-1.2467269238123808,-3.6520275468815475,-3.1148177415300267,-2.060930934401268,-4.37432988759492,0.7328500139719655,0.24808311432384145,-0.295459659682539,-1.3687471141948395,-3.907977552581057,-3.3975126513985288,-2.3120291816992573,-4.776789115184896,0.7956593472749729,0.2048784809013059,-0.20917743729162927,-1.4992202969550197,-4.1616137124869965,-3.689806495707607,-2.5234607424990245,-5.224712775534065,0.7944876793709387,0.13240925925751773,-0.13508460566619668,-1.6444246736762222,-4.380298581962463,-3.909571992630779,-2.739983048004782,-5.5890313090384565,0.8728398713423015,0.08158010140970179,-0.10030143536105576,-1.7346501455180021,-4.654176632715491,-4.145272689294882,-2.983103260497595,-6.061919712061517,0.8944123898932472,0.02108569705325789,-0.031129695215381215,-1.8422956816351699,-4.90417467225541,-4.434096400033248,-3.2473654719451495,-6.460933381447315,0.9718104382440361,0.023891158331105798,0.010044292519741269],"Dims":{"W":8,"H":32,"D":1}}},{"Heads":[{"KeyWeights":{"Data":[0.11648853841284716,0.23159688308693469,-0.45429742648582006,0.6007479394909083,-0.8807225703697821,0.5319464376788502,0.024128942031018327,0.06563573101504441,-0.2650747383919294,0.355430815738298,-0.0531198204207157,0.5706230736695711,-0.4128826388381676,-0.5859317039474213,0.020504397281902856,0.7339140119924094,0.17189890806405878,0.05456187361306138,0.12357901203272896,0.18295902170771852,0.08220055294244706,-0.41651303052038113,-0.28869248054396063,0.25680035973086557,0.14719115435717772,-0.41636966393044106,0.5040835336395266,0.11772748307029,-0.06317281495458059,-0.2042379890854058,0.10626565362033834,-0.9348831741533539,0.5743099387143794,0.2602346847080187,0.38786566488490476,0.1151521588510883,-0.2232312191290127,0.04819645498437475,0.08976097869316621,0.3673408128009285,0.0898600765345472,-0.04539491206887464,-0.26013543247341936,-0.029613570680710233,0.5488763173407856,0.10336115322387479,-0.05048258084775538,0.30120836229808867,0.16674076159243184,-0.2631663509576534,0.1948643901510098,-0.4974262877108685,0.31492747271302196,-0.254856730211966,0.16505664613938076,0.27181613127205834,-0.07066090896935213,0.2419192213394286,0.08756450155760023,-0.3381754231717358,0.05443977359021381,0.22761852525218257,0.1442558616944896,0.6393298908786771,-0.7196918405009204,-0.019960957070065767,-0.31207591025830844,-0.11958766079419579,-0.03350692739655609,0.25716366276513597,-0.01148024988022072,-0.40922766411276645,0.012949785065276671,-0.004966217984903107,-0.09761946064898254,-0.0498033233133948,-0.18858615714097723,0.22007333583583857,-0.11861129505159401,-0.20901024619593742,-0.1573989840034191,0.2930458657906195,0.24687776778872475,-0.28611639421457113,-0.3492092212641636,0.16103289358705952,-0.09135738929109423,-0.2664992396016082,0.4267983722277415,0.21257842051654505,-0.19617338467782075,-0.07018751333091572,-0.05306671358662183,-0.30129165809447617,-0.061020719821771006,-0.37378116211568735,0.5612254783402718,-0.168533875658549,-0.7650048104307322,-0.06126007973496871,0.2440980444364345,-0.15883365284136874,0.06969215112464142,-0.5206741590781058,0.3675029963155193,0.040105499413897315,-0.710282901616443,0.32393511307943895,0.3826036012252975,-0.4712634595323554,0.10331354316841632,-0.1786510156028391,0.023136176844609217,0.12805339691314696,-0.2638356468014761,0.0938937581071283,-0.6792740535729682,0.3297043299787576,0.20492421491818352,-0.07537747764529716,-0.14230535543496498,-0.2841911688156129,-0.10073445446876446,0.13439396343630083,-0.01107439714410553,0.6421776460422217,-0.018200537541214656,-0.25607286460072015],"Dims":{"W":16,"H":8,"D":1}},"QryWeights":{"Data":[0.15714251454804543,0.3414590244009099,0.25982205357157045,0.010221328628661435,-0.664803255446161,0.2437037435731923,0.1336902923824983,0.07705400125169283,0.08383847396363808,-0.0734159573831854,-0.1943253007488303,0.03660247425058971,0.1615461450250412,0.06885812309381102,-0.05716835807061607,0.10774135764817072,-0.14303094720980966,0.49692709708810073,0.050113497908179615,0.3249058037995565,-0.8381550212825726,0.4682430984551514,-0.06659314810432296,-0.013230885060745408,0.024727726125366042,-0.45129178969369826,0.1684164984150528,0.1302443538035713,-0.06439325545412393,-0.29397731848357056,-0.18525649540251277,-0.44354668649809414,-0.11922297897848669,0.534114777662795,0.3420457893303783,0.23213651739335964,-0.9060941474828943,0.34460670494829937,-0.2204906923700582,0.28454198247521173,0.030397263999957447,-0.27865994692616874,0.4641714146879605,0.05565550420463698,-0.27378435569721443,-0.1651490749719947,-0.17237483340656543,-0.7208815852278772,0.023488953718923875,0.3890823693935914,0.922327563200746,0.06261335602657252,-0.4254078451705977,-0.017573758812110242,-0.039337706983082026,0.7419026642056786,-0.1318845142276276,-0.5140523891970551,0.6319589140393431,-0.29331732805693433,0.1187486972337576,0.8551311728449765,-0.10697712140529414,-0.47565262388596585,-0.6982490139280413,0.7075126961736788,0.4353427434395845,0.7417091636662053,-1.0535560199472829,0.7262599006736281,-0.12001690786281859,0.4275167402325686,-0.37744360688579176,-0.43635584458765186,0.5785314415112888,0.18318276871763434,-0.6002209021098018,0.6651222457051106,-0.27243806428955764,-0.7514868970105717,-0.15876870316542285,0.02485348988703109,-0.3779399832849716,0.04936921818034146,0.012274813448533813,0.06128883058865885,0.03770291315568907,-0.5049602904543512,0.15415266674705294,-0.07384785413098287,-0.45221347316393085,0.14450170534566978,0.16803028083100127,0.11313289531481471,-0.08536277076135357,-0.20840392350799378,0.737977288949306,-0.1058071840340945,0.0361427178759244,-0.14369803268565137,-0.36513629298744626,-0.2482006732229731,0.23593312209776487,0.3662337320696276,0.0346061340323213,-0.39894730364878084,0.09200170444273215,0.018696705005092337,0.2560590630497489,0.7568989153844802,0.19728843923705808,-0.26137804037435447,-0.6005290738789356,0.09835226630771239,-0.1373507291512646,-0.2908866958084242,-0.024982363076922334,0.3613085437550977,-0.0011258569057256956,-0.5548766540387818,0.2369045781660018,0.29630411398542233,-0.3959080898533276,-0.11044350142506922,-0.13185307381396946,-0.21892910456572498,-0.12783551763269102,-0.09494080910792478],"Dims":{"W":16,"H":8,"D":1}},"ValWeights":{"Data":[0.024087302705337637,-0.9101838595107639,-0.6300439394516785,0.741376593553128,0.02287900185989998,0.19113646475698204,-0.1428759841318223,0.2981994438525447,-0.19170390972543533,-0.01915779139752938,-0.09000287307505542,0.4864896560000183,0.1540898792749455,0.31431682097465474,0.6289237461328097,0.04359426442607124,0.4153991047821639,-0.09011687633291685,-0.030903595422258002,-0.6865854292961353,-0.1230901345799355,0.45016768160814497,0.004571786568492977,0.3112542539671091,0.17372968186966614,0.37082225037124716,-0.31632488634321104,-0.5530944685832347,0.35456064466598836,0.03806064685311398,0.3756046996614922,-0.2951833741861679,-0.287645673695752,-0.6179022614460096,-0.07065341076193321,-0.5102390760234196,0.21102937955446802,-0.1524534842801633,0.4171256409940344,-0.06770002405272049,-0.5551595297943482,-0.2534396285275139,0.19823995929212884,-0.03664105611801746,0.24494389363087452,-0.37315293909377945,-0.1537950794595012,0.7113169214204478,-0.31272704074265534,0.1701029233056895,-0.5041557577770875,-0.06793328669778094,0.1279383615991295,0.2956712360969831,-0.268676185299735,0.07329412972456789,-0.48501582418412753,-0.12360276329897692,0.17423138861311727,0.07683058079705292,-0.7565792227562079,0.3628689084676583,-0.6722831622999013,0.5008614170751782,0.07254070240678838,0.492235679001779,0.4856863050353014,0.42995069119208923,-0.12795426887465747,-0.29584790848321235,-0.07712970797430672,-0.39808178159759194,0.29870730886959707,-0.10917719704753125,0.14824458758338566,0.008535768641008695,0.13153452761802004,0.0017724513155861188,0.025539851005688813,-0.6117943023005906,-0.02423034878617876,-0.03593167689115849,0.3259632721165419,-0.1304621168550699,0.15478601012533574,0.23978956658019554,0.07851606907945731,-0.20869300985016576,-1.1866093333735905,0.11579614236992648,0.16061212109264456,-0.11486027702348212,0.10246367610435292,0.27956330692542297,0.09011039283718907,0.303851663424382,0.5200574233401495,0.5167483855085507,0.585765204571329,-0.031230856699695154,-0.014763881047384086,0.40489714395137283,0.0158816847929821,-0.07286003556739197,-0.3849256596034327,0.14956839589445803,0.06315662590444097,-0.5260977389768853,-0.27186947568449216,0.25015355497995856,-0.269522879017931,-0.24635518574741744,0.19729885375836392,0.444109158010738,-0.1556916594714981,0.1432234280061864,-0.6101764563434373,0.21294684041252615,0.1520414595703863,-0.2667378520785054,-0.39682240590626566,0.10955788436520993,0.7827866920999383,0.434678100602081,0.12763531010767454,0.3135765021033541,-0.4501465937787765,-0.008124443037080485],"Dims":{"W":16,"H":8,"D":1}}},{"KeyWeights":{"Data":[-0.5825133698237471,-0.08826128223226083,0.05183669662800555,-0.34084756185473625,-0.41205611314854856,0.07703776821808582,0.436566085441342,0.21901125036003302,-0.6521258885487949,-0.72409458998721,-0.10605689330886457,0.026519331332975283,0.3252301424555478,0.18478511330346456,-0.09123604753558179,-0.29844114038896324,-0.6870006383756796,-0.8221035371649409,-0.672306488424365,-0.04610889206772109,0.7179878886777672,-0.2435991006565969,-0.09978647069760074,-1.0139399467336796,0.187968287323631,-0.40408336552206797,0.4727890702599859,-0.7418950059818213,0.06122652670568246,-0.43050164163870486,-0.1556878902011357,-0.895106538903646,-0.04355076939333277,0.4998233029457576,0.13862167859229707,0.5221154762197593,0.015598856787823905,0.3344530381770454,-0.7661457199691709,0.012833363362873338,0.4348264313993383,0.5672257285924475,-0.06434872534562046,0.682075964652867,-0.5766457799485357,0.1690954998938683,-0.37515034034758477,0.4978995024962249,-0.09078421890069444,0.4036761064711177,-0.2179487541823662,-0.7132293669718303,0.07408454629971341,0.048768858369716526,-0.20649560686636972,-0.37910760209624106,-0.39629563696886694,0.5424901270139523,0.17249036630720485,-0.5327808396563551,0.45388194564955453,-0.7793810851744638,0.2104283499162262,-0.1575819803288426,0.42765261489201084,-0.12496515007029352,0.3750882369440844,0.31301239534002295,-0.42952744733822223,-0.21452630905754708,0.7770401403160477,0.5924941823074026,-0.10450532028258659,-0.23762896295625605,-0.423366428547169,0.27965170201258227,-0.045866211102774467,0.6180442627359928,0.3362674876886406,0.2862769933686226,0.3096142000051093,-0.7728212273775058,0.6150603324418946,0.2778005444627161,0.020471671513499483,-0.38195818411065363,0.04339688626922878,-0.30877502301795556,-0.17448910700549233,-0.4234425739350729,-0.6027259766924575,0.3952580153025643,0.11495353951417343,0.04206609352077537,0.3118162423523454,0.1343643133239842,0.5621837597973078,0.1909424687439043,0.008028123960316274,-0.2898952675836273,0.4564350251796744,0.20787184626027247,-0.672688517375319,-0.2072702585990543,0.46443920804030486,0.2695423274979737,0.9463272581892603,-0.5007311916417141,-0.2329281450740742,-0.24467170405549482,-0.3319680056563768,0.9963455554194892,-0.5474782975254273,-0.22426673311519568,-0.45372663811168734,-0.07379638747302977,0.251455715385097,-0.008430822428624987,0.5887523903947002,-0.23258148527149697,0.06098364164839147,-0.2319827974754082,0.007723613420105349,-0.35393209219638405,0.4072222723647806,0.2174164841743971,-0.19203526664017995,-0.7271118755068383],"Dims":{"W":16,"H":8,"D":1}},"QryWeights":{"Data":[-0.3153420421098771,0.09425729956223623,-0.2650282211110225,0.24510531244433012,-0.15177787868933115,0.04242508578265712,0.3469916963827149,0.23285323592580037,0.005756458001391374,-0.10472712232096237,0.11265977676297262,0.2381590028039391,-0.07197718382469422,0.37844887374518005,-0.17968066834869068,-0.5595739892299886,-0.6487387248940083,-0.49785477643617426,-0.35392422598960704,-0.2322567224691909,0.10092266492483841,-0.31508650422288864,0.406789408569195,-0.6806260272114031,-0.4412836753341004,-0.20201779352904678,-0.27546334606075296,-0.5008267831500096,0.4711713760047896,-0.4889269486677759,0.2790244183050634,-1.3244658040902533,-0.2913785489898196,-0.22605499924268901,0.2840943566344778,0.4335833972651183,-0.22563069948134842,-0.31210425393628655,0.45223883442291213,-0.16501644265870954,-0.18249014092686583,0.07169015530630601,-0.9933458517316056,0.5729600202617915,0.25574805020712976,0.2398260933678884,0.3078320598870432,-0.6575368074773621,-0.4279268641608923,-0.48511983334650327,-0.32998563257773933,0.5188761084127522,0.7036577968669838,-0.085899607361777,-0.022381316116720198,-0.7197484835706112,0.5396668189722319,-0.16317961248422658,0.2931491777348061,-0.05533053605450851,-0.28876379716772216,0.30374796227130874,-0.4303499198119884,-0.7439818106569857,-1.1256706025286674,-0.5387913941596547,0.14717010866197236,0.6285751009249331,-0.26005849696358146,-0.07052630254496475,0.6094311323733004,-0.48644851273733153,-0.29327526629319167,-0.6536923493764163,-0.6817337253334147,0.7191403034036319,-0.008781208188748406,0.7083312514369355,-0.2577826799675228,-1.3111396499984767,0.28254634144880214,0.10557792713818995,0.41528090834031284,-0.08225483150605702,-0.24014407333750803,0.026614125450167215,-0.5090517124777868,0.10520669468687202,-0.2435034878282936,0.039505611513693875,0.11782920970246853,0.29749601415365834,-0.19266694451693836,-0.2606241449737067,0.1282073008873833,0.6104889781147907,0.3221261428451973,-0.5781726504774832,-0.1716080088223225,0.5452506364628685,0.2768875262967442,-0.26689198960111155,0.3432664531802764,0.37357284258705814,0.5957271829789687,-0.4419555734255155,0.24711388234723386,0.1101074439859709,-0.5112614305640911,0.7718416427505209,-0.07639079434350897,-0.11516124798828192,0.24665113707362818,0.6027692849400197,0.3432957360731002,-0.5295531410594726,-0.69451357811855,0.19647111214684262,0.15001602636830988,0.5445422161201189,-0.6066724273944769,-0.07548161028408328,0.10444160494772171,0.0053338637181264675,0.3469745324894451,-0.0609015076546277,0.1480703710505104,0.5077395905789257],"Dims":{"W":16,"H":8,"D":1}},"ValWeights":{"Data":[-0.05224969406584135,0.3570167030025868,0.03251410323321884,-0.03782194489540003,-0.06478576077194854,0.08572672993658738,0.18543906114479172,0.22107547805457292,0.09239517097287962,-0.24145304797557673,-0.08248307888021084,0.16020626654432213,0.03984049703393654,-0.10516088719649057,0.21045315383206434,-0.10772966727638968,0.029522562908347504,0.12187621989121318,0.2326450260395883,0.2768923089993139,0.059326601099269266,0.10304585073388549,0.31828790090856696,0.25294397871531,-0.4257252891131707,0.3584498693458145,-0.34121599916132905,-0.667782200223866,-0.0864863480303455,-0.12235545517626473,-0.0205984724784284,0.07030166938056863,0.32395779789903445,-0.044603868884196596,-0.12804086205700094,-0.44651314284485605,-0.09550340228571862,0.2108471198131696,0.03840697780480848,0.10740664510028403,0.20752610346150321,0.2787633945956311,-0.009379165348042581,0.7732191372616873,-0.1261484597486592,0.22352360624314596,-0.0005118261560567933,0.20551270845746028,-0.624017334520812,0.1374910952027795,0.2682032669486821,0.3702421140459617,0.06320417052100515,-0.6451129745481622,0.24557171621917379,0.17473946294152382,-0.07810547062568349,-0.17223215575250575,0.49982415055882146,0.07819033800268499,-0.3265074982069252,0.0865367360577486,-0.032184990864783145,0.1527540743804196,0.24324026855639325,-0.10520365050176267,0.012002427312005456,0.01839509739710099,0.03794163291464992,0.20477755778213746,-0.39089459147558797,-0.3605784846094678,0.09116636936291148,-0.07487534452885604,-0.2028016143089967,-0.110030315225011,0.37835134082815575,-0.11392620287231403,-0.0022172913562838233,-0.10135242604701018,0.5171244683814599,-0.1770126668364378,0.09115302977757493,-0.16744563918851474,0.35958268990518966,0.4683930250193394,-0.15454055358435154,-0.5460476554060449,-0.19755420814817723,0.3316731317906889,-0.4108351536030314,0.14172343569514573,1.211112316707361,-0.5387849120686631,0.31188022126770143,0.4764311326452138,0.148904184590968,-0.18994643753230134,-0.11037266646818938,-0.06597639738861058,-0.14821259790232727,-0.05717298438849741,-0.2540729958090318,-0.09591217472453546,0.23491658376099556,0.2905980131249169,-0.08884010488707723,-0.023930916753891994,-0.12901805313572123,0.02472777793363777,0.10303927006142859,-0.12234840308964319,0.3872079827354343,-0.5485089891440931,0.524091999345452,0.045691431242185956,0.09142252799354851,-0.5347860446196951,0.021142383929306133,-0.244796521340169,-0.07720885955876694,-0.4366081714635786,-0.23297449104845308,0.25313938716071993,-0.26726481044619865,-0.056059428076843616,-0.23013409594164372,-0.33526858815729843],"Dims":{"W":16,"H":8,"D":1}}},{"KeyWeights":{"Data":[0.1268482949511394,0.031013344021872804,0.22615946297693343,-0.09430999172961811,-0.4648134940142878,0.2531398443481031,-0.2369688197146698,0.4338287880008622,-0.3776088258263521,-0.14353562936675246,-0.4066265617303086,0.14263171705139743,-0.07871063490632141,-0.46892991639367737,-0.3604114585213354,0.053975517554556804,0.24543453494960624,0.403002118447113,-0.06694741645443329,0.20982218479630418,0.13664017015528238,-0.02470129778542728,-0.14378872220113234,-0.24724140481575985,0.046993366855811666,0.2086803030081465,-0.1703759280232846,0.017432361202419262,-0.06318814358092964,-0.22798477945183895,-0.08934472202010772,0.15274213863873237,0.05619011205344015,0.5780722730045309,-0.1947147805425228,0.18142783049394529,-0.23924383015912906,0.08701041648199348,0.09093455037283096,-0.4377498102443633,0.19819010953429686,0.9901345146912056,-0.05169068230616538,0.6893393963924773,-0.36558354334646553,0.1415967674568723,-0.5347551330501263,0.04594138689095727,-0.30093060998064275,-0.44406844404245455,0.14604171406577207,0.22054076431316177,-0.1511581074310304,-0.22999753654725974,0.12920368607179486,0.2895105753853694,0.049579834947501566,-0.5885386374219291,0.288999433720165,-0.32191626618161673,0.3412206389674627,-0.2914215733156325,0.17705135185510407,-0.2789361962079906,-0.0913353489954941,-0.1479990746618134,-0.05338200135637152,-0.34712180214316113,0.344796983639423,0.03606250600064377,0.01316068270254474,-0.00356913562496899,-0.023729595135366304,-0.16056968779570902,0.22505573016465064,-0.3802471426588658,0.09473985167411106,0.3505654050059413,0.374596796464285,0.03688286668252266,-0.18233985461840302,0.14934202398891805,-0.3878870209729472,-0.3274177011324584,0.038353624045425895,-0.5020904088435771,-0.052514844262848845,-0.21885806439831487,-0.045630773107640306,0.2418730090799825,0.265786819294944,-0.5751744832664036,-0.05605224906248236,0.3250832366029365,0.42251167507216175,-0.24705543272764682,0.09840365758771903,-0.8047318133552167,0.30295514770908344,-0.339213128163207,0.283538212815872,0.3630891263519579,0.06079902206369791,0.38417380079449054,0.06761025195947454,-1.0435089915007016,-0.25584497927150973,-0.4187058540111793,-0.01958914053384934,0.061237444654967554,-0.06357008112303585,0.19825932478422628,0.05375883584968903,0.45100182952665957,-0.025050045590993143,-0.2972060148509402,0.6840269096796235,0.19547832692106576,-0.061489388640523536,-0.3698031399194886,0.3343127444236383,0.2772784512693448,0.3014964148271097,0.11479354042280289,0.13583750577378506,0.2871353983416241,0.26991464360788275,0.1655404449514494],"Dims":{"W":16,"H":8,"D":1}},"QryWeights":{"Data":[-0.09290940687433838,0.21744990370329523,-0.40128203272550356,-0.07563532606660898,0.41224986402271585,-0.4077363950844421,0.023863424078143382,-0.4912791776891201,0.0978309485992961,0.3685551416824537,0.3952355327606228,-0.3549570665031494,-0.04117272105500467,0.349251123620485,0.1754250565204389,-0.148472851933635,0.29872105156558343,0.8613769461337977,-0.28628799189202436,0.659692549227816,0.04506287065010838,-0.1305054337128452,0.01164476287515211,-0.5160993101590519,0.28370279288875644,0.7369154876229838,-0.09748277760214476,0.6558544367464877,-0.20348965449388282,-0.20031375637943535,-0.608801840698863,0.17883259962235024,0.1781592963268424,1.2546132844620104,-0.3634409130490185,0.34709841376520395,-0.0017137359785151008,-0.14127879253798367,-0.22067996924718924,-0.5873124535029557,0.03789356914373743,1.0043604904746775,-0.056634253216371264,0.5827558383380829,-0.17534067285310653,-0.22582771116284775,-0.4721840713657995,-0.028615294927775266,0.25893757612613644,0.5935478474255038,-0.347360708512397,-0.053860663516575855,0.3548206859863339,0.01637122753502926,-0.0803374232252279,-0.6247265097694861,0.12616326389944427,0.6432838772670031,-0.1423813607850894,0.2865923919193853,-0.29152704342430924,0.1117194315386315,-0.42724813155011204,0.14447569519299305,0.31446559157623294,1.7793146170393825,-0.6941246514494996,0.443830402137604,0.5445527580234742,-0.04363881189356349,-0.043121645492710525,-1.1346150268094608,0.47041486034517854,1.3842634873509476,0.13681481316641753,0.892885848471744,-0.33652263307214864,0.15945496619316887,-0.6272985180522554,0.3331502225789911,0.3401518877216901,0.1019072935135472,0.03184429127283973,0.17176841619817598,-0.24154155147204992,0.14604887992507792,-0.28432813714192,-0.09813615042233868,-0.3088716052645058,0.4565253580301309,-0.48083893332732996,0.3540835646089645,-0.28974528505523417,-0.27941161393496655,-0.3136822873964432,0.268271917631871,0.03114300677412741,0.1427088792910276,-0.11807906649863145,-0.04111387068868221,0.1417274281097274,-0.22400203093325113,-0.11248354094332755,0.002640127065683847,-0.074715464861841,-0.6114558492820287,-0.10513036572935865,-0.4202729886998097,0.17592551196258852,-0.10950442447552687,0.399716048567517,-0.022354651896402802,-0.2373402713347408,-0.2721260385347097,-0.17319336556115886,0.08589771443637895,-0.5272553626982216,-0.37793772433184986,0.04094791589248644,0.09637845881790423,-0.22272381563165128,0.4489784260572098,0.059848949762926915,0.027534134502370054,-0.15064623437248978,-0.1756458558150756,-0.3012337901952871,-0.35026823701235654],"Dims":{"W":16,"H":8,"D":1}},"ValWeights":{"Data":[-0.15767782742843958,-0.6594775598594922,0.380264992545218,0.0509852547236521,-0.2844981526191773,0.33961799115718905,0.041201336086798414,0.045273708504665736,0.49811300269696124,0.36337938847694984,0.2366983345650783,-0.2833894649388706,0.23501614242306346,0.004899763876911579,-0.005492319418165398,0.1564892382819766,-0.9609455723028186,-0.22710673546933086,0.45459185758517756,-0.24873030930106615,-0.11387995715233047,-0.1021452230864366,-0.021962864574882092,-0.21902955663022544,0.38475154627997155,0.2577224044630541,-0.1308893732834736,0.1165036765088754,0.02379892955898173,-0.21455585174132805,0.0032242983189004026,-0.2991529106689298,0.8122334434034679,0.1286986474008013,-0.2966268720310447,-0.3120427443805457,-0.13651268900216446,-0.1484095843149571,-0.07077446909273738,-0.38390497140533825,-0.25038478222145283,-0.22565920881787158,-0.1987509192363045,-0.21790236834703583,0.15103642774551962,0.17143244877273595,0.1290950953929637,0.07829546748508527,-0.29203251533225083,0.39483942737894145,0.4848672783875997,-0.048920553813718834,0.440883074581375,0.20674414559081591,-0.168470747707205,0.21749304283895743,-0.0632004472519911,0.19071264202285512,-0.15318659741182267,0.021303832611470775,-0.21854519721874385,-0.06929368588045173,0.07853237222017417,0.22639011266093054,-0.09519980778905798,0.183479919885069,-0.4027923919984412,0.3359608519447897,0.016042217041704304,0.019111806981465335,0.12566232303032648,0.28639559134409887,-0.18550269771831285,-0.11472638557105154,0.27368000990215524,-0.15596917736905622,-0.15909519016521978,0.029370644776278928,-0.07805746315986103,0.10545784620177695,-0.059514297037593575,0.24105360402804585,-0.1351764460366861,0.28882279254434456,0.13558537420183453,-0.00696870653145571,0.15691843866716138,0.752274887454925,-0.4490606809276092,0.07490432919965946,0.2076207870486888,0.12717790966737377,-0.31141658368957176,-0.023524368734725482,0.17918039471914235,-0.17837599853604363,0.12265352845206712,-0.4146720099980036,-0.09951783675242706,0.2206863620768313,0.14660058597949321,0.2471402897201473,0.04077147953830616,-0.05466075828173688,-0.016026186486192168,-0.19507980437656586,0.13114731876634703,0.11730738053304289,0.08118688297166772,0.2383838707829208,-0.12975032359443736,0.1783939927003824,-0.06339771063554099,1.083058710618296,-0.018382369181325763,0.39519958619249745,-0.1132197236184802,-0.14810615583613798,-0.14165914322203255,0.27436324595433437,-0.3704774219528146,-0.2349404134010933,0.23648830734755386,0.11881266079956022,-0.08851526435498484,-0.20749167106314223,-0.07642603689674712,0.18329735188727736],"Dims":{"W":16,"H":8,"D":1}}},{"KeyWeights":{"Data":[0.02380547157196815,-0.2151422441979999,0.4978461759203397,0.5726417224329957,0.3118571177801089,0.5680131051677287,-0.04988595415619567,-0.00003158084479826989,0.5042737518987948,-0.6817585332206679,-0.7218547964302651,-0.07330701506398808,-0.19116840196619955,-0.6818236526979317,0.5910152141271582,-0.3067999734230564,-1.1654469301587287,0.475989126998275,0.38105950420606705,0.26701602873391955,0.0316257955778243,0.05167474822944637,-0.4933170228085179,-0.7936250971365745,0.3395667525477873,0.7485318754930537,-0.6175380840383429,-0.3082497716156297,0.041942283398133086,0.4856443584309022,0.9918823453989124,-0.5708018128341076,-1.0016648664017889,0.6511794291908337,-0.6675139777988542,-0.6398280948479159,0.10930014961524441,0.010720742931569062,0.9862543370519902,-0.7798047769256495,0.22635981289779822,-1.4508958037891573,-1.1194131456663214,1.1465540955560938,0.08881421650116009,0.8199343511539096,0.5769294763492564,-0.4945897253534993,0.908079707141055,-0.26062216630779,0.4979551805930209,0.5499646984674669,0.06754507456331667,-0.5881811554141237,-0.43204416356387204,0.6849000095987086,-0.24445838813493834,0.9293512346339843,0.7840543638014366,-0.5215797962206953,-0.3161879480125221,-0.3946091357462593,-0.9642204934869291,0.5599572100015305,0.5818838977036771,-0.29730993047895854,-0.11723290506423131,-0.3102141116869594,-0.45125121437430926,-0.04637334482897422,0.2916719392140434,0.5123585725237807,-0.4747807072107541,0.08733827902527372,0.7003121386772179,-0.1450425179303138,0.01241483813716017,-0.4341970570572861,-0.4142451963798038,0.23879575680443418,0.03252069223716427,0.18735827130793592,0.35527141916338,-0.8549708766792108,-0.2411263237680717,0.1400097744591692,-0.22736037840437207,0.07301741028914724,-1.0228100886139653,0.021946779284812555,0.6164229312723964,-0.0941125559986393,-0.53820973945298,1.0488386484506675,-0.2678887491867458,0.5001089633231769,0.6876346155198494,-0.45883467413547774,1.037159868078899,-0.11491086484879108,0.09284717259175335,0.7952789070264327,-0.8048268081099854,0.3079464994254037,-0.0781500206246539,-0.0865816530538432,0.48226472403154674,-0.029553812461057666,0.2564461746110385,-0.512786341377206,-0.5581518844480952,0.7971067341408675,-0.3526806672413126,1.1266193039747612,0.5211517427701226,-0.2217849113307207,-0.2923067510265718,-0.15344373352957488,0.9106294103703173,0.30076438232455666,-0.16406959714066519,-0.6456281245318702,-0.36872414664598074,-0.06521603173333045,-0.21407069590989472,-1.444761529056809,0.2512533106133267,-1.8475910341542667],"Dims":{"W":16,"H":8,"D":1}},"QryWeights":{"Data":[0.19955644528628247,0.06314795720635433,-0.26295241978926603,-0.6390923783891366,-0.3439344388462624,0.2225385565445177,0.8616494150016061,0.5247215264540691,-0.3931530985840045,-0.9233572031459949,0.09938861141575671,0.11824737815149704,-0.16159823943976542,-0.6634906737398951,-0.03364346036439085,-0.44843566496860016,-0.9633274607210819,0.6136278296745508,-0.7189930124861511,-0.025271666967616332,0.03526232996435669,-0.5137316602892219,0.4328473998248114,-0.7262041778151063,0.39142001556260386,0.11201977844737199,-0.8337491551066505,0.377279852839086,0.11670027675341205,0.7158432376378808,0.7454721093225002,-0.7892931646225042,-0.986030884550816,0.3054382194179834,-0.1829769020901422,-0.9002700665122428,-0.03664957384843692,0.45632299941751675,0.026626081136076795,-0.8434552270606234,-0.22682198563526176,-0.8136955469440167,-0.47638998591179854,0.6915518334220077,0.12247933236737149,1.2100178577052692,0.5100139654793246,0.31899564119252904,-0.7157458080255583,1.1662195330818388,0.5337279713248213,-0.20081323956207542,-0.04574303755753847,-0.020362561119275566,0.7758549194835881,-0.21402069729441459,0.11676933683631187,-0.921908409979488,-0.9676008322834598,0.31428249751644666,-0.2248043152722705,-0.9149721953931137,0.4079742234144843,-1.6569249505640677,-1.505207404262129,0.7600734017093976,-0.8524097446299702,-0.29361153423866493,-0.04092422867386121,-0.3902388574110156,1.023259244886363,-0.9386676858325317,0.253865504892857,-0.5448826461260285,-1.35124519738054,0.40912591559294237,-0.25686506814073984,0.7692958526232236,1.0693809307251239,-1.3719361965212107,0.22434113158392702,-0.4811365267891492,-0.627462739598178,0.4231407465935691,0.3773145522367257,0.3037252458388092,0.5081870107570927,-0.03754161307916209,0.9449365954088419,-1.2183538464642851,-0.8513797778403885,0.6188777847828177,0.3952870721345306,-0.5039257482105827,0.26284448995961746,0.17110356507538999,-0.5185367877269899,0.1274861344540022,0.49610889161444427,0.5040413603598582,-0.1137105311149596,0.29412679654285606,-0.4675498816303433,-0.2780425694166682,0.6664834174944279,0.4246061737234111,-0.5125376526627398,-0.5101873142986708,0.36768591130193995,-0.7803701908936883,0.8456027283118922,-0.728613096974228,-0.5722914294450082,0.18809021037725845,0.3294140363983099,0.1187037659924262,0.3013057442616956,0.4593097793853018,-0.1151570610010347,-0.4324644315324873,0.31584147937915985,-0.19550992207129947,-0.7146239233810308,0.17128072123592414,-0.12325134477077372,0.31177354852378975,0.46199103767458866,-0.23537285126128257],"Dims":{"W":16,"H":8,"D":1}},"ValWeights":{"Data":[-0.007291769791680667,0.10022183552810245,0.0943555672447307,-0.08945271598426972,-0.2192162675070621,-0.08480788089913115,0.1436640281809772,0.18640723694131156,0.21217000599597433,-0.07113999805887368,-0.19029886043362823,-0.0734240808294071,0.2720485439378869,0.04260134033505517,-0.17667823912441694,-0.00895419928449054,0.4197031620264303,0.16102581028605328,0.26773284536477787,-0.028070493356335612,-0.15534239318456167,0.03537479358031017,0.04083894866323095,0.05810004624658596,0.0042408329313078875,0.17722849807291205,-0.09408259103144048,0.0027319819538942176,-0.35167401413702526,0.09528392060135299,0.12991997148864656,-0.15509962283408982,0.3497978047819088,0.3029378740029353,0.028653216558339193,0.13690647736156428,-0.02624705045502815,-0.1273780534307073,0.3697699619583773,0.029562409406170255,0.14368564640714376,0.2564627478960986,-0.01999585143202441,0.38162260323258695,-0.3836648695457665,0.027333094067618607,-0.046194252917827354,-0.24045242362412272,-0.33872572945487667,-0.24185609161893457,-0.2246085646966239,-0.5623581919452172,-0.331724438439009,0.17143066609041904,-0.05190000915864136,-0.017714815314682653,-0.19810291652094372,-0.373101281079043,-0.050582444931851704,-0.24063452361999846,-0.07948698120347161,0.150895691273374,-0.26609953862476554,0.12230267830087027,-0.21255974570593353,-0.17845073796958916,0.025240280194151102,0.37853905508213775,0.3312211703582458,-0.011982265700966272,-0.1544514540387121,0.054745181576861986,-0.011156696398971266,-0.1222423867806258,0.02110297643884791,-0.1337330427446034,0.19478375337547513,-0.03047185916142935,0.08398552889674923,0.07662995756296756,0.3905572566306818,0.16521532146146448,0.29561945865168215,0.3070937337308684,-0.050713635986718804,0.013264560881878124,-0.09073851358034427,0.15398044183323362,0.27926500353932154,-0.16615975098662053,-0.2617429922888692,-0.15085902313684785,0.29250870245624977,-0.04462321261100272,0.21744415886262763,-0.0929572016749007,0.10081312722115131,0.08509122069797785,-0.2717351813903761,-0.029062685446586654,-0.04787565014462678,0.005719456276582403,-0.4675544129880291,0.013510727529478376,-0.24674369816340241,-0.29321724356634554,-0.014921299205490339,0.06831233862538466,-0.028470411923487163,-0.030121438577219085,-0.48930672561324257,0.10788482945581608,0.07627149093077737,0.18164845599739957,-0.40005273932234336,-0.027288982639005675,-0.11263946625220361,-0.12423255569013325,-0.24511682705337862,0.12576551009640902,-0.17373335591288924,-0.03779830351743852,-0.05878625542023501,0.09169129388276921,0.1682448176306999,0.02412884991057755,-0.6647738282559199,0.1642541711063162],"Dims":{"W":16,"H":8,"D":1}}}]},{"WeightObj":{"Data":[0.11061664095281362,0.010336887355308808,-0.019158147206991473,0.12845897710210327,-0.0212338970107433,0.018928222346416498,-0.39338643107757104,0.22066709530185896,0.18595760514752752,-0.18111539432579565,-0.07198474266992194,-0.08171697264361062,-0.1899604028250484,0.39090607138868727,0.16005514431513035,0.6486534118585515,0.11211629519680759,0.2865635115677176,0.05612399818484307,-0.08806771719485858,-0.020136583722787853,0.6060718204202793,0.2131056606787694,-0.10453247234374631,-0.5559014744582395,0.21708549407392813,-0.355719228444669,0.0764135224488428,-0.10150314370169973,0.20224981514705953,0.19032289394962926,0.3705811594955525,-0.25711501383434315,-0.08641413140553869,0.1396950267920073,0.2813583984758704,-0.11690544098513159,0.2791677000292137,0.4254376813182634,-0.3341638599287848,0.08565344474166646,0.03255722712416067,0.192707784702744,0.3646012967186235,0.18631204041066557,-0.16421769265781874,-0.23362657737527537,0.06839045053333749,0.19180152552639962,-0.05540849461478084,-0.08980153665274723,-0.30170969738290787,0.2537130332380267,-0.07653450908631206,-0.17416810082040718,-0.1475263702507996,-0.10333735056995645,-0.2479068776857711,0.03322179894094972,0.3251354774943348,-0.15563505917021042,-0.03175576231910209,-0.030996492139706778,-0.1596820436689558,0.1183016680542791,-0.2715092505273027,-0.18597742654514354,-0.03680675220990621,-0.8285503075142497,0.06437577929919049,-0.2083029628767078,0.09855555997017915,0.09563093753394288,-0.13085256962028127,0.08087099545363871,0.06731072520023001,0.04476449319386621,-0.05593883569858763,-0.29719319229334623,0.014549739073808438,0.23427096095122227,0.011170459824853419,-0.22828179616216315,-0.46477497531343703,0.4170743096853497,-0.3244375278224538,-0.21155299712101353,0.4713138841110941,-0.2212596233229414,-0.1723659672640399,-0.33889227529419574,-0.34549160416173785,0.06138830846457424,-0.22978197533773453,-0.13692400683870787,0.5381126188793978,0.22129732881638023,0.07956109607447949,0.0017545196928371507,-0.4501423592512233,0.1038277633976967,-0.18333015634061617,-0.6178573225845199,-0.2799553451563615,-0.12196547572815149,0.2103759462404608,0.08458389717009832,0.3162747630512806,0.10436737709424791,-0.10815482463148456,-0.10958349934103398,0.2898168095637803,-0.3616234768266512,-0.062478277556184174,0.12863939079584447,0.08510547385460147,-0.1913423138799868,0.06651459284962476,-0.439753081401686,-0.3066182907483793,-0.23722369748023328,-0.5183931516118235,-0.013085380687661165,0.0321803015107632,0.3701610432373851,-0.18300997259215113,0.3442022538849523,-0.20315429937816637,0.08873413486316648,0.02098325052580457,0.16190631929907798,-0.22813533406368902,-0.33803296605270877,0.3541072753480924,0.362294775859534,-0.1596238356296135,-0.2586416043958379,0.2324252135820411,0.07561045299237429,0.06598312506787911,0.36246272656625045,0.042024317252786325,0.0003067821028717142,0.09704388473489095,-0.03282674082750031,0.12827822475911002,-0.19705083740784624,-0.08405006404264549,0.08119213461493187,0.35090402678572763,0.4592882145340177,-0.37144945714505573,-0.1790322630090337,-0.19649739297211885,-0.18575993088319748,0.02110004204452296,0.16692025195404403,0.04737219724220476,0.22439456010316985,-0.28019668348272553,0.05281765255032195,-0.03418128039895167,-0.14668774147527114,-0.04991248812634228,-0.150987253617804,0.002938261654614724,0.23915790658314834,-0.0034910671534692404,-0.12763635798651016,0.1017149330872023,0.3466079987174857,-0.17027787692666288,-0.2537614407871144,0.028665069273659603,0.21051378957306183,0.34253346370342663,0.11721232970142151,0.2537153492952187,-0.32755798830406735,-0.19678099252264372,0.05248820451015731,-0.11664003024846037,0.2191232319074216,-0.0698529847481796,-0.018577679277907502,0.29616206662694733,-0.2077005577123292,-0.12220074084225618,0.24385159129529235,-0.1161525183429603,-0.03969563170974399,-0.003207032667406595,-0.17384189861034163,0.06045015960909908,0.38464342130173607,0.2959102796279878,0.17210061819224715,0.13704596962160573,-0.4193752817416592,0.1250231671767405,-0.5449393256700312,-0.16405329346814307,0.13920132592330534,-0.21641111271115154,0.06302305161357419,0.41520747189556156,-0.27197931237450035,-0.031097720020182434,-0.048444470788629984,-0.04652629947128326,-0.03714308085892346,0.26047128129285263,0.2398339023220938,-0.2255274618755169,-0.5931783320799126,0.20845890087624383,0.1169765934751048,0.4120929118556608,0.29187386289740336,0.20892131079370863,-0.008079278155861317,0.2954177964271041,-0.4698467321496511,0.3873854457551718,-0.1927485097665476,-0.3520149911406263,0.24710276672916454,0.052249404811382294,-0.37301252342353297,0.038826297643142806,0.2652451321514489,0.4713019366811889,-0.011976580608147897,0.0941079020708495,0.13195737849678893,0.0782857905728146,0.18245779019052624,0.020361674759939854,-0.3421731912425825,-0.10494850113543111,-0.25300244961917245,0.04039520853852907,0.1130262861891892,0.07429184911006921,0.06244383225140582,0.13282103010913124,-0.03888802307483332,0.15394812938612584,-0.30551175412927034,-0.1949543560191753,0.00413432987867759,-0.09944345081511423,0.03936172459840867,0.2090769571001192,-0.310088758721945,0.22752554914362866,0.18347196746252484,0.5842391195648625,0.22536684569541537,-0.08070000595934818,-0.1215328432962723,-0.2593600192944924,0.4144584671362314,-0.3205249129110527,-0.5303876636378899,0.13521784835808898,0.04047773559203925,-0.17157622488150948,0.14512040845968838,0.6531813720194861,0.17950216847136807,-0.00616860394412866,0.005296826622584801,-0.32242859942491797,-0.18768689831015958,0.08771312775942448,0.05258891213279236,0.12738229285617475,0.04042419638289259,0.03287961477783496,-0.0833385439471266,-0.09440352167895602,-0.021159940944693808,-0.04297439753481583,0.15939173390514683,0.07130280020352495,-0.06752387751153409,-0.23527590262639825,0.1753702689481936,-0.11279212568408721,-0.1824124480357124,0.1443435180062392,-0.39874778675097217,-0.10025381756810961,0.1547852715519623,-0.3416112814512773,0.2662078228265584,-0.274977393187192,-0.17380939203475948,-0.017406497796987393,-0.18535333590442285,-0.24333873240845538,-0.004569152388049717,-0.1496657170192074,0.032173068577189996,0.07457145220214305,-0.04804228782630967,0.028760292458796164,0.0491879794829727,-0.11295851789573072,-0.03950365723247482,0.023098947616282516,-0.041925092415847465,0.023906477400235018,-0.2682817106005053,-0.1773525391419627,0.18252509553386229,0.06287388502371229,0.041774914891135016,-0.1721655973174943,0.12957498063395656,-0.33153938964772767,0.052158701610841504,0.08240377129457312,0.10587305879126171,-0.02558334015754429,-0.16025018834536203,0.1106934544120322,0.13408074949890028,-0.17873104815771163,-0.15386651040835658,-0.0896916835614797,0.12250455919949896,-0.0216268358714999,-0.18075607109888023,0.22247467490469214,-0.07341049612498157,-0.047319738105831025,0.019466164085156664,-0.13983649084323005,0.24442900761064948,0.047658904898166196,-0.11098991450094875,-0.08582170956019494,-0.11458188325769682,0.19214915269083535,-0.013606593738578955,0.34283992579450157,0.1362031663019665,0.20868991557061853,0.2180965744798209,-0.30265199359622,0.006130831045725471,0.0180798043189393,0.14015329309070132,0.024451288596956115,0.0651936211522989,-0.002143920765290668,0.06670747488099661,0.01211904658587295,0.24361774118881582,0.07325707605950739,-0.035499823899277985,0.05714893196718392,-0.23283420657896445,-0.2685955166734028,0.1057282697464544,-0.20684586300015698,0.016440733505527813,0.13283953900602516,-0.10581599133282273,-0.08311216853779672,0.002228641627329547,0.00806634067725548,0.04667263511292147,0.09800314003833412,0.15602152112279563,-0.2671229473146813,0.004339182999462419,-0.2012648478675359,-0.2999599807816676,-0.13538945998676039,0.03621363009542691,-0.16988166958664713,0.0893412356791595,-0.1843280805333378,-0.09654484796968163,0.17072824294449124,-0.4534515949382316,-0.273955585391464,0.3277308993822599,0.17130893416975324,-0.07530665005561199,-0.27049564723590475,0.035193962681145705,0.12361887564572559,-0.2564905804449461,0.0003443718078894355,0.05734566421036355,0.1254018160853206,-0.032299384938851886,0.16817148684143798,0.04855579188235261,0.2254127010829993,-0.10040888050748806,-0.24980865198141713,0.23312748188754626,0.04257039269538797,0.16126386100032414,-0.07020487009331403,-0.11985911836651679,0.2898704917209262,-0.03933457791184469,-0.39476923985222556,-0.059009961946095646,0.04015338598754996,0.12157811407002313,-0.08303998147036934,-0.03338706999183579,0.04063161881309194,0.24893012540571857,-0.16923069007414426,-0.24228491036267663,0.08976118916457981,0.03175390127784773,0.16881194833127225,-0.008397768213838027,-0.09302076664434437,0.07690356618685348,0.041780698889564746,-0.026408961583017986,0.03490049232667965,-0.2559863270159041,-0.02460416456757241,0.10330771295234242,0.1528359829847023,-0.06969749962948976,-0.02411404309647079,0.22089041923459765,0.047910675153071444,0.03864381811224047,0.02791285648762181,-0.02993075063945186,0.11407659359324997,-0.2057856060894972,-0.14345765811926642,0.15197085738516716,-0.17791304279726736,-0.170954454131134,-0.014066864648599246,0.11620666069940586,0.20825185355812556,-0.06624216151134359,-0.05328556059566078,0.1127371043637862,-0.013370417200980415,-0.016654993176046535,-0.4379221995198547,0.061882551337491855,0.17228756810851303,-0.06502686765899883,-0.21826491233288853,0.09633507805448224,0.08740361026610981,-0.006300828606071657,-0.08699075846540001,-0.029134389020569324,-0.0903977606595431,0.22270309264807553,0.059246354889052534,-0.16244050832247156,0.13546653451791554,-0.05939864169328976,-0.30065251599693105,-0.11509353976578318,-0.001193217534643326,-0.020412599333653487,0.01740451597244762,-0.05887628343222074,0.16429008927514868,-0.1096054927266073,-0.2007828786502104,0.3737175133205174,0.12298384554378462,0.114258261221267,0.2695048572408818,-0.21689559108017195,-0.1852523332178864,0.01097705791024535,0.16001060397586894,-0.06761103615065193,0.003168809709472356,-0.11882566937534203,-0.07010800151076546,0.1570775140077698,-0.0859675921598823,-0.11591455659860826,0.06365093386856857,0.22375046115115316,0.12902496090376536,0.2997432831948294,-0.06580296469569169,-0.029740140711528487,0.24040975291053568,0.018636170007720693,0.007471089500186842,0.0932048722739905,-0.08367376455816253,0.11778238601321478,0.17831038122419962,-0.17015452693773486,-0.13474038574305344],"Dims":{"W":8,"H":64,"D":1}}},{"WeightObj":{"Data":[0.0034115461856210737,-0.5681655813494859,0.04832103836039048,0.19652653352288693,-0.01827218016132549,-0.05090677763411364,-0.22367755944423456,-0.10787369377250602,-0.08091978142290746,0.11718270126722936,0.02190643072472509,0.019453882909092137,-0.36427213589032714,-0.08235994289602823,0.05426898864300767,0.09754928285844022,-0.14198001279142486,0.1730197329641352,0.06887338827257776,0.008352407900804822,-0.16983189521216843,-0.00427961409822365,0.04655950350355044,0.08953918727740076,-0.16215002204063347,0.20645257744329362,0.05106119677178507,0.024720948615409764,-0.06413484275658686,0.012834684639139124,0.04971586542266575,0.009630466612300792,-0.17862177342375157,0.21119830029871975,0.04554378527659668,0.019479115937259848,-0.04420600667954415,0.020509697548722023,0.026355467591882092,-0.021595214143299464,-0.17652332901877685,0.2082428134576194,0.04162242004443769,0.026685556647493648,-0.04255810412807526,0.027614834522861367,0.03438648113397829,-0.020645833296778604,-0.17035725975727262,0.19408478792596068,0.03445467545490698,0.018911983203873262,-0.04318161479391519,0.021870658350820398,0.003890354265312406,-0.037658724487300455,-0.17266607566748843,0.1839054208764542,0.020422552128548738,0.031898649028185566,-0.04563118834816412,0.0367754831982657,0.004856874936379683,-0.034287825265719996,-0.18671288673854575,0.16153997562752212,0.014528764379051404,0.02367993349308681,-0.04722265945378177,0.009983389914667568,-0.008951414872999079,-0.033719999708235464,-0.17162112462815188,0.16739559960568035,0.009855129420507246,0.021503038183531213,-0.04249633234757533,0.01917548541057898,-0.010678878189947732,-0.03785884654973975,-0.17276796692711613,0.15975887957752005,-0.017085799519969025,0.02114119243390919,-0.05039902670463965,0.018571384660297743,-0.021316123537136987,-0.03482943524567049,-0.1686005868559522,0.14531584241344261,-0.007695429878923776,0.006113969771167584,-0.049016655437800205,0.028893823683936767,-0.03210506524151244,-0.03783494605011972,-0.16268954838696534,0.14935829688255492,-0.008152915661071361,0.004057806620377242,-0.056958063715902445,0.018521984977214256,-0.022725697315800448,-0.05029066112812553,-0.14838213958168184,0.1394791122204015,-0.028411181562942197,0.0013219475404838824,-0.06509090353488023,0.01518755742149572,-0.04528928122418175,-0.05366838139690476,-0.15120522595032665,0.10448736411423973,-0.021040305154749885,-0.0016013056446444426,-0.06290307498347338,-0.004121948895392744,-0.033911231902996726,-0.06176418406508849,-0.13775631325701626,0.10641035457002539,-0.03988697708288966,-0.0014865573040618767,-0.08284613240499528,0.0020685418866265176,-0.035340207398756415,-0.06128527340901097,-0.1255150565298618,0.09050375920231297,-0.05258711458424026,-0.0011990793050722641,-0.08555709511663379,0.01791115528281586,-0.06047280222829031,-0.05632624433980978,-0.14065459198128072,0.06473991612244688,-0.05834603022574423,-0.01956026626468892,-0.09718941268290382,0.001983863535188073,-0.050004205575231726,-0.08033941650767491,-0.12623569114339966,0.06195487616495532,-0.058322532245439186,-0.015373466781812088,-0.11559932849882194,-0.0007537736824143456,-0.0774430501789954,-0.09583413437997121,-0.11925855597651126,0.0612998312576908,-0.0777876734647548,-0.010112600274721772,-0.09898275574518994,-0.001431574311376573,-0.07062449895253761,-0.08623033214993088,-0.09372296313268215,0.03901822197065845,-0.07943841704778798,-0.023503160171971075,-0.1309881829229485,-0.0007382695288224513,-0.076591581918465,-0.08398250840816673,-0.1006624988154726,0.043084502383832636,-0.0912706630045447,-0.031341796403676604,-0.11270551960734665,0.012723987603221677,-0.09076051173768444,-0.09899913929924173,-0.09523546261061933,0.04575449937322585,-0.08632970856682771,-0.03197410169481185,-0.13313954884563375,-0.0051918074071786,-0.10198305076774271,-0.1088121437369046,-0.07687152782447414,0.031374219918673237,-0.10213836653447012,-0.04188811489519134,-0.1355728153246016,0.01220740084984055,-0.10649858536031348,-0.12821981610034844,-0.09686332185647697,0.013782877027224152,-0.12635131578285533,-0.03173601401816273,-0.13984383754836222,-0.004179604747074055,-0.10679426629742607,-0.11021457845586889,-0.07104443269931449,-0.0023088410027070605,-0.126664162862092,-0.03758291445231638,-0.1372440285211199,-0.009521885299432556,-0.11856024734030327,-0.12403622221671663,-0.07280144074137618,-0.019390939740264162,-0.13635969031885284,-0.05718273374939539,-0.15265675164401066,-0.01028216386984978,-0.1200874190641134,-0.13185310009421938,-0.0593840045556344,-0.019804678059463,-0.1577940416183267,-0.04930187805793426,-0.16041536151092417,-0.011660966348347353,-0.12687835367950143,-0.143377627781532,-0.06380618542623187,-0.03942972457187221,-0.16469280346961984,-0.06649017729409235,-0.18144661967296918,-0.01430444366365169,-0.13918086308550923,-0.13285356833098452,-0.0439881216114834,-0.05570036764695962,-0.17695842588906524,-0.054681007690352994,-0.1832768040825577,-0.007862682604271495,-0.14824553465248108,-0.13569369267258638,-0.038856723985347744,-0.06529098715815831,-0.1853850547172159,-0.06959691267419027,-0.2132969922612201,-0.016663696037659537,-0.1681732103654149,-0.150061759275314,-0.03437268087010869,-0.09352952765541067,-0.18407759486948733,-0.0804503418381722,-0.2257028577278866,-0.006402069715295395,-0.1784261309672479,-0.15841095248182863],"Dims":{"W":8,"H":32,"D":1}}},{"WeightObj":{"Data":[-0.14568963351409123,0.568747423157535,0.028813196724130897,1.1512605881447149,-0.9326410128477863,1.3888472325151386,0.6485911240075046,0.8503509524506999,-0.4438531865205295,-1.4908930025981073,0.6849458323509733,0.9341392736527204,0.6802174721748444,1.32963711469794,-0.6069055024352763,-0.31205240016683106,1.0996954521220534,0.6411776799902063,0.8081106145830561,0.45906812065077096,1.0049110719214915,-0.5048336282992653,0.9188889561117937,-1.0766387655357552,-0.5949350280286886,1.5195519648456277,1.3323210783047943,-1.3316451190468614,-0.5230144141758661,0.01231400711130046,0.6474081512305896,0.1916475041756719,0.2971720830830103,0.46715252343190244,0.5068867120796616,-0.5876476951646057,0.27050992471311097,-0.7942194988364389,-0.34275881327817387,0.10934315766245582,-0.4871751679626094,0.1371762281774359,0.3361041021296752,-0.7511626580538467,0.316594544290134,-0.4057748563662605,0.042697105239206605,0.6871830570670663,-0.5262045220596738,0.16830414256193496,-0.0379578158767052,0.11196160324829824,0.07776485576940818,0.3982494420272746,0.18279015995489034,0.27303400424302404,0.8026633345426663,-0.46638080877997495,-0.18570748041327403,-0.5057394957007805,0.7809123119973338,-0.28195966577626713,0.257817012279463,0.39247419759045704,-0.7247019271407581,-0.827376537305317,0.03332661546407747,-0.47574481905047333,0.37766562826490535,0.16153662265731275,-0.2277649140556527,-0.019263673842870886,-0.5932733997970665,-0.22904797091849768,0.47549212844781824,0.21714619751323566,1.1957967702741576,0.21710586702731577,-1.1027031839597352,-0.38818787224150814,-0.16257293641149617,0.7331463421238283,-0.4259927803307379,-0.17415475932594776,-0.38359158812788613,-0.10963983675838808,0.2271627745664181,-1.5966573768826906,-0.39061956716202795,0.13263698348440328,-0.07993024327575002,-1.134620283177709,-0.5030890809404478,-0.41108569820655355,-1.0785407568531393,-0.549268685957025,0.654403907865319,0.2907207868890457,0.5892671867794249,1.4070812576460106,-0.17440372441107424,-0.34597862066944823,0.15286423749285202,0.7452872773716662,0.6333729278792684,-0.5790337859320319,-0.5795481462211569,-1.0347351676316836,0.31149549806480015,0.08189000991446645,0.6642874107963724,0.04080264643908973,-0.44068104422972654,-0.01430245814914583,0.827346216028098,0.7794585424701598,0.22312622805915447,1.029334306822366,0.1508373132509615,0.22977869848088203,-1.0740365032545547,0.0019675539864169108,0.24963689938918734,0.611969732219222,0.4011393576207006,0.828998394077174,0.5288805606660542,0.32166596787807616,-0.6479653760642571,-0.5566668298676721,-0.2526313381972199,-0.3277937799653103,-0.8993789179457609,1.1206557536226889,-0.9117064298461252,0.5961211356278627,-0.019865176548267582,-0.05708759965267835,1.0578414109141259,1.037787974832262,0.21921180067687052,-0.7664579378829004,-0.9488568866546491,0.7028775591321436,-0.3055855631251207,0.3450516052163649,-0.9197641493916219,0.27639830705838836,-0.4706508058144119,-0.07167016502380151,0.8607270717889122,0.8461349957731387,-0.04559118608573215,-0.022490014216631847,-0.5449389515562816,0.16012182854677276,0.10693313442558601,-0.03213998932010368,-0.5367429334964106,-1.0639510924213262,0.14450273900365293,0.6364866499357874,-0.0570725673152147,0.0183763070567133,-0.24293758785105973,-0.35057538542369193,0.6507352698590527,0.9700944912402728,0.40474623304700197,-1.133997438013516,0.019013934956058687,-0.3228191344232609,-0.36406423207316074,0.3246706152556634,0.38957031053346125,-0.7548682916546144,0.6254693042048411,-0.5778023145300222,-0.05021921763278514,1.437484921523972,0.8658088511014573,-0.3816775996963518,0.07955890719893706,-0.2709036479906956,-0.6087134109697903,0.7427699899570767,0.17341484418082687,-0.30725714943372734,-0.8286782482223097,-0.054267659248987785,0.2599548289620082,0.3221493549731131,0.3021709740019749,-0.7038643972873329,-0.6976804862784507,-0.1721103845063343,-0.437524553574391,0.7510642296589807,-0.1391039525959602,0.34099501413018296,-0.34054096790941435,-0.4885191330604799,1.556030726466286,0.13285319712179483,0.32428128039758103,-0.22819104979237748,0.12361292286978456,-0.7442069312576914,0.2775782862057706,0.40659098865502863,0.2642552001732971,0.057664381078222735,0.03217097907854536,-0.5538796748875411,0.7036613097934904,0.4044981107145241,0.6965803802899134,0.4487671755761,-0.10142560932124972,-0.046104130020013845,-0.5482765438310468,-0.373596775843653,-0.720070698106927,-0.9387122532643485,-0.47745360217019545,0.07732903540772612,-0.4235369266006925,-0.18289637864341965,-0.07140874713533579,0.8145078791652314,0.07059247935309816,0.6049165656572535,0.5298507387678928,0.36330614689272206,-0.18508544398612375,1.2017129003929854,0.2963027127246235,-0.05300688144573837,-0.2128753879533956,-0.8491779745102448,0.7873306988541556,1.1581142789414205,0.024151208764507194,0.663694936566643,-0.2932182869444494,0.5150346734609396,0.19196680835477084,0.01946650978993263,-0.7853998137140235,0.9498787705241503,0.15044306071789404,0.0945928867535646,-0.6629987852957013,-0.5796934614322663,0.08528604941096768,0.3164221239326506],"Dims":{"W":32,"H":8,"D":1}}},{"WeightObj":{"Data":[0.03942316797526549,-0.5169228817567143,0.28926575495910245,-0.20890809874322383,-1.1356260359820582,0.48290399242341037,-0.33062311116848997,1.0054631569570767,0.6131289315425344,-1.0580497470886598,0.007136430611113255,0.5327522034995058,-0.3118185471370429,0.8076812810455413,-0.33583605417571843,-0.3747081428785186,-0.5934930064643272,-1.0600446588833732,0.31421201086449324,-0.4599083983301333,-0.3350403091735905,0.6083632118130534,-0.8201493712927675,0.1782923741658232,0.19933427783976684,-0.6452230723392579,-0.3089442062436485,-0.15346382162109976,0.11062707500047528,-0.617307784618898,-0.9360959654711568,1.1292392359613308,0.4425062198822094,-0.2284939884344663,-0.17421167598891654,0.1513039664836181,0.4181816787004329,0.10869301534685617,0.18110058699353082,0.7134681636421487,-0.3127444094947773,-0.2371079215999911,0.0461386482887798,0.19323320753174886,0.18692095211826723,0.18035245886221343,-0.06815739109305641,0.24043425492426423,0.22724154011033657,-0.23666157103578722,0.1528810627504338,-0.2998046511727712,0.08423171670758677,0.6352667752763839,0.2198016138889848,0.2291070114138077,0.055527458728525714,-0.10100245834591855,-0.37233839038724026,0.043185585959619695,0.05295963145059187,-0.14687698924018436,-0.24269277440578613,0.5645503243695748,0.580584227613527,-0.13461430618860792,-0.16208981969702757,-0.1252857916859478,0.1969707346948471,-0.08891556178404689,0.04497939883710249,0.7363194810751527,0.037958590513474805,-0.20640945512084533,0.07538488290514725,0.13298355583209368,0.4226459878199564,0.002634524437157058,-0.12633276468168841,0.3255322835407276,0.24589055272963156,-0.06415691270092588,0.32424359286402066,-0.28904297116109756,-0.026001668542862854,0.224429506953868,0.05129223079851221,0.13784968537472259,0.02972309248276863,-0.11234120475292043,-0.0743359066514512,0.08910632127870889,-0.02938772198210226,-0.04075479904101069,-0.15122547170813347,0.5327704612198163,0.6332361828510904,-0.1504325010740196,-0.1686971022770193,-0.1990118710544306,0.18479572652117418,-0.15739843134112128,0.017054633629546276,0.7003691401830456,0.10592099276270038,-0.21004687679463113,0.07134824158913679,0.07505041899584838,0.41875634305909876,-0.12072840022001041,-0.12190114670889393,0.3488160544147923,0.2728921619603406,-0.031714532759151905,0.3459357203426303,-0.3020201777988702,-0.03297825469955703,0.1791983135797288,0.0904914599510742,0.1234199217582333,-0.00793223998800686,-0.10382076419413451,-0.008960447360358099,0.0656551723703138,-0.018976500330462023,-0.016196321362104846,-0.14575410364249225,0.5235389558644007,0.6510670182507371,-0.15412625425008428,-0.153095836910862,-0.181123968757626,0.1739752290861294,-0.1476631256096572,0.0071726594724682395,0.6904824190079364,0.12160848649681219,-0.21062497248109288,0.07556873504895469,0.05217783688495816,0.392638732541962,-0.10815393487600769,-0.09976997374516708,0.37210486451144004,0.27940330886175035,-0.029781130441256926,0.3243374899408425,-0.3033487368401687,-0.04353393147186518,0.17755081550063417,0.10306041169609163,0.10934939741422912,-0.01685506827233975,-0.09586844616957374,-0.03609246098528204,0.02624882374339331,-0.016600564549427866,0.009892586425714592,-0.14762745405944075,0.5127988197980914,0.6570842241747317,-0.15188555532406448,-0.13604487084709574,-0.16911762702808794,0.1791617273919492,-0.15396033386400326,-0.006885563819002589,0.6925049250404621,0.1359022621832341,-0.2148473740682382,0.07647734278709811,0.05044225701199251,0.39326999148329306,-0.11745265788678799,-0.08975953440244056,0.3650176506961326,0.2698706077080368,-0.019036306219670535,0.31830271570644325,-0.31722757726201006,-0.04611344019239771,0.16760859317440033,0.11130213355341444,0.10333325541781767,-0.008877484884871015,-0.10731258913182343,-0.02656418660159038,0.03359731350322497,-0.01040732660342088,0.014079530144410891,-0.15444290017139348,0.5244636129013671,0.6849273525886588,-0.1543480252187905,-0.142476151553128,-0.1447364441859555,0.18299418502490422,-0.14127607443938534,-0.007025473424352415,0.6950213747226459,0.13151456087475985,-0.2366740412796256,0.08654898704659074,0.06355958222413409,0.4108222320102669,-0.11706029754204446,-0.07142635840467194,0.3447083623897197,0.2594887493566989,-0.019138791854339844,0.2812104625534742,-0.3005645500771133,-0.04845083367660361,0.1739727259354897,0.1117732531399397,0.09066302561258295,-0.007851190841809097,-0.1145741856475196,-0.018573484339842596,0.026383778903621164,-0.014914974741969303,0.03252432003425143,-0.14708671349659347,0.5219550187157791,0.686601656236892,-0.14107031803373715,-0.12451334764552968,-0.1625541707035894,0.19070973646427083,-0.15088817486878434,0.006943832509914367,0.6643985286320062,0.13507445568724086,-0.21844815020628836,0.08324190855685681,0.0761822888069574,0.4043533002616733,-0.10672790830711815,-0.0774205174565317,0.3617618340639092,0.2856586052237335,-0.026490959290554564,0.2780593687622243,-0.31260992978456276,-0.03732651372677325,0.14360460698197547,0.10946316330319211,0.08580282503830063,-0.003768716698135125,-0.1205630142417222,-0.026405461358929946,0.022192424904664457,-0.026816869320087065,0.03279442595199511,-0.1469164451414628,0.5264119512081453,0.6763449955408106,-0.12468900491553804,-0.13331433310985463,-0.15782370223802938,0.1856406907245736,-0.1461398649109169,-0.018728048132209147,0.6764959775616979,0.14090090554778337,-0.23767527604229782,0.0903531863265931,0.05653891951624802,0.4049660159082175,-0.11611776847512333,-0.07198299479989193,0.36975170304535493,0.2832831459466886,-0.022812859842110036,0.26303222891797345,-0.32139311309346286,-0.030402777220812416,0.14521129802440216,0.11024317830415452,0.07346785621961269,-0.013015330660729903,-0.10959426789041952,-0.026386582428691015,0.0007450027645441899,-0.028072975547603386,0.02033056466599722,-0.15086734291774825,0.535701486996745,0.6715493264074491,-0.1302029286754603,-0.13890957423919928,-0.16840417455287846,0.20023319432384146,-0.1316822548399175,-0.003756294272290055,0.665528829108394,0.15330735745330473,-0.21545627588902094,0.0758625913033645,0.06280583713316018,0.3978383610972899,-0.10128649475675906,-0.08132259517723894,0.3463753492622644,0.29061236409990615,-0.030191303477759748,0.26440000138894354,-0.33098913274088876,-0.05589000777209598,0.1360507307078769,0.10468741049117412,0.06805540052136361,-0.018854292134251018,-0.11575716745125786,-0.01945654242084926,0.0014908359390464058,-0.01248038120001494,0.028147823352900028,-0.15853104227854328,0.5359882231853421,0.685982613931639,-0.1299030347696902,-0.14945635613430783,-0.13972552486517223,0.19449500403626407,-0.14036315698662968,0.007230449718372177,0.6718447167304545,0.15771127347163622,-0.22717360445400286,0.08071724457781528,0.057492460232879364,0.4010567630352327,-0.09193340175509514,-0.07213869080387508,0.34421171289387603,0.2929566519344169,-0.027359008903228288,0.2681781333593255,-0.31688885154520885,-0.03969893966338191,0.15365143301506384,0.10666029206180302,0.08588657941931618,-0.01709088395169173,-0.1149454529320624,-0.014193241485302134,0.03483795043671038,-0.029510460161453204,0.028778698178691983,-0.13892911000275096,0.534367026957573,0.6697386525215387,-0.13034798816046886,-0.1350342734693547,-0.13041891723792287,0.1945120130831616,-0.1425998060177953,0.01886401599349707,0.6828468704014133,0.13195348781929217,-0.2362337820065477,0.07898230249126076,0.06654560866658082,0.39564483401530154,-0.09358746403701185,-0.06103486582201799,0.355143927343298,0.2921426095700015,-0.04224967402298537,0.26389467178942105,-0.32097014290133646,-0.036108189222066704,0.1502094009374703,0.10731006958874804,0.07802226413682407,-0.01316746315798744,-0.11038351954415536,-0.018948676354334993,0.017571900163128762,-0.026631822481582898,0.05638236061048251,-0.1345690366626971,0.5256632013993231,0.6624878661700881,-0.12479792123716964,-0.1572761525362279,-0.12847316469210057,0.17678193231732162,-0.12846551875753068,0.015984345169538994,0.6660836937734539,0.1438969244744114,-0.2365981189789053,0.07229388341553737,0.06914542008528916,0.37528932719368135,-0.09275655922696452,-0.07172881343422681,0.3485412591292764,0.30020246943336576,-0.048810717207651136,0.26595115296001004,-0.31804008180598836,-0.0267453994144045,0.16054952060113048,0.12203136241011088,0.06981446320211167,-0.02780752010916705,-0.11468289444395459,-0.013750492711448287,0.02523409680278298,-0.016388397575358236,0.048991151595221695,-0.14687143491060017,0.524465145551791,0.6779368075153427,-0.11831481757042922,-0.1491653753433768,-0.12909890049709066,0.18838106213668893,-0.12459564389412832,0.010630989772349901,0.6762189572830225,0.15509141465557058,-0.23533998151068247,0.0694197757872663,0.06703732378990498,0.38454636327194813,-0.09876839227265614,-0.08022750397466231,0.35894815471745006,0.2978203338656167,-0.042106346461562985,0.26807659435130593,-0.32686456230061006,-0.029255704393603397,0.1365997376700957,0.11235784207098076,0.07059834510266944,-0.021888270055423882,-0.10189313557846832,-0.010702047937894298,0.012347326178277102,-0.030371355876162822,0.044999939284471276,-0.1302439078343176,0.5386971363952697,0.6704047850864886,-0.11550757449221612,-0.15492135180568714,-0.11856977345454862,0.18267173224388852,-0.12620913473009795,0.014190845472904917,0.6660682212625058,0.16167118795750685,-0.22907522330607977,0.059530532284465795,0.08230531761450613,0.37314191099271465,-0.07849995847668396,-0.0635465023429644,0.36768822349039026,0.30002781298889786,-0.04633404049811803,0.2650380254997679,-0.3305586129641845,-0.0168922521819304,0.13247093697092183,0.11691824797360971,0.06697679764546044,-0.02942028868400169,-0.11148774437408875,-0.005392018614482638,0.028634948685136743,-0.022974413178922366,0.05270294959569455,-0.12665887144702642,0.5429162087243292,0.6762202775514592,-0.13097854842853146,-0.15722032971611996,-0.12663225905839418,0.1751356096766275,-0.12183614021011525,0.011461528611845972,0.6650583911191418,0.15332512945654478,-0.22287856775584075,0.06352155572523076,0.08161548692568714,0.38017195148641014,-0.07110308954351374,-0.07510406335129147,0.3624439262973748,0.30998588318867826,-0.03586604497547587,0.25770282363493946,-0.33172611691462883,-0.025263024204538624,0.12992323636840514,0.11004817806971948,0.06471110076517983,-0.00986242236488759,-0.10693405446351542,-0.00009152115099309465,0.01501780055153371,-0.029249951896649,0.03881152098452167,-0.13727121397984973,0.5211439125386245,0.6804034737713013,-0.13491964019808614,-0.1480086369886575,-0.13372939418744756,0.1784154450078466,-0.10675575448367294,0.00957628995617027,0.6619054972881474,0.1471555688840041,-0.21207770012947033,0.05655107241533325,0.07671500762712515,0.3681375405409992,-0.08237985606946847,-0.0938046885351496,0.3698019126460476,0.2997671374444912,-0.048051260450389766,0.2427329732614772,-0.33471599534151886,-0.02291432857867664,0.13644468841819413,0.1090653304095223,0.08856767280189004,-0.010652077222459401,-0.11704404872749385,-0.005359709116782174,0.02614962349660196,-0.027832133512343656,0.04422952941887447,-0.1282269510524459,0.5241293939643243,0.6721547125215377,-0.12319415532324277,-0.15952638599786267,-0.13429098361912478,0.1692544327876207,-0.11155841058528043,0.005899119423705643,0.6750712160467233,0.14154186388651016,-0.22952836743523428,0.06616095370700699,0.1008630995167096,0.38242787956724256,-0.08580409529144989,-0.06858033769742954,0.3744815088815529,0.3159670094606548,-0.054045265661876195,0.25722944005611187,-0.3405154449589762,-0.036565674830865716,0.13097318964441926,0.10799940757382744,0.08056019070806943,-0.018822817441692667,-0.10143322737545546,-0.008149133878388889,0.019832462914756942,-0.029932184872169417,0.04833546116921384,-0.12469677431737883,0.5237171203911205,0.6628688998463774,-0.10824374298019253,-0.15388870704293997,-0.11561483534374427,0.17319207041915508,-0.11109842683845098,0.019094783660401602,0.6546665361243739,0.15564170133571784,-0.23358285904730744,0.055273760634953484,0.0943166920835087,0.36145920844085877,-0.08364645278985333,-0.07209269784962284,0.3710544660055974,0.3001286567197383,-0.050854489623878917,0.26178944734840637,-0.3303253917735118,-0.011469125297154445,0.1260198108251449,0.11170346988657782,0.08087632435719368,-0.008844758452376016,-0.10631135146958332,-0.0030349920188248525,0.021815105302602913,-0.02245218878055686,0.050453771364635545,-0.12011091830923847,0.5253101904255848,0.6801994990867577,-0.10563093921243462,-0.13889267249991794,-0.12281738691112609,0.18435384153525264,-0.12053170505976057,0.015606649134178882,0.6412208626583137,0.13507108964944184,-0.22394425951002317,0.05092912571098868,0.08363290258449074,0.35082239090245576,-0.07038392965197864,-0.08350990700925127,0.3854528716077658,0.3094493724108201,-0.06537802421686362,0.26040749345861347,-0.3575172540854102,-0.02387297454596381,0.1241850835853038,0.09571570294494697,0.08304871575413769,-0.007421784034592634,-0.09968491658799404,-0.0033236661176387324,0.017009788443354625,-0.0357010117556134,0.0584886360998433,-0.11403327738174865,0.5398643621659911,0.6718492709085053,-0.11803100644225553,-0.16286059733665012,-0.1068325950465518,0.1677920624605059,-0.116427005390841,0.01898076933662047,0.6578725562110683,0.15248908842478945,-0.23758194450914658,0.0752413385080246,0.10732098435383168,0.3601221162977719,-0.0796747772064964,-0.06930066812586547,0.38344053889203006,0.30879007912054657,-0.057254949749445755,0.2553608007412052,-0.33884672751007544,-0.013180117030509583,0.11694907682721176,0.10671827702838145,0.07683464169291013,-0.0107446413736372,-0.1068723319876574,0.0063882329973761545,0.026241448465156247,-0.013889268970961837,0.054870822342564435,-0.11176844324641556,0.5413928831696895,0.6632072782746907,-0.10998315127831068,-0.14573099736484443,-0.11149012364014181,0.1678060142212647,-0.10079231823176832,0.030847752160053747,0.6525400218159291,0.14595285972068914,-0.2385888626374584,0.06222677606104251,0.09626644209385178,0.33706084874994857,-0.05939766904510079,-0.08359889751567279,0.3767487813064323,0.32410480351501403,-0.07964906837696825,0.24534933391659539,-0.34597459212966714,-0.022617426055394615,0.12388024413340352,0.09862288713764908,0.0825580360810329,-0.017415656139268515,-0.09443075184878633,0.012307847528099202,0.014932609184315514,-0.020370869179051673,0.05125254900296179,-0.10526297898723493,0.540092001702371,0.6638040765969778,-0.12011327877127786,-0.1496485316722172,-0.0957822449239528,0.16459681268386034,-0.09578816367410072,0.03473410897628096,0.6518237104816758,0.1629293232996715,-0.24523811883538704,0.05811979102566827,0.10651632116330856,0.3502005123222388,-0.06421970720586792,-0.08023211573747831,0.38036641677244726,0.32268541592565964,-0.07847231831456981,0.2687382998657945,-0.3303969053708603,-0.015860789874632682,0.11860132338117647,0.10921664719215439,0.07152463285662393,-0.009310563338868346,-0.08647995261882187,0.011104682668098937,0.02971530239350581,-0.0217715081786278,0.08182769186473779,-0.0958945632927768,0.5371901291536995,0.6760436034854554,-0.08789838448319873,-0.15395192749350126,-0.08636050436177098,0.1480923893203418,-0.09935878849004098,0.03675530384249465,0.6634803592245359,0.15747455419077983,-0.2526213884125699,0.05562470246509288,0.1063673921275135,0.347975587862593,-0.05193587345709778,-0.06657316058623668,0.387599351772677,0.30854208689677637,-0.0897799068168696,0.2590808760683309,-0.34262405430386206,-0.009449478935496183,0.11264707382981669,0.10763051565480208,0.09619756918157531,-0.017991597780277566,-0.09738789211249309,0.018846792199256425,0.036194730949413535,-0.025334353601777448,0.07606261179201883,-0.09362748647330243,0.5273381866658373,0.6566547284744826,-0.09967816525541733,-0.16485679341397333,-0.10411294248206622,0.17069745000601588,-0.10435407611755917,0.017641489434121953,0.633629986990589,0.14508286347211738,-0.22564051770437596,0.03503175962969324,0.10899213769009852,0.34002757798256106,-0.055834760590256424,-0.07716492727632802,0.3878887668803811,0.3225951100088619,-0.0917873322520532,0.2561259703352232,-0.3486181728071266,-0.007304960117090311,0.10236659142798543,0.10067851549061778,0.07387148503022964,0.002538506078482185,-0.08767759860708635,0.01916958996060396,0.02363471921071754,-0.029700299319299135,0.06421368633105344,-0.102355128306745,0.5480515324229388,0.6647425875706428,-0.09255350802238185,-0.14876404018811862,-0.11790737672595718,0.16659558024050358,-0.08941007425571137,0.029408994537495403,0.6439254650523484,0.14071281311281658,-0.22254031954029527,0.04045413039866308,0.12332336092287298,0.3392037792119106,-0.06641939571747828,-0.08335089368429895,0.3971068760612948,0.3136387049917676,-0.09468541935713351,0.261649301540979,-0.3430905641250431,-0.007934871870648102,0.11786655715335312,0.10730059078773155,0.0916698456342425,-0.006499545898856905,-0.11206981070480118,-0.0005399316217918649,0.03176178259619273,-0.010628452982838741,0.07375005709063086,-0.10787619573978392,0.5396717282809529,0.6686267663979979,-0.09906892097789508,-0.1490920926907672,-0.10014447228329885,0.15976550993194086,-0.09978400951129447,0.0401724912818402,0.6598233040769244,0.15354745283253046,-0.24808009853473603,0.05873731861315308,0.12433141882704545,0.33664449982461164,-0.034076243794281556,-0.08207696876543179,0.39966926130687225,0.3150594668737936,-0.0903523304705889,0.2709063421710501,-0.33225720399329656,-0.0016379515003816696,0.1057203971194592,0.11881894675507972,0.08427350380507163,-0.0020395774616654935,-0.09115234851030003,0.005266446765996224,0.03313808973217945,-0.024143523639719527,0.06792019081855757,-0.0988883716466371,0.5356767703606133,0.6673742242422112,-0.09364264220010896,-0.1492319795727016,-0.08486585385113228,0.14568056537689364,-0.10009972583290236,0.035128929919253975,0.6499411456782436,0.15549346653454196,-0.2494974735294451,0.04911693425815738,0.1187525849744104,0.32584428449119524,-0.055994158970663926,-0.05626783032095813,0.3805761864952147,0.34261636803461054,-0.10194436335662527,0.2804455504145374,-0.35140300736325913,-0.001155716736001911,0.09813570591112064,0.0985332050497489,0.08988118905601655,-0.009728017737293902,-0.10584821729163175,0.01132807612981376,0.03858882154535091,-0.02712538154640075,0.0736508087333739,-0.0987511604059932,0.5318349957631158,0.6725890998257377,-0.09837117458975625,-0.15159106522453822,-0.07710235203138072,0.13653635844763562,-0.08931786231033129,0.03776254398556617,0.6598476374865557,0.15949491135968213,-0.2508438753970385,0.06918673997012707,0.12401892822353981,0.32772739668540635,-0.0576119776056049,-0.06719366074402922,0.3852289105417404,0.3194435481967787,-0.10505633971543477,0.2901031731284074,-0.3324511116241492,-0.0015632344457167599,0.10391306690877686,0.1185356066077264,0.10622284882609503,-0.015397592320845702,-0.09558855413323204,0.016309381623072734,0.03902078062170858,-0.024000604305314796,0.07558497643126169,-0.08855140035277206,0.5364245277378132,0.6529579457637718,-0.08973329364474208,-0.1380103064268311,-0.0890729723068942,0.15259194715229088,-0.09187751443126414,0.05115838529520274,0.6392463223577693,0.1509232348888565,-0.25245397028609046,0.040629474486223435,0.11839668282225818,0.31291297766682147,-0.0391019667903263,-0.07339602349447391,0.4065601336419972,0.3292167413840638,-0.11426959713609522,0.27422734708658514,-0.35485847429255957,-0.00015732010237279933,0.10514621708106293,0.08737610879407254,0.0852345641079812,-0.0014528086784049976,-0.09030927453992002,0.007549622859718713,0.030970626561183927,-0.02422601324759512,0.06671925395975814,-0.0858705256526414,0.5501013808216838,0.6521558778803086,-0.09763656468557289,-0.1577784671841147,-0.07989902506387268,0.14549423791421207,-0.07905428554588277,0.04808370100141814,0.6418129343109175,0.15711897586782494,-0.2504008024226181,0.042428229510393094,0.13631464774670723,0.31777451576964294,-0.0446506520113357,-0.061635808825860366,0.4000749942300688,0.33970689146516153,-0.11218849331300003,0.27023832741838855,-0.3356591183397268,-0.0005440643208449857,0.10344279572946,0.1125617436573936,0.09701579082447716,-0.003587982421885104,-0.09715864401668653,0.02035104177424704,0.04490730446501754,-0.04140745488440307,0.08103240458148064,-0.10048828781992485,0.516934091775211,0.657284568871897,-0.11170334282731903,-0.1726779811308791,-0.06661105191666286,0.1350367521158027,-0.07584451876078471,0.061222522551361624,0.6601957225010331,0.1564156756514454,-0.26138362742069154,0.05087759483479302,0.11927360037762558,0.3131681659315506,-0.047050822212262325,-0.07037288476383702,0.3859974612625847,0.33337366260357093,-0.11268017202819033,0.28122134514274194,-0.33803602102606733,0.013654918915728767,0.10436327385681292,0.10554611576424812,0.1141228542387152,-0.02302960135332678,-0.08283002545117402,0.014219289369120952,0.0525677574124224,-0.02087703419520416,0.07722675673026665,-0.0878885922105746,0.5274518278966154],"Dims":{"W":32,"H":32,"D":1}}},{},{"WeightObj":{"Data":[0.361549258730288,-0.37775290741308476,-0.7849774556677566,1.930234114982151,-0.36663719508981313,0.07625550657010224,-0.5246189142549531,0.6134406196284347,-1.0892976764681974,0.5469135451994751,-1.323549173676304,-0.09199447485816846,0.2908965608289076,-1.040968517063345,-1.0264374292381357,-0.3471695104382054,-0.3056903230987263,0.9334821701498015,-0.5498839670906653,0.6068953981367451,1.2235758490526725,-0.9275654368405077,0.0545819330579256,0.039098915506307,-0.5950033310977985,1.3836432467539035,0.43009651234171337,1.143344980051475,1.1320903355808307,-0.8999087690596765,-0.6440629286791485,-0.009392055954336133,0.5233611043867961,-0.058322428693384616,0.3939706655448745,1.2925530396515146,0.31171731663411073,-0.26638503953542964,0.9606403859414521,-0.30663450116167734,0.7222415710156358,-0.23193100326254054,-0.6032055780251765,-1.1017015119699272,-0.9388495071368909,1.5479670094272773,-0.03778972758318845,0.17517914053704395,-0.19807625434991966,0.5500499911134673,-0.468327281290882,-0.033844510721275964,0.9557264696602457,0.8547478759781485,-0.5087775175630311,0.04570330871717534,-1.9599272731038915,-0.849774507810131,-1.5305287848723337,0.6342957785647905,1.107961722894893,1.4342276324549492,-1.0865698638339842,0.006388678624020767,0.5492004756298327,0.2812222097363642,-0.35206488809052383,0.5297076290204384,-1.3922835278205876,0.24996065055848526,0.7017122633272322,0.2599682367095198,-0.3672162533359194,1.1716875467388763,-1.2245711784676112,-1.3431755662868274,-0.3732291680973654,0.11664649586615783,-0.8780216833165381,0.36544504315358434,-0.14229584390774383,0.9418942255658563,0.8584066770832898,0.12742922857850433,0.8440965553446126,-0.22430870094298822,-0.7214166310268996,0.7515183560722364,-0.2947067215158043,-0.14660538819845256,1.3211622768356854,0.3681779094918693,0.25822497842630115,-1.2650341526238433,0.1865968150752688,0.01021899956760253,-0.0043659031988684,0.2817936825009852,0.5520552499505231,0.6349150487835641,-1.7816383781519636,-0.05059277031217302,0.18165882002920622,-1.0211339965907786,0.07103162828549814,-0.34823694759588597,-0.8767940942376449,-0.14902773452879395,-1.3739068349268648,0.16261387650979095,0.7761106966969221,1.0186482420181697,-0.552843300176797,-0.008707976088151922,-0.36226497373927813,-1.924874635332897,-0.4129188129749589,0.10632299270012642,-0.5111294604642144,-0.3608450082790487,0.967875179906134,-0.7090976254818874,-0.280532816650354,1.3119310421899477,0.8905404135668856,-0.5011800473475607,0.5549145149068928,-0.8047821797735504,-0.838785234265738,-1.382761012670514,-0.2161770901720949,1.505774357388527,0.041047745125986225,0.17200921578092288,0.48301679507931156,0.9966484513022328,0.3668821078407189,0.42876475938048797,-0.07155212277566816,0.1413732931575666,1.9756707319927445,0.06161519868668652,0.06557887590947274,1.070572124503365,-0.3313813268672163,-0.42623345593251144,-0.1763179448996095,-0.694455315174738,-0.4243982826030029,-0.8289593970191277,0.6554157503529221,-0.04532366109265887,1.8273109252904545,0.5179608288837766,0.90310875457144,-0.9142389247827983,-0.3446387130705108,-0.9952199005587051,0.8646800496190877,1.2951761180728436,0.9517192909442206,-0.8455893951262426,1.7470724846554093,0.3171678552282849,0.1129484332994964,0.03809080083914542,0.8172334348681204,-0.5956326881771181,-0.11777900903963029,-1.5811357174262979,-0.43990753138083316,0.3482594151755725,-0.12008147012916037,0.5331261724328901,0.05756481658033476,-0.3598036296439411,0.07207343674081858,-1.2710036535887788,-0.8625712953397053,-0.5036097447796941,-1.161665029491892,-0.43263107028433145,0.8653194328833655,0.2632833878998255,-0.763180299110086,0.07277150969010687,0.12187358049665795,0.2711186595125392,-0.6439871680591189,-0.3542386563304447,0.2725290668566446,-0.6117621308563785,0.3898648080711365,-0.03179018324836024,0.02580209499741697,0.5608596090128913,1.373247777075549,0.7001761026125012,0.2091996685326166,0.05484150872932117,0.3157504787326112,1.6751585196571555,-0.3944710169938058,-0.34446681920104594,-0.6968867194394714,-0.8150604666408137,-0.312441656303521,-2.4312790624090495,0.8146050097644268,-0.5791900294140125,1.142217611214639,-0.8943271124093002,0.47519897411741274,0.9534030442975154,-1.2083656117586663,0.550438070689308,0.7274113170719105,-0.19466118745019453,1.013311705188042,0.2014973689078444,1.5018928651707275,-0.2711377048958491,-0.2979294676186992,0.17074262261190518,-0.03166312552781032,0.5758569640257929,0.941169173200831,-1.6152493705829614,-1.2875310327902532,0.8761060391673191,-0.6507443749431004,1.0547135170319144,0.5771287329106302,-0.5940395973760149,-0.2559277882653496,-1.5041448238559412,-0.4461395877947714,0.755919474020013,0.3097817990803914,-0.009852791562370788,0.9639386578940897,-0.23687427249003878,-0.2533259678142345,-0.2897069760162549,0.3145991465326829,0.5443853069915517,1.1985933800443553,1.3172850580700795,-0.5193102480214202,-0.3242937249866353,1.409790124575025,0.06499856389212565,-0.6949559353387531,-0.08712947322105097,-0.7806348101126463,-1.5578904480547815],"Dims":{"W":8,"H":32,"D":1}}},{"WeightObj":{"Data":[1.055485366298048,-0.9022626109996621,-0.8260806399559846,0.9424784352224164,-0.6055822826969004,-0.7089440675694418,-0.12788785469534714,-0.2825483764967009,0.07562709298124472,-0.49432726789264564,-0.2932112824404486,0.5636537093945523,-0.9475049074562122,-0.1741544587061542,-0.3290744278602162,0.13774969957702543,-0.01243320274089716,-0.5932531941806244,-0.1402724305260388,0.509033035623098,-0.6445516834542794,-0.25899333803887725,-0.3349363005500726,0.1395353224645844,-0.05244827494014773,-0.5120484592368788,-0.09860921679102749,0.5257399608493116,-0.5057735771580042,-0.32925835076369336,-0.3400535367092533,0.12481250753269639,-0.07297168789500508,-0.5305798759786943,-0.06379883027217653,0.510514300735926,-0.4397455360388905,-0.3479045711544587,-0.3418962881633078,0.13989229882213183,-0.06422390987000869,-0.563036600984996,-0.04524799358170709,0.49603499801377826,-0.4570142049226306,-0.35822562724543683,-0.33867210300399225,0.13985735383396325,-0.08282445339033358,-0.5793478750967912,-0.05762390810676833,0.4775950374410995,-0.45027447796396636,-0.371371041493115,-0.33260760248551396,0.14362711062992795,-0.06274983061709226,-0.571788692797106,-0.04906792229269554,0.4775091773566465,-0.43731408872481087,-0.3629658644890483,-0.3298740882515389,0.1496872094726301,-0.07914412925603224,-0.5951270121319593,-0.05390167963074613,0.4681058063546231,-0.44346600046091256,-0.37189154581134787,-0.326125573700751,0.14599410865491275,-0.0879584173230802,-0.5825044613199477,-0.05123685198670494,0.48551454721855725,-0.4504852947661913,-0.3774252229923996,-0.32294518960804364,0.14111442477348463,-0.0905693028658577,-0.5814080559786785,-0.0540776384758487,0.4646145511604293,-0.4526674448635368,-0.3965150213686237,-0.3221726832581856,0.13877200976210682,-0.07507163156720958,-0.5996191168838488,-0.04823550801201227,0.46453616256478825,-0.4419046002100938,-0.37884817331029774,-0.3197690917393824,0.12698819959235907,-0.08622745060575358,-0.5827038761547175,-0.04624572329724977,0.463555887741163,-0.46731994782201053,-0.36611603832617295,-0.30722633688301765,0.13291308111548264,-0.08199490397443708,-0.5706257397198183,-0.041458623764395804,0.4737572575472986,-0.4490555787641455,-0.3844976168358233,-0.31483458079906756,0.14005032461352115,-0.07645978962323569,-0.592278764121733,-0.053914370626417296,0.46927026477175743,-0.46247692916316613,-0.3805272037481839,-0.3137044109079845,0.1136103382222695,-0.08461487141347006,-0.5745632194772317,-0.04417900161397141,0.47580465880542633,-0.4575769087004638,-0.40398603388540216,-0.31789969761140874,0.12266084669941389,-0.08405424814931946,-0.5803400523004381,-0.030711629817953896,0.4767193383603844,-0.4654183313544836,-0.3916272850063689,-0.3221128674358033,0.14656068648717918,-0.09685929882968217,-0.5912052925580575,-0.03546316227344366,0.47965261718889746,-0.44827550261076854,-0.39646277560033955,-0.3173572637273075,0.13310917150683002,-0.062067209084905414,-0.58365732149145,-0.021772553139532205,0.47734879225474963,-0.45872641224798283,-0.3950114356317994,-0.3146867685325376,0.13215453788095732,-0.08521103709953276,-0.5971160801809288,-0.05137325332985026,0.4767079795329375,-0.45714661278958785,-0.36948648999898936,-0.29873233269013755,0.12770000064443857,-0.09035925402678133,-0.5937323994654347,-0.0326982724972181,0.4743797025904182,-0.47310973694540914,-0.3890398392204552,-0.318198077332961,0.12232444964895489,-0.07038048233568024,-0.5875416797699458,-0.048673811404226726,0.48188611562764455,-0.4639108650703359,-0.3911332932700853,-0.3097789933696298,0.10383558455861788,-0.06960146276254342,-0.600849580098689,-0.02972637917141146,0.4867540412212227,-0.49402005119804077,-0.38075791398674236,-0.3186608869098482,0.11679629739729816,-0.06756116101102244,-0.5859163394955696,-0.028168958634605445,0.4836428929032949,-0.4744137214046711,-0.38536739235911643,-0.3083456811292592,0.10904221165400853,-0.0778852849262758,-0.6014720816083514,-0.04201105509819479,0.48980365649502394,-0.4637203486241062,-0.3963148707534567,-0.3279799918218909,0.12438906073608771,-0.06956630060147317,-0.5862154984761471,-0.01236504271700148,0.49008598641958195,-0.46756633526023267,-0.38108329540773866,-0.3024371969798752,0.14012940268500673,-0.0888778882532189,-0.5848190049278682,-0.037421518735925,0.5005231061804017,-0.4655822216614644,-0.4056274342986831,-0.3296144505630523,0.1266973164882582,-0.07150453296749058,-0.5965259442020359,-0.03327161435483148,0.4701802526209981,-0.49187119040297395,-0.3918325422863431,-0.3073049630488959,0.11858587385199049,-0.07259815071925395,-0.5876115070657392,-0.03514868581509464,0.486078659180353,-0.48392767651005375,-0.4096667003793426,-0.3317354008630801,0.11706787143311614,-0.08920619593944008,-0.5846410894261814,-0.046920772919512375,0.4797450187030597,-0.47965835724454103,-0.3892986964230259,-0.3166379744946964,0.1265763566114844,-0.08309777140149856,-0.5863330985591539,-0.016928420853566873,0.48601311138709336,-0.5028330447735981,-0.4122430059379956,-0.32435814268427826,0.13303304743709946,-0.07509910877220419,-0.5845959076224769,-0.03510621532718369,0.4937097694190746,-0.49898133769188574,-0.4185755913451321,-0.32051795689203405,0.12100499805698103],"Dims":{"W":8,"H":32,"D":1}}},{"WeightObj":{"Data":[0.3519322221529996,0.40725979285068475,0.2803914679329809,-0.24675872499812304,0.419240128574243,0.3749480002261516,0.40149578250878976,0.32943113032693416,-0.11169273036951767,0.23677719219427326,0.2950837402299508,0.2971603684475867,0.053257673384246945,-0.6763238173814885,-0.2366589173309892,-0.354052099629144,-0.3966296788331307,-0.8310131317739884,0.14709946016123607,-0.13374855967251445,0.11433802906955105,-0.20921172255960488,-0.09486877735089776,-0.6925253941143233,-0.805141999306905,-0.5795919589929482,-0.5538613345749863,-0.6926866740841876,-0.2752892468014402,-0.9955195581502027,-0.42802707304675325,-0.577970237361686,-1.0793804925933856,-0.37312679653962416,-0.6578027027350376,-0.6494030282445221,-0.42543881411647444,-0.396593860773401,0.2974716229766225,0.2655693521815309,0.2973599876322571,-0.10629091035909904,0.3874726966630465,0.14876354513870838,0.2884202060451403,0.7000334974454031,0.3457368790569749,-0.2057179128833054,0.13038303185158925,0.08958404779749327,0.18958534894244913,0.29821949769063094,0.2284130764578412,0.34233255198462736,0.09031915148845558,0.11919022099152422,0.4333393979219398,0.35433560327378644,-0.0009779115917358339,0.09460957820992175,0.1346670219104913,0.019446415565466953,0.12633779129576936,-0.04050515851402757,-0.2733247127615862,-0.5765105632284327,-0.46559276072721206,0.1623949461835941,-0.2471780208239596,