{"Layers":[{"Layers":[{"Weights":[-0.6830454688376701,-0.3433163350618696,0.1923728402970447,0.9008047958650294,0.47279709987175145,0.39917351354673086,0.706820580372793,0.5760202621080913,-1.1234526779784733,-0.027440746778093123,4.46000296110969,4.617463042916103,2.175149154783633,-0.19711756793129986,5.313068836914707,-3.5853659733894743,0.9858002712572542,0.3216397705592967,4.5137296122924635,-5.958001083340811],"WGrads":[0,0,0,0,0,0,0,0,0,0,0,0,0,0,0,0,0,0,0,0]},{"Weights":[0.14062478511007326,-0.16400308666388008,-0.08255710334461515,-0.34668248553931946,0.08565427637269818,-1.199554547761123,-0.45073534297457163,1.519616493763809,-0.3259853700887096,-2.06433731385809],"WGrads":[0,0,0,0,0,0,0,0,0,0]},{}]},{"Layers":[{"Weights":[0.9031662848363318,-0.49984202044288706,-0.45558011391038705,-0.9727965634961286,1.2560463291164994,5.856667518925148,-2.128717543633832,-6.603463430435359,-1.0158681282021427,8.094770067237993],"WGrads":[0,0,0,0,0,0,0,0,0,0]},{"Weights":[0.06868121532156966],"WGrads":[0]},{}]}]}