{"Layers":[{"Weights":[-0.9962892435758188,-0.3739756995722489,1.9783990026308194,-0.30472065294934625,-1.3676240141836493,-0.7011114527264461,-0.9047652124207063,2.4536520736215026,0.30228491378558103,-2.4484715513363,-0.9335009463400722,0.4909971338076263,0.5117861814133583,-1.1656306654784263,-0.3291820405857641,-1.7258459596672149,1.4284746869393055,0.47527213446852495,-1.5293904615004539,0.5797378610057353,0.4770245493170588,0.35158732511869817,0.5204545408281367,-0.9043645076907801,-0.16737092570575451,-0.8426305922248174,0.34585081714075966,0.65791985518493,0.6254835009150699,-1.2947094921655695,-1.7436627924524997,-2.205591072081491,-0.14306226203399652,0.12246023203434464,0.9288848156957198,0.9030012451793575,-0.7491910619655441,-2.2979132197953236,-0.5087409489964358,-0.41462577573821957,-0.2539395857665551,0.35378929766927697,-0.47865605048865484,-0.3648443686464813,-1.8967221479943919,0.8262546005064408,-1.165179960113859,-0.06642377049685025,-1.8239612631784077,-0.06762115488448175,1.553883149572671,-0.8650478135020957,0.381376121677626,-0.3511030417760803,-1.0282173266746595,1.318577399206015,0.48295202766392403,0.3864036276801489,0.5507927677236831,-1.3318920838084594,0.5779110754863133,0.4714387612653526,1.2713125028877872,0.6198882907686458,-0.6840487625798228,-0.8336554996766761,0.22011728859179233,0.06409674780500149,-0.38146977651384967,-0.937335124757762,0.13714517646846908,1.109727077713913,1.1800073459496068,-0.11813662796149228,1.0174264376596425,1.08464925306871,2.148922543599062,0.9198588154778033,-0.035473787387140805,-2.4127226486052606,0.6031443182956934,-0.9521565269611105,0.6593093253916412,1.4705148470735776,1.0531416462420744,-1.0152451815259997,-1.3335350536856412,0.10669433342289612,-0.47819247104343815,-0.6003067691738218,2.5810016167740946,-0.05795880537105701,-1.8615234025665748,-0.9850070385404567,-0.10814311103233534,1.7872779110953538,-0.4828924545796647,-0.48254463080714893,0.8302501832507845,-0.8613345447873245,0.563072231023072,-0.587326682066879,1.1713245886449388,-0.6277859178082038,0.7574189212670792,0.21330412630301898,-1.1129520617245308,0.5574011565856283,0.9165124547962825,-0.7455629388761873,0.4414445250880809,-1.0130193819537057,1.8590328673334646,0.14825162696336178,1.001277912629359,-0.5324086913045403,0.6650541861718895,2.611995935174642,1.2266118103872348,-0.10014628241801528,-2.0356027259021703,-0.944897161583284,-1.4039144183509569,0.3829593727104344,-0.6144315347103313,0.6756759124255309,-1.688820707911951,-0.0005957318380119916,-0.021743854246906422,-1.2500499415460562,-1.554636030431646,1.2173879301517463,-1.6247010439849359,-2.556116268902005,0.20909049424836887,-0.3777805092110656,0.8467647617011391,0.028745653126586442,1.3646507562527588,0.3107835462721364,0.23122284987485184,2.4005542598182728,-2.146908546866054,0.7365461490913641,-0.4896314500731275,0.08110392313069617,0.13838753803134252,0.33957525607983186,-0.4947345328231675,-2.1397254873670075,0.285259376880286,0.23025251417903195,-0.44068789242267725,-1.8214777348435647,1.4221631249196305,0.62179768105808,0.1719250220174594,1.7100245909945149,0.024721797001565658,0.4261863486009963,-0.718979909515121,-0.2938181272695149,2.221051612769246,0.031023934210737122,0.719623275516007,-0.07306011127874447,-1.2724409593343655,0.009599953697643849,1.8785656936490647,0.3227900130791789,0.2401259169788729,0.026399207404200244,-0.1211202698219777,0.19775362150880857,0.5160939373690748,-0.031093539851668944,0.6436101449860857,-0.3112106183494707,0.013753178433235844,0.8482618719861331,0.7740159331451056,-1.8323860618005852,0.01581587704209521,0.14701632283828878,1.3774469855291476,-0.33110407991233803,0.9726256735513228,-0.7416409166005578,0.2026606087203748,-0.6123275851265506,-0.5097821698617298,0.5329336520889526,1.0288251659094712,0.7562330329875598,-0.7233359952143308,1.0572505566313817,1.0714824665301197,0.07666547188650974,0.08275958853608917,-0.9803882790029704,-0.9587916826671974,-0.7510411570202291,-0.5460138499957427,0.825432671575031,0.05531558013406371,-0.4100237352583414,-0.8347369645142813,-1.7541174760832328,2.871229452559525,-0.2625326262519512,-0.018199345431263635,0.5950117109454655,-0.020054482695299528,-0.1817809498424887,-0.019818830646054327,0.6642678391190857,2.4929367520347485,0.19804891939011685,-0.7198237636598082,0.9952033973228542,-0.582751860363382,0.03407864022382665,-0.926877909812163,-1.1593671921584567,-1.7176739687938438,0.8822386819615207,1.0244202595675458,-2.1106320968586023,0.5255584764285803,-1.8710004226051762,-0.765480214909067,0.31497375468724814,-0.8779452047995696,-1.190971868285697,1.4204032052638484,0.09082029013793189,-0.7972317644692597,1.5895150515067826,1.8730371967329515,0.31626406985397815,-0.5880169522498638,1.5745974977689494,-0.9690984874736902,-0.25698486036802026,0.546401913373924,-0.6258390911546888,-0.4434878129595057,0.5755933005090768,0.18560260048352945,-0.24569851756638825,-0.12747544222402246,1.1115515062238306,0.6783440434320601,-0.5597899023352465,1.0693385590484545,-0.2091842095486503,-1.5801427644384314,-1.2796206280144289,0.20773834356261267,0.155975453819148,-0.5052447741484649,-1.663333709401242,-2.082607715984057,0.11531627270386029,0.2847747695805555,-0.956562569689737,-1.908539455361027,-1.655586425660569,0.68532993318965,-0.6834082329821455,-0.20714381848887298,-1.2341210921043322,-0.3665633926781314,-1.8119885764141181,0.11958930079648815,-1.1007286418412747,0.015982121570575877,-0.405189344224721,0.9187375455529733,-1.627243879129097,0.3382104341752792,0.8080060550298996,0.03593805237424606,0.12478492527911282,-0.3485538682402471,-1.6157593694976042,-0.8572654335610829,-1.0738131628831273,-0.36507006902661504,-1.7932064374119294,0.05831943362289316,0.09463245319396187,0.6216829444279117,-1.0939944923500424,0.15539088244932658,-0.48423858513392054,-0.13475130323054157,-0.8175333330816433,-0.48691977536142744,-0.4984140113937991,1.3752232678279526,2.7983203403075394,-1.0752416929121005,0.5464066379762557,0.6820481832081737,0.3563551396088522,0.20747839986427252,0.45759041686590973,-0.09884027354566957,0.13292876732314238,1.0444390369404306,0.30361608118366484,-1.0111886104173693,-0.17617207908855959,0.47070034596994,0.45156247262583094,-0.35201846126130903,0.14085937403366489,-1.7282374697992446,-0.4034524065963965,-1.4166022873584077,-1.5484481002607597,0.7261465044429914,-0.48887321024198455,0.6730347679194715,0.21578362301487394,0.9953854986503111,0.6493899096928747,-0.12614190068987313,-0.49953461083443274,-0.17078279924918588,0.58043838177653,1.3187755515716573,0.7546933216465677,-0.805415916694033,0.5533833341788921,0.48046799409920227,-0.45604142353688604,0.5558239241784733,-0.9425142859015893,0.043002169824538444,-0.7476817973357355,0.1759373781125057,-0.9137206645805704,1.5878632527906225,0.9994048705250935,-0.6887884945273643,-0.8030533952219792,0.4313306925663352,0.11783139150754986,-0.2512007606725251,-0.7324628437629224,-1.1159763997868928,-0.2432211878773278,0.29384698548247806,-0.655946364643801,-0.8687928852268982,0.41608057697554374,1.962200192111639,-0.1818596616742007,-0.12389013117142543,1.0119112150716334,-0.6504817977702343,-0.15144622991382314,0.0014463926067210158,-0.5231312649233316,0.2529225383760233,1.120705079980401,-0.249921364954829,0.41237179291732845,0.8388686295081587,0.20525244239169035,1.6095578716618493,-1.7182707057993916,-0.6479581539236782,-0.6988002139117026,0.020428777228728084,0.9345313573544685,-0.534042345320264,-0.5663124050515317,-0.498127641725352,-0.41491204868503995,-1.2273035022696837,2.2733128093302652,-2.3094855560586875,0.012618513128135627,0.40250849278192424,0.6354934313446536,0.3859372153140667,0.35926898452780437,-0.32029667429068726,0.017791028685299054,-0.7499600839039786,-0.0018223058045926293,-0.18347674892451912,-1.2413067633007997,0.30618403486113743,0.5233868207122512,1.4810082795492396,1.4509178649573684,0.14035502428072558,-0.029285804140957286,-0.041470810115535085,-0.14452108433386063,0.5889974978416517,-0.15300691945407754,1.4719786929887022,-1.5262650882124562,-0.9759573577067636,0.3771634945930998,0.05302600802499451,0.5264417848947814,0.40455126329535196,-0.24814579326312772,-0.3074132528393156,1.2775607029361076,-0.17077154995057825,-0.17296333826772026,0.30104815166519955,0.2504088804815055,0.6994833406774701,-0.6481143867745571,0.09817783228065839,0.19300247890313274,-1.3959740689416265,0.13498591756262443,-1.1129742846747432,-0.3758255330003097,0.7294802661092953,0.4522272339628696,1.0623506308794424,0.5515168972177326,0.5368690794315313,0.9990304383233544,0.5500902270187491,-0.044885108506726286,-0.5379062824364176,1.163115491559263,-0.8776019986577119,1.6296466476127611,1.5564896477266104,-0.9654276984627592,-0.30781802200385766,1.965158553012206,0.5000092576205415,0.19133532878829698,1.3814658469857544,-0.8117429392336226,-1.0597211199731087,1.3675739713416828,-0.047829768204342045,-1.7274678624392386,-0.35093197209094446,-0.7772822476319087,-0.9299888201051454,0.447680512815679,1.3389227955797387,0.53946522253349,0.8601852082704136,0.9455290184191603,-1.6430187391653999,0.17153094261734667,1.0410882686751046,1.8037155950737878,-1.947128823747197,0.8010234778742003,-1.1440088376967494,-0.6965086825143106,-0.3610649753451839,0.370522301961781,1.6140677026254315,0.1837194634208013,-1.7650261572022432,0.9320954449993116,0.044172834777331284,-1.1731356885181754,1.7500613502097238,0.1954787266424287,0.40660258309458747,-0.1489932813836864,0.2209054219339738,-1.263951180220593,0.5166097353230102,-0.21774920062532147,-0.5101513968337826,-0.7581658448832056,-0.5690949807797349,-0.571869306468412,0.3914462208726487,0.20879023547616793,-0.7885105297916947,-0.078759066068702,0.44627027352996856,1.719714141030975,0.5902746521689723,0.7569008533322312,1.1418562881566408,0.3292466591941253,0.8141297200771839,0.9516272786130174,-0.1545178359144092,0.753791760060055,1.2108420723756066,-0.39795762976188637,0.24702939223722542,0.38172424408367145,1.426065033184589,0.2214684874243928,1.8688061218991423,1.1728379643018816,0.4291120093386229,1.8780488777373552,-0.04558024697765559,-0.42966663000085986,-1.583601547205695,0.3988811173610551,0.08089928279659978,0.7406324670439012,-0.033814495332903816,0.3712008470647205,-1.6016527841883865,0.8532949949425256,-1.2335082115675327,-0.18174737068103897,-0.9441458375242161,0.9665451489278039,-0.17116323240536668,-0.6464210482924556,-0.03665504986160346,1.561133702704162,0.041255210692568337,-1.2315967108876604,0.41926997814412265,0.03698188391885382,1.5396144557856897,-0.5272850743980045,-0.2505048037656874,-0.04871530538102756,-0.3296166080077369,2.2376363995501722,0.5829245706526303,1.4991807471081517,-0.8903951306455045,1.2112416523624658,1.2083287715646855,0.1626809044664018,-0.04845302339465886,-1.1748656019117287,1.0607896120133131,0.34696554393416046,-0.09597451449107007,0.8236361708351463,-0.8166212071155196,-0.6165008768023662,-0.20708637205936425,0.08531108019571891,-0.3190348471263939,0.1006216927951796,0.24821199588209558,0.4468397795142065,1.0621736610055177,0.6366570935087497,0.65455737511505,-0.629839784714001,-1.1044775982047779,1.029226786385764,-0.5143869257922249,-0.6964875017506038,-1.8567275346310155,-0.26259976661233475,0.7870825260379011,-0.57958772745658,0.2066349809844006,-0.33746304247792136,0.29938839280245766,1.7947868055705356,0.3027203503423971,0.6944462156410625,-1.081606281314887,0.4241319138879977,-0.63027262363943,-0.29373329820647337,0.39406579554830684,0.9171587711950184,-0.5242073721390603,-0.2500349966250731,-1.7343162509726207,-0.6236436199136524,0.958470783648351,2.1546533621852992,-0.10649108146779417,-0.18689335503126325,-0.7868849566859873,0.32294791144994694,0.0019498226114469503,-0.509912716263752,1.9386552052843784,0.7253520678219834,0.714988392977387,0.15914520674684293,-0.07166235208241883,-1.4736986614172185,-0.3535542868932756,-0.023606468250589176,0.7243229686462349,0.4314111110554124,-0.46625527085925417,-1.2431825796173643,-1.4224510365891099,-0.42812188596599715,-0.44853499796841373,0.5541792269484302,-1.2711695169435004,0.7115618436185333,-1.591328311725784,-1.3143077810309267,1.0897911089858408,0.7951397661463375,1.2522504146487359,0.1910224462442579,0.03490538545677879,-1.3097210674780366,2.035962137960335,-0.14797978599488643,-0.2285016899111695,1.3219109947966294,-0.25777192549280653,0.5011472766986758,0.3720859713256409,0.49206168801871114,-1.3996314475131697,0.7751843965804699,-0.03578790001963154,-0.6043077744198504,1.036010156268241,1.5362436563755968,-0.5942268668025171,-0.1562373628421883,-1.1753027739593913,0.5695697356248984]},{"Weights":[0.005024551600366971,-0.008649643162620204,-0.039513037917877254,-0.008234704785636818,0.06225454988700669,-0.004074607002261397,0.03324440495154446,-0.05127909981429802,-0.10262060707937495,0.016306420279618553,0.01354820499989762,0.03310741883403587,-0.0016957371021880249,0.014666175689830144,0.033627059775938134,-0.12447571068016401,-0.052497446596535394,-0.054059277451238036,0.005158585388474834,0.05726615616102835,0.01650358365241911,-0.059234939162080634,0.027612137498400878,-0.06466129283118031,0.06590740437286155,-0.09393736340478856,0.03443318310224453,-0.013872386781676228,-0.024736786674933793,-0.005425510850156009,-0.011648508836279051,-0.006746793213488654,-0.02451317718886885,0.029874061578758188,0.03886657890086401,-0.04954375022574944,-0.003453389872430754,0.03854858385487152,0.042214756089035715,0.04762347261773577,0.016612459111680775,-0.10901379653286021,-0.07728374561288866,-0.004204705678435412,0.02201921791268833,-0.03979809956441455,0.07338822166586075,-0.03497368820632526,0.017645739636170128,-0.034790985378418224,0.008566491094011704,0.03906131601805282,-0.075319131032992,0.03961682747620074,0.0842831915503776,-0.12212535067599298,-0.027115788576027332,0.030494163701881443,0.03142889419661789,0.0022051896564779464,0.005376151456798478,0.010318543248732926,-0.003313116452922895,0.030298792984119527,0.022115773026716752,-0.011968980246334563,-0.001181904696294657,-0.014320063686220347,-0.09996365111633092,-0.04265549636132016,0.02944895125644346,0.017052618571083627,0.07578833213341848,-0.014439566899417663,0.05692891626707735,-0.015967048920072512,-0.06645948754584048,0.04348571808703843,0.022856620734292777,0.026841529268734555,0.018752368877827115,0.03446263112511497,0.04563575995968911,-0.0067153978223286745,0.07413361482386303,-0.02511276080393146,-0.024824784949792966,-0.04942326979833335,0.00475360487634046,0.10555317443227054,0.0361065711480563,-0.041806660627945545,-0.03474381265335327,0.036874358748785606,0.05771830262370164,-0.01743524000468818,-0.027532186442310626,-0.04615265096555742,-0.048347207155138315,-0.04523106700498833,-0.04555218277843183,-0.00037065494492001587,-0.009798440376440773,-0.012642093913954065,0.05440729840835808,0.03003973285878746,-0.03388024629039082,-0.0648840093930927,0.007760873778455075,-0.010805590367913814,-0.02247382877259067,-0.021920212294001457,-0.06907476727497694,-0.06012375024840608,0.1505222393630736,-0.05534740362538068,0.00921585298099079,-0.019862839105294943,-0.04514548904109548,-0.004335406715765823,0.02160219930568554,0.020694030189350666,0.010523944288959659,-0.09269665378048818,0.0506601176345523,0.0030128260212198337,-0.09950950743597153,0.055570881302020744,-0.0016072436563038016,0.009811695991237147,-0.04560246149730754,0.08174809645251281,-0.0920159179705805,-0.015201541321352286,0.08578088928239594,-0.06400987616658574,-0.010662240844512439,-0.060063351950091805,0.08669239933706877,0.0014389342722782891,0.02489950708266229,-0.025865489825733397,-0.005533338933676388,0.04670955438379393,0.05439956678084899,-0.014895705745109606,-0.002635559557497027,0.00640081514314619,0.0037381075561915282,0.11256767735393158,0.0033945750557607883,-0.014835555786651631,-0.050754546599033064,0.015113917650963581,0.033364374319848907,-0.04393911134534145,0.011007665174398508,-0.06553870395169627,0.030742492339934046,0.0670295256227185,-0.04654538921608993,-0.0011304301404683192,-0.022690820119786837,-0.005612040760649376,0.03740985513175568,-0.0862248296448787,0.013954498684326896,0.04995330907250873,-0.037011889071383454,0.06252449187363004,0.05366132044739927,0.03252299563981886,-0.02825606957215811,0.005943406331740472,0.06142129118778693,-0.05446061969315597,0.0643614098189837,0.024644847979061222,0.005120580079165164,0.0112789855436383,0.10075913793851436,0.04847579473650024,-0.03891031289717949,-0.03696838778330152,-0.051279300408358215,0.014169265740481836,-0.01754317922989623,-0.012158826424585477,0.006798452796818155,-0.008078646217825732,-0.02924557184861251,0.02837170264717116,-0.036514132162651924,0.03202685856238419,0.08039126822340106,0.005395605065169052,0.035203162068373865,-0.05125878242515882,0.03657852600920692,0.047198896513095986,-0.010998599173369213,-0.012345531612836445,0.006892777986530117,0.09349284082853243,0.008195043537923715,-0.07819740911261748,0.006679459721544932,-0.000005447916421106932,0.04336567454283147,0.058616359755272976,0.04592374796956688,0.0014076432445916144,-0.048003280424038966,0.031156681832917716,0.0023325427990192075,0.03658963243530964,-0.013743569922432237,-0.030529838965231797,0.016856245288222237,-0.0023206118921454792,0.010821024908597366,-0.08108817130417018,0.10094151811482667,0.009347528262892157,0.03882671662396199,0.04126661100363621,0.04536104803292237,-0.05801556001568365,-0.02651242409875328,0.0053938806533241615,0.09267583111635963,-0.01684829365889139,0.025776023386443095,0.028503910338461003,0.04988679754119001,-0.03257847318287114,-0.06492657969157824,-0.024606254363822987,-0.06079327569161066,-0.017793552910724333,-0.05980896244194089,0.0256548704831151,-0.011927801984016422,0.0633037583628692,0.06593137231582087,0.04767418009478452,-0.0051043378621573095,-0.061879114898565755,-0.057730096032302655,-0.09446507789295806,0.03076693925284464,0.06372106785368924,0.04898680603866392,0.056356012003005426,0.002734280530149205,0.0060344223222003855,0.045755372901881336,0.04312671242835955,-0.0835392086561624,-0.07467350633413734,0.01439189682067692,-0.0398858187628093,-0.0018234371554627215,0.026113597425513464,0.046175871150630335,-0.04401176002357356,0.03917015356732191,-0.029538222357191148,-0.03512443407282349,-0.03382821175460863,0.03858356571508494,0.009582941509245954,0.01888733494190428,-0.02325947883399827,0.026820009596820096,0.008601034964999796,-0.029505761645907416,0.00901787901841736,0.0033955985221762798,0.003235267361020746,-0.005011270161310841,0.03722228611238685,0.023084389860310753,-0.01134824073798478,-0.003202553451751912,-0.0031762066420653184,-0.12146515220656477,-0.06015286326648273,0.004061825682492662,-0.09530248987938393,0.03166419403022676,-0.07003015266690694,0.023911483152435013,0.018507578154096403,0.05843767670436002,0.01204269722175577,-0.006911753830573965,0.07957853702844413,-0.044412883123945375,-0.007027483429872249,0.053775955026715117,0.09173020603591997,-0.10455372734275008,0.0633796285557831,0.08964391682103477,0.04471446524671728,0.100780929032941,-0.04427162801682025,0.006243759709089282,0.11009082200725225,-0.04458986635131051,-0.005205576230405835,-0.08632954003288046,0.04347752467011014,0.08177483515540383,-0.014740996066783533,-0.0293359431631024,-0.08829782079162876,-0.0136713607051628,0.034501778123515396,0.03091764791727647,-0.07166400473517562,0.006448933333080345,0.007512470552384882,0.014074785948840771,-0.008356028070252488,-0.02192553505649751,-0.025264618008255003,0.024360525778281468,0.0651390922364508,0.017179309347460994,0.008944307961245991,-0.04373485086600624,0.007239838249853405,0.014981790430306625,-0.06541796769784122,-0.0070679054858024185,-0.1061061722453755,-0.06740926085713272,-0.051990512718814386,0.06289615327840012,-0.004661289188801755,-0.06560992163250286,-0.023350031058039872,0.10837555479332811,0.02137871122210871,-0.04260144060115479,-0.04934090460855591,-0.05964485093831265,0.042051491781667505,0.06158640075853923,-0.002026895266005969,-0.032849785665686713,0.029539826627124052,-0.0011080087885028277,0.088451791879993,-0.048623908032408264,-0.03552314979442297,0.03456859038097596,-0.05821140405132358,0.03219264217722567,0.019294989598213748,-0.059736359181365044,0.015525422948936388,0.010999248176758434,-0.022620623452683675,0.07656309963065315,-0.006310360940845987,-0.13129911152116036,0.03349973273523385,-0.011129167816957265,-0.0005133512791350571,-0.02794706861284708,0.0034874445789341542,-0.026287800245481174,0.020708073567082177,0.0596873182052158,0.023438241253069612,-0.007667365385981787,-0.01117094221309779,0.03694788577457139,0.0806225292421085,-0.06270787037337233,0.038193241546036434,0.026808343691934595,-0.016849362234405984,0.08561794676996354,0.00827894839447359,0.029632470841075453,0.09926145842753197,0.010444640431279711,-0.0219086806190871,0.0069565829382844425,-0.016886906842323378,0.028824377895600307,0.01026126767531194,-0.005675587030889284,0.02024294827706974,-0.010455267463388124,-0.004710494798554879,0.04451593053333666,0.006927209115190625,0.06501756514371647,0.026282132016926096,-0.045582108073118334,-0.07916193334104885,-0.044364056994344564,-0.01905165544835263,-0.03657915687095015,-0.05526467398944495,-0.047441050636138966,0.08495948010470353,-0.041120389175786545,0.051213124895956995,-0.041455167199791615,-0.0073140681666198455,0.05133096799095996,-0.04273025408412435,-0.02852361519410562,-0.012637745253390946,0.12156458689658568,0.035574427525236485,0.04145100635433299,-0.055082183382527836,0.06907833072813686,0.0590738271170407,-0.05422810156601242,-0.12917396048507962,-0.09741537286949196,-0.044614114499958696,0.07646585731590984,-0.02678068839082512,-0.08796678174606065,0.09156768308016132,0.021689513603343657,0.01574594300519938,-0.13333816799528772,-0.07522725919476776,0.03479809484170727,0.049240215081305536,0.033422383623892486,0.07149134084403844,-0.03956832905758962,0.01570308594120082,0.02149371501766053,-0.05759345555034502,-0.0562204915410489,-0.04478836652680849,-0.0738161399060503,0.07641191291586305,0.040047704108712834,-0.018815762634860927,-0.07955881440257594,0.0804824458998989,0.002014642165856493,0.2075726701322377,-0.11204237338588281,-0.01685629850322496,0.08002152433028742,-0.010110130845753672,-0.15283659206093891,-0.12745441389445825,0.08399010978501303,0.06939501924052,0.024344731489758374,-0.03273443975265971,-0.02160870950794315,-0.08763774253285588,0.05011674175315266,0.10458166637086742,0.05026987875109009,0.09295268857458693,-0.048650526922208615,0.29490818786181244,-0.026857863314009932,0.19647871452715737,-0.3665169287016855,-0.2689878129461436,-0.038881939511871105,0.11423457595560638,-0.024614987575774197,-0.009810497263099573,0.050754759996092226,-0.45301389426114097,-0.024975950065848233,0.10678870504138153,0.4894574668629618,-0.05241265737817737,-0.2563153423919052,0.02847548317543891,-0.7638227965690972,-0.3067481882137712,-1.1256160306010237,0.8444680426008487,-0.7165370039047767,-0.1705148539281952,-1.0157088589924106,-0.831112013158501,0.11978741834237325,0.5988958465253907,0.0017623914407756231,0.015276717365483803,0.036538338545743794,0.008466860316224007,0.04711914444420921,-0.027052243750497678,0.020710320298100333,-0.03881525031891615,-0.002983438898237545,0.1115507975424146,-0.04021028809971972,0.066404286809656,-0.009360569900616783,-0.015706445014593208,-0.06724948044477119,-0.05531856141275291,0.01007010065018475,0.027748674372778073,-0.058334197380774507,0.06447045040843971,-0.03489130627209295,0.012064107566471116,0.03461672091071071,-0.047538815191548935,-0.03714153491729939,0.10121977496291651,0.08997336198111203,-0.002537903102469578,0.008464683249378362,0.010629194753790448,-0.11253100388378134,-0.08287442606763284,0.014740778326303813,-0.01619273300104716,-0.10232169225294525,0.0039696628315459125,-0.08367065230160087,0.0057362018825695485,0.011622574354958759,-0.06368109552507407,0.03195934765395022,0.041079979744361214,0.0332793345870798,-0.07490289704716421,0.08499801920443027,0.016716090505073663,0.0010487436740910217,-0.055985138426756516,0.018246128007513667,0.031041487980559092,-0.019244551720784035,-0.07738217417372115,-0.035241787437701885,0.059311003162527055,0.021706004533356305,0.05490892971700876,-0.03652923656610617,-0.056813882594566385,-0.07332281198748039,0.022618552847231608,0.021225539220827365,-0.02818783527885146,-0.012101208929562603,0.016869148603510305,0.06484093370658552,0.02935468788740728,0.004805872550949669,0.04301044584488879,-0.0689247433853763,-0.0019948150249331246,0.0038666693728123063,0.04343276165659595,0.08967071955456987,0.051576311770983645,-0.060790269966255084,0.011328900835178938,0.010429043811711414,0.07663787613156481,0.12861886504230824,0.017700458733549827,0.025295046695918703,-0.05756935915633784,-0.034107988887801824,-0.022502527102421545,-0.037366386554460826,0.030460891817304055,-0.0065948383733073785,-0.0034430724141665263,-0.00032773760750801875,-0.06437153251634559,-0.059860452683398485,-0.017745548859599378,0.054528058633591475,-0.040647326527417774,-0.0429063623466652,0.0031661153739973484,-0.04129645339592659,-0.007346672343271063,-0.013559480918022896,-0.0479602222076486,0.022829119204026655,-0.019249277419711407,0.021393370616455496,0.009872265826123779,0.01024946085952745,-0.04353808872123669,0.0015011375856982642,0.03493619644446329,0.013941328136276292,0.034565273731553166,-0.06526959384936189,-0.0010305386340940773,-0.08947534017648928,-0.029631312063673743,-0.01214393829432376,0.06949879504416578,-0.06475092899086181,-0.03530051435099848,-0.011363954213947126,-0.05795326024266776,0.04495219139907684,0.06708168566528352,-0.004674829608934562,-0.03640720306989503,-0.04419356872293461,-0.018198729285222103,0.001559891521792798,0.026440294667705765,-0.020738360672422983,-0.05521263893237914,-0.02691369006832829,-0.010163569443239767,0.048812317514132855,0.010582364067652816,-0.0008116481749189468,0.06399884877275776,-0.06792690574490533,-0.02860006483892303,0.03959524176470804,0.020928650302547716,-0.10216766737816033,0.029132346081538647,-0.01926014069969105,0.018062842678674775,-0.004216315541757992,-0.007868849750249308,0.049249961717099125,-0.0030382804523097803,-0.041486672605517305,0.02694134266583482,-0.017276121388163396,-0.02664945254642921,0.0012875339432103713,-0.044549253596915035,-0.04074033818699782,-0.023071160916099745,-0.05685484205707922,-0.05935322677205166,-0.02997469317555165,-0.014043528188712913,0.02396803256557511,-0.05372753895612828,0.0787370296446533,0.020881838580418224,-0.05555179988710382,0.011205327991761785,-0.08074015390673951,0.005048037955214482,-0.008516159770756713,-0.015295574824719606,-0.06583796416825557,-0.021322990650084556,0.09906514452391625,-0.08654115136651273,0.055362905671667434,-0.11688445340742094,0.059003716929715386,0.029468120439644314,0.015078366619794215,0.041585847481792546,-0.046008999647414596,0.00046309049907776,-0.07634468142763032,-0.020335549061624655,-0.0470490650856895,-0.07260587433597951,0.05825808049224331,-0.00003368807839054279,0.007542604764232748,0.007481988004170728,-0.01112722550684363,-0.06976414601371159,-0.03435372888998288,0.0067473253688827145,-0.08021764703628485,-0.030419465453053074,-0.0000337168420433292,-0.025142560486561487,-0.038736440932642106,-0.009894374508364724,-0.059525450532004705,0.028834563162149926,-0.017419011831614078,-0.037411416141407576,-0.013628974331894673,0.03532522239297945,-0.04675706143547747,0.06488971856830604,0.00977113188584915,-0.06480414404823458,-0.005499245406595153,0.043190261751385205,-0.09771973621167913,-0.012572566513452869,-0.08929065875771838,0.08815994632820529,0.040418793483371705,0.021848247327913163,-0.02895207152741235,-0.013137009330056394,0.007985426276579303,-0.038070058100002635,-0.009901488896920557,0.032119596056845244,0.04243518621846263,0.06201907777961408,0.0015844293659123846,-0.010510501227242149,0.023013255989413464,-0.04229073354062443,-0.030116464549908763,0.01580236387463521,0.022273805274134084,-0.030955363006599734,-0.014962284653434072,-0.039863830249906335,0.036852191623993794,-0.014883904774709572,-0.04528249724050551,-0.006683859172815528,-0.026371855037390236,-0.04684956917730691,0.01688364110945512,-0.022910862942081604,0.021393013665914777,0.07202333570954492,-0.050873897871093796,0.0017845452261975845,-0.036801409699385404,-0.031228608621684383,-0.0736085707126431,0.015799707548545965,-0.05190278205034576,-0.018557774001603824,0.008866990926890337,-0.01347770479394959,0.00196777705973169,-0.0009078476586661132,-0.02559611163886221,0.02851427239980669,-0.049999931964419264,0.000132323084183073,0.002121516485669047,-0.07590983313688215,-0.1270252660934661,0.01246888257904876,-0.03277396088397401,-0.013490964012625123,0.018600943433351072,-0.0732612515959457,-0.16356713749349452,-0.008770404883216103,0.015043963441195555,0.011986913497434463,0.10730766241044783,-0.0011934100408999106,-0.009829129710531096,-0.01213293977549246,-0.013841048751172353,0.10446645337618247,-0.009570227287681315,0.03172995666289673,-0.010363059568065582,-0.007680089633160125,-0.07355470579238595,-0.009737527265560993,-0.04280525027545859,-0.10956880191778438,0.008594674430624043,-0.05345723215945209,-0.05192136041795999,-0.016965167574883637,0.050168524026704145,0.09311416065774669,-0.06561668461230263,0.03517113314757548,-0.09200679876659223,-0.007300596408052472,-0.021169910186359123,0.04988527286705076,-0.02145744897532062,-0.05794094215755423,-0.0013240579475718355,0.006878023110515642,-0.02823997113993411,-0.005043598285768919,-0.05719151241818833,-0.04687711399044438,-0.005735792593762278,0.03919556380020184,0.04744252464886218,0.022454544125328196,-0.025746535614521917,0.021134754284031464,0.07605294056560975,0.037308568588158265,-0.04336766892898799,0.029635186395540174,0.03318623729425826,0.0515265385598872,-0.04636484253737216,-0.06284588154581992,-0.024488877171024916,-0.0638988952754214,-0.09066908281481657,0.0459067389865897,0.04285103112301518,-0.000872423377454351,0.03983888075763131,-0.0756391887015433,-0.020885517861079516,0.045812073990886215,-0.013328440045261392,-0.011664976264723858,-0.08498810893088118,-0.022177449642900783,-0.008289534124281456,0.09481113808481212,-0.06068239754056403,0.010821647959280306,-0.004390486478706367,0.013868394202734906,-0.012383081296297432,-0.010236666270107714,0.01857538096786272,-0.05758249355928229,-0.058649742473388285,-0.002733094558705183,0.022666332962263367,-0.025431174986026026,0.014845552030699162,0.0158402608715975,0.03684672982938415,-0.08789221165711746,-0.009478390912152834,0.013512007872913968,0.010968274054601174,0.007164920343524933,0.08028290927710564,0.020694498536482888,0.017644577275138733,-0.027804896833167992,0.007047606034420465,0.0959732249747432,0.03799889631362327,0.019424491864335404,0.019927062597104497,-0.051090575526708475,-0.0023071698935060118,0.008976221493694606,-0.09869414570064121,0.002459594463901352,0.09337171382048161,0.08678389004268171,-0.03453861453629801,-0.019388981685760715,-0.08919201005137352,0.10372064672028888,-0.030521884029632372,0.03243246338899799,-0.024511470549188123,-0.05953997601716102,-0.008387387390179375,0.01641285801285991,-0.06596720886918245,0.05203855221311225,0.003746959521168794,0.037765789010862395,0.07360214769674368,-0.009528251425001098,-0.09813539241385036,0.09614885317662167,-0.08663454883856883,0.04151755225216091,-0.055098519324637676,-0.065784375951945,-0.12017962364423238,0.06355860183360926,0.03232440791903626,-0.048621139300506044,-0.005268281907459316,-0.000896838928164985,0.010992994269670023,-0.0570309105473791,-0.06079818926416443,-0.003101647258771853,0.03699350324943586,0.01227500210552204,-0.05480891767987778,-0.07699926392380849,0.004628479151502179,0.0005516745185741587,-0.02455777889839365,0.0278447522419192,-0.029554171428641036,0.041659346880057235,0.08571361587952167,0.003359053328870858,0.027826763764847304,-0.0620112908761301,-0.05148168998477136,0.06174458372810771,-0.038058696856247555,0.04443019522520231,0.0506420446366852,0.03650191878551032,-0.1512340608886168,-0.08837489117661347,0.0998260770332866,-0.020473225648145472,-0.015867603098831295,-0.03811265422329734,0.018989932841411764,-0.02872640987550922,-0.026319282253451856,0.0044343155288928205,-0.14760548545552482,0.0059060574211056704,0.06110713891113513,-0.030536520075642636,0.011980155940415694,-0.03818026563979028,-0.01984966101669661,-0.0789373796141591,-0.08241292134502383,0.13900252289374335,0.03378068815882954,0.005863545640597425,0.08620731297547798,-0.1527269135479553,-0.06327283630931872,-0.02788407920954601,0.06478343980395912,-0.003887485956502726,-0.0542804059261242,-0.18445335821266826,-0.04829699948385291,0.02043230278951718,0.020334804216928053,-0.1617029635801925,-0.06041530755600505,0.04208753312670389,0.01484083107525725,-0.06934924992549635,0.28580187217347264,-0.02955610958670898,-0.11479044108528673,-0.06100791351385003,-0.04250167414233043,0.04051542013162008,0.2622992892345925,0.12768277036590384,0.2061040006035163,-0.16841505093951523,-0.0017752624199546293,-0.09905820218343626,0.31760145787706734,0.27548356089820036,0.04244972961051943,-0.3358891892226955,0.23155583178628972,0.11892703764184415,0.9203552162263297,-1.0183875765636659,0.8326939292322679,-0.9327089124820541,0.7546785631994682,0.7487410215371114,-0.47590599940136413,-0.6139955074719247,-0.7127781034948787,0.7809363767359984,-0.7738208935657286,-0.8315641132794316,0.8497923582762041,-0.5160438352523226,0.30777960479286165,-0.048549777187943226,-0.3244447939000139,0.25172072366639114,-0.003008342632224843,-0.03484624262270577,-0.022060484190350275,0.007390581130652621,0.03522330572239044,-0.025348602305520808,-0.0019363900660945448,0.012060496687308662,0.018026911283328804,0.008247340069973727,-0.061069218674870245,0.046393019312209335,0.030425539238342493,-0.0045925871507469665,-0.01775025022742748,-0.028133525559906464,-0.02269685747399382,-0.04718128352206518,0.06721588147839284,0.05801662472349664,-0.05826680578080135,0.06938910502063061,-0.032682880609457385,0.012395110609629403,-0.02372987934245087,-0.0013148232057620217,0.026238268585870132,-0.028745449876746036,-0.037587977011095376,0.027887857475822248,0.02031587923631322,0.07258916182642804,0.06165636231457367,-0.030614847003118034,0.03977405515960909,-0.023268203240336908,0.010597969540519527,0.010241626226997324,0.061991882394555664,0.00682088977797974,-0.06275942178505588,-0.07409861145340474,0.040771358713528154,-0.04693895962050232,-0.0017960123737038758,0.08896383665368818,-0.0022418159173120647,-0.020714765170364247,-0.004870616532423281,0.02815284875597209,-0.026583068900072445,0.02533287422472052,0.016674603124261486,-0.0008806792670541027,0.01773112325790672,0.080598069017666,-0.003522797416821521,0.05755297055329466,-0.03165731812256345,0.00753929180086554,0.01766079546465672,-0.079355959592533,0.008677820882207619,0.049795151719237624,-0.03798449453025603,0.015062053292475161,-0.05518344683420286,0.06618783520462027,-0.05852388861463616,0.028785852684665134,-0.053989331288237505,-0.02336054701864393,-0.002738790609082817,-0.01515038538720028,-0.011619643604874573,0.08103695728892985,-0.059972666394526,-0.019959739339423778,-0.001796970281881661,-0.006944241743041214,-0.009591900402089017,-0.03973701808469013,0.03274056057981748,-0.023420237574209652,0.011823277392030013,0.03909186091006705,-0.008069445254351848,-0.050870430333853675,-0.041881576134441774,0.02158965834219984,-0.04664726610878852,-0.1740634639165479,0.0013390771322879592,0.026609587194516116,0.02493948631946698,-0.018056514931889242,0.03765471048503681,0.05375442021056117,-0.013997959906176595,0.03229758843089959,-0.012408027199453359,-0.06729467947327275,0.07196123087146107,0.0012596991166026212,-0.0027106579634428004,-0.02485519507855967,0.016967517096343785,-0.020418414783899917,0.02627944648988478,-0.002942923802396796,-0.0727360212791182,-0.045612718209651855,0.08879351240334339,0.04729639883448586,-0.06312035692489927,0.04707135762307989,-0.03807392246138964,0.02999171556645687,-0.05058296700900734,-0.0021649405525907698,-0.08459190560568823,0.0006752878925424676,0.05384068927965907,0.03143801908977467,0.01543557218500272,0.07523404949060782,-0.011720729627844389,0.048263444590583585,0.03785579054610979,-0.06299039063340295,-0.01864164483850064,-0.011872624446148778,0.03060716450009261,-0.008583771031067675,-0.03275961323598911,0.10016721671059993,0.0770677100789672,0.042280607063125225,-0.0007853172087847098,-0.06225585045391791,-0.055513854749886786,-0.02795861858625976,0.008164491852904956,0.04737819992691501,0.009696963912714124,0.024298284665647023,-0.027727261678444075,0.020560996606739636,0.0006549065864674285,-0.00939460941851344,0.006284361584178077,-0.014308132068747903,0.006170674174070637,0.08719714521853308,-0.041233480217338934,0.07237613427775569,0.03392648609208267,0.005178246370875049,0.009566637318510004,0.028940447860284543,-0.0775906361690255,-0.047423180644516456,-0.03342362395115078,0.00771847264049718,0.04026746173376742,-0.06678914479206216,0.012477447702368766,-0.02461087931847326,-0.01536238575538091,0.0018983469254482163,0.010000622343501278,-0.06067727751200347,0.025870278955158713,-0.06587446407399687,0.051844974675351436,0.04528993599527353,0.022429847382820646,0.06644184299639838,0.0075249420378525065,0.11442006913501052,0.022380994031021863,0.0016400675004772834,-0.0220317788268106,-0.11893518311468314,0.0006745767836454312,-0.0023340408773647736,-0.009556115052875456,-0.037811671075299653,0.03277657438930699,-0.010644319775657184,0.05117520707311911,-0.02351175919381014,-0.0032397131161933214,-0.02653313498433645,-0.0706307002947561,-0.04093844572270062,-0.04670609678888272,-0.025496653667478737,-0.006273007688264566,-0.03448515023370917,-0.06320653606898692,-0.06505148289123774,0.08567582472129644,-0.01087919918698192,0.10024934670331606,0.03319172990907173,-0.037592700303700405,0.02820270001137195,0.007181582898794298,0.01311814196634254,0.020054997554685653,0.03652719573606949,-0.027423352317726423,-0.04641602006806445,-0.07363480789325788,-0.04684441646953544,-0.019149178030877994,0.013677718108244282,-0.02485587009392895,-0.0025241565528861445,0.010323097987178143,-0.09336139153341058,-0.012854390505480871,0.008496969908731136,0.02858132066112501,-0.04122656401583139,-0.03578465990519684,-0.052049120613541604,0.013633843095626886,0.026053550698779186,0.06339206201665243,-0.042371546983176016,0.023315672463155367,-0.031953000278227,0.009737552947635088,0.027291330999412673,0.010410203200214645,-0.00929073325679404,-0.06576775252714899,0.022781619173423542,-0.0014021994826146666,0.040792251666212226,-0.03525040057506796,-0.025507685257451458,0.009799288177726106,0.012278584454482983,0.020393758259611764,0.014693897523985278,-0.06495806994219534,0.0285914095127077,-0.04814717191931168,0.031225951563458285,0.008212335239787689,0.04143806075435997,-0.02727770227865781,0.08533726200709814,0.039224034323124296,-0.012970419169954906,-0.03215542504559806,-0.015028787381680309,-0.005404434655398282,0.07561814288492721,-0.041006915544324535,-0.024932449062862152,-0.07695272720961836,-0.03845072801217246,0.06502241625671691,0.009043070056514032,-0.016576057139780692,-0.03181057943583855,0.08726102871826621,-0.014375159610901874,-0.018572271315584525,-0.005140232853723198,-0.03213504023364276,0.04772940107415949,-0.009474315278440426,-0.007026520711137595,-0.003552672638517871,-0.013723018312835839,-0.0222175316816028,-0.07577600791450843,0.0016651182974243277,0.015418189350681942,0.04146802287092093,0.10534359742068597,0.05573596486311396,-0.027042013163264322,0.0232603891968078,0.058849179686823724,0.0007328892133396329,-0.05161917653161614,0.03691799312451309,-0.035057849263969154,0.034451281484970876,0.05052120876433889,-0.003339171228581227,-0.018364514007049894,0.07176356908832633,0.07425439179863846,-0.05418177645714053,0.019544092651997514,0.04986382249448262,-0.029784263857132513,0.008406761387463466,0.0094584518393697,0.023402659330576815,-0.005836815915505218,-0.030640146514862306,0.012466937479980567,0.043627273175090735,0.021607568436621462,-0.04280855471023639,0.016510166616960552,-0.03503759172589177,-0.02108134411409221,-0.009225930346698422,-0.019441497661498785,-0.034652574054536124,-0.04305805940512603,-0.01883805554335754,0.050308289947185524,-0.04321604654682763,0.07303932168089737,0.014803266183478398,0.013325819213499197,0.021952190089882723,0.026593777333017727,-0.034956331944671674,-0.066902179675736,-0.0714847607839702,0.020773050773972367,-0.024155314595807397,0.08818896777447278,0.02778797743206812,-0.03214177412075774,0.048502381500413,0.06351117211763628,0.001381666793594246,0.03689235146079882,-0.045955879772240756,0.010637397144590695,0.051322498197634625,-0.0006485493361798664,0.03537290308232041,0.05006526083252431,0.023365040399376823,-0.03380723603986156,0.03600586340388502,-0.014384629358203248,0.045094811570247244,-0.0492934770198278,-0.015038429671804075,-0.10660008733742085,-0.01458098620109131,0.05775950616036674,0.0217641229275768,-0.018174915435239136,-0.05912108540567237,-0.05246925503499412,-0.018299051273399994,0.022610752552429936,-0.009978687583262072,0.06632888469664376,-0.024737416477002228,0.029937968138227772,0.01408161056462106,-0.028919186314242822,0.02822572051011664,-0.005189615325307855,0.07573064523902578,-0.043700321986302915,-0.021198122408504272,-0.021741989504104862,0.010788185103157056,0.02181610996082753,-0.04957998913379919,0.021452428892153985,0.046615883336598586,0.039337545029725855,0.004291407120337278,-0.052283339645328816,0.030542989443935787,-0.014714368655868415,0.02583693674046037,-0.06024673484869377,-0.07377269464107056,0.019898391364293,0.0318905803333185,0.018172662478755125,-0.03561121042131237,0.01794740158096791,-0.026017074948058043,-0.03559692969017967,0.04012363807651295,-0.0645659426863122,0.06586110497896973,0.0027211938560803344,0.09358468439121978,0.008245677782429092,-0.11621968569584903,0.02654985152569491,0.041025512889394634,0.018688345811066365,-0.05591345707672905,0.05653085528147019,-0.037057275316081,-0.03980375472941477,0.0782658472059881,-0.08175420475851823,-0.03418443620160398,-0.045993853335005136,0.006609454700482566,0.001397651451445178,-0.028558112016865974,0.018990889393856257,-0.0837761909406673,-0.028116731147953485,0.10913554387152574,-0.0667074045857963,0.023921072201516666,0.016779897374379044,0.013142130123934571,-0.00436572971471353,-0.022953058591079337,-0.019259054031077874,0.08461647366087224,0.08304041096599668,0.020815162271355513,-0.06982092087566431,-0.12811066564448467,0.02039255007272975,-0.022900301940062817,-0.029876133673880777,0.08597987559848742,-0.05004990955781662,-0.010152621514284681,-0.017233811365091653,0.014976223196700274,-0.035165056203244005,-0.016458698747136628,0.004983879559362935,-0.005468640021670777,0.06535089998674894,-0.04739890865729944,0.01357360562980842,-0.0723419632358621,0.034955476678090236,0.10577793391962934,0.016448772579372876,0.004410820542039806,0.030866217899716695,0.0700717326795697,-0.028739419714509953,-0.11440190189575608,-0.007866449308548008,-0.05496344457343207,-0.05720827167177905,0.08418407916410409,-0.07975659519329131,-0.03374086677890445,-0.09328758659325521,-0.006018621537274308,-0.009011474941226625,-0.035721939819596184,-0.062287476189202065,-0.024155302648777653,-0.1505411481129265,0.0726569129422178,-0.10177142978700204,0.04854202714812762,0.023462959727613905,0.11745076118362473,-0.20156652713278075,0.32885989670495697,-0.09904636677430259,0.017071293749118643,-0.11274975128551275,-0.13513240167534518,-0.1829783123511694,-0.03769428977889986,0.3204183379842582,0.3184774445239777,-0.3682674033205579,0.5395245424066678,-0.628426075515194,0.29121540389189554,0.2438928345315147,-0.1791713723382102,-0.38147819080858303,0.6581581415777908,0.0567888692060727,-0.3222016332180236,-0.4981280911135709,1.2411181666466649,-0.002465938142376024,0.7981214327583639,0.6966771424594869,1.0028602000862312,-1.008059923089168,0.0010048039510918978,0.05492785590725924,-0.018196839970937333,0.04145161823720227,0.0743190185540827,-0.048194179891426644,0.016593239687407994,0.02666796136160793,0.0012637708508184144,-0.05562655067383655,0.05265715140634558,-0.014513740265934367,-0.0174486007598207,0.060894740449487166,0.06280378088135012,-0.09239995388387609,0.047036348771146916,0.04001362119288617,-0.03338043611017479,-0.03635332726416893,0.03733640142322063,0.04005711882333942,-0.04580836151993703,0.059704527381631685,0.046144728885895755,0.013823953920643759,0.030844101909536827,0.04109607453673789,-0.0035529612453674203,0.002257428207230076,0.026491133237699627,-0.03809906860487109,-0.01611603672122321,0.09024857711864828,0.054402921107440605,-0.04430382651226543,0.03660862641862615,-0.057291110755651825,-0.03515401432465551,0.02708651973691928,0.021679506347782956,0.007140519788037837,-0.03405227690661473,0.0314683883096991,0.07259733345685343,-0.02731244844206238,-0.012361780873817684,-0.05630175657733337,-0.020896329440175943,-0.04210730607948592,-0.0077410487775691535,-0.03268840265417122,0.041465405688624786,-0.007805423047494119,-0.003372359786414712,-0.06835001133590472,0.02588422194818691,0.014326130801591579,-0.04102357465035136,0.0000667613253578008,0.006531329858578492,0.08888188459325913,-0.030367072641686726,0.0550293307025199,-0.009907913816496815,-0.009246914623144645,-0.028904856894882338,-0.013290000270880481,-0.03832438334056871,-0.04347027175556477,0.03735394168210858,0.017083910041302507,-0.001150435018496875,0.037565097433516006,0.02200651442331783,-0.015519454073009756,-0.017730274717223243,-0.07996333493799244,-0.041953789279329336,-0.04877217772492359,0.05034213008882671,0.10484148578872778,0.05075817229268913,0.04679547866139792,0.0510535549403875,0.002470218366174318,-0.005183178813412409,-0.015552745373644861,-0.030287805596265316,-0.033684861547159,0.023110440404570786,-0.015490275793576924,-0.03617903028025037,-0.03234065211504124,0.04701201306712617,-0.010807253222834325,0.002215824543310048,-0.027715017813725974,0.006334319243027523,0.0011449899625660435,0.017982628908494308,0.008175750244234033,-0.027341211447765773,0.013975386851309737,0.042080042338799147,-0.009008479292473143,-0.024840388056136066,0.0934650308236494,-0.038074195615648516,0.008734885369902768,0.015338815021021149,0.004327333512862691,0.05902297292918427,0.023030693724332668,0.06457723762456326,-0.0467967390535525,-0.0253720810712098,0.015504551372395089,-0.020974636118602806,-0.03274456134349906,0.05813484392588776,-0.09654811865775681,-0.05694367608512481,0.039289153866364994,0.03380375386842048,0.05096479481568842,-0.040299405137588395,-0.019688091910985916,-0.03542332007366314,-0.012591939198627574,0.03907170608627953,-0.00878504500887291,-0.06850836536316147,-0.014038118392494322,0.0865600435654154,0.044304845447719315,0.030021763099235925,0.00021852923508555288,-0.006534070824896892,-0.07909894228210058,-0.02824122864251541,-0.03300284559393866,-0.017718290789756144,0.039560190324804095,0.03126218867453688,-0.01678075705986911,-0.02169826556942817,-0.04192678494979757,-0.0506450202659641,-0.03243484930887792,0.010988898789922714,-0.004307648001488555,-0.005505011602199954,-0.005579777243975056,0.04655074793116265,-0.008006252217883276,-0.02223028016634161,0.0692310982175829,-0.020523960092784645,-0.06411435376402248,-0.009782399415302078,0.030883078150440252,-0.08726249899581276,-0.035451675226815124,0.02751206608579366,-0.0009421981994150643,0.03947256986707714,-0.06911181238618726,-0.03356374831306476,-0.06013235827369673,0.010011861610460141,-0.007583285340590924,0.016216698714793715,0.04022989048669806,0.023930682054597974,-0.017741404579038878,0.02713889263818876,0.0118140545478117,0.008175977731796551,0.015358307912611464,0.04850643566482216,0.01297532481292522,-0.03938427906904532,0.002941380121672115,0.0838604397195213,-0.00991240741979348,0.028615376443290062,0.0031434261917793107,-0.002178961317569966,0.04725075376944121,0.03707853233192757,0.06245652162357973,-0.011239504753460427,0.06364848586421239,-0.0011440259439539923,0.014914306215417308,0.0025632589090505385,0.04317057949918508,-0.009649287211339126,-0.031203656556130235,-0.015787147943332195,-0.012438617648225462,-0.011451068358906559,0.03384011631395644,0.06583096337821939,-0.007626302283557526,0.008837673936130129,-0.02500135273777826,-0.04890268391396579,-0.013684061668882534,0.04878555332333638,0.021899689715533018,-0.01957043119053022,-0.0017776917680091056,0.059894591728183504,-0.03664727568487307,0.07144467361571025,-0.004617381471047141,-0.05617107760244149,-0.0418325871778505,0.05259686840020853,-0.02821307994382267,-0.019079183797354522,-0.01696039695017618,0.03453874440935174,-0.028016376636900212,0.03018454534868767,-0.03563890572057203,0.020034767452287768,0.030025543939888828,-0.01877256964798642,-0.036080564095028377,0.03172469992577881,-0.04131401567482026,0.01688592978315714,-0.0347080281187586,0.015427017879358686,0.021906193336594344,-0.009841811152591624,0.00742810116653856,0.1093446847042572,0.010804203009770159,-0.03216388842058584,-0.022392465953216045,0.07331052799917537,-0.014559013276903116,-0.028387924707242274,-0.03065621773926482,0.007319716117020054,-0.03076780661439056,-0.005980828123422863,0.028694568710875484,-0.002789640341046566,0.101427159812744,-0.02040802006221373,0.0012643538155861604,-0.0638886488463208,-0.04332227934831988,-0.05448435323950098,-0.01743980450405302,0.03320711019987985,0.010595683168619665,-0.0011643923385934278,0.07632719315039027,0.07129590566939026,-0.032932292896315794,0.03356514834879316,-0.0024613617121336724,-0.031796257400524386,0.05138992441961452,0.00941550812792696,0.013129357891505032,0.05715834573337738,0.002853281080734439,0.07554614797848841,-0.01631320744932095,0.03851778183999047,-0.014969980684399638,0.03442324999672777,0.04475111466955205,0.0665683252387235,-0.01262188952302757,0.010642841044465643,0.03963875414913263,0.06485088440379058,-0.02343250358320595,-0.009084410402040279,0.022556751372205804,0.0003520238489155705,-0.007441726882132834,0.010795236481301014,-0.050882127968994904,-0.010474847296924028,0.01810931771583672,0.06038080126294359,-0.047207983895378634,0.03823792383240672,0.005077882059808731,0.003985589121041181,-0.021005603733447408,0.036992853908775124,-0.035228225342037726,0.012325321718749442,-0.02765458061282008,-0.0000616013733052347,-0.09490062346677532,-0.04563573559601041,0.009827915158584877,0.02969879603141976,-0.037187930535915535,0.031966340036720164,0.016049457249207037,-0.07154307799716367,0.08675270159516515,0.010033571062661164,0.0435629262830465,-0.06971783004230324,-0.06961752404097446,0.019251024322637048,-0.04678801686251679,0.0314604399050218,0.03344917714870599,-0.06760864419230277,0.018513842657614625,0.01857922445173571,-0.04332822349267508,0.0045018805945622135,0.017202369068601717,-0.013917810284907699,-0.0030852368484457155,0.04465678544835213,0.014173337387324562,-0.03513428560058959,0.007588898559900274,0.010357199069956125,0.021522286230429937,-0.009735911450683383,0.00925269392356903,-0.01266717957307356,-0.003469599191379934,0.04730853522674065,-0.060376619612562264,0.04463378483916834,0.07247602098141306,0.02278588376286757,-0.021376458063511787,-0.03428506062732731,0.030988802615276406,-0.018574588538450218,-0.01287036555486765,0.022506708524393054,-0.01313583223979735,-0.06879429030437768,0.028917210244510536,0.15856097145390186,-0.0068513538705637375,0.02535778235182209,-0.028159939350293393,0.025057324160314247,-0.03900834891176681,0.017189107211743146,0.004303545276729332,-0.04579164363296641,0.018296122391282244,0.047486097835413035,-0.008602914229734717,-0.05744359908242492,0.011658115361090373,0.056606444735019246,-0.011298883214073553,0.03622365994846742,-0.036403292490135325,-0.0467591486785454,-0.03866687517364239,-0.010178060722327237,0.014230434039502386,0.023694602428841322,-0.009118602325731645,-0.004371370688268478,0.024733552167225902,0.006712540500010717,0.018208059401405702,-0.03477225024121144,0.0320147452338286,0.06426297640455564,-0.01016570380235056,-0.024084624594384773,0.021186031064869937,0.02024709692865764,-0.025266131415926592,0.02742087327783577,0.03311492519887311,-0.014976505978615402,0.001321235433675252,0.09173291312336294,0.08159196897623344,0.021502269352439058,0.026998488908870844,0.018032484530849754,-0.011259932655234516,-0.01679456939432048,0.021467901935940538,0.03868566410773441,0.05141949050775711,0.03295953297965128,-0.0038184828118971075,-0.019215922929647727,-0.019685825283645937,0.006015459378203936,-0.04159636384174744,0.05210526234895693,0.020853407320088342,0.0015969969191641984,-0.005373997147332709,-0.010903388487467964,0.026438718438252143,-0.009536545092118414,-0.09766226169549383,0.03086903356678853,-0.11282368099707306,0.03680839541463179,0.04361980788295744,-0.014202158117664704,0.06650574899816965,0.04958128735046164,-0.023849780731835527,-0.023019492151804058,0.01915863076109994,0.04566454181502641,-0.011306126631501106,0.07203684801567772,-0.043768946017762704,-0.057034444093023585,0.05723046674822787,0.07217585027962167,0.00020039239964847466,0.04511084578624714,-0.03347725692306166,-0.04320524243663152,0.020883347286008696,0.012687437165862403,0.04598694294564647,-0.012670908374629851,-0.024969780266063647,0.11419189532787322,-0.001348136084100113,0.08238953498882981,-0.06546255387875587,0.04606770121778941,-0.07758372311267571,-0.012833553582351272,-0.049785450022624404,-0.03884220689243422,0.001777663148446846,0.05273692793981216,0.0015872590270081086,-0.05508960252299299,-0.0005183165889357946,-0.013226247648130747,-0.05840606728862398,-0.15441846519892174,-0.028711629411320133,0.015243529582231265,-0.027030898591811754,-0.05053029967231852,-0.11090332029511064,-0.008955968288740923,0.23829267820359606,-0.08905375207860582,-0.0686491206546447,-0.12492157417164021,-0.058077049918587274,0.13342045136006894,-0.009725748175900776,0.005761374488865066,0.03892129941314737,0.07801018732150174,-0.09729880587396622,0.027254286796668595,-0.10600510253750096,-0.07321546952492909,0.020817438335389248,-0.2122618379259504,0.023092793789936027,0.4596994878068753,0.27907596779260146,-0.07294656572016314,-0.058720995641707636,0.08966932901818606,0.0024980482588000245,-0.37114207637984226,0.12793578388107668,0.42313433548964896,-0.587874274924105,0.2455175760286401,-0.7355566398479881,0.7057439106417406,0.009443213018520535,-0.7051344753559621,0.15276261120851958,0.002219374002112213,0.030664790714455433,0.021032056052849482,-0.0027690525085135756,-0.0015488107683746973,0.000838138599530372,0.013570852536696864,0.11332975591698433,-0.05493997504565788,-0.08700909945862365,-0.012609066705481287,-0.014928329286541952,0.030095442104380338,-0.07939848231411217,0.038320005526070684,-0.04106409660391808,0.041795532336512745,0.08503401573528362,-0.016999084624737724,-0.0067217020701737205,0.023748246379029964,0.036068856253472545,0.07251571489110054,0.016086238757860284,-0.027286196295149286,-0.05785741651372523,0.006932489713687151,0.03304843862066547,-0.02911081346853233,0.03923770734909396,0.021896299716555243,0.007741768146730406,0.005517128516645369,-0.0466098583460882,-0.00974432604839453,-0.025041410674644642,-0.02827495929183576,-0.009855698996537538,-0.003508285589403944,0.0834546735811422,0.06663684600513461,-0.00874880062972344,0.011766779183897973,0.013394258829073568,0.08330035109751566,-0.04141049198654823,0.04468206123431509,-0.05664482125372209,-0.0665717042081241,0.09250850349441442,0.02249873798290399,0.07478150138801286,-0.0047938158035003104,-0.012251860948845764,-0.0004390263146332137,-0.004421817209738407,-0.0036604049697059457,-0.022152487585805937,-0.044611756893828514,0.045954754200605824,-0.040218787609101955,0.05226073367983896,0.07971783580571803,-0.05466815339369828,0.00013711391912348496,-0.059470862635371546,0.08056676472282409,-0.015017147115873195,-0.09747682918345182,-0.007519211253800662,0.03830249251558967,-0.0476703080989293,-0.013661494242421818,-0.033442138834076165,-0.031221613354252147,0.04036747990047606,0.006760613104838463,-0.0329614484799906,0.026837333075104976,-0.006122243721315261,-0.05398107102722027,-0.035410213832542566,-0.0076165109675401434,0.04802922490879401,-0.01592426400306279,-0.020432060986204162,0.026415804646498453,-0.06926562291877042,0.08921546396878739,0.046267193899257535,0.08884055667377876,0.013446755911577063,0.002499665421455074,-0.06724104528183122,-0.04722672891786833,-0.022624078836708476,0.0084358289120728,-0.015216590428032304,0.0032558998380820773,0.04061218247872709,0.04623553143129448,0.044700110070823446,0.026201771478632986,0.014395440707861827,-0.04144177592198062,0.03451420912547889,-0.055927574721543284,-0.01442881177883431,0.012001881100486918,0.04154564216269641,0.04819508073644256,-0.017330680629905663,0.03944520461196548,-0.030384633903555332,-0.018948642900853078,-0.03536855167952184,0.0182806829696391,0.01132106046247006,0.0061405103047151004,-0.019670030864603536,-0.041646414752164636,-0.01597490297892359,-0.0405355323912775,0.009999913321960749,0.023316459334252373,0.01139204978406948,0.012982984288804024,-0.0036993467303752664,0.033634054421120975,-0.012535862800955805,0.02685550670767341,0.034397399010325604,0.05970320460019154,0.028325120785071118,0.013943878182902174,0.044802371804895484,-0.00859282721251724,0.022217657974430878,0.017180845591164045,0.009213734175978417,0.016888509672525177,-0.019848035514396522,0.0637533475881521,0.041923058564110105,0.026093211592131405,-0.026775782150895003,0.07933860629796621,0.07038767724065721,-0.04135937146218484,-0.01655677709899811,-0.032018614087863884,-0.04529761343447241,-0.031194340907515883,0.029506648489035926,0.09395335854590645,-0.015003837253910324,0.08483424600361217,0.01901948324443414,-0.04394903394859035,0.017036904485966925,0.06805166653185887,-0.035590230982599814,-0.015372215705370798,-0.012267170767325393,0.06085220355175534,0.03876712621774478,0.012124269718891375,-0.047048979957672266,-0.004246769507166546,0.04976577981523639,-0.013173826456564626,0.004312103142330872,0.011848295842887185,-0.011123397913208495,0.0075581912089990695,0.04140718149465775,-0.030282140426565476,0.017230001078105017,-0.05029710878051608,0.013946289999059575,0.04523800220330602,0.007814768366834694,0.0036022479906221115,0.041380048356161166,0.008313142716555257,0.023729315873352117,0.0388356704466525,0.06841779400908488,-0.02792375680799938,-0.03552286348124752,-0.03920095335167592,0.04594417316955405,-0.04638969655673308,0.05419882389012858,-0.044420604864962306,-0.00022477962125781064,-0.009310233258087844,0.05856266440852698,0.006257961111203823,-0.06452245038159646,0.042849421832033614,0.052951267199138174,0.024216142946677954,-0.0489034608903967,0.04651235326320372,-0.009637087222568548,0.06984447319632982,0.07961447485528611,-0.020507526925455537,0.013167557577041165,-0.028346753151981968,-0.056628899172278147,-0.028346585317509835,-0.007761309813795718,-0.0473780521978022,0.07979212642531476,0.028479510632388808,-0.031217373120122537,-0.002853306738991786,0.013629562610698108,-0.012835058820501429,-0.020772100591669573,-0.04206442391859786,0.026736205568248784,-0.0004568798433598273,0.052815265794259214,-0.021164716152824316,-0.00647939088036226,0.11767037349712953,-0.02075589514615788,0.0017191780591998128,0.04957185928390068,-0.0270675861683959,0.010482245187063826,-0.015911699369377096,0.021758674243630528,-0.03018452481892705,-0.06286170545638259,-0.03011709685628784,0.007333311431702937,-0.002242032445889164,0.03079773243134386,0.03716953921481813,-0.07627212643004179,-0.029581860804045297,-0.012805734827647509,-0.021724840797705636,-0.019908503020159438,-0.03344305823887231,-0.016333007851344245,0.035721245136878695,-0.06969398706402587,-0.01415990156531318,0.01278711349221178,-0.03566597472259182,-0.011292087293298872,-0.04132611305954964,0.011043380086393537,-0.0028351865473675696,0.01430116415045076,-0.0415955285793303,-0.026510059303563493,-0.011160902066933567,0.06788230286763487,-0.14798814733179788,-0.01748921113446738,-0.029763061925852857,0.006196745721345647,0.024683601507185206,-0.024459712257614674,-0.0040123649311957065,0.0647180658274857,-0.014081549212939169,0.008646877349982193,0.07328147326526648,-0.012980490855236216,-0.03826208234217956,0.04984506090990685,-0.034226328162631166,0.025033565490590347,-0.04322312724561604,0.02228746624080267,0.042101524445877364,0.06453399486042152,-0.014091134138300928,-0.0400208416174116,-0.0058760056268426265,-0.0323182401677456,0.008193036659419483,0.0335387480934385,-0.007773056954896555,0.008276148880063273,0.008122314838853536,-0.02705991501074447,-0.005386961401964439,0.012384584303442346,-0.020002865720394156,0.07509740753839934,0.026291407414437043,0.015243721258671924,-0.043205336983317674,-0.03803075466895185,0.014644082411338051,-0.04657040849926555,-0.08361280553181732,0.06772464719681627,-0.05624041668880253,0.043506251679391414,0.005241094290890216,-0.07338367333371643,-0.007918688785998303,0.041718870686706384,0.04283733143661692,-0.04975262109196893,-0.031245095354630534,-0.05841091399070254,-0.04873889802570696,0.006769967261221454,-0.03467075653844315,0.014129917512653623,-0.034499775812313775,-0.0038453309660423374,0.10044071183948733,0.1300300605741132,-0.003869117723464318,0.0756290254455293,-0.03000912593042193,0.0031344010223176722,-0.048568853388202035,-0.05234562174323495,-0.010580389337860993,-0.0003457616860556023,-0.007391923961496505,-0.015532679325501791,-0.025684648236539008,-0.01943222565411753,-0.005582435331866751,0.0743713771278384,-0.04549341333265676,-0.0893240398191046,-0.03815646842310085,-0.01732618324164945,0.07321117308815123,-0.10174714035336277,0.007107977153005425,0.023156840121150265,0.014561051543970395,0.08313452469239078,0.05320762034157731,-0.02789021667434112,-0.03261571755172061,-0.005878305132891418,-0.030013550223226118,0.06870472668008318,-0.012809454525803777,-0.00878297682840229,0.0039784695275634635,-0.0005702950473951875,0.0494482012133664,0.000028479504634034195,-0.01116751114731099,-0.059071309863898705,-0.026004054554125508,-0.003862288875468072,0.007626472593498509,0.0010964049943634623,-0.06458151583417063,0.048296671740875985,0.030437315041651248,-0.028008295440068606,-0.027776554267440506,0.007112272538525509,-0.009732731060759506,0.03319515568107713,0.01700343199920527,0.010221464254683137,-0.022880427389211654,-0.052219614888530635,0.014412591272329207,-0.05526247484495123,0.0464517981526349,0.016562135780680828,0.10972347193170202,-0.030104715178775603,0.050944572390162486,0.05626248054736078,-0.004498966097690371,-0.009510421155805514,0.006021169169429608,-0.0552441811911399,-0.07091441481798766,0.033900147104388365,0.015787522602063796,0.1047058292810868,-0.002667384607399397,0.04316550293809814,0.0037395347656266624,-0.039721697306582246,0.005869945489889727,-0.048355891627636906,0.0010094665965504693,0.03568430960084212,0.042376842822614155,0.011736146917347864,0.03420408041194105,0.005353873690053805,-0.045816061499440196,0.025304742840183452,0.029958178292102875,-0.010238602177654125,-0.0048485437072673,-0.08601372973328787,0.012750589715395633,0.004025438995179564,0.06853894300374541,-0.00963750802318945,-0.0651308989158254,0.1198962394699714,0.06501431282834218,-0.07367916559748422,-0.07232635898797862,0.08771026627900141,-0.013002075971638691,0.1010056558678286,-0.02250512769737755,-0.010193149210839102,0.009217173130580182,-0.03214440269065488,-0.0120054245248732,-0.06521456610391078,0.02440425974307428,-0.004950596383746754,-0.07411068008321724,-0.018774730465329115,0.07032038916182774,-0.10848961483089606,-0.1038049261223486,-0.02489714531970967,0.049197744029450506,-0.07669635723926017,0.0043517705623954735,-0.03290831568086592,0.025300112220210877,-0.05905062472352795,0.10536194241761361,-0.07924825563938909,-0.028365926584771196,-0.08716013773211748,-0.035198407260439095,-0.09560750849662393,-0.011257025482838242,0.01663701502310382,-0.036320305689361045,0.006498273461267555,0.19517495121084766,0.019930139037128567,0.042030334455049924,0.07623031483795031,-0.0548665917765546,-0.040108281241204476,-0.11216099684043822,-0.23840455449061002,-0.2051455931557951,0.02670193895902121,0.08605586119900134,0.16610155948205063,-0.22300358584933655,0.0034363318994671613,0.14075601933599632,-0.09444512610448376,-0.339623915640246,0.04560101432113521,-0.16683991680331267,0.34604488610450124,-0.1885242001734276,0.2403734204265522,-0.1298546592647293,0.06242165493753158,0.1711031208244369,0.14686735221440048,-0.3438976857240862,-0.013098906867065777,-0.0028931645941335463,0.11491066318237067,-0.39426186855078316,0.2879625299638049,-0.026388191605086417,-0.4659761495646834,0.593724894734624,0.4852711036378302,0.2958600258729044,0.10931625750383349,0.3033694994532941,-0.5574676567707821,-0.28266348247570733,0.35858714914854023,-0.09002333431911605,-0.326087522036094,-0.5115500544434148,0.4077362123272609,0.02360425147433032,-0.023043591880767544,0.00040555692854627855,-0.06392757249563101,0.0037344398981521408,0.014533925690944716,0.027239374201536246,0.04518231408259692,-0.03603665177696909,0.015612969226640442,-0.01020158839316318,-0.07910852800136749,-0.03576206427324006,-0.017000229994436747,-0.06837657332011109,-0.09085840938436546,0.06803124653660203,-0.055618693571070445,-0.039956871534075185,0.07205476142626192,-0.035808144734583915,0.011660529118521185,0.019507290228509385,0.0021881595731666555,-0.03471057512457786,-0.039935618525385755,0.04012561292952662,0.00849355238976445,-0.051044391310181444,0.024848488383387896,-0.057182226114930734,0.07778647616421391,-0.015072988951439647,0.004558225263436317,0.015275168530498885,-0.07071648557965723,-0.015096500636639369,-0.022079075406185287,-0.07528525857956332,0.055132006117014395,-0.11550142404673758,0.0019358009934353228,0.046531410393374016,0.007510840497854977,-0.010216996530863021,-0.09207387958869516,0.06599662036105768,-0.036194956582073036,0.007122596925999793,0.0792019997512243,-0.0028323925613843643,0.06791416068247047,-0.015360352041422373,0.09228640319605702,-0.12237991661994062,-0.016498791130238114,-0.005267919354592812,-0.03056775352239477,-0.06706582736080498,0.05476189966724591,0.0658333146016476,0.06348550569303835,0.06332251708546853,-0.07718044131696503,0.0805022540168554,-0.009292353076716242,0.0744560562060155,-0.08541629671524807,-0.04574229543943916,0.018587816664516258,0.03850416450005314,-0.033090792189446376,-0.025359342021566027,-0.0256791077370638,0.03257736300609298,-0.02265129633205644,0.05893981485818279,-0.07048506633376556,0.00579431796641185,0.09116674937014631,0.026127971620711853,0.017770104837209585,0.009689131580601083,-0.08279314913298068,0.01847842077431528,-0.004077487260267357,-0.03073696519087584,-0.13662536309425885,0.06493563305228425,0.03683187235177592,0.035371635908005135,0.04608093658316913,-0.04272695039863601,-0.03033703500900987,-0.0016544983885001016,0.016850962979870838,-0.025522208255756094,-0.033160134064576366,-0.020859810045666977,-0.01059958474569418,0.04995109996921703,-0.023834415150735453,-0.023285660728961103,-0.0014806864769264167,0.01376095577869749,0.010424467568445478,-0.010524149499302372,-0.039796805099123235,-0.06480430105209166,-0.02528307186091774,0.012372757300283175,0.029024967926035077,-0.017555464864614588,0.027823435805316404,-0.021143609612882277,0.015125732832655395,0.017268583387769154,-0.030460567497013966,0.02015819537310605,-0.021496965863898054,0.08106171952669688,-0.04807897111238836,-0.027421739958162123,0.0791600657699545,0.08039408820607151,0.0023051569358143427,0.049381014504498597,-0.06075666642773558,-0.029786941635107842,0.023488055838797678,0.04066742117035357,-0.04144894825138832,-0.06412973130949232,-0.005005070752562595,0.026480385457229957,-0.0004849869057230894,-0.004252775289499229,-0.03221340044440157,0.04177004444881162,0.06486003018476467,0.04742076104261266,-0.006511631779087663,-0.04273537513335203,0.04135928907429935,0.049436631069795546,-0.017069868672449508,-0.006908115481213195,-0.025917747636168,0.010477335112991433,-0.02583699278849672,-0.017909717579059313,-0.014152365881982307,-0.07391980736194723,0.009195081179776748,0.03285505330952837,0.01524440426489437,0.010760634620241,-0.02445463778333999,0.07112285624754551,-0.03861502336601409,0.016553025431589475,0.09903975309599547,0.02762324861426667,-0.022386857169151494,0.068253929270788,-0.03214694300481637,0.002889653795731187,0.04333201325528496,0.008461894528166312,0.06417927857391319,0.07027541296742064,-0.011382088402590385,0.047661851984773254,-0.005929687309637048,-0.024806983712978764,0.06874185717645727,-0.02429633347464174,0.07471437963114463,0.03067611874482052,-0.058641848890657954,-0.027584416040137484,0.0012676695443749242,-0.031446605470591214,-0.01874273273751849,0.029986725841611096,0.009340487897073608,-0.059711963230239556,0.0014356392869029192,0.032132764780703926,-0.07494741603235582,-0.08215893609344338,-0.04673212009168554,-0.0894847319673532,0.02933474153181196,-0.014623911503217573,0.030466238980586507,0.03437359634756022,0.03495641692087046,0.04826881705600681,-0.05264872814606621,-0.007007252303920055,-0.05748535129765222,-0.028566911781655,0.01013434622490966,-0.11885266368512944,0.026942787541078688,0.029439577032600556,0.020748919077516786,0.010810121533323096,-0.11827491839524205,0.006120094266452925,0.025839551584948505,0.038048447290821547,-0.021996658841588513,0.046601309860114945,0.03042038126837189,0.07115163245077555,0.0540034791047191,0.00810515884158048,-0.018847897786692432,0.013345591692621695,-0.06567541794310433,-0.03289331206959886,-0.020320278233224357,0.04257168881997213,-0.0050262027208145335,-0.00011128028029755476,0.012512889295173281,0.04123898152141075,0.03998392922655608,-0.07984152127569455,-0.0016682977009145935,-0.004795447488855503,-0.036388507858541475,-0.06392835505102869,-0.03244356360977271,-0.041898129048291835,0.05214608724217397,0.012108573423014631,-0.01625310512763214,0.06401857341800239,0.0024531632339343723,0.0365874156178376,0.007695263178401414,-0.007056200912084526,0.01968036776659843,0.0013807674856110101,0.0894026722579887,0.04102804364582253,-0.10677571747673899,0.007759500255912141,-0.023855072671426364,0.035291944469586084,-0.014611122627589549,-0.07774378922228611,0.06516378216975462,0.020041240539827643,0.08660772388011562,-0.0013639933637590784,-0.04760019360273121,-0.018095565692620646,-0.017484581423327775,0.06922797251047086,0.002164546249649348,-0.06077619599573912,0.006228680434384147,-0.04082450763359971,0.04085160013083054,0.03307734416560204,-0.06467028475474884,-0.019274599847498228,-0.06458164033076001,0.01148504414541942,0.06426772228365117,-0.11692329776941565,0.023745679307966287,-0.02072246219590582,0.035782049228363616,0.004154177157661398,-0.07879626247248635,-0.04174205587977644,0.040890349564876485,0.0414373030961738,0.005768018066913807,-0.007774915459785642,0.05235219438973434,-0.016990818752302943,0.0036468761890957814,0.01051614986376351,-0.07073680350244332,0.008016322930967351,0.00043055562240830193,0.040496994325353704,-0.01414740211184817,-0.036630102759436275,0.018126837485100147,-0.07750549189826333,0.022705736651548035,0.06919522209771234,-0.08232867964489773,-0.025999714380073112,0.05244771397491639,0.054908485535282985,0.08131204547278326,-0.05077041334505649,0.015369264160656359,-0.056855263799986656,-0.0022179074295359774,0.019024651963388265,-0.018725207390013814,-0.018751275713527953,0.0345699739964889,-0.010476463962966942,0.04472940441358235,-0.08295921089997889,0.04846274497709039,-0.026302407336285714,0.017752491484377256,0.05374373786722697,0.01222537609909126,0.011339665636255578,0.024801698916421994,-0.08394724495782047,-0.007911746596053227,-0.06467389043042336,0.10514277200948743,-0.04283989440962118,0.03602373122635741,-0.05158767550998022,-0.06283476067124712,-0.05744906667435878,0.0646831669841209,-0.08315701956753602,0.03575003200599852,0.01147978728220805,0.07024218245206555,-0.049320314083860575,-0.022121661999827427,0.05298684152013737,-0.01740055402358162,-0.06974033886209702,-0.023621580639433596,0.00561312223277378,0.05708712805920464,0.06677100521605506,0.052081741311472425,-0.048622485502149995,0.08165977024891134,0.01738636512811283,-0.08249498393833105,0.021402038347956377,0.026861046755409925,0.032277743933594845,-0.03713695238443787,0.047143763708424165,0.010721041108006748,0.0015333930952162592,0.0046121672940964255,-0.010757405263708253,-0.0018312340000039248,-0.08001102933108117,0.019131236719961964,-0.01810484705066343,0.016088216758502038,-0.05499554794174236,0.04072040432637889,-0.12307324625894973,-0.026410269287208132,-0.013848568812232554,0.030663040137509017,0.1136276519249895,-0.04890563419249102,0.08493523777470412,-0.07689080905592847,-0.00772527073648965,-0.03803323091540845,0.018159187940198874,0.09774386248549048,-0.016769376992741662,0.027723213212566176,-0.0012357277792746106,0.056306477498701275,-0.014731459034600498,-0.005768625454911202,0.0007252636541830596,0.058796659948853365,0.010669910571473444,0.048028975989636666,0.017106764338156846,0.03604498006342794,-0.04577346019320202,-0.06336162596664767,-0.011640688999300557,-0.04278916754463714,0.04009130121557587,0.05113864062775031,-0.008592310707341205,-0.03214818607106435,0.017895667984624372,-0.06454180790024615,0.011398975453217252,-0.039720627542821185,-0.03259601189489673,-0.016797350340130968,-0.019240382375922686,-0.043220525460357526,-0.124735334310634,0.0075969872310452545,0.025377869281068652,0.022304893876052046,0.0029689049502334575,-0.04443122175204959,0.06307372333831496,-0.076488677492424,-0.06671449259049991,-0.059072012283518854,-0.027268778242277924,-0.07188316226302957,-0.020624618009631817,0.040536649943337756,-0.03867885764654223,0.04893139021976741,-0.007077900591819692,-0.03339965190481055,-0.04279103323930856,0.13185784344359683,0.08709750659270078,0.13175521881412616,0.03801051272517655,-0.03980785572892644,-0.13690365077770877,-0.004208803754565762,0.15453830588545694,-0.015025743255529855,-0.0684720046596512,-0.027715701167713394,0.085219201188786,0.09657003412014822,0.044874365251426636,-0.14330420184584042,-0.02563584622764551,0.025868218310158782,-0.04586118638231037,0.018519820063133765,0.048959856865377,0.03909399042917815,-0.06915319441117562,0.1290424103279577,0.09539048301465054,-0.1379142020525927,-0.0747835718763688,-0.08356284001883464,-0.03388176094552126,-0.03145634325387038,-0.0036592375593620646,0.12639693331981552,-0.0005712230351976287,0.02100759424615823,0.0624645355673486,-0.14361427258673573,-0.15921148224487008,0.25176620674391925,0.1368316275448043,-0.08126347141934048,-0.14249117648571696,-0.1429701700560161,0.1155920594086252,0.17918507555907967,-0.0026148527395914783,-0.13661617032142,-0.2688665082274131,0.1851786064392453,-0.030018901771966366,0.055902941969846,0.03952568307515013,-0.3586974098495991,-0.05130786795752974,-0.08153511598702803,0.09658635101500197,-0.05475918314028961,0.3880242578986384,0.5876331418875933,0.3650668204787736,-0.2235534471233004,0.36485886105499615,-0.31567201411001733,0.3414630723372747,0.03564201427188388,0.08231901444356313,-0.5082969613081528,-0.6258554281038238,-0.3767601329026549,0.504592659921391,0.3046699818239281,-0.44397186732239585,-0.4867218488583723,-0.19878867989879725,0.1495630952018305,0.42923362758417666,-0.6126897517974604,-0.0030412653930815886,0.06852262982181423,0.035779858708188624,0.023655032819627057,0.09389432806752862,0.028792800658708442,0.029229865240936202,0.003358097039764081,-0.011050462126521964,0.06024159548392024,-0.07274713129900517,-0.022068032720332448,-0.023130770801434053,0.034810784424930796,0.04547809233400856,-0.0066957549598358436,0.09986590184614422,0.024364604528808023,0.006889857144722669,0.05407035120827475,-0.008181683749520437,0.04350383255785544,-0.018631206123512465,0.07298450256267278,-0.025477618547680884,0.013870699920496873,-0.0012954330732890568,0.030995809295731234,0.049767215138215644,-0.021342688677610636,-0.02717153589545829,0.0031706187640696206,-0.01942747277005066,-0.030891809232821744,0.04281892019398401,-0.03172902543900117,-0.06393822783596674,-0.02803981988420691,0.03649249463433414,-0.012862550959920616,0.02521127918822184,-0.07646309924828357,-0.0006357352886770522,-0.01243690399163435,0.03390315797280707,-0.08677512966536208,-0.005872184743543992,0.053441539163872016,0.04765718285630054,-0.09998740102002977,0.006320149533632349,-0.029289274069272956,0.025285619839214006,0.03173565618066127,0.05665992989398878,0.09199184402214353,0.02887175648137396,0.02074485390972801,0.07671055104091319,-0.02841668038568732,-0.028605492741876952,-0.02486226852449158,0.0704948278861482,-0.0014329984844929128,0.08556140755092417,0.004797819527727133,-0.03282617281755166,0.006746846618883061,-0.029703059651765146,-0.016183764534702147,-0.1059924026332297,-0.041834954991157684,-0.021376969441853844,0.023228772799929732,0.00402757363315176,0.000909479564550499,0.01802671094178084,-0.0199620715229162,0.060453937575008665,0.06877841902484907,0.04557252237913292,-0.0019113800255764557,0.034007350777991135,-0.023565491736158514,0.012691435944040923,-0.008331537890261297,0.011863977107982617,0.00027400990168980873,-0.06658479621855024,0.02353946904646253,-0.05107399281270789,-0.007618882324696118,-0.05129547511751995,0.05802654546147404,-0.04943160233143569,-0.021427178702305667,0.03683572723226618,0.012365910672831382,-0.009060745439826202,0.06339518039907352,0.04059577791102162,0.044574618242513506,0.011803039862391184,-0.08317270725269828,0.02788716207516701,0.02501013379409217,-0.029205915119008205,-0.04801857786662246,-0.08912238688526733,-0.01902276100207625,0.069439283715075,-0.02669390397977001,-0.020637992181650026,-0.059435002537647115,0.022310720719758974,0.0497037900186222,0.08415438658508528,0.029523139600168172,0.0040383210420675076,-0.0370631904167791,0.014265315522838839,-0.03676987189850744,-0.06240340418442496,-0.07172247408645362,0.0019145296311768485,-0.04287696943933732,0.027225544705130465,0.05183556574019625,0.0412118219872508,-0.04061022563986505,-0.02260560500081365,0.031121889858100233,0.08379113878401442,0.051662610267174565,0.0627423723110715,-0.04554643163067991,-0.03301038568508621,0.03335378487244919,-0.0017140777207375099,-0.006128793228815491,-0.0000804941165297293,-0.08736762439595237,-0.0027210760992087343,-0.004320245795638145,0.07406315932854445,-0.047724727156036456,0.06792054893708799,0.000025656243065220715,0.009213846765337036,0.05204459340032459,0.029929922570625708,0.034463709281119484,0.11579197931377398,0.0021066142027512946,0.10139360260485258,-0.0238294395711766,-0.007761254209770175,-0.08834474370437646,0.003982822678570985,0.016761009982906437,0.019673358408555722,0.00608627206629463,-0.035907339728368556,0.09172090602841107,-0.026336020440344617,0.007295926744674717,0.022579747089835858,-0.05279643788103867,0.045115347331823374,0.03752859720060119,-0.00872393725238683,0.024403456222415385,-0.07620694415790116,-0.008419721172631591,0.057571134775183455,-0.002983239963507018,-0.03527931789706644,0.029218169122797136,-0.020275860048199625,0.052228204031980904,-0.022037997980273206,0.01975611959754432,0.08117076643627934,0.017798601865143086,0.03425513184366088,-0.0643101888657063,0.0077244354088458,-0.007806344771054234,-0.013964128674887114,-0.00170119768776781,0.010230144181546984,0.0026658130282825,-0.034166736745796344,0.017848458206347263,0.10690948483306546,-0.0046714657574799985,0.025844148865862126,-0.057275981132639694,0.03876372279282886,-0.036794026512157324,0.05713796014968678,-0.042255374147593325,-0.03841888192393586,-0.015021414773924482,0.05059189416695853,0.020744607836776067,0.05163663698650425,-0.002242053435216666,-0.022081471372902547,-0.04849126013150365,0.018883650926269903,0.02997294399988793,0.03687776454983521,-0.04097912196385645,0.003728965003657223,-0.06926098046519108,-0.007952424063836859,0.011628322190653738,-0.011395305173855005,-0.05813525469345203,0.009954306198138897,-0.020935309794493828,0.03813570472570954,-0.06376206556778023,-0.015317509732875767,-0.05808086385072445,0.12355845506810778,-0.07014563319919219,0.03762046964367119,-0.06918822847255546,-0.00836154996732792,-0.01678638109252239,-0.052020869413231474,0.005773106688228565,-0.0022451343999335036,0.04103972984090963,0.007266414711543368,-0.023376167261618137,0.02208437593255442,0.10196794965732048,-0.043742950349929186,0.03661622266944765,0.05635065194994973,0.04333258417268527,0.0007012442410604368,-0.018432655645471547,0.021748523114935314,-0.05519357158782698,-0.07698901599439241,0.030256348964092565,0.014653596969480025,0.003895551835377275,-0.03175588057915976,-0.0135281349911025,0.053478958026847156,-0.00574788315915224,0.0670361398020833,-0.03148671034519302,0.05470407703448771,0.0315713412625386,0.008033409712527934,0.04715143686584343,0.015713744244263708,-0.039170498490013285,-0.014601375028008437,-0.012264683451476471,0.01092027077134155,-0.00030837627965290697,0.029677044822942842,-0.02685599097207049,0.01721492760507362,0.026667398455645704,0.014538548226282068,-0.026353994007116854,0.0741122953868183,-0.0189950337319441,0.05015159016108915,-0.004999568643564699,0.02455263979702085,0.057968461031305464,-0.01940312179228689,0.0014782586852141583,-0.021927070927106204,0.0338835543142296,-0.02262298418633175,0.017022663314955756,0.052486955271500046,0.010702184707873258,0.024756510430101346,0.016163952289429382,0.034194207749622244,-0.012531639752978708,-0.006278164989592138,-0.005925360985036068,-0.05500210796843008,0.023038312445109625,-0.027522441446347426,-0.09021434237358111,-0.011300595521080651,-0.04318368120944734,0.019773846686289155,0.008630946408699412,0.03868062861295851,0.03453099537950163,0.05302093318520094,-0.02716322683761981,-0.012249438811145838,-0.054034710711528544,-0.05488520406459646,-0.021294664639629417,0.05063498758844527,0.03858626926805353,0.02221823284650823,-0.012746969136931546,-0.008318154917495893,0.03517440176187104,0.016986482583647176,0.04824497495176745,0.045238446709239995,-0.048826030685462665,0.056605338587388296,0.005608224633437969,0.07636413484993641,0.03423536992357957,0.06799955830108483,-0.06370863603590808,-0.06506156459191259,0.0076237455116499155,-0.06873934101620571,-0.0484372544679734,-0.03971735472713263,0.018467170402337862,-0.060802118137547316,-0.018887270308908473,0.019570924293541223,0.034229196365947706,0.09333594521090094,0.029633130068334314,0.013263593223455484,-0.02606976260658268,0.06599552143776677,-0.016343386065743457,-0.13899594348104224,0.029356941825618682,0.05564143977439219,0.0072302221392262335,0.0268417282983307,-0.0479651240172083,-0.06697671948963452,-0.014911770153922414,-0.00196009443955284,-0.0445939846759569,-0.022373928988620975,-0.13176085102778431,0.036675630812269835,0.021927442518791775,0.014708864572559566,-0.053938428702683235,0.01627326119360616,-0.062388458526406905,-0.018623278269393813,0.003472414612544548,-0.09713272586059328,0.04728195082148013,0.05438033705360962,0.05070353821500821,0.06493051518098246,-0.019849412266594004,0.008195252692433267,0.05538087183088054,-0.026225232318318765,0.045063114326654365,-0.0692183052435131,0.01709770654139992,0.002876321278494004,-0.011159155452739633,-0.09552359176390307,0.03517702760613958,-0.03719652845359426,-0.03967051597705847,0.032435431690903904,0.026414917825190117,0.010512430866642015,-0.03458108766482689,-0.021866307893524256,0.03013359507940324,0.005121010065430753,0.06548663087437209,-0.1056739501559163,-0.10730215947288355,-0.013320574577476317,0.09002854251687162,-0.031382445530610106,-0.07854905303798483,0.04258476635680327,0.0071776659360238875,-0.05510104826721794,0.03891353303120531,-0.08231985573571819,0.005180940229156456,-0.06145553516448272,-0.027026542006119737,0.007899491570554355,-0.010062353285951708,0.007609366316859725,-0.01812915012825869,-0.05254978904858512,-0.053491489358114125,-0.07549977368639228,0.1642394604329363,0.08015475463153673,-0.053901461792782664,-0.04564408692244051,-0.05568791130380322,-0.04355714567399752,0.019804338882458968,-0.03881661606295766,-0.13753154476681556,0.033204359541012855,0.10322046904007288,0.09569135165319745,-0.09460500694864103,-0.03593832361651626,-0.024095416287201646,-0.1050175456117414,-0.011649415284644807,-0.004955778844075587,-0.02310269751228493,-0.02753963506342645,0.04407961350272584,0.012098745489132926,0.042993564245825164,0.11345753622761089,0.005830266503008759,-0.09886888450534799,-0.03590067174356353,0.0908915575265941,0.003125517901084381,-0.08399783621391661,-0.02082347335196822,-0.06542092456026374,-0.015210049078228304,-0.02144184405140904,0.07574794038619623,-0.09599116792559274,0.01760022129835219,0.010299438906971206,-0.03130890038016281,-0.01972023625924493,0.08715244184666529,0.1091293805857851,0.04392689761674361,0.009860819847260867,-0.0290728179616233,0.05177594059096711,0.14052363516050798,-0.040839450016616395,0.026636053353020044,-0.0021396143032139103,0.1856517809346415,0.0950867149722936,0.1544363951448328,0.12501730043190018,-0.13485214407888838,-0.23454186243387642,-0.26299494695310427,0.14289217205765375,-0.03597214309834089,-0.07077426709668443,0.18584063766703343,0.10961413300429174,0.13448156252953697,0.4663694618668352,-0.2594761446416261,0.39486389471484307,-0.03427406083587257,0.09587194969725064,-0.09740597854577975,-0.28518798894092645,-0.07175861007310828,-0.1197513893578881,-0.014091249905781481,-0.1396492254837614,0.13927304071322427,-0.23377122341117304,0.26216398007950004,-0.6081921952698054,0.307849140883035,0.05323073389862054,0.27970160713879605,-0.5493242619694806,0.0421750473963259,-0.45297772255713825,0.43835109579654896,-0.4498522828230558,-0.4830422449749029,-0.25131629899026475,-0.34333860279725037,-0.9120210659106406,1.2211828634665292,0.03198145688122983,0.05038231476724095,-0.0958172174986566,0.043979268788027576,0.036571087593228836,-0.07085510945017649,-0.013261970127675878,-0.043761370875851295,0.02830845388859246,-0.04104972182203208,0.09622860582497401,-0.016104877704115558,-0.02654288716169408,0.0076145615317596,0.12337806380999138,-0.013301250628443806,0.06436518901815541,0.028714194227578854,0.03168619221127147,-0.04931059358576134,0.09316544264472555,-0.012790494692461081,-0.06682661580825867,0.007629107916798736,0.05700693304014502,0.023622869942950757,0.011021778765262573,0.025090365285787196,0.038514789448251305,0.01239110599566724,0.06678327705455409,0.026489038516184667,-0.024769274126392272,0.03872126378206268,0.03655835660731057,0.052525117345383905,-0.03815399443079209,0.08781302988764346,0.014414796970623478,-0.08153982013412157,0.05554728721911452,-0.00375613327569228,-0.05617571826478546,0.04786338270793942,0.04276092534494965,0.04101440600390735,0.07286632936264258,0.013104349447557525,0.04953747915233088,-0.06300428796796095,0.12624113342995333,-0.10098052766909377,0.019924567210415085,0.018048402740572417,0.05837627243732893,0.07572626658164058,-0.0834595821229594,0.05077727211250292,0.05612352274191334,-0.09240337559374455,0.02568041774185352,-0.009000908716590178,-0.08541285822181377,0.0526466719210144,0.024100888111219586,0.02072212426717351,-0.038419206642403274,0.06358416372794834,0.003495934024054891,-0.11187115607388726,0.0612667318205317,-0.06078483276898876,0.03200803882389228,0.11680094644972115,-0.061113561148126536,0.022839455234320766,-0.02287663377249615,0.0812365400878515,0.01361833907486195,-0.1060611838581069,0.04410859305153047,-0.05093696246963285,-0.04009181368561843,0.10901054052300421,0.0972474111854461,0.052467585047375496,-0.04491884903053648,0.05936113971580418,0.05204265767434945,-0.018228197394978204,-0.001706365577130191,0.039715830575297414,-0.026373144070805175,0.0446447603586895,0.0291274269800058,0.011210293158584883,0.00484046407244204,0.03899363978028176,-0.004204245245083252,0.030499550094588487,0.023857644179337348,-0.08262057919297246,-0.03059325830309604,0.007979648007636928,0.05261632305729767,0.011360021157311329,0.005809899056463571,0.013066871763730979,0.030706273642037835,-0.01207549632041275,0.01669400762539991,0.06339016824852511,0.010793151519398957,0.0433375092811793,-0.030233848220835052,-0.07611047980680007,-0.015257007192102223,0.0796295036810183,-0.02964946312641697,-0.054453305854713974,0.0705217778147175,0.02365744956110721,0.0031771237527045944,0.0810436938377659,0.03197493687520672,-0.011168720335003608,0.0032089859942268286,-0.009167931642873724,-0.010323845389945428,-0.08521952109508907,0.04069019133649242,0.016920570606420576,-0.012497215239166859,-0.02802409419221748,0.05639192157029499,-0.015117244133836005,-0.03527429891705131,-0.0786039767013471,-0.10865188073473729,0.03476877617191444,0.01695803084623958,-0.014386867915945388,-0.03356092057316889,-0.011664632133671731,-0.0049802833342513725,0.010090955559740003,0.02245235009299397,0.048961929962857406,-0.006795031819452275,-0.030623126894552686,0.038639514677795125,-0.03011645281812699,0.04695007104233342,0.003318261254485395,0.006827073380410102,0.0130651817225336,-0.043409044816306204,-0.025934197279508527,-0.015541173406772423,0.046932608536724305,-0.011871008899310169,-0.01554793014351903,0.018613576143412646,0.046237448774465124,-0.038491984490575636,0.028792078994050035,-0.04101619188215276,-0.029584415698238692,-0.04141597997861033,0.036702603373238704,0.0495766608958705,-0.03110225759237,-0.014842186374843495,-0.01128391634810773,0.046209394176355084,-0.019377128337843483,0.0381180516025827,0.029589216735102397,-0.02157009669294582,0.007936963977415975,-0.01206004394499488,0.04813655778507477,0.04378124664695835,0.002311532640012286,0.0331757726346382,-0.04506485362659578,0.027682173856338924,0.02148682413636439,-0.02203897305567253,-0.012512614121039548,0.08735327888126748,0.0067540357274961695,0.00947513459230717,-0.022380486796133237,0.018188537647372698,-0.013241727460537967,0.05677309066121139,-0.037492936737443076,-0.024526404671472067,0.00761944085637438,0.025867570827621516,-0.015525458873733711,-0.0386411872426038,0.019019697726263312,0.09116439046225275,-0.07334842386596055,0.08616285138101352,-0.08557656811799735,-0.04492079455888893,0.004290436848947505,0.11149766147402514,-0.08295813039121876,-0.013922242388452154,-0.026290161201496257,0.06022194192343695,-0.01778825566717343,0.011756837008469512,-0.044561532184216116,-0.05419034139972323,-0.0469801723923518,0.03939546830333897,-0.020688224398561206,-0.0778048576157524,0.03737529259456975,-0.022769391541137954,-0.03783122744909036,0.11399240952102692,-0.05132576022323085,-0.09292056023249434,0.05287245018156126,0.022631081459171483,-0.03244678117320621,-0.01253791833490575,0.09188608414240787,0.024862322619812163,-0.010993855565855935,0.0921109704270757,-0.020075282144006935,-0.04286505237783638,0.006360553489254405,0.004597518459309747,-0.02565079483911509,0.027733919891982546,0.06419435283280518,0.04276696691658664,-0.024971988160735377,0.07467064253460906,-0.010905243920243933,-0.05890588759045173,0.008978862063242561,0.07653470544807006,-0.005324167450994566,-0.058217845392873176,-0.030033906496628137,0.044850665048104,-0.020328347962721996,0.03108514803396641,-0.05475461025013645,0.047281325897332825,0.024893895459420685,0.04993240319667866,0.006201544884343498,-0.01629561071630951,-0.012861506594468842,0.07392267795087808,0.025517514755043415,-0.011046120957386751,-0.02462833042755801,0.000016449110418234538,0.04875051359476183,0.059978718465071704,-0.03703554206834206,0.0294615725700705,0.09085723466686066,0.043611241832504206,-0.004273181288610971,0.05067157365029154,-0.07740384927408528,-0.054693410625492066,0.05886518700446188,0.0052531640600927115,0.005268008748945058,-0.045091783927309066,0.03855181860572295,0.08912089361422271,0.009388920892964283,0.03979452190430746,-0.0020707018960703797,-0.05194422794476982,0.041402458763723685,0.07911864387731049,0.05209766999391251,-0.03039137797319853,0.03913735661602583,0.005981994640875627,-0.023616367556507995,0.06983950124367119,-0.020898803535023776,0.056631484449499024,0.04485911085098673,0.07927980278309979,0.06651303370028451,0.003291940309570648,0.049537756679000566,0.09810970694758592,0.0564203064502119,0.021925145031724304,0.0017005256295192796,-0.09151285447349027,0.005186561004163416,0.08215781683860127,-0.044717193491879956,-0.06499572376113183,0.009006961697249636,0.10203444058387977,-0.07451774233764388,0.023204032753781943,-0.11326208424413355,-0.14312394525646077,0.08466638900165775,0.06514750291253191,0.016656506614310732,-0.028615265155842177,0.026571746110127175,0.11499574817755517,-0.014714788192247029,0.07955170512672925,-0.07117670458260565,-0.004690422758586624,0.05741035443292203,0.06689067913272286,0.0783196482236926,-0.012564886910350709,0.0708524722576216,0.04476393026856907,-0.045494213306689665,0.058955094472964514,0.004155356995541144,0.0009182594135275996,0.0918952029922248,-0.013056308899119651,0.07271551834132518,-0.03949954868465528,0.0264393502667286,0.15810948145420806,-0.02206576064610345,0.0791586003621808,-0.12386418296826505,-0.020225538121932656,0.057939346125078645,0.020075057746653895,-0.03381722392320232,-0.053689289016106895,0.010741395622244514,0.08754962430139883,-0.05315142548015364,-0.015461583651880703,-0.06544195843045579,-0.050790791749414234,0.029186575256951494,0.01741590855021016,0.0033629990936505094,0.025435974743972477,-0.05998463545217228,0.04438599184240498,-0.05046083749875814,0.0014511645071066154,-0.03482055941420174,0.015569158971886043,0.06604060725162603,0.0000983040608321428,-0.019543346492808072,-0.02643099115169184,0.0359313994423868,0.06763132627245323,0.014075191087651439,0.09128372202888779,-0.036823932583634915,-0.026185575478692946,0.01115984118825929,-0.02040345072373477,0.06786618274548799,-0.03742937140371706,0.028010729227011335,-0.009853944221883033,-0.050243515145200625,-0.009656931525590481,-0.008187774973101627,-0.10363381397672193,0.0024501244465108007,0.08706751908620122,-0.055338117270022504,-0.06416948446294174,0.030770891231940666,0.025475945070758767,0.027772574508106565,-0.021495271052549076,-0.05445843814409444,-0.05951540588223956,0.04964904624740139,0.08939586500633638,0.017306368335200308,-0.03792455130868164,0.11500921430991083,0.039161241198658894,-0.007047762394370966,0.06433246726433983,-0.14263307220554974,-0.05642803529000809,0.11068098785773717,-0.09112465419733996,0.04484955833866806,-0.05487260654504657,0.04225274626053118,0.06106510216618533,-0.008722815643966004,-0.0007999097508099189,-0.14142377094822836,-0.012066036759918854,0.11046882457658819,0.08849740379341994,0.05147842184207723,-0.015400497396238833,0.12304989940585605,0.0206944232214431,0.017842851023995857,-0.01693872595248418,0.004950627404995826,-0.013082557021629913,0.09725678714506292,0.0784776680228552,0.005161968981754226,-0.006488321424491877,-0.0810751063275725,-0.002255081231767816,0.04709896211649454,0.014776107289362798,-0.13105434361997434,-0.08527618508002006,0.09816759677095661,0.06741574693068379,0.042472782937263844,0.00016562447379552675,0.06177802866334594,0.07716604979938156,-0.012634013846754607,0.06455321394602438,0.09339966125176256,-0.1468519440535211,0.10654592876829047,0.06622517836526001,0.05218656480596113,-0.06476343267037331,-0.04255292205082013,0.05558383674135983,-0.007650262661991675,0.12510435542051662,0.06076169463629566,-0.08428397126993292,0.033778298735260025,-0.01868419394975623,0.07756011341172124,0.09727425975035582,0.12800491109409462,-0.023182555253418374,-0.12143997275410094,0.03919896649122697,-0.02045366828652883,0.07495445610034684,-0.023081631188645074,-0.08172772711740268,-0.09161185712229009,0.22425545175706996,-0.09159307561896665,-0.13570336636425423,-0.3022554239144659,0.05789896871970563,0.11167889121503617,-0.05067722288738146,-0.03859573913773253,0.2962333979490048,0.15472479693789112,0.0813531616122689,0.09993981356651271,0.16412587572597423,0.31370211386672453,-0.09145606433333898,0.2882334552176194,0.167353636146622,-0.37180865303634475,-0.2836703427356669,-0.4935434464190394,0.07413429372168431,0.383681451183123,0.002767768397826719,-0.38118282323631475,-0.19215342229912427,0.44656382548471113,0.11350467150975317,-0.7173218983106215,0.06977974371870299,-0.04065673924001102,-0.00848270617315096,0.09480066334470544,0.03688950462859102,0.044367830299600404,-0.04340757220019959,-0.030995563420215057,-0.014180593435459767,-0.032093519454039814,0.11649079031210974,-0.029070056959817462,-0.06223012744791557,-0.023247200909249525,0.04427772190906478,-0.05073949373994141,0.029216330280130032,0.009893558032660031,-0.006476163507136357,-0.06540100922073985,-0.03725896133562501,-0.0005731187777522148,-0.035302664902255296,0.040959709017636535,0.020943310324606598,0.005792550295750106,0.06162414951132394,-0.01714628612189708,-0.022961809536614728,0.02830705557906148,0.03259884029823042,-0.004555869858740759,-0.04895424444340508,-0.021901459743878287,0.08843637379324067,-0.04445225365563273,-0.062237679582848926,-0.05696805025320476,-0.02548349101960372,-0.02910600634385729,0.08900484416580424,-0.006293932476807693,0.00421663511955262,-0.0034483526579477067,0.03169495167324056,0.040565593484564226,-0.012276858882115712,-0.0188554356043399,0.04111457771807509,0.052019222216047635,0.03467788902913696,0.02962193120429488,-0.060702690489302345,-0.021173346325024933,0.0518975030726773,-0.040935838487144896,0.030476795422441024,0.009607591568140474,-0.012229196148571224,0.012253836702308778,-0.019934345794978603,-0.03231530642043919,-0.026972170089811634,0.016058020846404418,0.01893942382970235,-0.07749283596596987,0.0221514406658238,0.02802988387249796,-0.03245381365391603,-0.007808620896349427,0.04509511407817531,-0.005880385498595895,-0.006532853951994294,0.04022211146208752,0.029483975286240117,-0.07142590812781947,0.024115783508215156,0.07258359604013512,-0.01884011668308503,-0.04292419417493303,-0.00576664634244069,0.003226120741038326,0.00003766157314922688,0.03226014962641683,0.05144995242080089,-0.06328944997605553,0.028916558941267902,0.018723870155143093,-0.042763302473615886,0.021777047022407302,0.009543894703151557,0.02065093920202937,-0.047992682038584644,-0.02971538543970733,0.11139776547671011,-0.04116156042547984,0.08390368421610087,-0.0015344868648023606,0.02120434387239863,-0.016427888266585422,0.0008088732387510481,0.04818460093597314,-0.06599640835470418,0.011968535922478296,0.09134622861085098,0.03523267838111996,-0.09030191142631128,-0.049360671255947404,-0.009305791607137967,0.00755914812213704,0.03854999432267362,-0.010963480149072162,-0.04004720405724363,0.034969810341369874,0.01663084659299044,0.022419739902744127,0.0044504089521381855,-0.04412690463433081,0.03612696729087384,0.04370949998457653,-0.012974266636372585,-0.006108126091400971,0.0031716750643288557,0.04376255068824644,0.05677372155536893,-0.004801580344044814,-0.03176515934382912,0.048539311675455894,-0.0024304877823680716,-0.017980386745038462,0.054785253310420334,-0.04061742105327686,0.009403999431531564,0.09209496036358453,0.12231114679328897,0.07241798632912182,0.004651808581910416,-0.011484415345483329,0.0009717222451551455,0.010671272287989402,0.022528917329628008,0.052814244986234875,0.054402427842175416,0.03205838247729155,0.08861119688587654,-0.0862680947319344,0.040444098439932685,-0.0535668071676942,-0.019199359217574295,0.009713024588657776,0.0852406631458208,0.006209758637207195,-0.06524540511991049,0.010426905954825275,-0.009000196895349567,0.06610428276943628,-0.01817300877836929,-0.01974341944408703,0.04290341127393191,-0.026599493323731748,0.047257429717764726,-0.06819439889237186,-0.011711269306919198,0.05653375537518064,0.024450558151238592,-0.03158999676607528,-0.036320002698848546,-0.007893485404374484,-0.0713524499012,0.017397777847795073,0.08885996660792381,0.09670895528907608,0.05927017998439554,-0.03070807348421065,0.07795142960842753,-0.10591552943961513,