{"Layers":[{"WeightsVal":[1.5572602530887072,0.49726887469320313,-0.61374802446034,0.08414976002619715,1.1502534204849937,-1.0409543954907123,1.8531959221245422,-1.350181292477124,1.7139325300116024,-3.981639228415984,0.016490858622560806,-0.24945783812397673,1.0599673359063335,0.6475414832733278,-0.6975628599131641,-1.8008710076485293,0.7505088704082954,1.6053854607852969,-0.3334510399632228,-2.5431647663639247,-2.6469068834302063,0.5697352096036455,-2.339507006083661,0.39386150354154514,0.0905345599998851,-0.501857430246048,0.9504523600438485,-0.6891344159947185,0.4630875931431847,-0.319544066440775,1.7693307769882451,-0.20124479531321568,0.30077764234432186,-0.8588961979434107,1.8937231896953672,1.1466844102789648,-0.7582430605263072,-1.6538418725553656,-0.3995767002427683,-1.4046754620376158,-0.7267691684389441,-0.9994251187390819,-0.09773058259643944,1.9355096426247942,1.7017846992241843,-0.46954975414959216,-1.8674532209637513,-0.48406325538038153,-0.7504412534669292,-1.5126610386952828,-2.103961246833705,1.9037155694976502,-0.9320330900173445,1.4352110560231783,0.7819703682391329,0.0918684293764912,0.4422188714725808,-0.5647840825146472,-0.8864710400586904,0.459698094560833,-1.876971349580444,-0.06970326241515233,0.3464860433398077,0.3955996052548496,0.4820931552400314,-2.374037946501684,-0.9560401058099273,-0.5811319279140184,-0.19257093524495675,-1.744322016590759,-3.280016756735705,-0.22091730697715267,-3.28949459565378,0.16371684780358997,-0.11731524740452652,-1.6511986153131706,1.1672289833380067,-0.9413184463630108,0.886354180887777,-0.2703963274585553,1.339324152577483,-1.9423283024543527,-0.6151053301513427,0.08962700312511213,-1.312434256476986,0.7915329139323863,-2.060090033336327,0.18176712605339396,1.5507130621250351,0.856283967247474,-2.866561714582015,3.419520675625456,-2.0860361497664752,1.2925584472325409,0.7829233989258347,-1.831287789491674,-0.31639607111087775,-0.38285508631764853,-1.9479276621253834,0.26124628777701575,-2.570500924755626,2.3322220989332028,-1.0863485316020314,1.0214641503642161,0.865692910788624,-0.1801510669532351,0.16010377192828373,-0.9282333041161217,-0.42472887702148676,0.512797755407844,-2.5905336069317473,0.13059845106817253,-2.548372660036645,0.4178509041457057,-0.36925390458221863,-1.2608669739051828,0.9491512548914997,-0.5867484905531898,0.8228251469491894,-0.07734480623002926,2.257292599219754,-0.5403307322509323,-0.3788841512075466,0.4815455417994598,-1.2422915218842405,1.5267104396070077,-1.341981234841832,1.7117855676934017,1.5044942319048944,-0.007537525092031276,0.631765643496821,-2.0185770726358925,-1.23358608544041,-2.6463985665864667,1.1693684101813249,0.6150101386526157,-1.1037675738658326,0.3323347288555859,0.09016348692512857,-1.295222896349274,-0.48817647431052286,-1.0609453698317965,1.5257784452117997,-1.3019616033915333,-0.3510443541420391,0.450903962332824,0.8084515866290687,-0.888176578072458,2.3145401089424023,0.7016936760485742,-1.19232025945425,-1.2099967609747202,-1.6489532213907467,0.5497765281838743,1.6525592581116866,-0.13919363333521984,-0.5369072091100401,-0.40029265379347195,-0.5917220422769989,0.4391281264023848,0.2884591014310438,-0.696755582585215,0.10449546688095077,2.1333963331844963,0.5407789662682803,0.27156681850637177,-0.17528627509896513,1.2467867297551898,2.698411936172552,0.7099843647239424,0.9037743810918025,-1.3298173789983492,-0.2430041301648604,-0.981044389057483,-1.8739359529123716,-0.9932715223510334,0.4950489821062463,-1.749988532687477,-0.33434587291174955,0.43419741124520295,-0.14490665580358983,-0.06348110932335808,1.959015882355008,-0.09712143970346776,1.3684608785678982,1.0573404251116039,-0.6689867904832029,-0.5803349750002879,0.30471293758133555,-0.7244387591890011,1.2822542895098912,-0.7817826789778504,-0.6579830122668,-1.4428908289085982,0.4104694813737941,1.1650452102661666,1.5153049025508853,0.6150676914914265,0.16459045221816518,0.7874207378065015,-0.8405221493566746,-0.09467210596067994,-1.7773507914398108,4.188218776993919,-1.0941206216116712,0.825098348776343,-0.3928869773706681,0.019023080186097534,-0.2061204011155483,-0.554136369838468,0.8440491139006865,0.3381876311898968,1.8788002213832604,-0.2014906095119422,0.6197753986861032,1.1694630561322723,1.5877060804097503,-0.860552143533223,-0.11842372821245939,-2.4276950676022135,0.5426984848970556,-1.0105873690907363,-1.3811412908598122,-0.1113365684143179,0.8998461499030013,1.0867854292899999,-0.47273401121371694,0.18456284109956841,1.8195140858621581,-0.5625332183988698,1.2007419778284705,-0.011862116671646335,-0.8279154245752602,0.25627963627478906,0.39170662926267913,0.27906463879744825,-0.01427160503094536,-3.361905275593447,0.7395134205515052,0.9810711608257315,1.1655008994917488,0.2512640505738508,-3.384532054387752,-1.019552572064163,-1.619683562280454,0.11397562039416786,0.3795004144309702,0.022947494287536466,0.19438713661310517,1.1082159480878435,0.5161742629742517,0.9663027583081097,0.017341474309133992,0.2707400716732016,-0.6610291937060666,-0.5712829588401722,1.1151363872956586,-1.6073360202184523,2.122953975606981,1.0548909535382478,2.126015501363722,-0.8215421584912987,-1.9327912886536025,0.7694752133440957,0.06677020716695987,0.3592334546149749,-3.1619860518901657,-0.3158798882242015,0.9788455451572474,-0.9058332716059447,0.8575796774884553,-2.0120718624000644,0.42390376388201423,-1.9334194416483326,-1.220849484349237,1.9846829559664068,0.3214866847608991,0.7576738760291668,-0.9811617183336556,-1.0195739118218676,1.062486443022457,0.5052332239178854,-0.3397191549443041,-1.0306770573759212,-0.14170635927525074,0.2374103385408845,-3.196225776371006,-1.0348334767101326,0.5983478876629759,0.3510251822064443,-0.9756568502850739,-1.7974660097660722,0.05607243648698558,1.1911994346199728,-1.2147679836938297,1.1102163136193164,-0.5048180307760226,-1.7756702009099912,1.5345213502205375,0.3641974531142809,-1.6829135307561793,0.18128408376048735,-0.11265004572216661,-0.1849609588977059,-0.4714554860563877,-0.06209297979222193,-0.7389814451219221,-0.6687451663483763,1.038849667825222,-1.0070253974681935,-1.8091382151312072,-1.4598153493580575,0.49223331407664783,-0.36546120205288024,-1.0683624466304855,0.5305848150582141,0.3158782054138743,-2.4716029154808803,-1.4664073338845363,-0.5565785654533707,-0.5844438817677436,0.6456031117400524,0.07215768724524858,1.0773151614775887,0.8441857622558632,-1.7411853651514282,-0.7659010455832541,-0.2605131251219183,3.665063880427962,0.48620238708672286,-1.5832554385273552,-0.2661653957736539,-0.8083580155410991,0.06079700028207519,-1.2100612766992256,2.344128236284437,1.9363462859093743,0.7357243864188382,1.3282866362851682,-0.3279994143834123,-0.8479084642895788,-2.2810769174271956,-0.11294588403695527,0.004136972569375569,0.7338847106349031,0.28225609906885807,1.8265009503523042,-1.118797379378791,-0.20929916559499626,-0.21761273869284742,0.3261731436024156,0.22780001852707724,-0.6929743691566287,-1.2851304411020075,-1.425152345361897,0.8680296615209353,-1.7487028777692593,-0.8771922084109194,1.66943663639593,0.4781381317472191,-0.9116920802038612,-0.21856018748724096,-1.0664114402655407,0.7826039025775982,-2.1239691919286288,-0.8181490001086928,1.2555923884042595,0.15795690428247344,0.9442430941945126,1.8261442624366295,-1.33785704799103,-0.2148407427119443,0.5524680910051583,-0.9570062920742172,-0.23726031255103341,1.0080930851816476,0.1067740741006557,-1.0685061554331388,0.2142532670345183,-1.496128315749656,1.1414191266458287,0.6689547734485124,1.0490153257240435,0.14224581889305357,0.2903673843994831,0.2996220520975322,-2.9929026501854508,1.7519913585888076,0.7774758083274335,-0.2608543760828999,0.3818230900392865,-0.05370210187528654,0.014896985414062943,-0.35544077447013417,1.4685285104886046,2.5611622306700066,0.12972713770486788,0.21110903271306883,-1.3492879136766516,-0.10572363955369518,-0.526825714333343,-2.12857694588443,1.7790938507831962,-0.6762076835304712,-1.6824778377697351,1.7678951718443856,-0.2656332454523132,-1.136380050164817,-0.8429844089748021,0.18611448889617377,-1.2651477073966622,0.9080508242846826,0.3573940524320541,-0.9696960600218467,-0.5023676516075867,-0.07105947505506355,0.3165579612599066,0.2936381181094305,-1.055569696886222,0.7926477340231614,0.7331831190889259,0.6662967377570941,1.5298661526046327,0.8379696243590079,-0.30270829578172287,-0.5609797576929427,-0.20845096463458324,0.4859259277620123,-0.810834072673782,1.626234596807107,0.7078747647738988,0.23818837656139827,-0.6648693574934461,0.015594403237648909,-1.5670085077028248,-0.19253923113977608,0.5523777388965884,-1.2044406775925045,-1.958171921573059,-0.0865435461606731,-0.2929274583996153,1.7712890161617416,2.785444485518291,-1.5483219258687035,0.3266697322058413,1.3581571592540607,-0.4298802198601286,-0.6387794594325353,-1.6607114102258245,-0.13280479199332207,0.593063404976321,0.4622389072203649,-0.8150351759536026,-1.587548888370984,1.2864821473069266,-0.5433262930358977,1.2888953248842436,1.8135672065188677,-1.0423420469045201,1.6373744605979812,1.7670867632221572,-0.016973121756280258,-0.4927422554212721,0.36612512489421933,-0.8627780553967298,-2.5303604749097626,-2.8141264174387657,-0.48271516087019223,-1.3395139323682068,-0.5708536532972339,1.5463602977652915,0.8287721343142255,-1.064366593004039,0.4070600305934415,-0.603859636810425,1.3906458963979451,-0.5131477103427083,-1.6380627595472115,-0.4565252531896723,0.28519068788025004,-0.026321341128033835,-0.6929147389001843,-0.43918831615535864,-0.08424275950575216,-1.1636487635317736,-0.3703404585932479,-0.1946021088287952,0.8259623983137739,-2.1113476780727227,-0.0010309972414455526,0.23381622066608906,-0.38929054606008,0.8207092185478878,0.21831550018577017,1.1393687295331951,1.7948625859175424,0.39263124347668316,0.3023825617466913,-0.6167240764064681,1.7558605145785782,0.6530216160159715,0.6244994865662166,-2.2546620634265904,-0.6170803487369046,-1.1769085801931574,-0.20917745470857982,-0.19622480987310215,0.29773672483422065,-0.7044444316113139,0.2696353298348373,-1.0199943914017273,0.34765777559179145,-0.38009889992945484,-0.32630342269980717,1.402828397332275,-1.0398055859600783,-0.7160752433109377,0.8460429705230932,0.5791997292539769,0.740359514171378,0.6865003556993983,-0.17775711556175638,-0.3739236101635718,2.390154797083924,0.6760341412970373,-0.8638844210055246,-1.3700995879163598,0.7344008490029931,-0.9399400742972266,1.241027121750202,-0.3783962860008924,-0.6507946271756374,0.4463823100335558,-0.3174664760024062,-0.2666917918429585,1.7278088605901032,-0.0050589962483802275,0.5069468859118912,-2.409047457482692,-0.613763233832885,-1.777049826335247,0.6139225480699048,1.3290844875810532,0.29865330845170773,0.6038611039318725,2.85865091353988,0.38083263286391644,-0.6331445103715398,-2.0036913845280893,-2.4321294944751064,-0.13335756239311772,0.4594276663026924,-0.6148042252070008,0.1740599506408919,0.11457787420298735,1.3309020002009508,-0.4016262626780005,0.6950883034244026,-0.3335140218360272,0.5541344758549813,-2.0420435950865,0.6825726092816795,0.6811791919162825,0.285974255128696,-1.2913041179606464,0.33450489253603116,-0.42995039804798135,0.2046884077212559,-0.23770739813302294,-0.16601208795069797,-1.161038284570142,0.6646821297397094,1.4308339150338332,-0.6936446278888244,-0.7553035375182595,-0.8135245994904815,0.3002374420332212,-1.309433052497004,-1.8546333672319013,0.014981658335629498,1.913962886069196,0.47079249458238426,0.9548845067689461,1.303207270238783,-0.8926282387797112,0.48850914544987245,-1.1893239027139937,0.6264329797980186,-0.5796942072757637,0.24557336996004536,0.8740262669934368,-0.5710433445682566,-1.0736072359030553,-2.1579478520491557,-1.2745562528748777,-0.30215508207594743,-1.4241682564577753,-0.18926503660910696,-0.9688224902351946,-0.7014056442419739,-0.9538532493807369,-1.704277344346669,1.7761157829355796,-1.6209995556967358,0.23799051089909531,-1.2679985469177915,1.089898448787416,-0.22644247334783704,-0.7124711124556008,1.6511922637800325,-0.40308858057275415,-0.30477782600293174,-0.9673263308935396,-0.4254026210633336,-2.696086176700694,1.0773848710549545,-0.5805997239659245,0.7639483152476075,-1.4711322821638861,-1.5869717085755124,-0.782396826821503,1.1336419502162078,0.09455110304563273,1.0272171381207449,-1.11664424703294,-1.054426666113988,1.7551297184308816,0.21829747881438047,-0.4856408147167183,2.616863591351785,0.6854816876346514,-0.5548307077007125,0.6210577583545248,-1.5799878934524483,-1.930492646647872,-0.8280362716531104,-0.8902379337495268,-0.285484711211583,-0.6057995185934089,-0.2429527242349266],"WeightsPos":[0.30741270932613673,-0.31710528046484476,-0.11806535766900744,0.174167544220588,-0.22713400390325858,0.6234183062443572,0.11968408102960972,-0.12673434784524681,0.3368478391811678,0.37808448395045785,0.261032662751087,-0.08652973904673011,-0.4473508670201628,-0.4011461681137725,0.13707473622922792,0.04666165098318367,-0.05835475030943641,-0.3293343488070228,0.2613213994099835,0.2574560486818819,-0.03501080504818476,-0.36281479631663277,-0.20330267947252967,0.09272069269639951,0.5346783000321991,-0.43363563316622544,0.13552410080442426,-0.369012442585789,0.4695966848645098,0.37295617872391873,0.14891568338332667,0.21165995981592844,0.042263206312769,0.016663887492664755,0.05739241265852414,0.22021020941970515,-0.2532654314382451,-0.6337269714719777,0.8588866945373967,0.4953835465660401,0.2715277797536537,-0.08926035935364016,0.09403979060069338,-0.3085217107183627,-0.03669719750769504,-0.21397155925212252,0.21547153046347534,-0.3116030981745098,0.741772404262843,0.4822232300509761,0.1888961172317787,-0.3253161830186555,-0.42417444924975983,-0.28143718359160735,-0.26378200653917216,0.14467332119799695,0.10631643249960473,0.21739326146825536,0.7697942556908813,0.47470495120846606,-0.24445712297590083,-0.3848395286404416,0.008903735721281331,-0.2265378827833075,0.8354620698924486,0.1973552155733327,-0.3124074723801393,-0.49719613361292947,0.2182998900457259,-0.08427710202823754,0.1394688616013857,-0.2903518448839073,-0.002812254703530406,0.10496298108002898,-0.007954409623886405,0.6780800406446348,0.2920640670833321,-0.6974447946157487,0.7459011620359343,0.48428715651953685,0.050804949233867455,0.1865361025697575,-0.0767214023984114,-0.36167767642276116,0.05765454373467701,0.6582657491626462,0.0841012962418165,-0.39412487922290707,1.1740760477133338,0.17516143281529384,-0.02054117937285961,-0.41464308200427785,-0.11967479327379336,-0.41031949423676184,0.09915880328977493,0.2935556883968466,-0.24297353203602973,0.04941752041871196,0.3971172414716439,0.42809418592958737,-0.015761339971890363,0.1321728998284115,-0.12510636966068342,-0.1853921248020157,0.13210740036566662,0.2648859156011672,0.6055672931546423,-0.40500787289394297,0.3087435885138613,-0.061421282742513385,0.1387448549368511,-0.0006519991519163876,-0.18072973558284058,-0.1803448998094604,0.10274132881619048,0.5799548274896765,0.4654238435945171,-0.03644457848733185,0.3828006824777788,0.21904237505640214,0.033978848623475964,-0.36430024490282825,-0.21709218489974946,-0.03213689260495297,0.5630779254655213,0.5968303761135291,0.03631062437906117,-0.1953852325152497,0.1519736805306989,-0.31009975469914247,-0.32747066027993393,-0.19095850584568688,-0.14779937014562441,-0.07863895949958706,0.08461038738972489,0.06736546149157555,0.024169660652104002,-0.4443940509832331,0.5956570090016583,-0.05629093504428169,0.18283135938686917,-0.24693657406987285,0.42512236311128726,-0.10651618177836678,0.6931880282903662,0.8195668411954993,0.10456941810135083,-0.6634731962354394,0.4089619256223394,-0.17031029334542527,-0.08317259355987533,-0.7677356319412225,-0.3742509827364284,-0.23766683107973577,0.0981286066193915,0.5678570686352522,0.40098191210280854,-0.3334082905497144,0.7368229132052503,-0.1443329628799016,-0.15674656277660268,-0.4496978433150398,-0.2434944092034705,-0.5312567250865412,-0.01645147041646925,0.6351707730369838,0.06347433182731554,-0.3593877862103374,1.14452202595823,0.006901663265740128,-0.2997436700693027,-0.5264698372869242,-0.6335805061680186,-0.2163970862715303,0.47564403835477614,0.437344501694143,0.11274358663272299,-0.3783590776385255,0.1770175642921187,-0.23864643369719005,-0.17123844916412895,-0.21709246128672993,-0.27563350262659286,-0.32709512333544527,0.29579757261511747,0.37912532125971427,0.3724272263657575,-0.5557367327790194,0.5069857645122567,0.10369368378684603,0.03232042830022347,0.17538179686643285,-0.30672639703682136,-0.29529383892445615,0.10482604461748482,0.6637451236374585,0.5295293447851522,-0.45339570300943316,0.4747265126300817,0.006314481951842707,0.05651987919256711,-0.012519216372283391,-0.06048230834298833,-0.6103391748440175,0.3443887094892481,0.7327390254920176,0.3436200738143246,-0.698925485682602,0.8726638835023549,-0.15775011230929706,-0.3289272322927773,-0.23697151910929865,-0.2989010843696995,-0.2617953711490754,0.47588071420670974,0.5245021726091526,-0.024845496321213405,-0.5397642346186006,0.20719967454524116,-0.279868106704488,0.04550233553643809,0.07043024770155938,-0.20877991993406061,-0.3061351709684773,0.029787237908866202,0.3908156044105574,0.4849048331960538,0.028883905479737123,0.5777058755238526,-0.024369648811984505,-0.27872201458351703,-0.618715334041217,-0.3669767457659393,0.229539474609875,0.6789029851328154,0.06785410893392119,0.4233123800467878,-0.4508430136253414,0.4119740898459138,-0.11814820957516535,0.18627181518628205,-0.43929037789566233,-0.09609064872396211,-0.656894202765707,0.4028570140114866,-0.0025229320463981113,0.19646125766368785,-0.21216233324056846,0.66568813148443,0.20069521827948975,0.4482583025666391,-0.5961127826090552,-0.2517709486706675,-0.2493527520282578,0.5703986544488184,0.7231954119251408,0.5197905498944041,-0.5190448228609091,0.4169965427619144,-0.3818039680065514,0.1235701580135402,0.15782266321838673,-0.2852480090998974,0.02226736712015981,0.6139741195542681,0.12830634525532345,0.516074455279505,-1.0468789556459412,0.6209850574137076,-0.061242513532087324,-0.036297214380115496,-0.42551556546687846,-0.1593087209187199,-0.7552385771690098,0.33394632690811565,0.3780359092808698,0.21405577017645186,-0.5065087972689218,0.489390832013972,-0.11158589596979396,0.062148705994146916,0.3451176408654683,-0.7442535554873764,0.08540318925751075,0.03706036344103502,0.5923304073454526,0.5702673671254627,-0.40731954795291725,0.49444455432899564,-0.09203352668886776,-0.32371090790518936,-0.25212550537242884,-0.8063403405170168,-0.31033130607849213,0.2840568989428633,0.13723880332344435,0.2811469683906472,-0.3742366490282977,0.7279570368969195,0.25063082830420236,-0.161151427701659,-0.43233225743454307,-0.58211671376854,-0.5089547856088683,0.015546891976065806,0.3360883107921084,-0.17564094956846232,-0.6819815187725969,0.6411695648205309,0.08205474388157562,-0.045807555582311636,-0.27827735279858823,-0.24625858784837987,-0.4371608722002423,0.02051943177768054,0.32873430552536226,0.3021208463421644,-0.658644279712743,0.6461949104709139,0.16174335912839655,0.15381754396895,0.2037997660641339,0.25640385522748127,-0.3159963750033119,0.39763032574709406,0.3786418443845932,0.34582470676563415,-0.8952026058291984,0.5541521910383811,0.2253512517181905,-0.026248084774706238,0.11742805268840456,-0.37575421845863155,-0.2268277646019164,0.4078595659094656,0.5705342187196865,-0.11737962396113384,-0.4425939211443633,0.8708566554715379,0.05791600602023568,0.058639897771621735,-0.4655078791375508,-0.26770517857767345,-0.45458541973529565,0.24835185152093062,0.12657314645549025,-0.1710416533766794,-0.17489708005970764,-0.11270091367706096,0.11650388977670077,0.5779169589801446,-0.30207803202654543,-0.8187893639487939,-0.2093612167840632,-0.030884746556324574,0.32308592070374464,0.7705042632531879,-0.6068802612334607,0.5059341968766956,0.13922998922362897,-0.034922901676869726,-0.013985820251681273,0.041259858421698825,0.4537703190394155,0.17008801331987944,0.06738560134407169,0.04484576092624899,-0.522966200318689,0.5736289767699584,0.2801887152282506,0.48276644621492926,0.0196795309524166,-0.3440514909584589,0.06507798486893761,0.10229410799022476,0.9693282743401557,0.5425193391811217,-0.4697209204839242,0.9789633685904484,-0.2574890179840716,-0.5388085916766584,-0.03489579996220941,-0.6655187165449904,-0.24492784587485286,0.47888079924340754,0.44608200081192245,-0.11389865946581489,-0.4936385485091357,-0.3157765029470398,-0.30943470704513093,-0.0025058069852844614,0.11260048247160415,-0.5161991370105096,-0.5467907897304959,-0.34204289720191666,0.1563677286544255,0.22313683160842973,-0.7112754385957302,0.8545058054449254,0.13037345410165113,0.9163474760644451,0.5278956549626791,-0.4880327731870713,-0.28114443400945816,0.381138367838326,0.11739099352643682,0.1963572559088448,-0.6908886696879546,0.07256663650400497,0.3985582190563339,-0.06452666111103456,0.16631749593345732,-0.7856784492147219,-0.18767172888301775,-0.10668990247365123,0.7532862511562974,0.2367854424852425,-0.6090544470546926,0.4629569900132586,-0.26881273788666943,-0.5927842589128934,-0.10374271808175585,-0.6065328750249708,-0.1663291360973195,0.22183316304367898,0.9187552644814927,-0.2303960658330083,-0.0751113267215922,0.15873940710862072,-0.007016820572231186,-0.26171874327860256,0.4081196467355386,0.05504633772485181,-0.12441687166716771,0.5625692955204882,1.1597823242045748,0.18375091415141978,0.05465296166023517,0.017984513108552855,0.25162434409970036,0.29635018033078575,-0.0583858157921032,-0.343813897187436,-0.634302576857816,0.18966788812820318,0.21749893539722615,0.4058798471447607,-0.3491130264731704,0.10010518477549324,0.19897478421335782,0.004980163994871244,0.8680372013650925,-0.5844081781121954,-0.42056173713386713,-0.25839347454990347,0.8194774638529194,0.35095640738563305,0.27679987319672106,0.4189808812573522,0.13386015145411456,0.14098928997821647,0.0352049309764793,0.045753195828704914,-0.2478090449027974,0.6823116951519524,-0.24336919223621323,-0.48012115791355453,0.3066333221354609,-0.10887858029427853,0.9659962037068102,0.2687874204618337,-0.15940379987616168,-0.46390285094124545,-0.3361433310292341,0.5323788676316537,1.3208854896924687,0.25721591405058775,-0.23931499290961783,-0.6996668073768323,0.22370467791466805,0.8165985193800983,0.03921069456712383,-0.46647602470732163,-0.6986396311802998,1.1869016622545445,-0.2010388170867812,0.022642008055274818,-0.616142387248826,0.21842341379060698,0.03396886172503772,-0.037095698790097865,1.2829251158126138,-0.3003718358051091,-0.9271323083198467,0.06961309120487907,1.316584457058116,-1.3648237505196932,0.6058253796073014,-0.9087588590164591,-0.6106471167139688]},{"Weights":[0.05237703095368071,0.028658093650520168,-0.08579818092602762,0.041137264100919904,0.04240460917480597,-0.07572708508703624,-0.019351870389547287,0.08435531535170498,0.04253135373140081,0.023184148390944428,0.003139984826903118,0.04110993571908459,-0.03544090300289446,0.12538477813475254,0.05857138219260134,0.0680864640343498,-0.03464182132609831,-0.1211871185136767,-0.006013458240842271,0.05411724707250497,-0.01045302615139448,0.024168787562970844,-0.058142782580575945,0.12983013528348264,-0.029914127393237067,0.13626674285340984,-0.0532727726686915,0.04114994744553749,-0.019862652707577113,0.040239028703508026,0.056930970006038445,0.00001852618007673135,-0.025938370269759432,0.0485824099862084,0.14355220571084454,-0.06358428449260968,0.010913653620753838,-0.062413336013328685,0.0034428403053571987,-0.02352378623116557,0.030654459897302134,0.06047078194610473,0.015181563935845,0.12133017168183192,0.021050934849064912,0.015892597935219032,0.07700634023047871,-0.07880623982403145,-0.06618421793834386,0.010342770849467983,0.004051879888716084,-0.03645288092010788,-0.0490894483543464,0.03547793347829993,0.037528612295945174,0.09411156671008869,-0.052824778064730855,0.05293697870692373,-0.11106601299130871,0.008431449436791283,-0.054962818320350874,0.10101948388298679,-0.030393840816169172,-0.03553130732150621,0.1350124749885056,-0.00619615945684849,0.04821176694148508,0.04217367464009391,-0.027878812593913675,-0.09640985354477846,-0.11994409266323769,-0.022857657169702138,0.0390967238314002,-0.00617079596744799,0.03189376776225869,-0.10310396739839855,-0.004100601316661238,0.030762197044009777,-0.1283836473307532,-0.11111418008469616,-0.012441703143769096,0.030391600396649884,0.019376012471831735,0.07426013133917089,-0.09396721570695052,0.027024426838666255,-0.051014633407957616,0.1006972783937701,-0.1003929009422922,0.0517543310970487,-0.02859525677290789,-0.08224220604474915,-0.021823772986451946,-0.019309288601710137,-0.047904174204385606,0.06936232832431066,0.05309564638833701,0.06471527349998507,0.03396969203514468,0.011625064866706575,-0.16010399762013655,0.001207070422533141,0.059023403323818176,-0.10208423354901791,0.026056861631848824,0.0573728914749002,0.14742160968589738,-0.09148943866684267,-0.044917809316885715,0.0066493073819270734,-0.17310569221509892,-0.10256970636856517,0.01022124660170701,-0.021423081601246265,0.022567080930225986,-0.05749739394913282,-0.06296361297640209,0.026982983500368384,0.014809671677910663,0.014253323757080855,-0.014730550580203831,-0.019124156854944917,-0.019799113984090042,0.02506286005300595,0.05766703162302341,0.0006854570411848882,-0.0483244411927777,0.1870468562270982,0.1185233655985587,-0.044672542834209183,-0.05628931410832326,-0.11632900336383428,0.025243769869220993,0.05914454658617579,-0.03653259636216902,-0.00536454310701202,-0.09114377034275824,-0.012311259651457284,0.12785566257167552,0.009017927884728202,0.05918440493506974,-0.11699167001045846,0.032186683537241655,0.0535568027851467,-0.10459283330623227,0.01956126123778456,0.025193716917113553,0.03928420897936738,-0.008124101339900474,0.07447101188117851,-0.09345557841806666,-0.057566343821671376,-0.027304656081716575,-0.09036316002317106,-0.03790859331738757,0.019864495850196912,-0.021580336827705895,-0.05095487651576667,-0.08815727274149188,-0.012015138218160842,-0.0032417797755762024,0.005195990352032772,0.05026894392405461,-0.037675052563304695,0.006951609705648693,0.10382835123725018,-0.10065205347774549,-0.0183479401948981,-0.05942056495512628,0.06677593289421849,0.030803210386918908,-0.0017842210146117943,-0.05586818356515196,0.0162040089600189,0.007893430482095811,-0.024097205157443274,0.021768996459857397,-0.051517004423623024,0.08073359998137229,-0.06368664561358672,0.014242910103296326,0.015248097198384197,0.08543422345042462,0.06057277880826348,0.04802276665235439,-0.08956990898200716,-0.0632202386566465,0.00772362287164135,0.06415945621362334,-0.0007032040797301683,0.09693002767714451,-0.1298826640885709,0.01789088900456545,-0.06829528287590134,-0.09541204645800604,-0.05560820263554933,-0.1175741214616509,-0.15482150924438684,0.054264701982618034,-0.035956025944221724,0.04104359458766444,-0.06028922546704226,-0.05944097222377871,0.05586153555845967,-0.0036649333324413986,0.03894653907869826,0.05321807765304168,-0.026091224200957983,0.024325726285947084,-0.024614524300117097,-0.01925341953597177,0.09157042897261083,-0.02124611394056661,0.03951667410444336,-0.014343835781314221,0.0067036458804809905,-0.0322886694770156,-0.04284213013169725,-0.05764884676837494,0.0952275183572887,0.17225507977431526,-0.03626080009307756,-0.08233483918689365,0.1405703727487324,0.07342223999383447,0.07246176686319311,0.05512363682982667,0.04404577907084678,-0.0055783993801845925,0.10208794974783401,0.008891794059235212,-0.10259633462147523,-0.0957920164402399,-0.06210139104932966,-0.056975232778732406,-0.03745293235419753,-0.05105917192921516,-0.06526002647629985,-0.09731790688234014,0.03995243515447611,0.030767987917236367,0.05398020736873889,-0.0011638433171226909,0.0016159528794020069,-0.03635469097485871,0.06813577055357627,-0.06350711004475805,0.12571053896169962,0.02358973067040432,0.06889170990081003,0.013016884799777254,-0.029273152800752725,-0.019918440075554687,-0.008373259091526204,0.018320421870791068,0.020336798248235526,0.005682610215322386,0.05657180539531189,-0.008850574017394105,0.11419615831237641,0.09337015494909014,0.021995271558760396,0.049556889760129494,-0.13223669880432215,-0.006390499966259669,0.003929720210012887,0.0041314392578442605,-0.053399826886820115,0.028301379941639362,0.014822736998756917,-0.11321864934593528,0.03691034003781652,-0.03068233646142462,0.0053612859522018655,-0.024356772857425917,0.09810977988106759,-0.09862161535222497,-0.02207376543213408,-0.025580694021496417,0.052822919927194435,0.08890903338207484,0.06792670965581325,-0.04275838802169575,0.004067472298293924,-0.03269990518145526,-0.005730431926577104,0.03595311802996665,-0.01763356733792075,-0.06600554856036646,0.06680753442628592,-0.03967301927586823,-0.01977191054683025,-0.04028476497669269,-0.1352151351013297,-0.09104710481242231,0.026521956171045455,0.09352967055392566,0.007482188016263901,-0.0041909299389832864,0.012232875314334014,0.06053673146685117,0.082913883627507,0.01879951966389387,0.029070658976157626,0.06835972088289212,-0.06327032536258734,-0.02981875112297692,-0.16041897361852808,0.04480355275761594,0.01542263463776545,0.046065148308030414,-0.003992081770931221,0.02581067981181733,0.021862636401877376,-0.06803476571902566,0.059226549468710636,0.03018765701554378,-0.05361811979894899,-0.038634097579015404,-0.025564180500545167,-0.011759988603459219,0.048524557676255915,-0.08670927286544776,0.06073578351219489,-0.047765064644959256,-0.022454708901929653,-0.005421514891282892,0.0021906532686590567,0.017030797798250327,0.055311813305573124,0.022035534744661713,-0.07309116700516896,0.03747946682906571,0.022915164991814098,-0.06172777883712531,-0.06613949410673216,0.047116926627888675,-0.11667462248343195,0.061242031499605595,-0.1079134555329011,0.034312496610543565,0.0806386668954491,0.09427680396587379,0.009768690925680671,-0.03664422644368224,0.0437033048995172,0.02969508021762802,-0.057092659988414125,0.0026629172553151474,-0.07028868004327482,-0.11627279182189973,0.025676854927213014,0.06463036455599744,0.043986385942974,0.09271483215553522,-0.0010248606067611943,0.012678885885157889,-0.03573136863498881,-0.04121933788775932,-0.06819944782714628,0.04773280746815308,-0.14679840887464612,-0.042532948993902704,0.04086820738304374,-0.015319233347463837,0.1234348318065632,-0.13966641192804427,-0.1379470600757417,0.15876344808096657,-0.08674570536240854,0.08834833510869287,-0.0681565967512467,-0.010441594769001092,-0.12380181560758785,0.11911225678846583,0.04065164107204973,0.004663267016736717,-0.06223312393054945,-0.06992122659334754,-0.15327524643936347,0.09084420546756733,0.05564983695713599,-0.055569990114009794,-0.0934103686584394,0.018532222212490984,-0.05939708764737692,0.18030655531905365,-0.2292583470807515,0.21728056471356832,-0.010957061868186114,-0.03246723876507432,0.0623531035015812,0.030176267376433266,0.09871738881124341,-0.01904386275966115,-0.07058232224463716,-0.05608805989124358,-0.2452518668952363,0.13431452084343276,-0.022214069262281474,-0.08702456189099181,0.09756312623628073,0.04110597433900606,0.1031889291602555,-0.0613351498699912,0.05896374140346632,-0.03623941308132807,0.10212376650608346,-0.058917989527664444,0.031963546646108405,-0.14537657523098801,-0.04450861061386607,-0.0267552329119972,0.0016062579678513954,-0.1145545570039116,-0.02774790195361599,0.12607082800537625,-0.0778967275943001,0.1262281217896847,0.3134227290286247,0.06302551142243966,0.0005687537331437376,0.12486315370225856,-0.005643383353571312,-0.1914699392528886,0.0797488938408857,-0.1699997286375458,0.22650483991105375,-0.2390350844077271,-0.01262013508411609,-0.057781832351988555,0.11517061017533625,0.08681439237983035,0.1370943038713072,0.1627032938456149,-0.026791728157623797,0.1528831801795647,-0.12981889586713577,0.01003424246669644,0.01029170568271361,0.00022244611891323186,-0.09500714430554379,0.309687459643899,-0.02598119821998274,0.2658622195145844,-0.1383961533790774,0.17488607628376898,0.10116598642490715,-0.17183126425253753,-0.23365922853737717,-0.3147706348654346,0.13239404637643515,-0.07004017713536836,-0.32892393694590105,0.14143136631625225,-0.14633560887571148,0.17281551906612855,0.17017022283053546,-0.1390394221025852,0.036536186388867804,0.16465549950419364,-0.9022807804783813,0.4701302679762345,-0.3608215932871803,-0.8719842392483587,0.42280337071410967,-0.15182185728334882,-0.5856190279676877,-0.023755370535397568,1.044027452460156,-0.9811048883661551,-0.4386841412501513,-0.07427159616674969,-0.17749837561775292,-0.019833804010804187,1.0619382420112222,-1.578285029498281,-0.9536424649933573,0.11192248853430227,1.5106990191261247,1.357512674389926,0.21732064210782992,-0.6124106028077094,0.32853781303574825,-1.1748758306368838,-2.0704378993049626,0.8324222565346336,0.20573592309225872,0.49779766302294637,-1.939688795567441,0.6677143813643046,0.36400983206194565,-0.9314572918951962,0.20161487775191989,-0.2807313808976626,-4.84603308004656,0.5440670730146193,-0.021689885498894654,0.5177689559230582,-2.0249927531011704,0.03458369280871332,0.0708859481082801,0.044407492281656344,0.11639130009643565,-0.005095358244106112,0.12909021040756632,-0.0014479812312797836,0.04109891709566348,0.017435938108283002,0.052729982516278785,0.08614759264474312,-0.027649180225241696,-0.09296807668007391,0.006984901692482023,-0.028581086165095713,0.023316272066593185,-0.042446874084815185,-0.13594957771641486,0.015942995304289397,0.08721378118347711,0.06076523272323429,0.04732304675062659,0.026745704587876666,0.15262552841920066,0.16099959443667264,-0.1421249176196404,0.037745914560116854,-0.05974527753925316,-0.07148404527519409,0.09730121135610229,0.09010769602123979,-0.0359070062022846,-0.054522130690537164,0.15068756127001906,-0.034912893099544644,0.029783186470669507,-0.09510066339735423,-0.004303704318605106,0.16012224616054319,0.08827591660303168,0.0012849952380175147,0.002156022912782022,0.001957679278422451,0.08858507451710469,-0.02268902190023637,-0.18273769409489243,-0.13238630180398828,-0.09765792440406479,0.14443603861376925,0.06894535998836815,0.08771702047580922,0.03209513974724558,0.025265326966164868,-0.036218166532646895,0.028905372008535258,-0.13095930740838302,-0.06849951243537794,0.10902014582344084,0.06534631045916241,-0.03259801298717207,-0.0022367461623598902,-0.0472254762398512,0.05409212052157614,0.04360507898191316,0.1647736573557229,0.1883246482971246,-0.060045701676653754,-0.11032309559881727,-0.008051987300672591,0.031634834549309314,-0.018054810765297125,0.0034836502612243933,0.03240979273796395,0.1921317023231033,0.0029194966290166467,-0.09373283637923913,0.038794200312561755,-0.036759510034542975,0.13489581989078692,0.031154127000184603,-0.02612877139443095,0.11036705912530238,-0.03303329676368988,-0.05201563838189834,-0.10147340411991607,0.10159502388917224,0.005260688671996117,0.006532256385799729,0.1564964720845711,-0.10691875083704473,-0.050621730127627655,-0.04726434505427428,-0.050020624670260305,-0.10110376037360247,-0.05654066264450363,-0.11123517646572222,-0.18801564678876592,0.1116971804442477,-0.09571148431227597,0.048952041668902574,0.13820234202138845,0.03425162473123709,-0.06382449433960488,0.06145519120654328,0.05659507599565475,0.032517376033468055,-0.11264898848688891,0.028012978009310123,-0.033518281628445265,0.028653866168829235,0.04449650134594681,0.032898042981349136,0.019710248386935122,-0.048000687475638494,0.004462310145639432,0.015451227695497147,0.10447880323919383,0.07326116600269932,0.00829341275825816,0.0894466390355359,0.02497732502687461,-0.041587509389952385,0.06473585622559005,0.016162654460772093,-0.04111623150568766,0.13486038348905288,0.008109693930666823,-0.09798532525929184,-0.08791950685590474,-0.08294362811085676,0.10657816377846648,-0.10742514345225469,0.0818640742385355,0.04717678633342223,-0.09836407562911159,-0.027956212073209183,-0.018617090059781443,0.023560864004449483,0.004328313007474942,-0.18426979692365167,-0.006419978394625144,-0.09032895636336385,0.1640196429891976,0.04403737858296172,0.00020971198978213444,-0.0042159137836727595,-0.024788552038059776,-0.0013029073258832109,-0.06892434230911114,-0.05149242947672329,-0.04003440411077193,-0.15028575688871854,0.0868568748786968,0.030229182865057044,-0.168099002039896,0.00895732787328367,0.03516903189885477,0.027623725893127723,-0.059986934688767105,-0.046644246373010755,-0.06905620842716291,-0.13617931184414236,0.06105435555341132,-0.09264804018042931,-0.05033552025183032,0.10439551061946031,-0.005041906885465825,0.031311605080766705,0.20993703649348278,-0.039913787659157214,0.008665045131083383,-0.12221930379984224,-0.11284222965385451,-0.07187877919523632,0.01352866061755067,-0.08625102690535413,-0.028548656571969897,0.0587516290109098,0.07550100951651598,-0.06022158037937511,0.005131610652807542,0.017903282544509378,-0.003979786191819008,0.10356479713586733,0.006761875916855494,-0.07823538163422444,0.22433015952125349,-0.06332864151971755,-0.07895514026317048,-0.03727428690149844,0.04156593403090893,0.14598420825226616,0.006801151617063346,-0.08185361411123569,-0.15133447810004122,0.028749149372081957,0.18542716088507302,-0.04409933134438609,-0.04690137764400581,0.0321791346787004,0.12972197840431882,0.0937960280189809,-0.1624631969167414,0.0019374688420368393,-0.14590220704192788,0.12694480845978764,0.11321424898599677,0.11521336540410416,-0.04220321609769858,-0.07151677310200798,-0.051629624895937754,-0.01590549282084895,-0.11044829461821482,0.05639069521760669,0.003914973842263802,0.07196521103233462,-0.09646830202980397,0.05354376499933841,-0.15102562395633104,-0.10292116425633022,-0.0632075312148406,0.13218653513204823,-0.0886521555468785,0.04992345653033793,-0.06729529066954083,-0.10495080311750915,0.060754719996293886,0.046234998724785197,0.07756279554732871,-0.03260837172621086,-0.0805666156337981,-0.1924169628315154,0.041816343226275074,0.009581323744887389,0.15386216378456558,0.08797241310300431,-0.08790515711823363,0.01130946580919388,-0.11533843702242011,0.014387651539569038,0.13454487004361335,-0.0016146169403064034,-0.06814189280139377,0.08085086074787692,0.05330762961287084,-0.18060105819986597,0.02641779334318133,-0.008076922526522779,0.06115324368892165,-0.0228873483165607,0.09127482030850673,-0.018826068990706275,0.02708160405842204,-0.06497288024500869,-0.016078970038009198,-0.03323368815058927,-0.012979863576317514,-0.06769475922583867,-0.05737143795840374,-0.14743169748747065,-0.0027061648594698413,0.06259951681237431,0.008400567379813822,-0.013973677891918047,0.06839206188572723,-0.05679812053124197,0.13539558322091097,-0.1364353210251073,0.08557955007109053,-0.05999123699908778,0.09140558198218611,-0.07949294294240508,-0.07165976973519783,-0.10223405683355337,-0.029907953087699352,0.03948199310272669,-0.016577791403979598,-0.02599204018488964,0.07517609509049557,-0.08438170691126146,-0.08249217814098138,0.14883248793333886,-0.06893565904732492,0.053804746884474855,-0.004826983184172002,0.05207489103465045,-0.05369603551674154,0.021749614959353392,-0.0077565683898170755,-0.05258840796540626,-0.07447071178843662,-0.020429893022752492,-0.09574236061557402,-0.11541112751499712,-0.03459895038461798,-0.022855723041632917,-0.13077130495548706,-0.08084429692747706,0.16347370258524355,-0.0762367518622896,-0.07476848181736327,-0.144740204083079,-0.22182964800032412,0.022703095901203955,0.05559494275272074,-0.06613934976061485,-0.04702080895865033,-0.08631839416780367,0.06878296564416499,0.07251303638611734,-0.046262496181670776,-0.022795029977004107,-0.023363740927221585,-0.0729709636962685,-0.0005136734186074685,0.03929707528138192,0.04422202271849505,-0.06671997720695697,0.12992413622401464,0.004765158976728688,0.1316682600801626,0.1183758234745213,0.12840217351172897,0.022737374447694997,0.07143493033513866,-0.11313141426860783,-0.02093963556003099,-0.19221659264944563,0.0932086028524198,0.10061351730288803,-0.031251554512928846,0.1634915904012948,0.20097459077821045,0.07802552011252421,0.07864288910454659,0.07077643144966768,0.0511549868898083,-0.12005427291775299,0.06832937623646633,0.08849342925432396,0.08878380243777467,-0.0722426600185105,0.0870699511192434,-0.028598583242926585,-0.12576684068541527,-0.0158274930607711,-0.05371277237662383,0.0942856207859335,-0.24917395628106295,0.22578685330882176,0.03325967502024006,-0.0640671318177229,0.10025644838011276,0.14444694120996046,-0.2972229532567401,-0.03867625670831291,-0.14932876043449972,0.17627798812671597,-0.16895868806183925,0.09500589462026725,-0.019937594906144662,-0.04810326835111668,0.05767184541284482,0.22066979738531603,-0.062413641064170904,-0.05805898375567654,0.05891776249406887,0.10125211132452763,-0.0023121946665401755,0.031079042038955427,0.1974496982849445,0.03180479307697092,-0.035892409825816034,0.12954003637016243,0.04361330629360181,0.1439745729878603,0.1023396599504687,-0.1091307153929642,0.12015639879327657,-0.0949255059396831,-0.10690059443053987,-0.09938128270338824,-0.07998921915069356,0.0700597665188391,0.04040168697960891,0.043988997617500886,0.014584833454403867,0.0012403279876974497,-0.162005054030648,-0.005015084640043422,-0.10075250239528806,0.14286818741008722,0.05064867289282888,0.017177921509070798,-0.003975912902681355,-0.0445174101709618,-0.10302346951912386,-0.13968962348915565,-0.057954881807051606,0.15467091241537637,0.18457326407688607,0.24822819842064558,0.10195079283699486,0.17042449863123185,-0.1360985727791701,-0.06771005070974812,-0.5337281045952937,-0.0445604594324749,-0.22335730174877713,0.34140737557639056,-0.3259950976281306,0.1888563130578676,-0.26960823982925225,0.5386704911705769,0.07430887734360088,0.4831801555332113,-0.6842531132216443,0.05574107082025624,-0.4578053611179282,0.3700205850065098,-0.5738271721398427,0.2320053723257966,-0.44473261489907345,0.2544277275968588,0.10814291269522523,0.4146418981419648,-0.6628129804855152,0.2076924768195233,-0.26058687804695035,0.8356440064087689,-0.3129522129147466,-0.058274350281938773,0.1336295653445915,0.4834615798167057,-0.007088855649796429,0.663290381400776,0.295449650895713,0.5788846476929158,-0.5398811849740424,0.3679727102387655,-0.3120079289193827,-0.03562807552649577,0.4040292148145752,-0.5070812068990083,0.26128245591760196,-0.07315367819517278,-0.2004816189926014,0.36707515128389134,0.36821666891262705,-0.04856695555727635,-0.09687522729948458,-0.026041989421793314,0.14210272151187375,0.26490968271471155,-0.3476931608187807,0.35825009866328955,0.3093219459601942,0.629230177801768,0.28266738951454357,-0.25780707553329696,0.07622855860600052,0.19296071635539702,0.005143701858736495,0.987101621506247,-0.33172867320829325,-0.32374187662196935,1.0888903152208493,0.1085214601098416,0.6258877783618825,0.3449575177552463,0.38064902699209724,0.030404762130923347,-0.2486926596769584,0.5002295134424295,0.22465310813476286,0.30261886108458375,0.3916230665804488,0.34193563994266674,-0.3887737977105003,-0.11229369922879542,0.31113306752278586,-0.26671677561933893,-0.18415995648303243,-0.4425602947928732,0.2951111674580292,0.010785960412573,-0.15442457189448133,0.32677752485401745,-0.18753175639330444,-0.6535399928636358,0.02318970037111558,-0.40283502350519046,-0.2885312153966997,0.3238228076056067,-0.4055445014261814,1.1327798076283107,-0.4201748997103074,0.32388615207150123,-0.6092340924321806,-0.23902263032694654,0.000749606488577409,0.00007569446569253928,-0.0009378480408041034,-0.022391666189052993,0.12233000162678827,-0.061633495843616264,0.03990505309157579,-0.034484248715798714,-0.026031696618256956,-0.031749860644159314,-0.02149328154223516,-0.04393672557618759,0.024429135626647922,0.10073751062034146,-0.03802999145778032,0.026327608408740537,0.08037360485658968,-0.019739350221372205,0.003934517110927014,-0.08571476500753561,0.06991074835008859,-0.008297339169262358,-0.13474363806526313,-0.018994064157305403,0.10620486201562038,-0.037085220406851166,-0.000417511681703011,0.0402104574423841,0.13703265146995458,-0.022949328516892374,-0.0036456593462209585,-0.031254727164958536,0.021877070005899613,-0.07012175776375332,0.03069952952886482,0.01731548922912688,0.004834061179955207,-0.08585345750788645,-0.04903702258750085,-0.10951683640361168,0.028524453659379407,-0.02326424135099195,0.08171229389067122,0.010000691410117503,-0.09617939294430951,0.011447735841634053,-0.07980398447314076,0.047887320796690114,-0.11340570128188286,-0.1060035131985802,-0.11576117110914448,0.062360118555707805,0.05631548396585618,0.14453447322911422,-0.011124166484590109,0.08184781337042307,-0.10860834003190613,0.025112432884021214,-0.02839911405331151,-0.0012213285371161689,-0.11269331640671754,0.0008306534997262226,-0.13101852291547514,0.008824495036692111,-0.14506316286686416,-0.06805756964259274,0.036592332420782754,0.11229110323881988,0.14217877453839478,-0.06861968678503567,-0.008596828748542803,0.05871089234861993,-0.1015200349064024,0.17589590137028185,0.035186788851643114,0.01943446317415247,-0.007259422468105545,0.22301660713412064,-0.018878046262687725,-0.0730781842937859,-0.032195050232814264,0.05823309033692261,-0.12732611415186268,-0.10772833284552057,0.05409512670833535,0.009347774918075317,0.0165482013222382,0.04916251922998011,-0.07067728906993934,0.008298517003144712,-0.03583251967133529,0.1688911219369111,0.012285414638427094,-0.012410122012936346,0.06612846479728693,-0.12253253812903893,0.059857802623346154,-0.04743883757826685,0.10212346754461274,-0.04538230680285718,-0.029902255396781156,0.052702224703384794,-0.0626048335160859,-0.021368475255732496,0.091736044602777,0.08669468667560495,0.052750938456613,0.050143873152962724,-0.014887620694953021,0.010470309850011662,0.031501569313302745,0.04680919993727052,-0.04468420286244718,-0.019376530758839727,-0.0064389407973723094,-0.1105112000327011,0.009713013250890834,-0.03830942775172127,0.12009878306488035,0.014767044650808215,-0.0032803060442582136,-0.10881851956618929,-0.03745696063730524,-0.014061784935449921,-0.09747628628481031,0.000781706779927774,-0.002111076661947232,0.1021166528034248,-0.06407940912567625,-0.04865366178171829,-0.007639467524576628,0.07323740090203097,0.011363650840532825,-0.09331140724596555,0.05296218438200159,-0.04149378039282329,-0.07835521755118176,-0.12651382419092272,0.07186183247183237,0.07000742308444627,-0.07049806493136951,0.07479410852001778,-0.0042597771880838065,-0.03276064383672968,-0.030897253269073575,-0.000773936278297795,-0.02408788052574637,-0.05197945868697564,0.12043157377830031,-0.10407999439185553,0.04293518760655869,0.015477905992461257,-0.033699182418574905,-0.12040664536447553,0.015115092674443848,0.05962480786811372,0.005083290030591682,0.022569119609431552,0.07970653758844969,-0.05969727065961808,0.008328017086513288,-0.03209817819990783,0.09874758799417507,0.028700470141565737,0.03884882764216261,-0.06200177748505844,-0.002277271949923593,0.10138029509983848,-0.05239813520094479,-0.04351027360899353,0.09130892929775833,-0.017370248947976695,-0.09832284096526096,0.08459636733356819,-0.057202044155601595,0.06511781449882577,-0.03584339913084214,-0.08075748467444578,0.1264111925487459,0.014481813373899526,-0.04888114806105916,0.056309742362389864,-0.11253685741604037,-0.030839529811716584,-0.03975390143055836,-0.03195466874196426,-0.02557269970982001,0.006098464321699628,0.08032273363210675,0.026414872993212473,-0.0028096516631574094,-0.035670189138684937,-0.058689919179269516,-0.05054890798409459,-0.03852317205958597,0.015739794844463924,-0.04629826154796932,-0.15102946656069582,-0.027498844785471762,-0.06922106704114346,0.0910968938279752,0.010796556903143524,0.09714724323156379,-0.07480929398295409,-0.05171671165732304,-0.08686199218654692,0.01901696406906801,-0.0070281056181057434,-0.008101244463971789,0.0015482109104852267,0.026559471754167095,-0.07694560026841125,-0.054103392893769565,-0.07507855362637764,-0.131565414472959,0.039733749699636035,-0.025569634863274723,0.044865659128923596,0.01593230423206657,-0.04010164391515867,-0.02379338292839265,-0.12798888711179274,0.07504848357999648,0.01112278665625011,0.08603573978168721,-0.04685734331123619,0.04133404128615506,-0.10642775442864388,0.014133287053945448,0.10805226171952502,-0.037361318613495384,-0.04034101594950268,0.021484867066398603,-0.11129929449842514,0.0287489901495512,0.04249623073131405,-0.004875724099334618,0.10264291203816933,0.10620457880834556,-0.006589321311429995,0.04268153051580011,-0.050112894136147126,0.05112564656867389,0.017153176669367356,0.09559317602053932,0.08120928663467576,0.022850156535806184,-0.08800943384594585,-0.06374335140499317,-0.1149645012784934,-0.07330530203339682,-0.056984934728710974,0.05146193229700173,0.06371214593584609,0.07896558836155294,-0.004122217298446682,-0.002318194613995696,-0.07422201683677128,0.07572294719510421,-0.03847799805077508,0.08554576860660391,0.06435760347393547,-0.014803530340528493,0.02551907420077026,0.03204151374077238,0.09933397521709975,0.01815362360633482,-0.012279418074899259,0.05055933603909464,-0.1835877574975248,-0.012568783098324458,0.03233270980084665,0.09743537081359845,0.03332815039111926,0.06126329236819024,0.002752529540376204,0.038698653980800496,-0.007364288860316833,0.05560936043211135,0.01147979916318709,0.13298902560364137,0.05335034432303746,0.0006898088459117209,0.044552886755191756,0.007208111300163422,-0.05961719468657834,0.17835839976305295,0.2320072283803418,0.04219620150190703,-0.02314913865157324,0.018160112583427077,0.050659434404035794,-0.02652726944598646,0.05709461412842002,0.060060306559269055,-0.030325620677229312,0.09259765178470598,-0.005887989139338825,-0.066305194087446,-0.16652877788406048,0.015615253780851547,0.04470939164173303,0.08021111801383816,0.03514148397301235,-0.059459665195836515,0.10983526632892714,-0.15151796474528476,-0.06899114685179394,0.06371681953963805,-0.07530077087694004,0.09984319149767446,0.053508013634377107,0.0067837939607361146,0.10005566331952788,0.0033631205438903592,0.03519074931876073,0.0017028621838495607,-0.0015255958190743906,0.009263845903831275,-0.04341508434193959,-0.06840187670365418,-0.06545388348670028,0.06351456138135367,-0.15863486300418989,0.08212377604563105,-0.015231306867266092,-0.01904036101326265,-0.0015095284595902853,0.00470789817815783,-0.13115826987457863,0.008645285143204836,0.02938809298992777,-0.1035109830570188,0.033499941795861604,-0.08052541671286177,-0.10018375194151063,-0.0835414752018159,0.03072934810471208,-0.028007655396507677,-0.1694998126691934,-0.08060637938338555,0.10830838242827505,-0.055884444831013895,0.05789697029583482,0.034374078377436966,-0.058495026696704124,0.00026721656698193994,-0.017789654015818293,0.007949374657683238,-0.11168689204943351,0.04199805739026607,0.031565553661992624,0.007631405406400058,-0.002595480160855232,0.05753846628063372,-0.11401255404427273,-0.02938480870569248,-0.027108443345114423,-0.11539773555835922,-0.08743188196449934,0.01918528598631169,-0.10871320076695237,-0.08908680899887865,-0.0677993896557256,0.025464947169817932,0.007103039830473668,-0.011436693721647741,0.011880117395760632,0.04492236072205711,-0.019895995958133975,-0.012092600091317685,-0.04522050664604709,-0.07898286116635232,0.04043095138025896,-0.019275612505549183,-0.11762225317349334,0.00716504241997545,0.0856612746933343,-0.10936075747282459,-0.0029576353949295306,-0.1029283503296903,0.02206707108799662,0.025055235991801292,0.012361408485636351,0.07570731427155039,0.05805378636927457,0.026520815048597997,-0.03157244909248754,0.06972973960310308,-0.05533300090083462,-0.08125181923639398,0.04257402285630435,-0.200912809750558,-0.15630327752896023,0.0440604437328836,0.005740474701401467,-0.06765278188953547,0.08411401561298201,-0.12315572413587099,0.06207780447181653,-0.25892066210764036,0.16071672884090937,-0.006809675708784332,-0.033092996779430624,-0.01875740283739222,0.05685779604019849,-0.006304443471040181,-0.04826412175821986,-0.05793960615651651,0.04141878518394971,-0.0351667774737006,0.17567883947274235,-0.2574574712551424,-0.12000956602786877,0.03054783955065358,0.06504696361313975,0.18131980851328008,-0.04043671795000662,0.11361584188161013,-0.1210006803749821,0.01817343103172815,0.06496084665719001,-0.1208110030206232,-0.17504007066891147,0.18313448905280427,0.052993783248435705,-0.038256197164740526,-0.21258829107472846,-0.04425236117890963,-0.14515816110734905,0.2445978700772466,0.19217379143039465,-0.028498767208873493,-0.32921439529228397,0.2514730177862468,0.26789262971712624,0.09891016422686286,-0.1923069641552886,0.08718100575885221,-0.14736139860931227,-0.3287297999659441,0.4105377261893982,0.1353208250320474,-0.20034112552918942,0.030080173540363443,0.026535831671833845,0.13299861944819452,-0.03945782100641099,0.2896047431334298,0.2433671951456582,-0.08297579906333895,-0.403145005966043,0.06547157205216421,0.022961327594411357,-0.06221752108496489,0.1812080665503841,-0.13956170909398322,-0.367689824366385,0.24003486067249905,0.36814779570169365,0.3847986033435556,0.30746753142212063,0.04957643256277068,0.19836343211731278,0.14795684455359498,-0.294977334916789,0.4018259332889514,-0.3957510102035873,0.2835241968300341,-1.1768697377616733,-0.5918487047041592,-0.32474207532338867,-0.7162782632755202,0.2944575975334467,0.06327436805310088,0.00958986235600669,2.135032836504994,-0.02463569657739921,0.6218311722734121,0.3005890329432255,0.1419621477274249,-0.9303942013431378,-1.5900656905360935,0.8993128376954918,-0.8870849426857068,-0.007208138963549276,-0.43291593272265294,-0.5932129789530821,1.3038514682214704,-2.231066046218003,-1.2085337041121105,1.7893169866766485,0.49433254513074476,1.2889322734304955,-1.6458985144500418,-0.585967846887655,2.341782029674978,-2.1188748196240446,-0.5306723068037748,-0.1682051425636218,-0.03302374239835834,-0.06947521350929574,-0.02364090819174887,-0.05123664645708668,-0.04768825634468266,0.017871891796935036,-0.06376059624654633,-0.1463019300282173,0.0540640884031877,-0.026995074930661566,-0.048593752984820486,-0.04828767364772333,0.0520919269663402,0.07178418219401346,-0.01694546599722942,0.0844137324340514,-0.01232005615054632,-0.12179331722116117,0.11637182141901316,0.004898183550110304,0.09309425993004358,0.1960790146734034,-0.07784339958872787,-0.11158052064919413,-0.08145157665163746,0.1522439257553463,-0.03653974208422711,0.07753738226328773,-0.004576112831822329,-0.017431524590630673,-0.0334102109936616,-0.15780871360499815,-0.13895897613360872,-0.1702945260364164,0.17930708180512495,0.08216346652948221,-0.020363277950151366,0.16024373846142448,-0.18768920602144468,-0.12046628864897184,-0.09315222152100616,-0.0351379532254283,0.14766608067111528,0.050682466276534784,0.08057229175102822,0.09699453325668089,-0.025153502769810144,-0.01952364296629124,-0.013281199205736985,-0.043997167780853136,0.006400488142205776,-0.050049164984078964,0.039076921232982786,0.10389208149243524,0.13032756475166749,0.07915270919747855,0.023663202983876187,-0.06303631532425574,-0.12579253096573734,-0.17385968687677641,-0.002701256215911119,0.053825223054561465,-0.12365895606873334,0.07805463593606907,-0.007002636346158009,0.10136704131016368,0.05898018259945902,0.04706321819856578,0.1405726854256942,-0.06349669029687705,0.17966765450322544,0.004990646851043824,-0.13819761488891175,-0.003976963585353278,-0.010908763343015163,0.019167778641694777,-0.020865944408711253,0.15142491547922823,-0.16382258513034925,-0.1631650665454161,-0.08077122130242445,-0.016203185845144952,-0.05712157048974136,0.10988970606428622,0.050622278466573335,0.028855328596143603,-0.006563442755221504,0.11502436842184281,-0.28421494253922147,-0.06846133697257938,-0.03668356846060189,0.05675058995586428,-0.039588927588057626,0.09902995232474285,0.04528229092139457,-0.04989159121875912,0.15912341450675585,-0.21932152136074237,0.0018336672983169438,-0.093854295273285,-0.10617165546476702,-0.15353437351067145,-0.05491259676974505,0.029456930195101465,0.0005040581428441532,0.00843277400026772,-0.12317257693166551,0.041536534079157535,0.07397670120018877,-0.11684853192585518,0.053767751030899,0.18102758129246493,-0.04519370363282052,0.009445605833548549,-0.06673698057768103,-0.06537505488240111,-0.09003088375780735,-0.007257095878098055,-0.009104941541074682,-0.07056730064729354,-0.02607737710176506,0.2190490588522557,-0.08576930422176297,-0.041257271972405196,-0.10433723151342651,-0.059008337251796154,0.009548928028362496,-0.050697080423595074,0.12282965402352193,0.12420131535345416,0.12316008271521371,0.0706449586979923,-0.1428995662455105,0.06237662987439383,-0.008463410063814493,0.018633611090161158,0.08918282305224419,-0.016840886715685337,-0.051297516141327534,0.04043488055456072,-0.16512789614966647,0.06211833957475884,-0.10465908049151101,-0.00911826948892363,-0.03408719948970401,-0.11462250523330872,0.060032623211595804,0.20279620077022092,-0.08261956847416703,0.080286201525142,0.08511629493298002,0.19730750173923653,0.016416718185916966,0.08347766929014547,-0.16242702684954796,-0.09988012377078394,0.018249537077117305,-0.05553929532510799,-0.003715603445308111,0.08284116099029612,-0.04045307758682897,0.0075176600930463855,-0.05431325873548866,-0.017639086280839173,0.005283961854344923,0.009174274454089077,-0.06067915380513302,-0.03100463506071376,-0.22308925027892093,0.0317620363645639,0.024422026226347027,0.14604921887529182,0.06296015541601899,0.04324381630421787,-0.13385237561169383,0.015501473640552335,-0.035149762678226726,0.025024866902453025,0.001325114927472661,0.11760174982802225,0.02324528414868887,0.0021527759923749942,-0.0053224223246665725,-0.06958046013876014,-0.047980345290985604,0.09951989419222493,0.015060432538777745,0.035322807418893765,-0.07094307636208909,-0.16157628843995478,-0.0917120047245685,-0.13113040353150032,-0.052032906629644944,-0.0031401273557914076,-0.04182465759620303,0.038285222142506,0.025137317925806518,-0.05038163190063419,0.01760793695302862,-0.09125093469266342,0.12531078461660036,0.03380719066044814,-0.03584001338484156,0.009587912937687815,-0.1495420739277513,-0.021960150754844497,0.013423646192401495,0.06405194176197718,-0.06902394177049981,-0.020570468647605217,0.06015732397586388,0.0021580763378190176,0.0019145740446473547,0.12880498262644835,0.0006540102998816429,-0.09263706510563191,0.04856727471301089,0.03517749611696074,0.10219712899182036,0.021703417845820066,-0.039288727312943715,0.005927592345091149,-0.022266638196944414,-0.12079757294812485,0.005393485639037341,-0.010413616488486963,-0.010465860465485768,-0.2404592629084678,-0.005351070530697766,0.05057313017315893,0.020601871369011822,0.12010539643880501,-0.018164119601625072,-0.10191642926539861,-0.12556118012852632,0.0860444040099384,-0.040835195243952,0.01612556211123847,0.0015008164891939296,0.13280523890867255,-0.03915945489313589,0.009405582696298289,0.0908936900333802,0.05611392404215991,-0.04979564373544547,0.20853718697593002,0.0323723095518107,-0.13575032298620449,0.08904900447649128,-0.025813503432607306,0.009509679919373504,0.1873096250720403,-0.06645871416653386,-0.0031092378573567957,-0.003033437268877353,0.0013920583170950076,-0.1401229697496964,0.04668423163101834,0.028574230088073402,0.24187469962934435,-0.03485623168278,-0.03943370344051189,-0.13762528351130238,-0.015411561220886225,-0.21989846962305176,-0.02505598137665476,-0.004062426992212342,0.13175974680558522,-0.044082751629112724,0.20236434941658651,0.06437838115786246,0.08607832114714406,-0.024501704305073,0.1696827214175448,-0.07097511543296159,0.04761021033098284,0.06505661180029684,-0.07666193184353202,-0.027827767583569345,-0.05817983597862554,0.1505118110169099,-0.10110283213652373,0.20551317340117875,-0.08578394574561118,-0.05283487055026528,0.013251870757467228,-0.035119674749987825,0.0003164545610824089,0.0038225589825132654,0.1345333085153287,0.07730543355099459,-0.01709092000250307,0.17456778601224723,-0.07445596450395069,-0.04853689576973854,-0.005386646961959067,-0.028941597710966587,-0.08409311302251497,-0.10573927020681168,-0.24326525001325383,0.11998110066586676,0.006546376188693698,0.02738808248795141,0.025925598271157077,-0.07864910896177242,0.15093303408579228,0.07721569108718426,0.058543763502220944,0.08202534214630913,-0.000855320913657904,-0.05060303128551225,0.07768843942364805,0.0824168861611848,0.09639792016641045,0.04188935735508711,0.03318172884229984,0.02747109944675477,0.15008474308935071,0.08650797343634653,-0.06668361245699554,0.017282076634742086,-0.23461811993851428,-0.1319854360711943,0.011748859943788409,-0.12606413291008092,0.10255605146390671,-0.047135600037539534,0.1305777741591802,0.1148732412483086,-0.13582858688303495,0.030434593450617956,-0.21502842074046366,-0.03555347837506635,0.08028549316659049,-0.08264500746674083,-0.015176932007054956,0.0927082921979426,-0.011109708819950515,-0.015112464398792911,-0.12722372065246418,0.04631421582748088,-0.03394963147855711,-0.039979613851327936,0.10947340959599416,-0.10735698417149314,0.1579072591866005,0.054432327622462424,-0.01936828646008256,0.03989672899775105,-0.1421843474842886,-0.18875708154182666,-0.11146385771731149,0.08050999008900708,0.0355262414482054,0.2561582683896617,0.01835209434865466,-0.05238418706454858,0.00117551219132009,-0.09931543461693008,0.0898121936595268,0.047679553597998574,0.012231714469751707,-0.02184625416708901,-0.01579540393500573,0.017838613429145337,0.06896545823188924,0.09205457785753454,0.11087269957622153,-0.023205733685801592,-0.0941010253488315,-0.056106329314017496,-0.10805633251111385,0.10021345295419758,-0.11093632127040248,-0.10100270903755774,-0.17651010870170905,-0.05916163551858289,-0.09245469357888385,-0.13705986679391194,0.05436666399690224,0.17645959810998738,0.1205929399915315,0.13009776914673787,-0.021680959701602397,-0.02392205303041788,-0.15292671476061698,-0.0008141345703773408,-0.027899624417459908,0.22685169937341687,-0.012930852521494856,-0.011765947688980486,-0.03242251488263518,0.12121528603789183,0.27021763105787894,0.11962811281028789,0.039240604973818635,0.02715755975649167,-0.016646341336477553,-0.09434401775141339,0.02896877382772893,-0.3007779071517851,-0.44725931706243127,-0.015664885891511313,0.09483874118019014,-0.05001556758621269,-0.12537192496274216,0.03122701782275863,0.23451427036848993,0.07573224416064321,-0.0403731108923456,0.09908124588203109,-0.04816174958598147,0.12318389616582158,0.026846933596480698,0.19108260333420382,-0.04947520767585029,-0.13595730439518622,-0.1208369333714641,0.1503873840887803,0.1199600988027615,0.08549882824538967,-0.03670733210959338,0.23946959349823901,0.06667826529206997,0.11415455426267127,-0.12270239270994089,0.15836305274736878,0.07551123064609912,0.0957316725793681,-0.0909185738881295,-0.059081924746446565,0.06049816432468332,-0.08521869576051222,0.1457911493180923,0.07254599034523004,-0.03757825883968256,-0.07028290865156399,-0.09353620843419842,-0.13006021283093377,0.3110553708169229,-0.2956565454902086,0.16160909161488193,-0.07814432335076398,0.11445538227606389,-0.08828617411613499,0.01827310114173356,-0.28915157679737646,-0.2280728937234767,0.16009774768396573,0.3631893118873639,-0.16737663164803224,-0.271520064166896,0.0769343848709868,0.1876684157746561,0.16737319119555993,-0.10000743978002423,0.15224673285785287,0.1526135568292885,0.02124750910219646,-0.20084964559192245,0.014908614432471231,-0.14537496652693793,-0.37933507395743543,0.5761403345842481,-0.3096961740097492,0.13678574486409845,0.35712770137218164,-0.41739688093891436,0.28735266661593317,-0.36709643935805497,0.12944068227262143,-0.028187458205705413,0.3008215805391972,0.25151839398638104,-0.2855860835363573,-0.5998598056013715,0.9756953514154728,0.707830744909407,0.6745335666717905,-1.7628457330305383,0.7369996354900977,1.0742778129184356,1.1617333516296005,-1.5509871898973318,0.6726850988118123,0.8299360237693656,0.273948825369459,1.326878328855219,0.9915263908400977,-1.405449563958432,-0.0984671724385868,-0.47452376936491936,-0.2536025709539002,0.7502459135389119,1.2872003841857231,-1.3489691672129847,-0.2506620934856523,0.3318609539911592,1.7828709555547622,-1.210120840824042,0.05778153727116568,-0.030313982008861373,0.009554508750293676,-0.011469613341377121,0.006155378593134204,-0.08658700587756578,0.04021445437448339,-0.06800325430559072,0.06294222504776718,0.05608655356300527,-0.0423205225267171,-0.059998208781075396,0.12122422534300295,0.04882333746972887,0.08236296548736549,0.035528195911369964,-0.04173118483782688,0.18754176718175866,-0.10223360556544685,-0.06799890061546379,-0.0012024549084015046,0.12474511235318318,0.035105026431063065,0.002171358226662015,0.023643727662671917,-0.15119358701627617,0.015425868442323116,0.03851087507326049,-0.039378188580986254,-0.02295793275077734,0.04505669200969053,0.045162822950683176,0.07674742312661526,0.01493977742950181,0.06367731907678507,0.0837908109471284,-0.030728960125425444,-0.09607572114423336,-0.007973912365119832,-0.13084656136122777,-0.062455781845632205,-0.08196559165759748,0.06119191172657942,0.06847592265387778,-0.07798909058900835,-0.08990054835481494,-0.08470007679439988,-0.04498778134559035,-0.037498696589184026,0.04975656377981049,-0.0018650140881836974,-0.08872042574857747,-0.03224182928995248,0.046142648093850866,-0.047049731207144216,-0.047845795123312065,-0.029044915311296157,-0.09072006056078685,0.03319901326831121,-0.0411471519662335,0.012269155189916947,-0.07315139764851902,0.0043051538719811044,-0.03554911752320477,0.01092623456522428,0.0035492316640732273,-0.028141839499203618,-0.03966247354168797,0.1375629141029391,-0.015174325709170758,0.09481154809624047,0.00878407562632057,0.10605858627784719,-0.00932960910485982,0.21175827800775604,0.09330213428112086,0.01787429264638584,-0.042139141148443665,0.218596006441504,-0.04389060190314156,-0.057176915127995706,-0.023253481474645316,-0.024814266906467077,-0.02206186110438998,-0.10725000711015277,0.030194739256655233,-0.03824969501374641,0.05571993657564789,-0.008070045511380077,-0.04125183576833143,0.053251128876496655,-0.01585320697722563,0.034545985850816835,0.015889430898513135,0.02507221832497634,-0.03262177438516353,0.1076435894894123,0.03131758892678523,-0.09336889149333157,-0.005229788642403943,0.037518479715239125,-0.02905691403735553,0.05445788064759206,-0.03237188268855178,0.05934214529122404,0.06489617838496746,0.10609480481642332,-0.04393047270810096,0.02690829645179293,0.024488529168727624,0.07683341442198072,-0.017135409331604737,-0.06626331766186357,-0.12960561499152068,0.011489853579342863,0.011935857879477462,-0.05676844041594385,-0.011495521475107245,0.041083415056079445,-0.011121209967184572,0.07218043623798545,0.022352923447863146,-0.056914606437038336,0.09579037913464664,0.1239783701078299,-0.06037411260847572,-0.11508921519515221,-0.0648109500843178,-0.10569163030052593,-0.03344399234050793,0.006611004459624026,0.016529644809879476,0.03981400426064224,-0.037768248810765064,-0.018565459064231744,-0.07338224476660413,0.06283113388076034,-0.006379518565174222,-0.03974220394651823,-0.024109571813134802,-0.00902865500970165,-0.03970582167350466,0.01096079309716086,-0.0029886020564330353,0.009860966806115975,0.011621245916026845,0.057558293878072785,-0.07428040110520177,0.05912668294116758,-0.08950203593485286,-0.04880660613509093,-0.08422317640881048,0.07945780733644808,0.038328208274648855,-0.027848467075710516,0.044351855565580994,-0.0797672528144364,-0.11670655578473496,0.052889192348287414,-0.0336336396039375,0.07044726600413574,-0.022725766794274713,0.064909266757146,0.10294840039341834,-0.071781833448416,-0.03800394914837362,0.10851511178511315,-0.08522433921648674,0.021798443310782758,0.0036031683279590327,0.06988949838191397,-0.010879893288479648,0.022458483873310623,0.011521613795224461,0.0331508665185406,-0.00695855510634716,0.047937800210779695,-0.027975924472854966,-0.10450495130205908,-0.1571259490029312,0.06924972133369389,-0.03571898536009913,-0.09731026123759975,0.08811952281842626,0.11935562217823945,0.09850920179902782,0.08601069970278108,-0.19147553004109533,-0.052152741503994154,-0.05963129675123331,0.0037571635794845207,-0.005367628913204643,0.03209600265655329,-0.021888643454164754,-0.016569708985631582,0.10169758861323135,0.02326027428946008,-0.050739589810972575,0.0737803375915716,0.07938244166237643,-0.04636939016554845,-0.02393831005290267,-0.019827786532143538,0.0660520404727261,0.04337308939850149,0.10180063951683575,-0.019161968006896162,-0.014252066507268747,0.060890176780227664,0.07307648321158118,-0.027738537096914893,-0.0915962042485037,-0.07675527301489367,-0.007706052652457607,-0.014752901800543622,0.029170024237241823,-0.00178449123168033,-0.05855611372629642,-0.08405812005725571,0.05162342883299143,0.06637968864611818,0.03920594834688077,-0.035604194479763575,0.009578615949429875,0.000991511331957991,-0.10803565322927218,-0.0295006997260955,0.007240179357664118,0.03255629863877736,0.0035830469380807493,0.06089259071248288,-0.026647217281971884,-0.06980032212444803,0.057083822529133445,0.0038227747707594005,0.06867695004708596,0.0872898542733913,0.09506507015625526,-0.031913910818509236,0.005928815954036231,0.0023632045542994057,-0.083873005859275,-0.02384102922675303,-0.0622229321032886,-0.04107497772202169,0.015944178211995085,0.020865704093781426,0.041668403159108566,0.17138445749808226,0.1530137558891445,0.0005745973008985523,-0.02177800744272357,-0.03789408397641818,0.010623791813544538,0.03457736755973683,0.02524299665128852,0.11707588727768706,0.032583023988004736,0.058919388129185235,-0.0293263109317842,0.0047001086460977766,0.090257033392301,-0.04083077353784076,0.046216875840594564,0.05204578127750502,-0.014198485764746603,-0.010084851657626018,0.03698522229199634,-0.10999112344632814,-0.024309027342496122,-0.019370612776762088,-0.053781126828064754,0.024776278041499254,0.07246813764810224,0.06903887625564561,0.03915670240487634,0.0060053654222864085,-0.01209412814022591,-0.037275255961164024,-0.014371042417731177,0.04820698868561864,-0.015171135968905515,-0.01863186957386952,-0.06833411403395723,-0.07702881131896604,0.1658324127445568,0.1289435604435231,-0.014785998257282095,0.07369818698015052,-0.06617307970819834,-0.01044111600904935,-0.011767933091653795,-0.013848618512227434,0.012234809130370155,0.06182575407522831,0.13199849729622773,0.04402887128128355,0.12121690110132997,-0.04570155477821362,-0.06216816910225474,-0.013139945354940992,-0.05944079974874121,-0.19412404231517555,-0.024975449847513553,-0.03187344248172009,0.05619462301471656,-0.07979643007532988,-0.07480593232811043,0.10007938054584514,0.028181981357182296,0.04543231848596644,-0.016290688983387664,0.054857641464830936,0.019578365543871577,-0.05424116618435265,-0.027038556618412687,-0.0009076161637666884,0.11427760228531304,-0.023762832114106663,-0.13137729486352479,-0.04886655883043968,-0.06396614240180233,-0.02133192757912757,-0.020141511049253814,-0.07761769621466261,0.09581814503283126,0.12371771889486069,0.022774328758635227,0.0518043549802337,-0.09832387244490234,0.03212822332498732,0.05398878694014644,-0.0768527309870041,-0.002776618036345035,0.06064182362051845,0.04909033421297392,-0.02666400546072313,0.09214854381223864,0.005625060831387135,0.020125178170527534,-0.1332295364657294,0.04023559599151909,-0.07566591088598974,-0.06307991705898797,-0.01694362511060289,0.0075532619171917665,0.008265784481387423,0.11589429458171624,-0.12733787483760486,-0.028656280809987195,-0.08819461015064028,-0.0600779775164192,-0.027198671521521493,0.09172826621191099,-0.10877830655170995,-0.020060137669013198,0.008044576941647976,0.07318133588535679,-0.024961745145112967,0.05212114394344451,-0.048363625899976684,0.02720147417763742,-0.13596048772277453,-0.10001616675434938,0.03042863146746654,0.05937239467330532,-0.09091487076387683,0.0027457809484018464,-0.06265697797993998,-0.05808942441169061,0.04084942009338062,0.1657635340822882,-0.068775357224675,-0.017612136347488594,-0.038735416710931954,0.11449555096426217,0.08063881411043107,0.053587375011611094,-0.014304567419300973,0.028757854241268196,-0.08582107052715533,0.0951925035112366,-0.04690352507470524,-0.11545925470509419,0.04475936616862445,-0.004080422303797322,0.02693250929439082,0.04956352159748171,-0.027617233060702677,0.06663106269388962,-0.03914112469789992,0.0529556578538409,-0.157798826380872,-0.0006028191340830056,0.01822249090845693,0.10855868104887222,0.12906209871872804,-0.09952327717245864,0.11105285428057571,0.027898529495434404,0.018963798804084463,0.09286884191290865,0.015837451525187483,-0.16660132455599505,0.12550834264788008,0.04197481253150232,0.059191347594709585,-0.10083863350706199,-0.09696130493306804,-0.025701538860217067,-0.0472158684267117,0.07306994887098738,-0.11676804259617256,-0.17484528764858698,0.15065897266466174,0.016197927583023207,0.04829971718213048,-0.1557013719683098,0.05792932447123821,-0.05990259345244082,-0.13521908907020544,-0.05976880409906039,-0.05697157829061702,-0.01829408039436351,0.036711521160589934,0.10798807187440787,0.02639423601057378,-0.02389794879323738,0.014189653996652686,-0.04943402312846616,-0.1281642044636588,-0.11095765796010112,-0.011670274034789511,-0.006652323524742175,-0.15980713509276223,0.06678890648917542,0.2365464149042607,-0.1095699548746788,0.1863550226045325,-0.1745752526326499,0.11168792137694562,0.1780423924806991,0.0955305664495808,-0.2715372711666229,0.17569433549945246,0.01390962074218675,0.13382164017864576,-0.21364612186978593,0.4871585460044828,-0.11771390267145192,0.1949971540435561,-0.1674754611484615,0.29089946575780484,0.12433064631501631,-0.09709075017211498,0.019731756692712436,0.5737030548181772,0.16464140539814173,0.3200152600829033,-0.6686099452407879,-0.4272141945112099,-0.18403044879962374,-0.35126199757928017,0.43394269809654096,-0.07476228764455131,0.14192969641268835,-0.31672672161740506,-0.2606409839806208,-0.19991934761070843,0.43767211453757837,-0.34858229029736887,0.5113099318089576,-1.9015927623732736,-0.331009110430595,0.6329132237446178,0.011648310699112313,1.531900501966024,0.5018144261119091,-0.47992183416582546,-0.6220324251913821,-1.0252399743548641,-0.41940717996610155,-1.1406631095142246,1.6047501972229872,1.606518257352256,-1.652731291962956,-0.2932073858512272,0.5293168566953592,0.9885962055508835,-0.2892623698247671,-1.9466509845681306,0.13264851780254763,-1.3829258807797407,1.4622524113211621,1.3844980247328067,-0.6558513005088509,1.4518111250707133,-1.6264834528423544,1.5196244001567025,-0.8704564852056232,0.007041029350231606,0.013622671500205717,-0.07830683516338094,-0.0034465279460095,-0.02796060563201464,0.0018922756094816003,-0.04873016355788307,-0.004871380320645748,-0.060259820251610044,0.02108336179649134,0.041254528160094596,0.007304843132487176,-0.026730937731634027,0.027642923653009032,0.10262268267158976,-0.08812907815847255,0.07854232774202773,-0.153903714051415,0.0747401087746957,-0.08892241396055876,-0.019898520232575653,-0.04689909287668531,-0.03686660187232532,-0.023120857856189964,0.04088909722748616,-0.02110360712166164,-0.07853479247700298,0.013445465616800366,0.012775081107097162,-0.036098889173250895,-0.02089819752131509,-0.01362884302105592,0.015467445580471785,-0.025275623140093816,-0.10205167513043142,0.009901244590181239,-0.003219994602407057,0.13651014106124673,-0.024585704481379266,-0.09010322298674486,-0.14282839313804493,-0.016813604862428232,-0.06061495553931669,0.09195291365759306,0.0314956033541488,0.05967074023389025,-0.031369734877913336,0.022112045357708467,0.06196691454795067,0.21466315680389797,-0.07946606908308185,0.11144079627964898,0.06215432443814714,-0.11045933427307597,0.08989091162098296,0.0028772103998207757,-0.014263245665660144,-0.005229324211075944,0.07899440717294218,0.01339813535420596,-0.1068059617735265,0.21957832130140964,-0.020932318526274276,-0.020886498077185192,0.12551832816254482,-0.019815253069604313,0.12064069526297612,-0.028622441411624237,-0.022858551760956455,-0.03147317994086857,-0.030452730941322604,-0.059943742065539714,-0.0774144230784428,0.08544391293159466,-0.1287818818760143,0.018320411872108148,-0.1070482415281469,-0.0064412818979126905,-0.022570677478452213,-0.04002865974962778,-0.10647889472657232,-0.005918991491911978,0.02120902671213983,0.13751811834270372,-0.15885078391559349,-0.08087468615540776,0.1158517317785982,0.055058413432692285,-0.0790163481654601,0.180533127610768,-0.015434026656469405,0.027367163181271737,-0.03102102837112596,0.04345658291459099,-0.03836190324790885,0.020577530444516653,-0.05752362566100597,0.010675681600101645,0.04570859595810024,0.003993847656234348,0.02800265813877383,-0.002485699441622311,-0.0026651633587555386,-0.023661460190132627,-0.02195192922059528,0.0018715460247765105,-0.013453803265180513,-0.010397321548060045,0.07628157032705649,0.06795368988246327,-0.05099273123993245,-0.07787446041616353,0.011000084886496108,0.054147951817439297,0.07826092219934228,0.008039286190822257,-0.15139171905220813,0.13911940314121168,-0.08027614357927504,-0.024025081436380304,0.08999687540411097,-0.011451102486275707,0.12281189192553496,0.024889434689438994,0.05335324810959883,-0.017427500145142195,-0.13053410722286227,-0.02737385749664397,-0.056231589705802,-0.0005779684999104794,-0.030015398199699714,-0.01638388339518095,0.010684888299131563,-0.12266226535663424,0.14516091572548856,0.07295868413793632,0.015171398168671071,0.08556237713830982,0.14481459103261132,0.05740176547344177,-0.030196954098581568,0.034793857113466775,-0.015729350222577897,-0.04911542017587347,0.003451588303880917,-0.01696130812670925,-0.15796088727461033,0.08167339124433014,-0.08149737602482895,0.05819706440801094,-0.005713802611208385,-0.08616335591897958,-0.06435305609274948,-0.047115102656148905,0.14291128952618368,0.11068370462038715,-0.003280092226049841,0.13077271738945162,-0.0910496243501694,0.06617170685503367,0.11878309488925316,0.03807083118034365,0.13249841457850603,-0.039144638369475224,-0.08048536427457387,0.11331211412263464,-0.08622468223519436,-0.068314288342314,0.0567800827581445,-0.014043263025319719,0.009648992533111954,0.10595882406445406,0.033944138669200596,-0.10393318195974337,-0.004970779212184749,0.11691645296604335,0.07036006093625288,-0.06952246902179365,0.008151580613203601,-0.14259328614589606,-0.05996646225622575,-0.01359651933712916,-0.044221434829840575,-0.04921975473616557,-0.003647093358454408,-0.11010882292822281,0.027147160008930034,0.037773183996261256,0.02696863264890555,0.07252588464204948,0.026211342348383192,-0.013501841525224425,0.07094494820389594,-0.10786745649423503,0.05674740141667561,0.003911048438775538,-0.010248487554724638,-0.021721991925275123,0.07193601236418123,-0.0034324774304117307,0.006983997178287016,-0.09910475414793651,0.1438768463050843,0.017444473358665308,0.011287118291399391,0.03480564192533364,0.034902896137700735,0.07692165405137194,-0.045755193136501116,-0.06041140636460909,0.07591997296623695,0.05701862743704728,0.038748033638401916,-0.20461400513620798,0.1541276765849585,0.10784111579226305,0.007553524650449475,0.08545784867309134,-0.07711112827799271,-0.020162504852154473,0.004981607871660024,0.14644226929972698,0.04533612899763894,0.00973671658974052,0.03584512886456309,0.038882764488538626,0.05340867487591172,-0.013301325652878008,0.01854643610903234,0.06054672670420424,0.13004711230737256,0.11339438312510848,-0.029775678009141944,-0.07554572888084145,0.08828852980447655,-0.02331613350992672,0.08190620023331255,0.007419455892283211,0.025942274834790544,-0.136880745330029,0.08732109650144697,-0.0741409014793073,-0.06991938265263742,-0.04617050903120429,-0.11322619846502718,0.07176128671639027,-0.0053057237611521665,0.02542613924668635,-0.05327192781228876,0.052904626371536,0.055677802056198655,-0.02633324746158328,0.06496253764230141,-0.008231959923795128,-0.11302054924565372,-0.06716695272450322,0.08007284794293952,-0.05844660835133079,-0.0033411091209434056,-0.09769752180096773,0.08620976541756369,0.025529776903692777,-0.0044002665876779114,0.04608031479759496,0.07879468873673141,0.1324019826643711,-0.07224331921575679,0.022545774081332837,-0.015873219561752982,0.021381517210988948,-0.11182733509384347,0.03579286378283002,-0.16511107442698789,0.08093342580271526,-0.024082562024060162,-0.0033067139583542343,0.07261059379114654,-0.00926972484214758,-0.054619577680331696,0.09552163751466923,-0.025874918662441293,0.056972171458328925,-0.10677140496433596,-0.18051503444666098,0.1616550312031967,0.061476303670861925,0.07371981049382555,0.07160622353129266,-0.03759870753177661,-0.027098518847856055,0.06914765243646206,0.021378846241776397,-0.026853480340951513,0.05076578796641076,0.025931319109678247,0.10572954831503226,0.06448580646162959,0.02500189115856568,0.023093986787418346,0.10475765792274656,-0.05115165006604027,-0.09241498080945759,-0.011915419901836461,-0.039713153414887244,0.003989556076786536,0.0829777899835531,0.04414061738208474,-0.030348614646932132,-0.08877624742521675,-0.1026042442092749,-0.026761178448898467,-0.059343519034479805,-0.04855829021559835,0.009763537512363083,0.031133476151512674,-0.0037387009238303453,-0.1028463845547749,0.008648593587525323,0.04536550530068976,0.04081257699935191,0.03732513448653326,0.0068012723861010545,0.0022405772542802072,0.15367712396071828,0.03640856002893025,0.03021468091762763,0.08914793981352526,-0.04612139729016711,0.08332730866583599,-0.13548576106465973,0.029290094168660866,0.06622590475270912,0.02633446961472899,-0.032741160271294686,0.010249412049183141,0.0048961495891686494,-0.02332401465440582,-0.10745181254742213,-0.03815860287361701,-0.005124261761320807,0.004119453066983618,0.11730474216720804,0.004439841204380875,0.03478758410257702,-0.13677341519267297,0.07023906851087917,0.09781477707127743,-0.10964831396683788,0.12916647485382943,0.015630587121939973,0.09956174133652873,0.041323449809226025,0.00806520820166914,0.06181742392997923,-0.054390342493173593,0.04565781148479039,-0.00535796981266349,-0.02630103569591631,-0.011801592167033545,0.05389859608961133,-0.01918430479260244,-0.035711127291220536,-0.0006544980984254984,0.025909162711841984,-0.07020832185028474,-0.08344166749955996,0.14100924528023406,0.08601906061662089,-0.031341257908981915,-0.09075472292906332,-0.06723158777283152,0.017927016861106173,0.029241364895666706,0.027569074869105113,-0.05305578435430753,0.07379139693936167,-0.12372706658059174,-0.03185973419133578,-0.10067020189448139,0.09283392384427641,-0.03890943723305697,-0.19220127907314707,0.09497893677104852,-0.006687228590485315,-0.06457818988250036,-0.0580502074354932,-0.05804492115899659,-0.047295656142852575,-0.1799727967176131,0.12346867889242702,-0.0663889625271184,-0.060673992882673375,0.10235074670548482,0.10764126557026821,0.031335315094400115,0.09671371221542896,-0.03535000074324463,0.04607538356942139,-0.04731726401374612,-0.07090178976594541,-0.011975429763904206,0.022711265482506165,-0.11836727323700219,0.011794438604670684,0.005614476501854142,-0.1496468280958943,-0.1427603180355071,0.046580638251512284,0.013560494907122866,-0.03319073572759022,0.0040028033299664475,0.031281086889639785,0.11667234899523271,0.01730609650429059,-0.1278692067340317,-0.06192757338453072,-0.03329836967909588,0.013574113538515252,-0.0477128251056219,-0.02999865696331843,-0.1169221820722467,-0.08363849731309574,-0.08255383831366636,-0.14261702593572648,-0.030338628008434336,-0.003154294553291238,-0.12340578475577244,-0.08061615563031577,0.03486920380693967,-0.037182766005799464,0.05928067421322131,0.03679863942668325,0.19362046273031258,-0.07904603024657487,0.06778960881519179,-0.06341201041503862,0.11127271831135281,0.11838335880097539,0.06406092687680016,-0.17583838456186032,0.03263396025642313,0.286774046193159,0.0372631804378897,0.027344368598309163,0.059314224249639926,-0.1852242586493841,0.1393870276530367,0.013634187222676435,0.06434788902790736,-0.1910239980405986,-0.13522721299563753,0.14124908040763906,-0.03755761813467395,-0.22881514693558405,-0.22752661698466944,0.21554673122484522,-0.07300948084052178,0.12679437155369871,-0.08414743096190605,-0.0634890672339079,0.02103709442399182,-0.5743048733415353,-0.284748854449668,-0.14037213438211463,-0.36980582295106135,0.28603774626182005,-0.2880211503584502,-0.1290557574220452,-0.13130111807358405,-0.15350292095671872,0.2161369675683493,0.070866773864604,-0.17985827987841624,0.028923478799870273,0.40568936037976566,0.3292730046596315,-0.21368983477410863,-0.8183903329241005,-0.22568471383792305,0.6169122492674707,-1.0479246960349362,0.7818024110454369,-0.12154122830262849,-1.2475489801921473,-0.5567194782569245,1.539503614320348,1.9264616294610675,-0.04265494154167277,-0.6081160748752882,-0.21297982849333147,1.101295672321678,0.49749152351054626,3.6704747028954783,-2.6337176062292182,1.9577406641255974,2.220746003111695,3.0560682331320117,-4.091696116589677,-2.2102605281292145,3.9250155099484223,-0.035262729167046536,-0.034152569830144065,0.15824236272726053,-0.03559118731544697,0.09675852220155849,-0.11896573711284102,-0.009761298781196703,-0.028749454441255574,-0.06571815503921434,0.05913057857237875,0.006960783525816062,0.07697276173467692,-0.0047912264909451335,-0.11124425111466614,-0.015187145561801731,0.03415008362804913,-0.19226503479009333,-0.15369035291777994,0.07919121103569225,-0.07547970829241378,-0.12649238538436508,0.040495143763210256,0.013233046267495129,0.05061815361508865,0.16092815573261177,0.0006803180259752973,-0.0901991154081476,-0.07753356791496858,-0.06160750300904424,0.14228847800982694,-0.02935899782726085,-0.08652669172522248,-0.00046892056733965985,0.16771429394258183,0.0920953592604104,0.04661690566745104,-0.047002227370078885,-0.17339720820824178,0.012973949160837703,0.06672638148363098,0.0834265921728416,0.06420104843541438,-0.054120377697465236,0.025994779696561884,0.10457580564094231,-0.145868835007777,0.0473344277811071,-0.04710594620386236,-0.026350730214233592,0.11012596697858011,0.022556453212022466,-0.0317293234317272,-0.021490596244721816,0.09067698754349812,-0.11373860712835494,0.0027609277862387046,0.0477208483648923,-0.004513670717816333,0.018206423008479904,0.0655877014955548,-0.03390742515447683,-0.05196072284014909,0.060492052220547265,0.05066117641117625,0.11762150790663078,-0.1535454480318084,0.18174394251219578,-0.09631916299167535,-0.19403194268800483,-0.14156262421629418,-0.07258470201940172,0.0017730485638108701,0.08550060230675031,0.05419364555309127,-0.03521648481011414,0.08592107199905763,0.13351726043447618,-0.08463713745220529,-0.09079324160150429,0.09715364775825604,0.018197200142797895,0.07199698058430112,-0.06886663949175911,0.02340166796954661,0.17737590491180957,0.12750760151831778,0.07947982887230645,-0.035651572268825926,0.0169615790509145,-0.09600243162452773,-0.03879301888645346,-0.05486331007458052,-0.007346089119949101,0.0052968915635458825,-0.012854635409475693,-0.07749800255187453,-0.0690449240831669,0.19025773279120872,0.007538918041120103,-0.05762662994356253,0.060777227957384,-0.027623942869532583,0.016993782529967645,0.11181316805112307,0.10479056245149404,-0.03814477611328271,0.07879139774744569,0.17244601409568022,0.06686358636050554,0.019944338783623446,0.1313146851405672,-0.03898341405144482,-0.1413154071561338,0.06791774876152147,-0.060167820798108625,0.0905478619408062,0.10055545675154362,0.09342534318967213,-0.04522981214890796,-0.02834123207056245,-0.05695602180699693,0.034362214782485245,-0.03919294370295422,-0.014796784671798771,0.036791828875086634,0.07868736990686108,-0.02758060760487563,0.09375931337025746,-0.122658834039407,-0.043374566907394725,-0.1283970582033082,-0.05299795804337609,0.06379709173374148,0.09715483220998557,-0.030141670389699025,-0.07295556578681214,0.01964781396370454,0.058515421893711575,0.005827420884069984,-0.04540258033271589,0.03665325325355886,0.07900181929199915,0.03282025981026488,0.04031057128846066,0.07639436493975668,-0.029074925809540367,-0.09196842380378012,-0.1340195342493287,0.11251976631305981,-0.12363658528233701,0.05033286719619232,-0.15659994952205036,0.00788137690206051,-0.08099318682204368,-0.053154053927641914,0.09358334227463652,0.11933004399752112,-0.12859021254052297,0.0014825862082974808,0.11954709129893895,-0.05837047777692101,0.04543255431819527,-0.09838742599256242,0.03711329140133399,-0.030807750618759837,0.02465389872713691,-0.14038109685790023,0.1476180638614638,0.05547219806138304,0.09135490178185236,-0.07651559272181893,-0.03554298237978134,-0.13638697947694248,0.0645476654337308,0.008530307155794095,-0.10495628740970146,0.020823611534029784,0.15977435643808777,-0.1437506115284165,-0.1524609457403917,0.022257687750285426,-0.025181358654251907,-0.09729929632844823,-0.03525592266963695,0.08620373327996222,-0.1519778935708044,0.23433729191894268,-0.00681359994993601,0.03444213412507772,-0.01647590851704435,0.03236428525514741,0.010650315352820192,0.058175287387192014,0.009114346573619212,-0.05679342974861997,0.1216573695322944,0.013374289065871337,-0.026845129033542105,0.04130006716951097,-0.11189428912754878,0.0488230785943984,0.041280143700671075,-0.01709402570191452,-0.00935367654023431,-0.14579908561687016,-0.00393375031403027,0.10896373095861231,0.0627147728343549,0.15385232066454374,-0.08238078024372822,0.011861067534557053,-0.08775193568983611,-0.03514444860471494,-0.10421724657987265,-0.02138944818970029,-0.0748014525746377,-0.007718777383463074,0.06672527553996832,-0.14639161194811817,-0.004787163455581326,0.05517783307226092,0.07822411377663334,-0.09105797591730994,-0.02503626837138271,0.021671831139241114,-0.03514856101501567,0.010648470061749985,0.06479617216752383,-0.017336553643192167,0.05773357537767306,-0.026295041240775252,0.07550237573323292,0.20850717432505775,0.002107977768479143,0.1711387982436486,-0.05383177084756339,0.08991612840243143,-0.008557870058829771,0.04209280577147059,-0.13810800711247503,-0.08859508495048447,-0.06683739768630662,0.008839391875013251,-0.07770867508899945,-0.00041667981632122767,-0.04675525220242063,0.017812721567062824,-0.05061833426067805,-0.04980430076123144,0.06005768907094603,-0.06811974557699235,0.03217384634715873,0.14173233042046923,-0.004875558433664003,-0.026558119591591836,-0.11642356697306466,0.14050566822835658,0.0138234745642436,0.049616375162624196,0.05784385407588875,0.024134967967550144,0.10748325901487167,0.003323838178262242,0.21150807228893032,0.054385849745562403,-0.11139798186337456,-0.06382196506506295,0.017268681662911244,-0.02581699371770544,-0.016820282223891404,-0.12773099406655405,-0.04079816763831274,-0.03879193373686676,0.01743199268099705,0.03417470942766351,-0.06125603801728,-0.12217149528769347,-0.19684293851888704,0.03548456013274596,-0.0770036617064828,0.012182930955656208,-0.03641692286385898,-0.03322414709122962,0.06588846135236787,-0.02326992590847981,-0.04219553205621847,0.19779257920881607,0.09644797821713069,-0.057334936818775516,0.1326607440962576,-0.033791598642184284,-0.019338917096827345,0.016688262012484415,0.018101804519182547,0.09800192422482926,-0.03281964730318746,0.030567780367846395,0.05991163340118621,0.050659739670868634,-0.043139673130667223,0.05281726271184109,0.041511922247460954,0.011556918959521677,-0.072429399861691,-0.0814343092910711,-0.040187932972222416,-0.06357856370570845,0.05629871800246138,0.09959301179471629,0.01558125474519184,0.02448724904089733,0.04099399085418526,-0.012773548112449086,0.037711561659161244,0.002512538378619502,-0.014061077651601306,-0.032183001699073725,-0.18150742183946533,0.08078600011976425,0.11674138384764395,-0.0149124962116573,0.08389679227283116,0.038292035565717905,0.12021023112929624,-0.10757907639952001,0.04523932645627871,-0.0867842844957701,-0.20627169915372606,0.1598716233934237,0.05288695106062153,-0.02327375724532985,0.1251693782495213,0.08624106600833664,0.043191842555467076,-0.024187977757507053,0.1727319606101944,0.010382338312184484,-0.027765463801271036,0.15033246627981348,0.07534658636321777,-0.0061786517897600745,-0.13273885914951417,0.00786138740998341,0.0038886950581482416,0.03432113593671852,0.1598651493268876,-0.17781026325646945,0.06176897565045955,-0.18640206602456674,0.1298914173075936,-0.09551583153125508,0.09405022163972972,-0.09863186650155725,0.09346605403477755,-0.02613886785790824,-0.08595156961709706,0.09655857470144835,-0.035946970800758996,-0.06135424835999276,0.1020354319603243,0.1380247088574598,0.08421110129515513,0.10970570584133575,0.055775469059853984,0.0025344855176622503,-0.030112749695014554,0.11666612874130329,0.14075168747242672,0.1067995491246765,0.07429906973889092,0.1391677228226432,0.09182101052626543,0.01171298813796227,-0.016823503048019918,-0.1296205935671398,0.11644931044626605,-0.018321094771526603,-0.06562079211067554,-0.038063214239490994,0.005800285677442426,-0.07767037469146212,0.12404585080941988,-0.13528470268065793,0.10282660434717114,0.11637057769852334,-0.07171983277754382,-0.1253612807753777,0.0699863960359043,-0.17654064560547617,-0.08648465876046633,-0.07821823474876183,0.04216053344108953,0.07754643668473352,0.007973291465692083,-0.15667771393581015,0.05284997802244722,-0.09677334814098738,0.04940220203804821,-0.1013743428480696,0.025148037986927968,0.021096664610873905,0.02789848640304908,0.1261875568757212,0.17667206304722163,-0.18158651336838041,-0.14889963022541744,-0.06574496372387456,0.007407733122314374,-0.1545741281256226,0.1712259814939077,-0.1003887948090791,-0.30171077590911105,-0.20471242763905498,0.000018060859672036438,-0.08049145428026737,-0.034705221324005456,0.14835095241106877,-0.09237482386265848,0.1551145481352114,-0.07098245403540371,0.2325571464926278,0.004640447186865499,-0.06541623099514321,-0.13293140867757244,0.18407174020991224,0.21036601521820567,0.1752458194077694,-0.061925288294353266,0.1148165311942749,-0.3669210303432921,0.18398852814483752,0.12345770699387827,0.21043746560445467,-0.09736193593338556,0.11066632363797367,0.1208391428269973,0.25863896775771694,-0.14261924677621046,-0.03208582020707288,-0.2921271197931105,-0.038232729287572285,-0.21280988503164935,0.06555580045864559,-0.0964660620750983,-0.2121325208096778,-0.17904949496966602,-0.01491241517833035,-0.21852787431891826,-0.028197687687837012,-0.1008478171343997,0.018374887468979164,0.3250828169727512,-0.31613859914105047,0.4556695730656712,-0.3775207744674282,-0.05482689275876863,0.5101599716771312,0.09761326064864298,0.5499531766725777,0.28962705863617644,-0.15165981020345118,-0.3286761789246749,-0.24349816523469447,0.6250290488266009,0.19573044632001085,0.024168847079737477,-0.01786116224152496,-0.09734091674392979,-0.2041120895700355,0.14307238460419816,0.19400287438286076,0.3249414165047565,0.20877498879182924,0.04094368321729445,-0.3332741143125834,0.09767019196718527,0.4074600636790479,-0.032624485111766674,0.49106721290842176,0.09591485251912595,0.26221909266805293,-0.07373191144659307,0.08539068277433598,-0.513341422017791,-0.000232881530288917,0.5383589754423613,0.11386760158805766,-0.12522098694577433,0.20406889851290894,-0.18294154859172354,-0.7420816114781894,0.2509694198332539,-0.903083444216108,-0.3299765053352077,0.34870748748666175,1.9923267657259618,-1.933383930520066,-1.202087075994267,-0.9902146124983287,3.0542000350860103,-0.11076134288586861,-0.006343167432376789,0.014211383558910419,0.07356364870040648,0.012583149889189462,0.06727641214674812,-0.06143111601124679,-0.02558665537710346,0.006153861140837892,0.04266320929783097,-0.03573704003031768,0.03838499079817773,-0.07243182711761395,-0.1334048855547385,0.1028440908672018,-0.06137465295091697,-0.04813580130493094,-0.018233751990256526,0.0338626045057532,-0.040104351587268106,0.1279572008941113,0.06741744224585779,-0.023376895823729454,-0.04396351125274504,-0.10123303385529507,0.10074938704796249,-0.014319467605002668,-0.06273180028320716,-0.04051731896393635,-0.10535862138560001,-0.008563221741436451,-0.007897625369787312,-0.003949397656684133,0.00920491360799212,-0.10745096678997841,0.011145614635942293,-0.00196314068145697,-0.004543375483700638,0.029281013215378633,0.2207648407585239,0.1575637859895932,-0.11220560751412087,0.10717817113676247,-0.04003797640413376,-0.07924708735124696,0.03617859921194778,-0.07058527150104173,-0.03671280027124641,0.0047786346712336576,0.03713723218858326,0.054737603260828854,-0.03784084420490024,0.09283271897528902,0.015573358975509728,0.021926982970328995,-0.02887999557983705,-0.043433706571786294,0.07848700294652228,-0.10921167807685589,-0.011778388640271623,0.08946843853827367,0.11281981549001285,0.07147045602411393,0.10518242588115895,-0.0327675620879276,0.10061833863699429,0.009805252654614311,-0.0738068334057861,-0.04207393656038078,-0.022365657428067898,0.09421945284713364,-0.09907988665463005,0.04393463721467743,0.0043419512468218105,-0.03760355396893529,-0.08721185016531914,-0.0388360672770813,0.0661433415079624,-0.048444101152136876,-0.18101396042417867,0.03430481272071111,0.003993489568782805,-0.0778745043934675,-0.01176608400932932,0.011062707459501933,0.048644698329618756,-0.09447147685505693,0.016141262544096754,0.0015154200264969342,-0.08845184583092691,0.017836168587082,0.028127145062670975,0.004568741393259472,-0.0030741834608566587,-0.039279732601874284,-0.07701498610646021,-0.023038415881582085,-0.03595561808812162,0.1756686715177002,0.05041448019104267,0.011002538301652905,-0.09227201550253329,0.01184001116682718,-0.02934511261370892,0.04235264951395314,0.0021027879783548035,-0.007776215472811486,0.09543135466273954,-0.042328032248171006,-0.03344140916622869,0.033532931677719945,-0.002236730308342658,-0.053546805185783676,-0.014478758337998146,0.09287865933221878,0.040769549809260924,0.054437104863226934,-0.08851416770324833,0.06787312634256966,-0.04252145006839494,0.04901119363292675,0.0637520859175195,0.029473832204962115,0.1462607835431402,-0.01773607803262125,0.09526292551457742,0.033078473525819725,-0.029028093135397472,0.0008520780831767191,0.028714458097855576,-0.06098222423695005,-0.031118843192344783,-0.030368231181435248,0.08187122627242521,-0.026132041362623225,-0.02636814092921139,-0.03239156115207762,-0.04773190320416554,0.062042735363247475,-0.06585521741950538,0.06879634580246666,-0.10857616441532378,-0.0011783230112965223,0.04317896357676645,-0.02397867894111649,0.09397403526132674,-0.09531805588640109,0.004887725168149246,-0.021755094818653443,-0.09296452807169983,-0.014535800029653136,0.0707299679430209,-0.11062276311558812,0.09460452846816801,-0.03651656532666715,-0.02097846624956325,-0.045738346586154506,-0.09497991697898266,-0.017866672912703146,0.06036939649455704,0.008028465266495446,-0.07383983125572346,0.03015544865610128,-0.04464932998503224,-0.06458664274166781,-0.0014392172722902188,-0.007405005529863527,-0.006297397435364256,-0.008118291781822174,0.05562780228197151,-0.03979500598104756,-0.04525595680556875,0.04532473248108147,0.04324820474304847,-0.020150625216023916,0.027172154183966526,0.003950962721839681,-0.0035408431282953658,-0.035344908457289825,0.043791213759483215,0.055490073909486376,0.019978239149615863,0.03409296237936918,-0.02221324482356636,0.07417381398160824,-0.0975011432850666,-0.018020438380943297,0.06546798828418902,-0.012507406751126101,-0.0667585391894423,0.02416200716258004,-0.03100227426943343,-0.05013907526004016,0.01545961188547165,0.10586734031616417,0.0003718440463857533,-0.016799127556538875,-0.05259010714802217,0.05005322216786224,0.0956300680118251,0.017653191869978248,0.16520246261742158,0.0917892465604457,-0.013217327442881944,-0.10400150767549544,-0.05401816357777791,-0.04684972122247072,0.034907539997233006,0.08154607869847837,-0.007464136894465831,-0.018613381189619894,0.02511091670914672,0.05034311718353375,0.1303704724968719,-0.15068343852027233,-0.03756943007037896,0.029587785730129258,-0.048349562048619975,-0.0061310404644481,-0.0036978448468157673,0.0690144252760023,-0.10899326854641897,0.09184067897619522,0.13305132593992575,-0.06670139979444532,0.0009170856396941186,0.07087627887639589,0.0006218696589775591,0.029580017588056094,-0.01608551041578996,-0.02098365744003669,0.10972404767768659,-0.0923108571386324,-0.03322841872514285,-0.04284915597592053,-0.1443857865598183,0.09818123609479797,-0.008345209905778216,0.018078664351205517,-0.01211693037946122,0.017821516357749815,0.02298724236422986,0.0819420523693194,0.13564031019922976,-0.02035233590126838,-0.05580676410370875,0.07764138133162585,-0.0015810000797102414,