{"Layers":[{"Weights":[0.9044402212025995,0.33108115192820614,4.603956654437371,-0.48660365754227863,-1.9740315274158766,-2.4145399049180853,-2.1556818388919496,-0.7547242380605884,0.16241389981976154,0.1889775874802111,-0.2445950016014865,0.19030177883980604,0.6592972614623402,-1.2145620828330095,-0.4423842018134308,0.31468397943504933,0.06216606240578414,0.5071080695331377,2.669733729497246,1.6182172251194078,0.9977354291687263,0.04404980181513742,0.7633631104264723,-0.2612869691320206,-0.8595495942444161,-0.9051897124082506,-1.057247223273911,1.4419846722712462,-1.187375266042957,-1.127263000088886,2.087138721403277,0.7871916108574514,-2.5506063607990326,1.0120457134222685,1.613284356971384,-0.6637905032878298,-1.6334043586186981,-1.076538528716891,-0.15521700312767184,1.3750656555141514,0.5842006201471694,0.8304913960989543,1.7822497533066253,0.821709352349214,-0.8480113934806393,2.16381197518473,1.8722756382431656,-0.34060586653806363,-0.6726638658140098,1.8153042289851273,2.0313475669084506,-0.3552599218560694,0.8409266729202121,-0.4211384347592308,0.4584584712802087,0.4969319052268296,-0.5269821829721587,0.5458698584719742,-1.061349004111136,0.4731477918268915,0.2094115290097494,0.26079636107256093,-0.521396543912874,-0.7299796348274307,-1.3550387175123069,-0.38030562199414764,-0.12610173400051727,0.652326464951964,1.4898907202687026,1.7093440799537145,0.8227869555499546,-0.6304693895576454,0.4215883645470734,-0.5962760096640085,-0.7066951006139452,-0.32228440423496063,-1.744872030971018,1.9428779602612931,-1.2722242296430388,-1.8508520601377243,0.3414557113971235,0.5374015277251372,-0.9572605169189474,-1.9429861806504238,-1.6862488743875692,-0.3859942019260044,-2.1304605569840875,-1.748276408343473,0.12630735525626377,-1.4509829537261552,1.0553812655599786,-1.260050099333854,0.9831042490371963,-1.6790113121132055,-0.4864727055212407,1.237476819608873,-0.5052847703346238,1.0427012383196428,-2.2137498794818313,0.8965667018900686,1.748651832464524,-0.5442787608064152,0.59001784718874,-0.9284144686796788,0.24141750801666653,0.21215145195860843,-0.5045814596066341,0.7920966528468075,-1.366845753730043,0.4429498277540909,0.9172267556687409,-0.1797872981224341,0.4735981516528673,0.008947735446336303,-0.8817335981873995,-0.6324003386910839,-1.333425362761156,1.9138314879080869,-1.3339934750108555,-1.0315698816622056,-1.5481471701837919,1.7286045542346256,-0.29121714366846785,-1.0027179270604059,0.1876459532640789,0.42582701406925794,-1.7723406415372223,-1.87266024601264,0.8425738560036239,-2.111701558597344,-0.09941073213458794,0.7767058772580494,1.0590556963132625,-1.2431486770144522,0.742710649386486,-0.4364339756188893,1.1902369656475438,0.3853013444110445,-0.36609014894499897,-2.048553908950449,2.766693983547411,2.2392724163499036,1.3832162969888078,-1.135245260235831,-0.7115291499605992,1.023964488782511,1.7912462324812048,2.083511646030923,0.11232815791829698,-2.0949527124902056,0.8665675854225355,-0.9305110688814868,-0.6254095138104524,-1.1248933720715129,-0.6319169784226594,-1.2085881589159504,-0.23476647958918948,-1.037848262226511,-0.7575274941305251,-0.8388620713735574,-1.0853314306536515,2.619178069344673,-0.31861887229793245,-1.117855633673638,0.5339156318874383,-0.5147806267945652,-1.9730287092058971,-0.6373118888825967,-1.8759354430453858,-0.23220659775218894,1.0136346339304445,-0.5472177622512923,-0.1545760369894102,-1.1422445272526993,2.7879789472263465,-0.10368869281014971,-2.0493944405021796,0.9845827506422583,-1.5552810674303785,0.522348737324775,-0.10994137232867474,0.9153469260392781,0.30009089427645497,-1.7786623836175406,3.465514280510932,-0.4146392233622149,-0.08330774680484912,0.2902055315727881,-1.6825310561190823,-2.1795658003732603,-0.06557099851955331,-1.5396927801374551,-0.11755518959547837,1.545839055758236,-1.035535540531633,-0.6800863859142924,-0.7501122055067447,-0.49323022144462336,-0.41619416605791604,0.6613477803283229,0.4492246124917441,1.9437531771406995,-1.0804579874560507,-0.23700813827828313,-1.5854279491813377,-0.35179808182890643,-0.6066574248666955,-1.4907996742032303,-1.3121501568804392,0.7172450878046599,0.27524767022549734,-1.606538418449172,-1.4014867988368558,0.2844209405682223,1.2069109466644787,-2.7336900622091616,-1.143259807597202,0.559295950776115,-0.6067343101732185,-1.1626875805372419,-1.6070233945290977,-0.8957778708551539,-0.2812718578469423,-0.9907650391217698,-0.8578857757456771,-1.1802606439354695,-1.1241491045996888,0.9686934788831513,0.19898838227155985,-0.07972277007734994,0.5909656539248428,0.48129958427068215,-2.2925455561359147,-2.2439424553337233,-0.09483339637233339,-2.52181165967368,-0.5636967638263873,-0.20112659584475073,-0.03319455687654672,1.3436127044148234,1.3970267816600048,1.562100063982823,-0.18548634237914133,-0.36755165261590506,0.5432453464737204,-2.5672403176797713,-0.7801980094269049,-1.171303936960986,-0.0322353849902284,1.351003287151481,0.9714829926606482,1.152967565649986,0.8513658593959523,-0.2502588444965301,-1.0264854454130892,0.7305696205690825,0.28384473378100267,-0.2507452252584087,0.08535610994049167,-1.7335892215490125,-1.2683899215164367,-0.6170526518133963,-1.0374349104627347,-1.280267685137435,0.4211492046190081,0.9342660923275296,-2.0898085506852295,-3.191307803569436,-0.4266438037807786,-1.7126940591762256,1.0496334196268617,-1.4969615962390048,-0.2909220911958443,-0.7352427550934261,1.7907548645033013,-0.48548374156287505,-2.4026457994015153,-0.1503918836677273,0.5687490300041976,0.25193204813751174,1.0914573961006273,1.2547929627775605,-2.53065966070852,-1.2893782879127345,2.398689261868046,-1.8036836706604646,-1.9995674869429303,0.7356600535430183,1.9601642702628208,-0.47286554622658694,2.1569692068082533,1.9626523941844463,-0.49283731213639775,-1.8661651298894206,0.4588211767450443,0.5635662931214447,-0.7286009025462199,-0.5454472915579938,1.6067302702412856,-2.236749694021477,-1.7375321491110127,0.778677567365219,0.1795499105686374,-2.3423211767284493,0.2333015252107332,-0.5113792978183969,-0.24179583467970772,-0.13637717418478348,-1.4271747669856572,0.4034908903303259,-1.2238599458858141,0.4144736361993011,1.6589418164179328,-0.6752306169506492,-0.28387913008855686,0.841089037157298,-0.5004633537951915,1.326901328906633,0.23772453018536072,-1.0108730585220216,2.761660870332765,-0.7129291008390389,-2.267714892364715,0.3992097271252792,-0.1319410176364935,-0.4664963382852717,-1.9051331297588525,1.5541695147986303,0.7028526784053769,-1.5082276643982386,-1.647943702015301,-2.3963821858822048,-0.27351950612324455,-0.28731360599373285,-1.6755495322528249,-0.9661943135492977,-1.6133092947216476,-1.0073034108893992,-0.7241959956087779,1.0639643917360466,1.258417289469052,-1.8673783279822525,1.2589036757782333,-0.05131005655823828,0.18026303477161834,0.5652741087155716,-0.7180574156164592,-0.8678218363024786,0.5814647588700183,0.19072545554386766,-0.18042402081326928,1.0610182317649703,-0.5035174878023968,-0.161860887695496,-1.0805783009955696,0.025090899900126196,0.2425751234393752,1.9457534810270594,-1.1286318795418397,-0.6578294757610503,0.8003949169524662,-0.033633824399046615,0.49480156948907,-0.09312957393964781,0.4659421300566702,2.774172094176268,-0.8771453759400794,-1.7291930711271992,-1.073980852086194,-2.454490275490063,0.9332472856920232,-0.4298943650639242,1.4244792681868084,-0.7728312269771266,-0.4833003132476787,-0.9366234582444357,-0.0973800610459567,0.68569781398782,0.24457314087674142,-1.4593714293941664,-1.7013362101009546,1.011187478566896,-0.24853273249158334,0.8530242863420165,0.756542756635747,-0.39397483404235417,0.44520355197928807,-1.314605805941041,1.0336489178829211,-0.5561691032402268,-0.3909926358198656,-0.6695848036050241,0.023032631914665896,-1.2624482859390165,2.318486205352779,-0.8717862325910491,0.5025358449013757,-1.074893379854849,1.2757644728728106,-0.23756518581493355,1.0959699500953306,-0.38265839888521186,1.693185716622421,-0.8013859953379372,0.7905300049717042,-0.6726871587659339,2.5397642164918044,1.2867092536511775,-0.7579028115265017,0.885887900609492,0.7776900067268661,-0.527231431349073,-0.30575932836259156,-0.2623454234351977,0.14345412898765955,-2.2309840299061925,1.2624616392862755,0.4155841555943417,0.14038543157591235,-0.3747453590031824,0.65592229041601,0.7372254086509987,0.34324028551372143,0.10959240851410253,1.153695282478162,0.22717662130743635,1.1010739116701629,-1.639944160354986,-0.026848072341083492,0.4439990065429979,-0.2659697549707268,-0.9297246086088886,-0.11497630676425272,-1.389622012743651,1.621087961201411,0.20986532352722154,-1.293229218315176,0.5147896110092068,-0.548599152078065,0.5781994813151576,-0.581496059566648,-0.3497656188610197,-0.283872885011539,-0.6358284341227622,0.547451154088121,-1.3354758660758697,1.3016967654125566,2.186577751557674,-0.48651297752646355,-0.29488168822494026,0.10213584041766428,-2.2225071210812484,-0.07306643272580796,0.13669200483991206,-0.7416278740885501,0.004977923801873875,0.8364181974258025,-1.0096868637413137,0.6600105378166279,-0.785094128487152,-0.7078274891064014,1.5625965779761937,1.2179508476077565,2.191882615319963,0.5977676505795625,1.0923390062251923,0.3182291606927449,-0.1232417300750169,0.006165290259777509,1.1604283728690696,0.01952685923528897,0.15543332107675084,-0.3653363551301706,1.6674563363889987,1.7561061809647496,-1.6901607514520283,0.3305751707320655,3.1669350688506754,0.5646781779760384,1.1965411713499863,0.015317639639681607,-1.5417331095453264,1.071189158989647,0.38448922215563,0.8424046399149911,-1.8967590750999443,-0.44619760410826864,0.6440630233356796,0.30725599149899124,-0.9953045095196134,0.8639760765625033,-1.4038875372777184,0.41059840820203086,-0.4850597495568122,1.3812298288077682,-0.12645379742411791,0.6688416478488949,-0.7963721675834016,-0.658047175739654,1.4321358985051342,1.1319207653473318,-0.027102004172402827,0.2645263536167899,-0.9840992880167453,1.1025130375967198,-1.121151803888942,1.140333231261849,-0.9243045980436876,0.03860222144058818,-1.2534281265047782,-0.5327421858891892,0.44213213577511223,0.285783985964408,0.7119567743236868,0.24806923288091973,-1.7978391108305032,0.804180275161567,0.8147200926912977,-0.457735130326956,1.1377190131510375,-0.7808088469091845,-0.14035340024011575,0.5455161676068564,1.5240344906255219,0.9972397574126844,0.8793437989693176,-1.2500583388814803,-0.542079198023238,-0.1919280069286064,0.22031463286794248,0.9104023813456186,-0.8187309984725626,0.022801645164065805,0.26387313250566824,2.0744828473327215,-0.49624312370530754,-0.9429507063905528,1.2059747250626167,0.997588544424942,0.35677258686194135,-1.1677267313243327,-0.267991755967675,0.4258565017317203,-1.7258683775906332,0.17247015845692998,-0.8977746205095539,-1.3930681639597675,-0.6395949433930279,2.167321533059604,-3.3782720125244508,-0.4795050553558682,-1.0990501879587382,0.5983433293753774,-0.06312530322303689,1.4924205638811623,-1.0450079598066275,-0.5305332820198884,-0.8020601287097701,-0.21297099661540564,0.8752917665952225,-1.0918841031908744,-0.7566163714826205,0.8297234941574975,-1.5553209493571032,-0.6614296616672956,0.20764269371802746,0.8124879650789804,-0.32162307292475417,-1.3841232239840149,0.5111860494871133,-1.0930719703058114,-0.2327892103061387,1.4099432354414891,-0.8899987366888202,1.0324049288277006,0.3490818991548807,0.260562845951816,1.1382674192101834,-0.22858029127860072,-0.8906938728923377,-0.8620358169221723,-0.07305460354523183,0.0530739563345813,0.30591896924769957,0.3668506411577595,1.8476917730641431,0.13689483895106913,-1.4755325017861756,-0.2855379260012897,1.4894576920113622,-0.28624583040029145,-1.5503300984161812,0.4764349376553838,-0.8557386344682939,2.33861699281826,-1.6739057574878187,0.25743190300360036,-0.08766056827127017,0.3749288758335971,-1.2233940876111025,1.076209844629236,-2.2186358852196535,-0.2953138932938345,0.03011678115452422,-0.22687920456712926,0.34495408601581157,-0.1987357886577174,-1.7926448298667919,-0.013336462418861628,1.9332433534835456,-1.560213291221355,-0.6524716727483107,-0.24138574533026275,-0.6579239172946983,0.45878755864246434,-1.685862202442706,0.9963802085071047,-0.09039435836992425,0.19704618153810768,0.7212285971945921,0.4653622647391435,-0.9622533798095565,0.008717946070836684,0.7705700775432138,-1.2963858257427288,-0.491384144002608,0.9647037063686126,-0.2542199262949594,-0.8712358671670297,-0.5867152021605258,-1.2265300372436454,-1.473641801383119,-0.8218326060857858,0.012283566210626966,1.006635972411839,-2.5801267893924194,1.4798976567383553,0.21564237788908466,0.24267464114763232,-0.6973478372008247]},{"Weights":[0.05416234475103931,0.010753463898859976,-0.11619790661610531,0.016762719546367728,0.07184004050549245,0.01610390088066992,-0.007127209974349629,-0.0006884230127375331,-0.11783686053424752,-0.008316229187648298,0.01630430435093182,0.025987873280473466,-0.09986762915892448,0.09407584973389442,-0.04555126772087203,0.1202524548382258,-0.08956387670552299,0.07175086504920442,0.051157901144375746,-0.06439964623343443,-0.02605252144036711,0.07134080906733446,-0.02327247979681338,0.22201784956708948,0.06504305324164653,0.12828552075588015,0.02168033186645853,0.11146515673046786,-0.0415098327884989,-0.07490967657471918,0.09847027550892744,-0.06055118609872881,-0.1796392361520386,0.007887626511958595,-0.03871605589679822,0.1452051947384724,-0.0713234149123277,0.03640466239107828,-0.25356385054360464,-0.02644747722539808,-0.02981953746254592,0.005675603418459635,-0.06653364631490179,0.004669133727665605,-0.004088046198362362,0.023441582181716204,-0.0727131565794824,0.04683559175326459,-0.20300217447959426,-0.20897559499840612,0.07961143523453268,-0.04146831673061163,-0.17927283063158256,-0.04100358913931142,-0.023773501254089082,0.13126009202637157,0.0606794679229324,0.05900993800248187,0.004974661323470681,-0.12708729797681054,-0.02332290158088814,0.08767256492400087,-0.15030697167398258,0.00468281146808437,0.0291974666748707,-0.0025312606771728226,0.046363106136518735,-0.06262063616683317,-0.03813750763033032,-0.07496235657315106,0.050119537021167886,-0.06240512704285103,-0.0947548999406597,0.11429579490589346,-0.047805352633293705,0.1246456917856688,-0.050730983956604754,0.028867325456165757,-0.11629971625258509,0.03386460400336713,0.0053971584074327394,0.04518218328903699,-0.017655829702395646,0.03789725975729107,-0.07148647732731524,0.004426400149319833,0.06081888863762117,0.048100692707567096,-0.10971389798566682,-0.0747992474173092,-0.015173324996920352,-0.05616514529637236,-0.21241007589318595,0.07462242807787642,-0.0014778333661520189,0.07009375718995148,0.009770731595649553,-0.026663281088318433,0.010430534787397422,-0.09236061731745343,0.014048707625341002,-0.025003761931549667,-0.21780257762544827,0.051316101551565546,-0.013752733100559637,-0.10270647771306415,-0.08340093161863277,0.18744794031166626,-0.05810179913478967,-0.05651341147856606,0.020330185651109185,-0.08941161031792896,-0.030766936243379745,0.056971533131669944,-0.025028601880141266,0.05660333002629706,0.004802058880078331,0.06908342764535871,0.04143344846455131,-0.12464219763283642,0.024729731434899142,0.06622838759482744,-0.18141498761594377,0.07119650135253668,-0.06020711533983798,0.07549834000111691,0.011413991447050551,0.004400038434505469,-0.06184112149491636,0.005402121005275257,0.016513214584651395,-0.010472577157700383,-0.11486675604192802,0.08947260814087395,0.040730573184873095,0.14250341307606584,0.05767428800179421,0.024297627349730726,-0.15544769132209985,-0.017928428684814056,-0.009378115728912536,0.013161177957243699,-0.15607067100925193,0.1819855278135763,-0.010677711300928322,0.12907815901711261,-0.04764479601650612,0.052356111878787845,-0.08454423562682142,-0.08518575939781656,0.03381899553679164,0.02887416845046718,-0.23108024386693304,-0.017382896926346425,-0.007258334438521855,0.058183910275384707,0.017121042867650125,-0.018699352268672413,-0.03773616390615297,-0.05254497370456318,0.03624600225603335,-0.02401721160866591,-0.18391148247199288,0.09692604538052235,-0.09671052334360604,0.03244373094143339,-0.007848261503563474,0.16556965863992343,-0.06582960944810523,0.04535200291723434,-0.09591707547624606,0.09567123716697741,-0.11521668166047869,0.008843438397778411,-0.008764342323332834,0.03418291400381365,-0.0498982218512941,-0.034432720208561335,-0.13055718073141329,0.06653237054325342,0.10366960277977663,0.04404688668229706,-0.12975551164392993,-0.041608603449292306,0.0376670112597472,0.055135456414227096,0.027741987170735023,0.11922231118599735,-0.058381535760498524,-0.09451476902415828,-0.09292042673728383,0.07701593856688477,-0.1863791919447509,0.09834651032272093,-0.02245216325598012,0.03409766274746957,-0.06095972120332354,-0.045300961723317906,-0.04153030794789503,-0.15346524311469983,-0.07167127981745848,-0.12980925960871603,-0.23098854072575764,0.14703881144893097,0.05351402822013806,-0.024529149074126972,-0.0011318529760628942,0.06548005109830869,0.02180129236111389,-0.07479924205708968,-0.03430421498828921,0.0046689811969691805,-0.06726941699667578,0.0858153834080779,-0.0750417166731604,0.0021659787315814892,0.030582382309033568,0.1322646039440894,-0.09941207277980013,-0.04705824488900043,-0.013778750528115818,0.0745328283471546,-0.06048848264095002,0.1256493145813542,-0.02007093951474843,0.04936464612507552,0.057503410356536534,-0.05593354548111709,-0.08996569451545211,-0.01830524476857225,-0.06664900972078942,0.13248672751921783,-0.12529878869590805,0.10822458846886548,0.11333463731112607,0.06201599041377586,0.07297183015677944,0.024831591275178876,-0.11132525654973606,-0.0285821575283616,-0.035648391971657624,-0.014582985601486374,-0.06706286753932802,0.18716589510488535,0.03583322713496983,0.0828749236762782,-0.08676155695517006,0.06899460302282646,-0.15919160130945303,-0.10678121140540336,-0.04486272633050324,0.07802842483896237,-0.06870616868739274,0.1596117448615212,-0.02112818160850234,0.14442327558269413,0.05358432866436487,0.10479511767563832,-0.06752956211006478,-0.07263059285009678,0.04627783050029245,-0.0026689769960913643,-0.0933067063376059,0.04685831424178362,-0.08034358285519844,0.11711645989046934,-0.08010851130922927,0.03398932852744218,-0.10363532467473754,0.03824645407024251,0.01569815793709729,0.083751942487055,-0.24014200382389547,0.052659773594803,-0.1749781627918164,0.09554036270963906,-0.04160767629238475,0.09025823754981446,-0.14488062277759356,0.003761439808306446,0.10081430592051191,0.05026612897014193,-0.17245350630663459,-0.024092085399507763,0.04529956578097293,0.16738610014940294,-0.06415155014405055,0.13699254849407672,-0.07454499940135106,-0.07892256414267182,-0.04836521887821886,0.0705910591510785,-0.16155338679821174,-0.002823948217345534,0.049457849878039445,0.07200104088680225,0.07720937482137989,0.05959405367593832,-0.17883429438505435,-0.12774733468175634,0.028264364097756893,0.007216558313711671,-0.16595217449630897,-0.01193707771569787,-0.08593190466044082,0.06648552955228315,0.022957516381199278,0.1254316671657184,-0.15392796065942888,-0.1722674697002115,0.09747501113524952,-0.03132016424562993,-0.20368324066156102,0.15768277560125074,0.014437313671296057,-0.134464586708427,-0.08189655771757591,0.07424614860221,-0.22255542828727945,-0.09618416560255041,0.001483162940914129,0.04970766588720525,-0.18477459982479688,0.13806364911175287,-0.06680969280330144,0.0792665548102507,0.08298351193426616,0.008944845760550633,-0.02263809966571465,-0.00048678859735706154,0.008475522301477674,-0.07432040852043426,-0.12634517345511045,0.0702496316026113,0.045639170683962754,0.15049792828333658,-0.05982504868341205,-0.07823252021391217,-0.017501899873731543,-0.16957636856697259,0.005285688848729295,-0.12984105888691272,0.019093614282759613,0.008569352456706269,-0.0034470438833857507,0.07156736120265104,0.05222780133887196,-0.012269922247675,-0.075493405998171,-0.049513360036719356,0.039569757800163585,0.04270546544548884,-0.08765688392949435,0.07619056545064488,-0.06678547626106654,0.08684577745225616,-0.00022324221142291933,0.08260680562790373,-0.10885430280671438,-0.14119134919684245,0.06280625205870898,0.007523322631384935,-0.08608736188194535,0.08441385393034707,-0.07399114033509704,0.18614154664800417,-0.015632094668034318,0.1600575577040332,-0.07982448953729712,-0.07967457873081003,0.028501793718972063,0.0038600417132983716,-0.18291278225423527,0.09419979044021376,-0.09159393328469687,-0.03741870184277326,-0.07494762641642065,0.08726625033117932,-0.17416421017654948,0.03837007240893233,-0.04536706095012533,0.006328119588768643,-0.19165790552243817,0.0694124708514274,-0.015676121309235742,0.05123590735612152,0.0017911601457823558,0.06560178660775204,-0.16147804907806246,-0.10038934670368116,0.05149230145359063,0.09625765464704818,-0.08964699254877352,0.1214557796168793,-0.03259497359715865,-0.025887358513004263,-0.14146736824055794,0.04448224838177761,-0.009580795101861021,0.04891039542832629,0.1592154511944758,-0.025556923619091183,0.012397868309886944,-0.038345910143591205,-0.08301607768406712,0.07348241668029248,0.04184594435427094,-0.006866526813293436,-0.1164350512094751,0.032105253695214456,0.12223218348090234,-0.01956884118454857,-0.2774120799183944,0.09038677007413554,-0.03119372331530523,0.11413303396067893,-0.12214457349241074,0.07413087980113349,-0.08129517208391011,-0.17024609389251866,0.06470741983145878,0.3322959386512803,-0.3636959428651235,-0.019443560783116064,-0.04193923467921218,0.23609458022411603,0.05154748103257082,-0.02373209378538528,-0.15964217806596295,-0.06158527235528147,0.13612987170532068,0.21686504575968776,-0.6709604292918455,-0.08526676997292106,-0.0386008218010198,0.21003711236159323,0.018452292862054877,-0.03734182666946508,-0.06666848180490977,-0.21130338778487442,0.267691340386641,0.0354917739235229,-0.2964361659692561,-0.0709152437637435,0.31086058858031024,0.27752405076569053,0.11074750035393055,0.2347065219319507,-0.4989643051046161,-0.532938875829001,-0.06870343109960972,-0.0075741951723151315,-0.4311723861894648,0.021503988370526018,0.016295471791780966,0.10528211821176318,-0.27580555288670716,0.508979750719044,0.2864331058082739,-0.12942774673592955,0.8718992942232939,0.4977290264962607,0.065657006138718,-0.571157284465306,0.22655523836325048,0.578720207330619,0.11223938083079711,0.7504927350783483,0.6318533721343236,-0.6820826600221369,-0.9942153314268222,0.17601778311560534,0.15703713079054848,-0.4519947692101294,-3.072673896378026,-2.020932508899597,0.08060330089580146,1.8428337750461334,0.8188114162991237,1.6161559871456477,-2.6181975840898972,2.016098042110337,-1.437978517297616,2.499525008281201,-1.9184416487819453,3.227044100512496,-2.901527258326475,1.858089922666893,-3.454957507183859,-0.27934541670160884,2.3990740040068093,-1.3392171673619224,0.7038610914297666,1.3631668433023858,0.03536799665422894,2.132048712027073,-4.750676481950813,-0.5399393699227477,-1.3809021255052112,-0.3755221331019567,-0.02949338507840288,-0.05133445574642407,0.04696205686359081,0.06288470623070784,0.02609950313707335,0.032771501102285376,-0.07494100470997965,0.2117794906794543,0.01830172579226101,-0.07227314001435091,0.04787259832852469,-0.05364330576244917,-0.035436440561860266,-0.058752260902247076,-0.11381313230908172,-0.05813509017849123,0.009480351496620937,-0.025639330851898005,-0.09484814940888738,-0.1361300368211448,-0.03265791483303373,-0.0015872412569984066,-0.06828711754730842,0.08412860923763221,0.005297392527800202,0.02682131405239556,0.03860162443678613,-0.0420708879724158,0.10478821978269479,-0.06654495613450404,-0.15618668269783495,-0.031177997474296334,-0.04133203156761967,0.0029441368779830205,0.17388797618081236,-0.030814515875480668,-0.07678200526929116,0.11602215657004493,-0.07838896596958525,-0.06965946761000817,-0.084348555048404,0.09011686458354076,0.12111310526271042,0.0925078691734302,-0.1298001039513623,-0.10849794213382294,-0.1287011242295199,0.11334060101898714,0.006708873156449652,-0.0945538357247315,-0.033712467150694175,-0.021990629219083575,0.053219206403076195,0.14613242494752754,-0.01281253248532185,-0.22748201173295618,0.020691044431046374,0.0014640837001642937,-0.007795941191917017,0.1027733194372521,-0.046157548430983734,0.09339773665192784,0.033576858981989484,-0.030148531616816732,0.027857398594147483,-0.03476438934372983,-0.07900234731882169,0.03970845316808175,0.03147533886218906,-0.05909797565856511,0.07098624278581032,0.07359967818866975,0.032830190748396354,-0.0831019932187252,-0.15546929241046514,0.0013595811470557947,0.08488712791645632,-0.04169205222665742,-0.04729639869823867,-0.02523299846852139,-0.04235575433478892,0.015573597424515978,0.06541301563729891,0.10912945422754332,0.030241005540142866,-0.0586990337468505,0.08727283771068865,0.13329342287656584,-0.007661581569015648,0.04666984592770145,0.089900359804276,-0.022243082790340575,-0.04595046350480451,-0.04435701284571587,-0.010896193217289995,-0.0276509405365804,0.0030828083290026544,-0.05471361085493816,0.019193543839050236,-0.03619128684286651,0.0035399416685218737,-0.034425666370573,0.10824081079244535,-0.01448772673209483,0.01786854679521354,-0.10659382048284928,0.05894910082463681,-0.06038358519413959,-0.012804076367204788,-0.06960604016659214,-0.0035146179834027566,0.010072779699926909,0.07375554068275707,0.02329694718816533,0.046188035972942236,-0.059384240092190614,-0.13083612518168578,0.08649005601821991,-0.044173067141746215,-0.10343510697200341,0.04422487195925366,-0.07811841235869217,-0.020018783683032632,0.10575182264504791,-0.10022561377609793,0.04544868342416303,-0.018078530647957336,-0.07075914287384927,0.08568149408330028,-0.011963527166123028,0.1392366145056593,-0.016470942973027432,0.0711816509230179,-0.007920111260333299,0.08724382294606782,-0.11660860262753207,0.01640390496014683,0.023051635174835407,0.10360729896623141,-0.040462214367469655,-0.012995130930982122,-0.03147933222303363,-0.06859531401551425,-0.03898387387137745,-0.11452929132715146,0.1163156949957814,0.051143327458502835,-0.15490684646157304,-0.0726586816598709,0.009194708460817234,0.060739859574042376,-0.026418200220418436,-0.14443541532270404,-0.08647382489361302,-0.03612089794873112,-0.09129297853286046,0.1064731883542045,-0.06308126948823493,0.0018155323802710322,-0.05837926846607635,-0.0965484816763243,-0.08379025597021447,0.029226505291819967,-0.06283574921088424,-0.08229613814007972,0.05449694936073182,-0.06367700692930682,-0.13757299433418896,0.11333926305757025,0.046078181216774844,-0.035504700160510015,-0.05494626542050649,0.06573833471009925,0.04946636196970956,0.0014154233098580874,0.04210329620148188,-0.06614764708354764,-0.00289464990272651,0.10988775702208213,-0.019274655274989737,0.012933294633412817,-0.09351468182309135,0.0925588310092916,0.0477649859302247,0.03947871282520644,-0.07078544537481195,-0.1088422891357775,-0.10788946529623686,0.06287061103858638,0.17815456807634333,0.032929252596225415,0.019757528302122015,0.09340617745178757,0.11291950580776956,0.06313324247745003,-0.07371492351879114,0.016426943191092218,0.13444170709893735,-0.12302959681644775,0.0736704844420161,-0.013054939923407317,0.06712644653007707,0.17653067701677055,-0.06374828648517904,-0.08397458942870228,-0.04223934533149673,0.06607105451796721,0.07058759931370728,0.07659604389928767,0.006752558873151419,0.044565196926828525,0.0318510742049339,-0.013395621368411152,0.05936554882095215,0.04022319423691449,-0.06434586114559464,-0.00652665052335151,-0.04364975777135155,-0.07873302199270561,0.021486286136080168,-0.1490211253313054,-0.13075745976245076,0.05896946722820685,-0.03814837686969669,0.03149022503171256,0.08053153046503957,-0.038550013350218855,0.01869971588736851,-0.021396728323956973,0.06876750580350756,-0.041924397990508046,0.09855999504061451,0.04693384350324669,-0.05511052839665256,0.10606520676195397,-0.06080140562869902,0.04309933282508751,0.018018915362669453,-0.0028983210581410767,0.12570984141999442,-0.03108696049284249,-0.045338757901134195,0.1468388289523354,-0.03278348687708995,0.05478162133441291,0.10271832061309012,-0.138696406129705,-0.03373836367419131,0.029584140527729452,0.06114864202303633,0.053646248409466885,0.11030970445220356,0.0225904419502991,-0.03927120047293652,-0.08688690482044949,-0.08094519516389478,0.029086394388065887,-0.11991861224149072,0.02422313892630084,-0.05296843878819127,0.08451152595757241,0.02529710485229549,0.08788358353227765,-0.0501376724779403,0.06324826553958171,0.011918179911071773,0.07704207723086107,-0.09288904902419966,-0.09492363746780969,0.05063610910479614,-0.05782819024018414,-0.02516634451923576,0.15012439449003723,-0.10304786152049411,-0.06206925408643042,0.01862876152770082,0.016549781629785126,0.07228266793638785,-0.15059101443574097,-0.018704008490151167,0.0227352182370577,-0.03408000504537743,0.07484345763282925,-0.040411530040037225,-0.01115517040587156,0.007427067389866973,-0.06586560006550413,0.11395164009780409,-0.031879292138963844,-0.09360830683849357,-0.11590109331901091,0.07215733902654965,0.08835750557660331,-0.08644712883596893,-0.004898150065675752,-0.01350019904878286,0.13574582045980657,0.06364619298946182,-0.05762859504060768,-0.004416859398400958,0.015823203684067238,0.014670719310549186,0.13067439294504418,-0.007708368098332679,-0.058959197884883824,0.07543334714080113,-0.11138785433518208,-0.02516708277535174,0.058246347852864415,0.1300341084514648,-0.10077629544616473,-0.20880838587315,0.10489818938517836,0.0769981456370189,-0.08239558574428364,-0.002368772359651999,0.08009972369748572,-0.04206847747235253,0.06169068615691739,0.07762429362124638,-0.019085705870572525,-0.07934111835666871,0.025653158846959376,-0.11583278882130774,0.0797312088876073,-0.15093965087971706,0.02598543115640467,-0.07144856208039597,0.12512475380824997,0.1450070770807466,-0.0755027408821743,0.06196046547010593,-0.023520504545059103,-0.13721073009361856,0.04309285483449127,-0.1180316902591257,0.02584217360897968,0.02780383265215809,0.1695080200620181,0.0036319154926407033,-0.0008804594832549997,0.031927312687946,0.05476533042133019,-0.036658935905228306,-0.04968263013399606,0.04725196967709118,-0.03681522077707535,0.005650174258865294,0.07408912539002545,-0.07362958484193022,-0.045342173856910056,-0.2191360436127488,0.1541917694673179,-0.06333576919787783,0.13769639681912088,0.04317239891165798,0.19215007965431016,-0.029460813804620196,0.01411045103564759,-0.1106063909318342,-0.044402840153326746,0.04241757011628112,0.06914914842060613,0.1354372274934109,-0.010492002061825928,-0.16992541115396645,0.10911400877393743,0.055448419986344546,-0.030451451579115347,0.09049873828714684,-0.14146630179123829,-0.1156689678678928,0.18332701266498566,0.13224537303864817,-0.1310955113968026,0.1803456760314188,-0.09009841236579973,0.12527499616497176,0.13277186172477978,-0.013869175625258823,0.1035612827362269,0.031723608853221556,0.1626722144242295,0.022091670585570523,0.020325021941072836,-0.07820160665085052,-0.09874312926679979,-0.1188743185402488,0.16097293533833998,0.05822765664729901,0.0081240073269859,-0.12205236635891185,0.2717288612506547,0.1596017397974965,-0.07023206360229514,-0.13007778694303765,0.07251654637573189,-0.17769043706310703,0.043388440201884725,0.057903657780358345,-0.03960071267232843,0.06432595630464781,0.20832522532137893,-0.08389677091230859,-0.17484103911457752,-0.1239041630528141,-0.24155760809508198,0.030608796257861712,0.023624727378731742,-0.11481798679932487,0.008891490929386917,0.08721719631089553,0.06438376866720016,-0.31840940857496053,-0.04564940049246513,0.04658144290387292,-0.1269246589449755,-0.0059668673440379195,0.05006543950187811,0.043525483427801916,0.0417395559660161,-0.04977547257615499,0.0067715753951491575,-0.20516475583065394,-0.05019081654986,-0.16680187917044248,-0.23036013438630598,0.09997695160991685,-0.058537569241021666,0.06735699151806568,-0.15295360201269667,-0.1648610972949686,0.05034176196807331,-0.12473009089985744,0.01275775338533435,-0.17897805218430687,0.02387974510435609,-0.26111653185779365,-0.12269750943211957,0.06763054970000051,-0.19027899746656807,0.16033325858252145,0.03336702167218789,-0.0621521254251732,-0.3272270670891124,-0.054192596415659065,-0.0682461496905212,-0.1431869647270235,0.10431967223882316,-0.06529099921822498,-0.5510234393308356,-0.14717588487459948,-0.3449948476212048,-0.013971191405822968,0.2105360325355287,0.01993387086370299,0.1714295714507778,-0.21270069404237385,-0.4561710201687806,0.023389860038458186,-0.34063295449287273,0.9125770730667561,-1.0376758407688131,-0.3907880013407508,0.2881489598661977,-0.3354629641319296,-0.31990631065984515,-0.2433639882818419,-0.9137949730830551,0.6125947705553543,-0.877276208093625,1.2825094291934207,-0.27898765289504834,-0.4295060503796826,0.8442997834013671,1.3194485962655957,-0.18220704317712147,2.185252348966451,-2.134651753313754,-2.4629115169165106,2.6693568475389893,2.0112345052468523,2.9515597803698017,-1.048562437760183,-3.6920083759584457,-1.1160047770878498,1.4993654529088447,-4.647176609766081,-2.786274839430519,1.3563511374167707,-2.804975267162408,3.490732390431209,0.9067878413758639,1.6664915010307206,-1.7135611692448744,3.4359239867472744,-1.7570238510145448,2.386329734618962,4.378390398067436,0.5327477801638525,0.04781363394425868,0.01399096434003764,0.0023610604298507595,0.06263524293644736,0.06763438375409285,-0.008090758744169056,-0.0263464811375291,0.04461095461270702,0.07584313108765768,-0.03493201490605926,0.10935918038609939,-0.0026812202030917893,0.030395563653043627,-0.03379436156738952,0.059764879512237655,0.011557004985631631,-0.026769964003203417,-0.05081268061652636,-0.044068001919593876,0.16503862267712158,0.11402710077903526,-0.06721822981447406,-0.01104563892283296,-0.0988322451758032,-0.08512332439597291,-0.03636983775047752,-0.029956877185624505,0.02952372873038672,-0.0633313241551454,-0.03676259793577457,-0.12270670954439929,-0.0364802346852318,0.02268885624552811,-0.0736660602533759,0.11748214097639278,0.0447117259780774,0.032298000881932375,0.05909120083885081,-0.09772035297123272,-0.06435918836310461,-0.008559448452657131,0.10725704186576666,0.17564729541904142,-0.12719871886805692,-0.024983565604978126,0.03127014831077512,0.050730484118317036,-0.03783877463849063,0.014051849233090512,-0.0901383847499044,0.09776342279107429,-0.05024652800113919,0.03290628048617863,0.09207395142966382,-0.022402893793065155,-0.14627436103832045,-0.06490184932609099,0.0902587390270922,0.030107475858549337,0.09755644601786052,0.04756783030874868,0.06932675125543672,-0.00785269471199843,0.04162241398371499,0.04549732128381161,0.013373553526431929,-0.011266110822238337,-0.02045218173454954,0.01677918843151456,-0.00021918357474224448,-0.04276044666055764,0.10039541836130414,0.09743937484998942,-0.023777864086320676,0.07031019719884266,-0.0018380066799132827,-0.06174649852245447,-0.12973059661033495,-0.033115214339925286,0.04148439281616659,-0.052245370744194046,-0.020880620675750215,0.11899501251929927,0.028557954503885388,0.1667691716436412,-0.0663944767776957,-0.09224166267063383,-0.05427397112921023,0.03235726917603283,0.03186793311441653,-0.0021635507566058624,-0.06601773528529618,0.05483179889999986,-0.0330308303583585,-0.11116993257386898,0.06008830615507764,-0.0038552605751579817,-0.03737575624462803,0.023385927989577306,0.0012510602910006208,-0.0072530925284163775,-0.1095240114409829,0.12064433645846812,0.08308422214750938,0.0400441779640389,-0.05172848384076973,0.06337062276158788,-0.0948676049997049,0.1422357406588884,0.079786203424528,0.06857092648541598,-0.10381558292916267,0.07501220329686456,0.0725654870167968,-0.07396909247333712,-0.025363139312953698,0.07264226624534527,0.0414758846867063,-0.08835951456834651,-0.050814242541604916,0.035260015025145926,-0.0020430221399331872,0.060631283997697565,-0.03428520318353949,0.004456738346638717,0.003330562604203873,0.06203159248745354,0.05343459249922568,0.10537735547740949,-0.062152106673892246,0.10076803900597295,0.027289905968389323,0.1339290317006067,-0.13800364706971527,-0.0009470403829919605,-0.04438675624526752,-0.17308144176869159,0.005782358158474421,0.050681368609556035,-0.014027939033782048,0.10810921613700994,-0.03905736126730581,0.07800570090254869,0.1215919813912808,-0.03491862285479932,0.07071770516211566,-0.12429737892147961,-0.023451019989043417,-0.059268166132046406,0.01627553934130621,-0.2413597894954649,0.04933303134611609,-0.08414747353130733,-0.0036808485906026107,-0.16165405460028426,0.06575690932623077,-0.026323606171568138,0.063547424683651,0.01389238956164509,-0.03982118540083152,0.041728566180127866,0.07837627895820166,-0.05143004136645462,0.01980527747293177,0.12518683053472543,0.06607941755031942,-0.06670371931033955,-0.0034116982007750063,-0.017531513490412435,0.12986885354412545,-0.09217079085586226,-0.010972381488979674,0.0058410559980993666,-0.01607201662549425,-0.039860843230381915,0.019464717204335732,0.13856700094703195,-0.09800676016855511,-0.057510658014931576,0.040599199220227006,-0.019369822213651286,0.060051869152898105,-0.009462288036859431,0.05460241646636174,-0.03275496173164279,-0.16642534634147246,0.03224184112549124,-0.04482817423939992,0.015656067694947717,-0.05420702531592541,0.004206764673609399,0.00554294127221599,0.06367257308984371,-0.08318437615783628,0.12324580929264517,-0.08955829596056547,-0.015153152384722781,0.03487266555669555,0.002775248800385248,-0.08350374493365235,0.023780638363338685,0.13707895501123463,0.061944911289741854,-0.0639277158549214,-0.08805602045423118,-0.057718220457390015,0.03867101163316993,0.02506054231875249,0.08093725770846558,0.015293839462502828,0.07714538186970525,0.06210131247003163,0.042017800776413504,-0.0743096020337256,-0.05313625582788542,-0.012215782151955422,-0.0447176937304249,-0.04046331883304231,0.03504276402877106,0.07115456224191345,0.07402110657180294,-0.027310315292606753,0.06239590510234567,-0.06920425785142452,-0.11013540894882982,0.003829649250812962,0.018179155097904538,0.013575117638134383,0.08170521375724138,0.17137308120648348,-0.0019866030091467536,-0.12545386007532455,0.146043162139015,-0.1722436434781857,0.005734437183769235,0.059020880347826606,-0.12720187504900615,0.00609133870933997,-0.018811692733073294,0.049593959729302806,0.005843566157295005,-0.007455618721280169,0.11457852547950627,-0.05047813654783449,0.05944697691792364,-0.009770710822139608,0.0525170144394649,-0.023776913235114626,0.10583191837653749,0.014074537073867879,-0.013111817043975734,-0.08353164371401824,-0.005615886014396615,-0.07697165447261022,0.02037721183949438,-0.0725013445808554,-0.021907014832412086,0.03721138734679916,-0.020613500636907044,0.07827404838917239,0.04161701961082733,-0.06172527926693293,-0.04238684540806337,-0.1552153598043981,-0.009318403491826572,-0.0792435739574943,0.049032531263876446,-0.052818193415650486,0.14043274705663197,0.05322020460077711,0.057823507865302326,-0.04862436290605828,0.20200019196503743,-0.06726523482450482,-0.006552589133039834,-0.08276692597327881,0.021359369953261927,-0.036388156619066206,0.09909297558155983,-0.09122685135863212,0.14255335244480685,-0.06275603493645064,0.1487784669224872,-0.039643080484198755,0.0015961147019936998,-0.0699398218327162,-0.04396254039656016,-0.00521738613995448,-0.03594427752500609,-0.022222241368012367,-0.003587067138283091,-0.020208947514997518,0.06840854804612298,0.011984640168440147,0.01574926325110144,0.0917514615371321,-0.1517473533002916,0.010039421880787288,0.05976039810640103,0.012262087077470549,-0.04902209866680113,-0.007927176720407887,0.006365271208621105,0.02100250619962268,-0.10246936046949187,-0.06147023990639057,0.06548444229730886,-0.0292379675208735,0.043245831128933515,0.053865794746204176,0.0685405677249661,0.04278494918228165,0.10774785563889562,-0.09724820097302798,-0.01836857897015439,0.07928010850566267,0.04615572453916905,-0.03060101445583465,-0.08723073397892753,0.036964142892548436,0.18375726201660578,0.08836549917383459,0.1808664850700183,0.01293796053240815,0.10601804000361824,0.0716259250388131,0.047202153720651674,0.04618794928563467,-0.04448067604182291,-0.035043564837945185,0.05887480039931801,-0.06041902017369906,0.08529644275306066,-0.16189865933908948,0.009824488288238958,0.11226801653507916,-0.056888570716570115,-0.09281118868541983,0.018422612275895676,-0.0407942186819496,0.08073071403011954,-0.01521873520306764,0.031266264823476636,-0.11835598956722032,0.031181446708416844,0.022343867081136518,0.10982528612839886,-0.0028648008703764157,0.005042535503854789,0.025454249864922774,-0.21029605452875694,-0.14954872454259147,0.0383256180407578,0.04079617434803248,0.13779985333713213,0.006306665498319531,-0.058805418068931324,-0.046350173670350985,-0.031416897530845936,0.08634020444944412,-0.1369929824548147,0.18860162541097383,0.0371620841151425,-0.028846493837916553,-0.19208121841352832,-0.04262101888095291,0.014045549662851292,0.07805141197907625,-0.07152698884564099,0.11773438282957685,-0.13388432406639686,0.12445365691706937,-0.04681192747275307,0.02818020425900541,0.07496775758298016,-0.007330661814344706,0.0453390800682139,0.010645849523015147,0.010392209151962787,0.07373557415789689,-0.04074594766784482,0.046615964050427325,-0.015180373991926283,0.07724588301548564,0.09748575663250805,0.010618278237495025,-0.08881226622566643,0.01002884457909177,-0.05839070973713892,0.15284032453833488,-0.09812095523169617,0.04466941869443724,-0.16003300055956746,-0.0020917021448354995,0.040456927673253325,0.15792118636072586,0.041347733913519,0.0407338719023815,-0.01729130329560923,0.023468349529980215,-0.10996407561825866,-0.01640444446320194,0.07119829332329439,0.0720603449341431,-0.0024457783575708957,0.047384808623387106,-0.05624262250025804,-0.2668441942139569,0.04276225434367015,0.008903170749392852,-0.014849387583890171,0.006959163517583599,0.10972131318857246,-0.15608366101178048,0.05637149447967802,0.0397623526440972,0.09826756039841837,0.08853682338215371,0.03367474654761811,-0.04472552893662996,-0.021636932754861,0.08176792943716141,-0.06887268108343277,0.08251462160342586,-0.21155908612986538,0.010568992591311561,0.1556959287509196,0.01271670590538957,-0.09200646190368252,-0.11419921804266674,0.06002361577108738,0.10363970364648208,0.15918689612880324,-0.01746323358643778,-0.0031689433352818114,0.12526455966904582,-0.0639121485016525,-0.16292144789387963,0.005631588520064458,0.0860646674511783,0.21144031859613055,0.04304353598125246,0.01195133358644153,0.05463874698574173,-0.038426811480708485,0.09936851658519147,-0.10097796431270048,0.09905797257220651,0.030220915907469857,-0.01986937806832556,0.1899236965192532,0.21420601252843688,0.17047248731009734,-0.3190927180800151,-0.6824411582584897,0.014793454280893388,-0.3297247727604788,0.08195955128941705,0.7408129909358578,0.25311927034805914,0.3002815634816838,-0.6226325281415261,0.7014471421368991,-0.5218809763528812,-0.7380442543914318,0.09423319802833949,-0.2633485621551374,0.05848144475289397,0.8009005931600337,0.2607405395299815,1.181585956373094,-0.9233433025182133,-0.9921598261613559,1.838926403833356,-0.05213874145127203,-0.050740931326199154,-1.2085353509509675,1.500248009746338,-2.1451895046360403,0.901672539234715,0.43042380182155077,0.3060375435549718,-1.7634314910002762,2.0086277732431412,2.921070145087076,-0.408454574644404,2.046302536288171,-2.3371143578846616,-1.9000717621713679,-2.0085878910045043,6.4363075742236875,2.8457090245943704,1.3691883322127016,2.572658643652123,-4.255027751095597,-1.4460905763986118,0.6334223076636837,0.007104304023871375,1.4325337219756924,5.721783064083774,0.016026263813035665,0.05193319411317344,0.012280623472025267,-0.13483367754528466,0.1313916519386133,0.04450476582080731,0.03135556826438748,0.030945310493840666,-0.0016855386990349817,-0.06329710474983374,0.03615508353615996,-0.08237475595165007,0.07159266401376176,0.08377250366003967,-0.13070014200119195,-0.030194994607518667,-0.031392345211115086,0.0368718760072751,0.026989395679808716,0.003534118036144848,0.00923148416219791,0.09437071044202246,-0.038327106661090675,-0.0009208911729025784,0.010375473288649495,-0.12414978674782592,-0.026558353540078565,0.005211496208666729,0.03606181637908386,-0.010385807851638219,0.032690657905163775,0.028558676090857868,0.10585408365855417,-0.08503147252622964,0.020115190301131597,-0.033466907007749194,-0.03934450312406372,0.06433539891406267,-0.01728269465512593,0.08216099746582775,-0.055203457154804375,0.2445910816441324,-0.02911371532276566,0.06129496518171857,-0.02262066327388422,-0.11886238912547276,-0.04137389891466966,-0.132846130794232,0.011043625080357066,0.03849050163201479,0.09772309198265078,0.0611598731738794,0.03616981130372009,-0.11230601228967152,-0.051432380884758565,-0.10082777745840894,0.05097076490112673,-0.1706585155272661,0.0324338725988274,-0.05502630609816379,0.03346810317063559,0.002123373523609585,0.07872743381868402,0.06349330715530398,0.10111720776155877,0.03962901076344705,0.008166719686054782,0.02476926355677869,0.06530410451537064,0.015377427855481534,0.03273549880709821,-0.031106508445652846,-0.11104021278662263,-0.0911166434084699,0.07715575856390036,0.06868576659292161,0.1048148795654074,-0.07936172541338232,0.04352550394326455,-0.023191308258147206,-0.13557807397640773,-0.025252132666053296,0.003949150593626331,-0.09469966374646775,-0.010245698208473946,-0.14030248759710348,0.049558616423346774,0.03726616648076552,0.12972700249590785,0.004925663781151888,0.018085181789478315,0.059785487977677146,0.04529323139362429,-0.05373912496286157,-0.0001086525889658039,-0.010611085233648641,-0.06938886485016607,-0.05705944451963023,0.11042550483882324,0.06268190230988076,-0.06013110660672226,0.036149802913024165,-0.0019302766769867736,-0.028936429276653287,0.1481690347158684,0.04446741271519499,0.01739396600468665,0.12620958424821918,0.00011865222606264373,-0.059105446812238685,0.09004454682838162,0.0956225176343842,-0.05332254072915447,-0.1125902520082131,0.0008080432898219691,-0.08736698205882236,-0.046090762644702916,-0.018859929848585224,0.027104821608275872,-0.025051565923302918,-0.05691537592210057,-0.042893028670058495,0.045757064355285225,-0.11735164526809048,0.05758039424658677,-0.08041463604483877,-0.12008871300132899,-0.01289585713647352,0.0001867408034267609,0.03237898227448576,0.0484933053356154,-0.05723721861746531,0.024955566649633318,-0.06930466164704402,0.08052025481604026,-0.014605513961426776,0.013250756513809896,-0.00503610520565224,0.026189495941313815,0.06531841650233096,-0.028928853951716575,-0.07470403364705712,0.17450679065266123,0.05206243175937007,-0.08087788471653548,-0.0023361259770941774,0.04816309633315025,-0.0580662797113254,0.10817956718788846,0.06860099775292089,0.14727418983358836,-0.029465307057809982,0.02341501125716338,0.010104091186167112,-0.007280475329053921,0.07349007866144985,0.06896015143005643,0.11880894570090379,-0.025845336343550684,-0.03586305109157724,0.035667435389097,-0.06769522708526694,0.05896928195684098,-0.07189505928083367,-0.0014492771217350677,0.08667182398573349,-0.09203876184827557,-0.0870017334948122,0.06141852972920839,0.07670988426256478,-0.0010849826949836223,-0.03305365902396481,0.022837856876001157,-0.041190438245731674,-0.14136489521812062,-0.0029298904985889814,-0.12333809546154104,-0.10613134993521967,-0.00027908374952155676,-0.09128596359251069,-0.0699708957557315,-0.021357621682216225,0.009044607436798502,-0.03290920345510654,0.05338093155855357,-0.06481364560120857,0.0778259059597074,0.09287733215132646,0.10659536343042027,0.02471387819090855,0.05493475129533272,-0.04819398265600785,0.002418624130011351,-0.01545361839934662,-0.13131445627434982,0.0812453098724233,-0.04361163915749566,-0.06759046476656258,0.13071736358351396,0.1079026319591533,-0.06507677813443417,-0.05207788991868729,0.07001105103254264,-0.1259842849045545,0.024411752379654296,-0.05754543544071604,0.016924244444091067,-0.13171665414251776,0.17479311748897317,-0.043194129719522495,0.03545344226564116,-0.0017211996273416514,0.04605841478037347,-0.03372940997278736,0.06045883378482773,-0.048775607564747955,-0.0505996495898811,0.0576773285261469,0.10218819429280297,0.0694961463753851,0.026315083445235626,-0.08858584651904622,0.06348902049691577,-0.03938777110227634,-0.04877513867129977,-0.09608236380383445,-0.024976120337605948,-0.03390220523272118,0.05783957313529426,0.06893130914705177,0.05079225429366679,0.0659769689362605,-0.03174638062283954,-0.10251608735510526,-0.06164406499908385,-0.09329745182214144,-0.0947670037082082,-0.10771250253134294,0.09864526182770415,0.17755918967991924,-0.05104915343441789,-0.03925132724575476,-0.008547535406073914,0.1059593899391712,-0.022001612746984315,-0.0010562917265167125,-0.03928816249794986,-0.09186729456121348,-0.029812589835872455,0.05105558485014965,0.0620583599539056,-0.03466671369000174,0.0721662229041218,0.014749105583698643,-0.004005046453562044,0.0720294652320401,0.01671743662655277,0.026997730861716134,-0.017324821042500025,0.08656106170272371,-0.030119379185075155,-0.04770245337069304,-0.05394304125787613,0.14869710084100235,-0.11612127424798331,-0.053248254562396,-0.08973462879610529,-0.006590284056578246,-0.05433350153649196,-0.09471990451802682,-0.02291929127448284,-0.07621434395084585,-0.11505704614073928,0.015135521813994184,0.21217502191707083,-0.05756678062535217,0.03659731378869149,-0.03289872556004176,-0.039833142266676023,0.034093350792601264,-0.04669513050261007,-0.04432332614214351,-0.00274473450046492,0.047702121470013195,0.038664293550790346,0.01009331181279032,0.006228863135542818,0.07380173869603927,0.0314457310550002,0.039452838074458915,0.03831540237592049,0.034970214103506626,-0.015318034368466887,0.015702296881158182,-0.008243074414258136,-0.025840054971603247,0.12104148092265533,0.058676146591138637,-0.14273361885688143,-0.046202995043259226,0.072363568517814,-0.004839475914582851,0.021915755370908067,0.06695629951483803,-0.07817874726866894,0.004150734471520479,0.10719435194073905,0.011300828454493421,0.023541097423503018,0.15069579865672747,-0.01343885533957942,-0.12481642768493056,0.08792214435317267,-0.05818856061056787,0.22065427788632325,0.06171484728437166,-0.018787653410352503,-0.013126826015721394,-0.03302050938401019,0.06700247048459501,0.011940594410160457,0.04083243132018491,0.06806940998633564,0.09897166408230218,-0.02967033605921656,-0.06522601451810699,0.009786394392419689,0.07319339009017269,-0.0181264655259874,-0.03933089074084744,0.03603140745387758,-0.025517895900922266,0.0516177396999626,-0.057251302502128856,0.13434423473134904,-0.12036554941707006,-0.0026862814862131886,0.17312518280244035,0.04106161557925239,0.153983116880732,0.028004738168996596,0.06394738842014529,0.18045019357083195,0.023369394140185275,0.054073548531522325,-0.026686024184732763,0.04305799181576661,-0.05981373497531778,0.06920248941701415,0.09644720818948214,-0.12188797426912114,-0.1589253324418037,0.09606193017804981,0.044432305712248085,0.018642050572275908,0.05072198339479946,-0.014617633118358363,-0.051394092153299924,0.10909366688017662,-0.062407502961871406,0.03299748793523753,-0.006238851329474587,-0.015918923611535057,-0.03416457087985761,0.061319223807923234,0.0377776933729237,-0.1745130533941396,0.0540941399349879,0.03682149108440775,-0.00041154051366171663,-0.1424887721430119,-0.2122920750686147,0.001368353439801036,0.11488203705648237,0.07888998823671932,-0.08141195106301118,-0.03693754469797785,-0.047992997995152324,0.0814755006996415,-0.05433303578394777,0.16604259014114534,0.0006747242084747289,-0.03640313355969891,-0.03396692158640043,-0.03260264020589564,-0.01413283993192289,-0.02069201987493261,0.09677988959149113,-0.025474542902613043,0.05422371870589104,-0.0031168965067034844,0.039113155899838,0.0007575919698795757,-0.0668529230138403,0.08182207273891169,-0.06980493437890713,-0.06807935337187421,0.0725402537587701,0.10915756327816727,0.03980703294666356,-0.05453747488455042,0.056845585052641194,-0.0772697380350109,-0.08670910036510249,-0.13793524203615892,-0.08167667937996023,-0.07127938064560625,-0.03614020168701074,0.039313165932582515,-0.006963507414881947,-0.002188065377924841,-0.027765886818172637,0.22583356824755108,0.04773759671254554,0.12190437913889814,-0.07204398085682547,0.11206671364937207,-0.004866038364692692,0.05211664302586676,-0.031012251635965837,-0.16720637844809078,-0.12045152224156855,0.2880785029235314,-0.012669800197592467,0.00866718346869377,-0.15584721885560934,-0.0009652765357398749,-0.12924109588127772,0.2304368668829025,0.3665590872070768,0.1690167492679357,0.1683378283815182,-0.07494744303773791,-0.1806193795343098,-0.01285908560516522,0.19519539365119076,-0.06778697773627461,0.1866092578154645,0.16211763245341673,0.03780992078177681,0.16502704694731052,0.2420505871109851,-0.5560805657270994,-0.046083038387734934,-0.1647328894308336,0.06780572816159645,-0.5292179158044684,0.29791378772878196,-0.3004493792105376,0.14525636686165605,-0.35089344102705833,-0.09245932573509334,0.6156116015483253,0.29765842783114727,0.06876738096313913,-0.001065631716302471,0.3007766356443806,-0.3580615238096227,-0.20339574702174437,-0.14051953595990896,-0.6010380664391195,-0.6128147848816194,0.037655720276950966,1.0804799743049216,1.4274075812759779,0.28352583160053463,1.4078601627159915,0.49384044363589863,-2.03922218834306,-0.4278634484736578,-0.4726074138972329,0.3336227358390885,1.0640012620928874,0.5020532669328375,0.14788197437634593,-0.1807553424305897,2.8495576915888887,0.8480608707279687,0.20910521519677053,0.7206371898791816,-1.4863556926370494,2.114680020465531,2.89297237045692,0.46325331376865214,1.6140930898515327,1.050806846557447,2.662020576216507,0.25309733168605636,-2.8426488220768666,0.8057930025639874,-2.284950403457875,-2.6791272622876354,4.36637967494355,-1.0034255630298206,1.016724682043773,0.9900150555416153,-2.1563500401293063,1.2673669803163494,-1.4794128977832215,3.4977328300769823,-0.08978561309164088,-0.05251220134770524,-0.0006462928916288849,0.08364484798967343,-0.04525103955580486,0.02547425070689386,-0.004221970595497007,0.006102363918787784,0.08232503201136494,-0.006822783134679898,-0.08468581136330465,0.02165146516803017,0.04939502648585678,-0.059475403915972655,-0.023543329018068587,0.009448180411546261,0.04646320886597718,-0.052592063619767634,-0.0670359887357824,-0.07377757309798838,-0.015277461172339508,-0.09738341543225829,-0.002227447943222791,0.008103795694530996,0.02723189651022037,0.04765066675709813,0.026319344173678677,0.0130919200645243,0.06599478420001595,0.06474801844335418,0.0887167788772169,0.008696416333228225,-0.04330580424241442,-0.052027078444572536,-0.01380026714588475,-0.1092002415716551,0.042137383241557476,-0.1330055531600479,-0.007809646711876182,-0.04211676911223583,0.14195854241286746,-0.03305556718410763,0.09006471972850635,0.06033724725824523,0.04883030786334938,0.04230238752509905,-0.12905485739795075,-0.00012791750027223923,0.08670063378712235,-0.031923423965682624,0.0263723351893457,-0.038588320329138254,-0.0282860077178545,0.019574815116716486,-0.024380177478016206,-0.024502011617742667,-0.03065301862418806,0.11010327731535996,-0.023956385157662883,-0.09770678147540258,0.0664369133217511,-0.1241668857322835,-0.09719294511254199,0.00690448880302824,0.0890441546946541,0.08922432962725713,-0.08031896320254939,0.10800412457088884,0.002798095954577751,0.061945988611472914,-0.014199360854299617,0.0002346296950538042,-0.03345174822793234,-0.004237402971443133,-0.046998097821084724,-0.05054537497489121,-0.006941844691251944,0.018980254283679512,-0.014034816570313772,-0.07516763106848029,0.021246103716327888,-0.04430726167481213,-0.10209558317483275,0.004995641001361337,-0.00037755743619697897,0.026854823281162742,0.04473031111190452,0.03469940893925832,-0.08624205986102657,0.12630884530635364,0.15050132376224773,0.053231033950727674,0.14578681127020401,0.029253319724063254,-0.0566776193857907,0.10221997005984611,-0.04119224495056194,0.03758877757911928,-0.026475150370108187,-0.06387756710526266,-0.1405747977983977,-0.004642343710193848,0.020570088765009365,0.03132592317421714,0.07719110071142359,0.0050307335380737955,0.05477103188666055,-0.03631960820627289,0.04096284643424284,-0.002004092261864765,0.0353705866381353,0.012866716274369746,-0.008224147681353712,0.048771643710428164,-0.021795829911612757,-0.08555016520178775,0.027354468006239897,-0.02540016365490914,-0.09234303820121698,-0.059201942913524715,-0.037960107954762116,0.04395249652135369,-0.090566038206308,0.11496098454520172,0.003396703237655301,-0.034408917805604976,0.07863404083930006,0.06956219387068072,0.046552259453977445,-0.06054294289065059,-0.04602782574714344,0.11187913627656143,0.03627308311751592,0.061875974629490176,-0.015919074427255805,-0.02363683829443201,0.0014336560813650392,-0.11030738078080382,-0.026912278019697367,-0.10740573653347531,0.11153896655018421,0.07406781530240841,0.07655230178833558,-0.10573997201802512,-0.0004434784465296143,-0.17060399739309734,0.11727494880593126,-0.08301614025109118,-0.12518304138323422,0.08440147932436266,-0.0567970292770927,-0.08957164709037023,-0.09479199415059084,-0.03700236881274914,0.02182265906449634,-0.024610903859923407,-0.05359203683107048,0.038518937527589565,-0.04973624792772126,0.05726709967457799,0.0013535936935482047,0.07570991671894187,-0.058880127895137496,-0.03305560686407599,0.060864855389280305,-0.11632687737382466,-0.08272820001082276,-0.06363911907202788,0.00290237937971548,-0.0551874270797382,-0.03860107174812463,0.13848274305024372,0.05998761441718154,-0.04347421276737584,0.12119654678512144,0.057479042668643024,-0.04067585639710262,0.042483843072256264,0.006751017197184309,-0.07871859860956945,-0.01798581563775675,-0.09961604960856367,0.0418615796366103,-0.12056119162692787,-0.0028933617200201166,0.032534228445936376,0.02100406201081701,0.05816497690684216,-0.006777591540086303,-0.0038401086954777,0.0798706934183235,0.09911053018716318,-0.019118030223129374,-0.10987416214735152,-0.1004356006483287,0.08313005468249783,0.039896610849431934,-0.12848279518471878,0.0060394567415636286,-0.09724159679892046,-0.021552035917701374,0.13864264930393772,-0.12508079948915027,0.0289826494263913,0.054943043983896954,0.026803741202485427,-0.02591114363229385,-0.02084996141369429,0.020273588526451527,0.03512234848342025,0.011857874967395701,-0.06500617634380815,-0.11445141720849528,0.011906073320162046,-0.020937287103925423,0.028887901867193425,0.06669101064232437,-0.06868211334371929,0.012154187910786426,0.018694063832210287,0.013858946151450724,0.04169337942322558,-0.06972269632803026,-0.0536410597208868,0.012071191013233638,0.004193848146309774,0.07762614982922092,-0.13516325049292002,-0.004825712351908656,-0.10224718055638243,0.059499807166863,-0.14127476281657736,-0.05783728802723441,-0.018909456887310022,0.07748775141055993,0.05920457251063032,0.06372723276328576,0.06925632654540825,0.04381177093369897,0.0863201963763845,0.04340382017402372,0.0140548245039385,-0.09285946762896198,0.03602978646336956,0.13472631831216894,0.07709879073486678,0.06180292253111718,0.0754535473056298,-0.04683860853752285,-0.053410457866264034,0.010381248427410363,-0.08351426374164839,-0.015858812351652395,0.019867184160577263,0.04782809854029898,0.008305029160231275,-0.03838951998877915,0.16623414311635698,-0.008879487641237185,0.030789057520408607,0.12395645214382509,0.02765892897717014,-0.02274893388564341,-0.07066927810012058,-0.04550527238561286,0.010911538887691193,-0.16166005628569227,-0.09423703748156206,-0.06137542651636978,-0.006937710267868265,-0.013895013955366926,-0.072812628906296,0.029505993131473934,-0.03271742471435772,0.06722237989814298,0.047664750163496965,0.038193983977934415,0.007889580553342969,0.053569854867399215,0.05116108725947258,0.07875966067324033,-0.020874393777776366,-0.014908597802163718,-0.001151864094139358,0.008470081694788025,0.015509542533865855,0.11113391386407498,-0.07239803423163164,-0.006509368078978236,-0.0623536269696985,0.053429377969209275,0.1013801290784539,-0.11097022119343834,-0.0344672777278623,-0.14568389755671868,-0.04705374991388113,-0.058194988220786455,0.03817722422696424,-0.019403565407260303,0.04358697105336619,-0.14536326597486557,-0.02623670345940419,-0.02159673580433788,0.07992370441812867,0.008870537639230288,0.15640144694120908,0.06818094082515619,0.020034745186986867,-0.003718224818350775,0.0038461352276483157,0.03274813091094094,0.07533988968992959,-0.11855989415313219,0.0751651969072101,-0.07813897243420087,0.12294192577273537,-0.01953241956998515,0.08806359628413958,-0.018137478876440644,0.06692744330603685,0.1785649979404723,0.05122098027949435,-0.04344320493501015,-0.10264853353914222,-0.037986651886745125,0.040351569760554505,-0.08975832105753431,0.11982318930850142,-0.07220788820496438,-0.09413694741718104,-0.00884293401464048,-0.028972018302663036,-0.19078559428923567,-0.06861168294428772,0.04604291890049749,0.048059687241450794,-0.09324817882799392,0.060838645914942494,-0.16773194055244517,0.1574418447934986,-0.023382357392224797,-0.020765403596575735,-0.07442084220879867,0.003964782820749749,0.0685187207639649,0.08343561471999136,-0.06259787557426955,0.08463929639776663,-0.009174734356986635,-0.06757010468761054,-0.034604314639897576,0.015187901128348355,-0.1846136012840798,0.0016281891430764614,0.013914771267776923,-0.07797846233788845,0.02878030436093577,0.17078699808298048,-0.0014546449869691802,-0.04519536957193466,0.054329077369412504,-0.0015752664832566392,-0.024595596158024084,0.09115368571570655,-0.13237294601058017,0.046397750788415286,-0.009601684261892047,-0.05352457310179512,-0.06318302233667786,-0.007232525596054465,-0.016226657553179334,-0.14512776873740157,-0.005628946475528612,0.003565282433451483,0.12870509963919755,0.09254157009211043,0.03441599766163359,0.11096961690489099,0.06025825825331146,-0.01219219596557712,0.14239460345559712,0.17058985289622697,-0.16674699995039213,0.030138480013861026,0.01978910439705869,-0.041704853033212114,0.023140573069672217,0.007791611527688202,-0.043062535944493156,0.04283507513543044,0.1639348283628843,0.05978138811622476,-0.1204091950327881,0.1286784289798537,0.05807835250669568,0.021158965726696743,0.1752895236590761,0.22699932736715575,0.034709489303866865,-0.030756909111499194,0.23007757966867853,0.04694830125124373,-0.09977711723792879,-0.16461744139587958,0.012329716114552261,0.002633887360740113,-0.03292096303356264,0.28039487706587285,0.01384812902470914,-0.06406834054208035,0.2255807844359661,-0.16637247256528317,0.1668720955121033,0.09174705917963516,-0.19649354201311767,-0.12411871147725477,0.06109064999578983,0.11998611801991398,-0.013078364801747615,0.2648187434265576,-0.20431684955402715,-0.3487911924402367,0.042268620128295166,0.2391500032181982,0.03908621473306975,-0.3826968251191568,-0.15971760626608802,0.12313058871101767,-0.10740503399501192,-0.09454760477763748,-0.10216947834820639,-0.23148615740728123,-0.1251467649325981,-0.06041171860675506,0.19514350650054896,-0.029924080418359904,0.07382535992789478,0.0908803095214241,-0.21157494061018872,0.03728364118715061,-0.32735916990940767,0.33882836246184306,-0.3165663521253371,-0.2907187533360803,-0.12770271435128214,-0.03178438532708581,-0.46757834204106946,0.11424490356316579,0.04747536556446365,-0.20965269300665604,0.6016947124692563,0.017825778379385922,0.09511132828502501,-0.12970449052608696,-0.5884289020266797,0.1376852498100357,-0.048588048149562066,-0.19377969351142438,0.3377727988890792,0.14411265621731273,-0.7660039622181734,-1.2276752019114348,-1.1346865783670814,1.2581189721923522,0.743056213567373,0.4361573837829823,0.4401281683606321,-0.9473221577593706,-1.2678323042716018,-0.6531534767226788,-0.17282289959965993,1.5785907489880304,-1.7799462045724497,1.7574979444005983,-1.2177372209056911,1.6287187680393842,-1.5865955574899104,-0.7229755751957343,0.34961516517268176,-0.034391138922629926,2.1493947604612993,-1.2936414428607175,-2.746820676321393,-0.25834855064676354,0.5009274658087386,1.9680946192328659,-0.7353493929854625,-0.09228531487969958,-3.823333692275374,-0.6598861775959098,-1.6735016754804197,4.0956627576703175,0.210351004220111,1.0088561196022507,2.7699809314609563,3.4820607328039115,3.694782338770703,-0.7261355394415457,0.7401901260493496,-1.7080892877051734,-0.02793097467366487,0.00286758923056581,-0.007520420044149571,-0.049186629349172936,0.06782747986759255,0.07779572893576564,0.053559440452708384,-0.006411574384618914,0.12500987747354647,-0.013039960082687894,0.02363355922942878,0.1692830229315174,0.034884118160034776,-0.08365106686601696,-0.11857401772345504,-0.1415322259850791,0.029003713343765523,0.025406731127968065,0.11706555728216053,0.0029393414885032915,0.07667333622053103,-0.04519707500675153,-0.15805567006906826,-0.005046064118898587,0.05161333675601428,-0.03968793642514581,-0.10440579720382276,0.03791190043110718,0.05987019742629261,0.03547731523630598,0.041138856129182215,-0.014568330569889456,0.06241170152057236,-0.0719104155066684,-0.09420701934717778,0.0037031767613539325,0.03711549970682115,0.006509863891898065,0.06351519842402874,-0.023139586361464414,0.08580677592808161,-0.00443345998001421,-0.024174426850678218,0.025784007610728243,0.06010070578205685,-0.08315753704890615,0.02268771915869815,0.012479189520869525,0.02666473523932835,-0.004090649702287386,-0.10073125651190486,0.062363345972502655,-0.042517496232629556,0.07091702869986742,0.005452641946231383,-0.0019734391707321767,0.053938811817324864,0.03931616010149797,-0.10714078999610303,0.022085508368040557,-0.054388523641053385,-0.07408433094909506,-0.13546656074887076,0.050087146385075026,-0.13162007068097434,0.025789288980203943,0.05301377728617309,-0.04125498262422164,0.10051834951811169,0.04878126025827239,0.02277376893622917,-0.08556987223048296,-0.03155019985413692,0.12139230819886707,-0.012463997185539137,-0.0011104322417931725,0.0009831319445825625,0.023711651871254406,-0.007062151471598972,-0.04694455478805596,-0.00041633471458195917,0.10735056133916332,-0.036215781482856986,-0.015550371782076232,-0.10806039045505426,0.0786316981115676,0.01666582848233276,-0.03473371510649077,-0.1328466323513955,-0.0023596342426103305,-0.0793616152361564,0.006829666527982808,0.01592978817764093,-0.0044287479783396986,-0.08921833411110261,0.03823885476594992,-0.13691635435726432,-0.000239932871696418,-0.01662847407515063,0.046157475706814624,0.0015938523690545827,-0.015837373306358454,-0.027679055322632852,-0.03234627970625105,-0.002601751981590928,0.16253976203782577,0.11629751849944066,0.026955075664147052,-0.06081290056081343,-0.057961145934705964,-0.03885486443924578,-0.009879195910718674,-0.05018941224445349,-0.06021116845676956,0.061351083140664474,0.05423670838430719,0.07948357527812586,-0.11407397655968443,-0.08927209340859027,-0.0223429390902399,-0.07087306349165691,0.2007371408276243,-0.0008039119688547499,0.022681886176397555,-0.11830605156676019,0.11176306548403799,0.033520719524992394,0.009532035125648848,-0.06753573127802248,-0.009085285459030456,0.05307108390940837,-0.015536620299713987,-0.001106032770552454,0.1641333658920954,0.021754370051741884,0.18830277242580934,0.009856975826119706,0.10103778245597426,-0.04277179521637678,-0.029862770488639587,-0.028190268983200577,0.05264171500552988,-0.11410502299648119,0.042167684258404545,-0.051855110155832586,0.045320982710083994,-0.03218340071959566,0.013275174543206154,0.04490731124028182,-0.16395816111615757,-0.03707175442523444,-0.07217568591850775,-0.11299617303157836,0.1284087774543463,0.04811339557983221,0.03032098680905146,-0.007979015534076268,-0.09855460370325826,-0.08178342453371482,-0.07544702623695689,-0.024433933317962096,0.027872173705604995,0.07801053895317235,-0.04904412274416659,-0.10347537589730635,0.07630262923497248,0.00012119928305353214,0.09886463579413139,-0.028968501852717213,-0.017441869625884003,-0.053669084135789406,-0.025038480570820764,0.006260432437048734,0.061414517522620865,-0.043003130703732836,0.05553628004719034,-0.047136693045080294,-0.010181635510104202,-0.11671988890337975,-0.04052572072938598,0.06769601158738872,0.017139162862935556,0.007261944853228993,-0.014011051110423282,-0.0531868333273634,0.03723678230028801,0.08111581163614125,-0.045892705737499595,0.008296182132911938,0.017957292268314055,0.04649541277388589,0.04280177881279055,-0.004166159585996288,0.06684000880191192,0.05850800114123036,0.1369343716758699,0.08509076234493507,-0.13020384537583904,-0.018244651385016537,0.10857635393080584,-0.06786502597807952,-0.047672735675863734,-0.03283660226526734,0.08598314583194329,-0.06058808615053675,0.10472982790504853,0.019046392722558037,-0.01237753385626119,0.04291280183252986,-0.06297985168248257,-0.0050967836220034025,-0.06469621938556619,0.047633330938427434,0.012498242160974475,-0.09765762683185512,-0.04580603039701671,0.09481679610526744,0.12416497808874039,-0.04389366832950515,-0.08255905246405676,-0.03550310388273975,0.049849725248110925,-0.09347887213264677,0.012646730099025559,-0.02405192886106366,-0.09241586841456266,0.04257191066166655,-0.012247967108162654,-0.04130018625058733,-0.055206583220129286,-0.02149432065711158,-0.08668208195700243,0.039072992761871816,0.04919647282065195,0.12275418977215119,-0.06849393939698953,0.03265270812432625,-0.020109239547608185,0.0072682680780843415,0.0071282731324764466,0.03147113583015829,-0.022248755080040872,-0.10857036400055632,0.08947347091922193,0.03449207522021086,-0.05104829606691756,-0.012923113830565458,0.04399935258367832,0.025742358023985758,-0.02940370659137149,0.06495493586297948,0.010893258667444958,-0.08551996526461329,-0.07419496414197559,0.032140954386030644,-0.06258661993759927,0.002585202207409621,-0.05160463671062328,-0.0031833436966071777,0.03121691583236201,-0.008723133084904489,0.028266867788796477,-0.12488873208756102,0.10702643026241156,-0.0852829705254584,0.04665707201794033,0.06532020060312373,-0.0873886743795903,0.01561212586297563,0.11227302120952531,-0.03304904843141364,0.009795827972047689,0.004794860677087074,-0.04184268136445253,0.022462009199397594,0.06323102126323954,-0.09123551276346255,0.01687377186930218,0.03041685971119331,-0.06699477112192308,-0.06191645628291443,0.051955431005645196,-0.10831670922354743,-0.07308810022053588,0.03758690859903537,0.027804194272711705,0.14809695542451237,-0.04840804658765911,-0.028563450986447143,0.02678763812923363,0.059496475424383355,0.00987338928263617,-0.16731824360558561,0.14112020159735586,-0.01931685939799013,-0.05120657611965345,-0.10862599013617993,0.05229385984722156,-0.03700339789601551,-0.015287509995106478,0.009149063321206994,-0.11090749089541661,0.03325606223560809,-0.032055713630734624,0.0055331709112663285,0.0682377711403911,-0.000008380958784591594,0.01679620976048966,-0.003986886401446882,-0.042546933849646716,0.006544220097798935,-0.00828656415999478,0.002372063045882078,0.133586500632176,0.06997951242976141,-0.02293469541753348,-0.035959554941422854,0.04689880868961897,-0.010374188499735001,-0.025032522348882386,0.018073048648197008,0.039614351399981984,-0.10147535255820714,-0.032309956012098434,0.007058151079407254,0.1086751063893376,0.09558222005072038,0.015425015182303022,-0.026717856288114704,0.005279132329279044,-0.10601523041387774,0.15643484165386887,-0.21823799350372877,-0.02369315566121274,0.03920586579842436,-0.03903716222958344,0.06761309007867868,0.048139286000228786,-0.022391676525854273,0.08582867499478918,-0.0587847120918361,-0.09559423417097729,0.004124719184970318,0.11567041590771603,0.0322856259687748,0.06160879427297366,0.03354741011416699,0.11611459125661053,-0.004681746549628403,0.06367474638660704,0.17878781176165462,0.11558665760148545,-0.17900771320839148,-0.04836434218168108,0.002748207092561073,0.059292002224580025,-0.04083562595460155,-0.04348855217390456,-0.02725005151310874,-0.08304401862556375,0.05058214678781239,0.08144785675236389,-0.1160981175660105,-0.09478851022756032,-0.006335708181409862,-0.09232633573264902,-0.009671755254953103,0.053944396154504665,-0.0700615175824604,0.019742428334229883,0.0018036825262890861,0.011083972223026045,-0.07839296806418178,0.11427162545985597,-0.017293767741542745,0.03065070651962017,-0.020606728950925655,-0.00572688652861855,-0.04583917471521946,-0.16510440405688995,-0.03646839545200575,-0.013597632293311346,0.06261452645159546,0.08069235560817939,-0.0600027859769657,0.11585920451003115,0.05718001894526028,0.012958176130121455,-0.028138196678354946,0.09499483957506494,-0.032991073119476536,-0.04638783404439831,-0.07065741657806124,0.037953980949529176,0.023801756737621842,0.15979113824625457,-0.06267046871341339,-0.01571799297456721,-0.18259262762617084,-0.029652331077272845,-0.06645424824835307,-0.17165848747806067,-0.14921442287033534,0.05846517302414713,0.07068240049796455,0.05103610117248219,0.1859940277282119,0.060224953771037135,-0.026221178726517802,-0.06076686421818799,-0.014920610857480034,-0.19608627163090459,-0.08516462689001984,-0.0058052127303340655,-0.011737436350745345,-0.04033902789526627,-0.030321813634646543,-0.07436467607013149,-0.06714952320304095,-0.0002773986095446009,0.0976178701613598,0.07974340779895848,-0.235682312444909,-0.0051699123839888525,-0.13409527553623507,0.007737983101143372,-0.13894409448588668,-0.07521712609328747,-0.18651549122611816,-0.009006396471370868,0.15783392890919717,0.014148867787155444,0.14071191239967903,0.03433497379359436,-0.06070032099550609,-0.022982155968070066,0.14454485940372847,0.08831748592214712,-0.11847129817095653,0.09679977249338075,-0.2819742068713824,-0.17832399027814064,0.2841313011400134,-0.006820736782368959,0.0692235246892142,-0.21413434462938938,0.10099885483347315,-0.17891593681143056,-0.18481530939628962,0.08397083238556337,-0.023596201144486413,-0.018420246465829054,-0.8123418909185411,-0.19161059005939635,0.7007652460415497,-0.074768958841366,0.12364901016621722,0.05459353405258817,-0.9877326876242901,-0.1455459042330464,0.032088906862727584,1.4878654073717184,-0.026323837947575104,-0.6769487630778118,-0.9611916620806095,-0.14382165433412666,-1.0869913646289568,0.815333864929218,0.5486622172028315,0.5538212366512345,-0.00993722678522758,0.5099783379701104,3.100894258470254,0.8195543722853761,-1.440303851209068,-0.19057902009584343,-2.0760786918031577,0.09530361994792659,0.8467205226476993,-2.2576998451383066,1.6522554790686683,-2.1068643978308286,-0.8795668601388791,2.7384187138585925,-1.169535207257359,3.230517883444934,-0.35074597627845944,-0.615717630982376,-2.057925580529975,1.9582850043931481,1.2432084297581194,-4.894329245045206,-2.5844433922921835,-3.722102193849317,-1.2878042345001641,0.9309883335676753,0.5038259373096142,-2.7417304825640136,-1.6900069510294013,-4.3589238181720935,0.06981789734065447,0.011511185386357986,-0.07139129454282458,0.030171729790078233,-0.011349562127497676,0.013797097645739451,0.02994153671163839,0.02830965786270299,0.07222710796678368,0.0884061574378522,0.06718653739206766,0.06574208816365411,-0.06852463772641629,-0.04966321317881065,-0.007824514467840191,0.09289218621599808,0.044827719958285904,0.058062052615268325,-0.06734575838572966,-0.0652821755413364,0.05819735316589985,-0.009212184943269957,-0.15960934565821966,0.039104947581685076,0.016116320824017517,-0.009614289343800096,0.03551942325154885,-0.009818760751477777,-0.0978332266314906,0.059583745740892126,0.15620364420380786,0.09139843244055076,-0.049938289426920454,0.13255167511977003,-0.0830602146138583,0.11546898429643054,-0.05670815295442161,0.11257564826200127,0.05347635212987447,-0.04638466148042174,-0.06347108302796842,0.05227251226064969,-0.09188732510769408,-0.1199195210309018,-0.026973491803366566,0.06460088270246611,0.1480212931881342,0.022429260219511946,-0.014853444125765588,-0.07003318372167601,-0.04669657432751058,0.03456948426983392,-0.05500468075791686,0.10290643267632049,0.016322104699411425,-0.16354540214776828,0.04894962049281417,-0.017074028145473128,0.04118970402123152,-0.2336319971691037,0.061720671272574384,0.022360225653626834,-0.089652874084369,-0.08990204264717805,-0.1452833878781855,-0.09621468476844112,0.012013115884858004,0.05672006058155874,0.020168720853318455,-0.0886453704925945,-0.033590165909108786,-0.07281485210320784,-0.051268412888984836,0.03344619259808822,-0.037354969161590146,0.007690541053648152,0.1979103889407425,-0.0457403578246492,-0.12735591173580182,0.015450519989990186,0.029030394673185404,0.017884363849271986,0.01684428922443766,0.036164871404058684,0.00811611046999847,-0.018943161160618147,-0.10572513481973222,0.0575182943091516,0.002840579139382305,-0.09803137855163371,0.03679375386034687,0.08750433570623045,-0.06561400807548565,-0.005193374087532833,-0.05975650821531904,0.15530482463581263,0.008757438755381191,0.08172471579133588,-0.022789335054801386,-0.03490592067076568,-0.17642478134134007,0.1284607011043308,-0.04255139257159651,0.12991496174960715,-0.00863213999839111,0.05376811001873232,0.11314141428379061,0.058147249732781056,-0.07916384704704968,-0.1825495027257857,-0.07739582897601109,-0.06555852512795693,-0.07510008961984649,0.09496640624000553,-0.032376613391005615,0.032794429120756204,-0.02940869909802593,-0.01729173621715302,-0.1105649605665311,0.024143170714391003,-0.02927449494313974,0.04484177214967495,-0.05645606233729917,0.027162748080060473,-0.012668599590660837,0.1454168499411022,-0.08132422155516915,0.0842752043148383,-0.12577106146642425,-0.05087344960565881,-0.03871186116864273,0.0009375886795548461,-0.18336884848151727,0.061315066589274464,-0.10897948709884105,0.04381270352608057,-0.0113020708719463,0.11548261060401964,-0.17832680070094561,-0.006857562435527566,0.06144629131704905,-0.055079894893296746,-0.15095713375108682,0.03851934928495608,0.11051899328729974,0.15365177944989084,-0.03476536734997892,0.048286193561405955,0.0686794858315075,-0.10800961071116089,-0.0037525163162040968,-0.07010102332829495,-0.17517203798061443,0.16237666044222845,0.03781731940899218,0.055964112340651226,0.020691511178745518,0.03679476304840823,0.0038302965057046986,-0.05626314105157879,-0.08546303436398228,-0.07249881163516504,-0.15180379818101045,-0.012593442363142991,-0.03293997803550977,-0.13066140526145784,-0.02179693022840513,0.03574816532070143,0.02201353942137566,0.011519320545763588,0.09496687219845265,-0.02214927421583595,-0.10405811159944689,0.07189887966220952,0.0013519347573056055,-0.009941491608923455,-0.02652659371891974,0.043856090808771536,-0.050288575837191034,0.05033473848322686,-0.1042480682947573,0.0354094559566074,-0.04456719614677221,-0.05884915490012458,-0.05198676276110498,0.16818340038342247,0.1616762988999023,0.068373001408492,0.010880721684879023,-0.10520562666996203,-0.006651728631774276,-0.07265311148787185,-0.11065513481091117,0.11654050811219034,-0.04798786284280622,0.07237008530268345,0.05982641261430265,-0.10089863305057033,-0.0983647944741938,-0.019983786137474195,-0.10769637235262101,-0.04153430252073724,-0.1452108680670906,-0.1116139144049679,0.06611146783512994,0.01571580963389695,-0.011889868631696813,-0.13521012729687837,-0.14901683645130312,-0.05994952134777658,-0.09991578352707375,-0.0804745064213686,-0.025590829221328083,0.01665772004400141,-0.1318090692035641,0.04655187804009151,-0.00047785821464143213,0.10859552560381705,-0.05434078593684416,-0.061905592101496466,-0.09340712617478411,0.11019826476372603,-0.06645794636069867,0.025636419778244345,0.0030133022158625937,0.05712316232940422,0.058947777324345293,-0.06146622088957818,-0.041142713887299995,-0.0880815574929669,-0.018098173666411522,-0.11772517753604209,-0.20232770704066946,-0.05661934237156602,0.07682165447441829,0.060850314336640905,0.05098096806444814,-0.022373537319874334,-0.06558574566408215,0.16491486235594713,-0.019967572245202236,-0.028312038389661832,-0.18001297716364706,0.10188747684893584,-0.1685045364549215,0.08439897234365203,0.08092158678774274,-0.09335521119018331,-0.01518894809473913,-0.07927911972768366,0.07953256070037112,-0.03875219313143857,-0.11123893146843808,0.10806113689876715,-0.08204701963883534,-0.011690842055639496,0.06890526872888125,-0.11950486510743301,-0.057413927759868706,-0.0032461584350885766,0.07544863657986164,-0.06653344990262747,-0.08394508113242806,0.029454874468021596,0.12967744986849988,-0.005920815283404109,-0.12567073156091033,-0.1542400352587703,-0.08924538598738553,-0.02305387045554296,0.018739842590133757,-0.006623571517218166,-0.06872135229298171,0.09170737905841701,0.07010258479827101,0.12129367330218087,0.0897380509155668,0.005142298279213514,-0.0067621857038786,-0.1064348024111953,-0.05165359412421251,-0.20218253763125718,-0.15453567308066907,0.08092359349435697,0.11146308860511624,-0.11133923978400082,0.027629119460314173,-0.06705150411962425,0.007215868392994161,0.036476223305098344,0.05740800130925767,-0.10425809145639248,-0.21369389605642666,0.10849845032475104,-0.08481931170543165,0.08992537690177019,0.02622265673704124,0.12795031134991533,0.0026117772027501422,0.0030277988763144532,0.037030217278321766,-0.06958413165135724,-0.1044605788925522,0.06678553174764494,0.05074950368878722,-0.014910747015800153,0.10699592387205777,0.185354447260589,0.02610407311138249,-0.057985411362350976,-0.07715092784801057,0.0786499728196397,-0.18979753602084362,0.1482831088388446,-0.04731053083367878,0.11861604938240126,0.020382303389560485,0.05898596755367196,-0.1245425128661538,-0.09485160761300201,0.16019232093586352,-0.09853862217864884,-0.092148276446662,0.10355567456884456,0.029789416091413487,0.2540570847271093,-0.016675265264561014,-0.020329524718124548,-0.009354096795022603,0.06342883923968476,0.015998173740724517,-0.12031332631775571,-0.04711765997954892,-0.06536341352067102,0.09533593804242754,0.08996865820498219,0.14227863569779298,-0.054748021858623354,-0.004841361643206537,-0.054997626850996496,0.016735539384426238,0.15474253707294566,0.028949735949638396,0.03820447328636969,-0.04266995016984711,0.056742360640565065,-0.041067882670813655,-0.05154417850954707,-0.09780224181448004,-0.049806805384793464,-0.11981042574437184,-0.007688368714284391,-0.05906461800630258,0.05466635838709211,-0.023421213120087256,0.22693175092385864,0.0066951759188703846,0.052486727808458464,-0.07417753567695477,-0.07096196988637592,-0.03986017040336452,-0.01029464307753355,0.0007221499384744687,-0.02417162151099323,0.12334672438690801,0.06021270455601371,-0.01862629816430477,-0.10162012523492243,-0.08911347010230945,-0.1487365302282704,0.019155833602822893,-0.02088693832850024,-0.140811602469483,-0.07151501271095606,0.08841486613004126,0.18698304632231844,0.03579666215314547,0.19678311885833616,0.06275511143740879,-0.07383502847146707,-0.06895560100422436,0.023353012081502308,-0.10902311393901101,0.13631568450069145,0.04204975641670248,-0.021166784745689924,0.036867552715811686,0.06725821545080293,0.05061328220142343,0.12912850463908193,0.09574232618771061,-0.12347279191992656,0.02734228488794505,0.0635367610903658,-0.11414695250277163,-0.05371531080362956,0.012308271449922149,0.08759696554881037,-0.027583241502595814,0.015090618111733742,-0.031508208507055165,-0.10107270865478896,-0.11897435989156463,0.1798048745269469,-0.1391636035223021,0.08520115205604793,-0.10233090965921213,0.14123933343153855,-0.03306990908822826,-0.07165374010716323,-0.0389304565286779,-0.0369780154642808,0.3097662183551775,0.027025480859961832,-0.04824120390608304,-0.12844771201034152,0.020514268285470885,-0.14361097654690694,-0.0007618604180166028,-0.04050175988488875,0.0991322518491011,-0.2677330859625708,-0.09362164629153237,0.1475085368473628,0.061582080903592885,-0.1429474754358623,0.17800500271672892,0.272321581194531,-0.009093346216796621,0.13184267020987872,0.08173306112918868,0.0023024998176037373,-0.10568213538101674,-0.21533305807434897,-0.042710564424120696,-0.06309923538896238,-0.2008322813867586,-0.007120068305184661,-0.01884839602352636,0.22234081620729337,-0.10621139132947001,-0.018588735695965364,-0.29197568951022085,-0.07188038680073926,0.1114880230010855,-0.10517883210670557,-0.14615128285362317,0.23281741836202227,-0.2639637675220799,-0.06598257865876592,0.25751976531174425,0.6561556026047236,0.05936297619287172,-0.6445764963676257,-0.33617494509826845,-0.15025249952170047,-0.06505089041354226,-0.06907417407336022,0.691274086483713,-0.0026067845554703937,-0.5969901604504585,0.22088763039725284,-0.9926243123531464,0.1689615656116991,1.4709114559289356,-0.33738963415085454,0.32976425560485184,0.6517731249745151,-2.006034098592538,0.09516360821440092,-0.3122352635339575,1.6603216534523522,-2.2619699158678133,-0.6560839474509587,0.2016839411679085,-0.22772725014842204,-0.35898196863032644,0.7173135193460907,-1.431151540074888,-1.6411699641249395,-0.46991187453852606,-0.2887171951508455,3.0757551824741225,-4.659280613443527,-1.5809305267838212,-2.7265907226333943,1.3159652824335761,1.6995290131131142,1.0187539511213457,-2.530514713463827,0.08735862593532945,2.7236338579205865,-0.9681698996347343,2.076636719197004,4.302959866869723,-2.4174383911111432,-0.764425582381832,-0.02831424637169169,-0.8735821189176783,-1.197616391939028,-0.03706507934172737,0.024812690732203223,-0.03360161785220661,0.11256847434338638,-0.05661706328427711,-0.0256461861496142,0.13914543715749436,-0.04271763818161777,-0.16171529981557767,-0.0025713617177610675,-0.2022455465095055,0.03662716002392225,0.05655376541886329,0.042560493858312703,-0.1673802685533924,-0.13654551386286434,0.2266494114267163,0.007931985409732905,-0.07771821980249552,-0.06302472591975805,0.013723029079188789,-0.09147365945966945,-0.06526624798079124,0.05846066246366195,-0.08519888536917457,-0.08596389675862237,-0.12662084375742824,-0.003270379317393151,-0.24490323262385733,-0.07463374767970797,0.05378446168771659,0.08180962996085778,-0.13901647120539853,0.09823808666558098,0.05777965577716269,0.008817681693709901,-0.08241796797812206,0.05197171557727191,-0.13193775889753354,-0.010636482907171358,0.09494172023037381,-0.01853173595888112,0.029070936921670728,0.028402619709939216,-0.17747347834132007,-0.025728976311949585,0.08030352911628642,-0.06454740634750464,0.08687042517027327,-0.04086580248762216,-0.017064172179644052,-0.12118995394065284,-0.044629286507955265,0.004780189032047039,-0.05452044498119949,0.057282185338415295,0.0023463205860135856,0.015781218392595005,-0.13517422325567416,-0.03994863002918151,0.020973796549532603,-0.07270411145885637,-0.02686560595496239,0.10377610679158235,-0.09745414113524216,0.15666862993206881,0.13842002143406712,0.02368467608874179,-0.08625653350140432,0.07892735817339978,-0.018619007833661935,0.021352466859401995,-0.08440852127469536,0.16253301532096676,0.009174692504092417,0.14698411043724635,0.021871689871776127,-0.03361039283717459,0.07021896090314776,-0.041265249511332786,-0.09799999032490589,0.12911252025198142,0.04746188810209402,0.11632525070336378,0.11806924644871225,0.06388484607602941,0.00110206931367985,0.15396459356414446,-0.05267014476114189,0.006319841224820361,-0.10568639784882708,-0.07529610817870172,-0.10929218915144005,0.0033110125539044916,0.043967698260512396,0.03562939342572573,0.20564984683022414,-0.011884369279953936,-0.02985983949897495,-0.06479868440026931,0.15633739661559953,0.12796727018109502,-0.12573641522139456,-0.11143103255075582,-0.02715978416615308,-0.01159774358078815,-0.0300138940926164,-0.041759062323632766,-0.007829327859372372,0.05592575638571234,0.04371812713897967,-0.004227519977389664,-0.09987882091766608,0.03823491699953643,0.06461391860204982,-0.03987549749474406,-0.043220872107050876,0.006125018177100033,-0.06913908006443584,0.001353087753199422,0.06625731982158073,-0.025943656024883875,0.036720044841705664,0.023675693515796663,-0.1790429481839579,0.22480793375188035,0.04417425502564835,-0.0364697734287907,-0.09589610943155621,-0.04163066124968282,0.08001266029360923,0.040482916820730123,-0.15314344135555102,0.07372068195422239,-0.006046237747529891,-0.041176589984785385,0.02110432587293168,-0.02214041347512074,-0.04790889223344016,0.030940907031594946,0.010627568039282808,-0.005538490253924907,-0.13404690444697603,0.137176932308603,0.01512865424579478,0.08018299012666903,0.018233855534509607,-0.009664593554803272,0.11237488217625359,0.003999784625080186,0.07399883192063743,0.14685839606980272,-0.08329007305960559,0.18007683583502895,-0.051538589287395443,0.034347472425952,0.16454744098050297,0.08075703188363023,-0.12373787345850168,0.008196722113795749,0.032156449182201244,-0.08657508525368561,-0.13259696241746363,-0.005081702347375707,0.03490547931194185,0.07078930640597056,-0.07882187369940664,0.02286931683447632,-0.0006923733937003039,0.13405544587043933,-0.094446878249881,-0.09348667553478464,0.01204975418246581,0.18751450294070743,0.16247210811527962,-0.04688756304826175,-0.020082221611837828,0.019727186652578124,0.023930006914258607,-0.22140142100826127,-0.04902800140204939,0.1414771507889983,0.003842581018122563,0.13372616431951373,-0.02682623545723786,0.1794316261882665,-0.015617378294529251,-0.04721628083845338,-0.09616163336609208,-0.058088206028312724,0.11541219597880979,-0.04303684986504167,-0.1451086028946113,0.18220314343666763,-0.04556782932306194,0.031321609836677984,-0.03430575233475137,-0.02153847313275927,-0.14351774732740025,0.13097216530646152,-0.10395105012945614,-0.06175364538974883,-0.013754971699227072,-0.1102840246116171,-0.1325167136329245,0.1558576718927538,0.002975692960806484,-0.035899881493315806,-0.10663524451652234,-0.14869979785712542,-0.02071528691340145,-0.09997474119178619,-0.06248597150432071,0.022264216994657433,-0.11327218435376142,0.014854047400753837,0.0025382645288186353,-0.1027734035907606,-0.021388125270193993,-0.05903177840694455,0.060856410294079434,-0.1113758638955658,-0.0451581498690924,-0.01588723521218361,0.09599633244479182,0.08578198916194642,0.04079898158157771,0.03429939318891498,0.05849422449970227,-0.14571281272659178,0.044493719473014934,-0.02788424315312256,-0.11863403210513877,0.07021173260005792,-0.001966430505476463,0.02277159785872154,0.04569679708528162,-0.07036732510604665,-0.19096590185249843,-0.017487548582215066,0.1523241050548106,-0.005984496711062467,-0.2276311345135096,-0.08665424469738371,-0.03787451635695342,-0.0011884854072237705,-0.12114664388922693,-0.02350089231481394,-0.015826123085701346,0.02722611001368901,-0.04108850786386633,-0.05567682305423108,-0.1421864516212731,0.021221338812187816,0.061823184402557,0.10481982939955341,-0.0045777134979830105,0.1721827804880664,-0.24658629055131964,0.04207600788936562,0.0026034685225654677,-0.06372995170318006,-0.14080651313171688,0.08276727068392753,-0.005636311178083308,0.061170437256122645,-0.006040050072352282,0.05410777215001138,-0.03996912311624354,0.09411926878472317,0.1168338325821672,0.16637663965721194,-0.08909427896944414,0.10712938730927157,-0.16449295923246798,0.030931741934393856,0.09085201979840275,0.0323827321099827,-0.029929044963810058,0.11723678427367705,-0.061824964953104876,-0.08766807871383828,-0.10253988459756153,0.10432191191557522,0.0669602271145351,-0.04938984345693305,0.15660155430700343,-0.011658175648351176,-0.1587345662912177,-0.20178091306898863,-0.043394637936271116,0.0282173866176924,-0.1292855991471713,0.09944634514603658,-0.04761227738584147,-0.0065391551265431514,0.048354977397642204,-0.03252734931574885,0.03819401033392388,-0.10727100154403552,0.008271796272680446,0.07199575185072804,-0.16502122231553493,0.13082267562865837,-0.1318542269836811,0.025985608495869294,-0.050998373651222666,-0.04307404508200625,-0.1115272000143783,-0.08342382511321832,-0.011670301033128236,0.05833741204908541,-0.13169015888105506,0.10095343357550436,-0.003565858823867336,0.08047518791470976,0.06591177593423934,-0.08356030398021284,-0.0894688264533694,-0.10054803110297902,-0.03474888157394597,0.13581726238319206,-0.15077752129702876,0.06101696240436475,0.05727835656642037,0.009975323685762724,0.02712472908231064,0.1314078818214072,-0.11289926184862918,0.03044958996930705,-0.05027838818353316,0.047338680166577836,-0.1771151376792854,0.04332145360743714,0.02353535215424913,-0.04098886197406717,-0.027664068137315208,0.11807647763661844,-0.03833159262896726,0.10045089915852796,0.025151041868257545,0.008071541867520616,-0.09892271656523678,0.07384967674660174,-0.11147928335684733,0.08415370662864488,0.0311397009439142,0.0427483987453933,-0.023661058885436976,0.05638555536502281,0.0019161423347334875,-0.0029862610237776643,-0.25286771104381817,-0.036164635559914685,0.11233058196325224,0.028120858370366292,0.17355786841638424,-0.032300879786683646,-0.08005044431789966,-0.09922392456608806,0.07874783695628806,-0.012124962425995594,-0.17426117704876196,0.02046587625986332,0.06060321114950768,-0.20806525304647835,-0.0509847234924213,0.08282810526920321,-0.08179738017974067,0.030021760084467317,-0.07062335017876648,-0.07573730927588876,-0.11842254566624376,0.10281205542017803,-0.010644025569683564,-0.011350136223510292,-0.06070603312965021,0.09413265190380486,-0.11556770379572626,-0.09563299974745855,-0.102255074019273,0.0707978092163965,-0.1865277727331215,0.06601608427035023,0.07864454461042675,-0.02459190748015873,-0.07436944952069845,0.015184587892940757,-0.00186671889244692,-0.19925512433801384,0.017909925773170753,-0.03949079813611072,-0.027280838426677258,-0.030797213709943923,0.011627350064171808,0.013280596602311092,0.07034298040311016,-0.11725430458717873,-0.08025659698862958,-0.07507425901636125,0.07101789498394342,-0.1652424069608638,-0.1417708620077938,0.15944663766730585,0.10744757304413517,0.05355668782202124,-0.07167061020368441,-0.17003551230982222,-0.06006605938060732,-0.020226259942955675,0.054320992286057905,-0.27414787183357153,-0.05817187549151309,0.06511242239754651,-0.0640105293094788,0.025779952430830515,-0.06761397069851167,0.03451080877115944,0.14788116603637316,-0.023150621557547192,0.03368243751700343,0.01331584862954577,-0.16951094457115357,0.10738802503658608,-0.045345714758764144,0.06152239195256511,-0.11255211136978654,0.1866585546975449,0.07881988389449456,-0.0513334449684223,0.21622184437926967,0.036240265598693665,-0.3281368187839108,0.03217315032348835,-0.2835097569167741,-0.002869126142559139,-0.047314523727041265,-0.03536231872126939,-0.15908302014567552,-0.06206114230968963,-0.10968114484274914,-0.003166232609831461,-0.05968159750118567,0.17909018759944112,-0.0442628538060578,-0.17265537804962797,0.4628330481515096,-0.05569290818913663,-0.556202990870795,-0.2953265816472333,0.07468291033893619,-0.08614940309596018,-0.19964991078350222,-0.5683714024521908,0.03874908580107595,0.14759242131779543,-0.1304546771761283,-0.3409997824985283,0.18592671807053138,-0.01899683557600872,-0.08102985268923388,0.8045101815060294,-0.15773062555310877,-1.4246413298805132,-0.7855142560193503,0.3617613651085783,-0.9912894814187366,0.07449686600876787,0.6261652356166467,0.4052669014404038,2.308761726671037,-1.0886618466248483,-1.8399127473189214,0.03481451784515101,-1.07452929616042,-0.9745295120713529,0.668887870550264,-0.9739399839480354,0.5122418688449972,-0.8030042675297274,0.515957772718181,1.3033324300285956,1.4898989157243523,-0.6330640299228004,-2.75903214478488,2.014919068823211,-2.2940945846062015,2.2767061103845,1.0548024623425794,0.5200449188803072,5.909452246637041,-1.4864627283253775,-3.5665206910943015,-1.2210945909035589,4.143691612996981,-4.160415985782221,5.736312242969927,1.9354501374244397,0.6737391870270381,-4.577168837412908,-0.06481144119136832,-0.054888132792736306,0.08890713683189899,0.013114228180893658,0.04627973994322756,-0.07637188262233806,-0.11247496983157272,0.0028252111137247135,0.10499353304154475,0.0351311259991592,0.06910612487786834,0.06191731639417152,0.008155735702346128,0.032764405549027285,-0.05373134151078147,-0.05812249202931818,-0.024348285785607913,-0.055373675329869136,-0.06258045031780347,0.028766223149242792,0.08032541652082102,-0.016741795602558267,0.11273348163518848,-0.03393311641797449,0.14142395130274016,-0.12508812820340762,0.07598990955642236,-0.02304939027183913,-0.09057211164998037,0.1064198714796051,0.06536696003422914,-0.08160469144107464,0.008828158339954817,0.10480484102203567,0.01427460358234138,-0.02855301863063768,-0.005829450943610738,-0.015412493076836446,0.025716298318060216,-0.05614728424774203,0.02237496248373276,-0.0210591018571269,-0.02661890891919175,-0.031994315177838434,-0.11565705683604363,-0.02836885349533236,0.01794194403882152,0.05132542001172282,0.05784167263750619,-0.011241879807421924,-0.027629332989891987,-0.018326656024863143,0.13364201362247352,-0.003636860125684348,-0.02655796508354152,-0.049627576785682775,-0.028698284237812254,0.06212572061035667,-0.03786381929577036,-0.046256511362417374,-0.022235601886805796,-0.03190513174464535,0.054950172551444,-0.03974620023251728,-0.04457963442848309,-0.045795711279604426,0.049750497380961316,-0.01204358945002745,-0.10709128297763884,0.020495091364442834,-0.14214135220616872,0.09862601699602332,-0.04856622237519207,-0.07401424210976139,0.08307239147714428,0.0625391272346561,0.057723785833948646,0.10804473483446894,-0.06291577861446992,-0.032545730215929186,0.08185375849899111,-0.014008829853369256,0.0021877617992011184,-0.07912633104573032,-0.02797353178163721,-0.06484707531700759,0.06759927753816508,-0.02439624791781702,-0.12061343000484144,0.14491585564914736,0.13558419077231115,0.00897677471461725,0.11349136261364096,-0.14559754838844866,-0.03987637828684689,0.06653608866219807,-0.1567112370577319,0.03587686744005603,0.008289979644255232,0.043723111693908294,0.007100150098918977,0.07463517802714455,0.09955837810150941,0.017861150208618413,0.07830381579070568,-0.11935338473690048,-0.007844299756268774,-0.017097309614267808,0.01931708241333566,0.04723296012948465,0.03256782009199961,0.06185423259502254,0.30979343853948,-0.08588008861595799,-0.056862854775746034,0.08432557843789751,0.04664032723675225,-0.11167893661966768,0.14033736878515907,-0.0007641724032505018,0.01703054408580251,0.05169046455527816,0.07506394208276758,-0.02337902832547231,0.00901088459513124,-0.19768570040868289,0.02938051242649425,-0.14334425496713463,0.03413038404132396,0.03102710316696382,-0.0664906997385735,-0.025297191747663032,-0.0017395162533097573,0.03245629543008156,-0.06276722215043325,-0.07784375536644465,0.05392478416852379,-0.07864584325799255,0.07232198089925058,0.08131383076440822,-0.09730760286485522,0.11174725935769744,0.013064307591767771,0.00432548836019306,-0.04225688509280295,-0.02394874171127221,-0.039617379719685326,-0.09066325603597136,0.12549270002769694,0.12764125031466445,-0.10820356694625613,0.06822681109514722,0.03946854228207603,-0.04925119600390905,-0.06479329957838574,0.02095498905447073,-0.00016714921845729724,-0.04625183065395743,-0.052647560329030584,-0.09546649161078924,-0.04383916331394519,-0.006256576368674273,0.10749142986217787,0.13303169279537025,0.06793622786245924,0.04223055507742745,-0.08854759916189653,0.07597650141883842,0.06391761447207298,-0.08259823670532605,0.024702439487099114,0.09134103406450673,0.011693207589749666,-0.0002281855578438385,-0.004249851782746824,0.030267324583639454,0.015650459978747023,-0.1496340273517765,0.017021619330801596,-0.006160448965456049,-0.027706444633176636,-0.04976972111578237,0.19775035776640076,-0.14629778388932854,0.09166305211421989,-0.07066744752599563,0.04717407289209337,0.08545072922182374,0.16189246979951985,0.0776717212570244,0.1308046291563856,0.08049841462539623,-0.020276794612171276,-0.035665932144162193,0.016122252066676883,-0.03334050045094137,-0.1136275575780741,-0.05990132768731353,0.10567827092973328,0.03946855676888337,-0.12021977941612601,0.021360295981946602,0.07281364000808677,-0.008508789949325208,0.1762596810562711,-0.05702465526668698,0.04008650323576903,-0.01608202635233872,-0.05589517115086848,0.23022411309059881,-0.009198562150966932,0.09779273344549445,0.007437046023904365,-0.03203406225888344,-0.04916806893560324,0.01922596221442704,0.06354912133892225,-0.017347875612586317,-0.0573836795751668,0.05795523330011865,-0.11817642258969475,0.1129333452306779,0.08359822793800517,-0.03087857818059997,-0.08440541575744218,0.10468237355475882,0.12741234720402855,0.11871217683406077,-0.07910912414971193,0.2033219099680561,0.06294156607692329,-0.009738130157585175,0.2096878620241422,-0.13458934023842914,0.08387159323658333,-0.037812738899008054,-0.024210281925766346,-0.11850220717190607,0.07980291899917907,-0.009345476625741977,0.050896628060776904,0.10388159648682171,