{"Layers":[{"Weights":[-0.8432638757954135,1.7118668770364898,1.655474143916233,0.0509679572200366,1.7661654471413757,-0.9541437539319721,-1.9693766764213056,-0.875950124992206,-0.5294163096875878,0.858553911520696,-1.0104583718404228,1.0986138232097196,0.2914789753819364,1.1251516640640604,0.5976877311020515,-0.32510145958697495,0.48133820303907626,-1.1643525352518094,-0.6612005725555232,0.8460484374467793,-0.8534132578514533,0.7554350110732604,0.23006004281403877,-0.6355760813815189,-0.7244435398389997,-0.8810778426331606,0.4548573677847234,1.4237543350908912,0.5144337424323735,-0.18808198428578626,0.269100529436597,1.6411273319884085,-0.4717835932388366,0.6415715801232054,-0.002296273328263037,0.7708880996947207,1.4983494006472435,0.5347273171215173,1.107781792014832,-1.5075797163440943,-0.08234172165054014,0.7892535712607608,-1.4724449385521443,-0.902517372522405,-0.11957211844796777,-0.17634016543990663,0.001296377982573774,-0.08151990784137804,-0.6400560466965579,1.8684700821588456,0.04973170928969893,-0.7310768238236044,0.1737525924423796,0.11038757532076825,-0.9020769868655472,-0.2902995344474836,-1.6168717628477074,0.4679637895797493,-0.8481024406558761,0.20559914749794278,-1.9149000296529035,1.683329981855007,0.12290701051213207,-0.3225506570124624,-1.584609789063235,0.43154890051513134,0.07302125275138116,-0.6406178557196638,-0.3513941224505361,1.362897286410814,-0.29189718155420563,1.6586420090098168,0.3285561401725623,-0.5702590779220453,-0.6581519614981629,-1.981357437574438,-0.22190012619821087,1.5131466719190563,2.0365103419725368,0.13572420608588306,-2.0783796097601317,-1.72312575262692,0.17975084256734072,0.0902888784082331,-3.1690617698468637,-1.2280657952213097,-2.3024897086485683,0.8000238473619005,-0.2571456921414598,-0.8145548178157689,1.6905686896343108,0.4715563658321067,-0.05829120301610181,1.880558627119035,-0.6799375890174628,-0.7421088619768181,-0.5830871248035634,1.095390974659469,-0.5921643146213267,-1.3583085850599674,-0.026887505847940824,-0.4988834488385523,0.8070540335114048,-0.5195525660604142,-0.4334577185555609,0.06447384750232076,-1.2154277362709691,0.41797564423460354,-0.9791001253110496,-0.36420001809575564,-0.633520322018425,0.39407135428278844,0.25523132658308045,-1.3375712751662092,-0.668885604894287,-2.028311271612188,-0.3884487169029665,0.3736267804890049,1.1641253815660888,-0.17629528071405345,1.868604459257544,0.4780057774842288,-0.06460484280537475,-1.2239549820398854,-0.29480523816072113,0.5080142618045798,0.7725689755252737,0.6295830080082899,-1.6101806926443174,0.41562343437606786,-0.5552814101022019,0.1974294543265312,-0.45289425824059637,0.45937118743197,2.0302115898204782,-0.8361292299815342,-0.4022434081474816,0.9141815018077404,-1.365958442581367,0.7386365534897984,-0.7353403874148817,0.013145103447894798,-0.017429001409193172,-0.36325727296598226,-1.6494049171676426,-1.344601714504059,-1.393824446916079,-1.0898286080094928,-0.29859705951839527,-0.589161938699171,0.5388320525740136,1.3283010100774306,-1.6719169647296381,-1.133538566478095,1.1770733227441772,-0.1922513689348704,-0.4887395832048712,-0.23027003056940074,-0.38511790669958096,-0.245137590625866,0.697670014176547,-0.011805736643521334,-0.09961510037415548,-1.444208665215018,-1.8170198426562305,-0.7905009266677643,0.21918365583556193,-0.32551536969965034,0.21010865596007564,2.150847510283711,0.757811529344693,1.2003004454915012,-0.1965205159824026,-0.2973521169656178,0.03787880478081307,-0.8661239776297518,-1.1566631362032835,-0.5678182697654409,0.14858884613308346,-1.747381437623317,2.214242322852935,0.24511283500975609,-0.1188974437737036,-0.40248554718368185,1.4450556795668843,-0.45012398663822456,-2.290848115654115,-0.1714245519003858,-1.2288797870416606,0.41341757807307883,1.579704395944786,0.6351976020014797,-0.18283362260870528,0.7459072949583354,1.273267969830866,-1.023867330278097,0.6685901749251678,0.33525050478012786,-0.0628090157985978,0.8304204075682194,0.5368499517755526,-2.253885754830302,1.7686356416577607,-0.9950137234477952,-0.7741126351588895,-0.08921466484598368,-0.24194670911483715,0.5963826168980821,-0.2845768188448223,0.8254088356935025,-0.6955978261367075,0.7150904158073178,0.7419709239510484,-0.7588187247014297,0.06377698416377228,1.1228806558152231,1.1369248293300886,0.8746413542960199,0.020439140993346733,-0.009024449342501677,-0.31725362913614946,-1.2785700058215999,-2.1157289273940743,-1.0622527798032104,2.6195909301690135,0.3688958154132231,1.4741198417887227,-0.6225526036911813,-1.6797733610966086,-0.8176304419480785,0.472799857916206,-0.6756935215681071,0.24847882239531444,0.462700620103495,0.4496155994429099,-1.48472306522936,1.0166441532747241,0.5511740112495469,0.11773692327991542,0.2741886208497845,-0.3648683024612963,-0.031043482687027054,-1.17776989033638,1.1709961199244505,0.7651466802703136,-0.5380887604085243,2.0210098357170287,0.2806406544532001,0.9533536887326736,0.5843449311820332,0.8564007574981289,-1.3084644192892352,0.12191275082005265,-0.09103563084566431,0.5440819365742273,-1.114414756072437,-1.0972821889003905,-0.8256826796570897,-0.03170604933819854,1.653530966092257,0.035272573946461785,-1.3231287569438726,-0.7510366467411844,-1.9973750460587354,-0.07972041732088098,0.38167027976218104,0.6532894058636547,0.7216071342614564,-1.6818062662885596,0.1667661808333431,-0.7655009609031972,-1.996149333156605,1.2397165830863086,-0.5745198312560302,1.0502875998547614,-0.30349064249810837,-0.09323267853426029,-1.2180973258353585,-0.03155504793889612,1.2849211950216781,0.1466361443042018,2.0983045960860194,-0.7256453456461947,-0.4545244392232529,0.6400980861072113,-0.50179044659797,-1.10825852366944,-0.6455902855390026,-0.8623962742447617,-0.5821065349998766,0.2335108474564486,1.5332609005140547,-1.6325588600310512,0.4081921150412244,-0.9714318658899848,-2.144578142991913,-0.261507347177442,1.493389738567281,0.8432464566674497,-0.40564460884480674,0.18873766929411404,0.3868511671645117,-1.08906525843569,-0.521706332427257,0.9003770612495293,-0.6993333011194646,0.3334033028890919,0.29491388715708483,0.3468672097716459,-0.2810454679557581,0.14170994976117857,-1.1863235542524864,-0.6093042825059505,0.5296979643921459,1.431180515248187,-1.136429885389435,-1.288342708118943,-0.2520136309922724,-0.3111040777078293,0.1464306040655087,-0.6329707531860691,-0.6404967415502769,-1.5540040825764443,-1.2945925607886348,0.5866246789121567,-0.7004168456418403,0.14303004466676805,1.0597919304762913,-1.6776535400626258,0.8589178295415111,-0.4397073325068433,0.40699704521838814,-0.7649326476741359,0.23793700151489755,-0.4071184633551743,-1.1908118283379976,0.26387947168600484,0.5615011000674107,0.5567091749860655,1.2010772036885728,-0.5168348047373507,1.0215447888677867,0.3757976211599748,1.5849740443117717,-0.07302072355374402,0.5349262995439437,0.01989072619456135,1.176835593367389,0.7316865171072027,-0.5891558869469183,-0.7169537226271592,-1.0974181548622102,0.37077032716625175,-0.3107131766626583,-0.8784952081593643,-0.08569029425463097,-0.12298729761133685,-0.3212014344027796,-0.18026912871722764,1.3630737800044967,-0.19736326525606496,0.5004871998950167,0.07705699648122291,0.09907273539426721,-1.416346798157944,0.45407152359031855,0.21430804919142066,0.30969054545427804,-0.37054027224100394,-0.3750411812660599,0.4206070618236121,-1.424196184403459,1.652251735937172,0.2651292101309597,-1.235511579490652,-0.9005631690286147,-1.69235409463095,0.8779675116115145,-0.10305996442506139,0.4776807605628899,1.7617183863634789,-0.6787854742720442,0.19663235742611831,0.5800368987824897,-0.7060297772375731,1.7986237057189185,-0.8338781064358377,-0.30630486794675105,1.1059245658525785,0.08032712383161494,0.23017471933617062,1.5071049462462522,-1.8057796128305386,2.2046341349612657,-0.7027180991202028,0.4318090749061246,-0.712590582146107,0.18806995655290262,0.9986585666274452,0.5078843715028373,-0.4170764708140295,-1.6411935800950852,0.39034215438473846,0.04810696890261802,1.462765916290806,-0.038098788921567935,-0.3225643942413834,-1.9563223421260407,2.101158311036051,0.28211713527690696,0.4670647035553894,-0.10924455889425468,-0.49857991272326807,0.49119091370898593,-0.516238756074815,0.0893110601569087,-0.6734623000841474,-0.29266126793167546,-0.006557910154097575,-0.8209979928429105,1.125113783178689,-0.0726804241295386,-0.8295202053678711,-0.8917052982026359,-0.3177672651831102,0.744129691059089,0.17498257314122487,-0.9530368811609939,0.23843107598431343,0.07777028022501767,0.2978311276869945,-0.40083897147946235,-0.5291961024582197,-0.13716726590934797,0.6850488736973249,0.4815293701019657,0.18915565679955287,-1.1475196731202078,-0.499314853041182,-0.20028637655387757,-0.6783543879957781,-0.8741732154579157,-0.4568762701120308,0.5928378141082071,0.3941643100698618,0.117622334054799,-0.4193893834967252,-0.5371360374004063,0.6077550008974162,-0.19698863075474798,1.2576947882477896,-0.7842637585695513,0.4733423692220595,1.3712032312183693,0.8008372357791985,0.3905221118516097,-0.21546615559799337,0.09510675483297845,-0.35059434379714244,-0.28313585640996325,-0.1404178014820985,-1.332659649371988,-0.09396921164011683,0.15677058377496245,0.008160671417319654,0.8899776067648969,0.28178925632102564,0.13580572055887868,0.6532259396652327,2.31631284119556,-1.0576608324875887,0.3428533152083272,0.660081477300925,0.8428613807154253,-0.3678775331386744,0.8138368356750587,0.37339205041421053,-0.679122451906338,0.358741163930914,-0.4255747086553686,1.0224375786406918,0.4412308507984896,0.1297184941799826,-0.18392105964012548,1.1432536729510498,-0.3246187089901935,1.4856844584626585,0.4593624012444126,1.0984184966856583,-0.796073512367801,0.04410284385564802,-0.554216556523616,-1.6753108067969358,0.46270359089821655,-0.20047712479709606,-0.43931629839055913,-1.25958877222616,-0.4997634722960034,0.8331355962030061,0.10072236760617158,0.4007004001592765,-1.237136220347616,0.01756744647178433,0.8485613743500902,0.671987370932125,0.24905837347203622,1.4414545514166455,-0.1580031884088764,-0.18768874284445536,0.19625305674434831,1.0613461292663615,0.13668218335684174,-0.02699967267064312,0.13120520656387194,0.2909749962868987,-0.42094776123156996,-1.0873285847245144,-0.21089504746934895,0.7682081994567007,0.7893228802027038,-0.30482285134785386,-0.30496243063049555,-1.2082004699403912,-0.6437656679045003,0.7253446569451918,1.470599124371303,0.6179631060785289,1.1541173717289455,0.5936649618450591,0.8851255681399496,-0.9388555602837175,-0.09879731215961626,-0.38695768540215275,0.438618632827152,0.18687356121814755,1.7665303569511002,-0.5100509903868542,-0.9640914355949662,0.4539960498425569,-0.6810114597785354,-2.831205724743699,0.7701156388342182,-1.1776576660740838,-0.5027870639063803,0.3309743285686583,-0.7961119837843077,0.39994312002721955,-0.1279418539935929,0.5732204469927588,-1.0962901436473673,0.2355289561331475,-0.2712556896518377,-0.661305517187394,0.6040531631469988,-0.29289448563802317,-0.23391480958046793,-0.26476806909888273,-0.8443523157207748,1.1223220501180151,-0.5025304608888159,0.005804253646001234,-0.08480077216389433,-0.698078237283659,-0.4946232663212939,1.1363424874276833,0.2915910611762388,-0.4518698842322419,0.3363701760494964,0.0796189020626819,-0.8486083897373212,-0.15015045503630578,-0.9960889613025757,-0.9266468588296334,1.1157990063319791,0.28501912015091346,-0.40484241706851193,-0.3215095149470428,0.20045085978327765,-0.7363528011675401,-1.25756240851513,0.16146709675452797,-0.7423178818988303,-0.9900475408026534,0.47142822732124506,-0.15087794868689447,0.9770064979434865,0.320910717907854,-0.2551622827235639,0.45624719835523553,1.8272605918211842,1.4709683921899142,-0.46229542697980863,0.6011758407858752,1.8880572132057212,0.9079835183405025,-0.6002670371928392,1.358232044270008,-0.6772897522866811,0.30807243650862676,-0.539322288368205,-0.7068318796309192,0.3736494147175947,-0.8765612219405498,1.3878185853957894,-0.9882169627153242,1.6905100314464903,0.3592238187332079,-0.3101695735531409,0.11896434357198747,-1.8742395734065487,0.43649096442233304,1.4472780841990185,-1.252734939647734,0.07174256199996158,0.30440024995482723,0.3723022143525796,-1.1753023584609426,-0.17012201942862265,0.4677600660515288,-0.7862033837857026,1.3727328567094912,0.2810199285364154,0.6158332857034401,-0.10542784535204708,-0.6438879804518663,0.6201684473915826,0.3557338790417824,-0.08537646666677892,-1.104926821749106,-0.51498413931273,-0.6703302173924758,-0.7726728139227753,0.7393088356343052,0.8581655503115352,0.16395462753985612,-0.8564086053458789,2.052763590976703,-0.3141199757862503,0.6255116246752656,-0.30453139823322384]},{"Weights":[-0.09750636257337739,0.08366831742691613,0.06742806930768495,-0.048130063232633954,-0.009783939110629511,0.005567219418990012,-0.045077852178136264,0.04316334989790496,0.00535630824493009,-0.03531772302143114,-0.06752346130218785,0.028723768257579996,-0.011757849314696743,0.027912582794953556,0.01583688066352729,-0.044146279597611304,0.08883777252527285,0.06701375984552638,0.08513122884576374,-0.012446851833213786,-0.03435804980339791,-0.024290005728598105,-0.052696827628475613,-0.07943789047723245,0.062240781062956926,-0.018234245489842343,0.007285794404879455,0.08738769278607542,0.03322060605042308,-0.014310827653440742,-0.02084226334105344,0.053426456235736,0.0677589342325446,0.06260963545626638,-0.05748938856666154,0.0026415465340022433,0.014727664981761777,0.04491001893286567,-0.05441507402699472,-0.024842037585011276,-0.13899353489412272,0.020331336643265047,-0.008167114031445693,-0.1120704013724116,-0.05923265356453695,-0.09713131191031099,0.056718480745348056,0.06289489430222203,-0.030991669121490834,0.02218437783446008,0.009732695426810916,0.042534789960493403,0.07096142313447354,-0.051083428290681014,-0.007399218621528093,0.04838799675061322,0.05280835924905887,-0.011451392207058314,-0.0506127902779744,-0.0909496642144785,-0.05048058944255763,-0.025787896570408995,-0.05784345216562837,0.02640089948231366,0.04367817990138092,0.02520616794282791,-0.05888866380997026,0.08642327215877019,0.05537723566753295,0.08167107172129363,-0.033048361090418504,0.042454494149563045,0.04714865062661362,-0.08049998130640151,-0.07127519984245309,-0.04127744019009407,-0.010282892086783344,0.04333427980009851,0.0679229158803326,0.05304682302513823,-0.027153879693250633,-0.032287391881631405,0.05763457723212763,-0.0620406479411304,-0.0396381853077359,0.05353883112445859,0.041887003974376266,0.04234120565766693,-0.08058838136088124,-0.05113322624243768,-0.005488105587152577,0.002194758048302752,0.006597358368376087,0.04635724719208019,-0.04747916228025373,-0.06835338998245254,-0.006531858202015001,0.14100854057961848,0.0647276400142453,-0.004069765688466976,-0.052099076389922894,0.13062644853016986,0.03657572774981262,0.04659652754657637,-0.09899414141705373,0.061905345615716784,0.0038415028442875237,0.06767744857574012,-0.03251480657438997,-0.015000135995323927,0.05930120025006835,-0.030095909597818517,0.08636529784296856,-0.01426352815787753,-0.07053430204496738,-0.1319256082770084,0.04159013891870323,0.036185240797650016,-0.10646351268494542,-0.044075831057713635,-0.08936792071029025,-0.05410689387394783,0.059173124561128845,0.01482066010098897,-0.02757560863745098,0.036362470718356646,-0.02141855429901144,-0.028894771594579892,0.08894533166791922,0.044598671000654705,-0.027514438894812504,0.05648881006885891,0.011577308797537099,-0.0491516656545552,-0.008395654132535478,0.058567084366509065,-0.0374940106596808,0.05282288708684207,0.14662702942733422,-0.12594229913760885,0.05342642315279639,0.02217945193385764,0.04499685932601721,-0.014028463012922139,-0.11049183272715592,-0.03495003195676263,0.10435123355134786,0.027416852541025747,0.040684007167623513,-0.03341873183673142,0.003953532800766456,-0.04928665700939866,0.10031130140822725,-0.006856801605423188,0.029687662119982132,0.05135194121353445,0.12267451044316079,0.10576675229766101,-0.09627768364779778,-0.08497904702686516,0.012518777911354915,-0.05326711244703203,0.07184390711115814,-0.09363720381508493,-0.013553875912671466,0.02587521470350369,0.1539856340216538,-0.015924578996623844,0.11662047739386476,-0.07164477437126861,-0.04657717969321536,-0.056695445629162344,0.04650845680916355,-0.0235763720559494,-0.08404807703212366,0.03344323771753059,0.0360162815489262,-0.003561835175990517,-0.014428346335158309,-0.07247786283162151,-0.09275764939048477,-0.03805323906456313,0.04154048556128536,0.009275682974170443,0.02491475109405862,0.027784140642123607,0.09491940659113089,0.037698436353844345,0.028202725090991556,-0.06121006074635912,-0.006281195263784724,0.11351077108497959,0.04339227797290904,-0.05492602712505344,-0.11522894628099227,0.03740471617730549,0.1318890591423923,-0.005292226770665772,0.04831720644492343,-0.017341661049417114,-0.0654095095600147,0.0312787584758683,0.06998282212055976,-0.04784013936526523,-0.09233661111200217,0.056577354167009486,0.0186062400060057,0.02469048699893628,-0.014939771585295645,-0.0008999121695755798,-0.03403816499166148,-0.07395990480302744,0.010584704677764135,-0.10438386146478093,0.022495198363818008,0.015551035931122654,0.0909396504851375,0.07481974819575937,0.06709286114164922,-0.014382403616944506,-0.05581182296191456,-0.07132870417716917,-0.027463632950304788,-0.0027915141218373086,0.0177654201325392,-0.057561278130461156,-0.029942339325646307,0.17554771139518172,0.06706523380163219,0.057672639470410667,0.05188080440228389,-0.02516978064593338,0.01968849030613073,-0.024432402541199057,-0.05537400174274418,0.018328025418584252,0.02598374942093551,0.0389231031002344,0.07286255622666862,0.0030979848741787322,-0.04504796698424175,-0.051606871097651025,-0.06279477974569313,0.07625462521123877,-0.019995182947713176,-0.010291893161441487,-0.020515110295977513,0.07620530323149492,0.005559377045831236,-0.0020511198589208877,-0.014057008247865715,0.054142802043745,0.028611374704184626,-0.02299980514356164,-0.005511139051917435,-0.044586267734132594,0.04102284861226966,0.03036772089288461,0.04370849132449946,-0.017657579061835623,-0.07596950534660485,0.04689163531367449,0.026072761574024692,-0.0652126848224014,-0.03098676800404958,-0.016741578028528523,0.07193620794167767,0.07508221356511928,0.004555556582189445,-0.11833920017473587,-0.052252907952634285,0.00037947337566076017,0.09676423723256496,-0.00620520052711299,-0.10220838387343624,-0.03305762564660283,0.06159602063896065,0.017359825614099333,-0.04175046466170989,-0.09291256305930695,0.01943819882586131,-0.0015374154593784228,0.07447154547116586,0.041860234484233566,-0.10909861824312911,0.02960402602229264,0.07794824127664439,0.034978347918159375,-0.01876211151370528,-0.03895515060846698,-0.019920363054863124,-0.01132106378201047,0.050213279584863935,0.01788436436654558,-0.1194540472631574,-0.01918961606805216,-0.029104511957382746,0.0416227984417049,0.036574725603058605,-0.08152837643800744,-0.04212054804790848,-0.09692718300458476,0.018858725837995097,0.007419033856858204,-0.09922881777903672,-0.03569718356372514,0.026226656663592626,-0.045465528538632685,-0.07069785093636885,-0.03933943759407722,0.050689550915872184,0.0023157663118959157,-0.0011964728900223898,-0.042831211509699596,-0.05686311870628404,-0.06428137054442033,-0.030529345914452048,0.05573483831619709,0.042603500975409804,-0.02676456393932233,-0.1258804291671212,-0.01313242370477063,-0.007944569092729798,-0.0019389399733501754,-0.033748444625653705,0.04429386798670845,0.08167403777963125,-0.025843376793142647,0.04474704850440166,-0.014672322049002852,-0.041203019631232504,-0.13921522187809832,0.04499351990804951,-0.07052418921409959,0.04292229806124765,0.0010779208811924918,0.0044915087455309885,-0.04782190387739676,0.015277705923811558,0.054015691524064255,-0.044016797059724354,-0.051774040284281765,-0.0036209218455703733,-0.0376135868721188,-0.06319244265068252,0.05270015459026651,0.053488920787923305,0.0742806917159459,0.07045419236167466,-0.041316850283262097,0.0218097106627056,-0.06835448200316757,0.15085607118114644,-0.036008005981466085,-0.13852047936953726,-0.020912776679843155,0.11033247563394641,0.020545692115448544,-0.08994441818475635,0.013295967591379671,-0.05729511913159006,-0.036343172141336776,0.005237171455854737,-0.047134052300518474,-0.15696154436774362,-0.005657268071895024,0.04420872613442358,0.16722295660957523,0.06794708457518668,0.02163630248542155,0.028440527442648304,0.017014071804716563,0.03656254097060235,0.04065498394852842,0.05691760654795435,0.023223922493093144,-0.018717713254278887,0.07787102302666721,-0.0003751332949779983,-0.003032767633672149,-0.042127454682915795,-0.10169048881489413,-0.0028632189426166946,-0.04438413267750083,0.012697204171014349,-0.0017224760452245076,-0.05851973151034608,0.17205881767728404,-0.04933827606162477,-0.0033470010700192196,-0.014283903943759562,0.04161132988950667,0.027821107529443456,-0.04699551307241307,-0.07744476889099386,-0.012467651251673248,0.0319048152730478,0.079075910802347,0.030845908650512763,-0.010937856331669727,-0.11816874250480075,-0.05901704272125324,0.11704532601193017,-0.07157213891723203,-0.04424251212320175,0.035265352689490055,0.0686462819917158,0.014876734990589103,-0.0062337293003342,-0.03617322124178462,-0.0020324601522385376,-0.031787956682608746,0.16366867476138466,-0.03762652497844569,-0.19053866018492252,-0.04907220443816257,0.038291731033009445,0.005293823013635869,0.018216014604066404,0.04083320579989573,-0.05878807478683541,0.056489946194273534,0.03610875129525501,-0.010360076702082362,-0.23475053454409217,-0.14761231999293695,0.17006609581946064,-0.0037116717963690386,0.022513600432869117,-0.023996096063450847,-0.18143671934384276,-0.045866788682235315,0.05533523368586458,-0.07415166383410703,-0.2667221488137771,-0.025517716214251227,0.15651481447194662,0.012997362089932482,0.11659702033278267,-0.08863287425433125,-0.042803373104349625,0.027997069194861467,-0.07714488049442435,-0.06310107934824982,-0.24274117459262248,-0.14834053388212212,0.1311106890540478,0.2921434957423458,0.08383636694573149,-0.16721655896432897,0.04254548968726679,-0.242556701709915,-0.3671316332272358,0.003906479232281754,-0.32504872493597176,-0.24278272219304503,-0.08460637533799213,0.525445052908683,0.11900639138621899,-0.18894414509006244,-0.04655434247754954,-0.8985932377209914,0.22600089891639502,0.8922789597299803,-0.4470793843133456,-0.5258859536916475,-0.11187974958763097,0.6517555895357595,-0.4913264853234311,0.028813777822057768,1.2359831009518123,-0.2566006320605749,-0.30996091792320185,-0.45213464203684034,-0.4092516089605041,1.2267328411748673,-0.5179915104636199,1.4653539669764788,-0.4670795161834249,0.5424512208949649,0.8640040160591852,-0.7529575146218223,-1.005083473150315,-0.6170120167905405,-0.2722240795329318,0.03362026254028805,0.4560078630898073,0.0462320932240338,0.5647173484968612,0.977264286847381,-0.3144746516712266,-0.12805176553247652,0.13788761881275857,-1.1635039475852138,-1.6579299942847987,0.17792063915431666,1.0730508605073155,0.45390535207756416,-1.1766506803743972,-0.2403708588485,-0.07597829571279507,-0.00206247599022871,-0.060614227985489835,-0.009316775952659229,-0.025197841018337535,0.06706514551182702,-0.03905903580873851,0.04861827121635681,0.014881599501049989,-0.02060835422423653,0.004665846949418548,-0.07180591451713603,0.0921461120712641,-0.04841285982296995,0.07549205414748353,0.03203712761947309,-0.12088105603681135,0.04226921136130867,-0.034828751483244595,0.05433047219223876,-0.03125288650741393,0.013454106989788902,-0.0029082459971471,0.0019939995387839,-0.07544344776379205,-0.04866791457234662,0.07970143958622865,-0.05290617770372588,-0.07218849375846365,-0.03276794851002261,-0.08791042897470434,-0.030383777900142035,-0.045821561230965396,-0.016053718161887543,0.028830479957817685,0.0141099383561312,-0.028751134960905155,-0.017235762972284362,-0.004713655962121139,0.07291815251329391,0.04310565582425777,-0.026935772559474987,-0.09749787489258442,-0.06285440769293725,-0.0384802190726384,-0.06879618282038624,-0.09902949950039946,-0.009499022825218764,0.08469954419905544,-0.0031309820812278405,0.029890606925199452,-0.03499259188813822,-0.035738696018666714,-0.004039271081083846,0.0530912349653389,-0.03889566240726864,0.010904293450687302,0.09952523227858663,0.006118424446514211,0.002120760784114063,-0.028732078265739452,-0.0168413865100528,0.00987617163569022,0.04137442082818762,-0.00706044330177778,-0.024062675201396974,0.019232874637518167,0.002640104658480037,0.01143914824331572,0.01393549686351064,-0.003911160048746673,0.0428354823624181,0.03075139968426205,-0.10349742230804763,0.06306498950021777,-0.038643747677156975,0.003119105023061421,0.002336969232766013,0.037448964883258495,0.020029980233725386,-0.035901190931902076,-0.07053673408082364,-0.04572298387748298,0.021956685901170767,-0.08400426421326322,-0.030547595396480366,0.2199344361449757,0.05053617313898532,0.027710894918284573,-0.014619552617387562,0.040503809294277444,-0.033446042622805705,-0.023662731723269277,0.03786116666298202,-0.0678998771354064,-0.09983796241820672,0.055027941620151705,0.03186733104057561,0.0299848343206931,-0.0885570922052273,0.01476828962019162,0.06327414371423695,-0.007733514062733369,0.03711393019709846,-0.004890229660625771,0.028961927799166225,-0.05501231017171662,-0.05620252297356123,0.023093789681893278,-0.056061600145484704,0.008161440954519147,-0.030942491038582053,0.0185522700212033,-0.05243967944763142,-0.0514919882231562,-0.037983480940330064,-0.04991728162411326,0.019267305842581035,-0.003992984615266857,-0.08763462415122655,0.010401952246221688,-0.02866161826956804,0.030448063958486867,0.10331775221662987,-0.016612089450422363,0.1586164411855405,0.06134618992149209,0.029458008570955988,-0.003613985583182887,-0.01897443458458683,-0.05323351246946423,0.0022262547865571627,0.06826873233858627,-0.008888857258018096,-0.011024709071128775,-0.025110510594968907,0.007784528138877803,-0.012518241307068904,-0.06939799321019596,-0.02384907156588386,-0.02894744649828779,-0.02187263787348874,0.05382560907577628,0.045960973191635016,0.03924762961433377,-0.06427914791045107,0.10893963207495207,-0.06255637220147206,0.02214518907901048,-0.027065976370134474,0.11369279423934647,-0.05393493555541706,0.05870940241369203,0.0547869742177441,0.00620579562692241,-0.02732935444676129,0.029502944309561425,0.06610558411595573,0.045269500814955656,-0.0591749837953674,0.031850672830478745,-0.06891971183119322,-0.06274930187225171,0.009586680759806612,0.06401387307434081,-0.03922236745773863,-0.027033770729708598,0.03229007754705781,-0.011017992833530329,0.046223545637594614,-0.018095323091715694,0.0076634845755834185,0.04623199091846462,0.04173805558859461,-0.03617585939294944,0.011657382008762577,0.06545404107358824,0.03765839039166694,0.02025592344330075,-0.010864408725226558,-0.019518273851952192,0.026988484535155486,0.0033431459950851827,0.0002003674491271498,-0.0023008515888259255,0.0033416790779904493,0.02067544405484516,-0.008187100347062971,0.02774656470816672,0.00665970260871478,0.0032858499561818225,0.025578943064290344,-0.02476896038613332,-0.00002753260414565682,0.08191416598018507,0.071226781597469,0.06416177359951339,-0.07326949492552928,0.016914530558756777,-0.03204205395022883,0.0021750815653700014,-0.010499949889791698,-0.058630178603724936,-0.1078707520944934,0.11497468473041116,-0.04379133636032881,-0.02954952929592256,0.03318780249994553,0.10049388482081337,0.006246112218869318,-0.01396365881164739,0.006637964405890482,0.06933088549805787,0.011654073376007063,0.026176620717421245,0.07143633147796989,-0.06791074901356864,-0.0016352731332074716,0.12339007443614099,-0.12386221198492577,0.10604531932515628,0.004768082247235594,-0.050770124099829034,0.018585399961042835,0.07975501155719572,-0.026514771208521373,-0.009281782601168886,-0.06195830693522155,-0.012080961236024857,-0.03365268388133878,-0.08792805012732144,-0.06830673971157988,-0.03966534502246699,-0.0517769352693894,0.025512839234514764,-0.01740707531927499,-0.02232393255821168,-0.009681994294750187,0.15590416467584045,-0.03399503549575664,0.09863510002999172,-0.059483571004052375,0.0471980539867228,-0.0977340279681055,0.03763072407891463,-0.05842738322828544,-0.001461487503477299,0.029413550965242792,-0.025918001402374338,0.05066874514801096,-0.0795815967350556,0.0628961755067953,0.03587521839863668,0.025523950541342783,-0.05916391721786732,-0.012631399291612135,0.04358160554629858,0.06966132566626919,-0.007573730241704165,0.045454755906321455,-0.030145645069290804,0.03208880629606352,-0.007179525138112098,0.009806502433396603,0.01313358071444987,0.05354318024446155,0.047834161380264056,0.0052725387695383265,-0.0015065403639922311,0.0001071871710392307,0.003487303665877647,0.061488052501440356,0.04300143331121016,0.004944758162631325,0.018167590579131383,0.07225880584010505,-0.07665034228409118,0.02871383472539286,-0.011437169717809762,-0.05983413735313537,-0.0322042458735232,-0.022862500778819177,0.0835117218415764,-0.013004465270012791,0.01474621893912196,0.0987304822942478,0.04688455628279729,-0.028584920771584726,0.004168030513779294,-0.001664728037920995,-0.012699358647484345,-0.0038344612767914486,0.04301251276111645,0.0036956700194151148,0.00642943093291727,0.00611128874042772,0.002060609701119401,0.00017296317773341776,-0.021752698338650883,-0.020870157714186755,0.022597984373689196,0.03175249111085227,-0.07554505227431578,0.03500771512018327,0.019550417673153582,0.009519450431236915,0.02120170654053279,-0.038138549794227546,-0.00781497370378631,0.037372732225641324,0.00028258251512991786,-0.0030923532991764978,0.022415663319977974,-0.01001018194316573,-0.041181841294327254,-0.07294248387075192,0.027164749745780908,-0.0104094276613205,0.0331420233138676,-0.035165248978757765,0.014241523912823227,0.03635621508611883,-0.083671821966744,0.020090288858930962,0.03047622458223277,0.14693893352814294,-0.13394645794942903,0.04136202080820263,-0.050479952740846525,0.06940367834274119,-0.04963115971527646,0.07787680223032503,0.03347021452303027,-0.07555104902134369,0.018580809357316205,0.03490437777416731,0.022961740440921103,0.06686243195524544,0.03747180979211899,0.0030690110581231404,-0.008313287943668295,-0.03141922879749975,0.0912983081024873,-0.0782128759055694,0.02069546568060462,-0.013669735958378093,0.0030670072403518973,0.01881161456938088,-0.03601355286725884,-0.06224827192720937,-0.14387300712913592,-0.047477985153381766,0.026977385892842924,-0.03721573269840248,0.036676216231906464,-0.07151454218300439,-0.060860998387857614,-0.03161491667238023,0.08302562334371408,0.032451745919938,-0.03478145355585638,0.03285402135612076,-0.01500394749635844,0.06969391472927426,-0.005732899547809689,-0.06459587942714848,-0.00794381200369388,-0.048990382640533625,-0.05035638544289214,-0.022600245661449553,-0.039337828512121704,-0.03171553236452749,0.004639873718908612,-0.08537482845751088,0.040949749980716245,0.04283108954311584,-0.04915162513101514,0.02251100609202773,-0.06151195163774715,0.04695694789056194,0.02885401915884116,0.013695921511879641,-0.02729947880969273,0.011667061823979858,-0.029099859483721218,0.14954416125446332,0.002877498181764303,-0.03330438836330983,-0.0066453346093791965,-0.06525603521230117,0.011499794104051464,-0.015830945471773265,0.06559290080781581,-0.009063192928893135,-0.0644616059425408,-0.19230668772147733,-0.09411262375973055,0.10051032980958637,0.05799722582755912,0.042332497333127654,-0.006603600294375952,0.05373296237105106,-0.04225636638226779,-0.010699650305680387,-0.036209654724876326,0.0008129787447417962,-0.055639571495953666,0.023170987334848597,0.11817210356316404,-0.07951121475084606,0.08606538263686438,-0.11817871333194943,0.12397074507322808,-0.018826119413738737,0.08465210223140834,0.024148190840769277,-0.20945558385937932,-0.008496586894805086,-0.06357476777783526,0.07147932017370509,0.016861144935244647,0.01023038315337368,-0.018803455609245793,-0.05909618508952578,0.016783392189982517,-0.09930929069953662,-0.07673818408816453,0.12647978724430645,0.07993420685992955,-0.08670513146511992,0.009256162330491126,-0.022826674895128383,0.04039540905300896,-0.035263062856601815,-0.20618964769505135,0.0325518248006203,-0.15288539333613235,0.14430648567878596,-0.0477533398645978,-0.00786823373143617,0.16055488746960223,-0.0658682482985327,0.07033428873180031,-0.04453837354629753,0.027407692934060583,0.1073291842723955,-0.04199377518339815,0.005740226797366509,0.002659385085655945,-0.12997709227693255,-0.004478170508401604,-0.058115376865457855,-0.172999124899183,-0.07648407566393238,-0.2012811954939067,0.08903781302708029,0.003927568930946305,0.14261652035022454,0.012531299520916648,0.15217165382644998,0.19994432778016602,-0.17992407497979238,0.01719626528047956,-0.5709942198622132,-0.2885624183547749,-0.14138786695132702,0.28730469561106126,0.1312124631064377,-0.046087594687230185,-0.16276854621724682,-0.42507074963540775,1.0239688925088977,0.3482625560049602,0.04702118582125769,0.2808776250931504,-0.118390122263235,0.19125793772159347,-0.11083712848187577,0.07929067032395491,0.6033130621712868,0.30997169608281305,-0.42039098157628096,1.2340937964141458,-1.1056911073956137,0.40448722038564305,-0.4065753792883055,-0.8423730536299808,0.33290311772568204,1.2790771840972313,1.7479011357101286,-1.5279505752143765,-0.5651602929977028,0.2811383511166696,-0.20156574377096084,-1.0983544042225468,-1.0106956154333604,-0.7023678181697558,1.6863547672704893,-2.1425881834018585,-2.579103312470051,-0.007132734382353293,-0.01391456748335389,-0.0006586938814624367,-0.07325416453928132,-0.03498834865344445,0.04732412272826817,0.048880822753913596,0.07482847733190091,0.039144968298920835,-0.0005084939886302536,0.09459717815311573,-0.10444194518241798,-0.08034301914370905,-0.016107783580478187,0.12541055623419076,0.0178947735735942,-0.003292475952433248,0.0634668407795259,-0.0018878380654039101,-0.0234019910589531,0.03975223486167726,0.0673008020208467,-0.05490518632486182,-0.1147206370611556,-0.015574159464546116,-0.02750083316543803,0.004421617791048499,-0.02394109456090593,-0.10919203170570092,-0.04172253240152797,0.060747315338776316,0.1079005305387522,-0.004809449520678601,0.08622334678987117,-0.036184630665378976,0.07515028959386157,-0.08714803136194184,-0.018687790769590307,0.003295897670919136,0.051653024814274986,-0.035574934853239586,0.04200027857526583,-0.08349561752258818,0.05606083838104829,-0.04964802516805018,0.054319904551063086,-0.010421655263054707,0.027061702593490444,0.0957453476783031,0.1965752637227576,-0.03832234194634817,-0.03167791473942148,0.013087036559920887,-0.052027691851646574,0.17369860389472452,-0.01966403468318067,-0.1048243990239754,0.06540477372219596,0.04917032010621552,0.02653565535220933,0.015449232116335997,-0.09593798455085725,0.01521999228645491,0.017311123525162803,0.08447787113810319,-0.002561550426280517,0.01971284437947691,0.002180607356976743,-0.08765013368641862,-0.07524128152153373,-0.06177709190724447,0.17957974081338385,0.059894393157106186,0.05234116394773431,0.10007439846044387,-0.010921788289986368,-0.07184612490294585,0.012386996479688307,0.12637041443847807,0.1415658196361918,0.012898565478161244,0.16521983812744076,0.008028610022978845,-0.004424976970197617,0.0939622417435392,0.0292096132572666,-0.055656796292575396,-0.02205064343799377,0.0389496817986544,0.06989215588932064,0.07425462895660546,0.10591170938184374,-0.03043801025964132,0.07332711559579566,0.07712878502675106,0.020238931255407586,-0.06390957430557231,-0.04961962963769624,0.03832496888581419,0.05190121245075751,0.01984109903014661,0.09677482167033197,-0.02284914190422547,0.023669435720180942,0.035972127905042145,0.004807717318093229,-0.051939536216287684,0.029813410127226766,0.009745438408327374,-0.030661020035076085,-0.007020686943051089,0.12292881712274806,-0.029458258209382835,0.07845731994694798,0.10659663463907998,0.0293036742216466,-0.04911835703270094,-0.06724788143925196,0.06567080426645025,-0.05758630233992351,0.09081007842739422,0.13944169540095772,-0.0643480598520095,-0.08376956302470306,0.04117593181522973,-0.019588836624445077,-0.04837279124296709,-0.03174220108837821,-0.04860162025691682,-0.012260344213794136,-0.04763110850701625,0.0034591712844284548,-0.06009430757457907,0.1420536186070817,-0.007663885358496785,0.08277708857939689,-0.028216843834076726,-0.00239036969178505,-0.006766744454071652,0.08308234430287177,0.060364407969087125,0.04593809176298171,0.08069748080101116,0.02870910024126567,0.07141708842200395,-0.018988516104766463,0.018327414286800552,0.024141587038076378,0.03787970371117853,0.08248699822481474,0.05524040126575661,0.07493519125322017,-0.008782722019868103,0.040675645687772294,0.10583537207856925,-0.04030503226587269,-0.06227075970995877,-0.05457692173300422,0.04349427019016712,0.09358745331491239,0.1838985588656474,0.04789725922469568,-0.09055704548424633,0.033517510237502116,0.09108565286921293,0.012959347773785367,0.0032860987787071017,-0.08456311619468194,-0.07185176892688053,-0.0691429468388008,-0.04629697184589124,0.03639311330194006,0.020544516440040156,0.04775303983029223,-0.0004908151604619927,0.009034567747343441,0.06114160022241267,-0.05145623267309951,-0.02331703286929006,-0.04643506957030306,0.029540716623011738,0.012303016214496506,0.01024331320043951,-0.0894702441175237,-0.013688568396059654,-0.04700608511662342,-0.04372259416840433,-0.003822832628643156,-0.014385458078600633,0.13889775041966168,-0.0024239976946997164,0.016578895482053223,-0.048045159640031185,0.09763001835171138,0.08943957145437938,-0.02022916834803409,-0.02296712662329784,-0.017230857788347972,-0.004546855249015337,0.007430760649037737,-0.024182606886826823,-0.14246379972140757,0.05513883805388607,-0.02787822152988381,0.0055664765190591645,0.0016605081168858,-0.07581079613750114,-0.05483097393652693,-0.03535539094964423,0.02006325944744724,0.054989441517517904,-0.08958942437677232,-0.043873328384327774,-0.06215020942798163,-0.01836232353498897,-0.0808159110308116,-0.08043276722356044,-0.029125446326236436,-0.07917517093086394,-0.021936982415132558,0.1223582376222502,-0.03608798586237994,-0.03664197317080327,-0.01226699236749425,0.00869058445460368,-0.004448184750114447,-0.029622673922157765,-0.01650497918875186,-0.01761131473600455,0.03460373164205681,0.03780965169833584,0.002033769928020575,0.04711401597863718,0.06004452485525737,-0.11384068214996304,0.008429212156914837,0.03204266575687547,-0.0030298476655362468,-0.006606026616681935,0.1560904197838533,-0.033490982522429553,0.028376703559357865,0.06559900915146351,0.15461628998252755,0.1231419000194525,0.043238481441834814,0.06739902942686857,0.02649835368556593,-0.022209278768345678,0.02531601165898446,0.0803372029964201,0.018241071866461782,-0.009771176312440698,-0.09166879231700735,0.03567544154929586,-0.05727586868347787,0.0019042159200328933,-0.04464335385879723,-0.006409954561109806,-0.09288187422031209,-0.01947985649122818,0.044369710835545265,-0.034785379535786316,-0.04824429586389531,-0.040432539411256234,-0.04809243193896163,0.02730610604655507,-0.0506774239936803,-0.060979374751613795,0.170646828055082,0.06971814338952746,0.025338378622949506,0.0695629507662652,0.04272542124479145,0.013029581701351461,-0.014654411580550203,0.006266907025330524,-0.058496197122802795,-0.09690343870000372,0.036555862056710346,0.03999920367519661,-0.04921496995440948,-0.013388358082697498,0.11735982282849662,0.0058945940626368536,-0.109395306843908,0.061005161467552735,0.04988748975829252,-0.03652335476681039,0.029529356687305826,-0.030596756789103167,-0.06979705678658857,-0.11874655073842003,-0.0018021464725190494,0.1564663348641223,0.07090431896234585,-0.05387946057670296,-0.04912453556832584,-0.0029689792091661,-0.035475060315001916,-0.02063485063555225,-0.012571080157899818,0.023868714694544612,0.029431698587056507,-0.0553249612942321,0.050919840652118346,0.017447192406393256,0.015485934266535075,-0.11152155395471086,-0.010582647194903864,0.10920790187855116,-0.01690251776772406,-0.10426624069318861,0.038288947420075756,-0.048530676500547404,-0.07086541697116634,-0.0033812787338312984,0.03950676779773396,-0.07660189122314764,0.07386800435591154,0.018893380715969164,0.06044247327928146,-0.014115376490444755,0.016292662402517498,0.03811477011896807,-0.0018410524030053684,0.0416947357538929,-0.07199124753231816,-0.09023126966015026,0.14983905176959875,0.06842369478264693,0.06256688022615528,-0.057753760725061054,0.0012956833837059099,0.10133649924144045,-0.07009708489028318,-0.030112794467245064,-0.013481752991002245,0.00633706604670886,0.07210790220574412,-0.04111567833421681,0.00012682348054891671,0.14141062187425146,-0.09801525840645978,0.11414636926287718,-0.10107625641437394,0.000301002426444953,-0.08781298150065463,0.04958575527793315,0.019971165757093054,0.00029035593791774754,0.03032035706552122,-0.09194153821351968,-0.0347896020832676,0.12467992623341195,0.029706327300633807,-0.01571912219595053,0.030147905817597406,-0.09289204837171235,0.07680943611711616,-0.03795074056220906,-0.009152971796004659,-0.01904210933705602,0.0539900877641393,-0.05604656665111344,0.014342527288413153,-0.030485122704780918,-0.09426791274001478,-0.0015084672247076144,0.05431348799949045,0.04737266965440549,0.020748246486109338,0.03507621310467982,-0.003129954019246509,0.05986544607602508,-0.014036214203077203,0.0031280737009053,-0.1671015526896646,0.045001740065539704,0.01865331225560304,-0.016587286173078447,-0.08219484908642394,0.01604160597387188,0.0697622764488283,0.019619215391382425,-0.00033678724850753645,0.06387023488668594,0.03855034739422352,-0.06695265026155886,0.10815641693115127,-0.07638975895528065,-0.008472339427242268,0.012109065356141872,0.06964511308458032,0.05042361088948524,-0.01939019807118268,0.0944496110393962,-0.11286114438784205,-0.008291744838566883,0.09111784478738734,0.1133017688026043,0.013687649404060523,-0.02254493905394,0.016646668898051605,0.12351102930024893,0.15065112447742776,-0.060492226614702486,-0.22677224136545326,-0.16906723473544058,0.12676479374102467,0.1978573648582604,-0.01993195262197739,-0.10368780658383148,0.09500460057862425,0.14484303175727337,0.03853091098917663,0.03944905634667693,-0.27156574554067675,-0.11030852614330254,0.0797874635403606,-0.07462867314185011,0.1389498885697841,0.1433277396381982,-0.028049071524705503,-0.07442924517255543,-0.23576325547060206,0.19466616921482566,0.09030869833686757,0.16986991628757797,0.016707122954165654,0.006112700519043082,0.08215606001861032,-0.10666292118170866,0.14382300251569996,0.15402515937445,0.15571922682858969,-0.13889116855735636,-0.12435603770731918,-0.1630062437816044,0.19677159532627986,0.04796198419843779,0.26009965337974006,0.11659385948278078,0.037838809648289985,0.05125604442467744,0.05265879622569544,0.06369067041551708,0.09413456691543694,0.11082427005428624,0.07960068946337313,0.25879924138423543,-0.12360730679028034,-0.3190173710056107,0.03843382106188058,-0.12706775395645487,-0.06182083056211191,0.1450003042462928,0.04003782123210634,0.312971408120232,0.03779498969427328,0.050862069436334624,-0.33903298724123165,-0.03783092443243805,0.04813676781488872,-0.3186795459311868,0.11504583433203472,-0.07457672012009817,-0.14484887839370128,0.11416153157069779,0.05589352197890035,-0.34529324897274166,0.26256760925714767,-0.13694660623953214,0.017754449230269153,1.0588213840313574,-0.4981162418794868,-0.028405879882968405,-0.5622800036453319,0.10101798513121528,-0.043605242463814115,-0.44008671358995555,-0.6465643635020583,-1.0558706873192605,0.2621710442793777,-0.48226593987461575,-0.267994449406347,-0.13252677379015843,0.16400637621639924,-0.09123354342447301,0.14805490619370565,-1.5258411154237752,1.6354505464697457,-1.4587663333764846,-0.6692029161076541,0.48651198655065964,-1.0166856757120286,0.4388098385424591,-0.08433366969893846,-0.2503811276999404,-0.8294231130302443,-0.04591346749142952,-0.0211475906605615,0.0027011159889570114,0.03050693799662563,0.00920332442524102,-0.008419714049349727,0.038754488294316804,-0.036608469920116016,0.043226558031190035,0.012290909677204514,-0.054544389711919154,0.023980746538007747,-0.0887931022091087,-0.11121348643034348,0.07440200162852711,0.04303640310235436,0.015557163539954342,-0.03432812093850371,-0.005436771213079095,0.04567293068913178,0.03853293128023381,0.020282700693394648,0.0422417371182987,0.04642901132837637,0.030228957660912756,-0.07412155174667372,0.03659572203188168,0.005611082385498814,0.060046424582951397,0.004814732688654228,0.06363856018051367,0.037505891362251756,0.07645975878389773,-0.05504196302923496,-0.006257233525384496,-0.062241196458963574,0.013855969083704615,-0.06326744016844484,-0.0007046001900767884,-0.03864739004046989,-0.017007507998012133,0.02951941555688922,-0.03935561047003732,0.03041667786508977,-0.00104017426093497,-0.03530755989314668,-0.07914850433371631,-0.11306103137060951,-0.03777985336310556,-0.06415667388149772,0.00973782603589969,0.014322341134937829,-0.009672595361377259,-0.0006074715568411832,0.03315221109309592,0.02227107081436384,0.04726422849619951,0.14054757878114427,-0.07164401772109362,-0.11360466414789294,-0.009820771553750952,-0.04016878878964358,0.09660524506005469,0.012678122454015207,-0.0327756197061303,-0.09206548863296703,-0.01989337314285287,-0.010936693075606414,0.005011173207414802,0.00034408741035916275,-0.02379553757804358,0.015915802657401446,0.07707620351558375,-0.09952626167589568,-0.07962529635860645,-0.027726562183664004,0.04834334222769342,-0.007580501895171888,-0.04584643874456708,-0.03906327975919719,0.03848452196824471,-0.07862624303710103,0.01456520253195112,-0.12249277987805714,0.024823195336062902,0.10489816690788899,0.004930171639623173,0.004272319026556323,-0.00662987640635442,-0.029356620040247857,-0.021953084439940172,0.04015318387891107,-0.011365836869053935,0.07603304978576024,0.13652772420468673,0.057049805813826474,0.010535493279979932,0.0334070237553775,-0.01888979113977107,0.07268354436755957,-0.08369877760454811,-0.039540900844986876,0.06509205792771089,-0.02400559277319602,0.08918045649073658,-0.124885574523098,-0.00002920926449984058,0.10901956100834119,0.13102828529240032,0.03899934499097371,0.017080654669171698,0.09141530922348261,0.03598049019995598,-0.04776207405215013,-0.03518821353914621,0.05448019045195003,0.004131823339789249,0.09711888637150651,-0.034380537744813845,0.0010134670549289651,0.06021707717740321,0.04299631806744053,-0.021295469223892614,-0.01758177810931419,-0.10713385136416002,-0.04635278460133424,0.043360309732212915,-0.05598418524729912,0.0812479352630415,0.005656857400060501,0.10163713491752184,-0.053676150361014446,0.009420391756862139,0.0988018536412428,-0.07428627006674872,0.030081493975268696,0.045192907738077624,-0.00380804289989259,-0.03950226241052899,-0.06502996112324123,0.07478616364357767,0.006960283548271072,-0.059292185959033114,-0.0035171806576080027,0.0035449819521339047,-0.006750243009726193,0.07940662733178944,0.008975116366108888,0.02089880976676274,-0.010784541994722114,0.025787248184347314,-0.08607246333388023,-0.031189435650574304,-0.06051251782689838,0.11402667171558833,-0.026290303844812412,-0.04040691833120358,-0.10898474459189923,0.03321465496405974,-0.018166765793211553,-0.006999439108850491,-0.02592428867725056,0.018483130141486257,-0.09128105742487352,-0.0063488696740746885,0.007703107286614268,-0.061592159317379686,-0.057655993671857815,0.06425672852038664,0.0874869275861543,-0.11096134175432591,-0.0010057042569383097,-0.053210029829647204,0.004924444538200477,-0.03954675951045393,-0.025070760806294227,0.04869745145885526,0.05040214410273759,-0.015244723959983142,-0.0329986817250956,0.07429823638922617,-0.05908378722339793,0.036432316409196884,0.04378235709277809,0.042750078985515735,-0.07078437278686331,0.014770608985010491,-0.06921122453483833,0.035306244969996285,0.018753568938601337,0.007318344166143548,0.023909433389096728,0.03054197401471006,0.004532767997568334,-0.04039926162229508,0.0034603180231214206,0.052126055064935055,-0.012660054779468619,0.06151808192437053,0.07260775446761275,0.07768568356020786,-0.003770166188854217,-0.01930144237434098,-0.1059166733466481,-0.000045043682291883455,0.022954967075069176,-0.05921721568018912,0.06990737232977254,-0.024127382748608588,-0.09675991647694404,-0.0101634695399701,0.06480335601884728,-0.04884680481346544,0.07095131766196396,0.09887914891313153,-0.044121301428355825,0.0045547437163727,-0.013298305465652877,0.10590219483078636,-0.032506863254538255,0.01094436119779596,0.05591305145506707,0.049598983503400064,-0.08602350415561177,0.04994748032248931,0.046511565031178016,0.03840292558035088,-0.10529432145447684,-0.010984728451044035,-0.037671231943938226,0.052860182388272385,0.04474774418420565,-0.0008366483831896859,0.008230747518426179,0.0033456754302762853,-0.11585851296572636,0.019816349315127792,0.053525449463645444,-0.03149928331008522,-0.014438427222637216,0.011499070060027377,-0.08299231806929015,0.006274241061777267,-0.037295885602850055,-0.036674904037282366,-0.05209283905093102,-0.01853345500309067,-0.02163736223297497,-0.019639628695574122,-0.01131818718828377,-0.047279587891731804,-0.040147777607362635,-0.03152603351804722,0.0731096309501117,-0.0019223107883719294,0.10171631259356971,-0.08047537231263703,-0.03927608279034966,-0.008537457498276854,-0.02472011342909906,0.007590253647354564,-0.0642252113776403,-0.015965303401541106,0.040280387277496645,-0.07099222895009091,0.00809368602482615,-0.001690665180815706,0.022397925688036523,-0.012250894566055631,-0.08339423819145,-0.1216294595783486,-0.00597795180880093,-0.005795849429823192,0.002274314991696954,-0.03210994732057317,-0.05354154054551763,0.10190693659968512,0.05061503440700269,-0.0305568302477078,-0.025130889579895302,0.01598390242195521,0.04110420121527454,-0.008106883760371575,0.006494564646380449,-0.07416642343606136,-0.07917175358087335,0.0767703253375958,-0.002726707904095418,0.01095108156174437,0.05065723976404852,-0.032909855659355586,0.0641108112611825,-0.030716926278390604,-0.04861130121654528,0.027419659661090223,0.00930812934715278,-0.008526049773451361,-0.0251537005018692,-0.04342007402830674,0.05274372121920287,0.09067882611776812,0.007817800091158261,0.10647142386636613,-0.05135090148754089,0.025954721939859093,0.005884126232067832,-0.07748259126368584,-0.024125943284446262,-0.02275625911487285,-0.029786396958449257,-0.15345522061765984,-0.10027948145639336,0.07383225227854175,-0.06207955375056952,-0.0015579793063071556,0.0297811155132047,-0.056326346641017225,-0.03562734107258422,0.10246533026637246,-0.005287868261652673,-0.018377368125572363,0.041980265837913096,0.01462991760538611,0.013048170980982352,-0.007347105135730859,-0.04159502995888584,-0.12413790352624647,-0.00045244916085213397,0.09232339195606945,-0.007046661563166469,-0.027799447086174704,0.01924479854248857,-0.002962620838891744,0.037107382471047126,-0.021796856192263906,-0.07572852373954095,-0.03142762566664018,0.08065713246413662,-0.0774799978961496,0.022160128921186552,0.01016370505537168,0.047525321080722355,0.08611745699257624,-0.07765125659656114,-0.01317309923342147,-0.03816279084028925,0.027494375873230264,0.018166183089346435,-0.07130087330219097,0.0690711863905212,0.04999028094194756,-0.10238138001963941,0.006282935937355068,-0.025175129659079608,-0.03905813082946589,-0.015501285823189579,-0.0800377909327371,-0.015419126586509698,0.018466292577631997,-0.0037882179861147385,0.009685393324664476,-0.027962183123495923,-0.07014844244576052,-0.05428676926189094,0.04664754923261326,0.04220784501355829,0.005065983823330164,-0.030927184101657023,0.031315221632383816,0.039284666447800806,0.0024975698684837804,-0.11408518638957177,0.025137233388292313,-0.03643882985072425,0.0009839710475532549,0.009768659882043621,0.06788167629216914,0.017979972654580203,0.016024865536569517,-0.11104433550987164,0.04353507475014877,-0.05273870406452803,-0.02050604346883529,-0.08116628688719128,-0.04770324770971563,-0.04238478242860192,0.09870968288710466,0.13482953139869633,-0.014267450111427084,0.03550276593418252,0.1343851507301708,-0.04968873016312896,-0.12987248572136179,-0.03889875331005425,-0.006734125199832487,-0.026307401709387217,0.06553733474807374,0.044554319135618504,0.04828564625281113,-0.05609027408406701,0.07226160525590068,-0.0035991693309312335,0.06905671153751865,0.1434527740478847,0.06317181722736687,0.0016636283522499704,-0.006120117219610373,0.06394208175932767,0.0015644580309593788,-0.02302433006526577,-0.014164302471117496,-0.099196062900652,-0.13266271783321706,0.02853186058358318,-0.010938356052237478,0.08787231854333488,-0.061474823526080385,0.15032786120653588,-0.18239742512594773,0.026477654698283178,-0.029790744635523145,-0.009823507870492423,0.018000007731441597,0.06295844282475242,-0.13530032748355994,-0.14110358180229038,0.12816079051282137,0.1250230563535152,-0.03088233053313646,-0.08058090642998272,-0.03315649378561999,-0.0687060424204591,-0.0862617542804791,0.09194318783117493,-0.011025722933787268,0.07511344480769735,0.047011703199621425,-0.11375158493379284,0.0414920619131866,0.00392394920996846,-0.07939727532514,-0.03569362182778337,-0.007058225852208884,-0.1197065286908296,0.043466372449638545,0.005456573545927336,0.0774824144471428,-0.1131325378763849,0.033419639206291644,0.016402161371312365,0.13488765761719274,-0.1914911585781077,-0.214626017545276,-0.08848931703290731,-0.0356763926167226,0.05393142218707677,0.003080313715281973,-0.060947079822809266,0.29722998348286844,-0.039607734587974036,0.6014758009816575,-0.3569221625280979,-0.4416241547019261,-0.19904446798511125,-0.2105598504655465,0.2666603598756415,0.044614975486229926,0.5465660264302188,0.16902487700601132,-0.033422464820231285,0.03041273695749036,0.4915729491405565,-0.06990573122209595,0.37571337783215386,0.47304451881758086,0.046303717744152005,-0.3999649661074804,0.0011991744000030057,-0.5492476372581074,0.32296785561596725,-0.6369207517271612,-0.9106532405397355,0.19139966979653722,0.8571508444928936,-0.22602181364016624,-0.36263144841386735,-0.7796913213094322,-0.24979770551515398,-0.8150222917607904,0.5321859610770151,-2.160314708976647,-2.3007871121291177,-0.010554127847104602,2.4853876937217603,2.588074949558296,-0.18039676499563334,2.485046320558794,0.08675434291058054,-1.2279711133945856,0.24406270765583607,0.06228163963684973,-0.03557451032592424,-0.05085683741390483,-0.06776069275893695,0.07090419723930222,-0.007842777445038243,0.025330499614698257,0.04812120685974618,0.0286241523560244,-0.04938629933883719,0.05559537328873046,-0.012338829600436071,-0.019680720494109495,0.016837783643201192,-0.00014800467169635617,-0.010705172466297326,-0.06842699285870525,0.025057148348231594,-0.061110901589048715,-0.07961197043454249,0.03412410649451193,-0.027547343023632872,-0.048132096796671346,-0.011571681942636821,-0.02735478113967257,0.06117278403660675,-0.03641498880005045,-0.02297200837721985,-0.016760307352863598,-0.004162784563475739,-0.03411518331553073,-0.06514946363211369,0.020300121198369922,0.06050243557530764,-0.02021570914243486,0.012071807166263783,-0.08718613832704772,-0.0468804597767938,0.00899903144837917,0.07945392880454254,0.005796555292297128,0.0022037496761605985,-0.001193261723842007,0.010618331280947569,0.06557565731443753,0.08128878731999367,-0.12366480573050655,0.10480914322900828,0.07052801890048545,0.08744132200040455,0.0479610316206695,0.09620519550997257,0.02948377514908658,0.020549759117291913,-0.01822665199712597,0.017038803772914342,0.018117430115172712,0.04115559513743357,-0.1214817170778393,0.05287219767819598,0.11580081087782852,0.008248585683680353,-0.06187675715395184,0.04317125718732911,-0.07785903300937529,0.017103005979135697,0.0568447932861593,0.014751076388415513,-0.05149541655074915,0.0706578337412807,-0.0028185588059398805,0.12369116464870576,-0.038768110387861425,-0.013387662730516212,-0.004268346358218555,0.06184754044356,-0.0433419110823016,-0.020843817133746022,-0.04943589996571739,0.0887496106696337,0.0036890122163882964,-0.0036164737377250194,-0.031358767464125026,0.007718856741862809,0.004367493029546886,0.009516465429038494,-0.058111507546085565,-0.010102167272143933,0.06456935386218737,0.03871952078177466,-0.08072663662772694,0.049360164282157976,-0.027742874620647794,0.063583537015793,-0.03181926983573706,0.04970353608838043,0.08735372947341137,-0.02276316874604571,-0.08073183267213022,-0.012247313342345901,0.002774039749150191,-0.0686977869196448,-0.1472009393611281,0.07058675710818572,0.018210369701211343,0.08209555738874694,-0.06771861374773883,0.012537154698459257,-0.010702686418163061,-0.11543457831188768,-0.036811789677576943,0.05789069371962337,-0.019241605134430274,-0.04232479419654826,-0.03771576073712482,0.015621703857464954,-0.12752166677388002,-0.14982523771697218,0.01814955062196963,0.056061753410355,-0.056693534064885615,-0.07817577211379846,-0.07683506220875076,-0.043436000561286145,-0.08071078050029969,0.002112493140585766,-0.022677011597828294,-0.05845332125619339,0.027247711810256266,-0.04216400540789882,0.050883558727156095,0.007368539395494944,0.0011955283941330274,0.028197644600379972,-0.04018988353537592,-0.0491946073418116,0.013150860117994451,-0.03350489503058839,-0.018915423972808137,-0.04014280954434753,0.0663991547309589,-0.030790417751170224,-0.03198284080094754,0.000866735828649483,0.021902052766953554,-0.02988855419031046,-0.016894499876127355,0.017190915460811102,0.023646025845317466,0.06208250130870456,-0.039056955022569007,0.06931430429756238,-0.01903186858750694,0.013762731439099311,-0.01517540063911959,-0.020519404639653138,-0.043035444106603496,0.021213920680975527,0.039752701491956303,0.07674897874135532,-0.021717306277342335,0.022725494396474036,-0.08279756765694754,-0.03533705235059427,0.05873618296285291,0.11142769458194561,0.020865472537676007,-0.011520294205448646,0.012271679562159934,0.018897022751855064,0.06388425575303606,-0.01366617432675617,0.02011502179661461,0.05701081338896053,-0.02461515872336023,0.011991409195034542,-0.057311831770225585,-0.04781138203322959,0.019943530074689825,-0.022237472448776708,-0.05164569948627503,0.027349979798223144,0.048808684514385255,0.05483285205674041,-0.021166628680301953,-0.03114989832442572,-0.0030235386403440366,0.020775618001452355,0.03783526058744622,-0.05309030423603214,-0.04403360412642584,0.008122005526417318,-0.09415422624008071,0.027556289065611462,0.039638657505649245,0.04522299526890273,-0.007031113889037012,0.06730320213224318,-0.10748215337637337,-0.012411936258363203,-0.05772925177718886,0.0014001709670587398,0.02398283927020444,-0.03334068845375921,0.06447647771255588,0.012725827244555154,-0.04414648666367746,-0.03717210962515835,0.01992213820777037,-0.0054144402166838995,-0.03402611114433415,-0.03936641322214254,-0.05158049933245309,0.05005801136431981,0.006934029299460987,-0.01921415268479145,-0.005570058757786363,-0.009849896209024215,-0.000005673657118540664,0.04947323330586025,0.05323908515528787,-0.04102671091057978,0.04349191377946222,-0.09053404999602754,0.07128390771933468,-0.0639966403676573,-0.006635699200533865,-0.02499720521715434,-0.0380046578910258,-0.0120348958464198,-0.002361677801495361,-0.031343820672794516,0.0532149749893871,-0.09610131769084215,-0.10354955324174465,0.049901433392586285,-0.03737441751320316,0.057667058916901874,-0.031060173675871133,0.02957258467966252,0.03436250203881921,-0.0016476362448364491,-0.03095379993344677,0.057548070909877826,0.029976425989879454,-0.050742762859991256,-0.06348124741318217,-0.0003525150722575306,-0.09588458385771918,0.007911838594026712,-0.0036995873232699176,-0.06594712994295848,-0.01221993636060973,0.0060772311304902,-0.00894759698822477,-0.04638625414745824,0.0102227479440741,0.03150789516340604,-0.030852110789493455,-0.01746801822277632,0.009893178147661977,-0.0045996810339906016,-0.0849698570308409,0.005622637768535663,0.1314264395983979,-0.00724029246221747,0.029718018598484525,-0.06018481493897645,-0.017023478414205335,-0.07292801482553958,0.010300440307929868,-0.0025227004369039207,-0.00689646257105078,-0.010841215112348885,0.034136792937575156,-0.12682624707415135,0.009150861480117999,-0.07566082590328563,-0.023799207892957464,-0.021650450573982676,-0.028898149723909587,-0.02289001027071351,0.0687741041203411,-0.006448007567573402,0.036910411126074606,-0.045471777236508096,-0.005649566215480503,0.022542278943227457,0.047141722120398646,-0.05322797324742413,0.08536490197875868,0.015049740900921824,-0.05478250149333046,0.02379486414445398,0.08377486668046093,-0.024771670432042325,-0.014617557160828387,-0.06739190298748836,-0.012823728793205338,0.03396977896109417,-0.013745414756239256,-0.03310576957750545,0.0631592490351877,0.008048959857528131,-0.0121547148242763,-0.006539900039884893,-0.009181438662692953,0.009001971916088505,-0.002622060891900556,-0.024185554192501266,0.04858912546885253,-0.019377357467212593,0.042246712606628045,0.09575493189529782,-0.0584443737599401,0.06534848376317613,-0.12857440901055622,-0.009876685762146658,-0.09959204656091408,-0.014732305910866269,-0.029510480713256855,0.046026683055810015,0.05606577836361887,0.03514928914818571,0.13421225169126,0.036948556193173804,-0.08923745709890396,0.039967309659726544,-0.0045119987714498,0.05958581136927462,-0.06247475306694883,0.005151218494119259,-0.05127699736566921,0.15073978328694346,-0.03975021877195194,-0.06471744960512452,0.03582089713886781,-0.0824539981096756,-0.06404031379503534,0.01437227838197395,-0.011227767016879091,0.11681450366142876,0.06544184276995221,-0.02051379326928801,0.1128321754400423,-0.014477582562625347,-0.026450139118753525,-0.03140737682624029,-0.12973931481931414,0.05383876366704284,0.08319111125748435,0.04349985763343496,-0.031215330687215753,0.002758227354132816,0.039467966460673375,0.06841204570240207,-0.018266228689376857,-0.05437866077405943,0.027817592194167205,0.0615220696392253,0.008275169789902942,0.02470034003119892,0.021656375494729728,0.028972071627077503,0.009270699721228154,-0.04509961275771105,-0.029789468767804667,-0.06795178976185713,0.06157590585588555,0.02569223895165668,0.059609591929968855,-0.008975052842177613,-0.06971412865317024,0.032854431931398274,0.013525523162431023,-0.013580907849000233,0.08617686959006021,-0.08744488129315366,-0.004195284562739272,0.0949204619708156,0.1338328408149219,-0.035339928026771675,0.039294660762395114,0.02607037609696694,0.03289659727264927,0.089926488732929,-0.14463368465878557,-0.11518156788407813,0.021173888897408663,0.05280917198897631,-0.03849952730244584,0.06533095461642935,0.04254563548143474,0.08970256064828458,0.023481931690199635,-0.03519409350054073,0.025371339514848913,-0.11248989865492219,-0.019564777549096725,0.07692871735608689,0.05421349670188955,0.2309288636241151,-0.06344968651641861,0.13921561872401322,-0.01657863380179494,-0.009274541503102036,-0.08290060896433668,0.015510785595687165,0.03682812156065823,0.10845023780098273,0.029626108265125416,0.01829303188042643,-0.03098374174622876,0.14497360177386281,0.037113206944411024,-0.004204099586151164,0.05775408786412758,-0.02164048801762489,0.019283002803634826,0.051859460807596555,-0.14726978309032668,-0.11114946905187323,-0.038906627862269665,0.13573078179466666,0.0341477078260667,-0.050816732660725256,-0.04850283167888273,0.031437290581247695,-0.005834658842856965,0.029737595819719777,-0.1324153752058125,0.05533218104592538,-0.05765681224988114,0.08224206041930987,-0.2128015973854347,-0.16712686491483428,0.04795044070926504,0.06242273387935226,-0.02055040217483228,-0.040178480524226394,0.18324956372258083,-0.015472819872988592,-0.2070448306890752,0.26098445144472904,0.19133034609443195,0.08577142668779224,0.15784272145859335,0.12769641376294572,-0.2538460285272926,0.087659937822942,0.4373805766117632,-0.45992353686104204,-0.26269903898846453,-0.08209711406516067,-0.06605523506631862,0.21667879783484698,0.04007664759948452,0.22123837069535673,0.2896535831874216,0.02628962022024562,0.6546782729776157,-0.650538000094105,-0.1162191748436349,-0.06097399704403529,0.021598797474038478,0.7672840341891052,-0.13442495978550129,0.022500518513168796,0.5818290655176741,0.24934000225628175,0.11035764380561577,-0.8699959147415798,-0.9509913542201427,-0.25883123508917677,-0.40463161967878786,1.3200524970892231,0.25253976457753985,0.16984356729738365,1.6882994069579809,-0.4345952913467914,-0.8621862746885897,0.5146068998286472,1.2645180209308657,-0.5583198120229874,-0.0013487566126669521,-0.505530417597115,0.9690282650369325,-0.8381439367161486,0.934322976538169,0.16562373862087848,0.861009789796508,-0.775889968788517,0.3835574058433464,0.7949003931303381,-0.4982766354438965,0.26814089209376885,-0.2629793026118989,0.6468854759374132,0.40500947452122393,-0.2904237051443152,-0.024195077525387597,0.03984644408856428,0.02236948007954947,-0.01844728427339007,-0.024004668170905553,0.016111702479440056,0.11245886972597853,0.014735356927006591,0.02719595540664094,-0.014295491966166946,-0.05424735868091713,-0.08529648517091279,0.10298608152493424,-0.013563821293538747,-0.01298841674726458,-0.01800770772614888,-0.010091801903466932,-0.04467020243066288,-0.11704285602262618,0.038532592331184,-0.04455013716699143,-0.010916810220883671,-0.015196258379881518,-0.019699491565953523,-0.041048040602812016,-0.025735512812675363,0.06874031692017252,0.029525984423817955,-0.059760765216440144,0.02949016643399999,-0.010092116974913308,0.031116272726990395,0.004173018220700673,0.04950858450975808,0.0562643325322371,0.0038917105728254377,-0.04479055283143966,0.022701273309858987,-0.05515042354054194,-0.023361826193750948,-0.10441449099018525,0.1078554037314986,-0.05752496180869726,0.0695342219338017,0.035050855318894174,-0.0760771114641296,-0.13577905167053517,-0.023905905922065988,-0.019460838272956117,0.06242445403990007,0.015001610267731185,0.0637571432566423,0.0037469471381855763,0.054627268324824466,0.04904745283366048,-0.009527355958537516,0.03352602131878574,0.08565025503934046,-0.06096953787546648,0.00943201961992701,0.017375320442314934,-0.034946500717080164,-0.010253666280537012,0.0002672890570060833,0.047513413830718346,0.009160080915349905,-0.027414227658658686,-0.08199688501206215,0.04281367679127586,0.07753368212977818,0.020299434492475524,0.014435992742060087,-0.006493181280401756,0.03088651198344757,0.035245342393393976,-0.0660873655249997,-0.02234665182103089,-0.036839214990311585,-0.042425746607945805,0.008823402711869672,0.024853340926072737,0.0830011422328401,0.0812638742739017,-0.0008298525225232203,0.06354518403445988,0.026284324012130954,0.08477459523060751,-0.010437422875605892,-0.016968573866119854,0.03024439640309168,0.006344422763896558,0.017518312941088958,-0.021944035165364976,-0.12382581368371691,0.04189257739864464,0.0605849318910209,0.031776915951471765,0.02079365031587732,-0.00755382718484103,-0.042297692823098795,-0.007562356007815489,0.0033627457389458345,-0.06204146394839599,0.04085431373509342,0.006518152585183071,0.031030070798851426,0.050845975759980545,-0.0909631403788262,0.05129293656277163,0.045988815028128745,-0.04165061891408839,0.031201201199206035,0.0013919338351328701,0.026654638437267935,0.031565231381507075,0.02222438518711113,0.03026035201225932,-0.024316523190299293,-0.0185350604664899,0.024023951769268376,0.022003617428149106,0.10159826885928282,-0.018601851231139346,-0.013209738424375176,0.06969063937517614,0.025416661210376862,0.06575716255461944,-0.0638580519156713,0.047086558807704446,-0.01552275911378357,0.062111919078897855,-0.026181526623811766,-0.06112322759322667,-0.12399085281594079,0.049424916795066616,0.02051282861844134,-0.04645389132619287,-0.02193601923801617,-0.03517660565103213,0.04855639024718034,0.044013279794521735,0.05941323548691529,-0.03708566686086445,0.0369800362522163,0.004289494708563991,-0.042159178487918135,0.03000961686830402,-0.04177731641095997,-0.005882377213014656,0.005667783473365315,0.027505120527885913,-0.0645010376590368,-0.11521820479758126,0.017041737146104765,-0.015509347660968455,0.027289800631524436,0.030685660976994253,0.06541490736340645,0.06039441044746061,-0.025061891887175152,-0.02297106504367384,0.03020836952870444,-0.04360476977342339,-0.013068490267412115,0.031759374777175206,0.054908579875121245,-0.03004484260113489,-0.00828438913605551,0.034529630760392165,-0.011706714432550214,0.06707447995417896,-0.06513382218906272,-0.027005993220701352,-0.033454350394231926,-0.023225812802648238,0.03909268257942759,-0.035307121293299645,-0.08166333241575799,0.025886750378899825,0.006598831253507027,0.004648448815188992,0.15016844455029554,0.06322047110953012,0.03516674327547019,0.006520797390148764,0.11723493621353351,0.09394615436390158,-0.028929995862776812,-0.06588084182743598,0.06939819057472564,-0.018829479814068874,0.05374795404908776,-0.10293903053829315,0.0500256461969282,-0.04676513960271731,-0.025111106751752668,-0.06320891869661464,-0.007484006199515569,-0.15214508535594223,0.009723914165780535,0.06410935672643639,-0.020798990267419586,0.054480940618894316,0.0018981913071885663,0.03012417275552324,0.05837658706140238,-0.009969125176843839,-0.011203788457666716,0.11345322843998377,0.028159740942871457,0.08396292120502243,-0.015604832350232951,-0.042143445706126444,-0.10450555402835476,0.07286590231362547,-0.0160116183015927,-0.08229262290088811,-0.025239013014648842,-0.012735847659273969,0.03385216753788745,0.02419953366641774,0.08070228224261874,0.012309951657511187,0.030588593865706185,0.035483937481034844,-0.018231028282280827,0.012924591837525786,0.027564696233779166,0.003209095094332634,-0.06523295260945026,-0.04249095546625217,0.05317578310859482,-0.14575662276209986,0.008416168041682612,0.03215224467885141,0.08919482245952141,0.03679345039167095,-0.04673618436150067,0.013505878680165461,0.011911879294798757,-0.012040302317083841,0.004902822352640007,-0.06349998848757127,0.0075808588362011224,-0.01573828552729166,-0.07762590853532135,-0.044616952066048876,-0.0007437083189969036,-0.01100364270512712,0.04102450175668633,-0.07616539413944547,0.017469197428885763,0.0042129309011227365,0.038471634200374014,-0.04387414077947567,0.0342977762818603,-0.05985507150163226,-0.037063447686480705,-0.06746634307930285,-0.019807064324936674,-0.04620313982833901,0.06156383360684146,-0.045277657500365526,0.03935637006563548,-0.006141891252781135,-0.11120605711672413,-0.041273275448365794,0.07822974420312587,-0.01618625404602808,-0.05400236385964614,-0.019155877268126325,0.048091873574342976,-0.09172602576179528,-0.04706128498355915,0.08581939053602708,-0.006866538619246949,-0.04677128868908608,0.010597559279524948,-0.007413533144148231,0.09836629796365336,-0.023986369021729955,0.020601296828494247,-0.08189593695190689,-0.01875039879176385,0.07345736866214364,-0.0025678707653336913,0.043155936405440576,0.03367049697331766,0.07837842359865256,0.06693766407357413,0.03592183948382848,-0.020171695705982796,0.05910992937291375,-0.1513257923131604,0.06350408775364394,-0.020553718986028258,-0.02311899432801767,-0.01135249135953137,0.043121390417694916,-0.05096415260913109,0.04174329035153844,0.02389982035480304,0.0028023425548300727,0.03155182840201807,0.07788246858111708,-0.03017788680689992,-0.046875927133229425,0.014968079693495409,0.12135102355157994,0.025097809328213507,-0.0256091800605114,0.0318256223781607,0.05632291298526083,-0.04841121090580326,0.09053253513424465,-0.035263674358247184,-0.046544969892278354,-0.031127488062501832,-0.010995323268692372,0.07036119833269766,-0.021249854611796196,0.015211909929122256,-0.09337962867117244,-0.016078129315196324,-0.027553982608754878,-0.01095219140136214,-0.022348860575581646,-0.09495353337639516,-0.043984624797084086,0.038454248323782525,-0.010538657816136098,0.0018075724455873577,-0.11652494397966368,-0.09530522799845927,-0.010336579739716486,-0.005775709725051317,-0.031523121370282764,0.049246024452369926,0.073158465313038,-0.06830701485120198,-0.004554511018788113,0.07066638946061063,-0.06179471682705017,-0.061582083191254605,-0.13990021778907083,0.00036339370002992074,-0.006910936462496377,-0.042997847319104714,0.0732627270274413,-0.030001386961297734,0.03886342104194275,-0.08244339657314657,0.13990830301610682,0.05103598307173281,0.050410587015446484,-0.06753497153234995,0.02556370068768233,-0.008188285265922003,0.025415257389606666,0.03749723517244992,0.03319525737622083,0.022647254099234175,-0.11078295251071464,-0.027134613295006032,0.08070423166790255,-0.051139191960085394,-0.015366141960705347,-0.07603855995465722,0.1347637043551133,-0.03839018718841344,-0.07721157864606498,-0.03801869138939842,-0.017803184762099505,0.04473889995754481,-0.014290977446815628,0.03996203662770687,-0.03452981058303988,0.015391859979345796,-0.07813987148320849,-0.006913432540886391,0.031880091609051434,0.08817158333947057,-0.025655573351283205,-0.04981836227071162,0.007198864249988889,0.03515989822124797,-0.1425848251094745,0.05435478818468482,0.11521209682840745,-0.041120650886549516,0.05201794426351793,-0.011565056827284393,-0.14623625835572032,0.09273868192830834,0.04681238418870403,0.046672432310898994,0.06340066261971045,-0.040213248445222824,0.1389819799371175,-0.023618074805836328,-0.12373051094486692,0.05507363339609396,-0.018813494342333432,-0.011866635857708542,0.026813990579707875,-0.0054280699063391545,-0.01872504300718139,0.007303555975585172,0.026751265817404914,-0.017592418408775335,-0.029036823768974866,0.026047118521743916,-0.05010505847601093,-0.03969548693355711,-0.12179083616012981,-0.06462567391270611,0.033777035825762705,0.03142798359291554,0.14774300645619232,0.05551460106451942,0.1687313649320613,0.11566545240584876,-0.009939258829295486,-0.11219152992086084,0.007355756592724524,-0.0020346478644783,0.048847400229252165,0.018117270717773783,0.15812938450850864,0.03698316780007252,0.08292468425463949,-0.058524149171909824,0.05869356738637234,0.022540672274186428,-0.11544104558532114,0.03206692040796705,0.05072677549582454,0.027995071446354068,0.012491128573982881,0.05224062099931038,0.112784830373423,-0.0007018438483228903,-0.026143234124929072,-0.15249867264440423,-0.15970144077210396,0.0018690913790420421,0.19072386099563293,0.1298072663748972,0.1146672421697587,0.09359128747365607,0.011419216689667153,-0.37377021049958825,-0.20413219880336872,0.07326856003768538,-0.1269342288044978,-0.03600288778993111,-0.10364426547663137,0.14510688716892126,0.2305072447792419,0.17243238765877442,0.17169186207241283,-0.2852067910419285,0.5629962490248065,-0.16381513420319022,-0.8079222232779614,0.038106842452104814,-0.026806343315544275,-0.10907855427236782,0.00513189003352226,0.13692869713985334,0.4096563058610213,0.30525852139977844,0.21450036779909415,-0.9145580072546231,-0.0062660311835370085,0.7237224664330444,0.28786784640395785,-0.6698155586838176,-0.3301186227495944,0.30069761245996357,-0.26591269613544793,-0.8418179170458276,-0.9941636902745153,0.39124632391479586,1.6322058624319058,-0.32037110825726245,-0.2792905895824268,-0.7027895539781323,-0.5030935665035238,-1.3321060116424956,2.172796542753589,-0.6723034954552408,1.1116906261171562,0.5730976897229804,-0.562228981322715,0.6091259906632288,0.951141224399069,-1.5570464066038343,0.9359736391950443,0.9090145214552793,-0.02920029626003897,-0.06342008498764662,-0.07095337842360086,0.0065772867347235545,-0.05221842791648341,0.06511987564375535,-0.05848488784832648,-0.07971670207455189,-0.050374285010214875,-0.020053130714202134,-0.03973546603225541,-0.04506375450020338,0.04977858092436785,-0.036110819139716054,-0.06012684954219998,-0.05943211555796752,0.01827384270436954,-0.03533786470461588,0.0004142414604585791,-0.05915907036430357,-0.020884121229530136,0.00115599858104755,0.02469354425151551,0.022807591623376085,0.052391827509482174,-0.0419156612678575,0.03649573537951902,0.02042559313275039,-0.018747741654735514,0.06651292917050443,-0.041169425014867686,0.06643892441595088,-0.04508608496686318,-0.005264236227208589,-0.05947585982812899,-0.0502936212723083,-0.026525120403619675,0.0646981523150189,-0.0276535546989122,0.06742291009764809,0.013598366709487827,-0.011114258093755758,0.00026636952612335584,0.02480238108447929,0.014198634360525295,0.010105963995835417,-0.022446131166936077,-0.03368548256904366,-0.031436631512009504,-0.039542807456596635,0.020276333791991733,-0.07825799723515815,-0.008546237137609243,0.010148982688217123,-0.039470755644374134,0.017756183500790106,-0.009288313934381984,-0.023228983840471895,-0.08465942253735367,0.023370268611204375,0.016426239067311877,-0.051193005648538854,-0.03745149857228313,-0.0394692768678761,0.062248202613594816,-0.056720219140070666,0.09365301064316639,-0.01868832201010852,0.05755065702396801,-0.025732164574604383,-0.020558458064409885,0.11786627399431016,-0.07006264526589025,-0.048590044733359226,0.03181320858804195,-0.009034120028546493,0.0051774902493782,-0.02998711576747345,-0.09748640768491997,-0.02321887092939943,-0.0065394792644447005,-0.024126155968379852,0.018711027387281882,-0.1754896004230856,-0.03737741656483822,-0.05211669930888426,-0.06636829203618516,-0.07892178803815106,0.06960580277609978,-0.04377954528461734,-0.05763554415653265,-0.0009095671091575888,0.02146035607500583,-0.05769766307881302,0.017070599972263564,0.021503391543105717,0.006264536586736504,-0.0414990787657551,0.023502021893258652,-0.01565474675819361,-0.11665881588083152,-0.004428862538296152,-0.12130580323921772,-0.011546948465808938,-0.09857012857798565,-0.03358703134847191,0.054548130699678524,-0.011192831059587441,0.02566005539429243,-0.04350720154456486,-0.10177542773007406,0.021358961032976253,0.048737601137007966,0.02480983653228746,0.04819897697541257,-0.10567609956893954,0.05613167524622857,-0.06510688488781273,0.02003056385534284,0.0515060847130882,0.0906614206531194,-0.0432138601174616,0.017346989223499164,-0.023506878580408633,-0.09857365270059071,-0.008113419808281376,0.10230180889703931,-0.05007567580890623,0.06631153049452063,-0.0731144653009535,-0.04757956162801151,-0.042530637145036666,0.07784302452059351,0.03401650008437252,0.023098158839994963,-0.04035976340507819,-0.09126877968153548,0.07090915822038514,0.042470756089877396,-0.04914682098051649,-0.013025282554985796,-0.02678667849290384,0.045675436834635944,-0.01009545969104624,0.008600000668427785,0.0386323082671538,-0.12090342823880498,-0.03049429190971486,-0.02319028016296902,0.011147823434024734,0.021229153898993297,0.0021308902950681824,-0.09581937973892074,0.008121482573437205,0.051442473392236725,-0.037261959598141964,-0.014778755695130872,0.028798592608440064,0.004359593810870881,-0.007399744148954885,-0.05032622522772344,0.020779025556725485,-0.029540075543821813,0.020801607241309465,-0.08551330307094457,0.005097997064514408,0.029196226337926706,-0.025648961162562853,0.018157027140790677,-0.05569224620710314,-0.01519289567582567,-0.05530869667692097,-0.07034802064081892,0.02276996484942991,-0.004609424396848859,0.13336245587236006,0.010444612317252362,-0.03247883844992579,0.009533829167766359,-0.06275613344398145,-0.006688542548029065,0.007987002360615135,0.08021819714262378,-0.02982518900798118,-0.06821193591767366,0.052572705474402376,-0.016052392271978654,0.006814463869010451,0.0034576210257463505,-0.017374624129671862,0.03457402074141874,0.013389304046311768,-0.030410203132518656,-0.049484598860048024,0.06999142778749724,-0.022299940115223158,0.013875940482436106,0.024983280984003778,0.026887722516284865,-0.024613067170401553,-0.011097804970499938,0.04438190736348514,-0.041027943795416806,0.03288884422791898,-0.010894026918808747,0.07365770794903068,-0.027241591587632213,-0.018523306476057492,-0.07172079905368015,-0.07658239838245774,0.004264918397461751,0.08165836960859565,-0.04755371809473659,-0.0007639233801539696,-0.014774931290867576,0.0884793972643354,0.020379666582822843,0.009774150130631267,0.009857354411159727,-0.037671570983965716,0.0138284452250004,-0.08972073047292141,0.02833637036224633,-0.03515648085083227,0.07275882177200582,-0.011199999680137988,-0.07017441520678544,-0.03409404708425456,0.056775799012897366,0.08014907639037426,0.01948001467520894,0.017137665042940124,-0.0371223659920306,-0.02621192125648893,-0.045312518093796654,-0.015051405982264492,0.0031965589636198445,-0.04063753379507039,-0.041971816124280824,-0.07929906645217642,-0.036172005395870184,-0.038585812427858156,0.007435939239665134,0.00747091231445704,0.01799685673241931,0.05130843854735509,0.04043188467869084,0.018753738024912796,0.04674356352834641,0.010193199232253551,0.023823110377010754,0.09798055323988315,-0.03602229903137892,0.07017331674027932,-0.014052886614000486,-0.03984389773714838,-0.023648034615031132,-0.05274107103480513,0.0599502687346179,-0.08955038661028748,-0.05196600644136359,-0.021562646286389823,-0.04375817943917403,0.0134462132672877,-0.041306077634712536,0.13365266709694837,0.004732275089992246,0.04264309637647436,0.04782158445362292,0.03014552701594996,0.01663501465943691,0.015385281328821832,-0.003059275572411275,-0.06584196134007285,-0.05523911539467738,-0.009290172651085019,-0.03237039338632263,0.07284416370026146,0.031881282572528535,-0.08569024521964339,-0.007944839562388551,0.0420292997332258,0.05009548406518955,0.01760043398403136,-0.03170247052759963,0.023110272786031574,0.08550613233067333,-0.03519026962180849,0.03238414587939995,-0.015537066123878082,-0.03901630052625186,-0.004918601648631863,-0.041261097659360174,-0.0071048597609114535,-0.006538428539820762,-0.03408778056393994,-0.09862937581184844,-0.05315393053055841,0.0993110801984833,-0.04677969413707395,0.054463991509130096,0.059824009082046395,0.04242094196864643,-0.00435113698200622,0.03812201594881979,0.09548191152483262,0.06131397345038285,-0.06276122504667041,0.015989754823048905,0.016743589485989956,-0.02982893654352906,0.021223253687935057,0.010787207228373194,-0.04112919317117888,0.05898155388254088,-0.051187786324184,-0.03544380716673867,0.005762732245892831,0.03065350380467624,0.002107128929010533,-0.03614349058169538,-0.075060790993083,0.04845870236668922,0.0025864170014922184,-0.04896510930445149,0.019453529820228577,0.02403354994516665,-0.023884930156143916,0.056876293768737526,0.024478880485139257,0.07409961912861729,0.014661271878990936,-0.0017841036472409462,-0.010548847104505588,0.04293339853169906,-0.09232749700220415,-0.06410285970758141,0.04790948723157848,0.06152040043285546,0.04547480277185486,0.04395581530855802,0.006884771393494331,-0.0978114333959563,0.014271560598901951,0.01340481878446784,0.02987529404632963,-0.018301858938403286,0.023539549937007603,-0.03398165748904889,0.060963228831831466,0.04419727945257617,0.006787641881262827,-0.03941915939541501,0.10859369124063241,-0.03305261798208511,-0.050136891095598005,0.03621829646680779,-0.013706121947042368,0.007302396180796936,0.06495201424366452,-0.016046096488733036,-0.032491474814387314,0.0633015880354424,0.08569851400234517,-0.022029392129265322,-0.06994223182238073,-0.02146205491641066,0.02004291982306872,0.05188016102814324,-0.05107943324900178,-0.0009809042389131242,0.0070279495537446,-0.04261151384356403,-0.025217566630954716,0.02106010466214343,0.09092640796128602,0.006708289167909453,0.003519426200818382,0.0030807060912388974,-0.04450498311264019,0.004323635748016275,-0.02549614067238228,0.020076851675427387,0.032124774119259125,-0.09604799503327895,0.09306572634754487,-0.0509350172667777,0.047383322636624634,-0.01829743317524419,0.1521627135217101,0.057243379960354064,0.08825014037860082,-0.11774225066361096,-0.024295869252993693,0.12466477744359636,0.10358318089665276,-0.05253306738401978,-0.17386720892718247,-0.08526209567656075,0.06549124008802419,-0.06147206470687476,-0.03279876531517688,0.03062881521505417,0.00390696420258607,0.004556383451919042,0.037251915477985176,0.08232834506242107,0.09264952153171689,-0.022574776120554793,0.04388190695162154,0.015964746268889836,0.04000591194437144,0.0033991717316160614,0.013301247972686982,0.10668934465354,0.031967273279200084,0.0885836568670364,-0.0986702028168789,0.006994055155454773,0.016315078928088714,0.014535763470206691,0.10815136025694125,-0.015845057556403298,-0.04528994811127934,0.030053414684603354,-0.12338951712025402,-0.06463693185669084,0.06743742285697625,0.029819956257385226,-0.00552795919377412,0.08178363303450491,-0.047786949493388124,-0.09050904933937366,-0.02420510630842873,0.10497689603959252,0.109022000169593,-0.050045912340059985,-0.06289372391331417,-0.12409980127953081,0.15202046460782467,-0.10958703840831942,0.1918718178071784,0.09697690172460915,0.04526700667206667,0.08381034117196615,-0.08349505125051765,-0.008389879673347304,0.01667258937745063,0.09098373066431782,0.08788403934252345,-0.04364691196634734,0.21895457349126696,-0.057885406144347416,0.05272150535299951,0.06926692114383083,0.12326391916878572,0.02261900985778722,-0.23621354760998142,0.00752345905007309,0.04228257406875699,0.30375377654155755,-0.06622346386226403,0.11021664995675438,0.05538912280502734,0.0011951305667678815,-0.16299093715084545,0.17913899764405025,0.11770137542519497,-0.30585969872915136,0.10683270434113623,-0.3318454979791413,0.17154026964951663,-0.09767893112195974,-0.3268159816926378,0.30921820215387574,-0.5459554911863372,-0.07539715334630082,-0.4852213386127843,-0.5487519780917804,-0.12631477160449325,-0.4677621343715059,-0.67877753411952,-0.32296381896050524,0.08303079805899391,-0.34980369732175476,0.5042472791353001,0.38840536837998246,1.298868550347088,-0.1693720230620951,0.5821479913827505,-1.2777475339778666,2.347017656896226,-0.7341550215146752,-0.797141024125744,-0.25130259452663756,0.7338714994129233,1.2325996420192502,-0.20549821295998066,-0.18555652970503117,2.6094796450596207,0.012658673428562882,-0.12881890914183264,0.012925473800679758,0.03912328532210299,-0.05219838845376856,-0.14831006681423253,0.02249402648501496,0.007484247922280978,-0.005783958884079998,-0.04509375950933324,0.0036611346377221935,-0.05099654726245828,-0.08095305474443235,0.04827830390998109,0.04710805887448008,-0.0032034265455153942,0.04274084850868152,-0.10760518030276464,0.01186217986275875,0.005809207383872404,0.03194255201066081,0.04213380166642466,-0.06924828127776395,-0.020958383616727205,0.04606576768442841,0.05597321434259476,0.13347795207145238,0.0550164723984855,-0.025328074346807474,-0.0023597318604210767,-0.05362342861901459,0.0007425135295528127,-0.06339555682312546,-0.033937409771930806,-0.0011658443068232594,-0.013450559020583685,0.0629263441418645,-0.120123336566068,-0.05629506212524109,0.042707981303266,0.1324332657949385,-0.04871768964170385,0.02417958760315477,0.03555793667402297,-0.01618657864433053,0.006560907137781717,0.021787507868947037,-0.038638578766945625,-0.07975031398976969,-0.04854653614479462,0.10797584147870325,0.048063757940477445,-0.08124870215906818,0.14574083338670069,-0.041517495797988316,-0.07381658502634811,0.01682322026999247,-0.07511368370971007,-0.01083111552201701,0.09834650405127943,-0.07381254515010198,-0.0028954323336621308,-0.08899927815706019,0.11433840364137204,0.028981599248341452,0.01722761626327227,-0.02967998219377885,-0.04255875829743715,-0.06907104033017337,-0.1002655992193239,0.06271781125196356,0.034460652466808614,-0.0851482184522927,-0.010316508743948356,-0.10900421080482905,-0.02443590983440405,0.04632078050175633,-0.17637727170467923,-0.06475750178680037,0.056427792401587955,0.01781091461967019,0.052258963146377055,0.048324208514513634,-0.007609984316739757,-0.005078340022009085,0.053261207262637646,0.06800101918661364,-0.028843247727024898,0.006652089277469048,0.08859772420181071,-0.00870327580245249,0.027492234635576294,0.04192770362957873,-0.04070445458133168,0.010643569051371937,0.07192376226365019,-0.059940369386642475,-0.018202606565341756,-0.08566496574505295,0.0782681008321893,0.020823649123114883,-0.026078567606165226,-0.11149741332708211,-0.0037001956864633066,-0.04110375434458275,-0.0584934408116573,0.003920971621856313,0.012114545986183872,-0.055510839245326175,0.05111145026379239,0.006108597861969616,0.05212801183547596,-0.04462371175534253,0.07729632034110674,0.02016837966963406,0.02060714721453029,0.044307927214932624,-0.043180530141738394,-0.117334931228549,0.03828603901586035,-0.03412221829406099,-0.11663882703450684,-0.047967334221121316,0.016235772000664006,-0.0005381398323383219,-0.06504651492202833,0.01693646116951336,0.018061041573297736,-0.0019482420686841371,0.03785641912391875,-0.025036759569054205,0.08968952693104107,-0.016596598152541924,-0.07328742125427756,0.056001610770670354,-0.014668057738191059,-0.04692279277803045,0.019059335642034412,-0.016891056188223157,0.09239061386328903,-0.017432260556396767,-0.004828972144602957,-0.03482687781425348,-0.00998603399552042,0.052560808456195464,-0.0018923478735695057,-0.08196666844435639,-0.004615422185172191,-0.09702767190996767,0.0008277298239811107,0.05104025309217299,-0.01292754885581229,-0.06664663250394685,-0.04812427105363406,0.03952780474795729,0.11698116570163315,0.09298898037790822,-0.005909864537688629,-0.1364854698004004,0.057222009831468953,-0.07005075537717263,-0.004897029744763298,-0.06178197736859084,-0.00028254403285105664,-0.04516511941941558,-0.05883261083178352,-0.017119682671234406,-0.0752041466924788,0.017655139196221716,-0.00004877847814358351,-0.026722159891833887,0.08627651777331134,-0.04011928880769013,-0.02597002348427369,-0.025926874368227038,-0.07374736542487256,-0.06232184853049403,0.006182697908483814,-0.01419412497625671,0.05403561196296844,-0.042910432969340835,0.028095757401599513,0.08999748915235695,-0.03235473261922291,0.07745908274389021,0.015656901844196363,0.035150314924359646,0.0797472288256968,-0.03560671919518719,0.0034946305696360843,0.05276600433501934,0.07258693158036408,-0.025384960399778646,-0.04252660267689286,0.042504846960785395,-0.006965892379335165,-0.021995381708993206,-0.09758666996326049,0.10051734316649587,0.017733291390724697,-0.08254027190979,0.0602691551356094,-0.041353296565571074,-0.04916957979983,0.06876888512204749,-0.04417404543394209,-0.04066698516933927,-0.005633000907614453,0.04097430168152231,-0.006858856422914437,-0.0074700285109915105,0.0012942154071939726,-0.04693503228167805,-0.004967050328741545,0.05441398678465604,-0.031098001763892553,-0.12797575719055995,-0.05748067125575257,-0.01837213895441881,0.014777197332114056,0.05014640441447658,0.030976542260823154,-0.014822813040927344,-0.09010533892353431,0.10899919223232053,-0.07850654439266254,0.00046634480067934687,-0.10031377456014923,-0.01055091818463546,0.008787810690623479,0.07830280849964764,0.21674227033723514,-0.07483953728575937,-0.07983137864091569,0.13919900530613327,0.09299535099872032,-0.05790697425632409,-0.04899576928016058,-0.04258448391580058,-0.008276971734122871,-0.01892877341926355,0.053749918015377,-0.0031302685167793453,0.05344296015181064,0.1269427628298515,0.00167779312333302,0.0227257973390547,0.01351814487383944,0.10820935111592334,0.12321398316405675,0.047649321802824565,0.04344855482528134,0.0651926590507605,0.006072838449575545,0.04622550984487726,0.002996350521574114,-0.0005022974462209151,0.014750417841087765,-0.03809854513193771,-0.03922304052935745,0.035989435405393594,0.06992992772687485,-0.014125431185946589,-0.0879588707874835,0.02724071719373625,-0.005195724164264806,-0.026915334469026036,-0.021353630198477826,-0.08519353160480443,0.1496185119725413,0.05894871430973287,-0.030263292130385203,0.0358683743977917,0.05207766356144493,0.14339980349537165,0.03700110275872337,-0.08052476030430654,-0.031558716937341566,-0.08002717714209619,-0.06334108225391125,0.06995001737706313,0.01108628663181789,-0.06260821111912533,-0.03686944790398185,0.021510076504964906,-0.02981145387461781,-0.006047536534832638,0.04608448069073631,-0.001070117213190689,-0.06445411500286029,0.06483497001369529,0.01836806911751805,-0.014629000573887187,0.0006204878936654844,0.08845453535448602,0.0507803198391221,-0.07511824986882229,-0.0324723263713758,-0.019869242738555806,0.026349029293335255,-0.094191213886393,0.0036340455929444585,0.026889229486316814,-0.06976299359268488,0.034318516205013846,-0.0007082560172334683,-0.08300573852234557,-0.0742004537139188,-0.008206920652437099,0.027427189640758104,0.059650136004422115,0.017242782559104275,0.024940103415965777,0.05278872456555659,0.024956809665924676,0.08821700777610003,-0.08656324898621845,0.022211963165089242,0.028413929952621,0.03328637001618219,-0.05305153188710059,0.027110947271001766,0.0734581574151309,-0.07030952945600114,0.14385911349106384,0.002080075698069454,0.02123444591600942,-0.040094391832844564,-0.05607340187825267,0.05866836534726413,0.07223006536204792,-0.005389440054096877,0.08002309257185021,-0.03796498020378363,0.07125476626477784,-0.08420707059553827,-0.05386940054930016,0.04542572011491635,0.04695271791862573,0.04433462417338963,0.02430225430056176,0.019966783555599957,0.08436429272233416,0.0679738187439804,0.0764687816936902,0.007209346809522147,-0.0656013636654392,0.014183576718443815,-0.0338938460001278,0.06474506178923473,0.048417222233455334,-0.061647970049115985,0.002021226752375257,0.041645322696332,0.14928455371560134,0.03085173513048993,0.05413151928199846,-0.056531380260236685,0.030074162275615702,0.029104060548466818,0.09091674947117752,-0.07679905022179402,-0.016357806903226357,-0.004215614182146714,0.02711795686232235,-0.06421480014793549,-0.028522107420604514,-0.050895382463273936,0.0914663233410762,0.049978571190576845,0.04256872383314903,0.09079039961598537,-0.00872575145085433,0.027292283832141266,0.05177830561907174,0.014828944628216493,0.068070855588051,0.014858377955767839,-0.033970441435604376,-0.028948729218315362,0.13475008973262492,0.16861698318263835,0.08370605594233063,0.013521123316076612,0.1257174890598602,0.05552758162090165,-0.13616085773155204,-0.040198900081608334,0.025404877363389686,-0.022708896426447488,-0.029108227536068162,0.011412202219876363,0.031235389126284693,-0.0683466932813835,0.03982973979431551,0.0003843093520436052,0.0014716246255120674,-0.003190962331498621,-0.06328666915555146,-0.03146876177487184,0.0695669913337796,0.06852718338503762,0.04538036887497318,-0.024851160098246422,0.04136018561181631,0.04041501676859334,0.035995989691406056,-0.05748614701486099,-0.06979529615874662,0.04196491125269977,0.0027527806417614892,0.016862757487292733,0.03996070187297622,0.008155385696302536,0.05295398558019843,-0.005885890815022599,0.029130801258536475,0.010101364716287739,-0.027171075882703306,-0.09178479101246693,0.009817979655928514,0.011339828409243309,-0.009028535500507542,0.12196189202266634,0.0208125145828845,0.014868145274385972,-0.15507831784497486,-0.013635114775571914,-0.0763433324370665,0.1339534663628704,-0.04348690146416352,0.07681467403484407,-0.0699420853841142,0.04163830486434336,0.06381180045898424,0.06048360521778833,0.058637845062041054,-0.1646654456613957,-0.045623115129663466,-0.00798063305211508,0.01213445616934571,-0.024628727352576863,-0.11302164857546859,-0.1843133811514602,-0.120809760897344,-0.20845411421324808,0.05441466217886161,0.05617936057395194,-0.12930972073389008,-0.05188747719674055,0.2461130466892888,-0.10911848814796737,-0.07059224584617603,0.11652629254440436,0.43091345107669926,0.1245823224462021,0.025500371647140783,0.11663485306685771,0.07633208970547217,-0.061350821431554375,0.025461560918966727,-0.18578723250560736,-0.22711877409434866,0.0007461067202881343,-0.0022577949017302526,0.07790613466545646,-0.2943138230529132,0.03487557512754356,-0.00501021740213218,-0.0799852761053431,-0.08542090745483628,0.5116625930744246,-0.2686270545001033,0.06319500572618,0.1088787513722957,-0.595556683902418,0.16103224743982025,-0.22607892251257927,0.013376939927927904,-0.1956763398091444,-0.8971454503438622,0.11791908502804081,0.6670644253735277,-0.626549167520248,-0.5051349603854698,-1.0295712350353812,0.4312671957265886,-0.0790925797476833,-0.6025644930377433,0.6606252179062284,-1.652077702577946,1.214998515858896,0.4043361414424227,-0.9636865422829891,-0.039947476119925336,-0.1188022549969723,0.36446530415467787,0.9763007636863168,-1.4067615925613968,3.162865400934238,-0.01257693774319622,-0.038166752944089645,0.06391982047935699,-0.028495220942570156,-0.05304777669607117,0.004757926478435438,0.040467584165181536,-0.023253051860734848,0.04064348718989036,-0.003762490987450535,-0.014257850260160234,-0.05647979055294457,0.006213570289337226,-0.06309588711073118,-0.0045452274265740215,-0.07486431505735928,-0.01906047226729382,0.04625004979928745,0.14893972993219073,-0.06706555171786725,0.03957285654329757,-0.018188513337142415,-0.058156744837245,-0.022351641151585583,-0.050252947859103995,0.06816919308781781,-0.0003811656922415583,-0.09674724070119708,-0.028225043940205672,0.023745169800663653,0.06358769560905651,-0.06125346827649403,0.014119980988174944,-0.0055126629734457006,0.04599218000216959,-0.03611961513961744,-0.010813557679910208,-0.05637172069114787,0.010551070741993133,-0.0008970679967614426,0.006833186943201965,-0.009184864877585866,0.011082876661539964,0.005682041743968847,0.04394234600710675,0.05021039389794453,-0.06610357820191405,-0.07710989413344145,-0.00272500746728284,0.0025164949911415766,-0.06822740635271488,-0.08081478174123766,-0.01074443154008014,0.05340755046002788,0.01052906706452931,0.07735443502189995,-0.015283225251945327,0.049939986117227636,-0.019915762824402276,-0.01450196130282465,-0.030566064519773437,-0.03355212601168754,-0.060516808191630536,-0.038512115641250885,-0.013176368516307125,-0.06687274510337561,0.05643602657224411,0.028443916068496916,-0.05698693414039429,-0.061297934353087405,0.07617436511596448,-0.04537858805779955,0.024204572588832997,0.03647099161823908,0.0012747531764238744,0.03147850921287063,0.02327992897777853,-0.021699551973622576,-0.014335580486294545,-0.020722458972289408,0.03441235672184253,-0.028906932737659197,0.03792885991681829,0.012890486635745133,0.04547305037883775,0.03192369070549748,0.008537257679544734,0.07033989402910594,0.019172728454341547,-0.011323828002258096,0.04561079155325797,0.015158956605078919,0.06524813637068366,-0.07920101147175188,-0.018101588496205127,-0.008690399208174483,-0.0013907692132125054,0.027167062154816984,-0.050144038664530835,0.04820923729248583,0.031537661970988944,0.03318913988044796,-0.030470255210944357,0.04485350690355899,-0.06841131907921373,-0.05273562622855923,0.007008349120058276,0.010468545538304985,0.05018331037543998,-0.014591044267947231,-0.05418749413329305,-0.08625573974228888,0.05165982428815159,-0.01642747248682038,-0.09938022786580958,0.0963941325412038,-0.02319632723334944,0.02573723908883233,0.0004167945252450406,0.07290320518233426,0.028963366578412645,-0.02599460494776797,-0.04831859992290201,0.00043520764483648093,0.07319692931327,0.04960357949527126,0.04237020153337005,0.09488980696914173,0.08574452284715268,-0.018408431949964665,-0.043762482070823866,-0.023468782584438345,0.0018835479683535431,0.01659241082696098,0.0005269212574877336,-0.06032012181517916,0.004454603163537716,0.01260595640145685,0.051481019508718175,-0.03716365121464516,0.021295035308452077,0.0370917002080194,0.030428536739883105,0.030888517119779683,0.01195977130261357,0.008907011201903254,-0.031196558312092688,-0.0921155789343992,0.011660412574910082,-0.015210431796959953,-0.02299467776445004,-0.047374623042308855,0.028273436359817536,-0.07336424583924067,0.04170783288008735,0.011423234950386201,0.046356418921489756,-0.02923457683671613,0.009745526648630863,0.06163585447468679,-0.03575510029145977,0.015543174646632352,-0.04740032639056589,0.007703264653716431,-0.089989159507493,-0.03499185662907491,0.07524328335675642,-0.01755330201271118,0.03425185375318901,0.06146922681105992,0.010748377655507527,0.009319102207435488,0.018962445769006277,-0.08799219984624518,0.02653895166904376,0.03878080587861749,0.0019912726667502914,0.08300158603622647,0.06848775645337676,-0.03188782780591568,0.05705193469836953,0.01859129223266565,-0.018257361865729484,-0.01571197938222684,-0.0046118404476283605,-0.045547814316329156,-0.01206243477306798,0.0519826806015985,-0.0024220497276661794,-0.06281638674307424,0.1075975685715488,-0.03528093708327501,0.039482664696041746,0.004009124284409918,-0.029762757350080667,0.0556770136266571,-0.02367947766296679,0.04702341532996199,-0.09022165890467147,-0.07086256790403758,-0.13466167762436232,-0.0473949934943579,-0.03087392552585037,-0.06765359145413495,