{"Layers":[{"Weights":[-0.54264025812279,-2.0792700571145355,-0.307346940113159,1.0279627762393055,2.059045982961953,-0.4343207487474524,0.2855162076971619,2.6448830857817565,0.25575240602293464,1.5356356501534347,0.7013532031811082,-1.0716316645590143,-0.5024328405260252,-0.6778736396222376,0.8753509257374126,1.3021012798733085,0.3489237625141425,0.02873733203041345,0.9960969269986023,0.08961175134711827,-1.1279718896909694,-0.6700390322916329,0.46094602637385684,0.6283336961716498,0.5636242059409349,0.5218077767217798,-0.3566292370141563,0.8029653350712771,0.1414625681246148,-1.7038676436065,0.2979695256523393,0.9980187419741838,1.9966733668657206,1.6862320278339216,0.36563663575938615,1.3014241085986504,0.900404460626026,1.4276916499008767,0.17451565411125916,0.12719985321661761,1.6780028134491558,-0.96513170697218,0.346308568013109,0.8509563237519064,-0.42576672501387486,0.22030343410612588,1.6892906651595962,0.674386302651013,0.017941467684993582,-0.9315969599898912,-0.4936312467163558,0.5476968305504336,1.5774470927431916,0.6944272807133535,0.5569194048131634,0.41205786324121346,0.0905655227184541,0.9398706472302801,0.6248147085450193,-0.9886832092038257,-1.0548309084296088,-0.9167900916208508,0.7159629496122591,-1.4933993633666982,-0.3996874609666635,0.5442950448981507,0.5960308452147708,1.919096986989796,1.4298335640588338,-0.47763617106727896,-2.4661004788199645,-1.2104697569630618,0.6023255696825034,0.3529866244992172,0.3730583789148775,0.9382724716293672,-0.7210232051196965,0.46572097377435395,0.21161614931901102,-2.2249883909855503,-0.006976412671361888,-0.36663665928787137,2.28733802011925,0.7501792607999069,-0.6581797332753387,1.1139435220124096,-0.7725790456526066,-0.2236844268116182,-0.9312040769030887,0.10099066868390649,-0.0241219357370056,0.8710912932779321,1.3340638779885532,0.24857949581715652,1.6074482618309824,0.6234012758529008,-0.42928478313919877,1.0385973473968346,0.38503578028465923,-1.662263711781656,-0.4348661398859072,0.5233407929828638,1.5819106348444683,0.7818491175174924,0.6226959932244828,0.2595689911270939,-0.09901074632619149,1.0137609536797385,0.8390322240608995,-1.272365998644997,-1.7715193098432012,-1.0433907585041742,0.24524099446319728,0.533415173991172,0.4448966683461689,0.565684657939206,-0.5052089511548884,0.5248332499546793,0.2002497015244438,-1.6783136311270606,-0.8492586834771377,-0.8541105274520107,0.35643156627309974,1.7984067210475276,-0.28717088104966904,-1.4438852761352095,1.5783414721131113,0.4279101263161117,-0.41638004741693363,-0.8530287577619188,1.4142076707660018,-0.4772361793330164,-1.670038968045085,1.4930594528051637,0.335799521371523,0.7862841522604415,-0.4849030242615028,0.6182423156916523,0.01929996681944195,-0.30029911486041583,-0.011284145313961689,-0.2107583332054663,-1.1995641695883374,0.6058142415839435,-0.2427737412921433,-0.6826157197224673,-0.4805416365844321,-0.21858029733578793,0.7094205104789931,-1.7500920517371772,-1.9613827593506528,0.43849322205945385,1.6636460724747988,0.538216303767438,-0.7321716930787379,0.8985512875223273,0.9595285996065589,1.0645790607922558,1.1472392027993386,0.24740217060299113,0.5984428172327116,-1.2220311525765124,1.2813165838776541,1.3507500067290992,-1.8285304326834333,-0.08980120516588097,0.6146929336325913,0.25836721505617716,-0.7081253676696322,0.3072555724294984,-0.7091740221199622,-1.477733112280358,-0.48139664616920325,-0.014336798012923013,-0.36914231874405795,-0.7870791244595141,0.6393163274912226,-1.0660125900894855,-0.3998626247169807,-1.1439560757568887,-2.306465953234154,0.02978806582645037,0.7182595114367372,0.2062602473983805,-1.0809087284704704,0.2609369734641789,0.9737188439574747,0.8925442107271924,-0.9085718325249431,0.9464731977336216,-1.014062114645285,-1.0182571326649623,0.37633206978876393,0.2638087769070258,-0.0472713992450758,-0.45499745472683556,-0.1417609328998163,0.6726550292604423,0.41577501172794507,1.530500094519277,0.6906821059030765,-0.5241989767551357,1.0157256122730645,1.346016909620329,0.1099163159077095,-0.26370544966038756,0.06234384138855354,0.6551916276746315,-0.677435927791493,-1.7842629930190919,-1.061112330916946,0.8245155833788923,-0.4681669186476055,-0.41372882653723925,0.29127717579659723,-0.5874278721158538,-1.3251194721239812,-0.6497367100827813,1.131424252328598,-0.02553549004228535,-0.43401768455736073,0.18430411130411678,-2.8515713611586486,-0.11705928310244532,-0.6539859238233083,-2.0904079388468384,-0.016704364008873464,1.2932616817642166,-0.6720586673651718,-0.4414638289961596,0.08789852031209903,-0.7303337687036372,0.5565999788018018,-0.32568110694514135,-1.5445751664372385,-1.309068567110081,-0.3376056938813082,0.5638560754090989,0.23684073521687088,0.2564405206046244,-1.8313968867249226,-0.3048179406848291,-0.6765431643578693,-0.25594120012007254,-0.3969953743016893,-0.22294531466391976,1.2946927531546149,-0.7240683167476818,-0.17024506146154458,1.2841907425420913,-1.6895901673723333,-0.8459817657745918,0.646924175324538,0.5094694150924386,-0.42583285405640414,1.1937403942323432,-0.19546992967227636,0.34272919242437255,-0.4444054814138818,0.491784611374497,-0.7185934919270497,-0.0557174600022153,0.1408323949816158,2.0777134459802378,-0.6151236613396471,-0.29722160559358163,0.34506398546992884,-0.37255564023127447,-1.1106902401451595,-1.1238614556332596,-0.821280856633831,-0.02278749553308643,-0.6467351563081626,1.6974474621185671,1.1390987062510096,-1.0175505571011876,0.9891540715201674,0.274822415705181,0.6935520353222345,-0.2300359990299902,0.9290794111978453,-0.4584487891902363,0.957097555129344,0.19972095249481436,-0.6062738762588308,2.1991168250120765,0.2006165084198721,-0.40232113294752686,-0.8620201888941325,-0.7645693891781767,-1.2638159789969285,0.10314810870264447,-0.6242571601754074,2.008359398737012,-1.064447027183182,1.2133455793526573,0.7845958174807376,-1.0379941626771378,1.7830519937940823,-0.4510157406449715,-0.24605099110435266,0.22553677030359245,0.5711328590776187,1.0785272586283068,0.3703074786853224,-1.3576230049963476,0.10727154609587508,-0.03433953581542705,1.29859266072502,-1.2147331540933495,-1.8713966723303486,-0.14403703735327247,-0.8627979766484669,-0.41723508095305756,-0.16304067901813618,1.138267753081913,0.570067339798217,0.036913258960877805,-0.07230972757425558,0.11033582845952923,-0.127842647310697,-0.8388773420254209,-0.1960390185558966,2.2678395910038116,0.19675911242350036,1.8505812988308241,-1.7200043505044416,-0.20756068408642536,-1.1282444514947332,-1.0367092221928849,-0.057376642540864026,0.1417572369445353,-2.0953184948149075,0.5981778993755726,-0.43335448552554734,-1.2658304846584234,0.8726910793873444,0.22350973843234,0.22933025942487234,-0.966319531848076,0.38594705034143356,-0.01247915585951745,0.18503796567288566,-0.7913106557221625,-0.12386352163626625,0.3376587809412467,-1.0564660123885314,1.030399851071778,0.7737493906565476,-0.10273641014687905,-0.1115712276585981,0.45447740404657716,-0.09456196088861857,2.627456797783359,-0.3595747079295843,2.105503112685205,0.45945344313588293,-1.1281977325762789,1.1686152396418215,-0.05129161240007128,-0.03398956010614738,-0.8048593182769468,1.6750928433674557,0.367799406614583,0.10174777735693771,0.5158098600872306,-0.05635863410868312,-0.22664027410250473,0.9250667394258617,-0.018552856517051776,1.1561194493215081,-0.2426595171159391,-0.6746419876397691,0.7658460501539511,-1.2399483005512029,0.5949994066701172,0.9075302289439071,0.7421340292590257,0.46067975292186586,-0.6233303174159559,0.05406491508389302,-0.10161651153036812,0.33243286395563826,-0.15550091111066505,-0.2375382534834037,-0.9981015680483394,1.713839034474344,0.14810710798999455,-0.9472908743771863,-1.1852855235047441,0.42922985613006587,1.446751321481062,-0.14518037154456914,0.7170013410179928,-0.32310754728790186,1.2991367581018094,0.5526327491620006,0.9930697806906902,0.29414991546003527,1.4632301214778323,-0.7576457954055937,0.017109592278818052,-1.0258228681117936,-0.1951412630307916,0.9113188053985858,-1.4309584217153446,0.38597058166881676,-1.8735291556586207,-0.15053377352015224,0.05581728984808745,-0.7535270056202384,0.6737104717192806,0.36022605253094875,-0.30611497137895394,0.12515955895365036,0.2485127403864643,0.5972942896526098,0.29105367892480355,0.15881056570904134,0.26680742018162845,0.5251346700568938,0.6958228807377794,0.6252489911707569,0.22366975009832335,0.3388689960162756,-0.4021063018818651,1.0822587474073642,-0.7058348743443386,-0.8448416430127774,0.9149950323682408,0.23012385571205032,0.09849965246293899,-0.4549338298839722,0.388299259029125,0.8429933560852002,-1.0030612073922853,-0.7665712101577189,-0.34941370559927687,0.22863498585484854,-0.06017828404376645,-1.0898605961109888,0.6800311466063774,-0.5684868999812385,0.6324999925215333,-0.03484313063856585,0.20062651923975716,0.6485258755219775,-0.9618630198891718,-0.6406650634234982,0.7514279744228716,-0.30223420356393516,-0.28614883265449287,0.8987766704732784,-0.7107555274717264,0.7347880620195832,0.38764548329335796,-1.2434479082660068,-1.0304002352183803,-0.49372488904836626,0.7546101058968607,0.09716110040410282,0.22526757520472646,-0.011713561480074592,-1.0258317366463918,0.6460265211945422,-0.004080242469411389,0.6250191343939624,0.16010908435460988,-1.9970770345467737,-1.1391780869419283,-0.5196697893295675,0.7619244939269041,-0.9372599461385251,-1.7520124020264705,1.125771518096708,-1.376131157486294,0.8633624696007375,-0.5975588595243428,0.8252683651199636,-0.5382916254746365,-0.26402493173620073,1.1789041098555915,-0.696102675595863,-0.5778859104660015,0.24048876067812971,-0.6501669971470783,-0.45059444873355015,0.8049400983596868,0.12647963236343412,0.44618431370055617,0.4516873902963004,0.3241720060520787,-0.6870552247867693,-0.6520265745384043,-0.7281408384487905,-1.3884642563038923,0.5093485556186599,0.36204907560265237,0.5439030927576967,0.7944341070266259,0.16354640510620935,0.7339281346505608,-0.26672327854084943,-1.4246433334014854,-0.03318712406101235,0.9237897622610142,0.17106433216413078,0.36782361370396993,-0.482567914639947,1.293121792066105,-0.03136759341392975,-0.2851588777847182,0.2194090958379298,-0.8313289404522965,0.2511651352504827,-0.6366494567717867,0.574862734617399,-0.3958654107614091,0.35882183954672836,-0.2081031543945224,1.3891123707308572,0.3296291340310373,-0.1929436372693457,0.6088258963033119,-0.020695028573937742,0.35238150177378313,0.36576518414217385,0.46794522041935593,-1.7725081440386175,-0.06271921669648531,0.3043164467000382,1.3622620298398522,-0.018806945145436346,-0.4840420503420034,0.47988739510325623,0.9287573148513167,0.4469226239943353,1.3818742027996112,0.14056709826399633,0.9849732312435315,1.1453409342274006,0.14055314203631689,1.6284388558966063,-0.9197209974387563,3.1349815380371213,2.0365616609821404,1.7357009628111026,0.9700252568353961,1.2416106556868025,-2.92778262847071,-0.5172717585742869,0.32676566478380126,-0.3461345113656957,-0.9769525564557915,-0.3318963399117046,-0.20759300620286217,0.759902487029988,-0.11745361070918992,-0.010665535491993545,0.8824915211483086,-0.25713930773947513,0.20658049534061138,0.9828533208188065,-0.5667763099904723,0.8954397690004318,-0.7256590724159734,0.20292244010822824,-0.3900136522816002,0.35843195457348764,-1.0262932036079608,-0.9072264677199039,1.3535577888488726,-0.19436207276251252,0.4212102743317424,0.9654648562351983,-0.2262645665308025,0.09736663634309797,-0.3236115472871788,-0.10955930602516889,-0.25613505302342304,0.41148314647878964,0.05960147654472188,1.3323240062379398,-0.9520473728970748,-0.30087552904033726,0.24590642773160878,0.2514631247159108,0.45749233786763743,-1.2502532026758315,-0.5015706670484676,0.006333480399056367,0.6977694830257366,-1.3897259424404145,-0.11611422024844761,1.0157711316809674,0.46206507731386226,0.34377851406401644,-1.0533189809045522,-0.4733283999466735,0.293267799150069,0.8621852092608236,0.7266873451379897,0.10520617407140247,-0.6038461117048589,0.16557252070362502,-0.15120413939587715,-1.2955071215201925,0.70197899884096,0.8517668539306805,0.40529300836719345,0.7735900630144319,0.6211734404809474,-0.48713430018949644,0.4238394428708232,0.7788012140865236,-0.712145958837825,-0.16561725449775794,-0.019804305646389218,0.6330977689244891,-0.3976702176307893,0.3522231678745733,0.5741150111291987,1.6264783449551536,1.1619500895419903,0.5127409830959192,0.2578797007830715,0.24420009531170425,-0.5243543940154297,0.44566825681033184,1.148046171149867,-0.7756790723725404,0.26480777103282616,-0.9098624337472718,0.3593547134671749,-0.6341543607855235,1.222656725818497,0.19316243156308385,0.1500341129943643,-1.1048781825101455,0.5431789420912936]},{"Weights":[0.025945498229153412,0.020600226567071892,0.0538802049102121,-0.0036958921967301475,-0.14500580620133946,0.026440329650305964,0.04108131956013255,-0.046901805854433515,0.006953634691658709,-0.0701525512621739,-0.025112507787931906,0.017963817711038322,0.05417613682496364,-0.07911382147553403,-0.13381380412775903,0.04588062370236037,-0.1250736192717942,0.04816861153643274,0.04133384314315671,-0.06680709731613013,-0.03772772254130188,0.12044038463297593,0.023568428127773544,0.045510337783186014,-0.14285315653625255,-0.0806316563248948,-0.11940870099604593,-0.054756917947898505,-0.061785593155616166,0.022962095569477828,0.01014677469146807,-0.028606401768281844,-0.035156466790162856,-0.03757871650347678,-0.13803471242213916,-0.023654552326511973,-0.11278613127757445,-0.06636759769951388,0.08207609413104863,0.01918497513538039,0.09865001351661264,0.1124442690943302,-0.01391998706812942,0.11247739290231755,-0.19768083366151049,-0.07655909704150113,-0.14860812007540605,0.03557048634387689,0.037053671573398055,0.014337622410802052,-0.05365297735195891,0.0654397805090259,0.04492371095662975,0.05286332259224349,-0.16262702640042437,-0.06758363956259936,-0.12507757350409512,0.009521711623596362,-0.021837475999163202,0.08008461801264477,-0.0119122442633987,0.10031674927525501,-0.03332737372064072,0.047908701981568595,-0.04864648831937933,-0.10204875064002072,-0.02452842385344609,-0.11007242173457188,0.01630156411677545,0.04785735963116989,-0.09086298191447581,0.10547450884048312,-0.012326131270711357,0.10835061271166516,-0.08257547681263595,-0.12696825412486384,-0.08970632003895673,0.0038657862014581483,0.047221827430082075,0.06016006552459118,-0.05420098842408419,-0.06853471941510694,-0.052049516666777686,0.11630777112622363,-0.07554922904228169,-0.07356153517619299,-0.17854817348596622,-0.04671857225941958,0.07279920824866346,0.021936500220970764,-0.023549810256377104,0.005002035587403361,-0.06663157449585262,0.0481640158139825,-0.02476342165536894,-0.07793628432787067,-0.13173632798418666,0.053901636767411824,0.03905689190801936,0.02556870846494925,0.005072924115113199,-0.020143188294922156,-0.07223198660091928,0.019341610660484176,-0.09440984349059886,-0.03179709117923368,-0.13177268522279564,-0.043726922397333445,0.06409691307119701,0.02980902888820823,-0.05992171321688141,0.05805108457532987,-0.21941112105141525,-0.09058129949049107,-0.06728101529057615,0.002744902755597806,-0.1579240950764605,0.00195636834685181,0.12348797616170046,0.03301384737400058,-0.09645811371963274,0.060361608671730835,0.004894357143647433,0.012242010239181164,-0.0216622009407611,0.027028219253705514,-0.1562497598977131,0.003118166941694563,0.030828360256733234,-0.08518218161867504,0.0663814110302852,0.08220685548428458,-0.07691151732073903,0.054067343220020915,-0.08384457238481853,-0.17198258830912405,-0.11342008237566321,0.09719843328762787,-0.033343469403096224,0.055665411088514645,-0.01648050702229848,0.11772291757723383,-0.10928525850960136,0.06071137690099256,0.03054659258295739,-0.15573729386504617,0.009882970975432849,-0.05665986170103421,0.0808133409067713,0.014331601489682608,-0.03776745944424104,-0.019348641992191794,0.011957205240670987,-0.0250140606675577,-0.039653045429661166,-0.006466204344139914,-0.15236633071567615,0.003921308345043917,-0.11510811003904226,0.09918973486502532,0.010667660895615615,0.03363502642143272,0.028734565720288967,0.05327670731625191,-0.22685941648560934,-0.02446371608856656,-0.16583380921528587,-0.058350061566280996,0.006153541935355868,0.05509205594888425,-0.028697147288574112,0.16651106392743015,-0.08945588852137427,0.016645041683664787,0.03704183815377501,-0.040022727559409846,-0.10918648664132045,-0.12558087618450364,-0.01156917149127374,-0.007867766664994277,0.02364740525738548,0.10045898074695593,-0.03466337641681191,0.06012525233704791,-0.11166340622238781,-0.04040437649296791,-0.16107755645796343,0.12431989420409495,0.05784693460536536,0.040535303352766755,-0.15784289259908618,0.014176182040741388,-0.05384224916269614,0.05572569907896222,-0.00698717745404052,0.052757625195796944,-0.09580272226137765,-0.04399274856158281,-0.012203689884989656,0.030764552735003982,-0.02746976550017603,0.17163475346894436,0.07151792618053524,-0.06916902443505771,-0.1697142579439411,-0.02125764901963934,-0.07504628534734394,-0.03177188741570525,0.07683350824783854,-0.12176547332381668,0.018632727249187336,0.2162456164425095,0.016664705307576824,0.06172136425410134,-0.1919855968538972,-0.08158392529814937,-0.13810484017699157,0.0035218560314175806,0.04982214701937219,-0.021961285827890885,-0.12042422650849106,0.03250010784098921,-0.11543995874429772,0.12897034783946273,-0.11553675606886976,-0.03946834969623032,-0.07381102509461022,-0.09447059422617786,-0.04174040946904332,-0.06745783422208113,-0.002010021113254758,0.08268547113450485,0.035404571457146816,-0.03466273406334902,-0.17811774711503317,-0.026593271224437637,-0.1967426306803399,-0.07440182080989399,0.04445714016419977,-0.022418906232803532,0.013120334162451052,0.08714020933873008,0.0007164037702259721,0.02779721308864128,-0.13208335985664493,-0.11008456952956816,-0.08033979545449162,-0.06803003858854231,-0.049937688213251195,-0.10238575800618599,-0.059634060098633986,-0.021661376215054116,-0.0356968594948748,0.0408185073905794,-0.20799531035818253,-0.02615918985173125,-0.07271908147374616,0.026140659623766202,-0.05061261294754313,-0.05941140493754945,0.006695398517672573,0.07291741763121366,-0.12140047380369212,-0.009423978864473487,-0.21198203009428748,-0.060738106293477936,-0.11161195034341956,-0.10993656857358022,-0.0006666381933666013,-0.06789792059826184,0.06213332078457731,0.1293611309884533,0.04435457107311733,-0.06450534857845254,-0.14824750549265645,0.05663310575775366,-0.003022228298697819,-0.1398097040335914,0.08301019593188201,-0.03730303153147527,0.03944141305613843,0.09954716141898831,0.08878011449359659,-0.007429097740196262,-0.14014980016213116,-0.05713471762504657,0.021137375663150892,0.024149673273745464,-0.01801948534153422,-0.0382153243602255,0.07885248394991655,0.02964638510774162,0.029872348220868514,0.061727400742182685,-0.13054327718531755,-0.033962470334307736,-0.09414479672525863,-0.10372425873315648,-0.02998447515076349,0.018408582688576612,-0.030993211906008497,-0.06955742595033695,-0.06933208683481612,0.016144942975938534,-0.08310321019764257,-0.006227637173058478,0.01210976785166144,-0.03126920912931066,-0.13138089772017356,0.015496890577210804,-0.03923241941336053,0.009939673176199522,-0.07050356574088261,-0.07599480588353485,-0.036544131847580014,-0.014338610241082458,-0.12940055981872772,-0.06624736502564425,-0.05520363414026751,-0.026071723004687374,-0.17682392821249757,-0.07725141828614547,-0.05278045354931301,0.13781605322038334,-0.03860430621551703,-0.05112947420629753,-0.21616137225273688,-0.035155356641419,0.027756099538081863,0.2136984257762672,-0.11606315528437293,-0.06507620600081478,-0.0649776830735205,0.01975697642110396,-0.12019203709704641,-0.20386842838113717,-0.2169249250391415,0.14105564462454204,-0.012162265418121333,0.15534404129080817,-0.22998960512587666,-0.12565553745464694,0.0227252991606858,-0.012858752675953095,-0.14349134848651013,-0.1335355028373415,-0.17686638225765747,0.189324558714061,-0.0691653030537069,0.12481570332282099,-0.031200530266381334,-0.04280659988247174,-0.021874638709468902,0.051784959736625516,0.24947163884637327,-0.2130641716590391,-0.05383459942522685,0.16325869625980605,-0.13864008821625762,0.2216189430404522,-0.038086992536132167,0.1694157557918032,0.00255777500478984,-0.1902104857692979,-0.12904085116937003,-0.00006368724551333227,0.03867915429622842,-0.06751003876515027,-0.004915381403830261,0.003086078405957311,0.018929546309822024,0.22932959630746358,-0.15420048657901442,-0.21549900143324577,-0.20568198642974955,-0.13884733509425626,-0.2970175524580438,-0.040722011360136395,-0.07143356585482499,-0.0311303891610385,-0.15851389058731444,0.058639988950415056,0.08290411007794972,-0.11564165276982978,-0.13553132459519573,0.30764053380409573,-0.011177127580560367,-0.014958005670720888,0.05137901309365396,0.007843302006149012,-0.4826951961641366,-0.3346562675816435,-0.12983744803345393,0.2210693649891177,-0.27678362227371345,0.27318424661353113,-0.4025256816620268,-0.1623069529651694,-0.06568767119702304,0.1770460532355721,-0.2318836425703524,-0.27314759389248217,-0.12405230289071828,-0.17854137569967404,-0.0499433056868292,-0.15769664773998698,0.019855896021066043,0.12483028739565839,0.22039977234113647,0.3113260605653572,-0.25960075411219574,-0.5408800316861022,-0.14548870820899673,-0.11609847639610489,-0.33674089691666453,-0.5250778993736214,-0.3580970078938894,-0.07189910563729035,0.3866706398476953,0.12998062576552477,-0.16414854593815295,-0.42196667049542047,-0.43203743223432284,0.31088432452639947,-0.15136155552447852,-0.4191319316539065,-0.3259155565301399,-0.3134674559728614,0.15958466619647935,0.0759813587283996,-0.05078511850965091,0.11545029231658487,-0.26016026535517095,0.2841473431143429,-0.25441162161527875,-0.9196097026682224,-0.4425339711064128,0.05592856089572551,0.07428133818209132,-0.07932126350054144,-0.06690657819648459,0.7381142967821471,0.07754138284185537,0.1904613398621408,-1.4769766365211232,-0.28572523739508676,-0.2754142130461952,-0.30550769629572394,0.03159064588477842,-0.195463434616815,-0.7193243331608113,0.1084687005560435,0.08718062109144932,0.6926112028485427,-0.7805598746436501,0.2729724832959945,-0.09458369691071739,-0.8636113761432327,-0.6292456695070339,-0.39382875907720455,-0.8413753339050646,0.8109325432861731,0.06293299421067793,0.4625645796512879,-1.4189903319121135,-0.20987103520582967,-0.012161555315978612,-0.21340402138728742,-0.08055260448807423,-0.0668001056508382,-0.3336208449290668,0.3570824558434422,0.11010637029843139,0.3348734251204421,-1.3845696632205573,-0.34603096380478454,-0.6440151863227292,-1.0928941807995973,-0.2293961929829059,-0.6942165567852195,-0.4651952526770301,-0.2532255723144899,-0.4805724129518627,-0.5150141356476728,-2.0737516140615493,0.5281382050092523,-0.33118341779234856,-0.19910440714535252,0.5892283508860426,-1.2132363017951848,0.21293999295325916,-0.5970306082017678,-0.23966925786228271,0.6474127285351138,2.3110260948961567,0.4447646536798813,-0.16216720276280594,0.9652099195162045,0.3869262658722117,-0.07207968744808224,-0.13292430701581878,-0.06026738176344858,-0.01493849431012859,-0.011837136820518686,0.02815416366880885,-0.0014875915246808724,0.06828056368753507,-0.024156279013676535,0.04782550847854973,0.05916424004305297,-0.08697733000325601,-0.06511493642589898,-0.09477911972523712,-0.07542795104695438,-0.0368180560349,-0.03043960636216566,0.0803746847809189,-0.02149601651701471,0.05979513098055575,0.10355776829774184,0.05078401590899245,0.01744061404829599,0.05722718299395903,0.04211583108160212,0.015933530393883066,0.04744688562540789,-0.006268986373806985,0.00014173393766865556,0.07178613168281993,-0.09756990664591214,0.010823266422429957,0.08866144499269185,0.01538558595372051,-0.12640944875681565,-0.013823604151330776,0.004461004988419628,-0.04508220031875479,-0.03853482797541455,-0.01221587928894741,0.05905405697031214,-0.006209198585465133,0.07357197147874571,0.05373600034434673,-0.09847589369628718,-0.007783719889569295,0.10305928351428773,-0.01086726018552985,0.05189271299196559,-0.10168865603645325,0.047822675056450964,-0.004587722836497062,0.023140975023772607,-0.0070402022754284775,0.03218623825107366,-0.06007381094993463,0.09206537870208222,0.09479899924395134,-0.10175565794997464,-0.13199165679089345,0.05681685132415069,0.07752800279004947,-0.022298389649068804,0.03705936106395387,0.04039663676721917,0.1107723242471142,-0.166836678650576,-0.03249357778597109,-0.044556273456299096,0.022636255477366276,-0.0221160877587638,-0.0647146382220991,0.07255176796842912,-0.08650344453313813,-0.011695543855513873,0.09743305479720192,0.04016013203167134,-0.08854533082624065,0.001035029175136827,0.051699887810099855,-0.009736623778302667,-0.04046601608068128,-0.03400082961950089,-0.0340529640916351,0.07581010516177918,0.028498596403527802,-0.04926173769400648,0.04943762181046865,-0.07639444013997806,0.09646544359166546,0.02499207995375275,0.061751251187028844,-0.0006782758834455846,-0.005259259750752033,0.017045469192741133,-0.0017857748024744297,-0.04018280810806837,0.09639448320953599,0.041976290535813345,-0.0002844275567237184,-0.012635183416982165,0.044711719469256346,0.12571828821868591,0.03527527598513052,-0.014815730754928367,0.06070544461461565,0.03999041781950204,0.039902274536371234,0.03032264529227177,-0.05541639810499806,-0.11072373333666329,0.0369920063183223,0.01171382565047216,0.056512769855835934,-0.039275305026130206,-0.03152081831701782,0.028005079166733053,0.02204934479184499,-0.07527630341451308,0.06245446336131129,-0.0003661833858684149,0.05298098940456624,0.040733065481944615,0.014920797005809202,0.05868303008321795,0.005952183150345267,0.04870671028330733,-0.04589205560795977,0.026826707254786746,-0.022013226321651817,-0.010880003306511342,0.05516257851115007,0.04875552558585201,-0.07035796009964394,-0.023311361337782804,0.016094902180285784,0.014594743553387012,0.03506677895658668,0.02766269913583083,-0.05363087113827806,0.01994746836255164,0.0649565390431248,0.08155079082420566,0.08575214414293121,0.03760785554754148,-0.003310049274259382,-0.018238352959100458,-0.07444177059299337,0.007014569175975415,0.030508046915031006,-0.020040466875818983,0.0446097059412344,-0.022930969251539448,-0.010004188643486973,-0.017861886180471544,-0.06880575587390404,0.001048834093058837,0.11237129019932239,-0.0004125320398416128,-0.0193906990729611,-0.061230032535997375,-0.02449697525259077,0.0728457464255138,-0.046553078200920445,0.04853165024893163,0.013215979604733053,0.018741508155786422,-0.015292159156159963,0.08254110683784413,-0.0008316869187841669,0.09807490814114944,-0.07214528126603925,0.04766768685676019,0.05055373589109911,-0.058449818180220596,-0.004771589063325678,0.09347424247910494,0.04652114072906706,-0.1046874635435364,-0.06703569473957281,0.01507007213616501,-0.019577185648453427,0.11886081780762053,-0.001295506987836407,0.0498461371186334,-0.09298468776534365,0.014766178070723918,0.007096574778497075,0.02453458169617118,0.04706316591523028,-0.17747195428596343,-0.00009985353289291515,-0.008921420313964715,-0.013916870162882945,0.09371392966884573,-0.09287103244184901,-0.0179556562022238,-0.06933964770584769,0.016628100925761228,-0.07880437730123156,0.014790576805721073,0.04530298029051719,0.022841931960547204,-0.03553819157332101,-0.053430872607974696,0.015339651779638424,-0.07230469413566498,0.04790402478104513,-0.06266736969943483,-0.021799696639403347,0.11983080853999858,0.024881507288783727,0.008699135097949822,-0.07121312991770667,-0.021477768633780557,0.015014674972584064,-0.05484728976279052,0.08700354118451147,-0.0030597413461451147,-0.06400907485850847,-0.00204709908385196,-0.05067956372594771,-0.12802472292643563,0.04357899475357952,0.032415417598637024,0.09546192782867657,0.007550264004920168,0.05094137801349249,0.028626361038436268,-0.09311662115868143,0.03524340681996683,0.04615633403172488,-0.003542386367841328,0.059781690734099974,0.07601314019080445,0.014591356797713511,0.04536370549885039,-0.05942050018056945,0.03415311274282341,-0.007961534627337456,-0.04535010201989501,0.037331165225665874,0.02520919663355548,0.037660504595513594,0.03398492590498856,-0.011490541808562503,-0.06382513333372022,0.00443668858662927,0.026119621570797683,0.014351705047909887,-0.028845484171418898,0.0622878949630322,-0.0012117232784857029,0.01452593220135144,0.0424191208135705,0.07573415609004092,-0.0486904169057893,-0.05583761939185554,-0.04659540421345079,-0.09440078237616881,0.029898742658569313,-0.01967563967124912,-0.06738766273243128,-0.00969280807570226,0.015236862757995195,0.061171325406415705,-0.02117263429320936,-0.007324906887048635,-0.04964665926806049,0.06279274612650813,0.01974360143509855,0.01610540459885569,0.07694727101988492,0.021416800196466787,0.04880455297990168,-0.0880527060659569,0.015046612526718213,0.04752109766680256,0.1112205991599433,-0.006443549701445988,0.012572587395000149,-0.06906138481046159,-0.01783216362870289,-0.02877846246679064,0.028669562303504995,0.06460276546253955,0.0735442655037771,0.0421536575856149,-0.01089162697048784,-0.11256615416426508,-0.09410093013058643,-0.04529117486686848,0.06125003569745059,-0.12518599458971802,0.019192357615345466,-0.027039336875055314,-0.07819434475765143,0.08630615593563279,-0.04554520373972971,-0.008390188875943165,0.0003182192528967498,-0.04567607780062192,0.0010499661380054103,-0.09946937893580704,-0.03245801469716064,-0.041372401533565806,-0.041457981590288503,-0.029830966679630446,-0.1212153062803459,0.037201512866005856,0.041086818324328575,0.03843981723995542,0.03566232093244955,0.009215214725681929,-0.02313733359756538,-0.024906256795619232,-0.006821183054188557,0.09729631665205268,-0.05772914599661364,-0.05838565729800768,0.09796570639307528,0.03376117105262533,-0.0697514026048558,-0.05285722937429462,0.004811950310151509,-0.04168054458300719,-0.03207677463210752,-0.05389587942781199,0.004055300398465246,-0.005637815888706637,0.08506917374157667,-0.006190033328778089,0.09736189160929057,0.007797838281450288,0.04794846949498788,-0.010288938581232865,0.0026878116300395115,0.10462651151662196,-0.045671987269337216,0.020662361835084717,-0.07238125005747066,0.02045251969296015,0.017474243838782152,-0.05324830721400055,-0.02470254148174973,-0.06027071009338637,0.03955937256407486,0.06525372664249478,-0.0730948894475542,-0.010002794053168566,0.043194508347600025,-0.03602961470263617,-0.006199740139200172,0.013534226732099476,-0.025022967650259773,-0.017280099029580814,0.016388262521930468,-0.0635853690574108,0.08172068866024856,-0.028511213589485076,-0.038638944673769514,-0.13173045762439747,0.020951702429381252,-0.03081324264216353,-0.0802806033734657,-0.08469174049001428,0.01067938969556621,-0.11206854361089173,0.018366044983129746,0.02409308349157011,-0.03008455327621737,0.066353223070172,-0.01875278254055008,-0.06044600620356477,0.10702780880393284,-0.06208809556995149,0.007101828070046291,-0.12391916536336939,0.07963224958404583,-0.04854160843782155,-0.0925204565199752,0.005832090333096942,-0.004220119744250136,0.03529632778756844,0.034095772388983044,-0.013188266571083171,-0.04960340754829701,-0.012862794057681808,0.009561372786209605,-0.006366657769237608,-0.051695851827379145,0.022311180855955192,0.09056259333063939,0.0157960075054304,0.021532159030924893,-0.15931082855272793,0.07048187935011896,0.020021121431860515,-0.0883122122327726,-0.018046654209478718,-0.0036868942140172623,0.1086087026898432,0.06458899336756181,-0.05419854744793877,0.07085549820160349,-0.11593658492267828,-0.05185890284511211,-0.10890643398227537,0.08543903810697924,0.018689104954057227,-0.07012187746397436,0.07327745593424409,0.17568940348346954,-0.036670017895076824,-0.017925840417779566,-0.09831655151401392,0.12028728923597697,-0.015476316996905855,-0.026499154364566832,0.06481257325493577,-0.10802167603473221,0.017807444643119136,-0.02940311346554392,-0.002488884390208899,0.08052244880684546,-0.05914191574542325,0.055312867695457006,0.05242158199428889,-0.029915283373467237,0.001563650323646176,-0.03971936963533274,0.044933334170730345,0.038063404801745186,0.1704626557201881,-0.1669815023780168,-0.012525856073548652,0.07602861219003605,0.11532434555538044,0.06766962104530129,-0.019318168852961608,-0.05124506443742067,0.10028896737812944,0.2106071350253171,-0.06895756898479209,-0.03896802428682226,-0.04816372780658515,-0.05463677172522524,-0.0021676476436484986,-0.10156869613544141,-0.08523660841352015,-0.001830250083408481,-0.09861311774751817,0.23045395512963762,-0.08110155106359596,0.0027662813132868736,-0.06867159139628055,-0.13247323341702527,0.013974241300297629,0.11072949980231532,-0.054986071251491644,-0.03202625422645541,0.20108429082118548,-0.10908034450922893,0.07781010191256331,-0.05237237749145618,0.03334871539611217,0.40440943499830534,0.4976090913945765,-0.12426204795129653,-0.13179102979145596,0.24202982835690853,0.7144413877832915,-0.5754638503360486,0.24123342497225153,-0.2390820447281692,-0.6285212245346403,-0.0068003084333159375,0.11528578685772925,-0.7482370049685898,-0.03618100958589198,-0.1580951687222312,-1.0026076625203726,3.083596685387918,-1.8106434270431446,-2.2377005198901756,0.6938621401113685,-1.1990389971768778,-4.010998362315437,1.2478352385237712,2.325751477007037,0.538720016750713,-1.2438553088223439,4.633185254925029,-0.08752196746613908,1.2680076067000168,-0.9662478308288326,0.8380074446996235,-0.6423917170500273,-0.9686183965677109,1.6654304597866598,2.2717236262632285,0.04529148180964239,-0.021538415498788058,0.03164691867826204,0.09449971897753591,-0.00954519281425685,-0.016598118759112348,0.006386460898236172,-0.09942575969966974,0.010067039270206312,0.04275365404494038,-0.050103043120348516,-0.06032117341858162,-0.002417182727036856,0.007994911644991902,-0.08815664069108703,0.012489149992467238,0.036040809325576274,0.042178194203637255,0.058604308625148795,0.04226091766657904,0.0138123843331448,0.06247867596331167,-0.0413767797840202,0.028807960233043956,0.11880400396541534,0.02685343802262803,-0.01841893398166587,0.017125804008260522,-0.030693115201469372,-0.013719496201703723,-0.03446014034362927,-0.04119015584833096,-0.04816358053707688,0.12842896333451956,0.028208421157502973,0.008778722837600363,0.0237635454494667,0.011059773268107838,0.08105903366376442,0.0024097332536431133,-0.08444989239376531,0.0309658160802275,-0.01834949083462098,0.015888881063026977,-0.02603184700847235,0.08295929942505299,-0.028828118137444608,0.010972489054361791,-0.0319052376477163,0.023016533543712733,0.11474802966484124,0.008533650750895627,0.11192578667874299,-0.0174042380216924,0.0781280902585999,-0.015076490933798231,0.08752916440873376,-0.03545547837517601,0.010969752889546838,-0.03531538547965822,0.0007750391369207372,0.052131631473116884,0.08860915768777343,0.06866312930088159,0.0018239563033253874,0.05820730287299875,-0.07714414725812445,-0.07790130483114723,0.1656795727983221,0.20082994015357641,-0.05152297010855536,-0.08206551791932941,-0.006224462422296522,-0.047922846387091975,-0.022461780410195715,0.04504297842180945,0.06523418891462542,-0.03981453601702484,-0.08603361691090652,0.02837688950375552,-0.035817770785470805,-0.007856927687471134,0.0024947910377600274,0.06544936373284076,0.04715891922982761,0.022093740150164062,-0.010794926287828969,-0.02619382356987431,0.0008493685780044793,-0.06675547459469047,0.04968978812217646,0.031096087775515507,0.03913562808686982,0.017216203594987944,0.11191881182289014,-0.04255693830740507,-0.0030743836612647916,0.007229236455839487,-0.00036527037613891304,0.008042590635549123,0.012910947547516493,0.010534656050172602,-0.03256902204880083,0.06831738301779862,0.08216510344709695,-0.008603275705925971,-0.04079984123966591,0.008538443850413786,0.02598637390248131,0.0038193173454142927,-0.005681621994549543,0.014242975493576459,0.023026211922742026,0.03177100997223669,-0.0175379746103897,-0.03425545363575572,0.010595034982169703,0.006479099186102669,-0.042681633301441355,0.004046163829919703,0.024324296445232846,-0.03306764244840692,-0.06766868788167484,-0.03547546164139756,0.03745446683671416,0.019722345408838795,0.0382044123603785,0.014938886728153225,0.028727165788511953,0.056775655576246815,0.015581292311396537,-0.1160796206139183,-0.23124374958628444,-0.06728706374925766,0.039615690780953006,-0.0016478116375173036,-0.013362822384065455,0.0490003108307478,-0.05836234739461582,0.10875729148951328,0.026988737331439673,0.06240637721501426,-0.01062725107851889,0.05776599686871743,0.0874764058197668,-0.02649576278607446,0.029668385270321423,0.04158683126380572,0.0601588456600326,0.021563021675134905,-0.05717927431665248,-0.05078453648827627,0.029993636970369074,0.034355627813175436,-0.057614361926038304,-0.0389325024130347,0.063875382115127,0.06087196395454732,-0.08549381134050246,-0.025456524225098153,-0.007919142656370542,-0.06815801374610085,0.13821024937459353,0.04532182801011506,0.03766137378423806,0.01270177098174081,0.11022268108615287,-0.02842139007203116,-0.03621880513226288,0.1362143919617393,0.03815414477565017,0.05401835747558129,-0.001957272040216,-0.059992132149442386,0.12163053839955731,0.020247654253276397,0.05249804455326855,-0.024193675218111,0.0008659831560251056,-0.008054413822742261,-0.024527485188192207,0.01218571179002577,0.09404533605814532,-0.005705622644461145,-0.020293841769965425,0.021990488542556738,0.02862060973705671,-0.09005501286145834,-0.04134409274767484,-0.009120636080028527,0.01040397640920242,0.00044936050213783207,0.018996049335592288,0.0012866628052963522,0.07612250882778772,0.015632202339545653,-0.016437579741806173,-0.017291249621082257,0.006045574364423204,0.0015939119697169612,0.13993896865886826,0.07678669967932451,-0.07286858869968425,0.05375713098917039,0.07116623115454745,0.15368831852330103,0.05372435545080135,0.029319554173541634,-0.024343376602515572,-0.022533686681993993,0.03574836551368029,0.05756722046920969,-0.04011707970496981,0.025000842861071407,-0.04663925301619771,-0.03490980520251993,0.010311832807730676,0.012732641976355248,0.0286984343201375,-0.07627614982269688,0.02277703880965058,0.02450438535033265,-0.0458218010314113,0.0013704946367382933,-0.035432839546068615,-0.07431873351524508,-0.046724581890035206,-0.033748174958757524,-0.04652296364736254,0.005346512942067049,-0.08647450072591811,-0.015830202743545026,-0.12623856061402,-0.033155027745327276,-0.021830366634659055,0.02939674088934095,-0.11346861614465993,0.006137465946888299,0.0023581541386627877,-0.09644949654412448,0.058194501021066665,-0.00313944792310139,-0.01617972183466212,-0.02475813799604091,-0.005163657928071298,0.0864719245999456,0.11169246770840395,-0.04199248232841516,0.06678837019114907,-0.007993979473713659,0.0269430581705936,-0.05451159439833886,0.03786504528770043,0.06663209858331091,0.16016363008107085,-0.026486138973256974,0.05792584588036591,-0.07978434726521466,0.03577427169453087,0.08298837941969371,-0.00096812162788381,0.09344110855040902,-0.053709808885166084,-0.009459584581580648,0.04169525506560386,0.0038796833195976193,-0.04634121755140091,0.07849320297807034,0.02185174611802765,-0.03953667128835712,0.020744862047715782,-0.006415453200435818,-0.026361958760262115,0.052154312976327014,-0.019635481107808512,0.07772848911324479,0.013566940579003407,0.06479217946930588,-0.0433320870775799,0.028937869064750446,-0.0007026417452348013,-0.05221569862074112,-0.045489856438040877,0.006489451537805868,0.07839714944041674,-0.03904766178036577,-0.04296728385395878,0.06646308464345708,-0.003176930887916069,-0.03572477794345085,0.06958089552479303,0.03988843577106169,-0.05630278219076028,0.02729441913775741,0.140782173590337,-0.05203382952128457,0.13099759786121273,0.0009738518890354601,-0.007463624038235,-0.007426773617180136,-0.05812124995131248,0.02403918918711027,-0.01079196322573329,0.07703603691228134,-0.021497877479380915,0.04559506010053294,0.035775296905978735,0.01520868417397868,0.10484222704665971,0.018153292930328822,0.02535694177741474,0.08931412085530573,-0.07654292274558644,-0.02362867866374889,0.04992876505097808,-0.047840419158432616,-0.017469867961145608,-0.07450546305513892,0.09343149316931885,0.03152239818691477,-0.03325822881967188,-0.043386541726243476,-0.08940538521225261,0.08237816049356118,0.10186026827595335,0.024883300140275618,0.040998945737751,0.05564834858881372,-0.052249880960920085,0.02517713099004728,-0.033778508549120345,-0.048309532175057575,0.05041991721291378,-0.020512136043491124,0.10516934662073088,0.010804721044245773,0.016015646011023364,-0.016177398617122966,-0.022078069245296185,0.04146699516956735,-0.07044144721457365,0.03289960329492146,0.061446751655844,-0.027605998611556548,0.07832199400096158,-0.053425870341957477,0.007502399824399567,-0.021287031781368544,-0.13328207864355635,0.12063688221106982,-0.06467739578502515,-0.06703433778484548,0.05051041812527888,0.007444801188916237,-0.002834296461469258,0.007531565303679751,0.009818342692624542,0.015289800406383135,0.10674909022720479,-0.03825782689743164,-0.0033047042919745954,-0.059882183017798504,-0.08700912960549873,0.05293741597119935,-0.03668548991143268,-0.02786116346092026,0.021264799480317384,0.018684097721400138,0.04504242291330185,-0.04728743615846101,-0.07061882301839115,-0.0758296240435493,-0.012902234314055992,0.023352530977353757,0.07121027124940113,-0.02163321357956292,-0.02163419580592053,0.050747874954111954,0.02119761635347857,0.03927460690488136,-0.12086541099571835,-0.05465725831487759,0.007193214630542693,0.04301059807290264,-0.06571753547381283,0.03528062467389584,-0.049922992377305436,-0.017699117602084775,-0.03678149007239113,0.02458822007630846,0.018134431118651755,0.034418812774122697,-0.041795508636771984,-0.037390956079001836,0.1464529377613143,-0.06733030139451644,-0.023732310806604547,0.038978748090035674,0.06779158094519218,0.12294487421352203,0.01387327005922834,0.10903051776099572,0.017511645491982235,-0.11688602897172287,0.05590210347973139,0.0341746786935058,0.21730320427377012,0.10098699025496581,0.028037247244986102,-0.11169170114946939,-0.053530339663366316,0.05355998852452846,0.0630036514583857,0.05041263871142167,-0.13012861782699262,-0.10189358906300161,-0.06623644673588741,-0.14218034918449196,0.039841242493910765,-0.12936654324236255,0.14983230787986415,-0.15026863242677005,0.020218113450785433,0.0889710662102094,-0.039952389832516616,0.1012597085182117,0.11550011468544398,-0.2136762293572436,-0.022886277517436125,0.09385558370356661,-0.06586552100122613,-0.12393899630991487,0.07106536678276842,0.23733800780450912,-0.16400254810077633,0.03910986480007865,-0.06313878669615905,-0.023491294516652966,-0.08212557398693902,-0.014262789343050588,-0.0007781339480070513,-0.13823012345986418,0.03597458906432229,-0.12824849023655785,0.20864196166657079,0.13706635146108637,0.24599132626202527,0.19898454781978112,0.14093849875407857,0.13623977080303581,-0.17852871478525562,-0.05485558491930802,-0.04616710337386776,-0.07623987279366891,0.13639151591521048,0.08478843777493233,-0.07035479615693087,0.10671335235445258,-0.00017490157337481595,0.30817040406962043,-0.4008245619703688,0.26029795560600455,-0.05346039554575873,-0.2267622745329294,0.00875756441956769,0.2296948529554681,0.33494426566999386,-0.22662866165495416,0.21793910791345705,-0.0324256218059289,-0.08735028027677912,-0.11223073036353606,-0.03937805729692641,0.17392183270920972,0.49429012191656396,-0.5910094797825193,0.15065931072999703,-0.2883232931501915,1.2050407085141661,0.05300564214808691,1.5873995821505131,2.2165638057698107,-0.5375035486418257,-0.6268061794658559,-0.8844786535580405,0.5567418613266927,3.602138505187338,0.03462459771626379,-1.3641303306034724,-1.440222754926007,1.5915016837871205,-1.8056281926955011,-0.7430991477775063,-5.452335967838672,-0.5336095653521834,-1.262889155526245,1.4433361962922349,-4.089599704677212,-2.0378341457985147,-1.5776035185746027,0.037535315698714856,0.060630159772698033,-0.03354630534426254,0.024666783772992248,0.07724242383289552,-0.00193158431381073,-0.11577931572722085,0.04971934186151341,0.03021492834789906,0.00018313066963035143,0.02314392950636416,0.04187192510422872,-0.08844182898487928,-0.15107727453766912,0.05105877324929751,-0.07132500070387746,-0.005837451367249584,0.004634409748521505,-0.047179544251112156,0.04419078994491922,-0.04446464076138777,-0.03818140975436049,0.029836297742167523,-0.002925182581045395,0.1123332076826474,0.0007975946176677599,0.046634654935762555,0.08275904840132006,-0.0548884564214251,0.0031559691598292794,0.10547929266920751,-0.003913278057346219,0.022069930677896275,0.009054968566607856,0.05620414729822009,0.028367901851680314,0.0016138726927746798,-0.0004312218521171786,0.011538865555611039,-0.10133920932749152,-0.04539036711191178,-0.03636738082104,0.005248796318465991,-0.011409254312224884,-0.0018725235309048937,-0.009014372423832868,0.08599176498843883,-0.00919572128768427,0.025631076130766477,-0.03286147074437679,0.021644659978931,-0.026902488019424374,0.013281847058113026,-0.0584982301913297,0.0730840439263809,-0.07356029648678564,-0.03496428229486981,0.07173950143877897,-0.14813498980140563,0.00337154129578255,-0.036512952214871656,0.07067910280937179,-0.04046207208596711,-0.017964839737938873,0.0698264390205006,-0.10356715881237287,0.054775826968765276,-0.05650008598433886,0.04980101892867276,0.09383128964785493,-0.024330142308028217,0.004927716065372773,0.0631824529488786,0.016189228376301025,0.04316711005008674,0.03925190685862926,-0.06524043464830827,-0.06265461221322134,-0.036442279705825205,0.036360567762437755,0.01064391875399268,-0.06806785814312415,-0.03179928936165688,0.01048223560292294,0.07727336396918798,-0.019049264534781795,0.034963868816299225,-0.03826654126721493,0.007909848073352717,-0.013056578767450143,0.08828119162782491,-0.09651124521473618,0.01538495210363386,-0.1081930660626896,0.024192196882670585,-0.019592585071404395,0.14525209036937203,0.09222896045486124,-0.00972245347451717,0.0709306869534508,0.01927746389660719,-0.018425570013441642,-0.1901268897398516,0.09073523700729948,0.05628278964941201,-0.021374649774839834,0.07504065512549782,0.006107299960504278,-0.04236254311866525,0.016047123543896754,0.048387267192770006,-0.11269165409798149,-0.030270430931162426,-0.08603900589820167,0.06883756133886826,0.021402032633465733,0.09516098581309852,0.04666665367718431,0.04392091703908699,-0.016792982228125947,-0.03095414689510403,0.02735178661477295,0.09448089128679865,-0.08915707660089293,0.05911522535479074,-0.035057032829694634,0.09467009647958384,-0.041108430876285976,-0.011192806328473416,0.03230712328108479,-0.005034501531092585,-0.08078329758804526,0.06104235393529839,-0.0023900458995550046,0.10276469251978693,0.03433147102469545,0.08232037781863412,0.0034699404990549084,0.07371270075843173,0.052760828272670875,-0.02519713879954386,0.0031504453439627792,0.11715868611506292,0.06927214623298243,0.1312177278326056,0.0681261106671039,0.141776332607657,0.058670438505378154,0.07407306624590135,0.04491616818538795,0.07559696789896732,-0.04829993139682725,0.14844761987239818,0.001840728071617097,-0.021760091583769473,-0.05161787001284385,0.0932119324582334,-0.07198887974039937,-0.11150896817029421,0.07001728189648543,0.0006935425412389297,-0.05077577420730595,-0.012872032808731008,-0.003080406984349149,0.1169875077613516,0.06430458816009486,0.13053817285279765,0.09247626892780415,0.02824094447925768,0.020484417998265236,-0.02139252265976467,-0.045154236117525434,0.03910018709094444,-0.017882027529876506,0.08762100272006942,0.06446998036132942,0.08391835151881191,-0.027059743630471814,-0.01845702309713839,0.05803610379167125,-0.016202082832572875,-0.07710928795090405,0.06568228039336163,0.16830759754307031,0.06894637202983354,-0.05863352208386881,-0.054165615139833936,0.038355890795362266,-0.017507268945226917,-0.03506931941868625,0.10557716513181425,-0.040665408377139105,0.028313122540822473,-0.04019860170144528,0.09072135674552237,-0.0051383699120347666,-0.015822396522684072,0.028705480872500026,-0.01913271351398632,0.01817845298316667,0.02506975159673409,-0.12343104341888911,0.06777241682768669,-0.0022214493905320567,0.16025689039097318,0.04548771408060958,0.013722560666772157,-0.04480049627693337,0.02347203095193817,-0.05288690799962888,0.0747692733703628,-0.03159251321976192,-0.006783466921002211,-0.03301511123056984,0.09382629881229318,0.09083975764237133,-0.06237090678028896,-0.03797004021777437,-0.011931725010727019,0.0012011370353902774,-0.027356519435144815,-0.03737566783607339,0.0719255262112748,0.06407308700190613,0.19052006946624855,0.07534503594218989,0.020633833694681317,0.1431694238789749,-0.017936953906539124,0.020103064119212546,0.07931839470368812,0.10257979589735958,-0.02515403993478778,0.07446582021953188,-0.032825130117357264,-0.028752313525061007,0.05692415233491183,-0.006920257757512865,-0.11257928214585686,-0.033856423980274934,0.04536013921319548,0.04143722652819074,0.018431097378983324,-0.027506047941858246,0.19755782606101754,0.0076033096535361505,0.1164235334920428,0.05696532474931779,0.032602966922582646,0.008417733984920375,-0.017554483004301576,0.0005832793964602788,0.07072331523028437,0.047600693761144494,-0.0306605144182225,0.008732518058890287,0.07172232562905273,-0.10425964533319157,0.038112584732166846,-0.10684511190627266,-0.06515637289963232,0.010087759118024717,0.12890065641403206,0.009323648082101973,0.05641508617432698,0.06164838694945116,0.07731477340321434,-0.0291596430434288,-0.015284535580361252,-0.166539413898097,0.05435306549571798,-0.013418063691394864,0.09946359094876323,-0.04323871524824888,0.0038290513400977663,-0.009440181237779838,-0.0052061334726361585,-0.030191683723228217,0.03371802448418591,-0.01463735176403175,-0.06353701628822149,0.06993526017219652,-0.06764966546289031,-0.01359788590796373,0.09407959710374225,-0.13147237179649066,-0.01786671928402942,0.020249615279161932,0.044650160678664536,-0.021279352932418994,0.0184073371003058,0.022108946665605,0.06349374339586839,-0.11239695930941003,0.03255049135462665,-0.003764630263545248,-0.12316537912982012,0.025572776823109884,0.03637567693691362,0.025332489274237435,-0.0768610038200343,0.020923408660415695,-0.027900227627325056,0.011380881425159176,0.08068270144625482,0.10632289597441014,0.055393535376459274,0.06428233389336299,0.07472678417430109,0.011083607959676854,-0.07108107529084709,0.06716471081906356,-0.05160959464629163,-0.03167140755601393,0.09602012053752776,0.06661438362282496,0.032142465964911666,-0.006929229932385134,0.1322138708653988,-0.0017788426845600869,-0.06164511853943099,0.09911102423203609,-0.0335073426525474,-0.02438561008186017,0.10474303470096587,0.029228257855581936,0.041816610988766025,0.022016249577391296,-0.05195835480031637,-0.034337262148924186,-0.014395960874345392,-0.06194954108598821,-0.14516537432325063,-0.02465044824936626,0.0010541972275879058,0.008086364745179991,0.047613147612074684,0.026383072865730755,0.05406933519843848,-0.09357829887264922,0.019969411489802035,-0.04027415312187789,-0.03348436974074375,-0.026781952925058982,-0.056913048086606376,-0.001934035907227366,0.06326528955850745,0.0037682352876289463,0.01112000756512764,-0.009037789964862607,0.013828404150057415,-0.033535300073614174,-0.09961486907499859,-0.09755580321298406,0.022509451638642028,0.02766352138326249,-0.0796949394415906,-0.021687135193282657,-0.0029021263671722437,-0.09513447718888866,-0.0580782661751021,-0.09403792615543692,0.06759061777519873,-0.14584693646315272,-0.018840535599368883,-0.07040760943283579,0.11312096139029823,-0.008544809635692372,0.05919385064429162,-0.015344435793974273,-0.12441209404618364,0.035834355266856376,0.005609505787835028,-0.020916771550237103,0.08184079545962235,0.02672392564499912,0.01416953565899282,-0.029454631388298125,0.07095630266520261,0.03649304630299467,-0.14015446714115146,0.08479272916912348,0.02299354445483047,0.004540479479019032,0.19331122502582535,-0.042131515797878855,-0.0036660752852330654,0.28266779547398835,0.0011493349269773294,0.0341210127624057,-0.12654577492375563,-0.07543171883538946,0.1398555851651614,0.011908882644868052,0.11570229408560845,-0.0646493618680353,0.10811106839696402,-0.013138282125122448,0.002880483350065978,0.07796947522611013,0.12071933538119274,-0.024114979396718597,0.03558615446588657,0.045064344531633355,0.07437468284501177,-0.09673285492649704,0.01513637822394457,0.10560846463284129,0.03523197528755835,0.08969926201742141,-0.024662460574319582,-0.07913110948856929,-0.01995687172045864,-0.040554518490713405,-0.036232903333569225,0.1401415473997059,0.1344382356654131,0.2332329833111062,-0.043389337103463835,0.013582594091508242,-0.02057303154631182,0.151229532114258,-0.053353381022391407,0.07932543950862618,0.010844917916674248,-0.06577355303441142,-0.07628102519023665,0.02371202338487643,-0.11518199645473395,-0.02445310412244139,0.12953961379737147,0.023756659223560576,-0.04068691612504306,0.11285019055911213,0.04337142670478305,-0.0907577304101848,-0.06858216460363745,0.15682360654565164,-0.01045316831291364,0.07531186848930192,-0.10715156662498003,-0.05943079907068406,-0.02110249721766946,0.023808458434714325,-0.021383292583930815,-0.08240700281590334,0.05725156747212133,-0.0377762329775003,0.04290898927445064,-0.05665165367692082,0.026626213944396612,0.32890892548329315,0.480249554072123,-0.22862959813857234,0.09532186510605055,-0.23814167073831086,0.08425563017534876,0.1536652201290641,-0.12755282854867242,-0.041274423644984924,0.07465193091819784,-0.3418001290435258,-0.5786837051625375,0.7180637792399465,0.6649371956685364,0.29001455641731366,0.387331351399267,0.053206898080700775,0.26492831517980714,0.15891026544059986,-0.20598831484830488,1.6899894234039563,0.08768591468917811,-0.9535473380824095,0.4951273041640645,-1.9890626842069015,-1.0797134119518883,-0.7060004104638556,-0.4367025816845327,-1.5634339128619645,0.33066796344422783,-2.8878970026273953,-0.6095295510692164,2.208268219006358,-0.11358446470055013,1.7000118178376977,-0.1143441598859955,-0.13708001814683593,3.9717787668772164,2.8812310118229068,-0.2964551200790715,-1.9833151278440355,-0.17567371021481318,1.4939897676920693,-0.1149795321250815,2.1560381721262916,-1.1221382182817834,2.1472087322949993,1.6289887351016141,-0.9283297997537264,0.08754913251351483,-0.011593056616731693,-0.09575055553808669,0.0072718519225876185,0.03576541096783606,-0.0052670072016752926,-0.12277015608682462,-0.13023546817076895,-0.015009256538970952,0.0950269086904945,0.031081496420471238,0.06841073691249934,0.04415581028806882,-0.034862795985819664,0.04777094417065953,0.022012907864906273,0.01337412196643848,0.048151237588060274,-0.023092764273413453,-0.02731318148447461,0.00869330961774439,-0.023460896530925902,0.06921197362405268,-0.019061233600097996,0.04099871308914366,-0.004349222045808914,-0.04991827702442351,0.0009263881335967236,-0.027755421463639806,-0.012447505894264058,-0.0054034065713936584,0.085549479349817,0.05973195405075601,0.050139760210791265,-0.026954504743787914,0.0967408117962519,-0.014135193306690075,0.0421932044362008,-0.04472803597043993,0.06765271214905554,-0.013096698624057133,0.10397304411613782,0.059954061113565826,-0.05156910743714668,-0.10201234699636942,-0.011412873670064095,-0.030769934629754702,-0.030563050992368453,-0.01708513066039008,0.02741975623383188,0.07232970933685166,-0.06477637485783216,0.022787825604788876,0.16389151439809377,0.01351975869778397,-0.061472884507522516,-0.04251126292563465,-0.14861419134533085,0.08438165509129304,-0.05085812924224352,-0.09753304682050969,0.012350334750568381,-0.0786946385175258,-0.07632191513427242,-0.05868493366488833,-0.07223135787122573,-0.03581027478585612,-0.04756657624479875,0.018517010057131966,0.050083802647727375,0.0038126666000799945,0.09215594852309088,-0.07150893653206337,0.11542412862814143,0.004353497320831135,0.023100810080593483,0.009253049977396904,-0.015214363463954614,-0.08005706252144673,-0.07097934905782348,0.08706888952867431,0.00534385094827838,-0.019083693492833523,0.004903380929719703,-0.046769086278023876,0.035743419921405374,-0.01633639965199965,0.041870272715815234,0.017574162189856274,-0.021861350748185425,0.04135541290527751,0.0241181646618302,-0.07356283659513563,-0.018554100663665585,-0.051953291122858514,-0.054393891149458445,-0.1623557838828607,-0.08679719601849573,0.09030576350896184,-0.005802473954909741,0.040946326148707676,0.076850420976151,0.020650146249044397,0.05486513548106934,-0.11201323861543137,-0.00951102871012984,-0.09186264523945381,-0.05020131042320011,-0.0926340628679861,-0.11603810081566518,-0.07175788406144441,-0.016927466137090404,0.003255928248413151,0.037298410448329836,-0.06237063657173175,-0.03530104513456188,-0.04569188166873366,0.025419571527244413,-0.06272632321862294,0.0664623973662225,-0.10434171087678565,-0.02588951025647332,0.07245886969881173,0.04613885474568021,-0.06826847623719551,0.04522932065445098,0.06087692740866955,0.004120172542521156,0.00019181962114447415,-0.035973325220653496,0.022454097163684992,0.08072863798027465,0.038588643861138305,-0.04811308278416018,-0.06045403923874835,-0.060813909026737244,0.005042522024527186,-0.03851905154711566,-0.001130084222823593,0.09936483680356792,-0.034779450376132094,-0.03754221599920045,0.03028528356638402,0.03159919078642281,-0.06311591518915548,-0.005007824834132953,-0.1401428854552086,-0.12107982703619956,0.11164525073277966,0.006574120503249603,0.006016087466123889,0.07076616565753634,-0.001114265647651546,-0.09986851001527153,-0.09605913226064554,-0.060083179751255655,0.03252086618985281,0.039396722257847294,-0.005999172381438831,-0.006051376740206673,-0.02372687744978188,0.04791460487291334,-0.07950716456357207,0.10837609757829361,-0.13072125177542487,-0.021349003915908348,-0.038434511033528275,0.037422306545875396,0.013661390287104795,0.00898181537053747,-0.041825884535295094,0.08200443600596365,-0.09242942119226707,0.055849930503438915,0.0004030110374883747,-0.019754034371040147,-0.013673529197377054,0.013647562638460514,-0.11152238419251079,0.08472614032172916,-0.01998560210682129,0.05220553210343657,0.06915055579907724,-0.045809215222876024,-0.005241353651786386,-0.0486762426134492,-0.015031177470396338,0.06402446298660801,0.012255231799204335,0.013924869209794454,0.15918176593686204,-0.06038994359856672,-0.006709740388389765,-0.06371711177663675,-0.028341484218811715,-0.006429401648431198,0.03836314260566352,-0.02022615823925678,-0.06950742321354356,-0.028047030709650186,0.08071616694492308,-0.023713443835958713,-0.08095897910277128,0.071745675059908,0.0896728738675633,0.09818503460585312,-0.059171926404766484,0.04981119120905165,-0.06492831465668865,0.03703887461317112,0.0680469488977159,-0.007488955432280443,-0.039927193372113375,0.07144824577095624,-0.025675856621289933,-0.1360864549120647,-0.0759975771594138,-0.13966425677015565,0.008465798018834217,0.0029536979293094522,0.0689773488347422,-0.1034387708843146,-0.029053076708524025,0.011200717328549084,-0.0722872708823078,-0.1490903608074659,-0.08652112816253034,0.06406046287669201,-0.10045800687963997,0.045978005050468916,0.11927619455514142,0.022004255601312344,0.025292344180226446,0.034231338604213554,-0.101438429317713,-0.029435313948452863,0.04576756613449215,0.014473492130505345,-0.06263982949468501,-0.015143860755000607,-0.08776731243242504,-0.004771344844480302,-0.08129725805491143,0.07709232441937208,-0.08362505973265334,-0.013635887158635188,-0.10658244514663165,-0.0765988478646191,0.026671657215089253,-0.008269385419562044,-0.05504350108820549,0.007389427578270403,0.056549841393272696,0.06777982091596738,-0.03012541300145008,0.0370098644287849,-0.08442283790609433,-0.03463808064550922,0.0229914388232227,0.06445426314197591,-0.029147034676638043,-0.023516103289605846,0.013470698051268144,0.07909379999835424,0.02153986879611466,-0.08254135446627085,0.003772680276184776,-0.07869601642436655,-0.03774367174841844,-0.03198559693636849,0.09508290904887118,0.03030270768763352,-0.0764107169931494,0.011294097519891091,0.0030545810201994717,-0.03166597590462089,-0.008540903118755477,-0.05653049907273845,-0.060306221327568875,0.01645351396178671,-0.03370474540672972,-0.016625993955763613,-0.03291828677919724,-0.024450458178099217,0.04358194242900034,0.01916171492356961,-0.09284692705392933,0.026879956814608887,0.057944298620414086,0.033540545278406095,-0.03443438455508421,-0.0553195792662041,0.046855592255477904,0.004323263245020169,-0.013330140951299849,-0.05066407956689615,0.08348353679136697,-0.09274355755210752,-0.010812751479224229,0.021237736686396655,-0.09558086562581093,-0.05848443012771755,-0.07932461847930748,0.057568652188259344,0.09190447725887223,-0.06657225949130155,-0.08502180363227398,-0.08420257188097793,-0.018605613071147095,0.07477243253871121,-0.02192093426407014,0.01920863776961557,-0.034309599218719004,-0.07710333651214302,-0.06680301087905659,-0.048624508159734854,-0.024230237784289243,0.08681924190775367,0.024526412908462553,-0.010245302799755204,0.04910779877678253,0.06908152197996345,0.038416646838152095,-0.12392216367515504,-0.019126695950477016,0.05826222571802973,0.010925073508638142,-0.03574556325211511,-0.047747014087933665,0.04564921184491479,0.094550024940407,0.04972248624503144,0.0457155141915741,0.047815848079384396,0.013969008403104938,-0.02528669953862042,-0.0580323624800015,-0.03374958628717139,-0.09143498075854321,-0.028368135336075125,-0.04500591816610838,-0.10082215132103069,0.102270514745276,-0.0010881315119945706,-0.05498622278415733,0.0014424852326014159,-0.10150548897312421,-0.0816194944781194,-0.010137494888127287,0.05483588817353563,0.018705553590250123,0.023384947609527064,0.07881767962046479,-0.021834111887152095,0.002184020168528161,-0.025796232259793304,0.05590677643034265,0.057995231300005175,0.07246259748536306,0.0191901226431172,-0.08379413384705521,-0.05534933959168096,-0.002767616714082961,0.09089332598141932,-0.08188034333691936,0.07705872186594487,0.09271143778529814,-0.06020675469437151,0.007208943137852938,-0.049590094538809776,0.020276371458640363,0.04409161753589958,-0.010216474301392076,-0.07405612788979794,0.0008644773449373962,-0.017987993517411708,0.15370884812483068,-0.00242892083034494,0.09225340967049844,0.02778244741743706,0.1298682701794301,0.0817562279415819,-0.042674707518472584,0.0383373364284234,-0.02197664675742823,0.08145599908359462,0.0033036424106363577,-0.02951725723375151,0.05168467736771816,0.03431761870499398,0.017103326469513135,0.027536413570629234,0.05267532497637457,0.0027502524290173996,-0.08795670706743666,0.13190576482111835,-0.045831721888990595,-0.022875944582514556,-0.13653187834452593,-0.06526366199768342,0.03801148208555393,-0.06669499378227296,-0.03896255297887372,-0.0048901530036526706,-0.0027430660974264664,-0.0711383310342132,-0.011984957700873683,0.04296747032187572,-0.012742582682276907,-0.08000093437079246,0.1728496672487119,0.12251914439326353,-0.06230294177907651,-0.17729359253911608,0.006668529879799028,-0.03322234833036811,0.10401961602152124,0.11983554748982016,0.06761461269115492,0.005835287269517766,-0.08139001388048527,0.0033540614275545996,-0.059020828170967446,0.008441075314765687,0.13309729011847532,0.10525946821891949,-0.011278117376143156,0.007827853955099034,0.0002559024556363543,-0.017612284161981254,0.13515970590513576,0.09418782949526527,-0.13685707310748244,-0.09743132771644043,0.03761662887144008,-0.06897766738721121,0.11814291196214664,0.05427655805673218,-0.01580689315109449,0.17251917091138577,-0.24105151456016988,0.017343753624941543,-0.09051907958656336,0.11067518937372786,-0.3717721069233078,-0.02247654006008664,-0.30741296596302947,-0.15441687191716746,-0.21740835625696656,-0.1887944889113277,-0.35793690684474916,-0.10254385649228699,0.02216570582927398,-0.09399653114479836,-0.3338388658035367,-0.2928374750397394,-0.21577415898450286,0.10232043049088027,-0.21635731361491622,0.11110592563692315,0.16831922917430267,-0.2759451643028422,-0.07030778736053192,-0.04991847159474648,0.36241679398772314,-0.013813703771003747,-0.035422412544850145,0.4939853878901232,-0.2608846611154157,-0.13040223349698882,0.9143624419608019,-1.1923136603906732,-1.1187904389401253,-0.288549144676741,0.8468306927107278,1.4661013032728136,0.7983965601786086,0.9509549569192985,2.625149498419664,-0.07839244884550209,-2.30783154301887,-0.68860901287532,-0.6038860429025211,-0.36730670251252906,-0.7299749160960332,0.17175762993941213,-0.3291233092028797,-0.4062204040334713,1.55077842503526,-0.5203904506645401,3.221760912111692,-0.49814033392924134,-3.1910942299075957,-1.9751566201797066,1.032969977190975,5.129814514313139,0.23291482532300017,0.8712294364226142,-1.5827693927037936,-0.5831427136970116,-0.039216250690898596,-0.06470333896094829,-0.11215416959492455,0.11516468649781493,-0.05500226308927103,-0.0798312422377968,-0.10239051626348586,-0.024996797393061678,-0.019275051139551254,-0.02129200027968428,-0.026130767325873994,0.08965812196620183,-0.009693736500313419,-0.13838779315449637,0.004556822607342305,0.026367139072165948,0.03122410626020576,0.07490632969072174,-0.06230024812025861,-0.1259052633458844,-0.021265248474297695,0.12209379461829122,0.04187599625853355,-0.031192393465844404,-0.02405614781055198,0.03602804761968542,-0.09192762598726936,-0.05649288059665888,0.010200618737908996,0.013620559876926477,-0.010285862715849137,0.11268833444805718,-0.03401211568783789,0.05403105655230236,-0.07409977978104695,-0.07027442949596784,-0.14755414389456337,-0.09970544647028345,0.10806604910678536,-0.017967112112750313,-0.012758291754139952,-0.023212495830727188,-0.028890929466215298,0.03385900598272713,-0.020776089368178135,-0.05967295504848776,-0.08514393308335629,0.03487503104215608,0.014627314959443073,0.033082045440070304,0.017202397060954663,0.031538555644118574,-0.08055821068125855,-0.07310797513903582,-0.03552258641725232,-0.04308673434171401,-0.1453756522490993,-0.02155035329502459,0.01595517463817844,-0.0746857761750657,-0.07844990724621886,0.07197223062585374,0.032741371031988986,0.01373540804138205,0.03563132426883124,-0.004875726600617204,0.052055596054518254,-0.035476448687315164,0.06196716871682238,-0.008282526537273167,0.08120941834701388,-0.012432460407745413,-0.009574037309721499,0.042632294061463835,-0.1454822574232417,-0.11503824352701396,-0.07805354773543895,-0.11457439450492315,0.04069318874402588,0.04691467320213077,0.048834754370171166,-0.03602510732000955,-0.09322860623364927,-0.041222628598120974,-0.020870096675635608,-0.11098219133212987,-0.029836879941265153,0.04435621418478677,0.06118093189859615,0.08063491565236809,-0.07701323556597024,0.04782658511008605,-0.049788417860337456,0.08422345601522971,-0.05771427816268789,-0.02748863135896626,-0.07348411489162293,-0.01683210735626155,0.0039686000203065395,-0.02343992641162549,-0.06263078104547154,0.006562305464466604,-0.022846667784750817,0.06275608122288022,-0.14309442061687913,0.09446470653620077,-0.050481272433303394,0.06226018193890091,0.002599036877829531,-0.010956047386414165,-0.03196096706646848,0.0343136184650774,-0.06556200557793129,0.004087538811343894,-0.13183960698153246,0.04810830885614143,-0.10971016351735434,-0.09636108245607714,0.03586600442004468,0.021613350241345065,-0.0229398545821331,-0.12433826814871876,-0.029885636323419163,-0.04340377904680978,-0.06306181357769813,0.044125979299472144,-0.04324039582601382,-0.07356842088137336,0.07880717755590708,-0.049897680887744676,0.10840133297772349,0.05697675797385923,-0.08415413191209292,-0.0061085564929320045,-0.12449828357586894,0.04483027599621281,-0.0993569959110331,-0.03258747930657602,0.0928284723212756,-0.009669360827289107,0.028090137468438865,0.0372400613280366,-0.12266894314228852,-0.05759749437654405,-0.10671560589621724,-0.032383974930772816,-0.06893797955921357,-0.014250947234688893,-0.02423477730017101,0.053222515083894625,0.060658084954958724,0.023026837104201142,0.030911731803325897,-0.10104168200329879,-0.177393637761781,-0.06662162566910215,-0.07820314756998162,-0.049800325453040015,0.017896992971714862,-0.043581528352634305,0.06471036156989271,0.0641840815842222,0.017294175958356032,0.018847405469740116,-0.05127160067459648,0.01574549068883712,-0.02842266201118051,-0.0499890952069249,0.04504106977387102,-0.053990942022320555,-0.01636822003259865,0.06683308689410838,-0.016342904267711733,-0.09403472100364353,-0.1133156585729086,0.021175537397378284,0.008278893877940018,-0.12418720158393119,0.012198471058654329,-0.05310422178817925,-0.02216239765968044,0.13108394708282214,-0.047426506180416925,0.026877176342719942,-0.15428161601015225,-0.0556305242397286,0.011259401874001868,-0.05135501372591244,-0.025043963196985004,-0.00342250018127193,-0.031605832195182516,0.03995329441482234,-0.10018103855334326,0.05458295290029717,-0.21855874180329274,0.016388414258056126,-0.10922970296051099,-0.011712503804237002,0.07061439081247352,0.08517783690392661,-0.001683464474808842,0.09183153043118536,-0.1313021140240404,-0.012177734075728766,-0.14420005044187384,0.04706194764607665,-0.02506850284765229,0.008113391112211463,-0.009107737632532658,-0.10279183064638248,0.08171450611959206,0.02632303163477387,0.020223823962002358,0.054315924169544644,-0.15275428371654337,0.03068089379491505,-0.051742074629679405,-0.13181668027757648,-0.09339938152499105,-0.01526376542838184,-0.013666922469753208,-0.04612404362336877,-0.054952793236230896,0.05317417259598551,-0.25598092474531325,0.015851125660028144,-0.09640779004105905,0.09721180860334135,0.07779672949642732,-0.10826012250587477,-0.12799229576561003,-0.03395014804211437,-0.11194590429702861,0.05178533278979675,-0.13147421467467366,0.05720837711256755,-0.15758334843375113,-0.10045589974635157,0.026168730923763133,-0.07459301523155933,0.09813112880724306,0.014064658301345673,-0.022691996063202456,-0.07235140184146778,-0.08899763857130473,-0.004339871374929801,-0.07524064979783902,-0.06400834096556242,-0.06810532755645173,-0.07006809033926696,0.05013984541950489,0.03182026841664331,-0.10395328804583268,0.09775663947486882,-0.1301869101345997,0.02817280057832823,-0.1309802759995437,-0.028008063657401147,0.040833579449296935,-0.04846912442371323,0.04659741158575051,0.09882695721841238,0.029175765839605895,-0.03927052106349922,-0.1726148599741648,-0.07861328920562383,-0.2298543753074363,0.0741926678026597,-0.002653329795293994,-0.01959240179916944,0.13293849360972051,-0.050720128872807684,-0.12688717004031794,-0.06170309340409549,-0.06059493549626017,0.03641693610121095,-0.08513293668574481,-0.008543110540777376,0.08276088845291182,-0.028751871551531624,-0.06430323385904758,-0.03149585110763014,-0.008249458540228011,0.021258112916945585,-0.041994093970457495,0.08841242815128211,-0.13216752966162673,-0.10724327539545513,0.02770862215120832,-0.04064637324583695,0.014329052670050956,-0.01795146376372144,-0.09490765207121968,0.017936270792749814,-0.03535845485821569,0.08622833925016868,-0.005366291504610218,-0.1023818020778076,0.06243728257112045,-0.06467489766922106,-0.023985437665951424,-0.0408439265522486,0.009244870790035232,-0.06519012188253591,-0.026701517265921747,-0.009068863956391162,-0.05027307453744454,-0.10358998699567282,-0.13164032699537875,-0.021179425121243736,-0.030792166716875846,-0.04584634865934446,-0.016207940311654685,0.049774381786415064,-0.019823199608079253,0.006977461667189604,-0.022828617736009586,-0.12371215714918676,0.052298738032296434,0.0048464167538544295,0.05573629707978997,0.0391701853004323,-0.008343338126223098,-0.02081761868475432,0.0004771797500759658,-0.06715482317694182,-0.09812568297253195,-0.024090894988267456,-0.07401618393253047,-0.05650687735047728,0.11687894533537603,0.030633659161593232,0.04494399651041671,0.010199392660395329,-0.10121580296366299,0.00849053552420964,0.006355706028941873,-0.05098485796468302,-0.05315108725733885,-0.036394908033850995,-0.08953186920362649,0.09418640439903202,-0.035660953120118466,-0.04606477509351512,-0.1958466352681463,-0.012009173855517644,-0.010776814648131355,-0.0027548952157748353,-0.023288675204689583,-0.09000494919782302,-0.0748970012841828,-0.014733741018402965,-0.02617878298251656,0.06696945785013099,-0.07375663516342032,-0.03737450940127303,-0.11145857159627091,-0.1355604165797263,0.05230679683566489,0.03367028476267275,0.015038285066628672,0.034593722855914014,0.0035252960271214763,-0.035960744197253425,-0.03383606391493512,-0.08860566579454647,-0.012097359811169056,0.08816228019645768,-0.039616597589110195,0.09163304462872823,0.08990110958645388,0.16476962083985824,-0.08525435674582722,0.07304017808558058,-0.18705684008547144,-0.008338605561139613,-0.06361403069240999,-0.06830558962923454,0.07701215619198988,-0.09961443257319363,0.019759896010849355,0.20359958344234338,0.018802744248643456,0.03369829417301167,-0.028980975864543488,0.00623816888071121,-0.0020992227739218207,-0.10751395699137063,0.013870078176994375,0.015439529575825247,-0.029913015493228938,0.03498668982994073,-0.015444531562874602,0.024599556716392704,-0.20083758612306876,-0.04800633050051949,-0.18049911126406307,-0.05076256467684974,0.023882440578066575,-0.012246925894573463,0.03028388683263542,-0.018098094632258116,-0.11324224016609413,-0.045444894961042155,-0.10256195564461651,0.0374881659996388,-0.10003940784214388,-0.06555650463577453,-0.060455959848504714,-0.057316844772837536,0.04674602756823925,0.011671080519488015,-0.1299980813815866,-0.011827344662552747,-0.13907039117780984,0.002685573664763487,-0.12305277301565026,0.032937653876217464,0.016571067829847796,0.09169037909498953,0.06533134017333786,-0.09414916219812257,-0.17139926587177123,-0.03417824565765545,0.02286485024723754,-0.003610937215553474,-0.013082915409712851,-0.12732479942644753,0.08360609185754059,-0.039550603958259704,-0.028255811163808358,0.017239827788223742,-0.016338856793893273,0.010253916083528054,-0.10708124258626192,-0.020571662325553162,-0.04661024184822757,-0.012356035204180358,0.23339141828990212,-0.12593251572601225,-0.20358655414645951,0.21504537047160613,-0.1013349640200959,0.16808741836751415,-0.19360008458999903,0.14023142801865818,-0.23439206265341964,0.04121490116314985,0.2132749245544914,-0.20633782162651393,-0.13843727114067736,-0.28412038733834005,-0.14609395174695475,-0.07260683866083252,0.10088830122000426,0.09884539723497356,0.19899307121945145,0.010607282991314096,0.09824967225460865,0.00019089478481544017,-0.4235284786299701,0.3269427197446931,-0.21680534739257135,0.31948470700732373,-0.3570814062814218,0.20360670213441961,-0.10837060441381588,-0.19996380100299382,-0.19389427784867627,0.14586616264137883,-0.5989531587682952,-2.3161987894571916,0.9402655381794798,-0.0452070574773039,1.159787830550248,1.8015065887594375,-0.40274039278534135,-0.47186512479573184,1.1430419401106664,0.5608187510601432,-0.5392094390513886,0.8370151481189297,1.1583378662860462,-0.6802956100871099,0.05420251134362559,0.4025803200952757,1.4053310196599291,0.1893536254014918,0.16153105975522203,-3.6268134523526676,0.7191650827191927,-3.090226829313598,-0.05426971774019171,1.8418469421439625,-0.19182324242495197,0.6325940268199708,-2.269454085549355,3.244111161512113,1.1978970830636866,-2.0462506668815013,0.03895251228462959,-0.029489841090707614,-0.022846604966094863,-0.048255999700120546,0.004172226997346623,-0.0720660809498819,-0.03794942567898986,-0.014436746087385715,-0.014391079231775942,-0.09432308248398481,-0.05580668433836141,-0.026219915768115318,0.003481135425695075,-0.08700421901241998,-0.07886976183787318,0.1071908915168344,0.009417107508893177,-0.06893842025597346,-0.03253261541074352,0.0010490661053708498,-0.055107443210573905,-0.08018131045674402,-0.08830363940539736,0.05946687643840924,0.021005246322567023,-0.05209889451955776,-0.07100496093410831,0.007709549608461231,0.021942720279059715,-0.056199752229273425,-0.14577233802872452,0.0012692877282147897,0.035573741250319764,0.12469826915290165,0.04482202520254985,0.037831365706187225,-0.15819749133394828,0.03669176216810209,-0.05640157330213164,-0.024705708249097208,-0.04082526247972757,0.04335146019465124,0.025745697141937796,-0.018727828260251274,0.031022762082127096,0.07047861232507115,-0.009954895009015353,0.007389874673659537,0.06917777815793294,-0.02289219082554981,-0.03305263567213345,-0.04300849300726609,-0.12557558144836642,-0.0876130281140463,-0.03894576861116722,-0.13240265606679696,-0.06173571334458078,0.011087540421725725,-0.025610851412761742,-0.010060309983330016,0.05882030134967236,-0.12085625960560209,-0.09091854922954704,0.07552075209939825,0.21274509788201265,-0.023852537572753064,-0.06373244517397163,-0.06765898954333467,0.027596780996576434,0.022343569048323183,-0.07569374933705818,-0.003790272974176057,0.05417087304614019,0.013806630038832817,-0.11177338533711388,0.07797739933741991,-0.030702756221228252,0.0520535467531335,-0.01804587850316724,-0.02290222215045077,0.08323536195864338,-0.020346781124121843,0.012680310269770286,0.036997110268745186,0.0007587283336175241,0.04572811925750457,0.09064727385326023,-0.05662113825194698,-0.012034079902330238,-0.032644719553267025,0.017988253821725402,0.04119524830304539,-0.08044309334360693,-0.08616666483652445,0.003659767718335487,-0.01688374731058965,-0.017433661851396755,0.03245356300887855,-0.144358757125319,0.002981795492728082,0.04448311024744831,-0.022718620331556718,0.04288170802234036,-0.06132640116280423,-0.033136300825001,0.03347095442442761,-0.02957200505327869,0.07574321635597543,-0.026381559396002043,-0.03413154575865476,0.031469665322335146,0.015578748800801864,0.08595349443383586,0.12002713724868778,0.026982826933252244,0.030304871027824445,-0.06446979905857111,0.047235650891038365,0.0065237820974636575,0.0357697059536388,-0.1708363671174308,0.07402746042359948,-0.028730394501654974,0.0038683247224117513,0.03068046312821971,-0.1376564597946833,0.13356499223714335,0.026890502904632907,0.036538733232218415,0.057003570974221617,-0.03113623982385334,0.16094829526663085,-0.018245026065862365,-0.06946493620598065,0.08239357316330305,-0.012339341387205917,0.16182227330357943,-0.07326668521086507,0.022744878661140857,0.067928899122969,0.048471623036150144,-0.011634142071721655,0.11008162053961433,-0.010274069050364409,0.06928816967390276,0.0001870197152423039,0.03824986240110095,0.03323673209360557,-0.01017052964112221,0.07685325108559615,0.010028024133943967,0.09162508204489886,-0.036135229195234375,0.05367431110407282,-0.028104756816891056,-0.020994338628899656,-0.043113655607421406,0.05013521574444794,-0.024118169805689753,0.03597640577110598,0.04954047077618632,0.012372187907838618,0.0015712906362742782,0.017792739010547433,-0.005471125429226445,0.029938547028150124,0.03089453733470135,0.05421715346516007,-0.021018210283032062,-0.032624162227950705,0.02135329284233836,0.00075541335783913,-0.04212986196786549,-0.03931857744138736,0.01773672401545506,-0.0848806072273492,0.005086554581346195,0.020236568638046237,-0.01843409400650169,0.07331578586600217,-0.035833394916559506,-0.10907303046438756,-0.15720192315195344,-0.0917763725445532,-0.09557995570801613,-0.10744909802600316,-0.11457171810396082,0.057323706922553036,-0.0549109657348549,0.04879426824218597,0.06148933425291321,-0.05650161805649847,0.13369901745780227,-0.056659715022044005,0.019836441862340317,0.054084657735463754,-0.028005657355776432,0.07545678271123223,-0.013935588339111842,0.0633840351770665,-0.008084266197369967,-0.010908279208382455,-0.08464247644596105,-0.07312158557456046,0.03461723103912346,-0.0281711905093707,-0.07864102040180658,0.02558775465754151,-0.04297062437831312,0.03492178335944345,-0.051542258746902825,0.008494993610723924,-0.06397746609048259,-0.1223844237337622,0.0015004635480462972,-0.02367798450510201,-0.022101899086479027,-0.04651473810783537,-0.015485536998484505,-0.021353316122201073,-0.03916048033414734,0.0020482013175047607,-0.10241559902549127,-0.014946705934072485,-0.023649712654697067,0.05250492620202893,0.010273115167428303,0.02099994591810366,-0.023223175114723528,0.06237380073036001,0.0488248176628495,-0.0030887135358925433,0.003121424620637671,0.030231913783493457,0.04104540114866281,-0.06846489450073118,-0.08114719654105952,-0.05215400750220661,0.005439508655079519,0.08579002030531527,-0.027636485813456523,-0.010787576937700273,0.07558960730047125,0.05373493219525079,-0.04629557797897525,0.02861277187522116,-0.16055601984025497,-0.14571369590344815,-0.0395294198212359,0.1424795454706443,0.010936560243435567,0.010642772141325424,0.03590186634731657,0.013090899622999683,-0.037560098907412104,0.038376797808888516,-0.09284902142008633,-0.0161116594358054,0.021829998994174985,0.0008821098562691081,0.020909088736324417,-0.03033990145006489,-0.035390864399219936,0.012641112811333607,0.09283016430164477,-0.016212121558767178,-0.011691935398035652,-0.11251995011508514,0.022712750931700682,-0.06000802049451863,0.006938536255346887,-0.01742303916876431,0.05877229339179092,-0.005543279934178612,0.09204354456825768,0.12948982746164414,-0.01608238159264955,-0.07833799132736645,-0.061133454551539956,-0.030087175760822024,-0.02052144239885913,-0.01658143845442479,0.03915611654852225,-0.11736474843318201,0.02522415694688782,-0.011381967622225245,-0.05944371139546043,-0.07605574908382608,-0.14750082762204095,-0.03649757494424222,0.06253667448719163,0.06432380206568909,0.007063837708426384,0.03592693706129284,0.035092409141562704,-0.1365360649401962,0.04724164125638652,0.00777901772272714,0.029295715971366987,0.07765466409298422,0.12249673067201275,0.13724430954015093,-0.06640555603481327,0.02667955235104742,-0.004910272334798955,-0.024784444140207123,0.018573607020763584,0.055957826204038844,0.1473320166627148,-0.04202136426070921,0.015834045522487433,0.038455094155978524,-0.04224050699573062,-0.04195080175809172,-0.16721266799360107,0.071251505657471,0.08230515089482494,0.09619097174437362,-0.011462447658730394,0.051758571440624214,-0.02749494690437505,-0.10105448634753741,0.0773493705853287,-0.00001485082645588956,-0.002833722730186791,-0.010488008829929762,-0.04436024178377619,0.03359639858715886,0.011562819488872717,-0.1349133464276711,0.010155195006680754,-0.006439615573169899,-0.03346504275132764,-0.015383926516172432,-0.08660516032906296,0.0082037505420236,0.12631463680255103,-0.0014884831710943222,-0.02188002034942297,-0.052417272226797686,-0.0611495350693438,-0.017949673197144984,-0.0011036823457847495,0.058214984961053665,0.06402350717897518,0.024308921165386882,0.0606704049001904,0.01812647328103973,-0.03286683440900178,-0.03971526556340576,0.07726204502587046,0.030895840459978136,-0.09917264922456427,-0.008944822728829814,-0.0012659470981695319,-0.08442942088106486,0.05024598308961684,0.07499711398167706,0.03508535972657514,-0.0023092933312614454,0.034466496017619246,0.08774398762839304,-0.01668302985120824,0.047172854919442744,-0.04795340858220689,0.026313886104370444,0.027897247060932787,0.043578027366600484,0.06048192861544849,0.037390711262605826,0.011863260414667544,0.03239593625566861,-0.18383180502736832,-0.047259786722999686,0.044350254319763485,-0.05338534508756139,0.03308113193290465,0.04579240655665147,-0.09037430273500936,0.0766867395709397,-0.1336034750705484,0.029498862600144688,0.054381728124125644,0.10479400749668759,-0.13906696594249562,-0.05058033243312838,-0.04918504212377679,0.044016686691044374,-0.019083967094772118,0.10780383844643941,-0.04404470200400185,0.16072229309738648,0.026672924648331042,-0.06872224267973787,0.03520339791772436,0.005396703696179877,-0.014638842315793562,0.03174910126254508,0.05368826019669764,-0.06556303832727668,-0.21134417700282102,0.04121155796861904,0.05048620011727456,0.06923953776483462,-0.17585976755606142,0.07166056290079684,0.09464250879166693,-0.0031529785840738464,0.02852709726751324,0.04451607617095658,0.034719327331379404,0.07133934340925531,-0.046516752162492625,-0.10419481566764655,0.06775617656474477,0.02336665504396232,0.13989278668654412,0.18960889822996388,-0.10263794636583229,0.021866693099277742,-0.025035669275777075,-0.0561420949380983,0.059649235251344225,0.05730202446168086,-0.06734716679710216,-0.08016484766071685,0.0357520776813136,-0.009316295277013041,0.0452643052213218,0.20831308264793022,-0.02923566003536243,0.08015722485677616,0.09784722962574634,-0.10052928866777053,-0.21746321763055754,0.10148575822309512,-0.03351338256617932,-0.10224768592609677,0.15556439671517694,-0.03549638150043007,0.04790162614747528,0.0780162008782871,-0.23118581871267743,0.09226950695329073,0.04636507086783969,0.08867751826565132,-0.20317505980455255,0.03143326731655015,-0.08204133925130952,-0.04534128067797398,-0.1926138629537527,-0.26211110455813336,0.12232816032452286,0.5331056909339613,-0.2685427196522135,0.3510698351334705,-0.09766781118198682,0.11538623641081605,0.23209513281228844,-0.16965047754268786,-0.4856296546990646,0.4241101470273361,0.42650449650928124,-0.48063942064048626,0.1259020854722663,0.2890058676310263,0.4061631277748353,0.5109975022921985,-0.15521150797729844,0.03427928175941911,0.6137247747254266,-1.6740015382038365,-0.18831744745564966,-0.25731622047347225,0.8224261045344272,1.0830389451922207,-0.10563619192663068,0.07908674633244325,1.9453628217396617,0.7503946764339645,3.043185238749501,-1.1778455109143313,1.1379355338464958,1.6606548781683526,0.747757416121042,2.1644974087773607,-0.7170156561681229,2.4465231770608296,0.8004024478805634,-2.5234350320675363,1.2595105922079373,0.9279464416925741,-2.27695132786969,1.0830566125420207,-1.5320939167765115,1.1998958479184076,-1.0106667020712188,-0.9432332066748669,-0.029923706083839485,3.475515288078801,-0.04424554537624144,0.0197096177642533,-0.12464145968983954,0.05781565551223221,-0.1349443700020466,0.07154144675033493,0.001426544550584459,0.12292581953843522,0.010355163938065274,-0.05639455989832041,0.10138094650044119,-0.02752641087365476,-0.004484857075651609,-0.01906103410245115,0.014614353766116512,0.018178694357451543,0.033121968350808356,0.021177064677835027,-0.09657860835727917,-0.03547250369115202,-0.030557899844028628,0.04686395255918788,-0.0025560655375807596,0.012803171064436172,-0.05896469756556037,0.021430541863547654,0.05469799033935277,-0.033301466569067587,0.007998075952899973,-0.017970595044935065,-0.0014385539646646528,-0.01868713682683247,-0.005381296726577905,0.02031444939180804,-0.06556376374395446,-0.00009988267647181902,-0.04079643401213514,0.10724001031483821,-0.014837705554750046,0.06635299802952078,-0.021421250063248836,0.06894530339603692,0.006181775755009758,-0.1560681396779015,0.06360041719542896,-0.055948344581290596,-0.05469185301097006,0.07288040752230604,0.06442132577338006,0.006919619225416042,0.04473679407286237,0.008944883540238537,-0.09257114913779294,-0.015140166758632077,-0.002642521340802143,0.07730577052749218,-0.019429932207379652,-0.08285904626335061,-0.07212101101007791,-0.0676557787679331,0.13844020890502054,0.057374654838958594,0.04456129893153093,0.09221793231178416,0.07540459463202828,-0.09036718750293113,0.030627600001935887,0.08520537900843551,-0.032800981966769976,0.05597067261467243,-0.02989757842178176,0.045290549439157717,0.076706734245546,-0.014552821385223026,-0.024942258697777282,0.043475461859185174,-0.033753945913742714,0.06674734221621373,-0.11340042852886237,0.05333862213086236,0.02231780962115916,0.09275934493347766,-0.012445636150710758,-0.05960969713346623,-0.05231427069539937,-0.02240944885860798,-0.038587979978362046,0.0261545045616032,-0.02931468632884364,0.11328860773550152,0.15182597091997452,0.09643737997776562,-0.007659786243903478,-0.03444076845833448,-0.08278957947239264,0.10106772399805287,0.021902466421729865,0.053051398431327015,-0.032954930556239694,0.06587562971271596,-0.004435051353864471,0.017834811121064914,0.029535465681694056,0.06894430860972825,0.02673255390443177,-0.06361227734057624,-0.0025928877437689742,0.02522092223531108,0.04300328377014153,-0.008235213783408971,-0.05797522671219374,-0.014800440213134732,0.11014544951462776,-0.002582529509149237,0.039945542060790186,-0.0436314202547958,0.05293677362140881,0.004439843391605053,-0.0037324185146752776,0.015052092447900182,-0.042008587814448745,0.013723892008836312,0.03970335505280268,-0.06395475520986862,-0.04358766250398104,-0.0028556136707494377,0.034978167024973764,-0.03633860504530527,-0.014746726988287592,0.03038359358943278,-0.052201361253847244,-0.1637148402415033,-0.06892813550261738,-0.04717479270601648,-0.03872833710739102,-0.027699082010251896,-0.01614839968830719,-0.034454684540283255,-0.03600955444673428,0.1197349405036063,-0.01642419191731077,0.11793522535735688,-0.06238123941147786,-0.028301366385411125,0.008923412319545335,0.06599101263337015,0.08875975690876596,-0.08613929344903554,0.0028405563241693747,-0.00139758537315457,-0.0716258164105308,0.066128783216364,-0.01121747438335544,0.14396855053823426,-0.05864001427943336,-0.001766079967772437,0.01945181475753769,0.07362057536456014,0.06489940656429068,0.014016657175479615,0.01872685982263393,0.008720559238099078,0.04320878679360392,0.03637631427627864,0.12066417928655054,-0.09422992524641038,-0.020552008581816907,-0.02827895793514158,-0.02763896383782907,0.025603891028109036,-0.04798741810229072,-0.10895428070380554,0.05444643800591015,0.0167279951843295,0.12116241608248263,0.023135777054667808,-0.029099372447523357,0.03127368750928391,0.0318524342366372,0.001156491592554843,0.0008480928634290945,0.05339460952803508,-0.04546314657163059,-0.04913141070633624,0.09874576560662562,-0.028864685827414156,0.08394168141963107,0.0879539262289526,-0.015413625260011906,0.01067549367395997,0.09824382921651471,0.03674555503490965,0.017653689612987848,0.05894480500239015,0.00565279176849691,0.0728067235598209,-0.11773102044557747,0.0025385476223924986,-0.04855139784482761,-0.050267151271875525,0.0327209773737294,0.03301086732912432,-0.059748023213324335,0.005019847305514786,0.005842777927640421,0.022878312530605203,-0.0003200602904543162,-0.09511156531529068,-0.031095239121426088,-0.023303825000896745,0.003951779256360281,-0.043233047216464045,-0.042588987022706616,0.055406042961550044,-0.049307007780095564,-0.031679424393134974,0.024954398204925905,0.055736568226924424,0.024858079125322688,-0.028107700813063234,0.02293878547292442,-0.014699750079300768,0.041842241669265284,0.0732599905446724,0.030236439030684906,0.009648646240101954,0.14686564279452494,-0.09856581376464865,-0.08332862858497098,0.059660352730948454,-0.0011408981579599236,-0.0707195564306238,0.02533476420464028,0.05263793959881641,0.13608808098406783,-0.014076948202085339,0.020580698200255237,0.03147969604473878,-0.004923024076641106,-0.0354772630206776,0.013567976491103176,0.0809877384687859,0.040402460287258996,-0.029966452047885946,0.08262605308047062,0.01190080449248895,0.05030002198244717,-0.039247230454493826,0.11018705716063855,-0.013190742027834884,0.06166625323208538,-0.07412478984563836,-0.07909351252732552,0.06418854754166017,0.025001483628227465,-0.054591969105920644,-0.004146976488730848,0.05696317009935703,0.010067025775497092,0.10003200898826126,0.002847908648917582,0.024352414375080112,0.03419918657845077,0.037680378788589486,-0.0015588194118600716,-0.022160608211177015,-0.02604814436161176,0.04477194667906434,-0.013245069700258396,-0.037605031961748026,0.041182431965868814,-0.015359234412271485,0.06757718262673942,-0.07955666694683886,0.12156568984566125,-0.03290462323676831,0.033884655381849454,0.07986349424543045,0.06646047519214242,-0.032799319414838345,0.060734624063627306,-0.02026584147397553,0.0033364100733192007,-0.010254474476160635,0.06718063817072288,-0.024476315866489087,-0.005570634220928868,0.0879035465008978,-0.04965878581270115,-0.0617332314720252,-0.14816650378283364,0.12125226036972797,0.044186655972315886,0.05803234283783253,0.08298658471060823,0.01480943536696668,0.08715506656281002,0.18005615644591444,-0.0006611064019599487,0.043565521136501646,-0.08483216212506411,0.07199939654945926,0.0026031484380830846,-0.07112147491613852,0.014341424346902453,0.04519007598472417,0.09991258340677636,0.08416178167727348,-0.08520919497921739,-0.024039271369303547,0.04797549054961896,0.0011398480608872392,-0.07004192086931675,-0.010182476147643248,-0.028360350477363468,-0.029295702643996897,0.049762035397255745,0.08450888149570132,-0.11549997710617403,-0.12526678732728733,-0.06772186760472991,-0.029392654308685977,-0.09573695721437198,0.05731875629921677,0.109069476166105,0.010420402980901664,-0.0206895356070494,-0.04045297963130467,-0.14492623999080567,-0.0013027909977511767,0.03474350331992357,0.03080091770861646,-0.005688795824030617,-0.06451991719599713,0.08193613239887702,0.00029374064934490615,-0.0125721665138414,0.06682299936177011,-0.10362357510243866,-0.003153703158836992,-0.05034296222165149,0.0061900431832320356,-0.09591706575069044,0.0920562618043151,-0.045250854786265116,-0.0037207379834840655,0.01730515087602372,-0.053937782663856376,0.032887688889800475,-0.015637322913664098,-0.0270408241847655,0.00032302697410873537,0.03295912552594262,0.03371220314762236,0.10307984363593793,-0.056623046644547675,0.08463471357656391,-0.00916677876679936,-0.014346687721417407,-0.09762574426364543,-0.026284991683632748,-0.0984290070198026,0.03305508818731528,-0.019948601407422613,0.08213628462026332,0.002334383948598323,0.04756040831362236,-0.04015643610387705,-0.10267609434687607,0.06888059325576634,-0.0801398325722074,0.01810634378153374,-0.012892671587854567,-0.02441057252725399,0.008467311970122562,-0.05108701493952742,0.01127925492688464,0.00018871572349298888,-0.016096213056987732,-0.010493846442262691,0.027551694440513357,-0.10240751186247417,0.04595599737495561,0.04191675238963248,0.07291325624586927,0.012733582877387444,0.09304009398754463,-0.02899909465545927,-0.027196648004644074,-0.0044755087699785145,0.08559713248776846,0.10796420737790852,0.12397251567824671,0.03677684526724134,0.06789477918763925,-0.023994299493567038,0.10365959960379877,0.003952750902372372,0.0650762801369508,0.053427312650049394,-0.04483046341949498,-0.04278534308952883,0.100165774699085,-0.08784778684902192,-0.0595507567399763,0.014650302222017974,-0.09857326367062261,-0.0911426740308685,0.08981418742402418,-0.1748119731649283,0.0195478521713877,-0.023879178955168785,-0.0002927516212916453,0.0036644313681806896,-0.0962462479482326,-0.09343735328311957,-0.021505003855112965,0.051730836623218375,-0.05316743354814326,-0.06910919952179066,-0.01741646229805151,0.1670835771033599,-0.02052070195874307,-0.09733804665690293,0.14161680499886753,-0.035953050603584384,0.12326658166033709,0.0701375467080967,0.09763344850115076,0.0744406068000424,-0.022669717565673368,0.03783973075814213,0.1690242591866567,0.03420272375624978,0.037831735187534105,0.15548857780371564,-0.05218658467762609,-0.004698463733327981,0.07850079077215874,-0.00154093529000297,-0.023707169151263058,-0.17638773569601174,0.0717037321637894,0.007453489889881291,0.2706333917937838,0.03193368707882995,0.14790037803769981,-0.14896830934690816,0.06774440929489903,0.014634515011958275,-0.11082530117535265,-0.010135202718630052,0.0201009727595994,-0.03395853723558071,0.08696281746722183,0.13835498392596657,0.14028505063304259,0.15218986533617643,-0.23990431327127473,0.21426760410940976,0.24268138010103563,0.13920813143358,-0.2828832845695233,-0.23560388161381157,0.0770657431476853,-0.5780478146036551,-0.20163755181351342,-0.4468053028055088,-0.5031466788838522,0.7514960231316355,-0.2605437094545702,0.6731321532749609,0.23946869471377363,-2.297088893129017,0.5131803293934847,0.20233667713175735,1.644183955612833,-1.0049185027301961,-1.1526337378226867,-1.437248698569972,0.7987046496011888,1.2624497165077875,-0.3593228944616748,-0.6883026383163753,2.044651241285558,-0.8521036467444907,0.9778960153668368,-0.49161023266198,0.9258341173532592,1.8907718123652215,-0.5185900943608952,1.8091265308457645,0.7290155981254193,-0.07727598201442276,3.2717995134077666,1.3173206384525762,-2.767194737891126,-0.08438018580629114,0.6386285574372562,1.9194297234293412,-0.02682291005760115,-0.0340511182745332,0.00006894060237907392,-0.04678195369799596,0.11000450282795858,-0.014382298751056158,0.11592927015815249,0.027700845578601224,0.006629622619311393,0.0308262004275661,-0.012734225270480168,-0.035120473047103154,-0.017689625868059465,-0.07090632503720358,0.003144707511670559,-0.06894650247547013,0.0334685163545793,-0.10775361135601415,-0.005738527740175872,0.07340249943460579,-0.02186574911839566,-0.02631410495248778,0.10856166271962137,-0.010464276366593863,-0.05411450075702628,-0.0024374064514968213,0.16871778199952311,0.059264285095597204,0.044068429245891785,-0.045025393622528935,-0.02430498651300651,-0.18660762363866562,0.07962219508447269,-0.050988519158829355,-0.02094503942997767,-0.07039471326335757,-0.05301379095303881,-0.0641775327224418,0.014238480250293933,0.137190259597168,0.08339456626763914,-0.02644877237071157,-0.007105312666099941,0.04707767103287232,0.15216414219331947,0.019453356775408423,0.09660263488880931,-0.006004860075172471,-0.021480228906877695,0.05316563297562025,0.014454572042149828,-0.023016250574102535,0.0022150349598290212,0.011748734383947964,0.02589382974948305,-0.06194553563860461,-0.009274831323504927,0.024421052527010902,-0.06624360890322192,0.044837990684910095,0.0007711043262310879,-0.06348427634610292,-0.09498734543245742,0.051970480394721644,0.022775166178403576,0.025112236153879565,0.09879229586487018,0.06473862769812906,-0.007151258035318792,0.08777563291727582,-0.05652929917063794,0.01601716633550125,-0.06114865413534972,-0.0009153664390436722,-0.0019785602650236357,0.048808275988657855,0.020689861628175585,0.03272585618205682,-0.01379235121138531,0.05672251475115763,0.14788980217788142,-0.012511166611098098,-0.082348545468337,0.027043652309361548,-0.025027555963481468,0.007044885637613285,0.024741468476385843,-0.08189400036416439,-0.11256461090750533,-0.022233824112609272,0.10206863633381051,-0.024917671806004953,0.13052787111365324,-0.05643179819640376,0.11140313587878552,0.06243713159502945,0.008691606284839148,-0.020009268412968996,-0.09109190286704562,0.04971572656291748,0.07716080228375208,0.11336944596012313,0.09700929485081465,0.037275135343259984,0.18691368394785085,-0.019100723213953993,0.01361672524465966,0.04774063091484184,0.026311853313193707,0.11244824035573527,0.0009316863095730889,0.062357221796576566,0.0793657077737731,-0.09126753408389457,0.011138244939543615,-0.08240726385925402,-0.009292505213875127,-0.03395346111137836,-0.0715411430234922,0.09678122711599856,0.034058920849208744,-0.025046761865872617,0.05317317443698583,0.10678227953613616,0.11814560832808974,-0.019782014596126465,0.0010465281654581625,-0.14132706597387892,0.08320866324146761,-0.016144387058272838,-0.018550394965639018,-0.12839996309765264,0.012768046248245969,0.0005800129687661144,-0.019454467064614154,-0.004505972542869909,0.03201310481150542,0.06426883493916967,0.004446079951648713,-0.02096182723377208,-0.05232492897998356,-0.006503315233474789,-0.07151112987779241,-0.00758324131676615,-0.009860090402373753,0.017219210659959336,-0.03877636636166633,0.09947150996380509,-0.08693721256314468,0.0075070395973266596,-0.07454577314844767,-0.03787403765288607,0.02732079470803176,-0.03885130897313931,0.04733702133522116,0.0539371482243373,0.06139166865263392,0.005343598059394349,0.04665325493484168,-0.05371307019163773,-0.08321586208418248,-0.061122476082879934,-0.004998974611597009,0.04187009694069937,0.0677741913406412,0.036598143220804055,0.08527811575450871,0.07561334636984506,0.028877838374636824,0.012710080660838018,-0.060153957211130975,0.03352395694820189,0.024770796612189352,0.0620286222354998,0.035485728727474034,0.15030086304714435,0.19020448629935308,-0.008068721144227995,0.012300566913771656,0.017734702312459015,0.05085012642500976,-0.008824372971655173,0.0043085035103684515,0.07546762618607945,-0.0008129615016416523,-0.01666158217486835,0.0536989001328141,0.05677023987010877,-0.057847843609368434,0.019308060505443057,-0.058498761893003,0.03800184055462445,-0.07489401452378346,-0.09451487566485985,0.03400406034014998,0.0033382408401687108,0.1345352909259518,-0.0041923251846062975,0.033461679441832745,-0.029470018742995884,-0.03435579471938378,0.026012782141582695,0.15994923323473204,0.027454548525321254,-0.06392655599163684,-0.009561873824974058,0.001566198102456593,0.05680508806900677,-0.11316456475751169,0.04398401408758923,-0.050104126588256484,-0.09442410211979983,-0.06778662224041669,0.04348201582067668,