{"Layers":[{"Weights":[0.8348524711304565,0.19675299558330495,4.112115341785171,-0.5402076685463868,-1.9103409414844916,-2.0041147039697034,-1.9636014586696378,-0.6030945028084818,0.2739587669686072,0.1639620092718212,-0.33649258926968717,0.1917451955780213,0.6242662611359763,-1.0882767049493725,-0.5560184260637605,0.17180292927524965,-0.09422135254113528,0.49485130294625224,2.318786931731999,1.3059850126024892,0.9067085584912419,-0.2732471840210446,0.5159653752748161,-0.1641403161348868,-0.6704809968169252,-0.8787189174879289,-1.076748314669115,1.2569693265903898,-1.0680202360776812,-0.8579877873817308,2.0784104022683074,0.7862633080535966,-2.574591494897256,1.0302459094313652,1.6113017685318025,-0.6341845401863611,-1.654625865731413,-1.0622295087527558,-0.14726212082487114,1.3692204715509868,0.6434323608608157,0.8997873265860336,1.5138353941751574,0.6360015990167632,-0.8098049539110407,1.7443981333755203,1.795020271457397,-0.3846330785626176,-0.4513817347741544,1.629233092653761,1.5975354058228979,-0.4177427959302226,0.6861195613536499,-0.4746889972237279,0.4284380911022019,0.3763140298949644,-0.44389074852553645,0.4107642867206477,-0.9886321631648831,0.34397680285323595,0.23214644688007696,0.338985718219363,-0.5895411277011606,-0.7209485985503434,-1.4407298245010174,-0.3537700114770245,-0.19854916928875788,0.9365351891533656,1.097456703455358,1.3761967093169936,0.7646247513214116,-0.4665035439510813,0.4390211576168347,-0.4712858987451618,-0.5373045091305811,-0.22330498208180627,-1.531436762757265,1.7677990271913537,-1.3083959391067093,-1.806471493024951,0.36941240906268097,0.38754313848948263,-0.7579490872675423,-1.6435727832698308,-1.5693370461721867,-0.22884051317998333,-2.010954003793166,-1.6604222061653657,0.2532867893625307,-1.337067762357104,0.8738986778364095,-1.1496073119077994,0.7580100911236155,-1.4499335338815227,-0.27791615892436883,1.1398573079433776,-0.49278872946460034,0.8903648404142984,-2.0603042845593573,0.8474713855682667,1.7245620628858138,-0.6207090345568235,0.4651303195712493,-1.0322851394329422,0.40616304019587524,0.2779663339467537,-0.4155741675186981,0.5817790465365976,-1.3377028358890433,0.3342523339510987,0.877418868030526,-0.05239641552680438,0.31958562856353306,-0.10057317741411327,-0.9663726654545473,-0.41683377197106525,-1.071326395746417,1.9405420603590224,-1.2296933275885726,-0.9025043981049452,-1.3544989943059118,1.4214835737262792,-0.31043931933796076,-0.8866269967518934,0.11445429667714864,0.4591894209788194,-1.4731981554550697,-1.8513352607649594,0.6359428015875883,-1.9600759139194806,-0.011598715383000422,0.7779790018842138,0.9720151418705403,-0.9527109629373898,0.7392868720129461,-0.29155024848825567,1.0631627995449189,0.41657605008961374,-0.33508250000199913,-2.2050765622868536,2.5174372989915637,2.026273766998663,1.1823009773525277,-1.0314100929116907,-0.7244828971026817,1.059491946335768,1.5161357673931386,1.8664461562459604,-0.0003096775264068985,-1.9243260023781372,0.9494606160330313,-0.7808180580115638,-0.5156920543379471,-1.0502137490421284,-0.5702120136423712,-1.073613069954218,-0.26635222433359584,-1.0184200412185833,-0.6692769362282159,-0.9220094335091091,-0.8918296872413112,2.2757301720239074,-0.28709672785211,-0.9659252166658541,0.5375091173313962,-0.34383713675679106,-1.8547937728848278,-0.7374675006615705,-1.6791577993438722,-0.11851238643150301,0.8937021037015007,-0.5530610342113297,-0.03600599618568352,-1.0609034172751393,2.5736185760981827,-0.12977683262861808,-1.9046339410804314,0.8016325191487549,-1.4424007397032415,0.5808406201754035,-0.06443784514873149,0.7170075366187996,0.3679266734458761,-1.521888752214747,3.0476107835840787,-0.3028074804804384,0.10130455112094532,0.16360404591770325,-1.414397227070794,-2.1140753858491244,-0.11079359582548481,-1.288054408731349,-0.12674147696797514,1.4344964234356323,-0.8871065654720744,-0.5263225474955076,-0.5629802785104212,-0.3874960107801043,-0.2912966331543876,0.5036496261958211,0.366036460451701,1.6996251656458325,-1.034563491814423,-0.16163762218438157,-1.507343521841369,-0.4885209640180515,-0.6790130677226865,-1.191082488058192,-1.0003192115654957,0.6738557439048066,0.23940354958832416,-1.6553656723730747,-1.3110844343579429,0.31225756384452613,0.5793034927579508,-2.4988897064664917,-1.1406729647189897,0.35793083611895943,-0.6309314805064976,-0.9921028819074859,-1.3551679829615007,-0.8411928526547336,-0.21229141781393626,-0.9876063722744491,-0.890286414279467,-1.0282361729554896,-1.157320551919992,0.9621325645916989,0.10768802878360301,0.015289229928462489,0.48928159449393605,0.3431509183744475,-2.0282167833081424,-1.9672092678920416,-0.02612580413440678,-2.2442907617946406,-0.6203738097455236,-0.17757920648475226,-0.021297683759926793,1.2227199545537317,1.3088741046355172,1.4526961776425564,-0.1711340468605817,-0.4053258468030701,0.41825225200716476,-2.3687791861389957,-0.7504533864178472,-1.1019486295437424,-0.08666600568890948,1.197078460636993,0.9349816613717367,1.1478175769204075,0.5759607693202543,-0.1810745718647491,-0.8363791307755675,0.7862026634959853,0.2566686615569938,-0.19700800436104446,0.07969244795975938,-1.4477989328726755,-1.0495588940892,-0.5353880271970363,-0.8109248514262617,-1.2088677579293372,0.3243379466329219,0.7124513885559061,-1.7358761662449433,-2.670549147613915,-0.3824580222987838,-1.5701310833589195,0.8012834297964783,-1.2537358578373092,-0.09824923763725024,-0.3899418457371758,1.818942736811151,-0.3472386357197096,-2.1287139529804806,0.011407964568637137,0.5220255856924116,0.2958512061708806,1.2522165174540958,1.2543537846988546,-2.233704493988763,-1.15332141042147,2.1945910759531606,-1.5949827251532516,-1.7721681462796333,0.7034932946410006,1.8601768124346885,-0.3800005141608146,1.858021176305329,1.8114909332684932,-0.38651563306786985,-1.7046465213030793,0.41457726068955597,0.548957155358221,-0.5592910391453899,-0.33441794975023925,1.3601794391597244,-1.9993101075927442,-1.607451246929665,0.8256451135839886,0.07010157728133995,-2.0029682551239163,0.022894234337238986,-0.39732450428415106,-0.25107941230511,-0.09872295615854328,-1.000261751687912,0.25289240993303885,-1.0724487631445159,0.3613729182636399,1.3860521336751943,-0.7418390643961218,-0.3963748367884102,0.732597089334322,-0.41123950771631157,1.239123126821522,0.3436679104306914,-0.9004543430624796,2.3127165054765717,-0.6362708252837289,-1.9943942767416858,0.42059771464380935,-0.06671279836814076,-0.49864992618977594,-1.9163523296139815,1.4947330209179193,0.696474340155665,-1.2428253513324605,-1.3561209584160954,-2.0379390148806142,-0.14797008628801325,-0.06180521181836574,-1.5569639614391264,-1.1440676175362867,-1.4037697799782616,-0.9365903118336097,-0.6484882557288852,0.876758284984209,1.2854585535206835,-1.5949353976536573,1.040203733504924,-0.03483045512553159,0.26033062294698595,0.38259826388774487,-0.7004418573879265,-0.6430704906389316,0.46022581574430926,0.07219667085544787,-0.025951945609486004,0.9263088946780267,-0.47312839457730116,-0.15030475820666145,-0.7130370354174888,0.018281701641936102,-0.20685554236854115,1.94805214204111,-0.925429317070144,-0.31946921729509337,0.9377191492448007,0.14880101617641253,0.578496202787135,-0.21775516471364464,0.3858693912798987,2.5033596183913525,-0.9485515779148839,-1.5464542470800984,-0.9306638299572566,-2.3198577075489646,0.7947879112843483,-0.4812021811839897,1.1246331598673842,-0.6759346685317389,-0.49818703728642383,-0.8825219776578602,-0.17180965366601536,0.46442999300941257,0.039470760715144465,-1.2524157547420398,-1.409501539083348,0.9684175714099407,-0.3273523406736812,0.805795720581568,0.6522849251894691,-0.407061618495,0.36592432128400165,-1.034065273955489,0.8723921768623124,-0.5623119318055284,-0.4806182461804402,-0.5441665190574226,-0.17186986704084273,-1.217586802580142,1.9084126227745986,-0.67179178489782,0.4591671203379929,-0.8302264450578775,1.0086150175674142,-0.17734552663360953,0.8236795157574827,-0.22045048615956214,1.4712505373730556,-0.6433228653117454,0.6592958958797754,-0.5169044997915472,2.2881961540639657,1.0847470385787163,-0.6734286618799539,0.5999272267493411,0.8354233869104332,-0.6421187071645247,-0.21175366121681596,-0.2136559286873996,0.0005475666663814999,-2.0707953638056384,1.3270611424302745,0.26400260523398866,0.3287901197991236,-0.34273896923803543,0.49989449235314726,0.6981870056814069,0.2779756466842229,0.317532153768424,1.009953120677767,0.11844324135473772,0.9597849456820348,-1.4886917178505634,-0.20154792524325915,0.335138249828782,-0.19629602908026533,-0.797029213007973,0.04862792162004167,-1.2864805808067021,1.4982084391736041,0.2745019925067381,-0.9212225373707975,0.38299033437068253,-0.6031047908892206,0.3353056064223315,-0.5708295474041502,-0.2929763442425191,-0.29458210633212845,-0.4517739170284516,0.4300880648840349,-1.1098481910275992,1.1118033351820606,1.9733632541318296,-0.42386090015464706,-0.05817548298937997,0.11691326671862129,-2.0279400824265257,-0.03226074281472746,0.2383136471673994,-0.8442482620103295,-0.04498533130593946,0.7372715905815178,-0.877272064100746,0.5098313642036091,-0.6457566673470083,-0.5702187881967279,1.4881796457364829,1.036761373565512,2.0748264482335834,0.48861119801361547,1.0099652718260206,0.3120236457753417,-0.17044246292278623,0.022044003553059778,1.0599265709043904,0.1001204522567279,0.31271105108835673,-0.3304216659784565,1.5470637990790328,1.4761709392920983,-1.524680972935943,0.544660905653673,2.8691418028670883,0.48150420003476696,1.0792914242615492,-0.07287241404621297,-1.4868924735821767,0.8475493614872579,0.31093035883170983,0.821148078557912,-1.6537668068531088,-0.35268529030588464,0.5165435078686202,0.1703628856673729,-0.7310743438404356,0.6635531315691239,-1.1843154743675766,0.3843367948254959,-0.45214618907498055,1.147626273567549,-0.053701738624801716,0.7492818757816044,-0.6942553690912479,-0.6764312788740728,1.1321382087265945,1.121166545334818,0.005960927795453521,0.16446649352853882,-0.8064475701992587,0.8607119162530885,-0.8663860068409973,1.0565681766058408,-0.9440300208491079,0.07795199507249556,-1.138553441285415,-0.6603781306290721,0.4091250521239246,0.46261320304778614,0.598763076118224,-0.037883693139908976,-1.5090373126945624,0.9678790217257527,0.6458970869496398,-0.38735939818227955,1.2407080148566765,-0.7413274129065591,-0.06210627435903104,0.4435882359658587,1.3893187023262583,0.7643758041546193,0.8204112984558752,-1.230588008741014,-0.5294424715159437,-0.10497550633423251,0.05953722803925213,0.8841208094222625,-1.0509836742810463,0.16332200270583894,0.30567238342760306,2.012760229676449,-0.6006436350408072,-0.9533793740338302,1.121030761430168,0.9445331150413582,0.1529522203423082,-1.1008450092262778,-0.36985376301999606,0.3706411914767902,-1.430632406902143,0.12276748499054416,-0.8518569861901385,-1.2217590480072136,-0.6556332137518145,1.914005859721785,-2.9995235127660433,-0.5159320725170357,-0.8578528216827195,0.40757654204957705,-0.14850924825999484,1.2826474899674727,-0.8077276860634799,-0.38009055487252225,-0.6345938213188632,-0.06936862739061289,0.8189113041005791,-1.058982137455555,-0.5845399785645904,0.6852825833355183,-1.4606618268489582,-0.5032999663492634,0.09348211282184932,0.6511863599409168,-0.4103816359095485,-1.3204298423239436,0.49029989903501847,-0.8981210450252451,-0.22429960033176005,1.327332241658196,-0.6977052151833936,0.8454113549906687,0.327973496763104,0.3145035469713347,0.9586235813070778,-0.08462397241692123,-0.7544441543709766,-0.5771745675468213,0.05905816877038146,0.019143779561234864,0.29824900813898064,0.3553868129528148,1.6610415204093147,0.10621150947959303,-1.2990451180455986,-0.2077122836398573,1.3868690623742392,-0.2036942661962309,-1.5263247031889924,0.3977483796947991,-0.6616814735631064,1.9549014100496513,-1.4682818548187058,0.12779046008402806,-0.244884872575564,0.4498761429906416,-0.8820608016068329,0.9963969125730274,-2.035762726167701,-0.25376088676071656,0.00917114679289297,-0.12376928523223218,0.14791182157505336,-0.43034290054046964,-1.665760524919956,-0.0011394064707540843,1.7692063488706238,-1.537686819619058,-0.5390313111791837,0.018266176661337733,-0.529851747955647,0.43793886826887296,-1.5904405240810908,0.7151679581804565,-0.29919714185851654,-0.00926885405836799,0.6210890432557088,0.5094098517359852,-0.7823463912665727,0.22370742328978888,0.6409443159466884,-1.3151913702541727,-0.41462772133521053,0.7992224130648258,-0.12877922123916383,-0.6842030298797511,-0.5105785946352303,-1.1769204652013623,-1.5153096747316306,-0.6775882652929591,0.10182069990254793,0.8976137006511411,-2.096543017009183,1.3244168815043105,0.05406520066222971,0.21013749647670737,-0.6496181057540469]},{"Weights":[-0.06251181367981194,-0.007690636485502644,0.007230102454790318,-0.07279691451101579,-0.01922084508241095,-0.012290720358794754,0.022064321921318145,-0.07610494714954426,-0.06339645678235752,-0.029036481559221602,-0.01592378943728025,0.005205940698856149,-0.17946707094930872,-0.044864172776601687,-0.024259780847883317,0.017204792034957898,-0.08837714299884879,-0.10351404591193786,-0.01627596075690529,-0.07949493602137027,0.014098972498887568,-0.1696222333200295,0.08921413015168363,0.13304465950828906,0.02306694732273986,0.16052977978544894,0.033471047240389885,0.09477071246214694,-0.01933026116199714,0.023281467876490557,-0.021534500515888528,0.02063911717332009,-0.008400541100525297,-0.12554526289833984,0.08577544852285642,-0.03778374880096204,0.0031097329674572155,0.11036894036716217,0.008683804214668855,-0.03512766209025644,-0.06456673549066992,-0.027373909279112825,-0.15373860927717609,0.10249739208465664,-0.12399589044074856,0.02651782502690405,0.030545816345952156,0.04465655224276926,-0.17019630561639185,-0.021630699060688586,-0.07505639471168113,-0.1274527509653106,-0.17820624250498224,0.049937192842397,-0.023459006489025835,0.1011837743219502,-0.14100872777578216,0.12555147784646795,-0.15458634187358,-0.08317257468721331,-0.02271379488569041,-0.053802970207005786,-0.09012647346535785,0.060932253547250466,0.08274934009687673,-0.020521225836689316,0.03868791640409897,-0.011441017992995937,-0.029447936250307,-0.06319590297905409,-0.054027825228290485,0.011527606623283875,-0.07995403567687324,0.05618710162276597,-0.02388673098063131,0.0408150213319585,0.0019048472016190794,0.0058275488049136254,-0.07208726556610265,-0.18796013893556454,-0.0476842189441133,-0.045320038870724305,-0.14607913060103972,0.10043944503564833,-0.07882061967084548,0.16873137162210491,0.04603770378859063,0.04696638964780211,-0.0896801109481967,-0.07883677980756239,0.12682233237369434,0.024857735098301314,-0.18596693940447642,0.02234393349470694,-0.05732274704112244,-0.04783469952397105,-0.004063118262779265,-0.07830229618841222,-0.0765057199224735,0.04702517586161655,0.15010454824484246,-0.02242640951657319,-0.18374140281365192,0.11416087870512004,0.0648586804923448,0.11933986246087624,-0.04167798912603565,0.13802236653153024,-0.1675840350899297,-0.0758380583954662,-0.00924187862183365,0.004228739026395445,0.010019087000496052,0.08237166675496706,-0.025841743039543272,-0.0069633577320266545,0.10434774270855994,-0.01856414049869878,-0.047577191878923376,-0.1451182972519145,-0.005192561683992017,0.04013010041903961,-0.20630437787903588,0.10671076928526824,-0.010736421294083065,0.1134673467448661,0.09358578058843144,0.10506078517558531,-0.07322715030009973,-0.10694618873770323,0.06271586581007141,-0.02513634155368176,-0.25559228603854534,0.003991762281517235,-0.04708715427667909,-0.02900928179854541,0.002691150082580658,-0.019417338217519595,-0.03786636479779038,-0.047060035253725,0.08819370327194369,-0.10430723441771961,-0.16381411397270446,0.08714729987435074,0.028059587817780868,-0.03863128724310466,-0.01858137824016653,0.025308008639621914,-0.05991831665902776,-0.03563667682219279,-0.15597784562282208,-0.037475055399127565,-0.24580197292240144,0.020747262463684368,-0.09908047156536237,-0.00520748413434814,0.054132075365231645,0.08430017031098747,-0.06280578934913161,-0.14846050949051218,0.02855871632784816,-0.03248570619431808,-0.25619748312898144,0.12279861459741528,-0.06613754967977581,0.02317095179355273,0.10002981909146076,0.06969416431172971,-0.053951302482261335,0.03449595900397273,-0.09756161194478154,0.016078262090719497,-0.11820950229098533,0.09932005751208463,-0.025266396288348068,0.12727569545393697,-0.05310101763886635,0.08968967201862653,-0.11269916545162321,-0.02635663377089963,-0.15862143764101555,0.07300530305548726,-0.04280847642902145,0.19013120489906626,0.04561360179921883,-0.007422747710272834,-0.024385915668388467,-0.04323437816275585,-0.1562009541344729,-0.21994799976090532,0.08371693847029535,-0.024450489680559826,-0.15994653001004933,0.022815081097387266,0.047052370292325084,0.11909181143191627,-0.051293783433751586,-0.007842232839210908,-0.009714335204449767,-0.11800846628312801,0.09267600044117325,0.033129781850902464,-0.19189082401348237,0.14449724534913347,-0.037656303093921636,0.03748710672393317,-0.0228409944770308,0.07775833972653844,-0.04618424757462408,-0.1878788911842208,-0.09776386477578086,0.13794181215438123,-0.10253955879248101,0.0036405685924518487,0.07236564846548639,-0.03967515484533314,-0.024539589301930318,-0.030878235862629003,-0.07154426496537299,-0.10551687783863939,-0.013991266197263156,-0.05003133954153716,-0.045410145313590645,0.1321663449935128,0.03250048570825909,0.07776242460606037,0.02637656213607707,-0.000049246041109719425,-0.06696103902393515,-0.060631463674568536,0.017050039846346163,0.02726304837434226,-0.15129389797686263,0.06358231220852238,-0.02309357903831429,-0.052096362763556545,0.13464346928338952,0.019642760576682843,0.10577029714487811,-0.0036698140121117625,-0.039224657942532215,-0.04435339430380846,-0.14610429816918072,-0.05605844477040681,-0.051042258772878366,-0.006508982003028645,-0.03694617978319357,-0.0018700592849308225,-0.08723166461769913,-0.02606298156661922,-0.12119751026231483,0.04417237655710225,-0.19718714252995445,0.056218251381582235,-0.0137638499597476,0.11480906986255945,-0.006055623127413979,-0.0668798428281323,-0.16226529107566837,-0.02199035234561488,-0.03312583820278066,-0.02703509854426909,-0.061063983631110486,0.09752180253054686,0.0009343666130386314,-0.05049635991538366,-0.011568439201918718,-0.02981308636934293,-0.0894189159168452,-0.020384382492845278,0.0438501443269109,-0.16076528616569458,-0.24368508408047093,0.12063471122448184,0.08871675639962927,0.001862654739702067,0.03128987070219239,0.09476251123333816,-0.19825618980378623,-0.11546757546857288,-0.0033822012762801364,-0.03193483296063335,-0.1922995638776411,0.09337110882772962,0.014739570718402314,0.0647392941197415,0.03193201195260014,0.025934321758169534,-0.1209783598340928,-0.10042844968506075,0.060935116299173524,-0.0460664677077889,-0.1611828459234494,0.19892131440026548,0.06713500498163161,0.0961982402367765,0.029881668316311873,0.09873804264912611,-0.14640416868637177,-0.11513962403726531,0.0352242193843482,0.0215436514046746,-0.20588811478624025,0.09856070631682805,0.009339028395478635,0.05556269519628085,0.010206103956011462,0.12694985071222456,-0.023358333157267094,-0.07536546233722755,-0.1676410267009588,-0.06768598360809881,-0.12036772629883898,0.12469312279487953,0.016226558391048373,0.2129704856745619,0.03400090624820795,0.0366604815987318,-0.16017764016708838,-0.050225829844166105,0.021338649619389218,0.02068292653290184,-0.1055498039659209,0.0565477705518447,0.023570539812180272,0.07714781256620663,-0.01852574992481324,-0.0232719397933838,0.008002584572281791,-0.1349410867727425,-0.02074163512205794,-0.06524590170554502,-0.1620868123403398,0.10064330042491146,0.026678000898670295,-0.09075146635139697,0.06634449565759597,-0.007556266504477656,-0.05158066394570078,-0.1725354306237654,-0.14186265215936633,-0.0616313642486416,-0.04800582579629213,0.10768412586508232,0.11433987338181692,0.056378282495355606,0.11092452318959245,0.002048188184921842,-0.02354644004936421,-0.011216704122035365,-0.05009266702813655,-0.01945270956333517,-0.10460471382343674,0.028216567540679985,0.1584064964711399,0.035430988218781045,0.023680242904095185,0.020767378016737014,-0.1160087320377586,-0.08126501083716903,0.15026905026661952,0.07358916480305365,-0.1588653761980749,0.01570476731727113,0.07508484996904938,0.09938040736320264,0.013874426101692565,0.07445317683807465,-0.11684862571464465,-0.08770264352579436,-0.021431258137212923,0.002316583136983956,-0.2546860302149917,0.09502496646562691,-0.03943209553104793,-0.0476155063741685,0.09762501662236225,-0.16805834497018377,-0.16569330483860933,-0.09412715517078482,-0.07496682851377336,0.02022268281719829,-0.14623886209546416,0.12551658316508774,-0.16634356327338368,-0.03223147713939617,-0.05089984631699568,0.0444331164273099,-0.10212673253736611,-0.12144496031942603,-0.006262974069395897,-0.14186757775608025,0.11699577081457863,0.1407609033274177,0.023717145212282742,-0.0666738743164919,-0.08225441109204334,0.08376944656469602,-0.06971017237262492,0.030224799897658163,0.005368314336357926,-0.01635526819978682,0.058158273949234944,-0.0007233216567773844,-0.07029541657954144,0.016345932022385316,-0.05313633703105921,-0.08843041980693589,-0.19849991636164394,-0.10128773053109497,0.060787428993799145,-0.011371235041894048,-0.10091679422914761,-0.02850436345440932,-0.021150670714424363,0.0265383784983362,0.12791076199418372,0.04631382049211221,-0.14958942621036292,0.003083310183282157,0.03777770955631627,0.28226188809149977,-0.4094243143954747,-0.022881805225739443,0.07369573013324227,0.2327156635864127,0.08701729716038904,-0.08196720918800798,-0.0848753851668477,-0.05849424885090999,0.17912403352482886,0.23042327680925562,-0.6408921138412743,-0.08907746246953634,-0.13174003484513563,0.3253660775417846,-0.0343658307490773,0.021307820348991563,-0.2709103638713831,-0.2823267818915719,0.16858897714229149,0.08973443539063847,-0.2513825255014048,0.029971128580762476,0.13006648235166895,0.21419653333407296,-0.17867755936595342,0.15429524079549853,-0.29284425693474936,-0.43663294225354704,0.05355470719149793,0.015128967063101151,-0.3832713048350386,0.11330747690616275,0.05478156540773708,0.030601975924636596,-0.23514467921917834,0.3706070374518041,0.160343648791048,-0.21618338120371647,0.7279206669446796,0.4341331195355963,0.15665964172890717,-0.5007797833474944,0.12492156308454,0.3083617253040048,0.13665942072317228,0.6197578740638916,0.47240439656184596,-0.605864979243838,-0.8855111372988441,0.11940547259939821,0.0035210188854499906,-0.4612800197937383,-2.836446191019824,-1.743002726989724,0.016999490175958407,1.4656698060269808,0.7667011711495016,1.3388649535060304,-2.4175458070564773,1.6725438578215517,-1.3600628957614405,2.332757833067365,-1.5347829012834657,3.024921284869526,-2.4943078727327923,1.836702678795637,-3.0631927109312183,-0.4650144941784106,2.2396453277183133,-1.262489005137694,0.7156649348674667,1.2563215926555773,0.2181862791348234,1.7433768303048807,-4.306376220500369,-0.4306605418209162,-1.486442898680893,-0.4959599290381473,0.028186081135713283,-0.007605798893160566,0.07285193530919162,0.10335772714394287,0.05512264153631094,0.060308096832983465,-0.04968542710246649,-0.0220458663511903,0.012589983253725836,0.03913681460844623,0.0423933152544154,0.06992476328106739,-0.002538578771592501,0.03743946566737955,-0.04554423386137535,0.03855823567868298,0.03372876737034091,-0.03975735906806811,-0.01956458404616681,0.03664223064243392,-0.005918940331197608,-0.06478165048429937,0.0047554021078908045,0.08940886737313321,-0.20387877089723416,-0.0852002096368972,-0.1490223321958014,0.0036658268051858595,-0.11207030681604384,-0.04606745924460436,0.039084835610828844,-0.12377466399061764,0.042146497344872615,-0.023526784106977935,-0.038831536016944945,-0.03726085548780772,-0.06485497392443411,0.044085193044821745,0.03064948305852629,-0.008316278019320103,-0.00072598366943385,0.009807664100303358,0.062404109633160613,-0.17021364895695784,0.17251463593032068,0.012928382576622368,-0.031126591607383496,-0.0630108721815096,0.0881047382822482,-0.0012832579593733604,-0.04298924428140755,-0.026131881412412794,-0.008373395597569762,0.05134440521246794,0.03324420364944962,-0.07197468546873471,-0.10827365933862235,-0.01755006536292323,-0.006358165576761097,0.03272475541504997,0.05033221179317717,-0.059588070794907896,0.036939702565371255,0.0301779842769443,-0.07707664936795887,0.04741022419536937,0.1411198655288128,-0.015997265694900852,-0.019226890263036204,0.07385096180896518,0.0352659309132796,0.049515473995440686,0.012217097993725558,-0.041116074260213825,-0.12101105276011193,-0.07230683325510463,-0.007451866904265346,-0.06471061330825387,0.035048317903213895,-0.09693647266239218,-0.06176706567679664,0.06548051578485431,0.03051127820470772,0.09866637148422167,0.12583363090234145,-0.25250629219361204,-0.022333201654949147,0.03605977750994771,0.12416847722708758,0.03378753293224651,0.01570056595125978,-0.1345013869855483,0.0686488425529587,0.09554760633292063,0.07326087538985497,-0.04362770999434005,-0.04154828171108603,-0.07275034881091773,-0.00690200796736631,0.02543875413935163,0.005141153564186639,0.002718658547572184,0.05333981832862035,-0.06257955084921958,-0.07572946999467002,0.14018880199334127,0.07761522750227329,0.0493872184507956,-0.009140143439692744,0.06606860260125967,-0.06437201741385942,-0.01067515309448572,-0.012211732250763552,0.06816410413268473,0.0680503450874339,0.041709105197420215,-0.0433484457835934,-0.06105030015645528,0.0491285234752936,0.016130037180681383,-0.05703366576827321,-0.00817378798465921,0.02751601164157782,-0.0676723445273534,-0.12351163620567554,0.01262396480545198,-0.08015646209028758,-0.09378158317651135,0.004862035587059976,-0.03249778465234732,-0.12202533676164913,-0.027782643004244847,0.02298325536273294,-0.04240353849900411,-0.07124499189321061,-0.021369991456323567,-0.13740600720041626,0.06074535173178629,0.09362811114004374,-0.023953644764571114,-0.014944866107752204,0.017918911735946362,-0.035628371125550555,-0.08349132981580644,0.027049608580841458,-0.10182290092520495,-0.061614397132125735,-0.06622272604711825,0.009367780704749034,0.05938373590631483,0.054619124252729696,0.03319367067305342,0.10686111359996185,-0.04240779929514097,0.04574285743191531,-0.06465145188081141,0.004065191543779604,-0.18582077011264075,-0.017880760326739485,0.009085478565928076,0.010694348812280952,0.018494750760127993,0.10496981426297408,-0.007202536195093734,-0.003170422917017676,-0.07743664215133253,-0.08123008322143706,-0.0874782677414344,0.082123666069534,-0.06377989656046379,-0.14101301150763282,-0.08560037503518787,0.08460508329958177,0.07070807987979259,0.0688321548567102,0.021289897340518185,-0.000041613001299371116,0.14692611796488947,0.12087140004576324,0.022391122944048936,-0.026888743078094177,0.01244593295804605,0.06390818913987786,-0.03368835898976459,0.03789526283719566,0.10510584210335487,-0.0021525413226300538,0.025402127394269034,-0.03384179282743273,-0.08855555274773338,-0.03088240129801619,0.08293977368291906,-0.07802390875623086,-0.057657627696749314,0.1547256596430546,-0.004180260575586267,-0.06296424070824279,-0.0355256748958384,-0.066145057629738,0.02198767088871508,-0.033906152373768796,0.03381213732063724,0.011899866875876066,-0.049316570236303314,0.004174611198745894,0.10862627660042695,-0.013403911339959948,0.015268096427742423,0.061535866455060054,0.10791561074458701,-0.15788588364564937,0.003711699068082454,0.1169886773345979,-0.04473626783122546,-0.039548691050537994,-0.08481942573297005,-0.03932220700463213,0.0050675360419091655,0.04152937798170031,0.02983842254929072,-0.01235937749670197,-0.04651491749621262,0.0463952022093054,-0.04223796241468314,0.0017129749900339619,0.03149659717640657,-0.04564865822473518,-0.02235951472619374,-0.039537173404949374,0.06712193949141577,-0.10998049039740929,0.03160639301594593,0.06910432895741818,-0.09816137543584365,0.00011724112178007639,-0.08964973179077604,0.035577634341771885,0.10588011902325124,0.042266373823474965,-0.013482187569358687,-0.04159143666341482,-0.01438848054209963,0.11296426753438545,-0.08385885569695865,0.06866865308616883,-0.07705254782231426,-0.0014679188924283059,-0.019097299585034637,0.0543718395550468,-0.08361068349109575,-0.10805389825295686,0.15502154309605698,0.1372555963282433,-0.07874047847739125,-0.13847748807980964,0.01949254734346626,-0.09612086737885268,0.031926356368506985,0.1393230477980071,-0.013657299285178327,0.09002486741367786,-0.03408924884650416,0.01871238137734568,-0.06959471484121214,0.04110740235938512,0.1304052759812452,0.07987902584365397,-0.07595400067694341,0.028355871341951992,0.0851186934429492,0.0997701914340132,-0.018492394596934487,-0.026516456932635272,-0.12446929856581868,-0.06013327906696855,-0.13382678865638148,-0.045466753146535116,-0.07724445137633194,0.039425339839540184,0.07541239840840104,0.09367605073429679,-0.09826129078605689,0.1017009399427728,-0.06673546567074598,-0.10692343143930738,-0.0186690621951527,-0.003944743994948676,0.005224800038603317,0.0682068971552009,-0.02738907809292101,-0.0880130444916903,-0.03123297762215204,-0.005998188032772889,0.00046853755105851294,0.02073369115293042,0.04283570788869925,0.09032113584699286,0.029730680533238112,-0.05076788594020252,0.10381077894096406,0.06648003735956141,-0.09088921669439713,0.05884953271623878,0.007039826992828402,0.08432146279998287,-0.039861767655863065,-0.10612765525395138,-0.025880814939730733,-0.0973595432658813,-0.013346325739256863,-0.04021687598329623,0.011008325083354486,-0.022496826166376795,0.052020527597949236,-0.006661459233800237,0.03679466892397584,0.09362227351356338,0.1259175552813942,0.08999512069873392,0.046074968122955355,0.09497958313406839,0.06594472568117991,0.12362520130250745,-0.09506310652703032,0.05829494369157852,-0.07295264797490365,0.022486904515563736,0.0036647628688428174,-0.026988358731042876,0.03256989535464091,-0.07503338752767422,0.01260558101220094,-0.00470033270072879,-0.11096463258672896,-0.01553597387096312,0.009877303915836626,0.1396678237415683,0.025888490764011663,-0.0006774245272934382,0.07226943452347705,-0.031246427727783722,0.0635036869497287,0.06015136984895461,0.07981546329847629,-0.12323987543813579,-0.057128932648770794,0.04238035581487588,-0.093938561360543,-0.02786241247306958,0.003728663513478174,-0.011624112854774302,-0.1905517447082356,0.2065732598420029,-0.10421665101732938,-0.010951085193355217,0.06325765678407712,0.03254707167112805,-0.027829756220919214,0.04197986115462741,0.07938096953667323,0.05391810350997018,0.019472680868283,0.10667434237589234,0.11263692372859184,0.078290076618112,0.008465157854545996,0.10826358396758777,0.0319903287208781,0.09667766133658923,0.0897428276747501,-0.12452581892558245,-0.06789840000194795,0.16821863552181704,0.010048867842249011,0.08489698313838563,0.01474253500181909,-0.019556905927908284,0.043043209154164756,0.05869450016646442,-0.0005943906627450407,-0.0947180826343319,-0.06162374322350955,0.16706276667911846,0.0015507547626023178,0.013954847858338941,-0.14918610207498875,0.1039661508592629,-0.009432785081668567,0.0030690363244279843,-0.003378937066306786,-0.0490815550043556,-0.1259473047492491,0.22826502035105578,-0.04526680366433877,-0.0955852523941926,-0.05592320623006549,0.05556299193154109,0.06910561176658828,0.1499755463039586,0.04106530611423123,0.1270506431954611,0.07937723572645462,0.0548240214876269,0.0031383418393364495,-0.10701386581270178,-0.07845265408097618,-0.09671551976790214,0.036188041901348625,0.13834030102548037,-0.13784418505215043,0.03672162427815239,-0.022476303422716164,0.0320591161238938,-0.2566792877726537,-0.057298618789871664,-0.13832347097738473,-0.10659283639702687,-0.15882415184209137,0.17150608385404714,0.06322228342055751,0.05937825491221663,-0.0539399025494283,0.07867495649488405,-0.051613800349428716,-0.009247531368085508,-0.11012185923221306,-0.20215287210919747,0.13393109236154288,0.0967328237249484,0.1334396021792759,-0.12550644128905739,0.03462204356242434,0.015989283978217975,-0.19314441501092466,0.04548330601329188,-0.20662265171392472,0.003573625514554533,-0.19252642965269787,-0.09839950654918504,0.14606720106142157,-0.1766335720454872,0.16352776986915085,0.025528658198398876,-0.11127517574850435,-0.3032449064618669,-0.11947057815778984,0.09629175974524623,-0.15787827964302392,0.1659123818337979,-0.000296293662861744,-0.3592219724654691,-0.08976712416709536,-0.32708620834416596,-0.018625325200675672,0.25558426201437495,-0.00852646877779767,0.05827450195204847,-0.10058686940688938,-0.4664174392462002,0.08264326210541993,-0.30666018629469255,0.8129619843742747,-1.0308248512331648,-0.15028950042785294,0.31120513042847125,-0.43868028627187144,-0.29641725893278364,-0.2199285684578943,-0.766393376177267,0.514108516518876,-0.594622926898065,1.1388221961667988,-0.23406584560143118,-0.3347426493890157,0.8516139802704322,1.357419486382509,-0.2699513542659948,1.8109046669046354,-1.9818442134353849,-2.0499942296021016,2.6707756425303746,1.8493451622468096,2.5769869503865346,-0.6213543388870778,-3.2840773603045705,-0.9300943919084452,1.3312561247830261,-4.144380797123512,-2.481588951326828,1.0620068369453237,-2.461477761273873,3.3068800057826926,0.9849445399062497,1.6475059899622047,-1.6155715766080192,3.0383727460746996,-1.4574666932253635,2.0893051301187113,3.92827593675001,0.45132547755119296,-0.02680797421324737,-0.03185566275672901,0.08882435607194576,-0.005478136926546183,-0.04843782107841932,-0.05247118245640771,-0.04057047435312307,-0.014938364710003938,0.045593757942953964,0.07118658370785402,0.052974807135089855,-0.02550279267621894,0.03464500584173004,0.02841161504599151,0.17449538298068598,0.07403351720323595,0.016058371777181592,-0.02130353906933984,0.014382423368516802,0.08657845030712641,-0.11041771647017336,0.05129597473119708,0.20029335683976118,-0.0231080327586689,0.06317315375957874,0.019885708869965265,0.0542824368304793,-0.02131056886092014,-0.007988878703147188,0.01931718063483393,-0.09922274565804236,0.016013436983379908,0.009872791615680656,0.08531844656047793,-0.0010269566337465321,0.03892748080666096,0.11629441428410166,-0.08425199728090225,0.12658846846490365,-0.030303282430487084,-0.04534401211085594,0.14728403064930895,0.08217124252114301,-0.08308922790935626,-0.015406713427971291,0.03631795799055201,-0.026195086903234098,-0.010735664329755758,-0.048412347318021375,-0.00106869225957057,0.01313635366040754,-0.07960726594944603,0.05621890091291683,0.09541722932660028,0.0525317966105547,-0.1476635866972561,0.06314606562336525,0.00792463522564461,-0.0275750412085198,-0.03589095595915432,0.020078569019932234,0.08970492752999976,0.03887373317620578,-0.10639303630785318,0.05096174553268082,0.06327702638025116,-0.05662137101788253,-0.048767587026448726,-0.18398809854745568,0.06306450277951123,-0.10585281036376269,-0.04577318032846857,0.06662772400186565,0.022319073503937126,-0.1020670187153097,0.09355611249211841,-0.04810287061557755,-0.011718412853149281,0.03788072186812188,-0.11944602790399524,-0.05354953651991859,-0.03618008053117995,0.029891316445295184,-0.012359195791821482,0.09627956648817589,-0.03716588845135633,0.054277895982189524,-0.03673606210360689,-0.027821528788395496,-0.008729699223038245,0.03335945350614925,-0.039427229506759566,0.019240381405473305,-0.06616303912885145,-0.046915790312069924,-0.041084015940813956,0.10250411256296026,0.03589260087800689,0.014722750355717285,-0.0640084797993555,0.01517960492733214,-0.0701987140007081,0.049300366755753756,-0.005277346570750208,-0.02376971315394324,-0.10675478697499508,0.041478230661564794,-0.0019060556262965333,0.07503491088161436,0.08700723337759139,-0.021015935091397698,-0.049673274455014155,0.16151800214808879,-0.03146326809323504,-0.03859173991418787,-0.036492648019537936,0.04221979341999171,0.0262853300025971,-0.06362053021493888,-0.014353051488065953,0.11283368976371247,0.08645669428085576,0.06856705455665153,-0.061324167687744305,0.03952783814432641,0.0639939753857812,0.019355277886241293,-0.03398510878808112,0.0667871880763287,0.06069802788903682,0.005526527871174475,-0.0014255343686040548,-0.013017533537154048,0.03578597063656621,0.09038218349562659,0.031227597599461376,-0.05109989656093512,0.010295510084109765,-0.00640436473351086,0.021189432420346613,0.04272806688533174,0.08472436041198148,-0.036106350380198285,-0.07297071642467046,-0.016015944700235034,-0.044278262992881186,0.10110614145833181,-0.023596220756955985,0.03202357133190739,0.020052018897622974,-0.07871017708788815,0.02159623827987409,0.03693683704819991,0.045419854667090684,-0.05757866543283339,-0.07172964580316593,-0.04015506474007444,0.009297529569016371,0.015071904744252063,0.10184055501837082,0.10272867670251914,0.042964675409514826,0.08311114986475575,0.006988498424415639,0.10731476024107454,-0.06815149467194771,-0.055871004833525945,0.014288319227035799,0.05033965301157851,0.10848001468821976,-0.003280636491662956,-0.08134356831904677,0.0314325204547202,-0.017667504886540945,-0.044131335020872804,-0.02658173982393625,0.07256538624279832,0.011188224139720093,0.03910570953782931,0.03432109214035221,-0.02604973101446802,-0.07650369411250137,0.018782596390129226,0.022705013832759684,0.11285081998213028,-0.02537398762776594,-0.01544339158437668,-0.09729713046821575,0.05314861369733422,0.05024174900593685,0.039669701152519075,-0.015604937987502655,0.04441416460486152,-0.06105899343263112,-0.10755703044779892,-0.02730908136288367,0.026027359740151097,-0.13776722673071162,0.053098868484095306,0.1062710593119092,0.09481633508218232,0.0815444124156913,0.02573029227455507,-0.06855528697929958,0.004088930070177422,0.03910789215136856,0.026434835241564345,-0.11547985807494221,0.05011303098445112,0.002455185692063953,0.010955782720939973,-0.1302892493224087,0.03894326742144229,0.051764311921969126,-0.017731990298035107,-0.10586421121967182,0.07616992559680617,0.08001490182251013,0.19662055979346055,-0.02581042989741664,0.06730787472443615,-0.017803877343977013,0.14250307845707352,-0.027672741492633074,-0.021626434780216298,0.06951994970632998,0.025470847382204172,0.05993868486600078,0.027461152223435308,0.06445036503136303,0.0870480783227828,0.009229331136122836,0.10887153370948448,0.043446977582892024,0.00024179854904306583,0.07775317569289085,0.04823300010106132,0.11363275574758784,0.039591502264347544,0.05032342016671901,0.002927385408152346,-0.03997129637613496,0.12100701151790366,-0.09271942502331632,-0.07027071000596893,0.04153632065508603,0.17046541481313374,-0.05600438646316543,0.011603101424896532,0.013023634047261493,0.01982138610404508,0.04511871044984766,0.11217465464971042,-0.06722672854462682,-0.16042887052082663,0.018901110346124992,-0.023809848212890353,0.0812124850306943,0.03970359797887028,0.04916038553710497,-0.024765308999357947,0.04986228861387329,-0.04626164829457651,-0.024150795166184194,0.09543964214801857,-0.03350407999444749,0.09967865499230968,0.022746590791123334,0.04389570103744184,-0.0025860104366659336,0.0736224545226494,0.09274211901648773,0.07354772960053453,-0.07007391759089121,-0.04303244352073854,-0.022514367597374362,-0.0356358023293266,0.018200702029658303,0.042110318483289146,-0.043527612734737715,-0.07389113204992985,-0.028378806790984187,0.1098846390882213,0.019158378317904907,-0.08964155469964466,-0.08939156681604714,0.00883720114780771,0.048077182544149596,0.031078498462445602,-0.04735592312214296,-0.04847434672872542,-0.1637747147079043,-0.02250360632583201,-0.02424457109066116,-0.03437441881864315,-0.11653552159956475,-0.05016464032841332,-0.0828774403400235,-0.041352745547627204,-0.02273928229470462,0.005804820307808831,0.05808579611748656,0.038152723172349204,0.0015432705488282105,0.034577670060188984,-0.010738701443668917,0.0026432109831120675,-0.07882272859544232,-0.05608503241927395,0.047960643353663894,0.04140838899293888,-0.005723775112787165,0.07889105028469406,-0.0333117708631132,0.003622059934633678,-0.021391742563651055,0.019651287376250073,-0.005965370374411272,-0.09245888700723665,0.048230808360482325,-0.12934175217098842,-0.04482907045942624,-0.13913681355062757,0.050645406914267624,0.009196823597912684,0.044148362320742554,0.004309323462702867,-0.03614562882070055,-0.07919778568492408,0.06155148129585875,-0.018752140344773804,-0.002251291219090325,0.006426878702389371,-0.010385191794379531,-0.02464112018014984,0.013420933943916262,0.06272918140712101,-0.015057945600943168,0.12313817915551246,0.01385383062554458,-0.023721360192531484,0.012949209446836,-0.14201967078753625,-0.02868013288855169,0.016555672231769,-0.011001913749858311,-0.07874261218644946,-0.04214323240501644,0.034773185314515835,-0.0006337539754739784,-0.0653621981700342,0.08894789774233239,-0.04097418210976724,0.03475480906117418,0.043206296134759965,-0.005942371547609536,0.02179948356730528,-0.07267233539573975,-0.01262060396753824,-0.029033810852378897,0.08710601451356458,0.13050399883530162,0.07766543404730385,0.012788902550098971,-0.1083118585055077,0.01256048717557292,0.030094326709851914,0.16524663403458645,0.06049874001779032,0.027552238886085177,-0.03403411097427017,-0.08551353420363106,-0.11989578028493242,-0.04289417389927335,0.0112142133140459,-0.001293281066618296,-0.023904352227226505,0.06159674479110818,-0.0883242232579207,0.10491428784557734,0.12714277093312845,0.0013012982490233692,-0.04640071429753222,0.1764836602912529,-0.10700048777276729,0.05847342418929405,-0.04023595504731299,0.014877491695013947,-0.008492841763324693,0.0940262159471854,0.13782487589464326,0.14095890912696313,0.03338484233244765,-0.09311164042368478,0.009057254381706606,-0.010350760254974074,0.02662818293109678,-0.044476284828918876,0.10045265542867357,-0.03772445518323097,-0.020799434317525414,-0.01667811289153898,-0.02362896219276129,-0.10003048823661839,-0.013105239852990487,-0.06363685326815754,-0.00008122380125674537,-0.053907753983585646,0.016827883190695274,0.14149424979842837,0.015757485462838946,-0.05767872283516974,0.08042565427784178,0.005219007182077903,0.13003806621911726,0.016286033350444082,-0.003151052594974734,-0.05148652455914101,0.04649729499416366,0.024220111661592474,-0.007539982075915809,-0.01933496909980438,0.07555898461135639,-0.06842728391811582,-0.015822915325406688,-0.043441317394179536,-0.04754460751115072,-0.008665746757463658,-0.033581528806566924,0.025718966449327606,0.1717184157769889,0.03366092233487262,-0.004310514297671849,-0.1420906353541421,-0.030803185922014108,0.05723588415043213,-0.07227295470961055,-0.1190142472338711,0.003940122711224596,0.08314777758913791,0.05785092992988967,0.097173828438589,0.04548291811234968,-0.015253412251753726,0.08719476203857708,0.14945610079124738,0.04516089574383155,0.00020107704478441622,-0.070625172673743,0.03433039700758931,0.014905062278792021,0.07415355125661965,0.1694533842139801,-0.20510492952990164,-0.512208949489054,-0.07075016610764777,-0.20377824422310115,-0.04227408201720503,0.5909598450333833,0.12666407758327447,0.16851012946567553,-0.7310147096366244,0.6723551004109012,-0.36780695119330775,-0.7086688770063072,-0.1659514472508055,-0.28172161776580473,-0.02835582048687159,0.7066517369766229,0.1829465298689169,0.9601821384111061,-0.8850224529016447,-0.9902085407566634,1.7108149468284253,-0.2484228746238797,0.1470179443921766,-1.3262262420421298,1.2147729991895244,-1.8604241622502073,0.6283660967501299,0.5249134357218601,0.49713860085686173,-1.4730404214273236,1.7521000636083992,2.525674937410022,-0.40946874414301,2.0601160297292815,-2.3195082197189483,-1.7632272203582147,-1.8470107525812567,5.770104383242453,2.690947595520282,1.4433143549499092,1.9819961905165813,-3.577242531713912,-1.4369748617062363,0.3649796114003272,-0.12073330765451473,1.111594842209046,5.221890619577722,0.13322737951764008,0.0008279794736498635,0.006452351413330661,0.044224779462688296,-0.001826912822114396,0.03251192553248856,-0.10781272804839123,-0.0037767160145422444,0.09756065783561552,0.04390771233333943,-0.04241780728973848,0.10812033563187967,0.09878259991585046,-0.07364070540430435,0.07408896051000635,-0.019484311108909705,0.07797439623703686,0.022277525449335315,0.11258435802582158,0.026951221674176625,-0.09135499883580804,0.04884010965629432,0.08178497272372272,0.05238626484846194,-0.004850075219189081,-0.01651457819440322,0.09027352785028227,-0.06519142432520762,0.0837191549905055,-0.040907434637007425,0.057482983154670146,0.01377450074331501,0.13708436385177972,0.009481938472549547,0.06357930732838823,-0.05994558406412321,-0.023285252359467462,-0.017807470223757914,-0.09943371368548619,0.09431206270023708,0.08898499049889394,0.0747755559762512,-0.20083218958324742,0.024209088305797124,0.04358636185664073,-0.04579916655941102,0.06623120402370465,0.03773641906241805,-0.011011678131550302,0.033160274736268855,-0.012148008974820925,0.045715156555396166,0.0622746152172236,0.009156257969064177,0.0156887328606291,-0.05987868304058889,-0.059555832665067435,0.08434962539252022,-0.018104386238520384,0.01603838503477818,0.02068658437992237,0.03205221378236747,0.02906769109330424,0.09867580445744485,0.09162128186490288,-0.019371514342886722,0.053422904068446526,-0.04410410246313126,0.10268242523391082,0.03686778119428116,-0.004747955498111139,0.04246265306099637,-0.021002871440397322,0.07380997967526244,0.14052828041633553,-0.03970914051508705,0.038880867740316516,-0.144787201101997,0.07183948819994833,0.04188624852464957,-0.010866381762637876,-0.036444643521127904,0.021633900875459394,-0.07385877197566801,0.05368480417256995,-0.09346410758546113,0.06731774205633871,0.07411909526661951,0.20818597213356996,0.028664757665461546,-0.05017584004246859,0.12196351445004026,-0.003205231412987691,-0.011463376634563387,-0.019745993225963154,-0.03946384599341014,0.03684334003954248,0.0062114176401749915,-0.029531118058860065,0.031075960047897845,0.029691205982463793,-0.029787094383726245,-0.0018989452628998982,0.05920865116056139,-0.021687274803712242,0.08620494887132707,0.057538241902657467,-0.010727055212338375,0.010109030854835636,0.024903847934057134,0.05220239197962511,0.07439398912652478,-0.010744232594003793,-0.04375341671935514,-0.03906795089441938,0.13751748011914583,-0.01800182985544662,0.029275339246578883,-0.00009537516279615525,-0.07587694605686195,-0.0033834633678704127,-0.023313766195600938,-0.056522770079981584,0.0241820701167986,-0.01321319473268996,0.0530179548369295,-0.020276252465256807,-0.06871846053123638,0.061848588316080026,-0.011599108630914474,0.03264206829490171,-0.017157433940959012,-0.020118460552737343,0.004105622514430253,-0.17725100229361057,-0.0847731244722325,0.07774709556043688,0.011215353576905103,0.018386803914614013,0.056038774954554,-0.06588841487101818,-0.06469956636972046,-0.03508090387402079,0.02724253362360751,0.024917311966077344,0.09112200929348815,-0.060732822712394566,0.06633858392347759,0.09018821881856058,0.027020719432403407,-0.002040915639789331,0.09078080433265737,-0.009128306493417815,0.02173658735850005,0.10553219489764307,-0.024067663018293464,-0.02141745091883263,-0.08807660350061847,0.022571057332411805,0.026214144592795523,0.002199933501739282,0.00038870767996903905,0.07330960828055971,-0.044317993790249186,0.00040755098088226627,0.009737423784036456,-0.12601423720788635,-0.07272998320994337,0.02469005920611235,-0.05596309484440111,-0.08565378705405571,0.08234789554005406,0.12762238387061822,0.03229405680288225,0.08698577289784168,0.0725750463138523,0.12329532958582745,0.05995316582517461,-0.07330457409440173,-0.015873333755207383,0.03590432353855703,0.00707052035695038,0.1086470939273442,-0.049467885710821606,-0.058575733864380454,-0.019806088789389723,-0.0371807020395329,-0.032690378151681215,-0.1448108651446947,-0.0067131216400821946,0.0597941513290328,-0.010459113562531146,0.031249834986456605,-0.10210570652570236,-0.014189025520517614,-0.007225658124303372,-0.08376082458169401,0.027896550839841168,0.04485475797429598,0.031890189480093034,0.07329184249850151,0.08929875977376286,0.15740081850485935,0.018074966207921712,-0.02792566378850929,0.01868464631063544,0.06644262557465008,-0.00885661188570155,0.0641563268703103,0.01259260681344672,0.04784390792762446,0.004781568824301431,0.07018957129087294,-0.039706671208173845,0.009265990060149292,0.03041261486287225,-0.025473346945590367,-0.002008357163345936,0.12078204889691792,-0.0578267420338258,-0.06893196836172136,0.06016451530510748,0.08518280174225684,-0.023529598311747082,-0.12037942929036721,0.003862668863814968,-0.036912239960464395,-0.0011012368474655014,0.07190290604312745,0.11241497983626042,0.12427886242734291,0.05687090532974377,0.04132588160186662,-0.102561129746386,-0.013918363565123335,-0.08649428252032257,0.0008453003014367872,0.12295807530805367,-0.03816374192609493,0.07691050928998198,-0.08922708652060325,-0.0630312759654683,0.16049812137332548,0.050381890128457264,-0.04939519517351895,0.00004537374090133104,0.025187759306907444,0.035451334768383094,-0.04377450295148567,-0.12429786673799045,0.03853226876891327,0.12351869316313552,0.006126358593512594,0.040776506806518,0.039176659036421944,0.06830965296214715,-0.0074044436659191715,0.008282133565393006,0.022010915755596713,0.06179633572979324,0.12060755432749279,-0.004009547784411839,0.017284961519665652,0.05141300772951562,-0.02192219835251362,0.07473466785028468,-0.0003110604456462346,-0.014485630025584988,-0.05084515633118015,-0.1362993881324011,-0.11231623096418811,0.004266163685011776,-0.03765540545957444,0.08335128160727939,0.14980871273285273,-0.06570289797619067,0.028503085669584264,-0.06982185624006682,0.004873900300185755,0.043147311840772154,-0.09195973116257175,-0.04615575827013816,-0.17402187313186482,-0.030290332436893035,0.04972737680996649,-0.06305590938037868,0.02849849043406414,-0.05681014998178277,0.12341138519069396,-0.0669409565883638,0.10958482400758804,0.0011801562693537972,0.06205919533642908,0.04915207636312171,-0.05859712900075969,-0.015276122583781904,-0.061062166918355226,0.025813460839192982,-0.09711318312582716,0.04394761376890235,-0.03258430890353321,-0.04475117982134244,0.018631290714094268,0.20426018457983183,0.08117126099919258,-0.04716258780051807,-0.1356318673969044,-0.03547785659696224,-0.03000828038129192,0.10817263676209674,-0.01890398864194143,-0.1495714675117444,-0.030937018228152206,-0.060104188444963555,0.008931135518759379,0.11335335304026337,-0.046396872519949006,-0.060227015197823454,0.13556837322512982,0.0678913154073335,-0.04418337751844845,-0.07443283341777238,0.13165906661284948,-0.06542552899355432,-0.015002890075233338,-0.07055655756195556,-0.05009976080498322,0.05645043932181494,0.08938708138053576,-0.0479087414895655,0.04145198006772271,0.039113608826135494,0.0034683706862308973,-0.012802570762526244,-0.0046963398732780244,-0.08599404771274291,-0.008049778155603602,0.09254080706070501,0.07276536814848296,-0.020476995670328058,-0.05343295782238722,0.06471658786725754,0.09327077787051265,-0.09045667007365012,0.05720417349988763,-0.0258834685631429,0.002040353485596676,0.1621264566270263,0.03775920166782302,0.13621775782814413,-0.08698429066129118,-0.11803566142437831,0.10704576628406719,0.07100456972505569,0.03294000806938055,-0.08230133069836676,0.04883755091264418,0.027217613764149894,0.09502508940707448,-0.009537162559642862,-0.021825979820769392,0.11218500762870057,0.06503762794349308,-0.05555987578511648,0.03713271740827411,-0.11655312139749185,-0.07858341860451967,0.01874712286234675,0.02684231745281206,0.1032043231866466,-0.08023852518320591,0.04026807005761342,-0.012445500682968305,-0.03209211860603356,0.141713505633302,-0.03249719487573889,0.16776297670016008,-0.11291519307715299,0.09578219257598204,-0.08836424990404715,0.0005489604360917969,0.039514843949511415,-0.07436185497304809,-0.06366004092354718,0.007363809553102386,-0.15231868143134658,0.046161438536491815,-0.06502951234303771,0.08889932784283944,0.06590970864508398,-0.07320775935519043,0.05143028135493603,0.0371522457562686,-0.029255959673376634,-0.03294322275662957,0.01464183226223746,0.04971370531850664,-0.08349638222680215,-0.036845978236309605,-0.03423104492243966,-0.04240633159279727,0.0527524991368445,0.06565621183704759,-0.11609981465538435,-0.08569735232393007,-0.041405889563634536,-0.16326809018601735,-0.04203633450770243,-0.006377667458052748,0.11582439536153906,-0.03379508411515683,-0.06921981094630564,0.3449325853065023,0.034313789185877915,0.03165706687382986,-0.10907345329220698,0.047131351859438946,-0.05029406905793288,0.13685641024761527,0.023879433383521602,-0.09993100115898247,0.057713213694468406,0.28691463814457874,0.03817626100342823,0.10180481011622322,-0.00960261712071217,0.12630980411473675,-0.05429942328187159,0.07315404829192772,0.42876215746686075,-0.013403029127404995,0.16114873723583148,-0.09724454185829048,-0.1496082845797522,0.036151436095802694,0.17361358713699535,-0.017323679947406447,-0.051762315451861794,0.05578487140068826,-0.058408159128745474,0.025413304802002358,0.23211595642489458,-0.40978566964934354,-0.09942433853748889,-0.300429182329292,-0.0013738753948240939,-0.3933825568324655,0.18605054010064637,-0.265723775985771,0.1060631546290676,-0.3012729264780009,-0.044469466234471275,0.5009581691297704,0.11468589330240359,0.06352095686665565,0.022759592607034453,0.33436067261527386,-0.3580948612759968,-0.3532074765934316,-0.0005874978323504005,-0.5914231823407902,-0.6078324948714446,0.014346513410630809,1.0640480303004263,1.3500654700183374,0.21797000308534165,1.043313335075005,0.36787904909485386,-1.7959802491802892,-0.3165747756742453,-0.20373337660726232,0.23837358316356885,0.9584699632279978,0.6479936151537229,-0.018334246409643675,0.16710908233863836,2.585707063375263,0.599908562292081,0.20353063543295924,0.4663123527382083,-1.3686199156696846,1.882798740601276,2.463948704427324,0.6243748988808243,1.5487561445534357,0.9355906698742871,2.578454789839371,0.2229101981781023,-2.650273484735487,0.7069860214760664,-2.0641273308592676,-2.4362057748976227,3.97117062480797,-1.0139055296687058,0.8741993095985061,1.102816750104853,-2.137238944859481,1.0932475290560617,-1.4603426389172924,3.048742554480549,0.04291063800361577,-0.014941012276852631,-0.04568795884124861,0.0224085696277812,0.04271011367470944,0.07172642499400382,-0.08970737833744262,0.05165478674278705,-0.037421866330177314,0.09031292699105536,-0.11217019301265914,0.028475713786823238,-0.0031895054098869187,-0.00018308200692734736,-0.07307984347666828,0.0547306930208879,-0.021604705609440354,0.01119074448136655,-0.02843216578238273,-0.027826413203688515,-0.045037859649350566,0.09304468323816532,-0.05809959489915818,-0.04365913016206204,-0.061492445880548474,0.04737959113712379,-0.11510413144607494,0.12206127250341488,0.0698767700731072,0.07662177153604177,0.11818080002938228,-0.10369936531867424,-0.04232962867830215,-0.061690100726186324,0.08545477207560373,0.03734988115513935,-0.09646010637454676,0.07456707084963901,-0.004040519792283217,-0.009087782881268354,0.0975749293294483,-0.1260137928500399,-0.09556107231198503,-0.054163824394741766,-0.06136650388316706,-0.01809444069178658,0.02013524487763527,0.05336334724551631,0.06181152811301644,-0.04199062826531958,-0.11291645134859729,-0.05650038989433738,0.11779798229070942,-0.03951917756120976,-0.08071313302499011,-0.05262256089056059,-0.13391248410931397,0.12299325785264349,-0.018608625846557845,-0.08954786842458758,-0.06716348320645985,-0.10344511560967765,0.021439028057931693,-0.09536873043550972,-0.09741488506974921,0.10271181536179766,-0.04477376817558886,0.0024496871532858,-0.06621388407584373,-0.12434315558440875,-0.11349161941945796,0.0905848514863056,-0.02183686871030081,-0.0577029604994437,-0.029634553191092827,0.019250113236798583,-0.059636269946375976,0.008314576010142665,0.04729685414284494,-0.10686247119431501,-0.06569840099726754,0.007632255700458726,-0.10729721476462094,0.0067335991448522255,-0.030147693987566764,0.07776931621472073,0.06463982631339855,0.037106071196989596,0.022458250723030537,0.09759226161016246,0.010111377307264097,0.11094502880273842,0.06645342970737704,-0.07973323455024399,-0.031168225645549927,0.08642180803709018,0.07349840044694862,0.013241334730327414,0.029305552016024358,-0.12845971259144243,-0.11251091868755277,0.07404621240277409,0.04847661390203236,0.023565715355762084,0.013504258783699733,0.041659793326558975,0.037563017821582764,-0.14359795624929195,0.09842989965695811,0.026627674398549125,-0.0011037616412025962,-0.0202842642967251,0.028457166759157007,0.059164099025054505,-0.02190664206941241,0.029607467625646044,-0.12057199828206258,-0.024690564896292753,-0.0423010081872567,-0.051369870281741795,0.005014494722100411,0.05406993296578979,-0.1032435370768864,0.02735647585500583,-0.09947521698623765,-0.05348845571381537,-0.014079266483192097,0.09238060924580783,-0.01673402780686045,-0.04877834313048064,-0.11162943663037263,0.06562820271199582,-0.0315009408907504,-0.017193625655239263,0.014536912994059376,-0.053800363256876094,-0.03738042438988609,0.028144279184048795,0.0031413631607664977,-0.04801577257418561,0.06575650992547795,0.07864215422592749,-0.027835381597967408,0.056864966554566104,-0.06098049678565289,0.013470288843615378,-0.0208095935994049,-0.002348079943610781,-0.11579625052712798,-0.011832965611304454,0.0008074446171051793,-0.08088784177330155,0.03891566209743426,-0.019908108369675537,-0.0427111151353661,0.016480988386713285,0.03200004445163799,-0.03419661354880644,-0.039188375471466926,-0.040067945572626246,0.07113832327572837,0.01359964838061923,0.040189373204171604,-0.03643038198467904,0.02994623887638261,0.021335765341895,-0.05319060445692708,-0.016279649703907856,0.13987836376483076,0.003470313065371629,0.04842019161688527,0.0640970212010025,-0.05103910886272243,-0.07515426687450534,-0.03495398096761478,0.03622458246397171,-0.024707100419948277,0.01608082022700554,-0.04753950940932958,-0.056663954192444764,0.0004962941819469642,-0.11101496787410221,0.019626846383862237,0.03183439033191455,0.004900822776624133,-0.07038414292494731,0.10684975588448772,0.011922748269864811,-0.00445994366884374,-0.003516930369204223,-0.030371381687549978,-0.07435873140506513,0.04464393118768456,0.02379328920760199,-0.01709476369739236,0.031306869704325904,-0.010937309559884818,0.026588922968156455,-0.08561819378126984,0.0608736113582321,-0.13358030542112323,0.014511232920315927,-0.022092706006395953,-0.02710955673699656,0.03502301456645365,-0.0068153214108676585,-0.020769786759760923,0.03285795054663973,-0.03523525961870579,0.09844802945434071,-0.1018856464602444,-0.011034381707335363,-0.03679989945130375,0.08064776085848017,0.07919032696850416,-0.17094036868942872,0.17725276515368255,0.06468095737954659,-0.15052562936495964,0.0929701609729327,0.020587823714964728,0.10249462697648157,-0.1306101255000657,-0.03767786073426743,0.0780497945994452,0.11404973705463631,-0.011048240261593383,0.05088983116965091,-0.029896137508213984,0.05441955841861737,0.045568708164435305,-0.04592201701839796,0.0033793476372732598,-0.04119182735464364,-0.055847512160471346,0.04333534640079352,-0.03580836448262777,0.03882373624309628,-0.006762985904295737,-0.03474121413301147,0.04969622321076338,0.012441421831440104,0.03757151850452451,-0.01345607856067591,-0.002702858592846231,0.032251917236030554,0.09910235455533148,0.02670653510074927,0.03145427164888081,-0.0004725703834850974,-0.00010840473786790899,0.010526998297185045,0.08755247029669991,0.04005195650701185,-0.0009350511805081452,0.0873850338691152,-0.03805325616572364,-0.08744296659175958,0.07422217415460357,-0.0036804168424610867,0.12792001018616822,-0.050671481152034424,-0.11038217012476491,-0.055227468459737875,0.04968314890397236,0.139058620869714,-0.0671818591886832,0.007869018961643269,0.00210904322824522,0.05326884208415786,-0.06251114912179818,0.05122622747548284,0.11135043365593128,0.07667503526261997,0.006782473425140842,0.012579153743026846,0.155721378973771,0.11285391667489018,0.01644543786909431,0.05896236993917078,0.0018186197872181093,-0.012447744575025453,-0.029653342508153598,-0.01899165521131358,-0.006241061430667203,-0.030184365125782216,0.0046153480751530435,-0.05543526536262699,-0.041208229721438484,-0.07340840658322588,0.06610745259053112,0.07255473404348946,-0.09418989401007596,-0.10959755798954879,-0.14749043580473975,0.10640079104782059,0.01950726298480268,0.008301281686195199,-0.05769897314692021,0.011385497134171082,-0.014243027008582126,0.042511781773921196,-0.03379126069408002,-0.05724976213463278,0.051088057696207195,-0.03966880905707892,0.08395894385179727,0.0245116315178148,-0.07756598207031873,0.015472441490035444,0.10415648448517206,-0.05068716810975164,-0.08566953102886692,-0.05283657033833967,-0.011080838258404743,0.15858947180179836,-0.08009337938727702,-0.026099221519839354,-0.046128121508458554,-0.0039274393137708466,0.10182651486897358,0.1421123975831249,0.006807728043488166,-0.019121796514239203,0.04745700599210087,-0.0062449195532825,0.024821959559962126,-0.0815428491699923,0.02404627022454323,-0.07071698135314039,-0.0643675917198957,0.08993266350557455,-0.07575864321573218,0.05123233556813683,0.04527208757979906,0.02704939270413721,0.10972928549005168,0.09057340892994994,0.034204155408204755,0.062301261172790265,0.06499275747972266,-0.07620496774217995,-0.12021994649687853,0.03519940595291255,0.039909373053475666,-0.013616533000003785,-0.045896253682575654,0.025233832812436217,-0.02452836233512862,-0.09088824138864486,0.10889956774571674,-0.026799938557192076,-0.05344367221493846,0.11191404015105517,-0.13705353456752994,-0.05940501905023139,-0.1293070041109327,0.054257563752114824,-0.0380581185002024,-0.0504630814568965,0.10664094716199521,0.01803363650574491,-0.0985851969916373,0.10737885202426613,-0.06411400312604246,-0.0017033247729697628,0.08923673331650586,-0.027741497264084904,-0.0844068106962176,-0.07173707120272257,-0.11519488802055425,-0.07337992785948913,-0.0930671511826307,-0.008444766727122788,0.015280646674867468,0.04015981495926788,0.013205817201936105,-0.009327903708633364,0.019131237929438372,-0.029399329688037244,0.06374131102609694,0.06381560490768488,-0.10584205425457639,-0.03219442903990097,0.09137770501178326,0.08373395443378165,-0.0040049232891920415,0.00033152974139733074,-0.1084898941269221,-0.07087154013975187,0.019488612955325484,-0.026216603728598787,-0.09843904910630312,0.06179811695838573,0.008967026250708051,0.19616685606345682,0.1551216247799167,0.17018298016026379,-0.018054899968208436,-0.017594095831060443,0.030895363089145415,0.0676043760902175,-0.09887456281010538,-0.05246754595352153,0.020590084765826133,-0.035471883163085846,0.016266864343525107,0.14614981565617557,0.015056802071926589,-0.10463722362285056,0.1030722986345057,-0.16207090511995315,0.21583640866020137,0.13166472588661862,-0.0704099121764849,-0.09971245470592936,-0.04609586468364365,-0.0003150895994712009,-0.004440924218031265,0.23877214835479602,-0.13882476054854093,-0.11738374503207923,0.17722585834344048,0.19266631515913477,0.07016728091015452,-0.2191251903814586,-0.04739321235135481,0.11047213282911444,-0.08794225238070112,-0.007043224996334089,-0.16282556970591228,-0.15428913244580347,-0.2089149286843689,-0.0694756832693027,0.13428428399402048,0.059388318440492166,0.1187802173973549,0.08322917353754193,-0.1727790612017206,-0.09793641577353818,-0.07144188753622323,0.29325284953508807,-0.2083072797361997,-0.33707104444589214,-0.20427420573742683,0.009333253154922635,-0.4824757566779446,0.1828061242245781,-0.17157719476007124,-0.2105921834915847,0.5311802968829672,0.03606183654646375,0.09991114174329427,-0.26544682466414515,-0.5034164545206745,0.0864206283296154,-0.1659321574600987,0.08311584654589162,0.31510780850316844,0.11330293244562041,-0.8979047582162412,-1.211133455289124,-0.7335423068030141,0.9291202932684428,0.7452344227607819,0.17700607927969794,0.5410651693264872,-0.7920694377244385,-1.4149916434856107,-0.6843883956397987,-0.16155759194287234,1.48469933981362,-1.6409934922635254,1.6821326460618702,-1.058710805860364,1.6063706220379115,-1.292800502835899,-0.7220506776768882,0.36209915426766937,0.0449803554444242,1.9443711905723897,-1.355210979050785,-2.6875947594103042,-0.33648995020802486,0.36308224295129843,1.5244264569571553,-0.4469373319117226,-0.0623477569132466,-3.397510115641161,-0.5830140329410239,-1.3815619964091501,3.56026603748368,0.13243977073300237,0.8841271396408762,2.655933141236849,3.020468564405445,3.2204739785682817,-0.8430194201492478,0.5944917557826179,-1.4668285674397432,-0.09248292638497291,-0.0617848312151071,0.020348738544880084,-0.06875927967592843,-0.02302005014415892,0.016738134168963765,0.08826173793580541,-0.06825217351083578,-0.03608657622564501,0.09620678441652966,0.16717458385450867,0.05891880823075524,0.04832995438683649,0.03622860020027345,0.05075744260917814,-0.08250070852855379,0.050172664243049794,-0.015129509114477458,0.03151007059864569,-0.06788034949289072,-0.08576910126769245,-0.01679521051959623,-0.0024579519037404036,0.1170034785492992,0.10832276464811454,0.044927707817265336,-0.1041794711702276,0.012019323716086355,0.05090264493867651,-0.028144121751772597,0.07176153035417225,0.002627217609146335,0.13020419579479217,0.06765438126609982,-0.036191917342940624,0.07480290078562961,0.0574644722249779,-0.06003849794881813,0.05435629414718388,-0.0033311230986038725,0.028167641712216418,-0.06114379808901174,-0.10838166833849235,-0.03640071801808959,0.08901784104136423,-0.07731488454718229,-0.004055926496210553,0.027596449621570963,0.12872848523537586,0.10995441917206293,-0.10698778632662834,-0.024765725927209967,0.03906290043344948,0.1038689470477751,0.018751970770532325,-0.020330807380422148,0.010183811302995614,-0.030868422968653376,0.11941015926378075,0.05528821435443252,0.08943372561710597,-0.03890869502057813,0.0737214978953174,0.04544718612675715,-0.14711475782796188,0.08180859851861445,0.062268939149223115,-0.1460554212217168,0.040420969317225136,0.026193267963287366,0.024761719127124833,-0.018185248653551665,0.022517845296985695,-0.02825384877307424,-0.05520070232780092,0.05144790635102522,-0.12722065485564357,0.023732253409000682,0.07657190959174347,-0.008873826608116975,-0.049300300512527234,0.04128510980160367,-0.04791030375632781,0.16670155092941583,-0.05410745703628365,-0.0355803448868716,0.0522759821814563,0.03621267898655415,0.02811743840459913,0.0013851346222907577,-0.021192425368783994,-0.13674509972398,-0.09538058069413739,0.05446611653604456,-0.0861640511503012,0.04596191441663742,-0.05200585633839921,-0.037935088312190085,0.004972397392632935,-0.04946648318150809,0.07470398066064421,0.0010703467680893896,-0.21731064176230994,-0.017539626070729893,-0.027778436387601867,0.03652842906706491,-0.03764055273575777,0.014022536871200031,-0.11527511870082512,-0.02406104979954558,-0.051850880795654,-0.05073182751899251,-0.028345625966223382,-0.005333469103291573,0.13855025275859198,-0.05296691094958754,0.08211687294472295,-0.0379085088885638,-0.04641893874734838,-0.0780698648835881,0.05718505498791216,0.09765182682853704,-0.16717105619717545,0.16753293236502592,0.041987606144790406,-0.10831030237620479,-0.07126477065688613,0.018809792797284283,-0.13631394247782458,0.05706543169025955,-0.038035837809982154,0.03775568126220647,-0.02039372950049757,0.2975279040148578,-0.0007938559912552306,0.12757176893976518,0.029453092189432893,-0.08574410678407388,0.08475028224324585,-0.030330107318706914,0.06666651871644813,-0.009631714118272298,-0.12771989529775743,-0.07774236699986439,-0.11500114400053885,-0.0014362746049095703,0.043305441454230396,-0.08195919938690445,-0.06991814382300686,0.014750449297032122,0.01553385331454335,0.08960568926296618,0.036684824751399135,0.03764831293456476,-0.017561742415294356,0.026426396559901658,0.06928311173445659,-0.050798206512561624,0.029094045951462078,-0.05169823474171824,0.08273218207787653,0.03222759379400741,-0.05179888499433417,0.07988440451820307,0.048229830586490705,-0.10914179003154456,-0.01250422050712617,-0.046622699825811416,-0.0650612185883361,-0.017605494296424676,-0.02078909880313184,-0.030952383703210382,-0.07523669615365891,0.0735530554996674,-0.03465179263733955,0.005982324816861839,-0.02145312570276347,0.036161600390902646,0.012680353705925195,0.020488728636504083,0.12844053269747796,0.10593520874710831,-0.17209977062139406,0.0724277202005283,0.07413972977310017,-0.035531926011028406,-0.010142880435290156,-0.09324990572033226,-0.03452985083079533,-0.010033646377387979,0.08561306997256776,-0.008006680463099753,0.03715450549346205,0.0559720447593339,0.06662667950499523,0.04928530797357677,0.027188594739962206,0.020237216701937035,-0.04044825353027506,-0.005853352950748394,-0.09426971890760558,-0.05912782089288487,-0.023932467361515688,0.03549165307881585,-0.014494939674579911,0.08474889022235536,0.006708277859692906,0.04315966666329445,-0.0789708188317318,-0.17641013798476518,-0.11775369921693361,0.06324002554799862,-0.03645965922463597,0.05439549513029265,0.02722515914054824,-0.014708854884876369,-0.054518095102576616,0.00037828806395719935,-0.040099880861142405,-0.023010866617964622,-0.04242939139863261,0.0031668369681549175,-0.09035960972362252,0.013326744701310598,-0.014140940563073388,0.025305412522359932,0.06666393875241303,0.005132283904585714,-0.06720645201771647,0.06519156513921084,-0.017316103699897854,-0.031688418738973795,0.011276026889823534,-0.03821437032581061,0.033833920968896584,-0.0009105557815114878,0.015069274888617836,-0.04951448804187429,-0.007407731560649145,0.02134664861006228,-0.015324956468396446,0.05611235765549106,-0.07804437441843715,0.02097760766248619,-0.07371386453609537,-0.00883280370031548,-0.085752121554954,-0.10343829004753934,-0.03170103251216519,-0.03832725880259264,-0.05102207682695564,-0.004491090718808572,-0.13048780280821826,0.024265942907369987,0.01953418673844297,0.013224047083623524,0.005514050163020556,0.058262601752182175,-0.019038756536792312,0.019348447592630165,0.020837008812585652,0.07924241577001095,-0.07543376371817227,0.07178272544438138,-0.018265764931051077,0.006087479157084747,-0.08994538174739078,-0.025690370904408323,0.07393551445247112,0.03801237816859795,0.017596246361923352,-0.06729734463598969,-0.08197663556846123,0.004817332501422714,0.1424243300273522,0.01685635020607622,0.043092564494759615,-0.014176692836415072,-0.04899422938893481,0.01155660429301805,0.02068040576888548,-0.07165931119485701,-0.051340589825698356,-0.008612559754639653,0.025607988438819076,0.083649212676227,-0.09722383788171496,0.0931176197959204,-0.11057481679218502,0.0679130913890218,-0.037392022651967366,0.07807163485531733,-0.025090720701478837,-0.023287530651872862,-0.05644071044165981,0.03500959255259874,-0.05723728151189671,0.003205972756131672,-0.020200009552506927,0.03853397359019044,-0.030639549675971697,0.014992881407040757,-0.06682729456425272,0.005302510915255046,0.05974354342606638,0.039937553202290726,-0.042764660457158626,-0.016101204843316487,0.06829395234647759,0.05062523028937789,-0.15910224871500303,-0.08897403315695351,-0.020425953893911174,0.09841143269041443,0.0412852262003273,-0.07146771655512571,0.08482120645953127,-0.0449897554792984,-0.04264459217834858,0.0008419425549292914,0.04976785704137725,0.023636220153494692,-0.07531923428472456,0.05252930392070451,-0.019369272349854978,-0.08163728677282774,0.014637805758371094,-0.016002040829164572,-0.006215116594781835,0.04003712917818141,-0.04553775753801194,-0.05169379526898528,-0.11053925647959445,0.07016146820964231,-0.05154119743458331,-0.04561851812917961,-0.00605117771772672,0.030568747017682932,-0.1769952181419575,0.0055744336563348105,0.10531974935964128,-0.09501103820262131,-0.035281179640380265,0.14114279775652908,0.11901963036133613,0.07567271779760586,0.16969977696532365,0.0668020035964046,-0.026742514925880055,0.0901024741956352,0.07241558574660162,-0.005309812120054269,-0.2750478711077431,-0.03529907664187322,-0.010543037958103643,0.06894861347028877,-0.05941828155174016,0.021505281125609718,-0.058270626702018415,-0.10148181472963407,-0.018098799881185287,0.06022395009465712,-0.04942305574984563,0.015696459484216007,0.10906295841918333,-0.019115691079796077,-0.020084286778749766,0.04151296925986163,-0.17151351892308545,-0.10557888560809048,0.03225882435646743,-0.0369843662981854,-0.05063648900476764,-0.03788796751849118,0.018873663490769556,-0.04598241462361401,0.06376936927526583,0.026800211144099497,0.08454827603545635,-0.09211476733667821,-0.07229469459250766,0.007350177251720193,0.01725390001361035,0.09469610818524325,-0.019368534007601565,0.029917901381570765,0.14722593501652453,-0.08877089131184465,-0.05356861638216978,-0.0007277532497927319,0.028294767744452422,0.07658674786984422,-0.11881945181920642,-0.1543362698137136,-0.07435938447297367,0.22675682271927422,0.01961051168262247,-0.03061730832069924,-0.07572459830654475,-0.02604063203098157,0.005601541817858278,-0.03129078336577694,-0.22132021792681453,0.19539532059396272,0.026465431569250502,0.13962526992238053,0.056016652890846744,0.023356368852352972,-0.066078157360453,-0.0260429049630558,-0.11239766352741146,-0.2040838488505896,-0.08559985620404631,-0.08545291641055412,-0.15474230608044673,0.058031456767200534,0.08482914438580788,0.007756039984195037,0.08228035787941604,0.04065883175284131,-0.0006068865504978147,0.10943215177037105,-0.2923263796509531,-0.019200691347130667,-0.09681006972618374,-0.02278547609550008,-0.13744896701760262,0.06710007468170784,-0.08561612592527384,-0.10729611255651646,0.17275703828972494,0.0684373188660054,0.14926653046179933,-0.1009483348991322,0.01464743435659124,-0.06863232875516383,0.09682050518828798,-0.03132067945523685,-0.1548523550229946,-0.025250041868996657,-0.21918666050599414,-0.01634911661476364,0.23389195503179488,-0.000802655559315735,0.043903630356484105,-0.16485554174258243,0.22291196435899635,-0.046602029530473904,-0.1946969690616572,0.03780284554999988,-0.07448678198938459,0.024440867015227803,-0.740169444763025,-0.19789390988442274,0.755328453912542,-0.03289853737448869,0.18221497046324295,0.2165598106034255,-0.7566454826414357,-0.17939854040065792,0.1110078001512048,1.2359972275268245,-0.1497685342809087,-0.5229835915094904,-0.867572715048349,-0.13359170695300077,-0.9734909934257079,0.8243479739602548,0.3831587746395735,0.3340982709733275,-0.14337592072276534,0.6536646645236257,2.993745930620939,0.6768277737150337,-1.1116899154317659,-0.3177605563744135,-1.7355686625033895,0.18686171941488933,0.6470810951458863,-2.110076317130244,1.4485143065536072,-1.816281263804858,-0.86213905737334,2.2256404765035662,-0.921747802553706,2.740067950861184,-0.13946434283810558,-0.6997825581825708,-1.8283304577659796,1.8210874903054017,1.1275309504585618,-4.482723906119216,-2.364392804158789,-3.1562066246586227,-1.0879067232475983,0.8769343112937769,0.4207985589791553,-2.6475891249328227,-1.6806916943305852,-3.937109983406289,0.0946725601054112,0.03301183248743657,-0.030299279166565114,0.09726503109862158,0.09016931073020089,0.07770380307819773,-0.11826324578782615,0.01475016185693856,0.037686345300658945,-0.010653304150998225,-0.059437538694771225,0.010892350597766885,0.07046305622106076,0.014261257643649385,0.1093437301703192,0.007812495699951061,0.0153808020364905,0.037937407362674654,-0.09684075996863946,0.02860596988193812,0.0029681268461450704,0.04138646072803077,-0.17918371541674874,-0.05446065258034858,-0.0694079618746347,0.05802988931222647,-0.008280265116011076,-0.03550730138457764,-0.011502722225848784,-0.046279060359018465,0.005597863820912244,0.006165475424075175,-0.08744700870790426,0.15679591180594968,-0.11842316378567046,-0.028349729703372312,-0.06960745580958286,0.1227851181549989,-0.032253593082126435,-0.03528483395375583,0.06412343180838861,0.10234280073088119,-0.07475100623431886,-0.06305835028218493,0.06564738062146405,-0.03661124777393478,0.05010208293181564,-0.09794216938568691,-0.005647338193386977,0.027662629941375805,-0.10405538047036214,0.0375880040594409,0.07515885523587561,0.044431396143529256,0.008932469314143387,-0.0011359167709061205,0.08212644126125718,0.020055529827849184,0.023924463722684516,-0.02291623945828384,0.09378450156377119,0.04391975587308352,-0.043982055371544176,0.019384581549183866,-0.06812712572007149,0.049055057186983095,0.07769966486349474,-0.06052046014371429,-0.0036778811895582654,-0.03877684640864011,0.07255090203748903,-0.03241322210274496,-0.019662729663547193,-0.08535705448149515,-0.005308777132912616,-0.026861110636743707,0.054903030266644115,0.02343904188131938,-0.015166771421274159,-0.0447531073121618,-0.1776749698730465,0.03068255265522383,-0.10607903094147614,-0.03329560836837502,-0.005570317250124016,0.05804955118929677,-0.04008277879756832,-0.057366261895102584,-0.04779618803782917,0.04132245237473257,-0.06775669401471818,-0.06520298988484602,-0.08680348313582222,0.018646718294399563,-0.01942548207993066,-0.008559323117342308,0.08105354474077361,0.057023271721478516,-0.0044150488260177295,-0.007039921410019597,-0.0560660340873527,0.02422881798998111,-0.11778745187098819,-0.007886286267921637,0.09198053320774123,0.08265299456066627,0.150340794353785,0.03500744828155632,-0.010950755568830257,0.002402489319280927,0.018082569319020303,0.007423156293335367,-0.13397031645741228,0.041804297185523975,0.00037019205077182303,0.10111799078315563,0.01656835664374503,0.01282794020068177,0.009556747926875738,-0.10654404575697231,0.006810123639587454,0.13598078481547887,-0.15930183943388299,-0.06645499358244787,-0.021098587510080473,0.03179217485154238,-0.01413137980516894,0.017453930335255757,-0.13802658903462117,-0.09551967344595057,0.10890592828347047,0.032852807854316754,-0.020835453477470404,0.07212065704049296,-0.03328082654855485,-0.06226050192398654,-0.07006556745752923,0.12958911627402436,-0.13128521372510868,-0.06615924574572975,0.08912883918190628,-0.061489389111877533,-0.18326995915198502,0.03571714224047506,0.0020573524072930345,-0.03790512569785985,-0.01682482945032369,-0.041531096961751154,-0.06345039384142263,-0.05591478352873298,-0.094737317563485,0.04220827377108294,-0.09010752077703384,-0.0035717549279797593,-0.07039836778424213,-0.01980523617128787,-0.017594938259661484,0.1809161646463893,-0.02789243645398973,-0.050348564447081086,0.03487021955496795,-0.002486616658811212,-0.1919337197541116,0.10834400633116884,-0.0650218034884212,-0.10219937712045826,0.01137450581493843,0.14807047303039148,-0.053023616594843566,0.08313600668924034,-0.03631259794721044,-0.1281725439575532,-0.12658666861160203,0.041305110188883026,0.01510765243406734,0.08842173876146685,-0.10662684000409675,0.015553444395115381,-0.006015648309519146,-0.001738679831687762,0.007492303768695509,0.11733134541531644,0.033853477639055655,0.05928233434918694,-0.0076186388667513925,0.21764825325287873,0.08378777579617704,0.08146411518369076,0.006792630260486255,-0.15431446091637782,-0.004483168507814508,-0.07837612141628143,-0.04278001394174375,0.05226465182327103,0.09398455218865488,0.05659409931502176,-0.02329860683918382,-0.05997001140456128,0.03501996326757834,-0.10322135632316815,0.006207661482005394,-0.031813165568464294,-0.12387845001355482,-0.019020628894295004,-0.04637224430511473,0.07824605896001324,0.015520405963864873,0.019536933399546142,-0.06071067073507346,-0.10076811389664479,-0.10711303282761978,-0.05884666580780614,0.023626420416398335,0.07697101000495324,-0.07693552304668994,0.04361551971555335,0.12927318814215374,0.10077433721235715,-0.038093800763670665,-0.0428868669517967,-0.055907162217857576,-0.00542728933509974,-0.12756393044679934,-0.09155528736033113,0.031160035910380916,0.013575022442633568,0.020150166115899867,0.05991744587047114,-0.06775236070878378,-0.05381684436156523,0.034490688027562194,0.02343298139664712,-0.13916469725467387,-0.0781811810878143,0.055770240870022664,0.059711795977509766,-0.054408855543447994,0.05882901952293047,-0.09184420296810572,0.012605653305057637,0.014629834672501289,-0.0061280001541412785,-0.12148931441086383,0.04122288134704187,-0.07899980146397585,-0.03514624100749877,0.0338070468959385,-0.007207046048887045,-0.09120786045184527,-0.151697019687682,0.04338079490093101,-0.060448427892641154,0.006315102006193564,-0.03801884652448475,0.01147475071798633,0.1597660827085383,-0.04041789349730343,0.043670327503792766,-0.03082385164549148,-0.09865302024365273,-0.02881845750415307,-0.021273452476400098,-0.1564598137143032,-0.12003098707759477,-0.05509591782560995,0.15791751088648207,0.017983615160102592,0.03476498470384178,0.02282750401691099,0.0006663124919847174,-0.017068581156467765,-0.045110518378406704,-0.12833576500613303,0.07354729945986933,0.07685218076843925,0.016957536211536516,0.06296457818632964,-0.08320302572501971,-0.1001045820874634,-0.10086628171144463,0.05774377255431869,-0.00042800566849071327,-0.09373351918415944,0.009543781976409262,-0.008517675761969093,-0.014708342399912758,-0.01974555517367944,0.06545460666219659,-0.0939672130560239,0.07813974907695201,0.0628612333076818,0.05416009194960239,-0.24462210242077292,0.08805955489168595,-0.13512134747551827,0.0696579326869838,-0.10875158676316568,0.020319499176753807,-0.05889479291313501,0.08447302953689946,-0.008836354643027762,0.01620986426651822,-0.011877176464183938,-0.04082868251905611,0.05846753321420578,0.12527976628925117,0.022011434973406165,0.03194668020891381,-0.02825051789053983,-0.024883953577979925,-0.056914524163408045,0.032263429089102534,-0.0602798844319187,0.04863206265932941,-0.0040955800578375366,-0.0174720973662389,-0.059838676850608105,0.004282766482407519,-0.006878359382131565,-0.058533374808282,0.05055191344893049,0.06038803237952035,-0.13285721330657427,-0.008192689755069829,-0.003537817899760075,0.1956071132287515,-0.006859655340097886,-0.00890517829935791,-0.08649426307471475,-0.1512410091947242,-0.029114581008595552,0.022573536089388703,-0.19637469718685804,-0.009870777387651446,0.04370417328397162,-0.022162151202200966,-0.012321015764257598,0.08550313318493209,-0.11078289890242925,0.015153917855804194,0.02228157536367982,0.06170603472708537,-0.10796770102842265,0.04869871556122833,0.05796955616478953,-0.0020204930992665814,0.013916151591027747,-0.008569648992069549,-0.07356885569969612,-0.023295503993086983,-0.02116192484212931,0.02185175199061068,-0.13900217743806642,0.14099502749273138,0.059313893329259036,0.04918045230686683,0.022348662307228852,-0.034492937704600685,0.012564149309777034,-0.015959232979912443,0.04541524444260822,-0.02695640543717955,-0.008171293829557872,-0.03620547975948712,-0.03062023013993548,0.01061579471616946,0.04961804544907972,-0.0970147808807307,-0.0512357685846232,-0.07006351819641508,0.016684953104832437,-0.010791789304047601,-0.04213689526566975,0.10948708915574128,0.019941778716982876,0.26330832506114665,-0.004522952648619923,0.08459974594495236,-0.02393760757124039,0.010063521023234283,0.028892978491352955,0.000944786294868399,-0.11955026834518907,0.08313377436891241,0.048765153095323074,0.07691832243438733,0.14497532093778068,0.03004913860233048,0.0934930790858008,-0.020530034639458017,0.17800411475564978,0.038696448931496596,0.04842276074489575,0.04577517479446789,-0.04899847133996116,0.036984853624706805,-0.045569675231067884,0.13692381779603713,-0.037175994159278664,-0.05042792953269212,0.10581407574023406,-0.0014109787358422927,-0.06798366923363847,0.17381151537828138,-0.0539848246970613,-0.17661395294178647,-0.15554001694681235,0.004648303581764723,-0.007094125809403892,0.06919816224959915,0.020697063393241705,-0.09252713919327846,0.2691079178056917,0.024864014833236834,0.01579008680586913,-0.0056873749558991145,0.017028736015935467,-0.19351471998735795,-0.05039787059340283,0.09911118111966712,0.09727576601692699,-0.146121192723328,0.015978883530527187,-0.03960888561602321,0.15489554727713076,-0.10808212996524245,0.10317711190556214,0.11932702086341333,-0.042834584865326125,0.11101231690909288,-0.011731046074320043,-0.019082792353286335,-0.1309396650110387,-0.1346383288071636,0.09007198526029983,-0.01992221885502944,-0.16509721930451926,-0.12461785686981444,-0.1408629682924293,-0.011204391793769933,0.05673153382087912,0.09458880298632703,-0.25390830048204616,-0.03439797434037607,0.2632506147365462,-0.1811902816650481,-0.06258027255948938,0.25133240000029566,-0.32866827722356984,-0.03087475578136129,0.21473679731767095,0.429251133611214,-0.0373039982019971,-0.7335116140528873,-0.00012153444648549036,-0.06761378643056357,0.04817976222205572,-0.020939248727988514,0.46117781189114243,-0.09994174192070625,-0.4316740331623517,0.011984628791156159,-1.0816633048119282,0.23238910172972327,1.1321511792816688,-0.3102162781532428,0.32194215494353057,0.5745623730176388,-1.6954924552093162,0.06628787478498892,-0.2531050366360768,1.4864001670422367,-2.1029820794181817,-0.6353520662193655,0.2598929375875002,-0.07369167711744577,-0.5225073630453523,0.7890619973519867,-0.9679972609011087,-1.3035263028888089,-0.540912421055617,-0.3629503081806313,2.858799700511984,-4.088814153851204,-1.4565618337251476,-2.538708476971057,1.3701892930055608,1.420115232812843,0.9874519503501998,-2.511414743207386,-0.08953334150885499,2.5664879552933644,-1.0079076924235104,1.8067186219634046,3.890667914711619,-2.1992955231390825,-0.8147632693860178,-0.24870134863483484,-0.7259230719404662,-1.073537531928135,-0.033621903665240906,-0.06254560236500753,-0.06081297685595409,-0.02090905989011981,-0.10918293138191076,-0.04101124389668041,0.07136420477383162,0.054290191949767794,0.04166481487433136,0.029546711177149774,-0.014311893745348588,0.010301196034653407,-0.10451703001765071,0.05897486920353717,-0.04783941398227185,0.055577262525165934,0.04318370280993646,-0.048902958520912365,-0.05782160658029638,-0.07543257921205926,0.18019237404811322,0.058459482629657486,-0.0640720800645921,0.2196680766329164,-0.0011855712509853266,-0.06694961290182089,0.021208849156685496,0.12038172959465707,-0.21651595614394012,-0.04838353418323232,0.16096126936956576,0.03467244294113956,-0.08153086730886924,0.002217161456404919,0.14506725629218004,0.0021601629884508587,-0.03334262427934824,-0.007064648837738899,-0.0114588913771693,-0.02248252636759269,-0.04777208512421414,-0.08833291455308415,-0.1206289769392028,-0.11858657722337838,-0.10027008696889943,-0.006295150096756602,0.09995934570741545,0.09748064967333818,0.029804610455806645,0.10734444964820286,0.03495034645911486,0.0640535839416775,-0.03716805867655585,0.08211235559018393,0.047754984752372366,0.18902375076054725,0.010454898983663866,-0.035275515303437595,-0.021591887816439514,0.07302306758922242,0.05221823478244129,-0.04979970908018527,-0.23559800824373142,0.08487152556513099,0.04442744746758442,0.11966840338485404,0.04195080061506824,0.10888171877134678,-0.06412362265074958,0.013128405496501076,0.14291919857477492,0.05719692478716004,-0.08616373340423701,-0.06190565444414429,-0.04991034123855456,-0.005418534110070192,-0.0017055579582064525,0.07444563886607583,-0.04826611581744571,0.061961961903698584,-0.026018887361711363,0.14584903031464222,-0.17209052224308016,-0.033257788665483255,0.0026160751337732284,0.07822236103288205,0.08361613839496163,0.08306390301065193,-0.033372910662015656,-0.1813124629880598,-0.019866240318246454,0.06363546479956242,-0.13318710560726818,0.13065768661770885,0.03477518285688939,0.04934779684572593,0.020798766193908226,0.03004604717831366,0.005418307334123665,-0.039066820440004216,-0.03131392310648006,0.06657957033933172,-0.2178497612331497,-0.059120879015813865,-0.039701890913980714,0.044382461574296504,0.04288393534567135,0.20529915207944885,0.027272240236046626,-0.12266282558176744,-0.12679753938163657,0.11561049111545198,-0.12771933440592875,-0.011856045736002487,0.015535494867059858,-0.09007137085018306,-0.012119318601654161,-0.09064596961120747,0.004347226995796958,-0.055314614237953044,-0.014694422010334615,0.07210462654239584,-0.16539902964147743,-0.04994606017823639,-0.1023096163865515,-0.0405425445144972,-0.13887679715418672,0.00593641104970811,0.013899825749324352,-0.0610777453150092,0.0712157753682551,-0.06849592274195124,-0.05207825857587426,0.21864594726836006,-0.06321769731025137,0.07454154501460193,0.02162021514483582,-0.007760206310587716,-0.004393713702333498,-0.08134825944394847,0.021795467581920636,-0.03370217297054662,-0.14825653056546606,0.010454446517505092,-0.1405903941548388,0.07669599928506265,-0.055834928658426694,-0.1306778560152665,-0.0035147397252910154,0.06322893756289016,0.1511141616735907,-0.1112030627394573,-0.0607281958963175,-0.05119881068669169,0.03468973853889983,-0.09121935724017623,0.02034214872947588,-0.0013141306002057472,-0.008590168361553482,0.0010992404619723619,0.021310933676328157,-0.018915956635801763,-0.03889902692534687,0.018361202949220827,0.007315598353010048,0.03339132590502762,-0.008998561388600928,0.0811298818434925,-0.11351841116545254,0.11239747338021068,-0.1696048049309524,0.05944487805517725,-0.004904083023175085,0.18830407962607482,0.07603885442152529,0.035843947823945135,-0.05738204528482317,-0.062486942285900064,-0.022856989482790652,-0.023151661965526937,-0.08530068467782817,-0.01761850736541591,-0.0932079476729668,-0.10722654860436254,0.019157038085249368,0.006188496036735283,0.01339873442766242,-0.07818115261755838,-0.018203421329323097,0.011838485325290337,0.03982572857080131,0.026083364845394228,-0.06521836036152048,0.032288155276591984,-0.10799571283768065,0.024202016435558662,-0.0459390151180886,-0.021537783618615153,0.0016709930434888683,0.02419980856965845,0.009645628763634773,0.03650369917901243,-0.1305572193424292,-0.04409127141915704,-0.01036677545161212,0.21178297007249738,-0.048886853121645396,0.012630532189359587,-0.038438091523439986,-0.14098210385897622,0.09418417170004535,0.0008065113077542077,-0.07321655521264656,0.049058578431045455,0.10213874068043308,-0.12275192852629535,-0.0988556705396526,-0.011765485738600569,-0.03235634879781202,0.019188736309497786,-0.18288309404032593,-0.005125184312514877,-0.18964916664710227,-0.008525815817753373,-0.003459116859688903,0.09625072291758154,0.028286222682145677,0.12852491213774775,0.041503746869821063,-0.06704149292180073,0.05063302466768407,0.09363948666632407,-0.04864400346056426,-0.0672881801601267,-0.022020046694195945,0.0302365594480373,-0.0021113016001720513,-0.03719347285915906,-0.07998614360867742,-0.11695618560510838,0.030561429930285253,-0.015707896986816933,-0.10126388726344612,-0.04474855516559286,-0.10944834966649747,-0.08297813368644412,0.01543406543563957,-0.02346494448906882,-0.13150288107615704,-0.013804971768625897,0.061765808093873636,-0.07470897628294032,-0.12566669073764494,0.15331630881118746,-0.1894215832015501,0.022039459707147924,0.0059122095136042675,-0.014377260154118544,-0.017451013726520533,-0.11791270247810762,-0.019031108128618184,0.03618882031285305,-0.0384399071075933,0.03798541836927444,0.16932787848487027,-0.016613849829816157,0.16079278987282394,0.012068923041596043,-0.057530719666646905,-0.03204351317608767,0.0112878807622786,0.2227920881694936,-0.0645506321422871,-0.017165654509886958,0.04518846009941271,0.11785046064960414,0.043869527942022486,0.0005989063675627692,-0.02320950434168197,-0.0372800253552146,-0.01508970557105453,-0.057294432062617,-0.09910912065446734,0.13152882105550906,0.001378361153553505,-0.0507290591396556,0.0994171716419189,-0.0305639521393703,-0.01790667851641893,-0.08652524424382532,0.048403916515246705,0.04746627540917913,-0.04938098665998742,0.12558321578062193,-0.014312800792626174,0.13903292790276478,0.05051588519326539,0.0772167678809004,0.020262594631654102,0.02934373945845656,-0.04107783180793107,-0.015687768338154728,-0.10270109580649699,0.15538767133441986,0.0004847817481584779,0.08707381354456784,-0.07948190407784184,-0.03660520080489405,-0.003567906194210347,0.00787121450018597,-0.012561698110599824,0.11599110611735773,-0.0080965890232718,0.11513026606136299,-0.06093959290902112,0.08541259510253241,-0.0563260906117818,0.07897510462259089,-0.06775645064403574,-0.10996799751123117,-0.06903044043394185,0.013737973704472077,-0.20152699766525267,-0.00957787765188187,0.060375023038619816,0.04801023592538383,-0.04612264856270555,0.024618830830620005,-0.060773940824721,-0.0500598444854454,0.08653744515214738,0.021561655414397436,0.0026902168053544516,0.02099897522397376,-0.10751569886005115,-0.07446609122851772,0.11752814786355821,-0.027527335662497078,-0.100296937870745,-0.10702915872317487,0.03153591592750546,-0.03428859157492619,-0.017296527937560167,0.21850010880105436,0.010354555917788192,-0.036686349662503344,-0.008217409423394132,-0.015405091671166517,-0.13387908948728378,0.0021583859508778344,0.03705452364250054,-0.07783181414603503,-0.1690359595241417,0.05164147368508224,0.04473803310601825,0.022433865662763054,-0.025127382433470333,-0.06919194294775503,-0.06677171593864879,0.040827598115000856,0.055177798852965754,-0.12891451250892438,-0.11272833255145918,0.045032972113779865,0.04082135835180193,0.00759994931941046,0.03743058094898901,0.05513182870634643,-0.09196164344208924,0.05911693476810841,-0.038196698499961365,-0.044036679115219475,-0.10307844213637875,0.062062004892137215,0.015880647852580573,0.09458850493604515,-0.06836455302412138,0.06881640255009068,-0.12090511053839272,-0.07259901401112753,-0.11051745602169116,0.022590196068115898,-0.16620162283762838,0.13917782674124213,0.01526982081938436,0.031299623805356495,0.06953408156449672,-0.040182175854112635,-0.09849242439349262,-0.07391325967882421,-0.039838544893075485,-0.003691485600837445,-0.08275630314912445,0.0561364601097182,-0.12475536531289269,0.18249407454425517,-0.022074015059288653,0.023334742787834827,-0.09109679570683402,-0.11764179709120065,-0.19474807900362218,0.002432293584021639,-0.06623765504920856,0.09106384761527303,-0.04436211777877207,-0.01756946909397134,-0.033346801826062214,0.02254947016639769,-0.0710831283038223,0.08642209274131467,-0.07527496917006316,0.03381408261439264,-0.15191598835002845,0.01411780313334088,-0.0705773505507525,-0.10889771010458241,-0.028167326095296184,0.10447895923952641,0.1640941281442778,0.1416965571392207,0.1598127512915872,0.17099460018231527,-0.17739016789417758,0.1266262498820682,0.03985321075585601,0.01224896881700373,-0.12492157153851532,-0.00804602776675315,-0.017064627477360265,-0.08187695167212239,0.1832162045142444,-0.07293070170288385,-0.28143970539091634,-0.08676715322641022,-0.023626425140075794,-0.007264687854108845,-0.024172089790784963,0.19367677104408837,-0.06459348911824117,-0.04735413845946989,-0.014448689597872074,0.18210370246221727,-0.026123656537262094,0.06658459630972134,-0.02336996500487205,-0.04852498588639773,0.2848009051592618,-0.07405171757454379,-0.5039911002690998,-0.38904948572217507,0.10741755651141059,-0.014795786066364943,-0.2274843801591212,-0.47788950274823233,-0.06694023779781803,-0.08277412650920189,-0.05942435387868073,-0.24246090167359305,0.0468698577702955,-0.046637916889162426,0.09433099574733689,0.78997969453315,-0.09671276805022336,-1.3519343910944057,-0.8024719799893817,0.1884348396342018,-0.9282156616258289,0.0763534466156626,0.6765107730488223,0.45320849012877945,2.0820865022041506,-1.201753039415575,-1.4555102676010978,0.009005186434217246,-1.0635015330491182,-0.8207855012809794,0.7824677360437285,-0.9366272440595635,0.5392949631101772,-0.809383895954609,0.4953697026310974,1.4337162952648046,1.2558367319468466,-0.7062516451895053,-2.63414678416638,1.7763658887179101,-1.9183870259930274,1.9758431092832487,1.069498604048238,0.4936194819592903,5.170956804580745,-1.2867182594690285,-3.499992377288334,-1.0217838665870755,3.576223262075257,-3.601303084708507,5.11136661724332,1.6376692429264903,0.39825400769380953,-4.19606801178227,-0.002445224164852656,-0.15747449539900682,-0.05386164205907642,0.025860234587923005,0.05269443433117905,0.023792441872058378,0.08095888926429552,-0.0027081177882330052,0.119533796012006,-0.03394701048384699,-0.0995889342018037,-0.012033409886617073,0.06503522827429638,-0.13053506154364208,-0.15053103700535378,-0.13878172832547228,-0.017016421502071666,0.022512434686482993,0.016044891676490022,0.07762238659594944,0.12704822503453192,0.05608019272457146,0.06390173497997567,-0.09277808730071495,-0.015017270264439631,-0.09338283209136916,0.06070823566977765,-0.010806529687560663,0.08208356059658971,0.008315919269393375,-0.003971892619853281,0.0007122341585275747,0.02327438846570487,0.006391948539895051,0.05109071887444276,0.021733435389152612,0.15120466667810206,0.06107102920628985,-0.004275599168126799,-0.0793062120700351,-0.07778545800624359,-0.020360712947761424,0.12689517771844883,-0.02611130996789669,-0.022346151219317878,0.005598871339587345,0.03878899589845303,-0.019274916852786296,-0.047453274803904634,0.004904193498025214,-0.2154724421016645,0.0321246299447875,0.07705201734447237,-0.11280914152484296,-0.01760760745250127,0.03088902997167714,0.08071812367578017,0.0065086361510442205,0.06576576083442572,0.007448268841178318,-0.10512059955300712,0.03994641844048685,-0.0803122742876266,-0.10632156530406081,0.022595977588770993,-0.073106237473509,0.0044068966001600445,-0.021124838245817,0.00880086942183455,-0.04910178608014845,-0.023640706293607976,-0.018401150382661772,0.07020025040436816,-0.03313256711919496,0.038948438267173584,0.08235951898890088,0.04803700364255882,0.05884485032195352,-0.017886917025149374,0.007160592963389021,-0.08193851796231456,-0.02152080067705003,0.016765816470965863,0.027919724913879215,-0.018201914224452703,-0.07614623999751263,0.022348266299266936,0.03031557688684027,0.05728627602377696,0.02355295786935335,0.03469986814704599,0.05336406220817288,0.034832996253411914,-0.15295847125934856,0.03243135716074735,-0.09355946587285019,-0.0360468513764301,-0.07175390239239736,0.09715456959109857,0.0190981942074608,-0.02149215056524401,0.05007684048995441,0.12374510547055155,-0.053056814688886865,0.08929539616999918,-0.21157408730707597,-0.02099817545403794,0.07299929530917645,0.13578337468673637,0.06123054591355744,0.08573796417211456,-0.01594089479851128,0.12085421415708543,-0.028038333287871847,0.038855484168291786,-0.10305525985138617,-0.03740411228492859,0.002562013295776862,0.06683638814602012,0.06171148718688554,0.04398466034556779,-0.011224914436334985,0.1004053179102758,0.14287760662145405,0.060286409631299616,0.025961134181428498,0.10007253590780905,-0.026682673272813994,0.20726316353022528,0.010285500337724194,-0.06327264659197915,-0.04460408202814216,-0.007750826841746177,-0.07497321858713214,-0.04375793610279815,-0.06778423642356789,0.007971587233483934,-0.10636829515210112,0.019776978864808597,-0.014798703598759557,-0.10153951970487017,0.04196590559624809,0.048174657668476874,-0.10482460366867426,0.043488791457440217,-0.07287342630609209,-0.010868872430889957,-0.13287136069978714,0.042397386244008906,-0.002351620553406433,-0.029522866586492554,0.06409891799263087,0.0196362924144557,-0.04634528553840817,-0.016891473170118982,-0.03522637946544207,0.057448890205250694,-0.051328288182815845,0.04376663002416408,-0.0013475186931972368,-0.01404521599760265,0.0359817225365597,0.06390533943306048,-0.06549791978051721,0.1536301616702736,-0.14332628008781,-0.020544593546705042,0.0257639155981876,0.0073686716107479395,-0.031032855100006283,-0.08450265878965152,-0.06384401560220032,0.14007486413228967,-0.012947130354367807,0.07665202351899872,-0.07909891189381403,0.005153878066033082,-0.041614146196111174,0.045054333217921703,-0.03542386007074075,-0.047625695051346575,-0.01110996165224724,0.05469226178266219,-0.0425475157891579,0.06873559445039672,0.07274530162601843,0.12591883555051508,-0.03513432527444425,0.03194969414099658,0.08503927406877317,-0.03954605805558848,0.03776430833003402,0.07188475305734836,-0.1728442893623341,-0.09114881151541512,-0.014464320359106077,-0.12039081239293138,0.07315463018097385,0.0019261314611707515,0.04798306799381084,-0.13062341751700537,0.009044250528304865,0.0417458074092366,-0.014507682339681931,0.0517370920454249,0.02427034320241051,-0.15967983924148774,0.040861125139413236,-0.028796231870126466,0.02385254461971946,-0.0411563260600809,0.021686782281011986,0.151244661119553,0.042209624438090294,-0.047992880212272625,0.20874367683491651,-0.08674457211058541,-0.04219530871383041,0.07056230385766997,0.06712071906981373,0.029715893089473547,0.052723613617693496,-0.06967976697897105,-0.12237206516887655,0.1236971145703401,-0.03933270550124923,-0.04937177816310746,0.06897492247701,-0.0641756215790023,0.13847050295290397,0.05059520815114299,